FANN_FLO_2.1
num_layers=3
learning_rate=0.700000
connection_rate=1.000000
network_type=0
learning_momentum=0.000000
training_algorithm=2
train_error_function=1
train_stop_function=0
cascade_output_change_fraction=0.010000
quickprop_decay=-0.000100
quickprop_mu=1.750000
rprop_increase_factor=1.200000
rprop_decrease_factor=0.500000
rprop_delta_min=0.000000
rprop_delta_max=50.000000
rprop_delta_zero=0.100000
cascade_output_stagnation_epochs=12
cascade_candidate_change_fraction=0.010000
cascade_candidate_stagnation_epochs=12
cascade_max_out_epochs=150
cascade_min_out_epochs=50
cascade_max_cand_epochs=150
cascade_min_cand_epochs=50
cascade_num_candidate_groups=2
bit_fail_limit=3.49999999999999977796e-01
cascade_candidate_limit=1.00000000000000000000e+03
cascade_weight_multiplier=4.00000000000000022204e-01
cascade_activation_functions_count=10
cascade_activation_functions=3 5 7 8 10 11 14 15 16 17 
cascade_activation_steepnesses_count=4
cascade_activation_steepnesses=2.50000000000000000000e-01 5.00000000000000000000e-01 7.50000000000000000000e-01 1.00000000000000000000e+00 
layer_sizes=2 201 2 
scale_included=0
neurons (num_inputs, activation_function, activation_steepness)=(0, 0, 0.00000000000000000000e+00) (0, 0, 0.00000000000000000000e+00) (2, 4, 5.00000000000000000000e-01) (2, 4, 5.00000000000000000000e-01) (2, 4, 5.00000000000000000000e-01) (2, 4, 5.00000000000000000000e-01) (2, 4, 5.00000000000000000000e-01) (2, 4, 5.00000000000000000000e-01) (2, 4, 5.00000000000000000000e-01) (2, 4, 5.00000000000000000000e-01) (2, 4, 5.00000000000000000000e-01) (2, 4, 5.00000000000000000000e-01) (2, 4, 5.00000000000000000000e-01) (2, 4, 5.00000000000000000000e-01) (2, 4, 5.00000000000000000000e-01) (2, 4, 5.00000000000000000000e-01) (2, 4, 5.00000000000000000000e-01) (2, 4, 5.00000000000000000000e-01) (2, 4, 5.00000000000000000000e-01) (2, 4, 5.00000000000000000000e-01) (2, 4, 5.00000000000000000000e-01) (2, 4, 5.00000000000000000000e-01) (2, 4, 5.00000000000000000000e-01) (2, 4, 5.00000000000000000000e-01) (2, 4, 5.00000000000000000000e-01) (2, 4, 5.00000000000000000000e-01) (2, 4, 5.00000000000000000000e-01) (2, 4, 5.00000000000000000000e-01) (2, 4, 5.00000000000000000000e-01) (2, 4, 5.00000000000000000000e-01) (2, 4, 5.00000000000000000000e-01) (2, 4, 5.00000000000000000000e-01) (2, 4, 5.00000000000000000000e-01) (2, 4, 5.00000000000000000000e-01) (2, 4, 5.00000000000000000000e-01) (2, 4, 5.00000000000000000000e-01) (2, 4, 5.00000000000000000000e-01) (2, 4, 5.00000000000000000000e-01) (2, 4, 5.00000000000000000000e-01) (2, 4, 5.00000000000000000000e-01) (2, 4, 5.00000000000000000000e-01) (2, 4, 5.00000000000000000000e-01) (2, 4, 5.00000000000000000000e-01) (2, 4, 5.00000000000000000000e-01) (2, 4, 5.00000000000000000000e-01) (2, 4, 5.00000000000000000000e-01) (2, 4, 5.00000000000000000000e-01) (2, 4, 5.00000000000000000000e-01) (2, 4, 5.00000000000000000000e-01) (2, 4, 5.00000000000000000000e-01) (2, 4, 5.00000000000000000000e-01) (2, 4, 5.00000000000000000000e-01) (2, 4, 5.00000000000000000000e-01) (2, 4, 5.00000000000000000000e-01) (2, 4, 5.00000000000000000000e-01) (2, 4, 5.00000000000000000000e-01) (2, 4, 5.00000000000000000000e-01) (2, 4, 5.00000000000000000000e-01) (2, 4, 5.00000000000000000000e-01) (2, 4, 5.00000000000000000000e-01) (2, 4, 5.00000000000000000000e-01) (2, 4, 5.00000000000000000000e-01) (2, 4, 5.00000000000000000000e-01) (2, 4, 5.00000000000000000000e-01) (2, 4, 5.00000000000000000000e-01) (2, 4, 5.00000000000000000000e-01) (2, 4, 5.00000000000000000000e-01) (2, 4, 5.00000000000000000000e-01) (2, 4, 5.00000000000000000000e-01) (2, 4, 5.00000000000000000000e-01) (2, 4, 5.00000000000000000000e-01) (2, 4, 5.00000000000000000000e-01) (2, 4, 5.00000000000000000000e-01) (2, 4, 5.00000000000000000000e-01) (2, 4, 5.00000000000000000000e-01) (2, 4, 5.00000000000000000000e-01) (2, 4, 5.00000000000000000000e-01) (2, 4, 5.00000000000000000000e-01) (2, 4, 5.00000000000000000000e-01) (2, 4, 5.00000000000000000000e-01) (2, 4, 5.00000000000000000000e-01) (2, 4, 5.00000000000000000000e-01) (2, 4, 5.00000000000000000000e-01) (2, 4, 5.00000000000000000000e-01) (2, 4, 5.00000000000000000000e-01) (2, 4, 5.00000000000000000000e-01) (2, 4, 5.00000000000000000000e-01) (2, 4, 5.00000000000000000000e-01) (2, 4, 5.00000000000000000000e-01) (2, 4, 5.00000000000000000000e-01) (2, 4, 5.00000000000000000000e-01) (2, 4, 5.00000000000000000000e-01) (2, 4, 5.00000000000000000000e-01) (2, 4, 5.00000000000000000000e-01) (2, 4, 5.00000000000000000000e-01) (2, 4, 5.00000000000000000000e-01) (2, 4, 5.00000000000000000000e-01) (2, 4, 5.00000000000000000000e-01) (2, 4, 5.00000000000000000000e-01) (2, 4, 5.00000000000000000000e-01) (2, 4, 5.00000000000000000000e-01) (2, 4, 5.00000000000000000000e-01) (2, 4, 5.00000000000000000000e-01) (2, 4, 5.00000000000000000000e-01) (2, 4, 5.00000000000000000000e-01) (2, 4, 5.00000000000000000000e-01) (2, 4, 5.00000000000000000000e-01) (2, 4, 5.00000000000000000000e-01) (2, 4, 5.00000000000000000000e-01) (2, 4, 5.00000000000000000000e-01) (2, 4, 5.00000000000000000000e-01) (2, 4, 5.00000000000000000000e-01) (2, 4, 5.00000000000000000000e-01) (2, 4, 5.00000000000000000000e-01) (2, 4, 5.00000000000000000000e-01) (2, 4, 5.00000000000000000000e-01) (2, 4, 5.00000000000000000000e-01) (2, 4, 5.00000000000000000000e-01) (2, 4, 5.00000000000000000000e-01) (2, 4, 5.00000000000000000000e-01) (2, 4, 5.00000000000000000000e-01) (2, 4, 5.00000000000000000000e-01) (2, 4, 5.00000000000000000000e-01) (2, 4, 5.00000000000000000000e-01) (2, 4, 5.00000000000000000000e-01) (2, 4, 5.00000000000000000000e-01) (2, 4, 5.00000000000000000000e-01) (2, 4, 5.00000000000000000000e-01) (2, 4, 5.00000000000000000000e-01) (2, 4, 5.00000000000000000000e-01) (2, 4, 5.00000000000000000000e-01) (2, 4, 5.00000000000000000000e-01) (2, 4, 5.00000000000000000000e-01) (2, 4, 5.00000000000000000000e-01) (2, 4, 5.00000000000000000000e-01) (2, 4, 5.00000000000000000000e-01) (2, 4, 5.00000000000000000000e-01) (2, 4, 5.00000000000000000000e-01) (2, 4, 5.00000000000000000000e-01) (2, 4, 5.00000000000000000000e-01) (2, 4, 5.00000000000000000000e-01) (2, 4, 5.00000000000000000000e-01) (2, 4, 5.00000000000000000000e-01) (2, 4, 5.00000000000000000000e-01) (2, 4, 5.00000000000000000000e-01) (2, 4, 5.00000000000000000000e-01) (2, 4, 5.00000000000000000000e-01) (2, 4, 5.00000000000000000000e-01) (2, 4, 5.00000000000000000000e-01) (2, 4, 5.00000000000000000000e-01) (2, 4, 5.00000000000000000000e-01) (2, 4, 5.00000000000000000000e-01) (2, 4, 5.00000000000000000000e-01) (2, 4, 5.00000000000000000000e-01) (2, 4, 5.00000000000000000000e-01) (2, 4, 5.00000000000000000000e-01) (2, 4, 5.00000000000000000000e-01) (2, 4, 5.00000000000000000000e-01) (2, 4, 5.00000000000000000000e-01) (2, 4, 5.00000000000000000000e-01) (2, 4, 5.00000000000000000000e-01) (2, 4, 5.00000000000000000000e-01) (2, 4, 5.00000000000000000000e-01) (2, 4, 5.00000000000000000000e-01) (2, 4, 5.00000000000000000000e-01) (2, 4, 5.00000000000000000000e-01) (2, 4, 5.00000000000000000000e-01) (2, 4, 5.00000000000000000000e-01) (2, 4, 5.00000000000000000000e-01) (2, 4, 5.00000000000000000000e-01) (2, 4, 5.00000000000000000000e-01) (2, 4, 5.00000000000000000000e-01) (2, 4, 5.00000000000000000000e-01) (2, 4, 5.00000000000000000000e-01) (2, 4, 5.00000000000000000000e-01) (2, 4, 5.00000000000000000000e-01) (2, 4, 5.00000000000000000000e-01) (2, 4, 5.00000000000000000000e-01) (2, 4, 5.00000000000000000000e-01) (2, 4, 5.00000000000000000000e-01) (2, 4, 5.00000000000000000000e-01) (2, 4, 5.00000000000000000000e-01) (2, 4, 5.00000000000000000000e-01) (2, 4, 5.00000000000000000000e-01) (2, 4, 5.00000000000000000000e-01) (2, 4, 5.00000000000000000000e-01) (2, 4, 5.00000000000000000000e-01) (2, 4, 5.00000000000000000000e-01) (2, 4, 5.00000000000000000000e-01) (2, 4, 5.00000000000000000000e-01) (2, 4, 5.00000000000000000000e-01) (2, 4, 5.00000000000000000000e-01) (2, 4, 5.00000000000000000000e-01) (2, 4, 5.00000000000000000000e-01) (2, 4, 5.00000000000000000000e-01) (2, 4, 5.00000000000000000000e-01) (2, 4, 5.00000000000000000000e-01) (2, 4, 5.00000000000000000000e-01) (2, 4, 5.00000000000000000000e-01) (2, 4, 5.00000000000000000000e-01) (2, 4, 5.00000000000000000000e-01) (2, 4, 5.00000000000000000000e-01) (0, 0, 0.00000000000000000000e+00) (201, 4, 5.00000000000000000000e-01) (0, 0, 0.00000000000000000000e+00) 
connections (connected_to_neuron, weight)=(0, 3.49862351071009491932e+00) (1, 3.76692113520808558036e-01) (0, 3.48965157506471657101e+00) (1, 3.37292279399667049855e-01) (0, -3.15075160337739257344e+00) (1, -7.47185990927616616730e-01) (0, 3.49614012899312553984e+00) (1, 3.35813462085756464504e-01) (0, -2.99384450604912188965e+00) (1, 1.95351126583774292733e-01) (0, -2.34078164507560737562e+00) (1, -6.47909886601750639734e-01) (0, 3.49215964175900728250e+00) (1, 1.75683295103547354454e-01) (0, -2.27437295173452325159e+00) (1, -7.92876945488175999266e-01) (0, 3.47301511805993623483e+00) (1, 2.00757762418465462995e-01) (0, -6.48641002416753398307e+00) (1, -9.59388719711958493086e-01) (0, 3.43994927881369472189e+00) (1, 1.08389761292909531099e-01) (0, -2.53508210972162562058e+00) (1, -6.18174441501999960558e-01) (0, -3.38878131755836120576e+00) (1, -2.75219677833885636997e-02) (0, 3.49826477356635390237e+00) (1, 3.25140698155429175298e-01) (0, -3.58217208321171343144e+00) (1, -2.05882254946369441795e-01) (0, -2.48254914780290469878e+00) (1, -6.84008952566724892641e-01) (0, 3.52965641330677382115e+00) (1, 4.03481079108524098853e-01) (0, 3.49828825408903298921e+00) (1, 3.75622008981413679773e-01) (0, -2.99918878522635967698e+00) (1, 2.24831623398798446933e-01) (0, -2.98316669529337952227e+00) (1, 1.75613907399176344404e-01) (0, -4.09513781564198875440e-01) (1, -5.08884846741869001363e+00) (0, 3.47169565185327133605e+00) (1, 2.44158662204483956071e-01) (0, 3.49261857259398400544e+00) (1, 3.60210634019174635867e-01) (0, -3.31444354636964577665e+00) (1, 5.33464470596903619914e-02) (0, 3.68014679262704103024e+00) (1, 4.11488596281034957336e-01) (0, -4.16909580309196503567e-01) (1, -5.21322108382527638071e+00) (0, 3.47115488174703656910e+00) (1, 3.10952959941425244317e-01) (0, 3.91212948100413937524e+00) (1, -2.56976147888313355416e-01) (0, -3.56638254977725344119e+00) (1, -2.17729919337889848974e-01) (0, -2.99881622665431946118e+00) (1, 2.27178358231561711156e-01) (0, -2.32006633465916189962e+00) (1, -7.49261781382951408403e-01) (0, 3.45153840267666334185e+00) (1, 1.15808531458542293691e-01) (0, 3.56113520750188605746e+00) (1, 3.69697147711459117581e-01) (0, -3.37109213631080883999e+00) (1, -7.84664974938550363603e-02) (0, -2.99006865279797784396e+00) (1, 1.61981933658123689046e-01) (0, -2.49014387002127790538e+00) (1, -6.23689710719584566867e-01) (0, 3.48799471777093605951e+00) (1, 2.23339266683605153219e-01) (0, -2.99721327690879846273e+00) (1, 1.95660385283191351480e-01) (0, -1.07454852512891232408e+01) (1, -8.69633923396047725518e-01) (0, 3.46769774782544848435e+00) (1, 2.92974840870691921602e-01) (0, 3.47424375332661883320e+00) (1, 2.07782257042128160052e-01) (0, -2.98150843313704516646e+00) (1, 2.37678949125969707357e-01) (0, 3.47121606292515894054e+00) (1, 2.93153728655838885508e-01) (0, -2.43467104683463375636e+00) (1, -6.19288306120969411772e-01) (0, 3.71845193224751557892e+00) (1, 5.86687143702235291975e-01) (0, 3.46694148952386349549e+00) (1, 2.26677222487327467704e-01) (0, -7.29060196213942912635e+00) (1, -9.12335361666592570273e-01) (0, -3.53393037377977581315e+00) (1, -2.54729350738408744093e-01) (0, 3.81804933047033756566e+00) (1, 4.24373285243697884184e-01) (0, -2.99086315190506368822e+00) (1, 1.60080383747101651082e-01) (0, -3.33682489542790072790e+00) (1, 3.78123143782232370991e-02) (0, 4.10757951867138615398e+00) (1, 3.75975875795070191288e-01) (0, 1.77905316780948771771e-02) (1, -7.98646778987669403449e+00) (0, 3.46552844645290614167e+00) (1, 1.57590665065220597585e-01) (0, -2.30917616676018644384e+00) (1, -7.64960078462228354468e-01) (0, -3.33515707244638548445e+00) (1, 1.85567853180961805926e-02) (0, 3.45969614301991823524e+00) (1, 1.31551005703137435798e-01) (0, -3.36933329406263526451e+00) (1, -3.31025666969067544620e-02) (0, -3.90862182866710305973e+00) (1, -5.76780909611189288033e-02) (0, 1.77905316780948771771e-02) (1, -7.98133240269445831672e+00) (0, -3.41233168030216393873e+00) (1, -5.66796689513705646835e-03) (0, 4.08824656535447150674e+00) (1, 3.70933205077184913190e-01) (0, 4.02287318081752864884e+00) (1, 3.93053922678169909144e-01) (0, 3.87895450411835662763e+00) (1, 4.28430482960478753451e-01) (0, 3.47543507701765941320e+00) (1, 2.22487001690111457775e-01) (0, -3.44462966303647366573e+00) (1, 1.57258429009092509654e-01) (0, -2.30799246554523929120e+00) (1, -7.53402461731347727891e-01) (0, -2.36560078153745489971e+00) (1, -7.25722759280583828989e-01) (0, 3.50407140880283174411e+00) (1, 3.58999825265206518043e-01) (0, -2.98382786940065880543e+00) (1, 1.99646891060278858232e-01) (0, -2.27409302155876558160e+00) (1, -8.01701662569627604427e-01) (0, -3.38345612784675964235e+00) (1, -1.03087304863082290796e-01) (0, 3.47983320514664651313e+00) (1, 1.83450654457760931049e-01) (0, 1.77905316780948771771e-02) (1, -5.30684659197667674135e+00) (0, -2.35535331146255977330e+00) (1, -6.25567442176835353251e-01) (0, -3.45408239842982967005e+00) (1, -1.70690922906758607569e-01) (0, -3.38532671592157319296e+00) (1, -3.01554511841119789184e-02) (0, 3.52728932794184402155e+00) (1, 2.79144310097033609974e-01) (0, -2.97611088483898011958e+00) (1, 2.58848041957584151795e-01) (0, -2.36445400304021990934e+00) (1, -7.02901925038151742520e-01) (0, -3.42089320661828510950e+00) (1, -1.28519762764479072992e-01) (0, 1.77905316780948771771e-02) (1, -5.40428655907252863955e+00) (0, 1.77905316780948771771e-02) (1, -7.99276150392317230597e+00) (0, -3.28775573292454259544e+00) (1, -7.08142774854661372075e-01) (0, -3.66251968897906809985e+00) (1, -2.57473279343163774513e-01) (0, 4.02745153328511928947e+00) (1, 5.51875983785438881113e-02) (0, 3.48631773257258004151e+00) (1, 3.04958470797572267497e-01) (0, -2.28693305367538490813e+00) (1, -7.76073077633246843909e-01) (0, -3.25195258752685179005e+00) (1, -2.43486754059525495331e-01) (0, -3.29868174938540459351e+00) (1, 4.19762050795177282803e-02) (0, -2.38181386100871517186e+00) (1, -7.20407556675813243174e-01) (0, -6.66326368363188947797e+00) (1, -9.52187635132044407626e-01) (0, -2.25544170414545730452e+00) (1, -8.08999010458097633780e-01) (0, 4.18984403857641041213e+00) (1, -2.32830288670698853926e-01) (0, -3.45829111981181069879e+00) (1, -1.66098422969692793849e-01) (0, -2.99163375173908940852e+00) (1, 2.42819905002318869869e-01) (0, 3.48885184487836186307e+00) (1, 2.08786071595866040695e-01) (0, -2.99959356994780446115e+00) (1, 2.13030166591091973949e-01) (0, -2.34326077243619312895e+00) (1, -7.20839381831643866150e-01) (0, 3.38025960552226978351e+00) (1, 5.94599714801855583346e-02) (0, -3.59881461351742704124e+00) (1, -2.70906595385612625204e-01) (0, 3.50400844550352452700e+00) (1, 3.54965652062141479028e-01) (0, -3.54105734725899434778e+00) (1, -5.21211643456943596320e-01) (0, -3.14297624444728151971e+00) (1, -7.46052919816775905737e-01) (0, 3.49310850249490023600e+00) (1, 3.38569202435766214432e-01) (0, -3.38593498311950424906e+00) (1, 6.72274058826178716464e-02) (0, 4.05222005384142835993e+00) (1, 4.16104588246080597802e-01) (0, -2.35414581179695758806e+00) (1, -7.16676798946378479371e-01) (0, -3.01190322752303218934e+00) (1, 1.73107142486094683909e-01) (0, 3.67960609239173885854e+00) (1, 5.44648549724114139359e-01) (0, 3.95270249379701299475e+00) (1, 3.86392596070708138623e-01) (0, -3.37573774170724627552e+00) (1, -4.26945496764414567092e-02) (0, 3.70305504977937660627e+00) (1, 5.81373919551389950477e-01) (0, -2.32427886556659935025e+00) (1, -7.74451639750346587654e-01) (0, 3.95664995439510613906e+00) (1, 3.67869036576976393693e-01) (0, -3.32667399361487348131e+00) (1, 4.79659302143684920794e-02) (0, -2.98712696538912814148e+00) (1, 1.68758965638160535194e-01) (0, -6.02916630067997516562e+00) (1, -1.02958752437245659728e+00) (0, 3.53081038618257281314e+00) (1, 3.53909818942041431988e-01) (0, 3.46610453899871329142e+00) (1, 2.28409391530715488727e-01) (0, -2.99391504498514482435e+00) (1, 2.01565068497107202639e-01) (0, 3.47246535131589029177e+00) (1, 1.94189511548236076743e-01) (0, -3.00095262091274506133e+00) (1, 2.12228320206089976496e-01) (0, 3.46362126788364754759e+00) (1, 2.69704243355420814066e-01) (0, 3.46731740446786540488e+00) (1, 1.38672173780130109089e-01) (0, 3.69782240825665464712e+00) (1, 5.73413201340979616916e-01) (0, 5.13115055866075486790e+00) (1, 2.09755422068358510224e-01) (0, 3.52412696534865199638e+00) (1, 3.68664923669806132711e-01) (0, -4.85150122040570119797e-01) (1, -5.16758127009236734040e+00) (0, 3.45217109605963612395e+00) (1, 1.08810776531194530747e-01) (0, -3.39318400914142470626e+00) (1, -8.12603291898140733807e-02) (0, -3.44770249699214126338e+00) (1, -3.47305601226328003461e-02) (0, -2.31339643713759768318e+00) (1, -7.07533356804097457449e-01) (0, 3.55082039315956121683e+00) (1, 3.24185859611748283804e-01) (0, 3.46020534364999932109e+00) (1, 2.79803935068153875054e-01) (0, -2.48282582189303857589e+00) (1, -6.98383064194494251886e-01) (0, 3.49505031107127761558e+00) (1, 1.92979887436583397164e-01) (0, -2.25424847122853133641e+00) (1, -8.11788388624296475271e-01) (0, 3.76644614622563178585e+00) (1, 5.36467993887254523955e-01) (0, 3.48175764104929941212e+00) (1, 2.90461178097748073945e-01) (0, 4.00592841825398782163e+00) (1, 4.01871457780441199148e-01) (0, 3.54111967670112015583e+00) (1, 3.71881329176609376486e-01) (0, -3.38290365850803986802e+00) (1, -5.00324046047464152109e-02) (0, -3.36983777336535617053e+00) (1, -9.32953809825062402306e-02) (0, -3.37031643555599513817e+00) (1, -2.74541133020172536949e-02) (0, -3.38295923618937655064e+00) (1, -3.72920509823354617840e-01) (0, -3.23981192350110625000e+00) (1, -7.22314999582520766985e-01) (0, 3.95401953167094921682e+00) (1, 3.63234775075186921978e-01) (0, 3.47328282544776856255e+00) (1, 2.92768797519707191235e-01) (0, 3.43661145784171795370e+00) (1, 1.03629324579214837643e-01) (0, -3.27033568597831614255e+00) (1, -7.14674057106115645510e-01) (0, 1.37312731041990376823e-01) (1, -5.12272972842326268506e+00) (0, 3.64836735720215887824e+00) (1, 8.09821576903125284197e-01) (0, -3.41140781395226122541e+00) (1, -1.37169238268473520082e-01) (0, -2.33335998883138939775e+00) (1, -7.75883550378903774636e-01) (0, 3.47071284599979712482e+00) (1, 2.16898827823838125095e-01) (0, -2.99627638027200804416e+00) (1, 2.54408136671749163238e-01) (0, -3.32697185237579873274e+00) (1, -6.97127893203217108287e-01) (0, -2.32436824575029721274e+00) (1, -7.42769961678895640489e-01) (0, -6.64847936938867078993e+00) (1, -9.56495333208287501492e-01) (0, -3.37441471681580074105e+00) (1, -3.66676882503275750058e-02) (0, -3.03856119041031602634e+00) (1, 2.40488012539123829914e-01) (0, 3.47589806252486566152e+00) (1, 1.80626566365413548931e-01) (0, -3.39144718130543898482e+00) (1, -1.10768467620479468816e-01) (0, -2.26671933197741015675e+00) (1, -8.02448061733827433528e-01) (0, -3.27687596353200216726e+00) (1, -7.12160488600351193611e-01) (0, 4.08623544234191538038e+00) (1, 1.23569943937838808146e-01) (0, -2.43844201795256809717e+00) (1, -6.98853059904485873766e-01) (0, 3.99380555098974721062e+00) (1, 3.57356755234945977495e-01) (0, 4.01603823712052143691e+00) (1, 3.75145979458391787276e-01) (0, 3.46977630186656682554e+00) (1, 2.40345202278353181624e-01) (0, -3.50712261243440615033e+00) (1, -1.65501414504128308014e-01) (0, -2.99956130868263581846e+00) (1, 2.36108584712043823028e-01) (0, 1.77905316780948771771e-02) (1, -8.07378479467797482982e+00) (0, 3.46315266064783866540e+00) (1, 2.89114628563918674153e-01) (0, 3.39543230841153498289e+00) (1, 8.51628577635766270681e-02) (0, 3.46528693704570223133e+00) (1, 2.85296776592286249752e-01) (0, 1.77905316780948771771e-02) (1, -5.33758622720578745913e+00) (0, 3.50898250287747570653e+00) (1, 3.55716758897578089194e-01) (0, 3.48094681853934195814e+00) (1, 3.10370935486354415644e-01) (0, 3.45388887795274746040e+00) (1, 1.00945506238913698671e-01) (0, -2.99451657339168342276e+00) (1, 1.75242585363386910169e-01) (0, 3.48514864492696885279e+00) (1, 1.62358395123673726612e-01) (0, -2.39854743540268433577e+00) (1, -2.70152923326269078785e+00) (0, -3.52941598655283561570e+00) (1, -2.11980176785901835990e-01) (0, 3.45179000734736884937e+00) (1, 1.00472732757544758186e-01) (0, -2.47028148036158601286e+00) (1, -6.46056610704325295913e-01) (0, -3.40417171273974483725e+00) (1, -3.21884951496425250617e-02) (0, -6.59115171161593571547e-01) (1, -5.26150643551283714316e+00) (0, 3.47473237682799851456e+00) (1, 1.98824927519516331254e-01) (0, 3.46029948865668268709e+00) (1, 1.19966323620483192314e-01) (0, -5.87383775383807371639e+00) (1, -2.39335853612226712173e+00) (0, -2.99961369406857736308e+00) (1, 1.90658760544498873113e-01) (0, -6.66462309923151430269e+00) (1, -9.56742239795954074744e-01) (0, -3.36209413983886706845e+00) (1, -8.01172942892228040490e-02) (0, 3.47628025075432134372e+00) (1, 2.31450355622017184265e-01) (0, -3.02819722291017656701e+00) (1, 1.83002811203679727203e-01) (0, -2.49961909117459235574e+00) (1, -6.29514242679215518805e-01) (0, 3.43987797571537567975e+00) (1, 1.20801290535916608371e-01) (0, -3.44373690854786751459e+00) (1, -2.11655011238439209886e-02) (2, -2.24974905952938480924e-01) (3, -2.03380923346009823138e-01) (4, 1.76787557881342982657e-01) (5, -2.06758871302333141484e-01) (6, 3.97419410409380946536e-01) (7, 4.69102483188133245751e-01) (8, -1.66488060688633560114e-01) (9, 5.52118169140244474669e-01) (10, -1.88340031479351854848e-01) (11, -6.30583221428312912238e-01) (12, -1.88232375039101590408e-01) (13, 3.25570344668457578585e-01) (14, -4.37602210787086803867e-02) (15, -2.38553303419500539739e-01) (16, -1.20984171415416855155e-01) (17, 4.78993034751334534338e-01) (18, -2.29607366513163296817e-01) (19, -2.29154122874267174303e-01) (20, 4.13810237985540452232e-01) (21, 1.67505252405072552202e-01) (22, -1.16057404859786590379e+01) (23, -1.82264453874601162209e-01) (24, -1.97890827055946183499e-01) (25, -1.20608702788663202377e-02) (26, 3.91148109311877267835e-01) (27, 5.11159374545733840023e+01) (28, -2.05345522669568431029e-01) (29, -1.88802563802396156101e-01) (30, -1.13193618994423580992e-01) (31, 3.80181280864171966538e-01) (32, 5.48759632578838307815e-01) (33, -1.91926681318092540174e-01) (34, -2.36735215775018353890e-01) (35, -3.26191028818429706870e-02) (36, 1.69653380062485176216e-01) (37, 3.41421733332610499723e-01) (38, -1.72315104671996066621e-01) (39, 3.92728807987621164610e-01) (40, -3.88523035784301873363e+00) (41, -2.29770613853653271619e-01) (42, -1.81953361996690626823e-01) (43, 4.04559080856252750724e-01) (44, -1.87419774463667893061e-01) (45, 3.45211496521090621670e-01) (46, -8.70232475792054142871e-03) (47, -1.66667229303402247842e-01) (48, -1.11927980534376758648e+00) (49, -1.18910760271062482252e-01) (50, 3.86167601910031355050e-01) (51, 1.49843821074873290167e-01) (52, -8.15670929797602389799e-03) (53, 3.65065707109366810457e-01) (54, 1.50000000000000000000e+03) (55, -1.91002513092891429425e-01) (56, 5.37530033201967460954e-01) (57, -1.05181689120618874350e-02) (58, -1.90897184322491225705e-01) (59, -2.96714049990946873714e-02) (60, -2.13743048078028546888e-01) (61, 1.50000000000000000000e+03) (62, -3.13670197408002018880e-02) (63, 3.66424341208373582912e-01) (64, 3.59342914561663562267e-01) (65, 4.05753300731813371094e-01) (66, -1.88392418244164333574e-01) (67, -4.18764326090152530502e-02) (68, 5.27677290907845097934e-01) (69, 5.44672118781268310705e-01) (70, -2.24272911085614201632e-01) (71, 4.08954871786523510568e-01) (72, 5.68333392154793948237e-01) (73, -3.56665131043729377591e-02) (74, -1.80697725351945642780e-01) (75, 1.83394925426614207709e+02) (76, 3.64737244015910844208e-01) (77, -8.97429929969221495956e-02) (78, -3.63747631441388163953e-02) (79, -2.24486743875989464003e-01) (80, 3.81682778768472508180e-01) (81, 5.64744712180903274401e-01) (82, -5.55878837449373316981e-02) (83, 1.50000000000000000000e+03) (84, 1.50000000000000000000e+03) (85, 7.97385420971421787772e-02) (86, -1.47104071365324107212e-01) (87, -1.52974521428535736867e-01) (88, -1.85840165688577085845e-01) (89, 5.71136521089367410475e-01) (90, -8.38227770806757865873e-02) (91, -1.06794064963660721712e-02) (92, 5.51285080585659281738e-01) (93, -9.16055656055174916119e-01) (94, 5.66003532532219466589e-01) (95, -2.05558174708637547701e-01) (96, -8.42420753061686317098e-02) (97, 3.84603684204034179661e-01) (98, -1.77987851811258340762e-01) (99, 3.79025889528684822860e-01) (100, 5.30667510472474068806e-01) (101, -1.94773494628716820065e-01) (102, -1.49480007735334652352e-01) (103, -1.91596323815551389247e-01) (104, -1.02727282085617210861e-01) (105, 1.79407306312037884144e-01) (106, -2.05057069287028881366e-01) (107, -1.67718075051606838044e-02) (108, 3.84676604516503151121e-01) (109, 5.35611685954270999588e-01) (110, 1.60060208095813338858e-01) (111, -2.86947797204068003052e-02) (112, 3.80456668053925306516e-01) (113, -3.34561997075363548593e-02) (114, -1.04458491469489652553e-02) (115, 5.57829049646189067957e-01) (116, 3.74116876853287261273e-01) (117, -1.10385376496634352028e-02) (118, 1.62893095757868422435e-01) (119, -3.64004319952107635583e-01) (120, -2.06156943573489570554e-01) (121, -1.77459087908472118444e-01) (122, 3.80485696686201024797e-01) (123, -1.89476409193175127088e-01) (124, 3.80257515204839691147e-01) (125, -2.23299540987501016209e-01) (126, -1.98286310017959155338e-01) (127, -1.77645044833269483142e-02) (128, 4.61100723200509876598e-01) (129, -1.91854008379474694213e-01) (130, -7.98500282749597278809e+00) (131, -2.05999684921598535947e-01) (132, -5.22580584795284755484e-02) (133, -4.78792230102823845872e-02) (134, 5.50088927996719490032e-01) (135, -2.17366561440191979893e-01) (136, -2.43076084026342259525e-01) (137, 5.02922974322619564802e-01) (138, -1.95435359210198222879e-01) (139, 5.70674029822259010203e-01) (140, -1.39116196121787053658e-02) (141, -2.20959859421740067997e-01) (142, 3.73034497287666466647e-01) (143, -2.00943439218298020021e-01) (144, -3.95108295511516216525e-02) (145, -3.23701827066723568649e-02) (146, -2.61622769148172479303e-02) (147, -1.33817791679019915119e-01) (148, 1.34122488591617655684e-01) (149, 3.75438992000877991284e-01) (150, -1.92178028676047302215e-01) (151, -2.09592873740863522292e-01) (152, 1.15915884909286739934e-01) (153, -8.82797691038941789721e-01) (154, -8.15437490599744685404e-02) (155, -4.83492166359238972895e-02) (156, 5.47763978361416548069e-01) (157, -1.92196224493592138227e-01) (158, 3.80384196894578974213e-01) (159, 8.23862697260145243616e-02) (160, 5.42645969263064409382e-01) (161, -6.03974312922505696122e-01) (162, -3.17224509845066005020e-02) (163, 3.78807766331129280868e-01) (164, -1.91950334196941907461e-01) (165, -4.40298885000510731302e-02) (166, 5.61203380238632254517e-01) (167, 1.18170287887749941858e-01) (168, -9.28080541693827448801e-02) (169, 5.11924347555896996909e-01) (170, 3.78106722022259589266e-01) (171, 3.92284868023215327337e-01) (172, -1.88729918705000832002e-01) (173, -8.52512892805998012680e-02) (174, 3.91267090779236048625e-01) (175, 1.50000000000000000000e+03) (176, -2.23843647186479366429e-01) (177, -1.87359600514414109673e-01) (178, -2.46772764270024341782e-01) (179, 1.50000000000000000000e+03) (180, -1.94425166233316043529e-01) (181, -1.99016403464093605269e-01) (182, -2.01692961796664987917e-01) (183, 1.80691623833082321005e-01) (184, -1.93004878978817295820e-01) (185, 3.41446240942538614682e-01) (186, -1.10192901720958996714e-01) (187, -2.01339871331596059756e-01) (188, 4.55174944178060703059e-01) (189, -3.82909744200021218141e-02) (190, 7.47768308350516264227e+01) (191, -1.93690612048332988504e-01) (192, -1.93329660124683694322e-01) (193, 7.98524877241310465648e-02) (194, 4.08638762893129003917e-01) (195, -4.15865069810506948755e+00) (196, -3.16862603887859556329e-02) (197, -1.81747310472337580967e-01) (198, 1.61375012053752070473e-01) (199, 4.31463932152045426260e-01) (200, -1.76997755275634743866e-01) (201, -4.64581009172723435885e-02) (202, -1.73394427016890978477e-01) 
