FANN_FLO_2.1
num_layers=3
learning_rate=0.700000
connection_rate=1.000000
network_type=0
learning_momentum=0.000000
training_algorithm=2
train_error_function=1
train_stop_function=0
cascade_output_change_fraction=0.010000
quickprop_decay=-0.000100
quickprop_mu=1.750000
rprop_increase_factor=1.200000
rprop_decrease_factor=0.500000
rprop_delta_min=0.000000
rprop_delta_max=50.000000
rprop_delta_zero=0.100000
cascade_output_stagnation_epochs=12
cascade_candidate_change_fraction=0.010000
cascade_candidate_stagnation_epochs=12
cascade_max_out_epochs=150
cascade_min_out_epochs=50
cascade_max_cand_epochs=150
cascade_min_cand_epochs=50
cascade_num_candidate_groups=2
bit_fail_limit=3.49999999999999977796e-01
cascade_candidate_limit=1.00000000000000000000e+03
cascade_weight_multiplier=4.00000000000000022204e-01
cascade_activation_functions_count=10
cascade_activation_functions=3 5 7 8 10 11 14 15 16 17 
cascade_activation_steepnesses_count=4
cascade_activation_steepnesses=2.50000000000000000000e-01 5.00000000000000000000e-01 7.50000000000000000000e-01 1.00000000000000000000e+00 
layer_sizes=2 201 2 
scale_included=0
neurons (num_inputs, activation_function, activation_steepness)=(0, 0, 0.00000000000000000000e+00) (0, 0, 0.00000000000000000000e+00) (2, 4, 5.00000000000000000000e-01) (2, 4, 5.00000000000000000000e-01) (2, 4, 5.00000000000000000000e-01) (2, 4, 5.00000000000000000000e-01) (2, 4, 5.00000000000000000000e-01) (2, 4, 5.00000000000000000000e-01) (2, 4, 5.00000000000000000000e-01) (2, 4, 5.00000000000000000000e-01) (2, 4, 5.00000000000000000000e-01) (2, 4, 5.00000000000000000000e-01) (2, 4, 5.00000000000000000000e-01) (2, 4, 5.00000000000000000000e-01) (2, 4, 5.00000000000000000000e-01) (2, 4, 5.00000000000000000000e-01) (2, 4, 5.00000000000000000000e-01) (2, 4, 5.00000000000000000000e-01) (2, 4, 5.00000000000000000000e-01) (2, 4, 5.00000000000000000000e-01) (2, 4, 5.00000000000000000000e-01) (2, 4, 5.00000000000000000000e-01) (2, 4, 5.00000000000000000000e-01) (2, 4, 5.00000000000000000000e-01) (2, 4, 5.00000000000000000000e-01) (2, 4, 5.00000000000000000000e-01) (2, 4, 5.00000000000000000000e-01) (2, 4, 5.00000000000000000000e-01) (2, 4, 5.00000000000000000000e-01) (2, 4, 5.00000000000000000000e-01) (2, 4, 5.00000000000000000000e-01) (2, 4, 5.00000000000000000000e-01) (2, 4, 5.00000000000000000000e-01) (2, 4, 5.00000000000000000000e-01) (2, 4, 5.00000000000000000000e-01) (2, 4, 5.00000000000000000000e-01) (2, 4, 5.00000000000000000000e-01) (2, 4, 5.00000000000000000000e-01) (2, 4, 5.00000000000000000000e-01) (2, 4, 5.00000000000000000000e-01) (2, 4, 5.00000000000000000000e-01) (2, 4, 5.00000000000000000000e-01) (2, 4, 5.00000000000000000000e-01) (2, 4, 5.00000000000000000000e-01) (2, 4, 5.00000000000000000000e-01) (2, 4, 5.00000000000000000000e-01) (2, 4, 5.00000000000000000000e-01) (2, 4, 5.00000000000000000000e-01) (2, 4, 5.00000000000000000000e-01) (2, 4, 5.00000000000000000000e-01) (2, 4, 5.00000000000000000000e-01) (2, 4, 5.00000000000000000000e-01) (2, 4, 5.00000000000000000000e-01) (2, 4, 5.00000000000000000000e-01) (2, 4, 5.00000000000000000000e-01) (2, 4, 5.00000000000000000000e-01) (2, 4, 5.00000000000000000000e-01) (2, 4, 5.00000000000000000000e-01) (2, 4, 5.00000000000000000000e-01) (2, 4, 5.00000000000000000000e-01) (2, 4, 5.00000000000000000000e-01) (2, 4, 5.00000000000000000000e-01) (2, 4, 5.00000000000000000000e-01) (2, 4, 5.00000000000000000000e-01) (2, 4, 5.00000000000000000000e-01) (2, 4, 5.00000000000000000000e-01) (2, 4, 5.00000000000000000000e-01) (2, 4, 5.00000000000000000000e-01) (2, 4, 5.00000000000000000000e-01) (2, 4, 5.00000000000000000000e-01) (2, 4, 5.00000000000000000000e-01) (2, 4, 5.00000000000000000000e-01) (2, 4, 5.00000000000000000000e-01) (2, 4, 5.00000000000000000000e-01) (2, 4, 5.00000000000000000000e-01) (2, 4, 5.00000000000000000000e-01) (2, 4, 5.00000000000000000000e-01) (2, 4, 5.00000000000000000000e-01) (2, 4, 5.00000000000000000000e-01) (2, 4, 5.00000000000000000000e-01) (2, 4, 5.00000000000000000000e-01) (2, 4, 5.00000000000000000000e-01) (2, 4, 5.00000000000000000000e-01) (2, 4, 5.00000000000000000000e-01) (2, 4, 5.00000000000000000000e-01) (2, 4, 5.00000000000000000000e-01) (2, 4, 5.00000000000000000000e-01) (2, 4, 5.00000000000000000000e-01) (2, 4, 5.00000000000000000000e-01) (2, 4, 5.00000000000000000000e-01) (2, 4, 5.00000000000000000000e-01) (2, 4, 5.00000000000000000000e-01) (2, 4, 5.00000000000000000000e-01) (2, 4, 5.00000000000000000000e-01) (2, 4, 5.00000000000000000000e-01) (2, 4, 5.00000000000000000000e-01) (2, 4, 5.00000000000000000000e-01) (2, 4, 5.00000000000000000000e-01) (2, 4, 5.00000000000000000000e-01) (2, 4, 5.00000000000000000000e-01) (2, 4, 5.00000000000000000000e-01) (2, 4, 5.00000000000000000000e-01) (2, 4, 5.00000000000000000000e-01) (2, 4, 5.00000000000000000000e-01) (2, 4, 5.00000000000000000000e-01) (2, 4, 5.00000000000000000000e-01) (2, 4, 5.00000000000000000000e-01) (2, 4, 5.00000000000000000000e-01) (2, 4, 5.00000000000000000000e-01) (2, 4, 5.00000000000000000000e-01) (2, 4, 5.00000000000000000000e-01) (2, 4, 5.00000000000000000000e-01) (2, 4, 5.00000000000000000000e-01) (2, 4, 5.00000000000000000000e-01) (2, 4, 5.00000000000000000000e-01) (2, 4, 5.00000000000000000000e-01) (2, 4, 5.00000000000000000000e-01) (2, 4, 5.00000000000000000000e-01) (2, 4, 5.00000000000000000000e-01) (2, 4, 5.00000000000000000000e-01) (2, 4, 5.00000000000000000000e-01) (2, 4, 5.00000000000000000000e-01) (2, 4, 5.00000000000000000000e-01) (2, 4, 5.00000000000000000000e-01) (2, 4, 5.00000000000000000000e-01) (2, 4, 5.00000000000000000000e-01) (2, 4, 5.00000000000000000000e-01) (2, 4, 5.00000000000000000000e-01) (2, 4, 5.00000000000000000000e-01) (2, 4, 5.00000000000000000000e-01) (2, 4, 5.00000000000000000000e-01) (2, 4, 5.00000000000000000000e-01) (2, 4, 5.00000000000000000000e-01) (2, 4, 5.00000000000000000000e-01) (2, 4, 5.00000000000000000000e-01) (2, 4, 5.00000000000000000000e-01) (2, 4, 5.00000000000000000000e-01) (2, 4, 5.00000000000000000000e-01) (2, 4, 5.00000000000000000000e-01) (2, 4, 5.00000000000000000000e-01) (2, 4, 5.00000000000000000000e-01) (2, 4, 5.00000000000000000000e-01) (2, 4, 5.00000000000000000000e-01) (2, 4, 5.00000000000000000000e-01) (2, 4, 5.00000000000000000000e-01) (2, 4, 5.00000000000000000000e-01) (2, 4, 5.00000000000000000000e-01) (2, 4, 5.00000000000000000000e-01) (2, 4, 5.00000000000000000000e-01) (2, 4, 5.00000000000000000000e-01) (2, 4, 5.00000000000000000000e-01) (2, 4, 5.00000000000000000000e-01) (2, 4, 5.00000000000000000000e-01) (2, 4, 5.00000000000000000000e-01) (2, 4, 5.00000000000000000000e-01) (2, 4, 5.00000000000000000000e-01) (2, 4, 5.00000000000000000000e-01) (2, 4, 5.00000000000000000000e-01) (2, 4, 5.00000000000000000000e-01) (2, 4, 5.00000000000000000000e-01) (2, 4, 5.00000000000000000000e-01) (2, 4, 5.00000000000000000000e-01) (2, 4, 5.00000000000000000000e-01) (2, 4, 5.00000000000000000000e-01) (2, 4, 5.00000000000000000000e-01) (2, 4, 5.00000000000000000000e-01) (2, 4, 5.00000000000000000000e-01) (2, 4, 5.00000000000000000000e-01) (2, 4, 5.00000000000000000000e-01) (2, 4, 5.00000000000000000000e-01) (2, 4, 5.00000000000000000000e-01) (2, 4, 5.00000000000000000000e-01) (2, 4, 5.00000000000000000000e-01) (2, 4, 5.00000000000000000000e-01) (2, 4, 5.00000000000000000000e-01) (2, 4, 5.00000000000000000000e-01) (2, 4, 5.00000000000000000000e-01) (2, 4, 5.00000000000000000000e-01) (2, 4, 5.00000000000000000000e-01) (2, 4, 5.00000000000000000000e-01) (2, 4, 5.00000000000000000000e-01) (2, 4, 5.00000000000000000000e-01) (2, 4, 5.00000000000000000000e-01) (2, 4, 5.00000000000000000000e-01) (2, 4, 5.00000000000000000000e-01) (2, 4, 5.00000000000000000000e-01) (2, 4, 5.00000000000000000000e-01) (2, 4, 5.00000000000000000000e-01) (2, 4, 5.00000000000000000000e-01) (2, 4, 5.00000000000000000000e-01) (2, 4, 5.00000000000000000000e-01) (2, 4, 5.00000000000000000000e-01) (2, 4, 5.00000000000000000000e-01) (2, 4, 5.00000000000000000000e-01) (2, 4, 5.00000000000000000000e-01) (2, 4, 5.00000000000000000000e-01) (2, 4, 5.00000000000000000000e-01) (2, 4, 5.00000000000000000000e-01) (2, 4, 5.00000000000000000000e-01) (2, 4, 5.00000000000000000000e-01) (2, 4, 5.00000000000000000000e-01) (2, 4, 5.00000000000000000000e-01) (0, 0, 0.00000000000000000000e+00) (201, 4, 5.00000000000000000000e-01) (0, 0, 0.00000000000000000000e+00) 
connections (connected_to_neuron, weight)=(0, -1.43978083469502760039e+00) (1, -3.31682553881739394797e-01) (0, -7.98898981251046413909e-01) (1, 8.59033638951200578804e-02) (0, 9.74153224536579043225e-01) (1, -2.78380339268636756156e-01) (0, -8.18905541984510931819e-01) (1, -2.07552111893964830180e-01) (0, -7.67138686352872412044e-01) (1, -3.16508698468594917852e-01) (0, -3.01068432581528888647e+00) (1, -1.12193707552052351906e-01) (0, -3.01384710251424081662e+00) (1, -1.09521154565644124323e-01) (0, -1.10119416700458416791e+00) (1, 1.18242564364547275702e-01) (0, 8.99486758432255784079e-01) (1, -1.16427062998425728813e-01) (0, -2.14058710522466677517e+00) (1, 2.90183485509137950586e+00) (0, -3.58436160608198328692e-01) (1, -2.58324280541336992467e-01) (0, 1.20425290292813969018e+00) (1, -8.18366494983200465363e-01) (0, 9.17574067666966253221e-01) (1, -2.24560273217871309015e-01) (0, -7.87261174160104770792e-01) (1, 5.72035534613696827755e-02) (0, -9.71300500953019230188e-01) (1, -5.52949134335786740557e-01) (0, -1.49967102238688630678e+03) (1, -7.73826735546659083553e+00) (0, 9.79164357721187816885e-01) (1, -2.99416882370193149221e-01) (0, 1.20588937509745108834e+00) (1, -8.22375083978465593049e-01) (0, -1.49967102238688630678e+03) (1, -7.81067024996350856014e+00) (0, 1.01804452953828428186e+00) (1, -3.08470031410964906637e-01) (0, -1.49967102238688630678e+03) (1, -7.66975894650291056820e+00) (0, 9.38224890488640883568e-01) (1, -1.94646185920399616975e-01) (0, -1.69844850828757498729e-01) (1, -1.48189400858458220078e+00) (0, 1.17651827275255116412e+00) (1, -7.23238976321107118750e-01) (0, 1.21470789725830119465e+00) (1, -8.43235161959153822764e-01) (0, -9.94960533853296524853e-01) (1, -1.31739818172478789782e-01) (0, -7.42748341178434912102e-01) (1, 1.84681538751725604630e-02) (0, 1.02752457994578727529e+00) (1, -3.29527840491548873469e-01) (0, 9.12361732553388704581e-01) (1, -1.77041923316543226008e-01) (0, 1.03375663888941127233e+00) (1, -3.45284608114397761902e-01) (0, -1.49967102238688630678e+03) (1, -7.76491861497830004879e+00) (0, -1.13290507015454977591e+00) (1, 2.72952754857660628840e-01) (0, -5.86942573134923817335e-01) (1, -2.85773166011976498257e-01) (0, -9.21252824859020713610e-01) (1, -1.69709139472406234095e-01) (0, 1.19772150197342375222e+00) (1, -8.02719864290655116257e-01) (0, 8.96295775254154936107e-01) (1, -1.08011326477659139189e-01) (0, -6.81075276759536163418e-01) (1, -1.35466956181092779143e-01) (0, 1.11183700092400394865e+00) (1, -5.31392495129282549371e-01) (0, 1.18109157403084275018e+00) (1, -1.02060095193747613074e+00) (0, -6.43606403892811873568e-01) (1, -1.86856955777837924204e-01) (0, 8.53049848369986651875e-01) (1, -1.51328382406329148280e-01) (0, -9.09335040023989682467e-01) (1, -7.63290575749392297134e-01) (0, -8.68412971037209380221e-01) (1, -1.66439225913496857689e-01) (0, 9.80442163831655055795e-01) (1, -2.80190003339246318514e-01) (0, -9.35648741099715963720e-01) (1, -7.61770377042719326610e-01) (0, -6.33178294776769234886e-01) (1, -2.90445983366774074241e-01) (0, 1.01332029772613640972e+00) (1, -3.01527032985504317431e-01) (0, 1.16779265605741899847e+00) (1, -6.98789851450361432228e-01) (0, -4.26172597974536271348e-01) (1, -7.23381769903249371989e-02) (0, -7.52865008464587148751e-01) (1, -2.26866404403172128301e-01) (0, 9.28681952511331343381e-01) (1, -2.00322551769316903325e-01) (0, -7.75626291410223434042e-01) (1, -7.31985142604341387784e-02) (0, 1.09793017932509107126e+00) (1, -5.00180202521531613868e-01) (0, -1.49967102238688630678e+03) (1, -7.69773949762652964779e+00) (0, 9.16369733905510019945e-01) (1, -1.39296275535356228747e-01) (0, -1.49967102238688630678e+03) (1, -7.76609604513119311520e+00) (0, 8.87631777364737861724e-01) (1, -1.78069095553874068294e-01) (0, -1.49967102238688630678e+03) (1, -4.40415196745846948545e+00) (0, -8.07126750476706567028e-01) (1, 4.69323787323444666097e-02) (0, -1.06964218920249209965e+00) (1, 1.03585834240407223539e-01) (0, -1.49967102238688630678e+03) (1, -9.11603661665127873448e+00) (0, 1.10410977907904461759e+00) (1, -5.15626539224937174843e-01) (0, 9.31181877461421669828e-01) (1, -2.26668172207881879476e-01) (0, -6.38108742241281001739e-01) (1, -2.30195440054877631386e-01) (0, -4.07741378148289645988e-01) (1, -1.80547263677264813175e-01) (0, -8.28073080655990501064e-01) (1, 8.08056444668086015781e-02) (0, 9.21199763251107861528e-01) (1, -1.66475092295415266763e-01) (0, -2.57487208207878348620e-01) (1, -1.28866455680903135850e+00) (0, -9.15121087488707796176e-01) (1, -2.27106423790460615342e-01) (0, 1.18188729370262168850e+00) (1, -7.37688181162341138908e-01) (0, -2.09388416872356719622e+00) (1, 9.76962367390933450473e-01) (0, -6.08632195447074919592e-01) (1, -2.77678460370711033267e-01) (0, -4.09558939219589468461e-01) (1, -1.86483973144008413625e-01) (0, -8.06354755527404654103e-01) (1, -1.84719463346251805413e-01) (0, -1.49967102238688630678e+03) (1, -4.88111017520717105356e+00) (0, -2.41828533458878514040e+00) (1, 1.22100659441564252106e+00) (0, -9.36351924624955533893e-01) (1, -5.96893803097477748665e-01) (0, -1.49967102238688630678e+03) (1, -7.81859708657334895321e+00) (0, -1.49967102238688630678e+03) (1, -7.62852624138663859554e+00) (0, -1.55504406222224078604e+00) (1, 2.39373224082483027075e+00) (0, -1.49967102238688630678e+03) (1, -9.11922324487374424962e+00) (0, -3.75341401690573339689e-01) (1, -2.61703419285944927086e-01) (0, -1.49967102238688630678e+03) (1, -7.67657044609855265804e+00) (0, -9.22435822477601696789e-01) (1, 3.48601938828719282171e+00) (0, 8.67502099253591119066e-01) (1, -1.32314327599520553669e-01) (0, 1.10785995893339772600e+00) (1, -5.20605023565634206228e-01) (0, -6.88055070237255317345e-01) (1, -1.27113177349757244805e-01) (0, 8.76283505769216652936e-01) (1, -1.37123723852267287437e-01) (0, -8.15314756858677935902e-01) (1, 5.28401510663470824758e-02) (0, 1.00355657991344471291e+00) (1, -2.80130859951225885673e-01) (0, -7.93863304650112455718e-01) (1, 4.83558104691082901727e-01) (0, -8.93345944226905941399e-01) (1, -5.94891215568978393158e-01) (0, -6.31806793235809238674e-01) (1, -2.24516955234847798151e-01) (0, 9.56047346887859306186e-01) (1, -2.35049714568966283679e-01) (0, -1.49967102238688630678e+03) (1, -7.81114666988919825741e+00) (0, -2.85488132529266369630e+00) (1, 3.54618006082371461929e+00) (0, -9.29324621184578925082e-01) (1, -5.99737499744454782835e-01) (0, -8.22298147667068879407e-01) (1, 5.70453967708175746498e-02) (0, -9.38858631340578897451e-01) (1, 1.68541521005568473157e+00) (0, -8.25126402633545641407e-01) (1, 6.69964200313659108410e-02) (0, -7.71969817189565921112e-01) (1, -8.38653002101397843093e-02) (0, -4.48152177038335597370e-01) (1, -5.88725526876982888091e-02) (0, -9.38722815765661189324e-01) (1, -5.70684132960137313617e-01) (0, 9.05560017552970220045e-01) (1, -1.89651329429422366157e-01) (0, 1.10054339428525715938e+00) (1, -5.07684467090978142068e-01) (0, 8.77884663937573472836e-01) (1, -1.60848844291677783858e-01) (0, -7.41292135160626419754e-01) (1, 1.07433236999974982689e-02) (0, -7.23978685775085950560e-01) (1, 9.73099903048872283406e-01) (0, -8.49961892091465331944e-01) (1, 8.27184805940843065342e-02) (0, 1.57263318270731788928e+00) (1, -2.39770419796522782363e+00) (0, 9.90158997294479870099e-01) (1, -2.87545474569906922557e-01) (0, -1.49967102238688630678e+03) (1, -9.15568067917035222081e+00) (0, -2.09734356212890071802e+00) (1, 9.79458069632703542950e-01) (0, -9.01652434374075828494e-01) (1, -1.45697372144944575778e-01) (0, 9.41673784414156167522e-01) (1, -1.89864744404113799936e-01) (0, 9.23933997536447226828e-01) (1, -2.29686566966497168751e-01) (0, -8.87566832923004755962e-01) (1, -1.90108319535988362636e-01) (0, -1.00340161130214955421e+00) (1, -5.61391774056198999965e-01) (0, 8.79405838499652814377e-01) (1, -1.71015087010372796028e-01) (0, -1.49967102238688630678e+03) (1, -7.63170850356887431332e+00) (0, -1.09351715251733616618e+00) (1, 1.19137150833803079353e-01) (0, 3.45991978342463069040e+00) (1, -1.77984430785858216417e+00) (0, -8.43086286471722123892e-01) (1, 7.25253515494052591883e-02) (0, -9.20596481591936410815e-01) (1, -1.84354878475179978503e-01) (0, 1.18642059827384205306e+00) (1, -7.52720528000816679892e-01) (0, 9.26920311771872840190e-01) (1, -1.98831139248905691685e-01) (0, 9.13650889865438853299e-01) (1, -2.03087646873292865246e-01) (0, 1.15213650298157732621e+00) (1, -6.45519793779255834920e-01) (0, -1.01813252368944717752e+00) (1, -2.02678115381170337317e-01) (0, -3.75214092162956591725e-01) (1, -2.14080167507882723754e-01) (0, -9.68054129282157060921e-01) (1, -1.47027345432406864045e-01) (0, -4.68348137494727811969e-01) (1, -7.50250333330241825358e-02) (0, -1.49967102238688630678e+03) (1, -9.20525381007598042515e+00) (0, 9.04781584154439322276e-01) (1, -1.32106884370456117983e-01) (0, 8.75877744013021208858e-01) (1, -1.63489896299352538422e-01) (0, -3.07481612197938103392e+00) (1, 3.75603233426431382114e+00) (0, -1.49967102238688630678e+03) (1, -7.76588006770084948727e+00) (0, -1.49967102238688630678e+03) (1, -4.81047614540151080575e+00) (0, 9.50705771010292299827e-01) (1, -2.03342226305782192153e-01) (0, -5.90659110981772594862e-01) (1, -2.67327279730484590470e-01) (0, -1.04756592442592277870e+00) (1, -5.37787019789478182297e-01) (0, 9.91968567403746503963e-01) (1, -2.80514875770283000911e-01) (0, -1.07431910256452090024e+00) (1, 1.04678307974127762781e-01) (0, 8.64019444918075141260e-01) (1, -1.12898965704076717498e-01) (0, 8.50824942310233867104e-01) (1, -1.31554332885839592171e-01) (0, 8.62613446609244993724e-01) (1, -1.04119051869644346775e-01) (0, -9.09264998330291285278e-01) (1, -6.18908336370640022039e-01) (0, -7.93004018010803335414e-01) (1, -3.08006885058558943502e-01) (0, -6.22105809249485552925e-01) (1, -1.88098489941110502688e-01) (0, -6.88628627169964424581e-01) (1, -1.93402551602554817478e-01) (0, -8.78389770738785213844e-01) (1, -1.59120694841444115797e-01) (0, -1.14033389012002062124e+00) (1, -4.90671166642722977880e-01) (0, -1.11922143687367081633e+00) (1, 9.87483263368603592092e-01) (0, -2.02172065920064847333e+00) (1, 3.99837592807943176254e-01) (0, -7.39986871632641429741e-01) (1, 6.89840148908552192042e-02) (0, -8.36919150768063224710e-01) (1, 6.26378130628169466076e-02) (0, -7.12099467408532915691e-01) (1, 9.52114677180474489049e-01) (0, 9.38600630034113758704e-01) (1, -2.24769068571236213527e-01) (0, 9.71698461958735992816e-01) (1, -2.40788834940031615250e-01) (0, -4.13082033916037261179e-01) (1, -2.15183324926905367169e-01) (0, -6.62576465350411147881e-01) (1, -1.87318165817110637850e-01) (0, 9.54999395338202883288e-01) (1, -2.32736808482517432140e-01) (0, -1.22068022607639337096e+00) (1, 2.17761169957340650072e+00) (0, -9.47040307489900201610e-01) (1, -1.51545584014178030818e-01) (0, -2.11287748098553818110e+00) (1, 9.91435969652075921310e-01) (0, 1.00512557222274967472e+00) (1, -2.83703029628922909211e-01) (0, -1.49967102238688630678e+03) (1, -7.63371777614425273129e+00) (0, -8.08966449280145272205e-01) (1, 4.86129267566172834636e-02) (0, -8.45221572831858614094e-01) (1, 9.37669851440754154037e-02) (0, -1.49967102238688630678e+03) (1, -4.50448705136035165708e+00) (0, -2.50828594137373850348e-01) (1, -2.70790176705887175590e-01) (0, -1.07372392637928726344e+00) (1, 3.05198584832896369079e+00) (0, 1.09215959575803345238e+00) (1, -4.88349059154513431835e-01) (0, -1.56268994415810480447e+00) (1, 2.32403623293376027092e+00) (0, -9.46409280566243849009e-01) (1, -1.51807057815556395441e-01) (0, -3.65851710237621363664e-01) (1, -2.79415465839818188964e-01) (0, 1.23136953496752643566e+00) (1, -9.22463498532591907875e-01) (0, -7.12140716848455590515e-01) (1, -2.40031831214000318520e-01) (0, 1.18891790430187316296e+00) (1, -7.54288458253031701695e-01) (0, -6.75404106066428755462e-01) (1, -1.51467329341136047738e-01) (0, -7.83071409969874898671e-01) (1, 2.58009674749828006590e-02) (0, -8.05716808129546491202e-01) (1, 5.79397831979843180861e-02) (0, -1.83978395781470044357e-01) (1, -9.94131796639826537110e-01) (0, 1.15156488983101445989e+00) (1, -6.48963384668871490213e-01) (0, 1.03075434719664826844e+00) (1, -3.36069130183486830532e-01) (0, -9.70158262878308308430e-01) (1, -1.48179640366563281084e-01) (0, 9.10700872354312740420e-01) (1, -1.52335641004825911304e-01) (0, 9.78582743380065456229e-01) (1, -2.95743425760937150848e-01) (0, -7.86079552244305590492e-01) (1, 5.17265261468438208858e-01) (0, -1.49967102238688630678e+03) (1, -7.64433755060504527279e+00) (0, -1.49967102238688630678e+03) (1, -7.68616484185527415463e+00) (0, -9.09569696684256023822e-01) (1, -1.42331484236907279683e-01) (0, 9.67833934168367160389e-01) (1, -2.50613079641004654619e-01) (0, -1.07606020700298965487e+00) (1, 1.09110231308451710586e-01) (0, -8.08197794969441440927e-01) (1, -8.49943807011682012087e-03) (0, -1.49967102238688630678e+03) (1, -4.48417626201365671079e+00) (0, 9.61286734992031655089e-01) (1, -2.49007323060172203189e-01) (0, -7.88173094447270017326e-01) (1, 5.53211420110798143823e-02) (0, -3.86454081357329282120e-01) (1, -2.61653375608128013763e-01) (0, -1.49967102238688630678e+03) (1, -9.22840685063408017186e+00) (2, 7.39300562335155619920e-01) (3, -1.70282861454675221724e-01) (4, -3.65348509319672609674e-01) (5, 5.74527569992316466951e-01) (6, 4.62279761691663515499e-01) (7, -1.06822584437533727453e+01) (8, -1.26593113732818469686e+01) (9, -1.74225137341826569193e-01) (10, -3.71625295318197879091e-01) (11, 1.05533638138076368840e+00) (12, 5.95012451274898213072e-01) (13, -3.65111902878321237242e-01) (14, -3.69872422722579918819e-01) (15, -1.96790766751171769533e-01) (16, 4.43129524959690324071e-01) (17, 1.50000000000000000000e+03) (18, -3.74863109358194668275e-01) (19, -3.79415654695918980188e-01) (20, 1.50000000000000000000e+03) (21, -3.72376454557602709627e-01) (22, 1.50000000000000000000e+03) (23, -3.52984182141433677771e-01) (24, -7.56405199746887184353e-03) (25, -3.40492418244330408150e-01) (26, -3.55401631419899832753e-01) (27, 4.10791928494236846525e-01) (28, -1.99594749607648169754e-01) (29, -3.70893908228105417813e-01) (30, -3.76257022045673850119e-01) (31, -3.79235251535630757402e-01) (32, 1.50000000000000000000e+03) (33, -2.02671660924249014135e-01) (34, -9.21415761851499121038e-02) (35, 4.28135982571638429306e-01) (36, -3.82310388334301420876e-01) (37, -3.63278342820244404265e-01) (38, -9.36218140099347173599e-02) (39, -3.52970453593613897603e-01) (40, -3.70569338237118683921e-01) (41, -9.23176036023328622226e-02) (42, -3.75905961333629190513e-01) (43, 5.08949066855900276313e-03) (44, 8.85762146763292457230e-01) (45, -3.56471455313372598273e-01) (46, -4.23992609441986509355e-02) (47, -1.00707402039569612895e-01) (48, -3.69689559127516498283e-01) (49, -3.24791056825709467670e-01) (50, 7.00339861360400162127e-01) (51, 7.70664997845523780384e-01) (52, -3.80900493530871186998e-01) (53, -2.16013366464373024467e-01) (54, -3.41509574968798856887e-01) (55, 1.50000000000000000000e+03) (56, -3.51157443431630411634e-01) (57, 1.50000000000000000000e+03) (58, -3.52627618384922347783e-01) (59, 1.50000000000000000000e+03) (60, -1.66466008084055844263e-01) (61, -2.87638167443126979705e-01) (62, 1.50000000000000000000e+03) (63, -3.62866026028358490407e-01) (64, -3.60738894610062865720e-01) (65, -9.65602449665477480245e-02) (66, 6.30653502649914821099e-01) (67, -2.04780381925545262867e-01) (68, -3.73756514695882002819e-01) (69, -7.62446901826669201641e-03) (70, 4.30233585695839970686e-01) (71, -3.67064318229271102645e-01) (72, -1.83497295545072353073e-01) (73, -9.54519883536535107549e-02) (74, 6.27029559941370107090e-01) (75, 7.90959771979898307315e-01) (76, 1.50000000000000000000e+03) (77, -2.56240101862791780363e-01) (78, 1.28420229826471388179e-01) (79, 1.50000000000000000000e+03) (80, 1.50000000000000000000e+03) (81, 8.49156638571657684800e-01) (82, 1.50000000000000000000e+03) (83, 5.96578348873787467355e-01) (84, 1.50000000000000000000e+03) (85, 1.07782366076147151368e+00) (86, -3.52173955046547471071e-01) (87, -3.43398083406747323121e-01) (88, -9.45865300867858166400e-02) (89, -3.44449177919762983269e-01) (90, -1.79384751752047433282e-01) (91, -3.82802288978792593088e-01) (92, -9.35681679510956682000e-02) (93, 3.42262324840279241744e-01) (94, -8.97485718620227856945e-02) (95, -3.86171409397703446764e-01) (96, 1.50000000000000000000e+03) (97, 4.80658951294144554112e+00) (98, 3.55303410092353333383e-01) (99, -1.98328912775935173318e-01) (100, 7.73875360695485903229e-01) (101, -1.91422941409828184511e-01) (102, -2.02896518812619913730e-01) (103, 6.61397434911190296170e-01) (104, 4.29526260113658353568e-01) (105, -3.66102274904493873997e-01) (106, -3.52149578425767773027e-01) (107, -3.48149424565402210163e-01) (108, -2.03073979296373996473e-01) (109, 5.65407631510378427819e-01) (110, -1.92283275892593641387e-01) (111, -8.28011800422790322784e-01) (112, -3.55706323112861821922e-01) (113, 1.50000000000000000000e+03) (114, -4.20241980546379179096e-01) (115, 7.75863618390797871172e-01) (116, -3.59005164456010661400e-01) (117, -3.79932904624409373273e-01) (118, 4.26103612781658092068e-01) (119, 3.83552948455024411700e-01) (120, -3.74105719996044971953e-01) (121, 1.50000000000000000000e+03) (122, -1.68535710366299384955e-01) (123, 2.60471431852733337209e+00) (124, -1.61290675611265588163e-01) (125, 4.23949680307093568210e-01) (126, -3.42737086455741524205e-01) (127, -3.73730951928567145526e-01) (128, -3.79660377112622182683e-01) (129, -3.64946816581571686910e-01) (130, 1.49294708895205840982e+00) (131, 5.92623402454596215350e-01) (132, 4.46541577006736245536e-01) (133, 9.29382525055190367169e-01) (134, 1.50000000000000000000e+03) (135, -3.66195746787420672863e-01) (136, -3.74011634064267073363e-01) (137, 2.35812955738500784619e+00) (138, 1.50000000000000000000e+03) (139, 1.50000000000000000000e+03) (140, -3.82321083455666621553e-01) (141, -9.01919529580300499694e-02) (142, 3.57915301261813367795e-01) (143, -3.76692261721493670823e-01) (144, -1.79031633132314627055e-01) (145, -3.55687090062509869703e-01) (146, -3.70418648403049111106e-01) (147, -3.52403812645805780690e-01) (148, 1.29398944770637985835e-01) (149, 4.59970480324791430871e-01) (150, -8.64302418718723292068e-02) (151, -1.04565449132845655900e-01) (152, 8.23593203215988278743e-01) (153, 5.96602804507842088277e-01) (154, -9.38706860253548242001e-02) (155, 8.86566430735606036961e-01) (156, -2.21069439224858554915e-01) (157, -1.69019325914130658095e-01) (158, 5.71802397580615573425e-01) (159, -3.71991740077129873221e-01) (160, -3.87275545489949524214e-01) (161, 5.82261021816420920594e-01) (162, -9.44191996672453515149e-02) (163, -3.78708341627704336840e-01) (164, 8.08132893218084902287e-01) (165, 4.08692431441058434682e-01) (166, -2.24743082316998410430e-01) (167, -3.61127506941072373703e-01) (168, 1.50000000000000000000e+03) (169, -1.59518676125295993939e-01) (170, -1.82818861521783726509e-01) (171, 1.50000000000000000000e+03) (172, 5.33115169780897790730e-01) (173, 9.16288415241469200723e-01) (174, -3.44995045979004932857e-01) (175, 1.17743597641527819597e+00) (176, 4.39132627835977062958e-01) (177, 5.67029073443112596742e-01) (178, -3.32366205697853078771e-01) (179, 9.04165475018466779922e-01) (180, -3.54031449758450855736e-01) (181, -9.53072086714940452934e-02) (182, -1.81765042757744021973e-01) (183, -2.03908661660156809159e-01) (184, 5.97180333167551813389e-01) (185, -3.73985997892986088420e-01) (186, -3.66081922044024454799e-01) (187, 4.31914327001926334759e-01) (188, -3.77383954589427694781e-01) (189, -3.74711154766920462311e-01) (190, -8.72542479300371376372e-02) (191, 1.50000000000000000000e+03) (192, 1.50000000000000000000e+03) (193, 8.21756897418609466577e-01) (194, -3.54573911543617004138e-01) (195, -5.99182700500415554856e-01) (196, -2.14179386398501092614e-01) (197, 1.50000000000000000000e+03) (198, -3.74353709420411573383e-01) (199, -2.06951974610018130107e-01) (200, 5.70186439028141034413e-01) (201, 1.50000000000000000000e+03) (202, -3.24833006624332565337e-01) 
