FANN_FLO_2.1
num_layers=3
learning_rate=0.700000
connection_rate=1.000000
network_type=0
learning_momentum=0.000000
training_algorithm=2
train_error_function=1
train_stop_function=0
cascade_output_change_fraction=0.010000
quickprop_decay=-0.000100
quickprop_mu=1.750000
rprop_increase_factor=1.200000
rprop_decrease_factor=0.500000
rprop_delta_min=0.000000
rprop_delta_max=50.000000
rprop_delta_zero=0.100000
cascade_output_stagnation_epochs=12
cascade_candidate_change_fraction=0.010000
cascade_candidate_stagnation_epochs=12
cascade_max_out_epochs=150
cascade_min_out_epochs=50
cascade_max_cand_epochs=150
cascade_min_cand_epochs=50
cascade_num_candidate_groups=2
bit_fail_limit=3.49999999999999977796e-01
cascade_candidate_limit=1.00000000000000000000e+03
cascade_weight_multiplier=4.00000000000000022204e-01
cascade_activation_functions_count=10
cascade_activation_functions=3 5 7 8 10 11 14 15 16 17 
cascade_activation_steepnesses_count=4
cascade_activation_steepnesses=2.50000000000000000000e-01 5.00000000000000000000e-01 7.50000000000000000000e-01 1.00000000000000000000e+00 
layer_sizes=2 201 2 
scale_included=0
neurons (num_inputs, activation_function, activation_steepness)=(0, 0, 0.00000000000000000000e+00) (0, 0, 0.00000000000000000000e+00) (2, 4, 5.00000000000000000000e-01) (2, 4, 5.00000000000000000000e-01) (2, 4, 5.00000000000000000000e-01) (2, 4, 5.00000000000000000000e-01) (2, 4, 5.00000000000000000000e-01) (2, 4, 5.00000000000000000000e-01) (2, 4, 5.00000000000000000000e-01) (2, 4, 5.00000000000000000000e-01) (2, 4, 5.00000000000000000000e-01) (2, 4, 5.00000000000000000000e-01) (2, 4, 5.00000000000000000000e-01) (2, 4, 5.00000000000000000000e-01) (2, 4, 5.00000000000000000000e-01) (2, 4, 5.00000000000000000000e-01) (2, 4, 5.00000000000000000000e-01) (2, 4, 5.00000000000000000000e-01) (2, 4, 5.00000000000000000000e-01) (2, 4, 5.00000000000000000000e-01) (2, 4, 5.00000000000000000000e-01) (2, 4, 5.00000000000000000000e-01) (2, 4, 5.00000000000000000000e-01) (2, 4, 5.00000000000000000000e-01) (2, 4, 5.00000000000000000000e-01) (2, 4, 5.00000000000000000000e-01) (2, 4, 5.00000000000000000000e-01) (2, 4, 5.00000000000000000000e-01) (2, 4, 5.00000000000000000000e-01) (2, 4, 5.00000000000000000000e-01) (2, 4, 5.00000000000000000000e-01) (2, 4, 5.00000000000000000000e-01) (2, 4, 5.00000000000000000000e-01) (2, 4, 5.00000000000000000000e-01) (2, 4, 5.00000000000000000000e-01) (2, 4, 5.00000000000000000000e-01) (2, 4, 5.00000000000000000000e-01) (2, 4, 5.00000000000000000000e-01) (2, 4, 5.00000000000000000000e-01) (2, 4, 5.00000000000000000000e-01) (2, 4, 5.00000000000000000000e-01) (2, 4, 5.00000000000000000000e-01) (2, 4, 5.00000000000000000000e-01) (2, 4, 5.00000000000000000000e-01) (2, 4, 5.00000000000000000000e-01) (2, 4, 5.00000000000000000000e-01) (2, 4, 5.00000000000000000000e-01) (2, 4, 5.00000000000000000000e-01) (2, 4, 5.00000000000000000000e-01) (2, 4, 5.00000000000000000000e-01) (2, 4, 5.00000000000000000000e-01) (2, 4, 5.00000000000000000000e-01) (2, 4, 5.00000000000000000000e-01) (2, 4, 5.00000000000000000000e-01) (2, 4, 5.00000000000000000000e-01) (2, 4, 5.00000000000000000000e-01) (2, 4, 5.00000000000000000000e-01) (2, 4, 5.00000000000000000000e-01) (2, 4, 5.00000000000000000000e-01) (2, 4, 5.00000000000000000000e-01) (2, 4, 5.00000000000000000000e-01) (2, 4, 5.00000000000000000000e-01) (2, 4, 5.00000000000000000000e-01) (2, 4, 5.00000000000000000000e-01) (2, 4, 5.00000000000000000000e-01) (2, 4, 5.00000000000000000000e-01) (2, 4, 5.00000000000000000000e-01) (2, 4, 5.00000000000000000000e-01) (2, 4, 5.00000000000000000000e-01) (2, 4, 5.00000000000000000000e-01) (2, 4, 5.00000000000000000000e-01) (2, 4, 5.00000000000000000000e-01) (2, 4, 5.00000000000000000000e-01) (2, 4, 5.00000000000000000000e-01) (2, 4, 5.00000000000000000000e-01) (2, 4, 5.00000000000000000000e-01) (2, 4, 5.00000000000000000000e-01) (2, 4, 5.00000000000000000000e-01) (2, 4, 5.00000000000000000000e-01) (2, 4, 5.00000000000000000000e-01) (2, 4, 5.00000000000000000000e-01) (2, 4, 5.00000000000000000000e-01) (2, 4, 5.00000000000000000000e-01) (2, 4, 5.00000000000000000000e-01) (2, 4, 5.00000000000000000000e-01) (2, 4, 5.00000000000000000000e-01) (2, 4, 5.00000000000000000000e-01) (2, 4, 5.00000000000000000000e-01) (2, 4, 5.00000000000000000000e-01) (2, 4, 5.00000000000000000000e-01) (2, 4, 5.00000000000000000000e-01) (2, 4, 5.00000000000000000000e-01) (2, 4, 5.00000000000000000000e-01) (2, 4, 5.00000000000000000000e-01) (2, 4, 5.00000000000000000000e-01) (2, 4, 5.00000000000000000000e-01) (2, 4, 5.00000000000000000000e-01) (2, 4, 5.00000000000000000000e-01) (2, 4, 5.00000000000000000000e-01) (2, 4, 5.00000000000000000000e-01) (2, 4, 5.00000000000000000000e-01) (2, 4, 5.00000000000000000000e-01) (2, 4, 5.00000000000000000000e-01) (2, 4, 5.00000000000000000000e-01) (2, 4, 5.00000000000000000000e-01) (2, 4, 5.00000000000000000000e-01) (2, 4, 5.00000000000000000000e-01) (2, 4, 5.00000000000000000000e-01) (2, 4, 5.00000000000000000000e-01) (2, 4, 5.00000000000000000000e-01) (2, 4, 5.00000000000000000000e-01) (2, 4, 5.00000000000000000000e-01) (2, 4, 5.00000000000000000000e-01) (2, 4, 5.00000000000000000000e-01) (2, 4, 5.00000000000000000000e-01) (2, 4, 5.00000000000000000000e-01) (2, 4, 5.00000000000000000000e-01) (2, 4, 5.00000000000000000000e-01) (2, 4, 5.00000000000000000000e-01) (2, 4, 5.00000000000000000000e-01) (2, 4, 5.00000000000000000000e-01) (2, 4, 5.00000000000000000000e-01) (2, 4, 5.00000000000000000000e-01) (2, 4, 5.00000000000000000000e-01) (2, 4, 5.00000000000000000000e-01) (2, 4, 5.00000000000000000000e-01) (2, 4, 5.00000000000000000000e-01) (2, 4, 5.00000000000000000000e-01) (2, 4, 5.00000000000000000000e-01) (2, 4, 5.00000000000000000000e-01) (2, 4, 5.00000000000000000000e-01) (2, 4, 5.00000000000000000000e-01) (2, 4, 5.00000000000000000000e-01) (2, 4, 5.00000000000000000000e-01) (2, 4, 5.00000000000000000000e-01) (2, 4, 5.00000000000000000000e-01) (2, 4, 5.00000000000000000000e-01) (2, 4, 5.00000000000000000000e-01) (2, 4, 5.00000000000000000000e-01) (2, 4, 5.00000000000000000000e-01) (2, 4, 5.00000000000000000000e-01) (2, 4, 5.00000000000000000000e-01) (2, 4, 5.00000000000000000000e-01) (2, 4, 5.00000000000000000000e-01) (2, 4, 5.00000000000000000000e-01) (2, 4, 5.00000000000000000000e-01) (2, 4, 5.00000000000000000000e-01) (2, 4, 5.00000000000000000000e-01) (2, 4, 5.00000000000000000000e-01) (2, 4, 5.00000000000000000000e-01) (2, 4, 5.00000000000000000000e-01) (2, 4, 5.00000000000000000000e-01) (2, 4, 5.00000000000000000000e-01) (2, 4, 5.00000000000000000000e-01) (2, 4, 5.00000000000000000000e-01) (2, 4, 5.00000000000000000000e-01) (2, 4, 5.00000000000000000000e-01) (2, 4, 5.00000000000000000000e-01) (2, 4, 5.00000000000000000000e-01) (2, 4, 5.00000000000000000000e-01) (2, 4, 5.00000000000000000000e-01) (2, 4, 5.00000000000000000000e-01) (2, 4, 5.00000000000000000000e-01) (2, 4, 5.00000000000000000000e-01) (2, 4, 5.00000000000000000000e-01) (2, 4, 5.00000000000000000000e-01) (2, 4, 5.00000000000000000000e-01) (2, 4, 5.00000000000000000000e-01) (2, 4, 5.00000000000000000000e-01) (2, 4, 5.00000000000000000000e-01) (2, 4, 5.00000000000000000000e-01) (2, 4, 5.00000000000000000000e-01) (2, 4, 5.00000000000000000000e-01) (2, 4, 5.00000000000000000000e-01) (2, 4, 5.00000000000000000000e-01) (2, 4, 5.00000000000000000000e-01) (2, 4, 5.00000000000000000000e-01) (2, 4, 5.00000000000000000000e-01) (2, 4, 5.00000000000000000000e-01) (2, 4, 5.00000000000000000000e-01) (2, 4, 5.00000000000000000000e-01) (2, 4, 5.00000000000000000000e-01) (2, 4, 5.00000000000000000000e-01) (2, 4, 5.00000000000000000000e-01) (2, 4, 5.00000000000000000000e-01) (2, 4, 5.00000000000000000000e-01) (2, 4, 5.00000000000000000000e-01) (2, 4, 5.00000000000000000000e-01) (2, 4, 5.00000000000000000000e-01) (2, 4, 5.00000000000000000000e-01) (2, 4, 5.00000000000000000000e-01) (2, 4, 5.00000000000000000000e-01) (2, 4, 5.00000000000000000000e-01) (2, 4, 5.00000000000000000000e-01) (2, 4, 5.00000000000000000000e-01) (2, 4, 5.00000000000000000000e-01) (2, 4, 5.00000000000000000000e-01) (2, 4, 5.00000000000000000000e-01) (2, 4, 5.00000000000000000000e-01) (2, 4, 5.00000000000000000000e-01) (2, 4, 5.00000000000000000000e-01) (2, 4, 5.00000000000000000000e-01) (0, 0, 0.00000000000000000000e+00) (201, 4, 5.00000000000000000000e-01) (0, 0, 0.00000000000000000000e+00) 
connections (connected_to_neuron, weight)=(0, 1.12827868432168165747e+00) (1, 3.79550183277016839334e-01) (0, -1.14496732195752546346e+01) (1, -9.00569678332948209132e-01) (0, -2.08386984657180507341e+00) (1, -1.28960325960138511014e-01) (0, -2.52888722953138356253e-01) (1, -4.07535363995075972099e+00) (0, 2.15650191471819407951e+00) (1, -8.26882744450353590615e-01) (0, -5.64349045444272245931e+00) (1, -1.10342313920675083594e+00) (0, 1.02414386749707952973e+00) (1, -1.82406134887524551402e-01) (0, -3.18166949592200154484e-01) (1, -4.02900778328220710023e+00) (0, 2.05120505947943776448e+00) (1, -1.02147941036359792832e+01) (0, -2.02301378869822867657e+00) (1, -1.57489679675893112787e-01) (0, -2.09527019054902563511e+00) (1, -4.66443959742860403406e-01) (0, -1.99865589948928912278e+00) (1, -4.08033776797132041736e-01) (0, -1.89812262959989341837e+00) (1, -4.94177229703278986239e-01) (0, -2.00017852913606031251e+00) (1, -3.46767256550602631648e+00) (0, -6.91777481617868339470e+00) (1, -1.21246802814355784939e-02) (0, -8.51024392525289741229e+00) (1, -2.84788833766121118884e+00) (0, 9.85694335198771476314e-01) (1, -1.27084460133257109993e-01) (0, 2.32573711898449673185e+01) (1, 1.71222392408817611908e+01) (0, 1.04817826429641991481e+00) (1, -1.60760609109711127829e-01) (0, 2.32161315336483298211e+00) (1, -9.41079502565149272897e-01) (0, -1.15459854350750639185e+01) (1, -8.91375429582487166513e-01) (0, -2.01047120306916493604e+00) (1, -3.88813575391661725433e-01) (0, 1.28020733703321454300e+00) (1, 2.61662418445932576372e-01) (0, -2.11903476921308397962e+00) (1, -4.34985141376152684156e-01) (0, -6.75074408996149788464e+00) (1, -1.18100389543103589940e-01) (0, -9.13310227315265699133e+00) (1, -3.67180972091661939061e+00) (0, 8.94164013722581074717e+00) (1, -2.46711342698625407666e-01) (0, -2.13560406006889724750e+00) (1, -4.64687681772329164165e-01) (0, 9.38447732274566459587e-01) (1, -1.00223167633470416904e-02) (0, 1.00166440138853740649e+00) (1, -1.18178751343431087673e-01) (0, -9.86780775221591888169e+00) (1, 4.83129515155858335618e-01) (0, 1.59382998374231732441e+00) (1, 4.52716253969472570695e-01) (0, 1.09285895821062895017e+00) (1, 2.60777711332620509843e-01) (0, -2.03941302912782296275e+00) (1, -4.46778029424272304926e-01) (0, -9.48848613466429569030e+00) (1, -1.05642028081305427989e+00) (0, 1.02424148678410475988e+00) (1, -1.94588057243460732515e-01) (0, -4.02306777546596272543e-01) (1, -4.12793107663382041750e+00) (0, -2.05323816742171993965e+00) (1, -1.27011164548379351658e-01) (0, 1.07700328725010363584e+00) (1, -7.92612406893830612198e-02) (0, -2.14453406915634392504e+00) (1, -5.54370068840686208711e-02) (0, -2.23926568285446148110e+00) (1, -4.99303771820111874646e-01) (0, 2.04420569349404424031e+00) (1, -1.02529160050885206346e+01) (0, -2.14568029010705263460e+00) (1, -3.69643491948776284350e-02) (0, -2.03915677898294056547e+00) (1, -4.70547382105968026167e-01) (0, -6.75911293642786459301e-01) (1, -4.34863931001899128859e+00) (0, -6.68846465365709619277e+00) (1, -7.57093478835797362159e-01) (0, -2.05465444531914664950e+00) (1, -4.54144008593716952404e-01) (0, -2.16210514061135627983e+00) (1, -2.62098466594461905477e-02) (0, -1.79875356860636226308e+00) (1, -5.10989589721078218965e-01) (0, 9.08911534440923207789e-01) (1, -1.67029459583433986802e-01) (0, 9.07568917368349548092e-01) (1, -5.00888906216140072925e-02) (0, 1.07727543523123947544e+00) (1, -4.47516629607603091956e-03) (0, 1.25407142300462348672e+00) (1, 3.51071643936483657189e-01) (0, 3.54153305746534308174e-01) (1, -2.25360084300895024967e+00) (0, -3.88194038492721116285e+00) (1, -7.82202911016915691800e-02) (0, -8.69615720119316826242e+00) (1, -3.82294877787624542975e+00) (0, -2.02349523512966777972e+00) (1, -4.40594938523572954292e-01) (0, 9.41728273496322598746e-01) (1, -1.47923956031743797368e-01) (0, 2.03671645183440297444e+00) (1, -1.03247462107078558091e+01) (0, -2.00902616937922351426e+00) (1, -3.86226076424685371702e-01) (0, -1.28980813862829908345e+01) (1, -7.96601943336358697678e-01) (0, -2.37517186376902156297e+00) (1, -2.98713188890193138969e-02) (0, -2.06802524010268085064e+00) (1, -3.98400465683123650162e-01) (0, -1.96424241774230523561e+00) (1, -5.41307366568324122014e-01) (0, 1.53490541547063652494e+00) (1, 3.84115283791255257562e-01) (0, -2.10580395078467708103e+00) (1, -1.12859543908274240209e-01) (0, 1.12946062913637490510e+00) (1, 3.51370366375336473652e-01) (0, -2.05576959789165591985e+00) (1, -1.23011280998475469595e-01) (0, -2.04728931428581972796e+00) (1, -4.87319460600877185641e+00) (0, -8.66504935012270038897e+00) (1, -4.77940887311986895014e+00) (0, -2.14926234343935540494e+00) (1, -4.60502444725923332225e-01) (0, 2.00209108550425618489e+00) (1, -1.02731938628689771775e+01) (0, -2.13963450175511571416e+00) (1, -4.37541847169961750641e-01) (0, 1.00719958565697687014e+00) (1, -1.65022321029495017131e-01) (0, -5.19720787751209378769e+00) (1, -1.35332007817853661180e+00) (0, -2.09030961280021987392e+00) (1, -4.53410528739855323010e-01) (0, 1.02823266971143523207e+00) (1, -3.99455163283142858366e-02) (0, -5.79721155792302855758e+00) (1, -1.05193339597339985403e+00) (0, 9.84194600379835859982e-01) (1, -1.33168268972577275022e-01) (0, -1.99819615962764007833e+00) (1, -4.14556524123982916841e-01) (0, -2.15204232135906847745e+00) (1, -5.11358261320022822183e-01) (0, -1.28472116765206911815e+00) (1, -1.48263640794709800064e-01) (0, 1.11208575738237613884e+00) (1, 3.38173628693732353234e-01) (0, 9.05496515243491284508e-01) (1, -6.72212920879865366564e-02) (0, -2.14358643985654051534e+00) (1, -4.11830009420503184714e-01) (0, -2.17081677435926412301e+00) (1, -4.53650156587179054224e-01) (0, 1.26780467857770551277e+00) (1, 3.16974058109375345094e-01) (0, 2.08377176333542912801e+00) (1, -1.02661630032794004563e+01) (0, 1.07726496586168374314e+00) (1, -1.53217283678842408623e-01) (0, -1.53900618329312410815e+00) (1, -5.16107847361737204217e-01) (0, 1.02191687327284852493e+00) (1, -8.23250599510039621221e-02) (0, 9.30991004672256372565e-01) (1, -7.43947334384465891466e-02) (0, -5.22789609954333744923e+00) (1, -1.34982489959348539443e+00) (0, -1.28054922304600715677e+00) (1, -1.76384803251610877695e-01) (0, -2.04504749798801777061e+00) (1, -5.43429844441377873920e-01) (0, -2.10022775409721118578e+00) (1, -4.05895392017207479185e-01) (0, -1.00882061188684328812e+01) (1, 5.33436869298221316704e-01) (0, -2.14713014451581729602e+00) (1, -4.21310404319776177218e-01) (0, -2.05992835005808272442e+00) (1, -4.24225752666166577853e-01) (0, -2.04939651072387007957e+00) (1, -4.10565069048009601005e-01) (0, -2.09721337762485937617e+00) (1, -4.39742808136007745645e-01) (0, -2.14320435189706826051e+00) (1, -8.23446013843968233070e-02) (0, 1.01946590224541311365e+00) (1, -1.29090172371976730226e-01) (0, 1.09238959641747546137e+00) (1, 3.51500109941155214344e-01) (0, -3.03033455077191504756e+00) (1, -2.64784020498730221505e+00) (0, -2.03396515748245487742e+00) (1, -4.58363786802320261060e-01) (0, -4.67126180874102885809e+02) (1, 4.15409034714406466549e+00) (0, 9.59254733737905596058e-01) (1, -4.58301812924848672726e-02) (0, -2.24192209395259522964e+00) (1, -9.49736188385997930073e-03) (0, 1.18998112463422489604e+00) (1, 3.51519832041916668874e-01) (0, -2.45638615586301956029e+00) (1, -1.42078326469866900172e-01) (0, 2.59358334725347994265e+00) (1, -3.38655773070047683149e-01) (0, -6.72871325809602849333e-01) (1, -4.04797987741164622122e+00) (0, -1.16572526265297540249e+01) (1, -8.85084119488434906131e-01) (0, 2.55222275503059359281e+00) (1, -3.98146582758057587803e-01) (0, 7.91021614986749055376e-01) (1, -5.28455794784094123884e+00) (0, -2.02049199637578213995e+00) (1, -1.31636532433850733659e-01) (0, 1.10456407589481719889e+00) (1, 3.21034057424031127326e-01) (0, 1.11910585833356912566e+00) (1, 3.24232666442833161735e-01) (0, -2.13601147501963151143e+00) (1, -5.65599311654133227178e-02) (0, -9.27590104787667790731e+00) (1, -4.33023768238318940149e+00) (0, 1.20778565454739661433e+00) (1, 3.21979449716271237669e-01) (0, -2.09666218245000912646e+00) (1, -4.54164299546490068948e-01) (0, -2.10612302890398606081e+00) (1, -1.17535879245919530622e-01) (0, -1.15343283891084205095e+01) (1, -8.94175537054201052811e-01) (0, 1.05313109735286847268e+00) (1, -1.17628780333630764132e-01) (0, 1.93066220973279953910e+01) (1, -7.21389669569428626517e-01) (0, -1.90054013770450347387e+00) (1, -1.98335395807141212643e-01) (0, -1.97462445995131785637e+00) (1, -1.75988901984525047961e-01) (0, -2.09588121686170358871e+00) (1, -4.07625342326007222837e-01) (0, -2.06972370624974066899e+00) (1, -4.48698120635190322858e-01) (0, -8.82229811345836978376e+00) (1, -4.37301405930865172422e+00) (0, 1.16592694611838343377e+00) (1, 2.93172792528595294037e-01) (0, 3.48871317185420970475e-01) (1, -5.79941645427590390938e+00) (0, 1.00295829812340797638e+00) (1, -1.53582561277264439958e-01) (0, 2.14485299879918267507e+00) (1, -8.03320965959415933533e-01) (0, 1.08597084711746139085e+00) (1, 3.64970902930529972341e-01) (0, -5.86582926690874906228e+00) (1, -1.02491913052687566577e+00) (0, -4.90644219112365220781e-01) (1, -5.45087373227168736634e+00) (0, -1.98798743584084253166e-01) (1, -2.89688141629245210495e+00) (0, -2.38721726648391507908e+00) (1, -5.26768087093676062871e-01) (0, -1.82923216538888966376e+00) (1, -4.53595832343611393700e-01) (0, -1.20045754635114487741e+00) (1, -1.70365350973186613359e-01) (0, 1.04694094637668877468e+00) (1, -1.56528813441109748705e-01) (0, -9.15366460496368716804e+00) (1, -3.85599926641974333208e+00) (0, -2.07612033705169984898e+00) (1, -4.79352015871553016613e-01) (0, -1.85838914076179029244e+00) (1, 9.77926067642452961914e-02) (0, -2.18769143604580174056e+00) (1, -7.62269760796363965438e-02) (0, -2.09060138624115143813e+00) (1, -4.13418099514804238126e-01) (0, 1.08821089079192367954e+00) (1, -1.22672070017570567640e-02) (0, 1.09970927757786207657e+00) (1, 3.26470015928707224528e-01) (0, 8.99609119501936560503e-01) (1, -5.34519472412895968461e+00) (0, -5.32485135217877658675e+00) (1, -1.30255968172103542280e+00) (0, 1.27676928511302389957e+00) (1, 2.59971732696878732316e-01) (0, 6.34619461386709105000e-01) (1, -6.25295199373536836340e-01) (0, -2.22027293988047658146e+00) (1, -2.23105255869184247730e-02) (0, -1.91714606755954042328e+00) (1, -4.88761949277875140663e-01) (0, -2.05031088512707128757e+02) (1, 8.20073839681113980760e+00) (0, 1.42595878373596529620e+00) (1, 3.99766775767503801386e-01) (0, -2.16855972195829016513e+00) (1, -4.61730346527688850777e-01) (0, -2.15908791517039944097e+00) (1, -4.66943785102231834205e-01) (0, 2.67255198782794423096e+00) (1, -3.85756505091884638325e-01) (0, 1.13994772377737652036e+00) (1, 2.67468195376745432323e-01) (0, -1.25703241684965618674e+01) (1, -8.54368846724865682596e-01) (0, 2.12210757349238265945e+00) (1, -4.49983142559974846897e-01) (0, -1.27973633209804016353e+00) (1, -1.69597197726169879317e-01) (0, -5.10426601421813952442e+00) (1, -1.37699103057928051719e+00) (0, -2.11029963124899788696e+00) (1, -4.72869629287317849720e-01) (0, 1.13757822025321631010e+00) (1, 2.96126137177194770356e-01) (0, -6.20088433390374671461e-01) (1, -3.20749382199356691814e+00) (0, 1.25903713983057086168e+00) (1, -7.61010097714662991919e-01) (0, -9.06064327066211561146e+00) (1, -4.35529323462838924286e+00) (0, -9.95854458536136100122e+00) (1, 5.06385481396760761541e-01) (0, 8.93980598556924244136e-01) (1, -1.51605539577876452517e-01) (0, 9.37745392118727094655e-01) (1, -1.42267091965140105025e-02) (0, -1.61062430063798545099e+00) (1, -4.86561068220249115512e+00) (0, 1.06863520423210212051e+00) (1, -1.41565220100473426745e-01) (0, 9.35016024278868873587e-01) (1, -1.38382288027228211869e-01) (0, -2.19407783812135770418e+00) (1, -3.77911519987107369367e-01) (0, -5.84965013076655004909e+00) (1, -1.02755566773052975371e+00) (0, -2.02211090757299372100e+00) (1, -1.47418446859126639481e-01) (0, -2.20976944766486438354e+00) (1, -9.84805729500189686032e-02) (0, -2.13626905694501356692e+00) (1, -4.34036113380078136803e-01) (0, -2.13950984671014321492e+00) (1, -5.34237529942574243536e-02) (0, 1.15824481478433050086e+00) (1, 3.27216336588752820802e-01) (0, 1.09188968481116388531e+00) (1, 3.48723686252553621845e-01) (0, 1.24072618163270553815e+00) (1, 3.49819039519093821777e-01) (0, -1.80288713481008966433e+00) (1, -4.96073623324526868927e-01) (0, 1.12968737505640981489e+00) (1, -6.52026658149420623722e-01) (0, 1.11699226978921295483e+00) (1, 3.08546958849394148405e-01) (0, 1.03762339929378888392e+00) (1, -1.56368964959693074190e-01) (0, 1.54824236760034783522e+00) (1, 3.55679780034735493199e-01) (0, -1.25548092367933339375e+01) (1, -8.30274303092513488167e-01) (0, -2.06612164336125214703e+00) (1, -4.21146213808706537662e-01) (0, 1.15267066534780804332e+00) (1, -7.60625878239928887581e-01) (0, -2.19579201852147631868e+00) (1, -5.82398882871441481157e-01) (0, -7.45157452392589680912e-01) (1, -4.09070725018944791884e+00) (0, -2.20072435434102597895e+00) (1, -5.61034794499182920546e-01) (0, 1.16440079623829761957e+00) (1, 4.52352581522160845928e-01) (0, -5.31992719079823661588e+00) (1, -1.30359560163106968922e+00) (2, -1.64722317829564646186e-01) (3, -6.87969912899630386960e-01) (4, -1.80803808429184503792e-02) (5, -1.06586342200808217862e-01) (6, -1.16801134960883484792e-01) (7, 9.42804881487492030256e-02) (8, -1.46651952351687736575e-01) (9, -1.10665776770802581908e-01) (10, 1.50000000000000000000e+03) (11, -2.13487204619900172720e-02) (12, -1.29610421073305757261e-02) (13, -5.18489621815202139654e-02) (14, -8.12128570124048959622e-02) (15, -1.05393265989379045777e+01) (16, -2.60931702961910760852e-01) (17, -3.20705793534223602137e+01) (18, -1.57305235305738033702e-01) (19, 5.00000000000000000000e+01) (20, -1.53039139037534605015e-01) (21, -1.14515024981833662965e-01) (22, -4.98693731171153065151e-01) (23, -5.83765230477827218314e-02) (24, -1.83957030787925523985e-01) (25, -2.20376101466249751937e-02) (26, -9.25843166817391538537e-01) (27, 2.46252542510648630980e+01) (28, -1.36839568890634366571e-01) (29, -5.37124227294027770108e-02) (30, -1.35423629992661803678e-01) (31, -1.35122617969230085500e-01) (32, -1.08204592591444304084e+00) (33, -1.63163414235222875570e-01) (34, -1.70898906322913324285e-01) (35, -3.71935063759826906038e-02) (36, 7.12029013037638502936e+00) (37, -1.57492707307693380336e-01) (38, -1.08319083090980594619e-01) (39, -3.66324304257177810196e-02) (40, -1.32672082906176075356e-01) (41, -3.54923051436771622158e-02) (42, -5.33485779401282611545e-02) (43, 1.50000000000000000000e+03) (44, -3.78171624168177136771e-02) (45, -1.17164313665900111927e-02) (46, -1.18829228310868201257e-01) (47, 1.03360171786282362127e+00) (48, -4.77734179015699630955e-02) (49, -2.74194932231166740855e-02) (50, -2.00214595669040151815e-02) (51, -1.51196020840579536948e-01) (52, -1.49151767782622846070e-01) (53, -1.35887952833915276463e-01) (54, -1.65343188022781306667e-01) (55, -1.26670665620164102361e-01) (56, -1.61022803121396501300e-03) (57, -2.27748740122521780904e+02) (58, -5.92378448896425588432e-02) (59, -1.53771827279052336612e-01) (60, 1.50000000000000000000e+03) (61, -9.47057276025922156748e-02) (62, -1.93481561316295480601e+00) (63, -4.73140215027157626237e-02) (64, -3.22785902018611625675e-02) (65, -9.73442647950928108269e-02) (66, -1.82593255130868270530e-01) (67, -1.30497470128580553284e-02) (68, -1.88501062134224295352e-01) (69, -5.61728994623496083460e-02) (70, 1.19078018660231535364e+02) (71, 3.94731459473879464639e+00) (72, -6.47644130547431473577e-02) (73, 1.50000000000000000000e+03) (74, -5.97116739748751804151e-02) (75, -1.34147759588821025023e-01) (76, 3.03836963217401778703e-02) (77, -1.56855912683460663182e-02) (78, -1.32016243675665223556e-01) (79, 1.83388187898523874475e-01) (80, -1.42462929973317636856e-01) (81, -6.45057187672962439873e-02) (82, -7.82836442102131380150e-02) (83, -2.58132036866178735113e-02) (84, -1.93315233704974331896e-01) (85, -1.50926672994071503497e-01) (86, -5.58937415216386873640e-02) (87, -2.76744296929245930938e-02) (88, -1.75338007783106042403e-01) (89, 1.50000000000000000000e+03) (90, -1.54908698588296811494e-01) (91, -6.10019708334242974357e-02) (92, -1.44623702398491565946e-01) (93, -1.39815393089231770896e-01) (94, 3.24859304140255877869e-02) (95, -2.39469544783852475445e-02) (96, -7.73433383326137813274e-02) (97, -4.31614958101290621673e-02) (98, -1.90626189778814758569e+00) (99, -5.30344042027410117468e-02) (100, -3.29164888387354429011e-02) (101, -7.62850205075574216984e-02) (102, -5.35715446481712653792e-02) (103, -2.99659766612526134999e-02) (104, -1.34936212256057147529e-01) (105, -1.86614136812619013650e-01) (106, -1.15421439674761538985e-01) (107, -6.46219577054025773322e-02) (108, 1.50000000000000000000e+03) (109, -1.55267695480042988709e-01) (110, -3.21368713563459015847e-02) (111, -1.59458410426683599992e-01) (112, -4.15675851607927235309e-02) (113, -1.20892719081524713243e-01) (114, -1.01356667423742994316e+01) (115, -5.85771574053844168439e-01) (116, -1.20969014156807344595e-01) (117, -3.56793544620147029534e+00) (118, -5.91083023387298650553e-02) (119, -1.76300283191137052707e-01) (120, -1.80726922484834906513e-01) (121, -4.01884335206647083649e-02) (122, 1.16378400421426604794e+02) (123, -1.58122168372796495506e-01) (124, -4.57956992267427656640e-02) (125, -1.39950617778344318931e-02) (126, -4.63722066332691751356e-01) (127, -1.52317269529458898525e-01) (128, -1.91813634051619025245e-01) (129, -1.04186474628041713525e-02) (130, -2.06273017995361185317e-02) (131, -2.64053635650686319147e-02) (132, -6.30794651847932791311e-02) (133, 4.31449983678729722669e+01) (134, -1.72898944899152973154e-01) (135, 1.50000000000000000000e+03) (136, -1.26491570939788910977e-01) (137, -1.18114109996118571422e-01) (138, -1.82820890287332310509e-01) (139, 2.49459341151761770927e-01) (140, 1.50000000000000000000e+03) (141, -1.14501106661379623008e-01) (142, -1.13957198683548158180e-01) (143, -3.79837967372551044143e-02) (144, -1.84489993953825259787e-02) (145, -1.36589514672446815657e-01) (146, 4.30077903790421558483e+01) (147, -5.61362275965956794566e-02) (148, -1.44277359784057868097e-01) (149, -3.99540193084158001824e-02) (150, -4.26133962746640046482e-02) (151, -1.33660643185735811267e-01) (152, -1.61468322989866880368e-01) (153, -8.48478181484997833195e+01) (154, 3.63832318403963794751e-02) (155, -1.83486690536003027585e-01) (156, -1.19033119168900178297e-01) (157, -3.08602086498563146777e-02) (158, -7.51887855096625701279e-02) (159, 1.72438445083747193820e+00) (160, -1.66763965514014511626e-01) (161, -5.04424808646396008460e-02) (162, -2.47325464019450200204e-02) (163, -1.20837533864318072419e-01) (164, -1.92743700304942477963e-01) (165, -2.25455589402083900197e+00) (166, -1.18901621363498993800e-01) (167, -2.19260098710322565152e-02) (168, 2.66553897431277553309e-02) (169, -1.37926794210947150504e-02) (170, -1.94397682586626957546e-01) (171, -1.10451028771529555228e-01) (172, -1.27567511925689242025e-01) (173, 2.21179241497311700471e+01) (174, -1.05338458235352350201e+00) (175, -1.38782144664701789782e-01) (176, -1.41907114052232358192e-01) (177, 8.06619503110296953707e+00) (178, -1.50528669630691502856e-01) (179, -1.28375219696224174282e-01) (180, -4.28119763143446421805e-02) (181, 1.58693075598990818165e-01) (182, -4.38627457748520382941e-02) (183, -5.29063058324584847836e-02) (184, -1.66226216098698600931e-02) (185, -3.71121036933567613469e-02) (186, -1.82144139678535710303e-01) (187, -1.90960097727706668014e-01) (188, -1.70345302015091043524e-01) (189, -1.23686237746252324782e-02) (190, -1.21427552127720883579e-01) (191, -1.72904498311477528016e-01) (192, -1.39623462046742058407e-01) (193, -1.73144138419917492655e-01) (194, -1.84186115647069725831e+00) (195, -4.38830559419280882838e-02) (196, -1.23046569088925958346e-01) (197, -7.94543526514868009292e-02) (198, -9.74954837534392382281e+00) (199, -6.13678051736105817371e-02) (200, -1.74994863006073475553e-01) (201, 2.90119528495814196778e-02) (202, -1.09501163253205968662e-01) 
