FANN_FLO_2.1
num_layers=3
learning_rate=0.700000
connection_rate=1.000000
network_type=0
learning_momentum=0.000000
training_algorithm=2
train_error_function=1
train_stop_function=0
cascade_output_change_fraction=0.010000
quickprop_decay=-0.000100
quickprop_mu=1.750000
rprop_increase_factor=1.200000
rprop_decrease_factor=0.500000
rprop_delta_min=0.000000
rprop_delta_max=50.000000
rprop_delta_zero=0.100000
cascade_output_stagnation_epochs=12
cascade_candidate_change_fraction=0.010000
cascade_candidate_stagnation_epochs=12
cascade_max_out_epochs=150
cascade_min_out_epochs=50
cascade_max_cand_epochs=150
cascade_min_cand_epochs=50
cascade_num_candidate_groups=2
bit_fail_limit=3.49999999999999977796e-01
cascade_candidate_limit=1.00000000000000000000e+03
cascade_weight_multiplier=4.00000000000000022204e-01
cascade_activation_functions_count=10
cascade_activation_functions=3 5 7 8 10 11 14 15 16 17 
cascade_activation_steepnesses_count=4
cascade_activation_steepnesses=2.50000000000000000000e-01 5.00000000000000000000e-01 7.50000000000000000000e-01 1.00000000000000000000e+00 
layer_sizes=2 201 2 
scale_included=0
neurons (num_inputs, activation_function, activation_steepness)=(0, 0, 0.00000000000000000000e+00) (0, 0, 0.00000000000000000000e+00) (2, 4, 5.00000000000000000000e-01) (2, 4, 5.00000000000000000000e-01) (2, 4, 5.00000000000000000000e-01) (2, 4, 5.00000000000000000000e-01) (2, 4, 5.00000000000000000000e-01) (2, 4, 5.00000000000000000000e-01) (2, 4, 5.00000000000000000000e-01) (2, 4, 5.00000000000000000000e-01) (2, 4, 5.00000000000000000000e-01) (2, 4, 5.00000000000000000000e-01) (2, 4, 5.00000000000000000000e-01) (2, 4, 5.00000000000000000000e-01) (2, 4, 5.00000000000000000000e-01) (2, 4, 5.00000000000000000000e-01) (2, 4, 5.00000000000000000000e-01) (2, 4, 5.00000000000000000000e-01) (2, 4, 5.00000000000000000000e-01) (2, 4, 5.00000000000000000000e-01) (2, 4, 5.00000000000000000000e-01) (2, 4, 5.00000000000000000000e-01) (2, 4, 5.00000000000000000000e-01) (2, 4, 5.00000000000000000000e-01) (2, 4, 5.00000000000000000000e-01) (2, 4, 5.00000000000000000000e-01) (2, 4, 5.00000000000000000000e-01) (2, 4, 5.00000000000000000000e-01) (2, 4, 5.00000000000000000000e-01) (2, 4, 5.00000000000000000000e-01) (2, 4, 5.00000000000000000000e-01) (2, 4, 5.00000000000000000000e-01) (2, 4, 5.00000000000000000000e-01) (2, 4, 5.00000000000000000000e-01) (2, 4, 5.00000000000000000000e-01) (2, 4, 5.00000000000000000000e-01) (2, 4, 5.00000000000000000000e-01) (2, 4, 5.00000000000000000000e-01) (2, 4, 5.00000000000000000000e-01) (2, 4, 5.00000000000000000000e-01) (2, 4, 5.00000000000000000000e-01) (2, 4, 5.00000000000000000000e-01) (2, 4, 5.00000000000000000000e-01) (2, 4, 5.00000000000000000000e-01) (2, 4, 5.00000000000000000000e-01) (2, 4, 5.00000000000000000000e-01) (2, 4, 5.00000000000000000000e-01) (2, 4, 5.00000000000000000000e-01) (2, 4, 5.00000000000000000000e-01) (2, 4, 5.00000000000000000000e-01) (2, 4, 5.00000000000000000000e-01) (2, 4, 5.00000000000000000000e-01) (2, 4, 5.00000000000000000000e-01) (2, 4, 5.00000000000000000000e-01) (2, 4, 5.00000000000000000000e-01) (2, 4, 5.00000000000000000000e-01) (2, 4, 5.00000000000000000000e-01) (2, 4, 5.00000000000000000000e-01) (2, 4, 5.00000000000000000000e-01) (2, 4, 5.00000000000000000000e-01) (2, 4, 5.00000000000000000000e-01) (2, 4, 5.00000000000000000000e-01) (2, 4, 5.00000000000000000000e-01) (2, 4, 5.00000000000000000000e-01) (2, 4, 5.00000000000000000000e-01) (2, 4, 5.00000000000000000000e-01) (2, 4, 5.00000000000000000000e-01) (2, 4, 5.00000000000000000000e-01) (2, 4, 5.00000000000000000000e-01) (2, 4, 5.00000000000000000000e-01) (2, 4, 5.00000000000000000000e-01) (2, 4, 5.00000000000000000000e-01) (2, 4, 5.00000000000000000000e-01) (2, 4, 5.00000000000000000000e-01) (2, 4, 5.00000000000000000000e-01) (2, 4, 5.00000000000000000000e-01) (2, 4, 5.00000000000000000000e-01) (2, 4, 5.00000000000000000000e-01) (2, 4, 5.00000000000000000000e-01) (2, 4, 5.00000000000000000000e-01) (2, 4, 5.00000000000000000000e-01) (2, 4, 5.00000000000000000000e-01) (2, 4, 5.00000000000000000000e-01) (2, 4, 5.00000000000000000000e-01) (2, 4, 5.00000000000000000000e-01) (2, 4, 5.00000000000000000000e-01) (2, 4, 5.00000000000000000000e-01) (2, 4, 5.00000000000000000000e-01) (2, 4, 5.00000000000000000000e-01) (2, 4, 5.00000000000000000000e-01) (2, 4, 5.00000000000000000000e-01) (2, 4, 5.00000000000000000000e-01) (2, 4, 5.00000000000000000000e-01) (2, 4, 5.00000000000000000000e-01) (2, 4, 5.00000000000000000000e-01) (2, 4, 5.00000000000000000000e-01) (2, 4, 5.00000000000000000000e-01) (2, 4, 5.00000000000000000000e-01) (2, 4, 5.00000000000000000000e-01) (2, 4, 5.00000000000000000000e-01) (2, 4, 5.00000000000000000000e-01) (2, 4, 5.00000000000000000000e-01) (2, 4, 5.00000000000000000000e-01) (2, 4, 5.00000000000000000000e-01) (2, 4, 5.00000000000000000000e-01) (2, 4, 5.00000000000000000000e-01) (2, 4, 5.00000000000000000000e-01) (2, 4, 5.00000000000000000000e-01) (2, 4, 5.00000000000000000000e-01) (2, 4, 5.00000000000000000000e-01) (2, 4, 5.00000000000000000000e-01) (2, 4, 5.00000000000000000000e-01) (2, 4, 5.00000000000000000000e-01) (2, 4, 5.00000000000000000000e-01) (2, 4, 5.00000000000000000000e-01) (2, 4, 5.00000000000000000000e-01) (2, 4, 5.00000000000000000000e-01) (2, 4, 5.00000000000000000000e-01) (2, 4, 5.00000000000000000000e-01) (2, 4, 5.00000000000000000000e-01) (2, 4, 5.00000000000000000000e-01) (2, 4, 5.00000000000000000000e-01) (2, 4, 5.00000000000000000000e-01) (2, 4, 5.00000000000000000000e-01) (2, 4, 5.00000000000000000000e-01) (2, 4, 5.00000000000000000000e-01) (2, 4, 5.00000000000000000000e-01) (2, 4, 5.00000000000000000000e-01) (2, 4, 5.00000000000000000000e-01) (2, 4, 5.00000000000000000000e-01) (2, 4, 5.00000000000000000000e-01) (2, 4, 5.00000000000000000000e-01) (2, 4, 5.00000000000000000000e-01) (2, 4, 5.00000000000000000000e-01) (2, 4, 5.00000000000000000000e-01) (2, 4, 5.00000000000000000000e-01) (2, 4, 5.00000000000000000000e-01) (2, 4, 5.00000000000000000000e-01) (2, 4, 5.00000000000000000000e-01) (2, 4, 5.00000000000000000000e-01) (2, 4, 5.00000000000000000000e-01) (2, 4, 5.00000000000000000000e-01) (2, 4, 5.00000000000000000000e-01) (2, 4, 5.00000000000000000000e-01) (2, 4, 5.00000000000000000000e-01) (2, 4, 5.00000000000000000000e-01) (2, 4, 5.00000000000000000000e-01) (2, 4, 5.00000000000000000000e-01) (2, 4, 5.00000000000000000000e-01) (2, 4, 5.00000000000000000000e-01) (2, 4, 5.00000000000000000000e-01) (2, 4, 5.00000000000000000000e-01) (2, 4, 5.00000000000000000000e-01) (2, 4, 5.00000000000000000000e-01) (2, 4, 5.00000000000000000000e-01) (2, 4, 5.00000000000000000000e-01) (2, 4, 5.00000000000000000000e-01) (2, 4, 5.00000000000000000000e-01) (2, 4, 5.00000000000000000000e-01) (2, 4, 5.00000000000000000000e-01) (2, 4, 5.00000000000000000000e-01) (2, 4, 5.00000000000000000000e-01) (2, 4, 5.00000000000000000000e-01) (2, 4, 5.00000000000000000000e-01) (2, 4, 5.00000000000000000000e-01) (2, 4, 5.00000000000000000000e-01) (2, 4, 5.00000000000000000000e-01) (2, 4, 5.00000000000000000000e-01) (2, 4, 5.00000000000000000000e-01) (2, 4, 5.00000000000000000000e-01) (2, 4, 5.00000000000000000000e-01) (2, 4, 5.00000000000000000000e-01) (2, 4, 5.00000000000000000000e-01) (2, 4, 5.00000000000000000000e-01) (2, 4, 5.00000000000000000000e-01) (2, 4, 5.00000000000000000000e-01) (2, 4, 5.00000000000000000000e-01) (2, 4, 5.00000000000000000000e-01) (2, 4, 5.00000000000000000000e-01) (2, 4, 5.00000000000000000000e-01) (2, 4, 5.00000000000000000000e-01) (2, 4, 5.00000000000000000000e-01) (2, 4, 5.00000000000000000000e-01) (2, 4, 5.00000000000000000000e-01) (2, 4, 5.00000000000000000000e-01) (2, 4, 5.00000000000000000000e-01) (2, 4, 5.00000000000000000000e-01) (2, 4, 5.00000000000000000000e-01) (2, 4, 5.00000000000000000000e-01) (2, 4, 5.00000000000000000000e-01) (2, 4, 5.00000000000000000000e-01) (2, 4, 5.00000000000000000000e-01) (2, 4, 5.00000000000000000000e-01) (2, 4, 5.00000000000000000000e-01) (2, 4, 5.00000000000000000000e-01) (2, 4, 5.00000000000000000000e-01) (2, 4, 5.00000000000000000000e-01) (2, 4, 5.00000000000000000000e-01) (2, 4, 5.00000000000000000000e-01) (2, 4, 5.00000000000000000000e-01) (2, 4, 5.00000000000000000000e-01) (2, 4, 5.00000000000000000000e-01) (0, 0, 0.00000000000000000000e+00) (201, 4, 5.00000000000000000000e-01) (0, 0, 0.00000000000000000000e+00) 
connections (connected_to_neuron, weight)=(0, 3.33162992417812775514e-01) (1, 2.86121702909470032594e-01) (0, 2.63126305460930298707e-01) (1, 1.79484336793423154832e-01) (0, -3.10555479228493414023e-02) (1, 1.05274121582508400907e-01) (0, -1.94126057624785519629e-03) (1, 2.91409225463870324990e-02) (0, 2.72661180496218957803e-02) (1, 1.17472316443920449247e-01) (0, 1.30948306322100915811e-02) (1, -5.93475966453549108603e-02) (0, 8.84595632553414334964e-04) (1, 1.23182590425014809599e-01) (0, 2.25560113012791135789e-01) (1, 2.04542352974415281297e-01) (0, 1.18997554600239113798e-01) (1, 4.78210480213168420693e-02) (0, 2.24377746850252607347e-01) (1, 3.32482948124409150026e-01) (0, 1.65186331868174829385e-02) (1, 8.45504955649379053018e-02) (0, 3.36008816182613800905e-01) (1, 3.15693914115429352663e-01) (0, 2.83166012883186768434e-01) (1, 1.86806447029114225389e-01) (0, 2.71572991430759858034e-01) (1, 3.42891662538052033327e-01) (0, 1.95996320962906339647e-01) (1, 3.25818701803684662721e-01) (0, 1.05932758450511255166e-02) (1, 9.71322165131572046182e-02) (0, 1.97002268552780607225e-01) (1, 2.32890985131264188768e-01) (0, 2.14492890208960035325e-01) (1, 1.97631559491157987596e-01) (0, -3.07774438261982641318e-02) (1, -2.05911925733086309531e-02) (0, 2.19733706831932523729e-01) (1, 2.80110142350197266481e-01) (0, -1.30953757762905798057e-02) (1, -3.80952513515946111777e-02) (0, -1.10136314034458837607e-02) (1, -5.02504302859303197959e-02) (0, 9.68751416802409448525e-02) (1, 3.63439725041392602822e-02) (0, 8.91099528670314111611e-02) (1, -7.32204734086987218955e-02) (0, 2.79471344470978211305e-01) (1, 2.90514408767223786256e-01) (0, 5.13759509921077051064e-02) (1, -6.86810656189915380576e-02) (0, -6.67160047888752660850e-02) (1, -3.99464412331577978232e-02) (0, 3.16061510860920380495e-01) (1, 2.61378600418568085573e-01) (0, -3.41630323529240331748e-02) (1, 7.78458968997004785439e-02) (0, 2.51803337752819489381e-01) (1, 2.74328409850597809694e-01) (0, 1.33061141967776574990e-02) (1, 9.16702405810359277627e-02) (0, 1.97502306818962553026e-01) (1, 2.36874467849731901170e-01) (0, -7.50629572868344030478e-02) (1, 7.27837340235713281533e-02) (0, -6.79775668978687963584e-02) (1, -4.30959506630894384482e-02) (0, -5.77341287136074743369e-02) (1, 1.18361871063709572782e-01) (0, 2.03790820360184171678e-01) (1, 3.27959179103374909303e-01) (0, 2.25542063981295087816e-01) (1, 3.01165669381618927858e-01) (0, 3.07100667774677704713e-01) (1, 2.56474695324898194215e-01) (0, -5.41460632085797033408e-02) (1, 2.29522318840029992959e-02) (0, 2.53995335817337464235e-01) (1, 3.15274327218532990358e-01) (0, 2.31442957341671445848e-01) (1, 2.77395903289318512819e-01) (0, -3.14365147352215490439e-02) (1, 1.02375860631466225614e-01) (0, 3.26975970685482453248e-01) (1, 3.00794183433056305788e-01) (0, 2.63447097659111451051e-01) (1, 1.71074814319611051561e-01) (0, 2.70118958473205994508e-01) (1, 3.05097489774227570436e-01) (0, 1.89130894064903715135e-01) (1, 3.38654517352581452272e-01) (0, -5.78969537019726476768e-02) (1, -1.81907533407208166221e-02) (0, 1.23864244043827370634e-01) (1, 4.22110961079600610635e-02) (0, 9.77139727473262109658e-02) (1, -6.55334113836285314658e-02) (0, 2.75927550315857361696e-01) (1, 3.30058365285397004030e-01) (0, 6.66831986308100976846e-02) (1, 2.80211985111550321292e-04) (0, -3.46135577857491216758e-02) (1, 1.05863373100757912626e-01) (0, 3.41618417918682526491e-01) (1, 1.96404940605164030076e-01) (0, -4.64593290090557775596e-02) (1, 1.39894590973857202432e-02) (0, -2.32252298593517980674e-02) (1, 1.09456490099430397978e-01) (0, 9.10528705716136255166e-02) (1, -1.85368477106091222861e-02) (0, 3.47032695233822296998e-01) (1, 1.94240517139435270311e-01) (0, 2.16072346240282514573e-01) (1, 3.43666478216648529909e-01) (0, -2.17704965472218237021e-02) (1, -4.07922087907788000205e-02) (0, 3.01351039826870392702e-01) (1, 2.22438599139452436448e-01) (0, 1.01194466769695595731e-01) (1, 3.13487977981570520303e-02) (0, 1.75055242300034025194e-01) (1, 1.69111012637615659715e-01) (0, 2.45228440761569299600e-02) (1, 1.14215866923335351846e-02) (0, 1.84524537324908532998e-02) (1, -1.37369750738140783408e-02) (0, 2.18578233540058591844e-01) (1, 2.60034523129463623903e-01) (0, -2.41561314761635503867e-02) (1, 6.38383881449702539346e-02) (0, 2.27846204459667661668e-01) (1, 2.26795233011246183397e-01) (0, 3.63075821816921662233e-01) (1, 2.31048776924610593797e-01) (0, 1.24838755726817407510e-02) (1, 7.24293248057368554971e-02) (0, -2.43877253234383306602e-02) (1, -2.85953960120674810508e-02) (0, 2.93066113412380646608e-01) (1, 1.77648975670338132860e-01) (0, 1.22073869526386574735e-01) (1, -4.86040456891056737998e-02) (0, -3.22935363948342046836e-02) (1, 9.84175161719325342080e-02) (0, 1.99088431119919279100e-01) (1, 2.94976740300655793092e-01) (0, 4.98399690985682763955e-02) (1, 1.16312290847301796903e-01) (0, 3.56608807265758942506e-01) (1, 3.39858471572399567506e-01) (0, 2.16936598688364484788e-01) (1, 2.69074424326420258424e-01) (0, 3.49513455450535248659e-01) (1, 2.88415073573589753053e-01) (0, -3.22946837842461309531e-02) (1, 7.91912631392482080361e-02) (0, 2.63358085572720002077e-01) (1, 2.74942240834236573122e-01) (0, 1.69925904989243009569e-01) (1, 3.60316886723041962526e-01) (0, 2.61471673071384858034e-01) (1, 1.70054271042347410203e-01) (0, 3.17873149335384796998e-01) (1, 3.09523849904537629030e-01) (0, -5.70547177195545873740e-02) (1, -6.27885057330128393271e-02) (0, -3.05543026626106939414e-02) (1, -7.02780007123944006064e-02) (0, 3.33511366665363739870e-01) (1, 3.41089590609074067018e-01) (0, 6.84309409260752954385e-02) (1, -2.52600542008873663047e-02) (0, 1.10107417523861245146e-01) (1, 3.11666162014010705850e-02) (0, 7.32324377894404687783e-02) (1, 7.34789775013926782510e-02) (0, 1.71000988483432092568e-02) (1, 5.71906523108485498330e-02) (0, 5.91527478098872461221e-02) (1, 3.61387760639193811318e-02) (0, 4.02763293385508813760e-02) (1, -1.98610543012615881064e-02) (0, 5.11081622242930688760e-02) (1, 3.07199091911319055459e-02) (0, -3.47068986594673833945e-02) (1, -6.29855661392208776572e-02) (0, 5.75281487107280053994e-02) (1, -6.85452564358708105186e-02) (0, 2.55775734007358979127e-01) (1, 2.38432987749577024461e-01) (0, 1.18952836215496376981e-01) (1, 9.62329016327861108682e-02) (0, 4.22765420079234399697e-02) (1, -2.30236041545836545019e-03) (0, -3.98703484535214147666e-02) (1, -4.50064657926556310752e-02) (0, 2.72259994566441010377e-01) (1, 2.89473905384540985963e-01) (0, 2.03583936363459089280e-01) (1, 2.50924020230770539186e-01) (0, 5.56356714367869653604e-02) (1, -7.54155113101002416709e-02) (0, -5.25792210102078161338e-02) (1, -4.30714531540867529014e-02) (0, 1.94017431855202177049e-01) (1, 2.66626320004463623903e-01) (0, -3.57242568135258398154e-02) (1, 3.83197621703151025674e-02) (0, 3.36116104543209504030e-01) (1, 3.19125740945339630983e-01) (0, 3.61995398223400544069e-01) (1, 2.72320910513401459596e-01) (0, 3.13202141940594147584e-01) (1, 2.03962004899979093553e-01) (0, -3.49062761962410650352e-02) (1, -1.38580879867073736289e-02) (0, 1.83074197888374784471e-01) (1, 3.43788444221020172975e-01) (0, 2.67952500998974274538e-01) (1, 2.93307393014431427858e-01) (0, 2.32991784036159971238e-01) (1, 3.08529301702976654909e-01) (0, 2.67565830767155121706e-01) (1, 1.94664455175400236131e-01) (0, 1.01223956167698220243e-01) (1, -7.30870707631108007529e-02) (0, 3.21492909610271881959e-01) (1, 3.46991344511509369752e-01) (0, 2.99146234214306305788e-01) (1, 1.66341087937355497361e-01) (0, 7.03389154076579370400e-02) (1, 4.19528068304065027139e-02) (0, -4.33226196765896520713e-02) (1, -6.74072026014324865439e-02) (0, -5.69237365126606664756e-02) (1, -6.13153620362278661826e-02) (0, 1.68642266809940793992e-01) (1, 1.86317994415760496141e-01) (0, 2.21999914646151819131e-02) (1, -2.89125411510464391807e-02) (0, 1.22785832107067421903e-01) (1, 1.17199222862720803251e-01) (0, 2.32235298752787866494e-02) (1, -2.62727259397503576377e-02) (0, 3.30177336156368683717e-01) (1, 3.06054457247257660768e-01) (0, 2.72866009891033600709e-01) (1, 2.74626336216927002809e-01) (0, 2.60465345501900147340e-01) (1, 2.56691157042980622194e-01) (0, -1.61005786359307012656e-02) (1, 5.34665243029597558877e-02) (0, 6.77489445805552759072e-02) (1, 1.12388219058513955106e-01) (0, -3.51890965104099950889e-02) (1, 3.27808887958529748818e-02) (0, 2.44369871139526823045e-01) (1, 3.40142636716366242311e-01) (0, 1.93028531193733671190e-01) (1, 2.46130637049675443651e-01) (0, 9.32570354342463769814e-02) (1, 2.67821879386904992959e-02) (0, 2.24046430706978300096e-01) (1, 3.63986774504185151002e-01) (0, 1.01488496482372597685e-01) (1, -2.68546907901760778525e-02) (0, 3.49084704339504670045e-01) (1, 2.82099305808544587038e-01) (0, 2.58673153042793702028e-01) (1, 3.35373534977436493776e-01) (0, 2.38516426801681974412e-01) (1, 3.61234738647938202760e-01) (0, 2.87885672569275330446e-01) (1, 3.10275524079800080202e-01) (0, -2.35651067197319707969e-02) (1, -2.87425208091704464941e-03) (0, 1.88244699656963804246e-01) (1, 2.44325614690781095506e-01) (0, 1.96254066348076322557e-01) (1, 2.57803305208683442018e-01) (0, 3.15861313760281037233e-01) (1, 2.96867846667766999147e-01) (0, 2.73633404791355561159e-01) (1, 1.72345130860805967332e-01) (0, 2.20260213285685041429e-01) (1, 3.29014896571636628053e-01) (0, -7.09330557584759435752e-02) (1, 8.40184049010279931924e-02) (0, -4.68640445470806799033e-02) (1, 1.19244487285617151162e-02) (0, 3.10190885484219025514e-01) (1, 1.93982905864716032029e-01) (0, 4.62853716015818872354e-02) (1, -2.57906510233875951865e-02) (0, -7.53163981437651730566e-03) (1, 7.15337054133418359658e-02) (0, 1.22937138497829751005e-01) (1, 6.04107783436778345010e-02) (0, -2.00606404542919836143e-02) (1, 9.67169062495234765908e-02) (0, 2.16876409173012235643e-01) (1, 2.57473937392235230348e-01) (0, -5.99081112742420873740e-02) (1, -1.97473956942555151084e-02) (0, 2.01443514943123319627e-01) (1, 2.76812671840191315553e-01) (0, -3.38544442057606420615e-02) (1, 6.42555759549144067666e-02) (0, 2.39401198148727872850e-01) (1, 2.31661907553673246385e-01) (0, 1.17329667627811745634e-01) (1, 1.56274766922000207803e-02) (0, 3.46934943616390656373e-01) (1, 3.51325958192348908327e-01) (0, 3.50970222771168183229e-01) (1, 1.72189167857170560838e-01) (0, -4.09239201545712194541e-02) (1, 4.76233394145968713662e-02) (0, 3.01373361766338776491e-01) (1, 1.97785011649132230760e-01) (0, 1.88283599138260343553e-01) (1, 2.98117025911808442018e-01) (0, 2.68462187767029236696e-01) (1, 2.59603514492512177370e-01) (0, 1.71931809902191617967e-01) (1, 2.73579544544220398805e-01) (0, 2.71816806197169580361e-02) (1, 9.84498218894007959268e-02) (0, 1.02113227665424660673e-01) (1, 7.28692666888240137002e-02) (0, 2.09515164762735822679e-01) (1, 3.37065681040287445924e-01) (0, 2.78609416604042481325e-01) (1, 2.04042653709650495530e-01) (0, 1.20588015139103249540e-01) (1, -2.14103988111015997031e-02) (0, 2.51336029887199829957e-01) (1, 2.20307025283575513841e-01) (0, 3.15849884569645356081e-01) (1, 3.04750829160213898561e-01) (0, 3.62932740867138337038e-01) (1, 2.26259078055620649339e-01) (0, 3.52011828839779328248e-01) (1, 2.78531252563000153444e-01) (0, 5.03364757895472803018e-02) (1, 6.10063330531123437783e-02) (0, -1.06148986816403112510e-02) (1, 5.13318286538127221963e-02) (0, 2.29797071933746793748e-01) (1, 2.15085926622152784349e-01) (0, 1.64833686470985868455e-01) (1, 1.75472206592560270311e-01) (0, 1.77042409002781370164e-01) (1, 1.67393631458282926561e-01) (0, 2.00411281704903104783e-01) (1, 3.28020109951496552370e-01) (0, 9.48316168785126589746e-03) (1, 3.93715680837634363076e-02) (0, -2.62648693025109014609e-02) (1, 2.22645134925845422647e-02) (0, 2.95612498342991303346e-01) (1, 1.75009756505489805223e-01) (0, -3.53671802878376684287e-02) (1, 3.96845893263819970986e-02) (0, 3.46706317067149438760e-02) (1, -3.47038029432293615439e-02) (0, 2.29066065669060209276e-01) (1, 3.29049541771412323854e-01) (0, 3.51331620633602570436e-01) (1, 2.46073133468628385545e-01) (0, -7.32244445681568822959e-02) (1, -2.72907322943207464316e-02) (0, -1.94335772395130834678e-02) (1, 3.57354910373690881631e-02) (0, 3.02233590900898407838e-01) (1, 2.55641988635063599489e-01) (0, 1.90610519766808012010e-01) (1, 2.06667347967625120164e-01) (0, 2.73797831654549073122e-01) (1, 3.35776641190052460573e-01) (0, -2.64336398541924200156e-02) (1, -1.43184966146942815879e-02) (0, 2.44908130884170988084e-01) (1, 1.86517647624016263963e-01) (0, 2.17738601535559156419e-01) (1, 3.48370715200901459596e-01) (0, 2.82345242023468445680e-01) (1, 1.92231125354767301561e-01) (0, 2.44176088988781431199e-01) (1, 2.83155246794224213502e-01) (0, -3.41188802123066625693e-02) (1, 1.99093551635745324990e-02) (0, 7.24163458943370141885e-02) (1, -4.25634204149243078330e-02) (0, 3.32484557449818085573e-01) (1, 2.83499277353287171266e-01) (0, 1.87921351909637907029e-01) (1, 2.09796543389559247972e-01) (2, 2.66158699214458893678e-01) (3, 3.44940274178982209108e-01) (4, 2.26705393910408475877e-01) (5, 2.53182924509048890016e-01) (6, 2.61116600751877259157e-01) (7, 2.02425803214312055589e-01) (8, 1.86108163714409330369e-01) (9, 3.35655241429806183717e-01) (10, 1.73133290529251554490e-01) (11, 2.66936465322971772096e-01) (12, 2.16784819185734251024e-01) (13, 3.18133547127247284791e-01) (14, 2.86078057408333252809e-01) (15, 3.29609244287014435670e-01) (16, 3.58135967671871613405e-01) (17, 2.06848121404648283006e-01) (18, 3.12039761960506867311e-01) (19, 2.68052979528904389284e-01) (20, 1.82153350830078580858e-01) (21, 2.67064965486526917360e-01) (22, 1.76521501660347440721e-01) (23, 2.12613488703966596605e-01) (24, 2.10611841797829130174e-01) (25, 1.68874359846115568162e-01) (26, 2.87010177195072602174e-01) (27, 1.95654145598412015916e-01) (28, 1.74969694733620145799e-01) (29, 3.31406979978084992311e-01) (30, 1.72840959548950651170e-01) (31, 3.53734373271465729616e-01) (32, 2.29218132019043424608e-01) (33, 2.84750423550606202028e-01) (34, 2.16049763530493238450e-01) (35, 1.64035915553570249559e-01) (36, 1.67355171561241605760e-01) (37, 3.54086234390736054323e-01) (38, 3.42861875116825531862e-01) (39, 2.95160337507725190065e-01) (40, 1.75526938557625272752e-01) (41, 2.96967937767506073854e-01) (42, 3.55779989778995942018e-01) (43, 2.10071663528681257249e-01) (44, 2.90096610009670685670e-01) (45, 2.69549629807472657106e-01) (46, 3.36259110987186859987e-01) (47, 3.22605311095714997194e-01) (48, 2.43041723191738584520e-01) (49, 2.17888067632914045335e-01) (50, 2.60445854783058594606e-01) (51, 3.29124733030796479127e-01) (52, 2.15006931841373899461e-01) (53, 2.37190320312977293016e-01) (54, 2.73397407650947998903e-01) (55, 2.05880145698786237718e-01) (56, 2.43234506964683988572e-01) (57, 2.58004940271377991579e-01) (58, 3.04737120091915558717e-01) (59, 3.32513480603695343873e-01) (60, 1.69623240053654172899e-01) (61, 2.73478961706161927125e-01) (62, 1.76537237286568143846e-01) (63, 2.76992938637733887575e-01) (64, 2.36017986357212522508e-01) (65, 1.70021302223206022264e-01) (66, 3.63656624376774262331e-01) (67, 1.92594274103641965867e-01) (68, 3.47659378468990754030e-01) (69, 3.26769485294819306276e-01) (70, 2.30295605182648160936e-01) (71, 1.93901374161243894578e-01) (72, 3.16058754146099518678e-01) (73, 2.15029279857874372484e-01) (74, 2.12748042464256742479e-01) (75, 2.72006808936596344850e-01) (76, 2.33992061734199979783e-01) (77, 3.20195018470287751100e-01) (78, 3.33212851703167389772e-01) (79, 3.24044107615948151491e-01) (80, 2.24876067757606962205e-01) (81, 3.07699828565121125123e-01) (82, 3.26668708741665314577e-01) (83, 3.36780428111553620241e-01) (84, 2.84383780479431580446e-01) (85, 2.53931320428848694704e-01) (86, 2.39312916219234922410e-01) (87, 3.47866817533970307252e-01) (88, 2.13305848807096937181e-01) (89, 2.47076793730259397508e-01) (90, 2.35343686461449125291e-01) (91, 2.36998773336410978319e-01) (92, 2.54001624107361267946e-01) (93, 2.21036757498980024339e-01) (94, 1.80496803641319730760e-01) (95, 2.25477914482355573655e-01) (96, 2.22986261516809919359e-01) (97, 3.45715372979641388795e-01) (98, 2.53836332976818512819e-01) (99, 2.42919854044914701463e-01) (100, 1.69684968113899686815e-01) (101, 3.10984729945660065553e-01) (102, 3.36037545621395539186e-01) (103, 1.98771855950355985643e-01) (104, 1.74216470837593534471e-01) (105, 2.71955735206604432008e-01) (106, 1.75775884807110288621e-01) (107, 2.80960596323013733766e-01) (108, 3.20396914303303192995e-01) (109, 3.26527773559093903444e-01) (110, 1.67923159122467496873e-01) (111, 3.00204648792744110963e-01) (112, 3.55188488185406159303e-01) (113, 2.68522805690765808961e-01) (114, 2.78408951282501648805e-01) (115, 2.35041133284569242479e-01) (116, 3.52001621544361542604e-01) (117, 3.06754975736141632936e-01) (118, 2.46347203075886228563e-01) (119, 1.73152684390545347215e-01) (120, 1.92829608142376401902e-01) (121, 3.02898212492466401002e-01) (122, 2.25991870433092573167e-01) (123, 2.61031403362751435182e-01) (124, 1.70481971621513822557e-01) (125, 3.06238337576389740846e-01) (126, 3.63485141813755463502e-01) (127, 3.10396044671535920045e-01) (128, 2.42110586881638029100e-01) (129, 1.68217486858368375779e-01) (130, 2.46972478151321866990e-01) (131, 2.82020962953567932985e-01) (132, 3.42011748969555329225e-01) (133, 2.07123047828674772264e-01) (134, 3.32742273032665680788e-01) (135, 2.14940722256899335862e-01) (136, 3.24466883361339997194e-01) (137, 3.30522804677486847780e-01) (138, 3.12470673739910553834e-01) (139, 3.10348122537136505983e-01) (140, 2.36705183207989194871e-01) (141, 3.19669901549816559694e-01) (142, 3.07749643146992157838e-01) (143, 3.63864823400974701784e-01) (144, 2.91823460876942109010e-01) (145, 2.92425378382206391237e-01) (146, 2.08923324167728879930e-01) (147, 1.90019584417343595506e-01) (148, 2.74779363691807221315e-01) (149, 2.32355854630470731736e-01) (150, 2.20477859646082380296e-01) (151, 1.87031715333462217332e-01) (152, 2.57709033012390564821e-01) (153, 3.31433206021786164186e-01) (154, 2.13656514108181455613e-01) (155, 3.40728863298893402956e-01) (156, 2.45627566397190549852e-01) (157, 2.78240925788879822633e-01) (158, 2.11036662727594831468e-01) (159, 3.08830349862575959108e-01) (160, 3.27136679708958100221e-01) (161, 2.01945002347231367112e-01) (162, 3.05342777788639496706e-01) (163, 3.11708479344845246217e-01) (164, 2.99940317094326447389e-01) (165, 3.12474846065044831178e-01) (166, 1.80320567607880094529e-01) (167, 2.63453855335712860963e-01) (168, 2.84613526582718323610e-01) (169, 3.15119116723537873170e-01) (170, 2.22627635270357587816e-01) (171, 3.18324743926525544069e-01) (172, 2.99521102726459931276e-01) (173, 2.66810960292816590211e-01) (174, 3.07465612113476227663e-01) (175, 1.90084806799889066697e-01) (176, 1.71029857516289213182e-01) (177, 3.14493968307972382448e-01) (178, 3.15805166184902619264e-01) (179, 3.53120415627956818483e-01) (180, 3.10527487814426850221e-01) (181, 2.51205048680305909059e-01) (182, 2.18912138760090330125e-01) (183, 2.72031209588051270387e-01) (184, 2.44208074331284025194e-01) (185, 2.20745417445898511888e-01) (186, 2.83933579146862458131e-01) (187, 2.87248811841011475465e-01) (188, 2.06518127739429929735e-01) (189, 1.65867536485195615770e-01) (190, 3.51409762322903107545e-01) (191, 3.59369187772274445436e-01) (192, 3.33777158677578400514e-01) (193, 2.08194895803928831102e-01) (194, 3.47303717553615998170e-01) (195, 3.49242209613323639772e-01) (196, 3.29536183893681000612e-01) (197, 3.30421238362789582155e-01) (198, 2.05559889942408063890e-01) (199, 2.60752356767654847047e-01) (200, 2.80508286476135682008e-01) (201, 3.18387746036053131959e-01) (202, 3.58464866101742218873e-01) 
