FANN_FLO_2.1
num_layers=3
learning_rate=0.700000
connection_rate=1.000000
network_type=0
learning_momentum=0.000000
training_algorithm=2
train_error_function=1
train_stop_function=0
cascade_output_change_fraction=0.010000
quickprop_decay=-0.000100
quickprop_mu=1.750000
rprop_increase_factor=1.200000
rprop_decrease_factor=0.500000
rprop_delta_min=0.000000
rprop_delta_max=50.000000
rprop_delta_zero=0.100000
cascade_output_stagnation_epochs=12
cascade_candidate_change_fraction=0.010000
cascade_candidate_stagnation_epochs=12
cascade_max_out_epochs=150
cascade_min_out_epochs=50
cascade_max_cand_epochs=150
cascade_min_cand_epochs=50
cascade_num_candidate_groups=2
bit_fail_limit=3.49999999999999977796e-01
cascade_candidate_limit=1.00000000000000000000e+03
cascade_weight_multiplier=4.00000000000000022204e-01
cascade_activation_functions_count=10
cascade_activation_functions=3 5 7 8 10 11 14 15 16 17 
cascade_activation_steepnesses_count=4
cascade_activation_steepnesses=2.50000000000000000000e-01 5.00000000000000000000e-01 7.50000000000000000000e-01 1.00000000000000000000e+00 
layer_sizes=2 201 2 
scale_included=0
neurons (num_inputs, activation_function, activation_steepness)=(0, 0, 0.00000000000000000000e+00) (0, 0, 0.00000000000000000000e+00) (2, 4, 5.00000000000000000000e-01) (2, 4, 5.00000000000000000000e-01) (2, 4, 5.00000000000000000000e-01) (2, 4, 5.00000000000000000000e-01) (2, 4, 5.00000000000000000000e-01) (2, 4, 5.00000000000000000000e-01) (2, 4, 5.00000000000000000000e-01) (2, 4, 5.00000000000000000000e-01) (2, 4, 5.00000000000000000000e-01) (2, 4, 5.00000000000000000000e-01) (2, 4, 5.00000000000000000000e-01) (2, 4, 5.00000000000000000000e-01) (2, 4, 5.00000000000000000000e-01) (2, 4, 5.00000000000000000000e-01) (2, 4, 5.00000000000000000000e-01) (2, 4, 5.00000000000000000000e-01) (2, 4, 5.00000000000000000000e-01) (2, 4, 5.00000000000000000000e-01) (2, 4, 5.00000000000000000000e-01) (2, 4, 5.00000000000000000000e-01) (2, 4, 5.00000000000000000000e-01) (2, 4, 5.00000000000000000000e-01) (2, 4, 5.00000000000000000000e-01) (2, 4, 5.00000000000000000000e-01) (2, 4, 5.00000000000000000000e-01) (2, 4, 5.00000000000000000000e-01) (2, 4, 5.00000000000000000000e-01) (2, 4, 5.00000000000000000000e-01) (2, 4, 5.00000000000000000000e-01) (2, 4, 5.00000000000000000000e-01) (2, 4, 5.00000000000000000000e-01) (2, 4, 5.00000000000000000000e-01) (2, 4, 5.00000000000000000000e-01) (2, 4, 5.00000000000000000000e-01) (2, 4, 5.00000000000000000000e-01) (2, 4, 5.00000000000000000000e-01) (2, 4, 5.00000000000000000000e-01) (2, 4, 5.00000000000000000000e-01) (2, 4, 5.00000000000000000000e-01) (2, 4, 5.00000000000000000000e-01) (2, 4, 5.00000000000000000000e-01) (2, 4, 5.00000000000000000000e-01) (2, 4, 5.00000000000000000000e-01) (2, 4, 5.00000000000000000000e-01) (2, 4, 5.00000000000000000000e-01) (2, 4, 5.00000000000000000000e-01) (2, 4, 5.00000000000000000000e-01) (2, 4, 5.00000000000000000000e-01) (2, 4, 5.00000000000000000000e-01) (2, 4, 5.00000000000000000000e-01) (2, 4, 5.00000000000000000000e-01) (2, 4, 5.00000000000000000000e-01) (2, 4, 5.00000000000000000000e-01) (2, 4, 5.00000000000000000000e-01) (2, 4, 5.00000000000000000000e-01) (2, 4, 5.00000000000000000000e-01) (2, 4, 5.00000000000000000000e-01) (2, 4, 5.00000000000000000000e-01) (2, 4, 5.00000000000000000000e-01) (2, 4, 5.00000000000000000000e-01) (2, 4, 5.00000000000000000000e-01) (2, 4, 5.00000000000000000000e-01) (2, 4, 5.00000000000000000000e-01) (2, 4, 5.00000000000000000000e-01) (2, 4, 5.00000000000000000000e-01) (2, 4, 5.00000000000000000000e-01) (2, 4, 5.00000000000000000000e-01) (2, 4, 5.00000000000000000000e-01) (2, 4, 5.00000000000000000000e-01) (2, 4, 5.00000000000000000000e-01) (2, 4, 5.00000000000000000000e-01) (2, 4, 5.00000000000000000000e-01) (2, 4, 5.00000000000000000000e-01) (2, 4, 5.00000000000000000000e-01) (2, 4, 5.00000000000000000000e-01) (2, 4, 5.00000000000000000000e-01) (2, 4, 5.00000000000000000000e-01) (2, 4, 5.00000000000000000000e-01) (2, 4, 5.00000000000000000000e-01) (2, 4, 5.00000000000000000000e-01) (2, 4, 5.00000000000000000000e-01) (2, 4, 5.00000000000000000000e-01) (2, 4, 5.00000000000000000000e-01) (2, 4, 5.00000000000000000000e-01) (2, 4, 5.00000000000000000000e-01) (2, 4, 5.00000000000000000000e-01) (2, 4, 5.00000000000000000000e-01) (2, 4, 5.00000000000000000000e-01) (2, 4, 5.00000000000000000000e-01) (2, 4, 5.00000000000000000000e-01) (2, 4, 5.00000000000000000000e-01) (2, 4, 5.00000000000000000000e-01) (2, 4, 5.00000000000000000000e-01) (2, 4, 5.00000000000000000000e-01) (2, 4, 5.00000000000000000000e-01) (2, 4, 5.00000000000000000000e-01) (2, 4, 5.00000000000000000000e-01) (2, 4, 5.00000000000000000000e-01) (2, 4, 5.00000000000000000000e-01) (2, 4, 5.00000000000000000000e-01) (2, 4, 5.00000000000000000000e-01) (2, 4, 5.00000000000000000000e-01) (2, 4, 5.00000000000000000000e-01) (2, 4, 5.00000000000000000000e-01) (2, 4, 5.00000000000000000000e-01) (2, 4, 5.00000000000000000000e-01) (2, 4, 5.00000000000000000000e-01) (2, 4, 5.00000000000000000000e-01) (2, 4, 5.00000000000000000000e-01) (2, 4, 5.00000000000000000000e-01) (2, 4, 5.00000000000000000000e-01) (2, 4, 5.00000000000000000000e-01) (2, 4, 5.00000000000000000000e-01) (2, 4, 5.00000000000000000000e-01) (2, 4, 5.00000000000000000000e-01) (2, 4, 5.00000000000000000000e-01) (2, 4, 5.00000000000000000000e-01) (2, 4, 5.00000000000000000000e-01) (2, 4, 5.00000000000000000000e-01) (2, 4, 5.00000000000000000000e-01) (2, 4, 5.00000000000000000000e-01) (2, 4, 5.00000000000000000000e-01) (2, 4, 5.00000000000000000000e-01) (2, 4, 5.00000000000000000000e-01) (2, 4, 5.00000000000000000000e-01) (2, 4, 5.00000000000000000000e-01) (2, 4, 5.00000000000000000000e-01) (2, 4, 5.00000000000000000000e-01) (2, 4, 5.00000000000000000000e-01) (2, 4, 5.00000000000000000000e-01) (2, 4, 5.00000000000000000000e-01) (2, 4, 5.00000000000000000000e-01) (2, 4, 5.00000000000000000000e-01) (2, 4, 5.00000000000000000000e-01) (2, 4, 5.00000000000000000000e-01) (2, 4, 5.00000000000000000000e-01) (2, 4, 5.00000000000000000000e-01) (2, 4, 5.00000000000000000000e-01) (2, 4, 5.00000000000000000000e-01) (2, 4, 5.00000000000000000000e-01) (2, 4, 5.00000000000000000000e-01) (2, 4, 5.00000000000000000000e-01) (2, 4, 5.00000000000000000000e-01) (2, 4, 5.00000000000000000000e-01) (2, 4, 5.00000000000000000000e-01) (2, 4, 5.00000000000000000000e-01) (2, 4, 5.00000000000000000000e-01) (2, 4, 5.00000000000000000000e-01) (2, 4, 5.00000000000000000000e-01) (2, 4, 5.00000000000000000000e-01) (2, 4, 5.00000000000000000000e-01) (2, 4, 5.00000000000000000000e-01) (2, 4, 5.00000000000000000000e-01) (2, 4, 5.00000000000000000000e-01) (2, 4, 5.00000000000000000000e-01) (2, 4, 5.00000000000000000000e-01) (2, 4, 5.00000000000000000000e-01) (2, 4, 5.00000000000000000000e-01) (2, 4, 5.00000000000000000000e-01) (2, 4, 5.00000000000000000000e-01) (2, 4, 5.00000000000000000000e-01) (2, 4, 5.00000000000000000000e-01) (2, 4, 5.00000000000000000000e-01) (2, 4, 5.00000000000000000000e-01) (2, 4, 5.00000000000000000000e-01) (2, 4, 5.00000000000000000000e-01) (2, 4, 5.00000000000000000000e-01) (2, 4, 5.00000000000000000000e-01) (2, 4, 5.00000000000000000000e-01) (2, 4, 5.00000000000000000000e-01) (2, 4, 5.00000000000000000000e-01) (2, 4, 5.00000000000000000000e-01) (2, 4, 5.00000000000000000000e-01) (2, 4, 5.00000000000000000000e-01) (2, 4, 5.00000000000000000000e-01) (2, 4, 5.00000000000000000000e-01) (2, 4, 5.00000000000000000000e-01) (2, 4, 5.00000000000000000000e-01) (2, 4, 5.00000000000000000000e-01) (2, 4, 5.00000000000000000000e-01) (2, 4, 5.00000000000000000000e-01) (2, 4, 5.00000000000000000000e-01) (2, 4, 5.00000000000000000000e-01) (2, 4, 5.00000000000000000000e-01) (2, 4, 5.00000000000000000000e-01) (2, 4, 5.00000000000000000000e-01) (2, 4, 5.00000000000000000000e-01) (2, 4, 5.00000000000000000000e-01) (2, 4, 5.00000000000000000000e-01) (2, 4, 5.00000000000000000000e-01) (2, 4, 5.00000000000000000000e-01) (2, 4, 5.00000000000000000000e-01) (2, 4, 5.00000000000000000000e-01) (2, 4, 5.00000000000000000000e-01) (2, 4, 5.00000000000000000000e-01) (2, 4, 5.00000000000000000000e-01) (2, 4, 5.00000000000000000000e-01) (2, 4, 5.00000000000000000000e-01) (2, 4, 5.00000000000000000000e-01) (2, 4, 5.00000000000000000000e-01) (0, 0, 0.00000000000000000000e+00) (201, 4, 5.00000000000000000000e-01) (0, 0, 0.00000000000000000000e+00) 
connections (connected_to_neuron, weight)=(0, 2.24520712902547758816e+00) (1, -3.61904636343493124606e-01) (0, -1.69493669897486176623e+00) (1, -2.57817680127628623410e-01) (0, -1.08276796151281695657e+00) (1, -6.35180697564856733273e-01) (0, -1.19198803227412497563e+00) (1, -7.02960752670542921017e-01) (0, -8.54213394601892384017e-01) (1, -1.22667649993841920697e+00) (0, -1.20897204872064345516e+00) (1, -5.96652553205267888181e-01) (0, -1.63022325813938584460e+00) (1, -2.19040544815071402951e-01) (0, 9.26019917658928298776e-02) (1, -9.07044674149757534920e-01) (0, -6.24410915714193270887e-01) (1, -5.02046668063691192696e-02) (0, 2.25580137779714506863e+00) (1, -5.04304413070454815582e-01) (0, 1.28216847353375296148e-01) (1, -9.28135226360565335213e-01) (0, -1.64970701068808045520e+00) (1, -2.82587165124424277707e-01) (0, 2.24821337124111098049e+00) (1, -4.35961969514860880892e-01) (0, 2.34362616201641005276e+00) (1, -4.33025427480711710970e-01) (0, 2.29789250155689162014e+00) (1, -4.78788622041716460664e-01) (0, -1.56385044634510483874e+00) (1, -2.91276717669971763058e-01) (0, -1.71687646463681664599e+00) (1, -1.99454637355812314237e-01) (0, 2.25661761870386046169e+00) (1, -3.85743484219088217380e-01) (0, -7.98022809964109458569e-01) (1, 5.47467968333670423897e-02) (0, -2.24227067431654880636e+00) (1, -1.92052412630333968480e+00) (0, 2.32339718004466933010e+00) (1, -4.21805769523157847445e-01) (0, -1.65321364134718384875e+00) (1, -2.18472333736427604123e-01) (0, 2.22624292781354826687e+00) (1, -4.93231434693112369416e-01) (0, -1.70424192652274575366e+00) (1, -2.50828804559715567990e-01) (0, -1.16236006539158576167e+00) (1, -5.89062453036086064451e-01) (0, -1.66360061496664490832e+00) (1, -1.92339601106651547635e-01) (0, 2.96627159564135621517e-02) (1, -8.58784410728875569063e-01) (0, 2.32687105795146864651e+00) (1, -4.36048627217783701937e-01) (0, -1.63283224284817185534e+00) (1, -2.68268467969902335568e-01) (0, -7.19387412448476704085e-01) (1, -1.40660469839518342816e+00) (0, -1.60887074351479020251e+00) (1, -3.47525866813667594357e-01) (0, -1.29117868128794666127e+00) (1, -5.19240082030074101560e-01) (0, -8.02483211797166862134e-01) (1, 8.88389027584502166679e-02) (0, -8.02660297196794547681e-01) (1, 1.12573964046330160516e-01) (0, 2.27641104718448561428e+00) (1, -5.17526686509623745636e-01) (0, 4.09397759513324799308e-01) (1, -9.45987718233936902834e-01) (0, -1.72278549030591454638e+00) (1, -3.12511718012102424069e-01) (0, -6.57291162353444979871e-01) (1, 1.31688592480511318383e-01) (0, 2.33593215605022352932e+00) (1, -5.46213515420928219513e-01) (0, -1.57397764802147355212e+00) (1, -2.99164759106643973752e-01) (0, -2.23777682801995103645e+00) (1, -1.81407477389719584693e+00) (0, -5.00882173542410380485e-01) (1, -1.18065691911142023329e+00) (0, -1.60134224474598374499e+00) (1, -2.15766819305427848263e-01) (0, -5.53907830946037127440e-01) (1, -1.05439288667888808604e+00) (0, -1.21393168750781055287e+00) (1, -6.28883533899562086056e-01) (0, -7.79942068797040755079e-01) (1, 1.37744945930332790551e-01) (0, -2.85816027297243824279e+00) (1, 3.11413030949543800929e+00) (0, -1.63301400367171956063e+00) (1, 7.18107229179517858597e-01) (0, -2.21840414872679536629e+00) (1, -1.81751635353710749854e+00) (0, 3.18518967406219710714e-01) (1, -9.45864597389572736574e-01) (0, 2.26651207169296187161e+00) (1, -4.89690810760035399873e-01) (0, -1.59690189242531266345e+00) (1, -1.86796637363441708768e-01) (0, -1.17352201115183585323e+00) (1, -5.87880254511610966794e-01) (0, -6.37792203169752047742e-01) (1, 5.05251414049574659737e-02) (0, -7.41975653510976607130e-01) (1, 3.92274758685538099678e-02) (0, 2.34188037177326124905e+00) (1, -3.74766245802416464450e-01) (0, -1.22644062633979018528e+01) (1, -3.30469452498636462323e+00) (0, -2.20013049220886180990e+00) (1, -1.88243420850184084436e+00) (0, 4.44222413973278107413e-01) (1, -8.47966725060814496828e-01) (0, -1.68383350104261841906e+00) (1, -2.46438825614460232938e-01) (0, -7.70125504177499586866e-01) (1, 1.24856156753391928094e-01) (0, -1.21172132376212116078e+00) (1, -6.79559875999467100094e-01) (0, -2.20008424392256562996e+00) (1, -1.87869911268858569287e+00) (0, 2.25202445497514647244e+00) (1, -3.83036926706804892184e-01) (0, 2.25485549678804320095e+00) (1, -4.01756286939158102633e-01) (0, -1.27620989862460132436e+00) (1, -5.38906604771391850583e-01) (0, -2.24066630473646943855e+00) (1, -1.88389675923112842604e+00) (0, -2.16291499605688875008e+00) (1, -1.81140526067164042701e+00) (0, -6.59907940369535372938e-01) (1, -4.87969392072251512138e-02) (0, 2.31547915002109450100e+00) (1, -5.00026874562278123015e-01) (0, 2.20468357389571112392e+00) (1, -4.41183328946604502718e-01) (0, 2.18813954850437086819e+00) (1, -4.96688653101697075165e-01) (0, 2.31024213691951674221e+00) (1, -5.18609427233710507110e-01) (0, 2.28781147857906264065e+00) (1, -5.10707807113900402740e-01) (0, -2.17613199821028535652e+00) (1, -1.91330525652079241894e+00) (0, 2.22686063309909743069e+00) (1, -5.11392955055012921051e-01) (0, -1.74489913761784043444e+00) (1, -1.76588522381790402616e-01) (0, -9.67252629786289119806e+00) (1, -4.36590099974486189893e+00) (0, 2.28373947551252287624e+00) (1, -5.48653632720484951690e-01) (0, 2.33482143839599531887e+00) (1, -4.14079562147631419222e-01) (0, -1.59883683800865616931e+00) (1, -3.07383237518080054684e-01) (0, -1.61919011056591477526e+00) (1, -1.84957357234962704862e-01) (0, -1.60743331790138688220e+00) (1, -1.88603999204643490994e-01) (0, -1.23010741393434699376e+01) (1, -1.16842298779745190629e+00) (0, -1.14869002695970290340e+00) (1, -6.36834435884730543087e-01) (0, -2.34578852468277077037e+00) (1, -2.16209839255030633609e+00) (0, -1.19928706880502455867e+00) (1, -6.21238865678088392208e-01) (0, -1.65233648449350800647e+00) (1, -2.76029782481201468869e-01) (0, 3.82212878243393117117e-01) (1, -8.42314044067734357668e-01) (0, -1.67934923499990906848e+00) (1, -2.79262008256920157834e-01) (0, -2.84903429521784534728e+00) (1, -1.77754550855305293311e+00) (0, 5.26994042790480390556e-04) (1, -1.01141473545790239186e+00) (0, -7.71963271838117415236e-01) (1, 3.74355888832518385323e-02) (0, -1.69431965679098572863e+00) (1, -2.87148999161728202267e-01) (0, -2.23976125171627948873e+00) (1, -1.94457392991795607884e+00) (0, 2.31819268127681654690e+00) (1, -4.93857305814995817261e-01) (0, -2.16978157034430330086e+00) (1, -1.81793345194008448829e+00) (0, -1.73549870282579865588e+00) (1, -1.83435501642235043729e-01) (0, 2.29018472691776198147e+00) (1, -4.23405558188929331820e-01) (0, -1.66495823155988431630e+00) (1, -6.96686029978854093336e-01) (0, -4.59495809822537348843e-01) (1, -1.24996188712997691184e+00) (0, -1.19331120397739165462e+00) (1, -5.84905267481581669919e-01) (0, -1.59360295415092911853e+00) (1, -3.41775821633346854611e-01) (0, -1.65529838085342850817e+00) (1, -2.56737755723007499142e-01) (0, -7.22669020672391804183e-01) (1, -1.36061762506311212384e+00) (0, -1.70408663779665436877e+00) (1, -2.40914667136677029813e-01) (0, -7.25647132438112074659e-01) (1, 7.26530975569197878805e-02) (0, -1.59355717778374161853e+00) (1, -1.72309102602012875760e-01) (0, -1.62827396273781266345e+00) (1, -2.57154444344051658078e-01) (0, -2.17036775222334687996e+00) (1, -1.86988290827419878504e+00) (0, -1.64997258663345780505e+00) (1, -3.45973389334686576291e-01) (0, -1.60381094992329087390e+00) (1, -3.07382403053053199216e-01) (0, 2.31474009712936323879e+00) (1, -5.21288834830298641876e-01) (0, -4.83078057531744542441e-01) (1, -1.14681325279634149794e+00) (0, 2.32916331847907942532e+00) (1, -5.10254454185738781646e-01) (0, -1.61012440800835099353e+00) (1, -2.17749180383690177365e-01) (0, -1.73969758927990403308e+00) (1, -1.54164003319748166287e-01) (0, -1.66353382796217408313e+00) (1, -2.69808160252579032345e-01) (0, -7.38517295163560683058e-01) (1, -3.60091351996949249337e-02) (0, -7.23500620168138430799e-01) (1, -5.07868104707291656563e-02) (0, -1.64811272055078950061e+00) (1, -2.87191594131000815793e-01) (0, -1.11172867264442198909e+00) (1, -6.27255127553717817257e-01) (0, -1.56762170672584977282e+00) (1, -2.74652743823536216183e-01) (0, 2.20219345574976843594e+00) (1, -4.92600594033970828889e-01) (0, -1.62585421319950773622e+00) (1, -6.75532110580069455885e-01) (0, -6.21750343185354159559e-01) (1, 6.60425401199767059257e-02) (0, -1.69726808250118699206e+00) (1, -2.41355592496402981961e-01) (0, -1.69246423125435319079e+00) (1, -3.03129384405620871945e-01) (0, 2.19519322922231596706e+00) (1, -5.45445464869513729766e-01) (0, -4.83559305433661046347e-01) (1, -1.03531891279380516835e+00) (0, -2.20297192758169124716e+00) (1, -1.83847453873303057215e+00) (0, -1.56956650197674241198e+00) (1, -1.61011235899933102811e-01) (0, 2.98871384040779397573e-01) (1, -9.62787414023750676151e-01) (0, 2.24467954596282881496e+00) (1, -4.28894579728617442171e-01) (0, -2.76182005444494227397e-01) (1, -1.18089803738279597312e+00) (0, 2.33606876989604872463e+00) (1, -4.50261995514406931918e-01) (0, -2.49556042739297012645e+00) (1, -1.97838232636864663760e+00) (0, 4.13975738958782257804e-01) (1, -1.00377758038985120947e+00) (0, -1.59688180566002335681e+00) (1, -2.49214017875202448193e-01) (0, -1.56913703560997452868e+00) (1, -3.42854181416042624875e-01) (0, -2.12582435181650941658e+00) (1, -1.82887991200831057093e+00) (0, -1.16616889159970038570e+00) (1, -6.03982657913939680050e-01) (0, -7.58372305671270119376e-01) (1, -1.27266096184199128949e+00) (0, -1.61648632466961350573e+00) (1, -3.42438737041958152219e-01) (0, 2.32297829350234907864e+00) (1, -4.61831547637953532259e-01) (0, -2.11276346912894075203e+00) (1, -1.91456344406750345044e+00) (0, -2.14221162071738069343e+00) (1, -1.84970219861414553186e+00) (0, 3.71017375068134480642e-01) (1, -1.00512504769312727149e+00) (0, -1.64378043145109620227e+00) (1, -2.74479100592144309445e-01) (0, -1.11119453419329028421e+00) (1, -6.00555085365550023191e-01) (0, -1.62012043476273026599e+00) (1, -2.20949011034973441525e-01) (0, 2.20074789410235327480e+00) (1, -3.88158336599840780856e-01) (0, -2.23822985192980716818e+00) (1, -1.81838585864451030005e+00) (0, -1.73904809981752839221e+00) (1, -2.38135123736866183286e-01) (0, -1.56615376353432145251e+00) (1, -2.03180389590271237577e-01) (0, 2.23802970161439818142e+00) (1, -3.92847374399675985934e-01) (0, 2.17058904280664366482e+00) (1, -4.68039609809889567416e-01) (0, 2.21458460574747961758e+00) (1, -4.34595704396738780062e-01) (0, -1.20841362360495563344e+00) (1, -6.87022962395922864864e-01) (0, 2.23428768476249617336e+00) (1, -4.84882369955553838015e-01) (0, 2.33839767237903517483e+00) (1, -5.08504387309327343658e-01) (0, -2.14325689247164552498e+00) (1, -1.81748127620365718116e+00) (0, -2.23317139944281528585e+00) (1, -1.80104999672319987525e+00) (0, 4.68556159214443268546e-01) (1, -8.70873058268898603274e-01) (0, -1.67051799476314988269e+00) (1, -2.52702767140873252316e-01) (0, -1.11632205356241565042e+00) (1, -5.78662038569228154294e-01) (0, 2.25640415956975859402e+00) (1, -3.73280719240679403903e-01) (0, -1.14600385423593276180e+00) (1, -6.90185443286673749874e-01) (0, -1.23235344919938083486e+00) (1, -6.43531040076987470577e-01) (0, -7.60586335849452788160e-01) (1, 4.95831868518301771553e-02) (0, -1.18307484384469741023e+00) (1, -5.42298690204398137205e-01) (0, -2.20233629247393558614e+00) (1, -1.94337757529034682591e+00) (0, -9.61450711428678417292e+00) (1, -4.43757454200598555616e+00) (0, -1.57738124620069242177e+00) (1, -5.90334669300181302809e-01) (0, -1.25979149374741550282e+00) (1, -5.94714664642588597410e-01) (0, -1.66012859970499482287e+00) (1, -2.38200986869342989927e-01) (0, -1.12656699564151518977e+00) (1, -6.14992112641112531612e-01) (0, 3.80660058037704640554e-01) (1, -9.40597692558640119387e-01) (0, -7.76268738847661787794e-01) (1, 7.54123902786680844201e-02) (0, 2.30175121685268324612e+00) (1, -4.25197825153841746371e-01) (0, -1.66335804641415085925e+00) (1, -3.15367849655159293576e-01) (0, -1.61656635880638566150e+00) (1, -2.87597516663082419797e-01) (0, -1.22851212765443023045e+01) (1, -3.26191750822744586102e+00) (0, -7.93095301431108290480e-01) (1, 7.13764927257010683981e-02) (0, 2.27027231266500395535e+00) (1, -4.91159539987816695650e-01) (0, 2.23805723150970381496e+00) (1, -5.30136771818175533966e-01) (0, -1.57220883548428025378e+00) (1, -1.70748086757667782987e-01) (0, -1.59222429871727433337e+00) (1, -1.70552702732094052518e-01) (0, 2.21137671356799048183e+00) (1, -5.49597330709471920684e-01) (0, -6.89525004070688174451e-01) (1, -2.27163606416275996869e-02) (0, -1.59225260507215216066e+00) (1, -7.33227346637112309402e-01) (0, -1.11103424727554700446e+00) (1, -3.74331780908253031193e-01) (0, -1.56344526887108292712e+00) (1, -2.81466731913097678586e-01) (0, 2.27941105326415938137e+00) (1, -4.96386915763392555512e-01) (0, -2.78370131404758122673e-02) (1, -1.05674743987507047116e+00) (0, -1.75775278985668625964e+00) (1, -2.07821624464996634885e-01) (0, -1.68720414370466675891e+00) (1, -2.96769028640993415280e-01) (0, -1.62613133967091050280e+00) (1, -2.46226290352352383817e-01) (0, -1.67843282263625837025e+00) (1, -8.20539377669639913293e-01) (0, 2.19990608280302923916e+00) (1, -5.36501206775679806427e-01) (2, -3.65140657119248715490e-02) (3, 1.11645116665393409616e-01) (4, 1.03921879157237231905e-01) (5, 8.06433670965949894738e-02) (6, 1.19676593565842016853e-02) (7, 4.88255921625992128643e-02) (8, 1.17556505897544738559e-01) (9, 5.23693195852479448371e-03) (10, 1.45265467824925970097e-01) (11, -2.15388233952020329010e-02) (12, 3.93699563416680716615e-03) (13, 9.55385707402530287569e-02) (14, -3.23094274095986691564e-02) (15, -2.59091700605844042771e-02) (16, -5.67431519917939788944e-02) (17, 1.21357410409480628855e-01) (18, 1.09082751968406554965e-01) (19, -2.16016615919564884674e-02) (20, 1.46137141051282476445e-01) (21, 3.64205741871361232675e-02) (22, -4.54283277682755795568e-02) (23, 8.87796218185652463717e-02) (24, -5.63509459785912839025e-02) (25, 1.13215535142451820261e-01) (26, 7.10763264322182425348e-02) (27, 8.57242579250563352389e-02) (28, 4.77523424951643090004e-04) (29, -5.27227069429848996251e-02) (30, 9.30775545621219252412e-02) (31, 1.21022987985512121833e-02) (32, 1.10062136509448585397e-01) (33, 7.18647841238876788905e-02) (34, 1.39812983932485174199e-01) (35, 1.45170130195607732793e-01) (36, -2.38721068195794673683e-02) (37, -1.14260531279162490248e-02) (38, 8.87778990054431532686e-02) (39, 1.47835158171643804570e-01) (40, -3.28141893438790646642e-02) (41, 9.53874282622638319795e-02) (42, 4.70890891474331080291e-02) (43, 9.79183323058328142219e-03) (44, 9.69701791792143552584e-02) (45, 1.08843155888005208021e-02) (46, 6.07983622574707338604e-02) (47, 1.46387018623342107793e-01) (48, 3.90670350019138468145e-01) (49, 5.33759823202881247828e-02) (50, 4.93136387985790430877e-02) (51, -2.20998667803564861553e-03) (52, -2.17347662143205326568e-02) (53, 1.06493883827232238559e-01) (54, 7.39708173894783466151e-02) (55, 1.35909401240338872929e-01) (56, 1.37624480190267156621e-01) (57, -4.34928382925484982580e-02) (58, -9.97354917302843801963e+00) (59, 6.45182912414602460771e-02) (60, -6.55326178939729373819e-04) (61, 1.12398340561420020944e-01) (62, 1.36535533132543157597e-01) (63, 6.09465021514793703350e-02) (64, 5.09953992498369743092e-02) (65, -2.94059287003968737595e-02) (66, -2.68423403791879199021e-02) (67, 6.60518560433289297906e-02) (68, 5.48498299640262781951e-02) (69, 5.57598364275539576385e-02) (70, 1.37291156115521978398e-01) (71, -4.57691769294236508459e-02) (72, -4.39711059622262326330e-02) (73, -2.37532104544137569191e-02) (74, -2.16490025810693424713e-02) (75, -5.60816819958184567541e-02) (76, 5.50876380932779768917e-02) (77, -5.10928700856660214513e-02) (78, 8.48090286045302121920e-02) (79, 1.86586616821548822998e+00) (80, -5.64304436735604611486e-02) (81, -2.77921403936837695114e-02) (82, 1.01105048515826759226e-01) (83, 1.27629988887809575626e-01) (84, 1.05836250880264159946e-01) (85, -1.04885932559512937701e+01) (86, 5.24495545649429628643e-02) (87, 1.44423292724940893761e-01) (88, 6.47123832130333392909e-02) (89, 1.27680867173701778627e-01) (90, -8.42704542604246972792e-03) (91, 9.31144647383990858858e-02) (92, 3.78614309322845288275e-01) (93, 4.28465090069016923957e-03) (94, 1.40285544457425664922e-01) (95, 8.58791910195651625459e-02) (96, 3.01616096485619183953e-02) (97, -3.97311146549676266759e-02) (98, 5.73886004012668787810e-02) (99, 1.09415673711799499301e-01) (100, -2.62140925220941088669e-02) (101, 1.66597595443453705411e-01) (102, 8.36210406693658342414e-03) (103, 6.99830356860062369195e-02) (104, 1.11457183220416602976e-01) (105, 1.16841434695750770456e-01) (106, 1.16484168791672094978e-02) (107, 8.16014103675189589326e-02) (108, 1.32385515036573003789e-01) (109, 1.09088563421272155551e-01) (110, 8.08940373444858168428e-02) (111, 7.01297332709364118486e-02) (112, 1.07339366533786353952e-01) (113, 1.08591481306582984812e-01) (114, -5.20257870845292416662e-02) (115, 9.65229503187379350715e-03) (116, -5.23518840960954037755e-02) (117, 1.24537059166930974552e-01) (118, 1.23000853755973665882e-01) (119, 1.04806318142444190866e-01) (120, 1.37408398451795171757e-01) (121, 1.31503858032216619511e-01) (122, 9.20221500182452772920e-02) (123, 7.38617706918617694667e-02) (124, 1.01523949959308204538e-01) (125, -3.60909323386643735021e-02) (126, 1.66522545745100891690e-01) (127, 1.45271890225400518437e-01) (128, 9.12751399064365004365e-02) (129, 1.17373912789851722605e-01) (130, -4.56356029204820004552e-02) (131, 9.47915471467217912727e-03) (132, 5.72679009955967127654e-02) (133, 8.07612920789946286959e-02) (134, -1.22178412291125415567e-02) (135, -2.37400229267572017433e-02) (136, 8.42654041322907915168e-03) (137, -5.36191608004067885029e-02) (138, 7.60232187670490111575e-02) (139, -1.78559415665427239327e-03) (140, 1.15965648748904762155e-01) (141, 9.05558757567706679170e-02) (142, 4.30342596691692391708e-02) (143, 5.85412684702774355205e-02) (144, 1.13882426047226276850e-02) (145, 1.08841403582126197702e-01) (146, -5.13926963500474301427e-02) (147, 7.47188811367086591630e-02) (148, 5.17168459218586146209e-02) (149, -1.14358431908206069350e-02) (150, 1.24211265900165110376e-01) (151, 1.03365916833094775851e-01) (152, 1.07035034397148010044e-01) (153, -3.76018579296563473791e-02) (154, 4.38345786851490198943e-02) (155, 1.07754229762584266550e-01) (156, 8.04161215811003415865e-02) (157, -2.16603721670602482330e-02) (158, -4.72204084686730710119e-02) (159, -3.47084622077439633459e-02) (160, 6.01202998185058901104e-02) (161, -5.62529559425805417150e-02) (162, -4.47887103251908627599e-02) (163, 4.24582415808205104746e-02) (164, 4.93494015854442774627e-02) (165, -1.12134881940642019624e-03) (166, 7.99432985568347548311e-02) (167, 9.15178918091575227534e-02) (168, -2.65810187153314135544e-02) (169, 5.80443668985267946514e-02) (170, 6.00120428824325868877e-02) (171, 1.30800240101804327031e-01) (172, 6.79438043260475882379e-02) (173, 4.09219616640572186883e-02) (174, 1.86553737409374598144e+00) (175, 1.65744712581362668713e-01) (176, 7.21594620370766132167e-02) (177, 9.07253168607059096162e-02) (178, 7.81152475500007797971e-02) (179, -7.07945518818655934040e-03) (180, 1.43740333976735662480e-01) (181, -5.44368173174355970967e-02) (182, 8.40041332030597304170e-02) (183, 1.13343491413623390085e-01) (184, -1.04881241897486532366e+01) (185, 1.36161052050580572148e-01) (186, -3.93436844639275876134e-02) (187, -5.06518776707146969884e-02) (188, 9.65356762199629514498e-02) (189, 1.03690126040481445102e-01) (190, -5.53263644866441098302e-02) (191, 1.35045938553800121129e-01) (192, 1.67014589538302338223e-01) (193, 1.50284472727676716303e-02) (194, 8.97299937987628554170e-02) (195, -5.70480372004006988651e-02) (196, 5.81861355630964379067e-04) (197, 1.05757578470737037546e-01) (198, 1.23737766602069407251e-01) (199, 1.16473376014262733347e-01) (200, 1.67309282352652466397e-01) (201, -3.86235485963319150060e-02) (202, 5.74485859740683363350e-02) 
