FANN_FLO_2.1
num_layers=3
learning_rate=0.700000
connection_rate=1.000000
network_type=0
learning_momentum=0.000000
training_algorithm=2
train_error_function=1
train_stop_function=0
cascade_output_change_fraction=0.010000
quickprop_decay=-0.000100
quickprop_mu=1.750000
rprop_increase_factor=1.200000
rprop_decrease_factor=0.500000
rprop_delta_min=0.000000
rprop_delta_max=50.000000
rprop_delta_zero=0.100000
cascade_output_stagnation_epochs=12
cascade_candidate_change_fraction=0.010000
cascade_candidate_stagnation_epochs=12
cascade_max_out_epochs=150
cascade_min_out_epochs=50
cascade_max_cand_epochs=150
cascade_min_cand_epochs=50
cascade_num_candidate_groups=2
bit_fail_limit=3.49999999999999977796e-01
cascade_candidate_limit=1.00000000000000000000e+03
cascade_weight_multiplier=4.00000000000000022204e-01
cascade_activation_functions_count=10
cascade_activation_functions=3 5 7 8 10 11 14 15 16 17 
cascade_activation_steepnesses_count=4
cascade_activation_steepnesses=2.50000000000000000000e-01 5.00000000000000000000e-01 7.50000000000000000000e-01 1.00000000000000000000e+00 
layer_sizes=2 201 2 
scale_included=0
neurons (num_inputs, activation_function, activation_steepness)=(0, 0, 0.00000000000000000000e+00) (0, 0, 0.00000000000000000000e+00) (2, 4, 5.00000000000000000000e-01) (2, 4, 5.00000000000000000000e-01) (2, 4, 5.00000000000000000000e-01) (2, 4, 5.00000000000000000000e-01) (2, 4, 5.00000000000000000000e-01) (2, 4, 5.00000000000000000000e-01) (2, 4, 5.00000000000000000000e-01) (2, 4, 5.00000000000000000000e-01) (2, 4, 5.00000000000000000000e-01) (2, 4, 5.00000000000000000000e-01) (2, 4, 5.00000000000000000000e-01) (2, 4, 5.00000000000000000000e-01) (2, 4, 5.00000000000000000000e-01) (2, 4, 5.00000000000000000000e-01) (2, 4, 5.00000000000000000000e-01) (2, 4, 5.00000000000000000000e-01) (2, 4, 5.00000000000000000000e-01) (2, 4, 5.00000000000000000000e-01) (2, 4, 5.00000000000000000000e-01) (2, 4, 5.00000000000000000000e-01) (2, 4, 5.00000000000000000000e-01) (2, 4, 5.00000000000000000000e-01) (2, 4, 5.00000000000000000000e-01) (2, 4, 5.00000000000000000000e-01) (2, 4, 5.00000000000000000000e-01) (2, 4, 5.00000000000000000000e-01) (2, 4, 5.00000000000000000000e-01) (2, 4, 5.00000000000000000000e-01) (2, 4, 5.00000000000000000000e-01) (2, 4, 5.00000000000000000000e-01) (2, 4, 5.00000000000000000000e-01) (2, 4, 5.00000000000000000000e-01) (2, 4, 5.00000000000000000000e-01) (2, 4, 5.00000000000000000000e-01) (2, 4, 5.00000000000000000000e-01) (2, 4, 5.00000000000000000000e-01) (2, 4, 5.00000000000000000000e-01) (2, 4, 5.00000000000000000000e-01) (2, 4, 5.00000000000000000000e-01) (2, 4, 5.00000000000000000000e-01) (2, 4, 5.00000000000000000000e-01) (2, 4, 5.00000000000000000000e-01) (2, 4, 5.00000000000000000000e-01) (2, 4, 5.00000000000000000000e-01) (2, 4, 5.00000000000000000000e-01) (2, 4, 5.00000000000000000000e-01) (2, 4, 5.00000000000000000000e-01) (2, 4, 5.00000000000000000000e-01) (2, 4, 5.00000000000000000000e-01) (2, 4, 5.00000000000000000000e-01) (2, 4, 5.00000000000000000000e-01) (2, 4, 5.00000000000000000000e-01) (2, 4, 5.00000000000000000000e-01) (2, 4, 5.00000000000000000000e-01) (2, 4, 5.00000000000000000000e-01) (2, 4, 5.00000000000000000000e-01) (2, 4, 5.00000000000000000000e-01) (2, 4, 5.00000000000000000000e-01) (2, 4, 5.00000000000000000000e-01) (2, 4, 5.00000000000000000000e-01) (2, 4, 5.00000000000000000000e-01) (2, 4, 5.00000000000000000000e-01) (2, 4, 5.00000000000000000000e-01) (2, 4, 5.00000000000000000000e-01) (2, 4, 5.00000000000000000000e-01) (2, 4, 5.00000000000000000000e-01) (2, 4, 5.00000000000000000000e-01) (2, 4, 5.00000000000000000000e-01) (2, 4, 5.00000000000000000000e-01) (2, 4, 5.00000000000000000000e-01) (2, 4, 5.00000000000000000000e-01) (2, 4, 5.00000000000000000000e-01) (2, 4, 5.00000000000000000000e-01) (2, 4, 5.00000000000000000000e-01) (2, 4, 5.00000000000000000000e-01) (2, 4, 5.00000000000000000000e-01) (2, 4, 5.00000000000000000000e-01) (2, 4, 5.00000000000000000000e-01) (2, 4, 5.00000000000000000000e-01) (2, 4, 5.00000000000000000000e-01) (2, 4, 5.00000000000000000000e-01) (2, 4, 5.00000000000000000000e-01) (2, 4, 5.00000000000000000000e-01) (2, 4, 5.00000000000000000000e-01) (2, 4, 5.00000000000000000000e-01) (2, 4, 5.00000000000000000000e-01) (2, 4, 5.00000000000000000000e-01) (2, 4, 5.00000000000000000000e-01) (2, 4, 5.00000000000000000000e-01) (2, 4, 5.00000000000000000000e-01) (2, 4, 5.00000000000000000000e-01) (2, 4, 5.00000000000000000000e-01) (2, 4, 5.00000000000000000000e-01) (2, 4, 5.00000000000000000000e-01) (2, 4, 5.00000000000000000000e-01) (2, 4, 5.00000000000000000000e-01) (2, 4, 5.00000000000000000000e-01) (2, 4, 5.00000000000000000000e-01) (2, 4, 5.00000000000000000000e-01) (2, 4, 5.00000000000000000000e-01) (2, 4, 5.00000000000000000000e-01) (2, 4, 5.00000000000000000000e-01) (2, 4, 5.00000000000000000000e-01) (2, 4, 5.00000000000000000000e-01) (2, 4, 5.00000000000000000000e-01) (2, 4, 5.00000000000000000000e-01) (2, 4, 5.00000000000000000000e-01) (2, 4, 5.00000000000000000000e-01) (2, 4, 5.00000000000000000000e-01) (2, 4, 5.00000000000000000000e-01) (2, 4, 5.00000000000000000000e-01) (2, 4, 5.00000000000000000000e-01) (2, 4, 5.00000000000000000000e-01) (2, 4, 5.00000000000000000000e-01) (2, 4, 5.00000000000000000000e-01) (2, 4, 5.00000000000000000000e-01) (2, 4, 5.00000000000000000000e-01) (2, 4, 5.00000000000000000000e-01) (2, 4, 5.00000000000000000000e-01) (2, 4, 5.00000000000000000000e-01) (2, 4, 5.00000000000000000000e-01) (2, 4, 5.00000000000000000000e-01) (2, 4, 5.00000000000000000000e-01) (2, 4, 5.00000000000000000000e-01) (2, 4, 5.00000000000000000000e-01) (2, 4, 5.00000000000000000000e-01) (2, 4, 5.00000000000000000000e-01) (2, 4, 5.00000000000000000000e-01) (2, 4, 5.00000000000000000000e-01) (2, 4, 5.00000000000000000000e-01) (2, 4, 5.00000000000000000000e-01) (2, 4, 5.00000000000000000000e-01) (2, 4, 5.00000000000000000000e-01) (2, 4, 5.00000000000000000000e-01) (2, 4, 5.00000000000000000000e-01) (2, 4, 5.00000000000000000000e-01) (2, 4, 5.00000000000000000000e-01) (2, 4, 5.00000000000000000000e-01) (2, 4, 5.00000000000000000000e-01) (2, 4, 5.00000000000000000000e-01) (2, 4, 5.00000000000000000000e-01) (2, 4, 5.00000000000000000000e-01) (2, 4, 5.00000000000000000000e-01) (2, 4, 5.00000000000000000000e-01) (2, 4, 5.00000000000000000000e-01) (2, 4, 5.00000000000000000000e-01) (2, 4, 5.00000000000000000000e-01) (2, 4, 5.00000000000000000000e-01) (2, 4, 5.00000000000000000000e-01) (2, 4, 5.00000000000000000000e-01) (2, 4, 5.00000000000000000000e-01) (2, 4, 5.00000000000000000000e-01) (2, 4, 5.00000000000000000000e-01) (2, 4, 5.00000000000000000000e-01) (2, 4, 5.00000000000000000000e-01) (2, 4, 5.00000000000000000000e-01) (2, 4, 5.00000000000000000000e-01) (2, 4, 5.00000000000000000000e-01) (2, 4, 5.00000000000000000000e-01) (2, 4, 5.00000000000000000000e-01) (2, 4, 5.00000000000000000000e-01) (2, 4, 5.00000000000000000000e-01) (2, 4, 5.00000000000000000000e-01) (2, 4, 5.00000000000000000000e-01) (2, 4, 5.00000000000000000000e-01) (2, 4, 5.00000000000000000000e-01) (2, 4, 5.00000000000000000000e-01) (2, 4, 5.00000000000000000000e-01) (2, 4, 5.00000000000000000000e-01) (2, 4, 5.00000000000000000000e-01) (2, 4, 5.00000000000000000000e-01) (2, 4, 5.00000000000000000000e-01) (2, 4, 5.00000000000000000000e-01) (2, 4, 5.00000000000000000000e-01) (2, 4, 5.00000000000000000000e-01) (2, 4, 5.00000000000000000000e-01) (2, 4, 5.00000000000000000000e-01) (2, 4, 5.00000000000000000000e-01) (2, 4, 5.00000000000000000000e-01) (2, 4, 5.00000000000000000000e-01) (2, 4, 5.00000000000000000000e-01) (2, 4, 5.00000000000000000000e-01) (2, 4, 5.00000000000000000000e-01) (2, 4, 5.00000000000000000000e-01) (2, 4, 5.00000000000000000000e-01) (2, 4, 5.00000000000000000000e-01) (2, 4, 5.00000000000000000000e-01) (2, 4, 5.00000000000000000000e-01) (2, 4, 5.00000000000000000000e-01) (2, 4, 5.00000000000000000000e-01) (2, 4, 5.00000000000000000000e-01) (2, 4, 5.00000000000000000000e-01) (2, 4, 5.00000000000000000000e-01) (2, 4, 5.00000000000000000000e-01) (2, 4, 5.00000000000000000000e-01) (2, 4, 5.00000000000000000000e-01) (2, 4, 5.00000000000000000000e-01) (2, 4, 5.00000000000000000000e-01) (2, 4, 5.00000000000000000000e-01) (2, 4, 5.00000000000000000000e-01) (0, 0, 0.00000000000000000000e+00) (201, 4, 5.00000000000000000000e-01) (0, 0, 0.00000000000000000000e+00) 
connections (connected_to_neuron, weight)=(0, 2.92508816507710900368e+00) (1, 9.05481075901435561448e-01) (0, -9.56803022276772985322e+00) (1, 1.33687106184228715611e-01) (0, -1.56424723201195625677e+00) (1, 6.91443414980261072955e-01) (0, -1.12991403257455846898e+01) (1, -3.96086623317087049845e-01) (0, -1.12491217818117696936e+01) (1, -3.12235316014361996562e-01) (0, 3.43350122595593898467e+00) (1, 7.62967594594380682516e-01) (0, -9.44630825995784206839e+00) (1, 1.99041600162937676322e-01) (0, -3.23468646183876984423e+00) (1, -4.79792116935225554375e-01) (0, 2.57548140978377082533e+00) (1, 1.03955362983058363646e+00) (0, 2.49614278948111012468e+00) (1, 1.11397038556957617139e+00) (0, -4.90273378720719588131e+00) (1, -8.97848270940711068455e-01) (0, -4.06665074416645833111e+00) (1, 2.15404619225124493997e-01) (0, -9.38896573286666402680e+00) (1, 7.05921847741356883743e-02) (0, 2.62161103830752395538e+00) (1, 1.00747927115429503075e+00) (0, -3.31860520910686718210e+00) (1, -4.62726682727723659383e-01) (0, -1.28597953100418855854e+01) (1, -3.31463270120052222456e-01) (0, 2.58767145019573785447e+00) (1, 1.02923485999539798819e+00) (0, -3.05735261950514969342e+00) (1, -5.17977214035090560706e-01) (0, -9.45894343204402865410e+00) (1, 9.67048140713737680585e-02) (0, -3.26868658462739070103e+00) (1, -4.74303405106037134775e-01) (0, -3.24657276286600371407e+00) (1, -4.71567255117225636596e-01) (0, 2.83338937085454523057e+00) (1, 9.72737785693229106698e-01) (0, 2.90277213575170511817e+00) (1, 9.44157543034767732237e-01) (0, -1.49999991359998966800e+03) (1, 2.44341949167248689845e-01) (0, 2.59606470526866628390e+00) (1, 1.06216357654195370230e+00) (0, -1.28468514159069222558e+01) (1, -3.21653540636944290654e-01) (0, -4.27418680009336526826e-01) (1, -3.27799637612897676320e+00) (0, -1.31208214312834172688e+01) (1, -2.07797477216028425584e-01) (0, -3.20843905652564442832e+00) (1, -5.04507604827252875701e-01) (0, -1.28574943564193553414e+01) (1, -3.31634439758685728439e-01) (0, 3.40859221160255154714e+00) (1, 7.37917464939363276777e-01) (0, 1.27622942607204503673e+01) (1, 4.56844815516906505026e-02) (0, -1.31008345000744697018e+01) (1, -1.96592245230079398777e-01) (0, 2.53102908485643185443e+00) (1, 1.07847634529812896886e+00) (0, -3.29158931504933782719e+00) (1, -3.81071926955974638052e-01) (0, -3.36724307287698065849e+00) (1, -3.95173029549990506570e-01) (0, 1.23212905612564238567e+01) (1, 1.98608599431496585241e-01) (0, 2.82721472645483684616e+00) (1, 9.97043823201194667760e-01) (0, -5.85105023852271699525e-01) (1, -1.29687897864517553970e+00) (0, -1.24821746819375878346e+00) (1, 7.53042523277628550460e-01) (0, 1.26220462862863112008e+01) (1, 9.62755669047666295945e-02) (0, 2.62657696927036843348e+00) (1, 1.00387970276231142108e+00) (0, 9.50935315820919591090e+00) (1, -3.38460172347592846975e+00) (0, 2.78803304681571617607e+00) (1, 1.08317665322372813641e+00) (0, 2.56223878427665008317e+00) (1, 1.05119167266909085967e+00) (0, -1.31933791440157950348e+01) (1, -1.98614590671505414354e-01) (0, -3.19983082038619448539e+00) (1, -5.11744547417314343818e-01) (0, -3.37246447802035786978e+00) (1, -2.91762919526323771802e-01) (0, -1.28124766334068791451e+01) (1, -3.36942517712486289128e-01) (0, -3.29047936211384328686e+00) (1, -4.39758745568084863375e-01) (0, 2.49581370889453380002e+00) (1, 1.11458584809742466959e+00) (0, -3.30127521242169130744e+00) (1, -4.04313044567108648142e-01) (0, 1.23945013535552046591e+01) (1, 1.76128717482088387181e-01) (0, -3.26778204609031375227e+00) (1, -4.62152951723940219608e-01) (0, 9.76604651093595066413e+00) (1, -8.94584367832464283365e-02) (0, 2.78677853512485151910e+00) (1, 1.04896527550113005667e+00) (0, 2.67580338571184483953e+00) (1, 9.70842465258316966725e-01) (0, 2.53106174360440805415e+00) (1, 1.08556243948181219139e+00) (0, -4.54562495434798474747e+00) (1, -2.40327133943162185581e-01) (0, 2.67124129945298172117e+00) (1, 9.77054630519741618144e-01) (0, 3.02859162596594311267e+00) (1, 8.40399339354691687909e-01) (0, -3.86014698248927823343e+00) (1, -5.18046904373877792338e-01) (0, -1.15453595445870966785e+01) (1, -6.49173003178473484454e-01) (0, -9.47078322822475193732e+00) (1, 1.08533490459531006822e-01) (0, -1.23424419315627265092e+01) (1, -4.01771972639780539094e-01) (0, 1.22825011011976297226e+01) (1, 2.16832764881986522765e-01) (0, -6.94280582647805122321e+00) (1, -3.60057284285840772942e-01) (0, 1.24575360083219859320e+01) (1, 1.52855349752375579975e-01) (0, 2.58269049759573787739e+00) (1, 1.01939316642124788714e+00) (0, 2.61107184431140559866e+00) (1, 1.02161226623115442003e+00) (0, -4.02735270541420220525e+00) (1, 1.84483705214689958085e-01) (0, 2.62193200705364759528e+00) (1, 1.02264378538525768647e+00) (0, -1.27972648864285769577e+01) (1, -3.31581393740369212431e-01) (0, 1.25530393672390356841e+01) (1, 1.16197979009380947257e-01) (0, 2.53741578969114334186e+00) (1, 1.09930796513243977941e+00) (0, -1.17588943448795575364e+01) (1, -9.85503386402410697098e-02) (0, 1.26398052539462160127e+01) (1, 8.08608521000862140449e-02) (0, -1.52571860834966011033e+00) (1, -3.04528081551499552049e+00) (0, -1.29556574279203253752e+01) (1, -2.68169554144581212540e-01) (0, -1.31203783400757689748e+01) (1, -2.23689193578759853986e-01) (0, -2.39066732912145640810e+00) (1, -2.00361358405767270296e-01) (0, -9.37743490141047963959e+00) (1, 7.03200470024815532666e-02) (0, 2.48658482887168030828e+00) (1, 1.11127270034094971507e+00) (0, -2.79960557523054820450e+00) (1, -3.48532453380483109306e-01) (0, -3.21600355921157454731e+00) (1, -5.13430747789586638952e-01) (0, -9.62658394671583117486e+00) (1, 1.63786012689691701238e-01) (0, -1.12761935701618423167e+01) (1, -2.73813805100471430176e-01) (0, 1.30025399513509025695e+01) (1, -7.85320743139441002079e-02) (0, 2.65428963260983907801e+00) (1, 1.01903528363266659973e+00) (0, -3.34071177693066534431e+00) (1, -3.97638387319272978981e-01) (0, 2.81131723149926493477e+00) (1, 1.02209515424272989748e+00) (0, 1.23367816992779442131e+01) (1, 1.94672814391433524062e-01) (0, -9.44721245595434133691e+00) (1, 7.89053452715504088921e-02) (0, -8.77079979508499085750e-02) (1, -4.75631288875774826952e-01) (0, -1.30669898668064909941e+01) (1, -2.27977562937027644629e-01) (0, -1.30353108460286790660e+01) (1, -2.55073065873629933886e-01) (0, -3.99773193747362753925e+00) (1, 1.42542633264424428718e-01) (0, 2.63041162120839500105e+00) (1, 1.00425656987080857974e+00) (0, -1.14851497528095904954e+01) (1, -3.07707818043780334527e-01) (0, -3.21835974178588379857e+00) (1, -4.94113494509069106631e-01) (0, 2.62918248244624042087e+00) (1, 1.04444674869548159712e+00) (0, 6.33200940512148147121e+00) (1, -1.34918411199354348895e+00) (0, 2.62476627811472873475e+00) (1, 1.01993090529068020089e+00) (0, -3.34285855817690391589e+00) (1, -4.36115657979198323435e-01) (0, 2.67163792036773672933e+00) (1, 9.91654953715129461322e-01) (0, -1.29162971349783326502e+01) (1, -2.94600080158174570943e-01) (0, -1.20797528444782447110e+01) (1, 1.20101418922109355603e-02) (0, 1.34120296048702325464e+01) (1, -2.37877869579990935955e-01) (0, 1.24175853476607773729e+01) (1, 1.59265235561921347784e-01) (0, 3.49063112092636673722e+00) (1, 6.55613281441768891433e-01) (0, -3.25118800059929125013e+00) (1, -3.13712436101272640343e-01) (0, 2.60538980385404217444e+00) (1, 1.02239720447049542429e+00) (0, -3.23903590363849236411e+00) (1, -4.78470165711498252037e-01) (0, -3.30105411679964033667e+00) (1, -4.65598706651355498387e-01) (0, 2.86684780408353656611e+00) (1, 9.51895999701704131901e-01) (0, -3.99959440525236509245e+00) (1, 1.71390160914419192872e-01) (0, -1.20714468329206656705e+01) (1, 1.16541444445034808597e-02) (0, 1.25764296939418702692e+01) (1, 1.10158625743560001364e-01) (0, 1.22617962240555851139e+01) (1, 2.20585743628936736815e-01) (0, -3.23038326712097356719e+00) (1, -4.88852549226802657323e-01) (0, 2.95081233948268950584e+00) (1, 9.04387947217952126167e-01) (0, -9.46540450836475422136e+00) (1, 9.09606118123317958224e-02) (0, -2.89211836687979140237e+00) (1, -5.25863044278040869806e-01) (0, 2.50629941126010669095e+00) (1, 1.11364621815064834820e+00) (0, -3.21303848234781463944e+00) (1, -5.05097322923295566355e-01) (0, -3.25594024677080495778e+00) (1, -4.75887185108177068749e-01) (0, -1.37960590348966993801e+00) (1, -8.35257227972043825304e-01) (0, -1.35864528050453681196e+00) (1, 8.75800637672819459745e-01) (0, -1.20748264276248775673e+01) (1, -3.95711617237663113023e-02) (0, -1.21314764507869199406e+01) (1, 3.14460137458744889982e-02) (0, -1.18838494690163756218e+01) (1, -5.85899265074096065042e-01) (0, -9.32681243044758367944e+00) (1, -8.37626572974208838396e-02) (0, 2.44317324011021330676e+00) (1, 1.13170003508196637121e+00) (0, -1.29130875739459423102e+01) (1, -2.92685377295531068409e-01) (0, 2.55597202798915379418e+00) (1, 1.08589549052638156823e+00) (0, -3.26668593946468810429e+00) (1, -4.15293771717217430339e-01) (0, 1.26594452287378924638e+01) (1, 6.69189643430718045236e-02) (0, 2.64812165029071122646e+00) (1, 9.95971883153686565748e-01) (0, -9.31444343381587636088e+00) (1, -9.15440681946762258026e-02) (0, -1.54519450742413533284e+00) (1, 6.68124044140629536059e-01) (0, -1.24910359246558999580e+00) (1, 7.55480081952891735497e-01) (0, -1.28503652243578958547e+01) (1, -3.16797039610221042860e-01) (0, -3.23317811713175018440e+00) (1, -4.92989730105439893926e-01) (0, -3.25951416410767924603e+00) (1, -4.37657714047396451118e-01) (0, -1.60269614328877665343e+01) (1, 8.27825614701182543875e-01) (0, -9.50266601097001561982e+00) (1, 1.09901384673577712237e-01) (0, -9.43569965293949586282e+00) (1, 8.18584481725239815342e-02) (0, 3.03669280214389702977e+00) (1, 8.25543976766826892444e-01) (0, -1.13190376449665510705e+01) (1, -3.41617629363587693714e-01) (0, -6.19458291186643972281e+00) (1, -1.70242561947561932278e-01) (0, -3.21738732315313136212e+00) (1, -4.97936699554959893987e-01) (0, -3.06773892165441086632e+00) (1, -4.97327798744162719036e-01) (0, -1.29489984564114557486e+01) (1, -2.83360611106818705007e-01) (0, -3.26681307538052312367e+00) (1, -4.16938684103601853170e-01) (0, -3.25861947467464840855e+00) (1, -4.61156452363940427830e-01) (0, -3.22793810285556403983e+00) (1, -4.86082219560424577676e-01) (0, 2.60183780370844042196e+00) (1, 1.00193876765516054483e+00) (0, 2.74976838866461381627e+00) (1, 1.05857382531222210531e+00) (0, -3.27300754841890562119e+00) (1, -2.37361766027004900126e-01) (0, 2.84290770380086099678e+00) (1, 9.65718144707130465854e-01) (0, 7.28921475367441029647e+00) (1, -1.54618395572747213684e+00) (0, -1.19055059353367038710e+01) (1, -5.28112449462202898642e-02) (0, 2.79776729721292971576e+00) (1, 1.04545380022042389001e+00) (0, 2.51737247706473654674e+00) (1, 1.09087979673751633847e+00) (0, 1.24277318400894234429e+01) (1, 1.54966275586297191902e-01) (0, -1.32656595719556302804e+00) (1, 8.30872202707666263066e-01) (0, 2.44170415663845297161e+00) (1, 1.12550891310605605256e+00) (0, 2.92933978269688388707e+00) (1, 8.88660515554357210988e-01) (0, 3.45891866394395686157e+00) (1, 6.94343393133534769746e-01) (0, -1.32393260346029926211e+01) (1, -1.80638010355060024681e-01) (0, -1.20424815813556858046e+01) (1, -2.61431929000075988223e-03) (0, -1.29415968314141114348e+01) (1, -2.93306743907012723582e-01) (0, 2.69358327715240086775e+00) (1, 1.00212019623332304619e+00) (0, 2.81186142004787908988e+00) (1, 1.04292188146651954028e+00) (0, 2.53041470892063413700e+00) (1, 1.07735405608887546691e+00) (0, -1.20756337965384670241e+01) (1, 8.42612751175631641276e-03) (0, 1.24822082570266807977e+01) (1, 1.51159015105894578568e-01) (0, 1.23705356120670284525e+01) (1, 1.84272197587882047287e-01) (0, 2.50460245395919312017e+00) (1, 1.09627906998005686390e+00) (0, 2.82356643922466510332e+00) (1, 1.00352033932961703933e+00) (0, -5.85056628870610051507e+00) (1, -3.82992935369197040618e-01) (0, -3.30528862723960692449e+00) (1, -4.20231395079585345886e-01) (0, -1.29246147461688281055e+01) (1, -3.06256972484048317629e-01) (0, 1.30308137870002891390e+01) (1, -5.60094023651152642107e-02) (0, -1.30669436990260887654e+01) (1, -2.43956993338125566195e-01) (0, 1.24175608946959119550e+01) (1, 1.67250793006000347818e-01) (0, -3.29459679344977018900e+00) (1, -4.33785279645701571383e-01) (0, 2.86392887434026732763e+00) (1, 9.48012173157068427365e-01) (0, -3.35926120613933187897e+00) (1, -3.78363262400642941241e-01) (0, -3.22877345121102221626e+00) (1, -4.47695757163534324707e-01) (0, -1.22969908602771855755e+01) (1, -4.32008951078553748992e-01) (0, -9.62958245979813476367e+00) (1, -2.89587660966899418380e-01) (0, 2.53782634493833958444e+00) (1, 1.04290172573274864121e+00) (0, 1.29981107138388498612e+01) (1, -9.07240485112543321167e-02) (0, 7.61922643555962331163e+00) (1, -1.43326169204773212762e+00) (0, 2.50066815427683897255e+00) (1, 1.11100463264097948368e+00) (0, -3.28368133416929897095e+00) (1, -2.81095860862913549116e-01) (0, -9.57699848137402476311e+00) (1, 1.46721173088165596221e-01) (0, 1.22991240032320394704e+01) (1, 2.09640304431141427655e-01) (0, 1.25694088505723744476e+01) (1, 1.05526979528863695812e-01) (2, 5.14231028288126945647e-01) (3, -2.74065054069713823992e+02) (4, 9.36345291375430544001e-01) (5, -1.73145151233995662210e+01) (6, 5.10130811825327684650e-02) (7, 5.78408684235697800879e-01) (8, -3.74065054069713823992e+02) (9, 3.59548338231442832225e-01) (10, 4.94874478009206086870e-01) (11, 5.04754348368319449847e-01) (12, 8.18767073356825818564e+01) (13, 1.35884802887607514243e-01) (14, -2.74065054069713823992e+02) (15, 5.12030155089362559728e-01) (16, 3.67539748510908981238e-01) (17, 9.27673534678577880186e+02) (18, 4.96644154813748794908e-01) (19, 3.76198201348489857931e-01) (20, -2.74065054069713823992e+02) (21, 3.67678754330802715078e-01) (22, 3.74577038114526472690e-01) (23, 4.95751840964897605435e-01) (24, 5.30414876239634347499e-01) (25, 1.50000000000000000000e+03) (26, 5.31851540630512098495e-01) (27, 9.27673534678577880186e+02) (28, 5.45860628380000156845e-01) (29, 9.27673534678577880186e+02) (30, 3.56284961251113585501e-01) (31, 9.27673534678577880186e+02) (32, 5.68703235448631772009e-01) (33, 5.45683293236051469854e-01) (34, 9.27673534678577880186e+02) (35, 4.97978300724068789762e-01) (36, 3.33271718603841582418e-01) (37, 3.60033372295106401939e-01) (38, 5.36679582701987900606e-01) (39, 5.16047850596663915113e-01) (40, 4.73180610447565541676e-01) (41, 4.92017122501342107910e-01) (42, 5.43496950162206338142e-01) (43, 5.16405814018710551672e-01) (44, 1.36591758435323299636e+02) (45, 5.21593331190123632446e-01) (46, 5.01167477307836173317e-01) (47, 9.27673534678577880186e+02) (48, 3.70239779499864807288e-01) (49, 2.88158871180344999807e-01) (50, 9.27673534678577880186e+02) (51, 3.67960862590385462401e-01) (52, 5.07898202807578358353e-01) (53, 3.37525290561277613310e-01) (54, 5.45483040933580798360e-01) (55, 3.43544401061754323123e-01) (56, -2.71156025995190006483e+01) (57, 5.06564106359796539891e-01) (58, 5.29808146736858387449e-01) (59, 5.12358206635169954879e-01) (60, -1.28984608685990679078e+02) (61, 5.26110227676005237640e-01) (62, 5.68804277393635260296e-01) (63, 4.41623316854678593657e-01) (64, 5.09763041813539132363e+02) (65, -2.74065054069713823992e+02) (66, 5.75562418308323913152e+02) (67, 5.49012726204462508939e-01) (68, -8.45580066003065317082e-02) (69, 5.49331839506597918721e-01) (70, 5.04791813441512138283e-01) (71, 5.25842726853354425209e-01) (72, 1.38657220277964510213e-01) (73, 5.43323338829216351265e-01) (74, 9.27673534678577880186e+02) (75, 5.39539161448449822167e-01) (76, 5.19154983883552523238e-01) (77, 2.39001721112277294878e+02) (78, 5.37527101678404894969e-01) (79, 7.72767387527170068751e+00) (80, 9.27673534678577880186e+02) (81, 9.27673534678577880186e+02) (82, 3.76756638533040533190e-01) (83, -2.74065054069713823992e+02) (84, 4.92601636076397453312e-01) (85, 4.26224204969643749585e-01) (86, 3.50154263567398482682e-01) (87, -2.74065054069713823992e+02) (88, 1.94114517647962401270e+02) (89, 5.63020669142250684835e-01) (90, 5.19685224654524824395e-01) (91, 3.39834817982752335208e-01) (92, 5.13562645330744582672e-01) (93, 5.41568798976011289703e-01) (94, -2.74065054069713823992e+02) (95, -4.20306239019527481560e+02) (96, 9.27673534678577880186e+02) (97, 9.27673534678577880186e+02) (98, 1.35414343013373322799e-01) (99, 5.10531187680228537573e-01) (100, 9.67737173535113404110e-02) (101, 3.56394200964973151269e-01) (102, 5.32546409430354139580e-01) (103, 6.27607982644859396792e-01) (104, 5.42201490007576225594e-01) (105, 3.50180521219419282897e-01) (106, 5.41415312936145309841e-01) (107, 9.27673534678577880186e+02) (108, 3.90017211123034996945e+01) (109, 5.67908303385273760533e-01) (110, 5.32529717342919872713e-01) (111, 5.71305891805040766407e-01) (112, 3.23020856771392250728e-01) (113, 5.37549667857822210948e-01) (114, 3.67373757538199563477e-01) (115, 3.43174525079128878158e-01) (116, 5.01848010317429871208e-01) (117, 1.38460676826655276761e-01) (118, 3.90017211123034996945e+01) (119, 5.46027208988638323994e-01) (120, 5.51038755135603630642e-01) (121, 3.76234345611932863296e-01) (122, 5.38139242624284142025e-01) (123, -2.74065054069713823992e+02) (124, 3.58165634472532745658e-01) (125, 5.19501513511810286694e-01) (126, 3.64231467393730135029e-01) (127, 3.56173791465161593273e-01) (128, 4.01323369461279222392e-01) (129, 5.02129870015480150869e-01) (130, -1.99053414057298908801e+02) (131, 3.90017211123034996945e+01) (132, 2.95101699971224782360e+01) (133, -1.53055162796209941689e+02) (134, 5.37596017207008780581e-01) (135, 9.27673534678577880186e+02) (136, 5.21817888444118471725e-01) (137, 3.42858681591920844145e-01) (138, 5.32303116594523895166e-01) (139, 5.02932974926469045229e-01) (140, -1.53082648032735477273e+02) (141, 9.31776908452502716784e-01) (142, 4.92726451301781886993e-01) (143, 9.27673534678577880186e+02) (144, 3.55012729386565861756e-01) (145, 3.36247571611312634499e-01) (146, 5.75934945930176809270e+02) (147, -2.74065054069713823992e+02) (148, -2.74065054069713823992e+02) (149, 5.72680307838734914405e-01) (150, 9.89115874916212528545e-03) (151, -6.58814167415183588039e-02) (152, 3.56002375455520325698e-01) (153, 3.56500998499478471970e-01) (154, 9.27673534678577880186e+02) (155, 3.42286909310464848577e-01) (156, 3.54302771339200184286e-01) (157, 3.80562260194827695070e-01) (158, 5.26989908004141249798e-01) (159, 4.95623284210995385113e-01) (160, 3.20557553642044856801e-01) (161, 4.99429755191429902705e-01) (162, 7.00713844267755403550e-01) (163, 3.90017211123034996945e+01) (164, 5.21233491864615428035e-01) (165, 5.01572112863710950492e-01) (166, 5.34423730646342853845e-01) (167, 4.83699333710052081781e-01) (168, 5.35954933698278623844e-01) (169, 4.96829993968247396463e-01) (170, 5.72667626970160603683e-01) (171, 9.27673534678577880186e+02) (172, 3.90017211123034996945e+01) (173, 9.27673534678577880186e+02) (174, 5.25184624519808962440e-01) (175, 5.28104660112490909007e-01) (176, 5.06387497609309233937e-01) (177, 3.90017211123034996945e+01) (178, 5.47347682838411730977e-01) (179, 5.44294407622881282194e-01) (180, 4.97289395601423267479e-01) (181, 5.12083302851259913879e-01) (182, 1.54268266283730026700e-01) (183, 3.68752803776528137458e-01) (184, 9.27673534678577880186e+02) (185, 5.52907197235552816394e-01) (186, 9.27673534678577880186e+02) (187, 5.50478717343874657253e-01) (188, 3.61914984656880878156e-01) (189, 4.96350109855755283750e-01) (190, 3.46741658234894611912e-01) (191, 3.42322947092251195222e-01) (192, 4.09762427511390342261e+02) (193, -5.43229716784753777215e-02) (194, 4.93544683395081007493e-01) (195, 5.67104030905276057517e-01) (196, 6.07542101436719050866e-01) (197, 5.02095545852610292137e-01) (198, 3.25230742248807214168e-01) (199, -2.74065054069713823992e+02) (200, 5.45808574216433028958e-01) (201, 5.31082546902451491100e-01) (202, 6.53914168444244214840e-01) 
