FANN_FLO_2.1
num_layers=3
learning_rate=0.700000
connection_rate=1.000000
network_type=0
learning_momentum=0.000000
training_algorithm=2
train_error_function=1
train_stop_function=0
cascade_output_change_fraction=0.010000
quickprop_decay=-0.000100
quickprop_mu=1.750000
rprop_increase_factor=1.200000
rprop_decrease_factor=0.500000
rprop_delta_min=0.000000
rprop_delta_max=50.000000
rprop_delta_zero=0.100000
cascade_output_stagnation_epochs=12
cascade_candidate_change_fraction=0.010000
cascade_candidate_stagnation_epochs=12
cascade_max_out_epochs=150
cascade_min_out_epochs=50
cascade_max_cand_epochs=150
cascade_min_cand_epochs=50
cascade_num_candidate_groups=2
bit_fail_limit=3.49999999999999977796e-01
cascade_candidate_limit=1.00000000000000000000e+03
cascade_weight_multiplier=4.00000000000000022204e-01
cascade_activation_functions_count=10
cascade_activation_functions=3 5 7 8 10 11 14 15 16 17 
cascade_activation_steepnesses_count=4
cascade_activation_steepnesses=2.50000000000000000000e-01 5.00000000000000000000e-01 7.50000000000000000000e-01 1.00000000000000000000e+00 
layer_sizes=2 201 2 
scale_included=0
neurons (num_inputs, activation_function, activation_steepness)=(0, 0, 0.00000000000000000000e+00) (0, 0, 0.00000000000000000000e+00) (2, 4, 5.00000000000000000000e-01) (2, 4, 5.00000000000000000000e-01) (2, 4, 5.00000000000000000000e-01) (2, 4, 5.00000000000000000000e-01) (2, 4, 5.00000000000000000000e-01) (2, 4, 5.00000000000000000000e-01) (2, 4, 5.00000000000000000000e-01) (2, 4, 5.00000000000000000000e-01) (2, 4, 5.00000000000000000000e-01) (2, 4, 5.00000000000000000000e-01) (2, 4, 5.00000000000000000000e-01) (2, 4, 5.00000000000000000000e-01) (2, 4, 5.00000000000000000000e-01) (2, 4, 5.00000000000000000000e-01) (2, 4, 5.00000000000000000000e-01) (2, 4, 5.00000000000000000000e-01) (2, 4, 5.00000000000000000000e-01) (2, 4, 5.00000000000000000000e-01) (2, 4, 5.00000000000000000000e-01) (2, 4, 5.00000000000000000000e-01) (2, 4, 5.00000000000000000000e-01) (2, 4, 5.00000000000000000000e-01) (2, 4, 5.00000000000000000000e-01) (2, 4, 5.00000000000000000000e-01) (2, 4, 5.00000000000000000000e-01) (2, 4, 5.00000000000000000000e-01) (2, 4, 5.00000000000000000000e-01) (2, 4, 5.00000000000000000000e-01) (2, 4, 5.00000000000000000000e-01) (2, 4, 5.00000000000000000000e-01) (2, 4, 5.00000000000000000000e-01) (2, 4, 5.00000000000000000000e-01) (2, 4, 5.00000000000000000000e-01) (2, 4, 5.00000000000000000000e-01) (2, 4, 5.00000000000000000000e-01) (2, 4, 5.00000000000000000000e-01) (2, 4, 5.00000000000000000000e-01) (2, 4, 5.00000000000000000000e-01) (2, 4, 5.00000000000000000000e-01) (2, 4, 5.00000000000000000000e-01) (2, 4, 5.00000000000000000000e-01) (2, 4, 5.00000000000000000000e-01) (2, 4, 5.00000000000000000000e-01) (2, 4, 5.00000000000000000000e-01) (2, 4, 5.00000000000000000000e-01) (2, 4, 5.00000000000000000000e-01) (2, 4, 5.00000000000000000000e-01) (2, 4, 5.00000000000000000000e-01) (2, 4, 5.00000000000000000000e-01) (2, 4, 5.00000000000000000000e-01) (2, 4, 5.00000000000000000000e-01) (2, 4, 5.00000000000000000000e-01) (2, 4, 5.00000000000000000000e-01) (2, 4, 5.00000000000000000000e-01) (2, 4, 5.00000000000000000000e-01) (2, 4, 5.00000000000000000000e-01) (2, 4, 5.00000000000000000000e-01) (2, 4, 5.00000000000000000000e-01) (2, 4, 5.00000000000000000000e-01) (2, 4, 5.00000000000000000000e-01) (2, 4, 5.00000000000000000000e-01) (2, 4, 5.00000000000000000000e-01) (2, 4, 5.00000000000000000000e-01) (2, 4, 5.00000000000000000000e-01) (2, 4, 5.00000000000000000000e-01) (2, 4, 5.00000000000000000000e-01) (2, 4, 5.00000000000000000000e-01) (2, 4, 5.00000000000000000000e-01) (2, 4, 5.00000000000000000000e-01) (2, 4, 5.00000000000000000000e-01) (2, 4, 5.00000000000000000000e-01) (2, 4, 5.00000000000000000000e-01) (2, 4, 5.00000000000000000000e-01) (2, 4, 5.00000000000000000000e-01) (2, 4, 5.00000000000000000000e-01) (2, 4, 5.00000000000000000000e-01) (2, 4, 5.00000000000000000000e-01) (2, 4, 5.00000000000000000000e-01) (2, 4, 5.00000000000000000000e-01) (2, 4, 5.00000000000000000000e-01) (2, 4, 5.00000000000000000000e-01) (2, 4, 5.00000000000000000000e-01) (2, 4, 5.00000000000000000000e-01) (2, 4, 5.00000000000000000000e-01) (2, 4, 5.00000000000000000000e-01) (2, 4, 5.00000000000000000000e-01) (2, 4, 5.00000000000000000000e-01) (2, 4, 5.00000000000000000000e-01) (2, 4, 5.00000000000000000000e-01) (2, 4, 5.00000000000000000000e-01) (2, 4, 5.00000000000000000000e-01) (2, 4, 5.00000000000000000000e-01) (2, 4, 5.00000000000000000000e-01) (2, 4, 5.00000000000000000000e-01) (2, 4, 5.00000000000000000000e-01) (2, 4, 5.00000000000000000000e-01) (2, 4, 5.00000000000000000000e-01) (2, 4, 5.00000000000000000000e-01) (2, 4, 5.00000000000000000000e-01) (2, 4, 5.00000000000000000000e-01) (2, 4, 5.00000000000000000000e-01) (2, 4, 5.00000000000000000000e-01) (2, 4, 5.00000000000000000000e-01) (2, 4, 5.00000000000000000000e-01) (2, 4, 5.00000000000000000000e-01) (2, 4, 5.00000000000000000000e-01) (2, 4, 5.00000000000000000000e-01) (2, 4, 5.00000000000000000000e-01) (2, 4, 5.00000000000000000000e-01) (2, 4, 5.00000000000000000000e-01) (2, 4, 5.00000000000000000000e-01) (2, 4, 5.00000000000000000000e-01) (2, 4, 5.00000000000000000000e-01) (2, 4, 5.00000000000000000000e-01) (2, 4, 5.00000000000000000000e-01) (2, 4, 5.00000000000000000000e-01) (2, 4, 5.00000000000000000000e-01) (2, 4, 5.00000000000000000000e-01) (2, 4, 5.00000000000000000000e-01) (2, 4, 5.00000000000000000000e-01) (2, 4, 5.00000000000000000000e-01) (2, 4, 5.00000000000000000000e-01) (2, 4, 5.00000000000000000000e-01) (2, 4, 5.00000000000000000000e-01) (2, 4, 5.00000000000000000000e-01) (2, 4, 5.00000000000000000000e-01) (2, 4, 5.00000000000000000000e-01) (2, 4, 5.00000000000000000000e-01) (2, 4, 5.00000000000000000000e-01) (2, 4, 5.00000000000000000000e-01) (2, 4, 5.00000000000000000000e-01) (2, 4, 5.00000000000000000000e-01) (2, 4, 5.00000000000000000000e-01) (2, 4, 5.00000000000000000000e-01) (2, 4, 5.00000000000000000000e-01) (2, 4, 5.00000000000000000000e-01) (2, 4, 5.00000000000000000000e-01) (2, 4, 5.00000000000000000000e-01) (2, 4, 5.00000000000000000000e-01) (2, 4, 5.00000000000000000000e-01) (2, 4, 5.00000000000000000000e-01) (2, 4, 5.00000000000000000000e-01) (2, 4, 5.00000000000000000000e-01) (2, 4, 5.00000000000000000000e-01) (2, 4, 5.00000000000000000000e-01) (2, 4, 5.00000000000000000000e-01) (2, 4, 5.00000000000000000000e-01) (2, 4, 5.00000000000000000000e-01) (2, 4, 5.00000000000000000000e-01) (2, 4, 5.00000000000000000000e-01) (2, 4, 5.00000000000000000000e-01) (2, 4, 5.00000000000000000000e-01) (2, 4, 5.00000000000000000000e-01) (2, 4, 5.00000000000000000000e-01) (2, 4, 5.00000000000000000000e-01) (2, 4, 5.00000000000000000000e-01) (2, 4, 5.00000000000000000000e-01) (2, 4, 5.00000000000000000000e-01) (2, 4, 5.00000000000000000000e-01) (2, 4, 5.00000000000000000000e-01) (2, 4, 5.00000000000000000000e-01) (2, 4, 5.00000000000000000000e-01) (2, 4, 5.00000000000000000000e-01) (2, 4, 5.00000000000000000000e-01) (2, 4, 5.00000000000000000000e-01) (2, 4, 5.00000000000000000000e-01) (2, 4, 5.00000000000000000000e-01) (2, 4, 5.00000000000000000000e-01) (2, 4, 5.00000000000000000000e-01) (2, 4, 5.00000000000000000000e-01) (2, 4, 5.00000000000000000000e-01) (2, 4, 5.00000000000000000000e-01) (2, 4, 5.00000000000000000000e-01) (2, 4, 5.00000000000000000000e-01) (2, 4, 5.00000000000000000000e-01) (2, 4, 5.00000000000000000000e-01) (2, 4, 5.00000000000000000000e-01) (2, 4, 5.00000000000000000000e-01) (2, 4, 5.00000000000000000000e-01) (2, 4, 5.00000000000000000000e-01) (2, 4, 5.00000000000000000000e-01) (2, 4, 5.00000000000000000000e-01) (2, 4, 5.00000000000000000000e-01) (2, 4, 5.00000000000000000000e-01) (2, 4, 5.00000000000000000000e-01) (2, 4, 5.00000000000000000000e-01) (2, 4, 5.00000000000000000000e-01) (2, 4, 5.00000000000000000000e-01) (2, 4, 5.00000000000000000000e-01) (2, 4, 5.00000000000000000000e-01) (2, 4, 5.00000000000000000000e-01) (2, 4, 5.00000000000000000000e-01) (2, 4, 5.00000000000000000000e-01) (2, 4, 5.00000000000000000000e-01) (2, 4, 5.00000000000000000000e-01) (2, 4, 5.00000000000000000000e-01) (2, 4, 5.00000000000000000000e-01) (2, 4, 5.00000000000000000000e-01) (2, 4, 5.00000000000000000000e-01) (2, 4, 5.00000000000000000000e-01) (0, 0, 0.00000000000000000000e+00) (201, 4, 5.00000000000000000000e-01) (0, 0, 0.00000000000000000000e+00) 
connections (connected_to_neuron, weight)=(0, -2.09398866495303717650e-02) (1, 1.08454126536874376208e-01) (0, -1.57967225808956168720e+01) (1, -5.23256454016394378925e+00) (0, -2.62162459347898613160e-01) (1, -5.40533039121858932541e-02) (0, -2.86296692988250036649e+01) (1, -1.99930408350041144416e+00) (0, -2.32760292746473940184e+00) (1, -2.88793251374821688393e-02) (0, -1.29733673283769168627e+00) (1, -2.53776201754687624756e-01) (0, -6.13105825006114457665e+01) (1, 5.47389504652234237803e-01) (0, 6.80792383810985168857e-01) (1, 1.95669489878571467578e-01) (0, 4.70183156427724124882e+00) (1, -2.51978677544534290789e+00) (0, 6.23682707426419402630e-01) (1, -4.57663944725596516516e-01) (0, -6.48359426732827586193e+01) (1, 2.73438867437824140172e-01) (0, -6.99727373332023727670e-01) (1, -5.22041294214434437038e+00) (0, 5.98927925220856050004e+00) (1, -2.94598690168955767987e+00) (0, 4.78352038458315864666e-01) (1, -5.19467812379800220057e-01) (0, 2.89114444223319111416e-01) (1, -2.94081274214433419090e-01) (0, -3.64934687998136197962e+01) (1, -5.09271354857005920103e-01) (0, -5.91075840262144964754e+01) (1, 3.73630577967368271430e+00) (0, -1.90938161329361544283e+00) (1, -1.15930590593891644224e-01) (0, -2.11418367804617091110e+00) (1, -1.39965349521208010097e-01) (0, 7.40237053097840047577e-01) (1, -4.14862807706202374458e-01) (0, 2.20067280585161872963e+00) (1, -7.48877887902508199147e-01) (0, -2.91521116516793687978e-01) (1, -4.76359565244116467397e+00) (0, -6.45228344992339799546e+01) (1, 4.69766369333638300620e-01) (0, -2.49128263543965555726e-01) (1, -4.91547678166247781206e+00) (0, 2.38286853824738104057e-01) (1, -1.73168359033171181949e-01) (0, -1.11588169896634692435e+00) (1, -2.17582271523457021489e-01) (0, 7.19726303836372705014e-01) (1, 1.64516075928229532632e-01) (0, -8.74353030167276668028e-02) (1, 1.08205557402162158565e-01) (0, 7.12700015770166395157e-01) (1, 2.87811713218607267972e-01) (0, 1.87719438212151007450e-01) (1, -1.24441771672536866111e-01) (0, -7.08570412642836657824e+01) (1, 8.06147560284005804121e-01) (0, 8.47806579111421321215e-01) (1, -5.86775738812314040516e-01) (0, -2.66683792492276965092e-02) (1, -5.78344699375862927870e-02) (0, -2.03712830939642230987e+00) (1, -9.66110699408005424438e-02) (0, -2.14558837126755008740e+00) (1, -1.20927858523107473188e-01) (0, -5.08915925628020016092e-01) (1, -4.68153692153409384247e+00) (0, 1.95908697646828222627e-01) (1, -2.58872784427717606004e-01) (0, -2.22642721838957086122e-01) (1, 3.05292062624921908820e-02) (0, -1.32921720824042521869e+00) (1, -3.52525086400278131471e-01) (0, -1.58543361921168592943e+01) (1, -5.14460390950865509296e+00) (0, -6.29606275829205799255e+01) (1, 3.89741268023942877274e-01) (0, -5.65019170491684477042e+01) (1, -1.16308597455004728016e-01) (0, 2.71263185298708897619e+00) (1, -7.55023490549575959641e-01) (0, -7.84745839899081421009e-03) (1, -1.65726206179230284299e-02) (0, -1.58200896878101033849e+01) (1, -5.16361358906454803730e+00) (0, -4.31608001736597017839e+01) (1, 1.48801862714968230472e-01) (0, 3.71589272226368783070e-01) (1, -2.25494931704104339953e-01) (0, -1.57465669337967639763e+01) (1, -5.26674892152971985126e+00) (0, -1.30288686120991692441e+00) (1, -3.75888332789619472596e-01) (0, -2.11203756339999193514e+00) (1, -1.02876293454160230856e-01) (0, 7.13927784649582952703e-01) (1, -5.07380487226812615376e-01) (0, -2.15108953196743613034e+00) (1, -2.42012650951194008275e-01) (0, -2.31123109269159332513e+00) (1, -7.11214985696578122498e-02) (0, -1.31860036889974585606e+00) (1, -3.55520535150773975275e-01) (0, 6.42066713480600181896e-01) (1, 1.65702826502722860846e-01) (0, -1.24342891984450232279e+00) (1, -3.60300476460591712069e-01) (0, -2.52151931280704566518e-01) (1, 5.22711846558640280680e-02) (0, -1.04033109389944899981e+00) (1, -2.29081096768444847367e-01) (0, -1.98780588083986153869e+00) (1, -1.55378706823047885166e-01) (0, 6.97603661200735025716e-01) (1, -5.22839484082272099030e-01) (0, 6.59243246811525240858e-01) (1, 3.24342520839615899853e-01) (0, 6.49991632021001852770e-01) (1, 3.53127112620284955291e-01) (0, -1.32540559671367086381e+00) (1, -3.19677758437959369520e-01) (0, 5.77034944027473573058e-01) (1, -4.99181854691875870333e-01) (0, -1.01939113721937912871e+00) (1, -2.12327067973408750712e-01) (0, 6.96759441532473156045e-01) (1, 3.68746808573752027360e-01) (0, 5.17782374459936023392e-01) (1, -4.68210548005741244992e-01) (0, -2.27190956704146795886e+00) (1, -5.78096501789850461539e-02) (0, -1.31997307892422366393e+00) (1, -3.69436089014490154359e-01) (0, 1.93782639036886500383e-01) (1, -2.90084990147762566970e-01) (0, -1.57189798180321620436e+01) (1, -5.20997039000816108967e+00) (0, 2.55145833723185777586e+00) (1, -7.74660583806857983014e-01) (0, 8.25236920096178216966e+00) (1, -8.85468000515210817980e+00) (0, -8.60966923418858942618e-01) (1, -2.24662789487654973586e-01) (0, 3.95804449339220931758e-01) (1, -4.27205971847996490709e+00) (0, 3.95702740487472837128e-01) (1, -1.07678592227996902664e-01) (0, -2.63876673746835155310e-01) (1, -1.08561399362569720173e-02) (0, 6.46054763253660069289e-01) (1, 2.43610465406421644596e-01) (0, 2.27498077565668221922e+00) (1, -7.37578312571195993108e-01) (0, -1.07330058123996918695e+00) (1, -2.01105899808552451846e-01) (0, -6.54370633552190262422e-03) (1, -5.34415265712303300116e-02) (0, -2.42305083321545239317e-01) (1, 6.12075687394322762169e-02) (0, -4.86194175621858306613e+01) (1, 1.76136348449449209319e+00) (0, -1.92797534640596435196e+00) (1, -4.27829282340454752909e-02) (0, -2.29154553580138253821e+00) (1, -4.75855029702100182365e-02) (0, -8.63444455364087537497e-01) (1, -2.24072614097411748624e-01) (0, -2.10624513196601981235e+00) (1, -3.29356441992250947859e-01) (0, -2.44840378195520491644e+00) (1, -6.88092845991197421540e+00) (0, 3.13195354621115806815e-01) (1, -1.41420997695507671965e-01) (0, -1.57402679745415525758e+01) (1, -5.19991370435185196186e+00) (0, 3.84677483643565021332e-01) (1, -2.52029775340805728412e-01) (0, -1.58025756601549804969e+01) (1, -5.20539291347689392353e+00) (0, 7.03910840062522913385e-01) (1, 2.05440385030518507525e-01) (0, 3.67162723565720439112e-01) (1, -2.52330171581278350779e-01) (0, 5.96901220871070892215e-01) (1, 3.13294088836402140341e-01) (0, 1.54447028816334597234e-01) (1, -4.25952174384126092122e+00) (0, -1.12600547646332449503e+00) (1, -2.32765509199999609535e-01) (0, 3.08006768233343075636e+00) (1, -8.24902877048840577068e-01) (0, -1.29646878646996588369e-01) (1, -6.17763544455590951632e-02) (0, 6.81886043213338455260e-01) (1, 2.59450813010040637341e-01) (0, -5.20577615923897525363e+01) (1, -1.35213625508483176185e-01) (0, 3.13041271229761530748e+00) (1, -8.96706289845615511780e-01) (0, -1.47825640800435453848e+00) (1, -4.34013827094732518308e-01) (0, -1.08743000636107711721e+00) (1, -2.43979783237129210782e-01) (0, -3.80206469656291972115e+01) (1, -2.75050436546923904313e-01) (0, -1.65667667210833091662e-01) (1, -3.83217088349750434340e-02) (0, -2.04894203588244216974e+00) (1, -4.63798030245194947696e-01) (0, 7.15238372801371258269e-01) (1, 3.50482897910525614815e-01) (0, -6.79491000982575030775e+01) (1, 6.25119114475596315827e-01) (0, 1.82629686671147761778e+00) (1, -8.07948655739882504179e-01) (0, -2.63191572920086491738e-01) (1, -3.25803504775294405782e-02) (0, 2.44182065228354172604e-01) (1, -2.52565572913817482092e-01) (0, 2.13190865419426528460e-01) (1, -2.73216167871168091885e-01) (0, -1.37737270470073419615e-01) (1, -4.18125356641433909566e-02) (0, -3.85627890327255897773e+01) (1, 3.02054942025359929314e-01) (0, 5.06425494503415785097e-01) (1, -4.09086716028711883109e-01) (0, -1.41256703214111795086e-01) (1, -6.76880394464612067384e-02) (0, 5.56379014219546941256e-01) (1, -4.64829297943963215545e-01) (0, 2.24685572735587923976e-01) (1, -2.81631092015913631066e-01) (0, 3.61357143916473511069e+00) (1, -9.11005636082629854933e-01) (0, -1.29321640507641888451e-01) (1, -7.42412034164554174298e-02) (0, -4.33857288496689308399e-01) (1, -7.26282240946920232272e-02) (0, -6.11563363441335710036e+01) (1, 3.74976874011411276388e-01) (0, 3.21633648071208355645e+00) (1, -9.36576326559744543054e-01) (0, 7.13937892483442304581e-01) (1, 2.93796962135233930002e-01) (0, 7.25052016739099913778e-01) (1, 3.31869805315897437037e-01) (0, -1.30707641347352665484e+00) (1, -3.31492156821576788861e-01) (0, -2.01165406527279655435e+00) (1, -1.11631266422159175500e-01) (0, -8.90190301910754322456e-02) (1, 4.45842076865670816632e-02) (0, -1.07962386563548884411e+00) (1, -2.56213701225677270568e-01) (0, 5.86427939983508950128e-01) (1, 1.72863817581002471302e-01) (0, -1.58999083165380383775e+01) (1, -5.07523525650925400043e+00) (0, 2.75463778378595280927e+00) (1, -7.65945491244429010891e-01) (0, -2.12022420415487689027e+00) (1, -2.69270431281739164309e-01) (0, -2.12623142884176230538e+00) (1, -1.92969631572247418694e-01) (0, 5.31327659537149532554e+00) (1, -5.77368926167029883345e+00) (0, 7.15237920733580279098e-01) (1, 2.70249048180023265786e-01) (0, 2.65599998394856429140e-01) (1, -1.61368094400944905864e-01) (0, -1.57911412392117753711e+01) (1, -5.22692350815362694050e+00) (0, 6.48571845653536649401e-01) (1, 3.08291233970087508176e-01) (0, 2.44040146164940463525e-01) (1, -2.85968760288877299480e-01) (0, 5.94902431262594122430e-01) (1, 3.19892879284496389758e-01) (0, 6.25433643950069617645e-01) (1, 2.54904278999331990185e-01) (0, 3.39789439074795140971e-01) (1, -1.51433102802814495424e-01) (0, -1.30309752795838051931e+00) (1, -3.67756467202909442804e-01) (0, 2.68764600138781695193e+00) (1, -6.87025156599669339919e-01) (0, -2.04248553651468922610e+00) (1, -3.76808232802189890798e-01) (0, 2.85889896270904941833e-01) (1, -2.89093170109437691551e-01) (0, -1.12177877767487244043e+00) (1, -2.36825256061450217793e-01) (0, -3.56947817849909906918e-02) (1, 1.10267139241631874358e-02) (0, 6.75996889335125250575e-01) (1, 3.40634690688538133152e-01) (0, 5.50649277662326408489e-01) (1, -4.36903619740839244123e-01) (0, -6.45059295856771464095e-01) (1, -4.86648399437945400337e+00) (0, -1.25911448513530782600e-01) (1, -5.17578382167870731934e+00) (0, -2.32591395697439751178e-01) (1, 9.25100545264259527256e-02) (0, -5.94661021376502563207e-01) (1, -4.70707223797992480030e+00) (0, 6.45195196627339595530e-01) (1, 3.46643550336290795499e-01) (0, 5.91342699268300076021e-01) (1, 3.54700851382091786324e-01) (0, -1.47510172153022600661e+00) (1, -4.13846464933028512778e-01) (0, 2.34893588831240762715e+00) (1, -7.26012957794629154584e-01) (0, 2.50948697976392243181e-01) (1, -2.77320960942914807035e-01) (0, 2.59950857817209968204e+00) (1, -7.68720547839838563853e-01) (0, -1.31018225451056635755e+00) (1, -3.20478563127461757443e-01) (0, 2.67333682536111838512e-01) (1, -2.59481529180219994135e-01) (0, -2.16443326299677130109e+00) (1, -2.14589906634888832881e-01) (0, -4.48279636404193624344e+01) (1, 2.30393985665796219298e-01) (0, -9.59721790175654021482e+00) (1, -1.22515596848638641525e+00) (0, -2.15773925766020235884e+00) (1, -2.17183214416023590010e-01) (0, -2.17612390017108126017e+00) (1, -1.45577128146907874839e-01) (0, 2.60128795523154043856e-01) (1, -1.51981050772333842191e-01) (0, -2.27459353254888219098e+00) (1, -4.99551356735354681882e-02) (0, 1.24443986688936036877e+00) (1, -7.47193104536700736240e-01) (0, -3.46878616662552587968e+01) (1, 4.15822944936068150668e+00) (0, 6.87726522669722339920e-01) (1, -4.57195376476798087673e-01) (0, 2.65682793950523032933e+00) (1, -7.66364148136453815496e-01) (0, -1.29612940085684646974e+00) (1, -3.25981219229642238400e-01) (0, 3.32495496373221510744e-01) (1, -3.20926477191375347786e-01) (0, 1.78630707412835099124e-01) (1, -2.73226966790273473329e-01) (0, -1.83171490966275243295e+01) (1, -2.82770836793673607801e+00) (0, 2.30171573064843926204e-01) (1, -2.78468901697805359952e-01) (0, -1.95470064749361616130e+00) (1, -1.34382265471031520088e-01) (0, -1.54194603253100998019e-01) (1, -3.50662501140277041434e-03) (0, -5.82649896957020363431e+00) (1, -1.31687507285869678242e+01) (0, -6.20480402054790616262e+01) (1, 5.42390867109328311813e+00) (0, 6.38056464551338020641e-01) (1, 1.65375470343035874121e-01) (0, -2.11177106454017771142e+00) (1, -1.84461878138364038238e-01) (0, -1.26651911067833888858e+00) (1, -2.92987106502714700351e-01) (0, -5.67297271315700513128e-01) (1, -4.74728079613395426151e+00) (0, 2.44075725354598566108e-01) (1, -2.21751227728436833830e-01) (0, -2.23013346756232833101e+00) (1, -4.37117776984246531047e-01) (0, -2.57450675061200229266e+01) (1, 1.41121341841228487013e-01) (0, -6.31828705200094660199e+01) (1, -1.34446467427527527327e+00) (0, -1.32053671460726684828e+00) (1, -3.42242011904819287693e-01) (0, 3.36298171687594793511e-01) (1, -1.35002128796163189950e-01) (0, -1.28523552688052111748e+00) (1, -3.70988871792562457941e-01) (0, -8.00236079553880941262e+00) (1, -8.07729703123586717517e-01) (0, -1.58757707227325610688e+01) (1, -5.19469440128035309101e+00) (0, 8.71676038969678046442e+00) (1, -5.30617652970859410289e+00) (0, 6.52134928227053922711e+00) (1, -3.24976716149817912438e+00) (0, -2.16644003539875917852e+00) (1, -2.03221517521113809179e-01) (2, 1.12189014954809387903e-01) (3, 1.50000000000000000000e+03) (4, 1.17619059557525301729e-01) (5, -5.47495134840260746500e+01) (6, -7.88855881675347286874e-02) (7, 5.96556783611582874816e-02) (8, -2.05729394634598827807e+00) (9, -3.10142646390482411289e-02) (10, -5.33064696263194193193e-01) (11, 2.50206439317116266507e-02) (12, 4.51310669796020569322e+00) (13, 2.12256053409797999620e+02) (14, -5.46437328483584949801e-01) (15, 1.24014589480915642106e-02) (16, 1.30609906113608814637e-01) (17, 6.66993751612130836293e+00) (18, 4.63563498035840071410e-01) (19, -1.65278514896264258627e-02) (20, -3.49390878088548934022e-02) (21, 3.72034629500749280950e-02) (22, 1.13441673626592839930e-01) (23, -1.63183589101993078430e+01) (24, -5.82003731898820597657e-01) (25, -1.31499506491409317022e+01) (26, -1.33669375506895570654e-02) (27, 9.84284664064217912349e-02) (28, -3.20032588755177760387e-02) (29, 1.14899124633692381603e-01) (30, -2.30915525034899281331e-02) (31, -5.75234112904104196579e-03) (32, -1.35551353726525003474e+00) (33, 4.46553335469261486468e-02) (34, 1.17881541082385646324e-01) (35, -4.65985069076332789062e-02) (36, -7.09857351367050026791e-02) (37, -3.07084704353511952490e+01) (38, -4.76547083623437769950e-03) (39, 1.25148219700710161550e-01) (40, 6.14650058829591394716e-02) (41, 1.50000000000000000000e+03) (42, -3.43223349955323164817e-01) (43, 3.53304620094380616990e+00) (44, 8.67925131601297306094e-02) (45, 1.14728671142916155423e-01) (46, 1.50000000000000000000e+03) (47, 4.60968329113842667510e+00) (48, -9.14016181478432242213e-03) (49, 1.50000000000000000000e+03) (50, 4.65372516638826103086e-02) (51, -6.07499221734428621056e-02) (52, 3.65047825019243418754e-02) (53, -2.61875180255298593834e-02) (54, -5.20957837483274760482e-02) (55, 5.80866379280151820530e-02) (56, -3.65503308635733575871e-02) (57, 6.60438149465674140259e-02) (58, 1.10045340966213697764e-01) (59, 7.30744990935287969114e-02) (60, -2.83783365064330765637e-02) (61, 3.20348382049586849485e-02) (62, -4.61885076963465673883e-02) (63, -4.29608251355205542077e-02) (64, 6.95948052607618383725e-02) (65, 2.18074725407619018913e-02) (66, 8.53788458884800066651e-02) (67, -2.50612841474559013000e-02) (68, 1.77802204015637850543e-02) (69, -8.10635580281031942196e-02) (70, 8.28505768305838607990e-02) (71, -7.29893405821135238254e-03) (72, 1.50000000000000000000e+03) (73, 9.63785431917508067512e-02) (74, 3.66270618321093266445e+00) (75, 6.80308478522711618242e-02) (76, 7.50902021122809432141e-02) (77, -8.33710911365532071453e-04) (78, 1.14021144562234499897e-01) (79, -2.72900807353991525783e-02) (80, 1.06554274361018108674e-01) (81, 1.11642757379055643230e-01) (82, 1.15185659954409130856e-01) (83, 1.11226605741966855234e-01) (84, -1.37249594421804377298e+00) (85, -2.71736615843472702203e-02) (86, -8.60979600409263884364e-02) (87, 9.22558196411543129933e-02) (88, -1.04028307656640131573e-02) (89, 1.50000000000000000000e+03) (90, -1.17839997462368881176e-02) (91, 1.50000000000000000000e+03) (92, -4.41913526859728008483e-03) (93, 1.50000000000000000000e+03) (94, -1.47876360684926454192e-02) (95, -1.02169644261362411314e-02) (96, -2.35277904234953150198e-02) (97, 5.44097112682847133813e-02) (98, 9.50991316720426055342e-02) (99, 9.03776934010964982935e-02) (100, 1.10598036480224440337e-01) (101, -2.06495121631668394901e-03) (102, 2.66294739717369965959e+00) (103, 8.54583319770096799806e-02) (104, 4.87844623951195835443e-02) (105, 9.50996823376743100065e-02) (106, -2.18315731222061231165e+01) (107, 1.21152200428096143425e-01) (108, 6.02018009924117341453e-03) (109, -3.66846846447983834794e-02) (110, -3.01940635229722365018e-01) (111, 1.30495843376022491178e-01) (112, 1.18442736320964345231e-01) (113, 1.05021176731065812859e-01) (114, -9.51498686328151356550e-03) (115, 1.26988160679426864696e-01) (116, -2.54677227809015516158e+00) (117, 1.15641989124207547612e-02) (118, 1.16762611339176911041e-01) (119, 2.29903848537031905985e-02) (120, -1.03835178399578759167e-02) (121, 1.33427727651878630377e-01) (122, 1.24035381929484600505e-01) (123, 1.00839690132904488684e-01) (124, -3.44802738907017092274e+00) (125, 9.32667197093575706113e-02) (126, -2.27615364865298534791e-02) (127, -3.18477009287861170805e-02) (128, 4.67358412887682525549e-02) (129, -2.73953305935032524754e-02) (130, 1.28197064916791003686e-01) (131, 4.60065123874726852882e-02) (132, -1.84978644750624886262e-02) (133, 1.50000000000000000000e+03) (134, 9.23249370173276212581e-02) (135, -2.13476700628756933809e-02) (136, -4.85201074732497031339e-02) (137, 9.72803429262362850949e-01) (138, -3.08713319796549527652e-02) (139, -1.63288436869634713544e-02) (140, 1.50000000000000000000e+03) (141, -2.60481007421512547606e-02) (142, -3.71548710376810170652e-03) (143, -2.01395643912383702501e-02) (144, -1.61099459431676209076e-02) (145, -7.67453255258517506865e-03) (146, 5.01383753583020536082e-02) (147, 8.42841728713571297638e-02) (148, -1.22362868357325056332e-03) (149, 1.26477849722846175107e-01) (150, 9.60224076196134618266e-02) (151, 1.15116170268820358635e-01) (152, -2.79371689407367264357e-02) (153, 1.91934051988505403885e-02) (154, 4.07409005850821404060e-01) (155, 1.18071432587253841717e+01) (156, 1.10050715782535765697e-01) (157, -4.39741409489777090869e+00) (158, -1.74913953445461761715e-02) (159, -2.47524971984887931509e-02) (160, 4.03921503097564305040e-02) (161, 9.98850486059288528162e-02) (162, -2.01113217752208750522e-02) (163, 1.12446140871738917144e-01) (164, 8.70962841210614624465e-02) (165, -1.51837368937215912851e-02) (166, -2.47620166738320678090e-02) (167, 5.12967573022340417310e+00) (168, -2.19010648446645728171e+00) (169, -2.47028566100353542956e-02) (170, -4.22589524245119002588e-02) (171, -3.64420691972003069764e-03) (172, -8.04467708966029870776e-02) (173, 8.73136229869019425687e-02) (174, 1.72767682720498028104e+00) (175, 3.34260311533336185175e-02) (176, 1.11671490404455162060e-01) (177, 5.77793838703409487478e-02) (178, 1.41329892840188958703e-01) (179, -1.76601996811150512012e-02) (180, 7.74832434412207504693e+01) (181, -1.68131478930968122909e-02) (182, -1.42999919545391835501e-02) (183, 1.17181110451306552678e-01) (184, 1.50000000000000000000e+03) (185, -1.70867625796095690127e+00) (186, -2.28450303889302028248e-02) (187, -4.22659708518146812195e-02) (188, 7.55832286911920503414e-02) (189, -4.33268848360541625198e+01) (190, -1.00916895895493703011e-02) (191, -1.24433625724895743220e-02) (192, 7.55366594841296423724e-01) (193, 5.34947634755719363397e+01) (194, 5.44356277176810052221e-02) (195, -2.89468647232962728033e-03) (196, 4.31189318164515375531e-02) (197, -1.92189543767413463515e-02) (198, 1.50000000000000000000e+03) (199, -3.47618262649934850472e+00) (200, -9.42918679790603175839e-01) (201, -2.99223130650156550481e-02) (202, -7.71711814209656982166e-02) 
