FANN_FLO_2.1
num_layers=3
learning_rate=0.700000
connection_rate=1.000000
network_type=0
learning_momentum=0.000000
training_algorithm=2
train_error_function=1
train_stop_function=0
cascade_output_change_fraction=0.010000
quickprop_decay=-0.000100
quickprop_mu=1.750000
rprop_increase_factor=1.200000
rprop_decrease_factor=0.500000
rprop_delta_min=0.000000
rprop_delta_max=50.000000
rprop_delta_zero=0.100000
cascade_output_stagnation_epochs=12
cascade_candidate_change_fraction=0.010000
cascade_candidate_stagnation_epochs=12
cascade_max_out_epochs=150
cascade_min_out_epochs=50
cascade_max_cand_epochs=150
cascade_min_cand_epochs=50
cascade_num_candidate_groups=2
bit_fail_limit=3.49999999999999977796e-01
cascade_candidate_limit=1.00000000000000000000e+03
cascade_weight_multiplier=4.00000000000000022204e-01
cascade_activation_functions_count=10
cascade_activation_functions=3 5 7 8 10 11 14 15 16 17 
cascade_activation_steepnesses_count=4
cascade_activation_steepnesses=2.50000000000000000000e-01 5.00000000000000000000e-01 7.50000000000000000000e-01 1.00000000000000000000e+00 
layer_sizes=2 201 2 
scale_included=0
neurons (num_inputs, activation_function, activation_steepness)=(0, 0, 0.00000000000000000000e+00) (0, 0, 0.00000000000000000000e+00) (2, 4, 5.00000000000000000000e-01) (2, 4, 5.00000000000000000000e-01) (2, 4, 5.00000000000000000000e-01) (2, 4, 5.00000000000000000000e-01) (2, 4, 5.00000000000000000000e-01) (2, 4, 5.00000000000000000000e-01) (2, 4, 5.00000000000000000000e-01) (2, 4, 5.00000000000000000000e-01) (2, 4, 5.00000000000000000000e-01) (2, 4, 5.00000000000000000000e-01) (2, 4, 5.00000000000000000000e-01) (2, 4, 5.00000000000000000000e-01) (2, 4, 5.00000000000000000000e-01) (2, 4, 5.00000000000000000000e-01) (2, 4, 5.00000000000000000000e-01) (2, 4, 5.00000000000000000000e-01) (2, 4, 5.00000000000000000000e-01) (2, 4, 5.00000000000000000000e-01) (2, 4, 5.00000000000000000000e-01) (2, 4, 5.00000000000000000000e-01) (2, 4, 5.00000000000000000000e-01) (2, 4, 5.00000000000000000000e-01) (2, 4, 5.00000000000000000000e-01) (2, 4, 5.00000000000000000000e-01) (2, 4, 5.00000000000000000000e-01) (2, 4, 5.00000000000000000000e-01) (2, 4, 5.00000000000000000000e-01) (2, 4, 5.00000000000000000000e-01) (2, 4, 5.00000000000000000000e-01) (2, 4, 5.00000000000000000000e-01) (2, 4, 5.00000000000000000000e-01) (2, 4, 5.00000000000000000000e-01) (2, 4, 5.00000000000000000000e-01) (2, 4, 5.00000000000000000000e-01) (2, 4, 5.00000000000000000000e-01) (2, 4, 5.00000000000000000000e-01) (2, 4, 5.00000000000000000000e-01) (2, 4, 5.00000000000000000000e-01) (2, 4, 5.00000000000000000000e-01) (2, 4, 5.00000000000000000000e-01) (2, 4, 5.00000000000000000000e-01) (2, 4, 5.00000000000000000000e-01) (2, 4, 5.00000000000000000000e-01) (2, 4, 5.00000000000000000000e-01) (2, 4, 5.00000000000000000000e-01) (2, 4, 5.00000000000000000000e-01) (2, 4, 5.00000000000000000000e-01) (2, 4, 5.00000000000000000000e-01) (2, 4, 5.00000000000000000000e-01) (2, 4, 5.00000000000000000000e-01) (2, 4, 5.00000000000000000000e-01) (2, 4, 5.00000000000000000000e-01) (2, 4, 5.00000000000000000000e-01) (2, 4, 5.00000000000000000000e-01) (2, 4, 5.00000000000000000000e-01) (2, 4, 5.00000000000000000000e-01) (2, 4, 5.00000000000000000000e-01) (2, 4, 5.00000000000000000000e-01) (2, 4, 5.00000000000000000000e-01) (2, 4, 5.00000000000000000000e-01) (2, 4, 5.00000000000000000000e-01) (2, 4, 5.00000000000000000000e-01) (2, 4, 5.00000000000000000000e-01) (2, 4, 5.00000000000000000000e-01) (2, 4, 5.00000000000000000000e-01) (2, 4, 5.00000000000000000000e-01) (2, 4, 5.00000000000000000000e-01) (2, 4, 5.00000000000000000000e-01) (2, 4, 5.00000000000000000000e-01) (2, 4, 5.00000000000000000000e-01) (2, 4, 5.00000000000000000000e-01) (2, 4, 5.00000000000000000000e-01) (2, 4, 5.00000000000000000000e-01) (2, 4, 5.00000000000000000000e-01) (2, 4, 5.00000000000000000000e-01) (2, 4, 5.00000000000000000000e-01) (2, 4, 5.00000000000000000000e-01) (2, 4, 5.00000000000000000000e-01) (2, 4, 5.00000000000000000000e-01) (2, 4, 5.00000000000000000000e-01) (2, 4, 5.00000000000000000000e-01) (2, 4, 5.00000000000000000000e-01) (2, 4, 5.00000000000000000000e-01) (2, 4, 5.00000000000000000000e-01) (2, 4, 5.00000000000000000000e-01) (2, 4, 5.00000000000000000000e-01) (2, 4, 5.00000000000000000000e-01) (2, 4, 5.00000000000000000000e-01) (2, 4, 5.00000000000000000000e-01) (2, 4, 5.00000000000000000000e-01) (2, 4, 5.00000000000000000000e-01) (2, 4, 5.00000000000000000000e-01) (2, 4, 5.00000000000000000000e-01) (2, 4, 5.00000000000000000000e-01) (2, 4, 5.00000000000000000000e-01) (2, 4, 5.00000000000000000000e-01) (2, 4, 5.00000000000000000000e-01) (2, 4, 5.00000000000000000000e-01) (2, 4, 5.00000000000000000000e-01) (2, 4, 5.00000000000000000000e-01) (2, 4, 5.00000000000000000000e-01) (2, 4, 5.00000000000000000000e-01) (2, 4, 5.00000000000000000000e-01) (2, 4, 5.00000000000000000000e-01) (2, 4, 5.00000000000000000000e-01) (2, 4, 5.00000000000000000000e-01) (2, 4, 5.00000000000000000000e-01) (2, 4, 5.00000000000000000000e-01) (2, 4, 5.00000000000000000000e-01) (2, 4, 5.00000000000000000000e-01) (2, 4, 5.00000000000000000000e-01) (2, 4, 5.00000000000000000000e-01) (2, 4, 5.00000000000000000000e-01) (2, 4, 5.00000000000000000000e-01) (2, 4, 5.00000000000000000000e-01) (2, 4, 5.00000000000000000000e-01) (2, 4, 5.00000000000000000000e-01) (2, 4, 5.00000000000000000000e-01) (2, 4, 5.00000000000000000000e-01) (2, 4, 5.00000000000000000000e-01) (2, 4, 5.00000000000000000000e-01) (2, 4, 5.00000000000000000000e-01) (2, 4, 5.00000000000000000000e-01) (2, 4, 5.00000000000000000000e-01) (2, 4, 5.00000000000000000000e-01) (2, 4, 5.00000000000000000000e-01) (2, 4, 5.00000000000000000000e-01) (2, 4, 5.00000000000000000000e-01) (2, 4, 5.00000000000000000000e-01) (2, 4, 5.00000000000000000000e-01) (2, 4, 5.00000000000000000000e-01) (2, 4, 5.00000000000000000000e-01) (2, 4, 5.00000000000000000000e-01) (2, 4, 5.00000000000000000000e-01) (2, 4, 5.00000000000000000000e-01) (2, 4, 5.00000000000000000000e-01) (2, 4, 5.00000000000000000000e-01) (2, 4, 5.00000000000000000000e-01) (2, 4, 5.00000000000000000000e-01) (2, 4, 5.00000000000000000000e-01) (2, 4, 5.00000000000000000000e-01) (2, 4, 5.00000000000000000000e-01) (2, 4, 5.00000000000000000000e-01) (2, 4, 5.00000000000000000000e-01) (2, 4, 5.00000000000000000000e-01) (2, 4, 5.00000000000000000000e-01) (2, 4, 5.00000000000000000000e-01) (2, 4, 5.00000000000000000000e-01) (2, 4, 5.00000000000000000000e-01) (2, 4, 5.00000000000000000000e-01) (2, 4, 5.00000000000000000000e-01) (2, 4, 5.00000000000000000000e-01) (2, 4, 5.00000000000000000000e-01) (2, 4, 5.00000000000000000000e-01) (2, 4, 5.00000000000000000000e-01) (2, 4, 5.00000000000000000000e-01) (2, 4, 5.00000000000000000000e-01) (2, 4, 5.00000000000000000000e-01) (2, 4, 5.00000000000000000000e-01) (2, 4, 5.00000000000000000000e-01) (2, 4, 5.00000000000000000000e-01) (2, 4, 5.00000000000000000000e-01) (2, 4, 5.00000000000000000000e-01) (2, 4, 5.00000000000000000000e-01) (2, 4, 5.00000000000000000000e-01) (2, 4, 5.00000000000000000000e-01) (2, 4, 5.00000000000000000000e-01) (2, 4, 5.00000000000000000000e-01) (2, 4, 5.00000000000000000000e-01) (2, 4, 5.00000000000000000000e-01) (2, 4, 5.00000000000000000000e-01) (2, 4, 5.00000000000000000000e-01) (2, 4, 5.00000000000000000000e-01) (2, 4, 5.00000000000000000000e-01) (2, 4, 5.00000000000000000000e-01) (2, 4, 5.00000000000000000000e-01) (2, 4, 5.00000000000000000000e-01) (2, 4, 5.00000000000000000000e-01) (2, 4, 5.00000000000000000000e-01) (2, 4, 5.00000000000000000000e-01) (2, 4, 5.00000000000000000000e-01) (2, 4, 5.00000000000000000000e-01) (2, 4, 5.00000000000000000000e-01) (2, 4, 5.00000000000000000000e-01) (2, 4, 5.00000000000000000000e-01) (2, 4, 5.00000000000000000000e-01) (2, 4, 5.00000000000000000000e-01) (2, 4, 5.00000000000000000000e-01) (2, 4, 5.00000000000000000000e-01) (2, 4, 5.00000000000000000000e-01) (2, 4, 5.00000000000000000000e-01) (2, 4, 5.00000000000000000000e-01) (2, 4, 5.00000000000000000000e-01) (2, 4, 5.00000000000000000000e-01) (2, 4, 5.00000000000000000000e-01) (2, 4, 5.00000000000000000000e-01) (2, 4, 5.00000000000000000000e-01) (2, 4, 5.00000000000000000000e-01) (2, 4, 5.00000000000000000000e-01) (2, 4, 5.00000000000000000000e-01) (0, 0, 0.00000000000000000000e+00) (201, 4, 5.00000000000000000000e-01) (0, 0, 0.00000000000000000000e+00) 
connections (connected_to_neuron, weight)=(0, 8.10864822268489160439e-02) (1, 7.62567774653437890908e-02) (0, 1.03336791813373879423e-01) (1, 3.74512107372287073037e-02) (0, 9.84081582427027978799e-02) (1, 1.75492030382187746973e-03) (0, -4.91783066391941747764e-02) (1, 1.16047884643078164091e-01) (0, 7.27102414965632715127e-02) (1, 9.68351022601130762002e-02) (0, 2.03335712820291975023e-01) (1, 2.79016836702824067018e-01) (0, 1.16712109446528711221e-02) (1, 1.38669119477275171182e-02) (0, 3.57127978622913788698e-01) (1, 2.65441558480263184450e-01) (0, 2.91863589704037140748e-01) (1, 1.67005180537701108934e-01) (0, 2.71804309606552552125e-01) (1, 2.30676598072052457811e-01) (0, 1.97330258011818387986e-01) (1, 3.45403566181660126588e-01) (0, 2.13416869908571699144e-01) (1, 3.13046007573605011842e-01) (0, -5.99770067930218420127e-02) (1, 2.24007548093798913857e-02) (0, 1.85374922275543668748e-01) (1, 2.11994360357523420335e-01) (0, 2.04868498414755323411e-01) (1, 2.40511468768120267869e-01) (0, 2.91873782098293732545e-01) (1, 3.38232069432735871217e-01) (0, 2.81840860068798493288e-01) (1, 3.15036653697491120241e-01) (0, 2.36646509885788419725e-01) (1, 3.33577125489712189577e-01) (0, 2.46287196099758604051e-01) (1, 1.64568475604057767869e-01) (0, 3.18071603000164460084e-01) (1, 2.45026945292950132371e-01) (0, -5.65091191530224523643e-02) (1, 1.07146094858646706571e-01) (0, 3.00139873445034455202e-01) (1, 2.66546785056591462038e-01) (0, 2.67422317683697174928e-01) (1, 1.82575888156891324998e-01) (0, 1.68610683798790433885e-01) (1, 2.55491367697716187379e-01) (0, 1.91040666103366174600e-02) (1, -6.21325491666790685752e-02) (0, -5.87194103002516842871e-03) (1, -3.37851538062092504600e-02) (0, 2.88271487951281824014e-02) (1, -4.61853190064427099326e-02) (0, 2.59209848165512513063e-01) (1, 3.55610027134418915651e-01) (0, 1.13321642696857766142e-01) (1, 5.28197394013407983682e-02) (0, 2.37263283848762968065e-01) (1, 2.99704938352108429811e-01) (0, 3.56674059450626801393e-01) (1, 2.36684984683990934373e-01) (0, -5.97440867424008092978e-02) (1, -6.30465640425678930381e-02) (0, 2.72251880884170960329e-01) (1, 3.52902203023434113405e-01) (0, 2.87327480316193484278e-03) (1, -5.30693649053570470908e-02) (0, 3.59103589475155304811e-01) (1, 2.69738218903541993043e-01) (0, 3.05827527463436554811e-01) (1, 2.58966691017151307008e-01) (0, 2.68935128271580170534e-01) (1, 2.08485192775726774217e-01) (0, 2.26303006678820112230e-01) (1, 2.90367155492306183717e-01) (0, 2.16540250152349927903e-01) (1, 2.07643012672663190843e-01) (0, 2.71752274751663636110e-01) (1, 3.56097056686878632448e-01) (0, 3.38888405978680085084e-01) (1, 3.12979980528355072877e-01) (0, 3.02047089934352197549e-02) (1, 1.06353114664554909696e-01) (0, 1.72661057829857328416e-01) (1, 3.30036967217922638795e-01) (0, 1.06767262637615517606e-01) (1, 9.30941955447200097939e-02) (0, 9.00714651942256250283e-02) (1, 8.70565430521968164346e-02) (0, 1.50111870169642724893e-02) (1, -5.10722516775128088096e-02) (0, 3.24548064887524079225e-01) (1, 2.94936030328274201295e-01) (0, 2.05381731659174421312e-01) (1, 2.66435130655765961549e-01) (0, -4.90859045386311254600e-02) (1, 6.91110299229625024697e-02) (0, 2.45081818819046476365e-01) (1, 3.05850430548191498659e-01) (0, 3.78457021713288210840e-03) (1, 6.30554513335231103799e-02) (0, 2.88143188953402795693e-02) (1, -6.19004039764401159385e-02) (0, 9.57703695893290796182e-02) (1, 6.83564798235896387002e-02) (0, 1.23195494830608681669e-01) (1, 2.56184053421051882715e-03) (0, 1.12794186294079140653e-01) (1, -1.22339396476742467978e-02) (0, 4.00289030075076379678e-02) (1, 2.15694637298587121865e-02) (0, -2.61577485799786291221e-02) (1, 2.25924135446551599404e-02) (0, 2.06555112421513059617e-01) (1, 1.87453440546989896776e-01) (0, 3.45619662821293305299e-01) (1, 2.45268575072288969041e-01) (0, 2.44554772198200681688e-01) (1, 2.47724644064903715135e-01) (0, 8.38002519011500635049e-02) (1, 8.67511884570124902627e-02) (0, 8.30793039202693262002e-02) (1, -3.04344116449352941611e-02) (0, 1.84741302549839475633e-01) (1, 3.62750752985477875612e-01) (0, -7.23893462419506750205e-02) (1, 8.10666692256958865137e-03) (0, 3.44627170979977082155e-01) (1, 1.64599060237408140184e-01) (0, -7.90187406539885617285e-03) (1, 4.91068319678309717080e-02) (0, 2.34326279878616788865e-01) (1, 3.37430684983730744264e-01) (0, 2.12972420424223402025e-01) (1, 2.43153787374496915819e-01) (0, 6.13617406487468042275e-02) (1, -3.74578765332695684531e-02) (0, 3.41390340745449494264e-01) (1, 3.63265290081501435182e-01) (0, 2.15351115137339094163e-01) (1, 2.21885237067938306810e-01) (0, 2.40902318775654294969e-01) (1, 2.60947770595550965211e-01) (0, -7.51370905637737951377e-02) (1, 2.68726975917819299600e-02) (0, 1.05376775681972817411e-01) (1, 1.23242537796497658720e-01) (0, 2.33164466142654874803e-01) (1, 2.10769287467003324510e-01) (0, -2.49175063073631963828e-02) (1, 6.73255131840709009072e-02) (0, 2.35804929554462888719e-01) (1, 1.89134917378426054002e-01) (0, -3.37757548987862310508e-02) (1, -1.32492377161976537803e-02) (0, -2.40810519754883489707e-02) (1, -7.43567838072773656943e-02) (0, -5.85679827928539953330e-02) (1, 1.03745053827762917509e-01) (0, 9.88651470541957178018e-02) (1, 8.23470906615260400674e-02) (0, 6.35077909827235498330e-02) (1, 3.12695832252505578897e-02) (0, 3.81642889976532839746e-03) (1, -1.42366874217955685644e-03) (0, 1.68275579035282590867e-01) (1, 2.23391863673925855638e-01) (0, 3.62777262151241730592e-01) (1, 2.13129866093397596361e-01) (0, 4.93118421435359277627e-02) (1, 3.98352475166323938272e-02) (0, 2.06818859249353864671e-01) (1, 2.20194722682238080980e-01) (0, 2.28372245252132871629e-01) (1, 2.67922139883041809938e-01) (0, 1.82984284281731107713e-01) (1, 2.32593237578869321824e-01) (0, 2.10132374584675291063e-01) (1, 3.10523688018322419069e-01) (0, -5.27113570570942602256e-02) (1, -6.38960792422291479209e-02) (0, 1.94485909461975553514e-01) (1, 3.40310677111149262331e-01) (0, 2.17270921140909650804e-01) (1, 2.88050673127174805543e-01) (0, 2.83277115941048096559e-01) (1, 2.54148407995701264284e-01) (0, 4.79803414344790735147e-02) (1, 6.14671663641932763955e-02) (0, -6.53972594738003454307e-02) (1, -7.58502675890919408896e-02) (0, 2.80406273126602600954e-01) (1, 2.03791461110115507127e-01) (0, 3.38761135160923432252e-01) (1, 1.73997259855270841600e-01) (0, -5.23686527013775549033e-02) (1, 9.60127369761470117471e-02) (0, 1.81815772473812559129e-01) (1, 1.93322918534279325486e-01) (0, -4.60684715509411535361e-02) (1, -1.69224559068676672080e-02) (0, 4.01736528873446741006e-02) (1, 5.45779125094416894814e-02) (0, 1.86963251948357084276e-01) (1, 3.07040228664875458620e-01) (0, 2.40746579289436796190e-01) (1, 2.43402919888496854783e-01) (0, 4.85428528189662256143e-02) (1, 1.15653927743435219755e-01) (0, 5.14547036290171899697e-02) (1, 5.51555560231211938760e-02) (0, 2.95378654420376252077e-01) (1, 2.44787118554115751268e-01) (0, 1.12796451270580605497e-01) (1, 2.58006484508517541787e-02) (0, 8.73717175126078882119e-02) (1, 1.12314264595508889188e-01) (0, 3.61753388464451264284e-01) (1, 2.04812801599503019334e-01) (0, 6.44088194966319360635e-02) (1, -2.51206948161122045615e-02) (0, 5.23706929087641992471e-02) (1, 4.99416397213938989541e-02) (0, 2.50904516577723779580e-02) (1, -4.88791807293888769248e-02) (0, 1.83485246419907072069e-01) (1, 2.52140238106251191041e-01) (0, 3.36622043669224213502e-01) (1, 2.22419592708349683763e-01) (0, 2.21740874618292310716e-01) (1, 2.14527490705252149583e-01) (0, -6.07439993619915685752e-02) (1, -6.85137926340100011924e-02) (0, 1.84533066272736051561e-01) (1, 2.62937731266022156618e-01) (0, -2.98743440508839330771e-02) (1, -4.22042130231854162314e-02) (0, -7.03966586589810094932e-02) (1, 9.92851511836055078408e-02) (0, -5.85542811751362524131e-02) (1, -6.58701254725453100303e-02) (0, 2.16734728932381132127e-01) (1, 2.76216565787792633913e-01) (0, 1.87441229045391538621e-01) (1, 3.40437307178974579713e-01) (0, 3.45384388387203644655e-01) (1, 2.90943845331669281862e-01) (0, 6.89460293650630273721e-02) (1, 3.16904739737513818643e-02) (0, 7.75550709366801538369e-02) (1, 1.23784925162792519560e-01) (0, 3.49056407034397553346e-01) (1, 2.06728766828775861741e-01) (0, 6.60364435315135278604e-02) (1, -6.96544839739796362021e-02) (0, -2.70365669131275854209e-02) (1, 5.23412035107615747354e-02) (0, 1.94491787970066526414e-01) (1, 2.39104508578777769090e-01) (0, 5.07819962501557253809e-03) (1, 5.15378576517136477442e-03) (0, 7.56224052309993066689e-02) (1, 4.15397019386294641397e-02) (0, 1.35811970829966821572e-02) (1, 1.15066568672657326688e-01) (0, 2.19696725875139692308e-01) (1, 2.58539899408817719362e-01) (0, 2.95770316541195343873e-01) (1, 2.27216034352779844285e-01) (0, -4.49099826812712765722e-03) (1, -2.42457098066803655723e-02) (0, 1.98296970844269254686e-01) (1, 1.92924237966537931444e-01) (0, 5.32962636351588525674e-02) (1, 6.22798812389405154200e-03) (0, -7.03242911696430883506e-02) (1, 1.15520145118236855497e-01) (0, 3.10629916191132449121e-03) (1, 6.35306940674784936807e-02) (0, 2.56265922605991791627e-01) (1, 2.76998340308666657350e-01) (0, 8.67068127989772119424e-02) (1, -6.27048282623287878135e-02) (0, 2.15888093382120588304e-01) (1, 2.46862954616547086717e-01) (0, 2.41299606084824064256e-01) (1, 3.38236971914768647096e-01) (0, -7.55095599889752111533e-02) (1, -3.33054556250569067100e-02) (0, 9.10910026431086816689e-02) (1, 2.24302740097049035928e-02) (0, 4.14211483001712121865e-02) (1, 2.11597637534144678018e-02) (0, 8.80366669297221460244e-02) (1, 8.79829482436183252236e-02) (0, -1.47449194192883215049e-02) (1, 3.80043790936473169229e-02) (0, 2.35479003906250455858e-01) (1, 3.11202376306057404420e-01) (0, -4.61366071105000219443e-02) (1, 3.78918976783755578897e-02) (0, 3.44861417233944367311e-01) (1, 3.01413073360920380495e-01) (0, 2.50596733093264856240e-02) (1, 3.37931097745898523232e-02) (0, 1.67662904858592309854e-02) (1, 4.69799370765689172647e-02) (0, 4.77118225097659387490e-02) (1, -5.16337125301357946494e-02) (0, 4.81490672826770105264e-02) (1, 9.71689329743388452432e-02) (0, -2.58478230535980901816e-02) (1, 3.14825580716136255166e-02) (0, -1.67043699622151098350e-02) (1, 1.05514387905598000517e-01) (0, 2.76282153248787354372e-01) (1, 2.89838566601276825807e-01) (0, 3.32354216992855500123e-01) (1, 2.93131738126278351686e-01) (0, 2.80846162855625580690e-01) (1, 1.97152755379677274705e-01) (0, 3.62007259547710846803e-01) (1, 2.71652280509472321413e-01) (0, 3.54358957409861841104e-02) (1, 2.70340399146083154580e-02) (0, 1.70337067246440210244e-02) (1, -5.85349841713902196982e-02) (0, 2.98382624208927582643e-01) (1, 3.32527726113796662233e-01) (0, 2.09199360728264310838e-01) (1, 2.29326925396919706346e-01) (0, 7.32970641255381860635e-02) (1, -4.03587116599079809287e-02) (0, -5.29707043170925817588e-02) (1, -2.27423502802845678428e-02) (0, 2.52214030623439111611e-02) (1, -4.80117915868756017783e-02) (0, 1.21656979739666298856e-01) (1, -5.51157339215275487998e-02) (0, 1.65790475130081632615e-01) (1, 2.56233296513557862184e-01) (0, 3.28654735505581330202e-01) (1, 3.15733476698399018190e-01) (0, 1.08243028938770607938e-01) (1, 9.65050564408305444619e-02) (0, 2.56247795343399475954e-01) (1, 1.72452396869659879686e-01) (0, 2.23064365953207471849e-01) (1, 2.58513673365116547487e-01) (0, 1.50345669388774194619e-02) (1, -5.80930380821224889853e-02) (0, 8.62738595604899682900e-02) (1, 6.04951338171962060830e-02) (0, 2.37535900592804410936e-01) (1, 2.81513518810272644899e-01) (0, 2.13369853019714811326e-01) (1, 3.22789340436459015748e-01) (0, 9.60181460976603784463e-02) (1, 3.28395695686343469522e-02) (0, 2.30414136469364622117e-01) (1, 1.86070799052715757371e-01) (0, 3.07571887195110749147e-01) (1, 1.76251671433449247361e-01) (0, 2.77498602092266510866e-01) (1, 3.34667666971683930299e-01) (0, 1.75243287503719785692e-01) (1, 3.29665019333363007448e-01) (0, 2.95659869134426545045e-01) (1, 1.71104907214642026902e-01) (0, -6.41723765730854711631e-02) (1, 1.10816131651401833524e-01) (0, 1.82629852712154844285e-01) (1, 2.75578878045082520387e-01) (0, 2.69915684282780121706e-01) (1, 2.88593038141727875612e-01) (0, 1.98785565018654325486e-01) (1, 2.04756270319223859788e-01) (0, 3.54273527085781525514e-01) (1, 2.90630727231502961061e-01) (0, 6.16662514209778689356e-03) (1, 9.83558998703959741494e-02) (0, 3.63487600505352448366e-01) (1, 3.51774065911770295045e-01) (0, 2.82396494567394684694e-01) (1, 2.53555930376053284547e-01) (0, 9.02199403643611230752e-02) (1, -1.75948521792885503867e-02) (0, -6.07701508998867712119e-02) (1, 9.20089737772944726846e-02) (0, 5.05003438591960229775e-02) (1, 1.50383741855624475381e-02) (0, 2.45807713985443571092e-01) (1, 3.06006505310535859010e-01) (0, 2.68297822475436487100e-02) (1, -1.58669843077656469443e-02) (0, -2.05464741885658941367e-02) (1, -6.86656280159947118857e-02) (0, -7.32820916175810910254e-03) (1, 9.06584368348124780557e-02) (2, 1.92133954882622220994e-01) (3, 2.10970915079117277147e-01) (4, 2.03833087503910520555e-01) (5, 2.38366543471813657762e-01) (6, 2.42109603404999235154e-01) (7, 3.51866631925106476686e-01) (8, 2.38225481629372098924e-01) (9, 2.71381831884384583375e-01) (10, 3.30156131803989838502e-01) (11, 3.49810644209385346315e-01) (12, 2.83210194826126526735e-01) (13, 3.29328536212444733522e-01) (14, 2.40300393819809415819e-01) (15, 3.44471736967564057252e-01) (16, 3.52072476565838288209e-01) (17, 2.97807841718197296998e-01) (18, 2.72020659565926026247e-01) (19, 2.66868806600571106813e-01) (20, 2.79696329653263520143e-01) (21, 2.71816893637180756471e-01) (22, 2.42179534554481962205e-01) (23, 3.27132164657116364381e-01) (24, 3.25872688710689972780e-01) (25, 3.58042030751705597780e-01) (26, 2.27976738631725767137e-01) (27, 2.20658014684915998460e-01) (28, 2.14927192002535322191e-01) (29, 2.97029464662075470827e-01) (30, 1.89784250378609159471e-01) (31, 3.19565563619137238405e-01) (32, 3.54054375708103608034e-01) (33, 2.07679088383913496019e-01) (34, 2.78131528913975190065e-01) (35, 1.72384596586227872850e-01) (36, 2.83646746695042084596e-01) (37, 2.66551277756691407106e-01) (38, 3.42992170870304535768e-01) (39, 2.85150646388531159303e-01) (40, 3.42480748116970490358e-01) (41, 2.89435192167759369752e-01) (42, 3.52995081961155365846e-01) (43, 2.03978809684515455247e-01) (44, 2.87533319711685608766e-01) (45, 1.88147998571396329881e-01) (46, 2.19062640488148191453e-01) (47, 2.01479322433472135545e-01) (48, 2.78569675207138489625e-01) (49, 3.36215435683727692506e-01) (50, 1.88510648131371000291e-01) (51, 3.14204587757587860963e-01) (52, 2.52118951797485779664e-01) (53, 1.78831747889519193651e-01) (54, 2.40896835148334959031e-01) (55, 1.68831407248974302293e-01) (56, 1.65096483349800565721e-01) (57, 1.92230477154255369188e-01) (58, 2.33324042677879789354e-01) (59, 2.92858212411404084108e-01) (60, 2.83541380584240387819e-01) (61, 2.95636444509029816530e-01) (62, 1.77364966988563993455e-01) (63, 1.88628829240799406053e-01) (64, 3.00419717252254914186e-01) (65, 1.69682859599590757371e-01) (66, 2.75525017797947358034e-01) (67, 1.64627029716968992235e-01) (68, 3.02178054273128937623e-01) (69, 3.22198762714863251588e-01) (70, 2.10156469762325742723e-01) (71, 3.15494476974010895631e-01) (72, 3.31213443696499298952e-01) (73, 3.20137723505497406862e-01) (74, 1.70372209668159940721e-01) (75, 2.61350228607654999635e-01) (76, 3.28991963684559296510e-01) (77, 1.83489917933941343309e-01) (78, 3.30732642829418610475e-01) (79, 2.39090583443642118455e-01) (80, 2.11065075516701200486e-01) (81, 1.86365648329258420945e-01) (82, 2.63125582754612397096e-01) (83, 1.67405120253563383104e-01) (84, 1.93522243916988828660e-01) (85, 3.44019859254360627077e-01) (86, 3.57445149838924836061e-01) (87, 1.96186705648899534227e-01) (88, 3.25657948076725434206e-01) (89, 3.48811655461788605592e-01) (90, 2.93290822923183869264e-01) (91, 3.54579656541347931764e-01) (92, 2.35869004547596433641e-01) (93, 2.66076191484928559206e-01) (94, 3.58331470906734894655e-01) (95, 2.92627169907093476198e-01) (96, 2.00402177095413663865e-01) (97, 1.75133540451527097703e-01) (98, 2.85099349141121338747e-01) (99, 2.80523560166359375856e-01) (100, 1.75138048052788236619e-01) (101, 3.60835134208202790163e-01) (102, 1.71699418842792966844e-01) (103, 1.67840927064419248582e-01) (104, 3.18161755025387238405e-01) (105, 3.60255866467953156373e-01) (106, 2.35887027502060392381e-01) (107, 1.68912856996059873582e-01) (108, 3.34121002972126435182e-01) (109, 1.87206304788589933397e-01) (110, 1.92066884756088712694e-01) (111, 2.83724866032600830934e-01) (112, 1.79438806295395353319e-01) (113, 2.43721208691597440721e-01) (114, 2.38038434803486326219e-01) (115, 3.27681138336658905885e-01) (116, 3.52492123067379425905e-01) (117, 3.50628151714802216432e-01) (118, 2.23029098629951932908e-01) (119, 2.65744469285011719606e-01) (120, 1.82960621237755277635e-01) (121, 2.34803929150104978563e-01) (122, 1.65281980454922178270e-01) (123, 3.09933542430401276491e-01) (124, 2.68763407289982270143e-01) (125, 3.22281434357166718385e-01) (126, 1.99714250087738492967e-01) (127, 2.13011271476746061326e-01) (128, 2.96079605042934845827e-01) (129, 2.25490494787693479539e-01) (130, 2.34393715083599546434e-01) (131, 2.70756243884563874147e-01) (132, 2.15920529484749296190e-01) (133, 1.92013397037983396531e-01) (134, 1.84855393290520170213e-01) (135, 2.80317663371563385866e-01) (136, 3.14619659602642487428e-01) (137, 2.28276848018169858934e-01) (138, 2.64590210437775086305e-01) (139, 1.83399475336075284959e-01) (140, 2.10593457490206220628e-01) (141, 2.59886167168617676637e-01) (142, 3.22519167482853363893e-01) (143, 1.95291764259338834764e-01) (144, 2.84301317453384827516e-01) (145, 2.67767056047916840456e-01) (146, 1.76581054151058652879e-01) (147, 2.13468375772238233568e-01) (148, 1.78650281548500516893e-01) (149, 1.90929434418678739549e-01) (150, 1.66640862047672727586e-01) (151, 3.48615794599056671998e-01) (152, 2.01219386577606657029e-01) (153, 3.09835582196712921998e-01) (154, 2.22109402686357954027e-01) (155, 2.08424131542444684984e-01) (156, 2.00013986945152738572e-01) (157, 2.50824815750122498414e-01) (158, 2.28309101581573942186e-01) (159, 2.06813599139452436448e-01) (160, 3.31822483956814240358e-01) (161, 3.56283634126186798952e-01) (162, 2.74866043746471833131e-01) (163, 2.89154662907123993776e-01) (164, 2.38055265665054777147e-01) (165, 2.10584036231041410447e-01) (166, 3.01535247981548737428e-01) (167, 3.18451672017574738405e-01) (168, 2.32807791948318937303e-01) (169, 2.16182104468346097947e-01) (170, 1.88252492964268186570e-01) (171, 1.75364076316357114793e-01) (172, 3.59748511731625031373e-01) (173, 3.08833881437778901002e-01) (174, 1.86750142991543272020e-01) (175, 3.25277297914028595827e-01) (176, 3.51081936776638459108e-01) (177, 2.49763331532478788377e-01) (178, 1.87987676978111722947e-01) (179, 3.24597104609013031862e-01) (180, 3.19162278592586945436e-01) (181, 1.76002240896225431444e-01) (182, 2.85336776793003510377e-01) (183, 2.70907498121262024782e-01) (184, 3.57951878726482819459e-01) (185, 3.12830775201321076295e-01) (186, 3.62562447011471222780e-01) (187, 2.02576845109463193895e-01) (188, 3.24739738523960541627e-01) (189, 3.16457434713840912721e-01) (190, 3.15888374269009064577e-01) (191, 3.51578339159489106081e-01) (192, 1.92816964507103422166e-01) (193, 2.90443598449230622194e-01) (194, 3.01194935262203644655e-01) (195, 1.98955095529556730272e-01) (196, 2.54000782191753815553e-01) (197, 2.06811550229788282396e-01) (198, 2.97413080155849884889e-01) (199, 2.37244292318821409227e-01) (200, 1.80506474494934537889e-01) (201, 1.87984644591808774949e-01) (202, 2.73619271039963196657e-01) 
