FANN_FLO_2.1
num_layers=3
learning_rate=0.700000
connection_rate=1.000000
network_type=0
learning_momentum=0.000000
training_algorithm=2
train_error_function=1
train_stop_function=0
cascade_output_change_fraction=0.010000
quickprop_decay=-0.000100
quickprop_mu=1.750000
rprop_increase_factor=1.200000
rprop_decrease_factor=0.500000
rprop_delta_min=0.000000
rprop_delta_max=50.000000
rprop_delta_zero=0.100000
cascade_output_stagnation_epochs=12
cascade_candidate_change_fraction=0.010000
cascade_candidate_stagnation_epochs=12
cascade_max_out_epochs=150
cascade_min_out_epochs=50
cascade_max_cand_epochs=150
cascade_min_cand_epochs=50
cascade_num_candidate_groups=2
bit_fail_limit=3.49999999999999977796e-01
cascade_candidate_limit=1.00000000000000000000e+03
cascade_weight_multiplier=4.00000000000000022204e-01
cascade_activation_functions_count=10
cascade_activation_functions=3 5 7 8 10 11 14 15 16 17 
cascade_activation_steepnesses_count=4
cascade_activation_steepnesses=2.50000000000000000000e-01 5.00000000000000000000e-01 7.50000000000000000000e-01 1.00000000000000000000e+00 
layer_sizes=2 201 2 
scale_included=0
neurons (num_inputs, activation_function, activation_steepness)=(0, 0, 0.00000000000000000000e+00) (0, 0, 0.00000000000000000000e+00) (2, 4, 5.00000000000000000000e-01) (2, 4, 5.00000000000000000000e-01) (2, 4, 5.00000000000000000000e-01) (2, 4, 5.00000000000000000000e-01) (2, 4, 5.00000000000000000000e-01) (2, 4, 5.00000000000000000000e-01) (2, 4, 5.00000000000000000000e-01) (2, 4, 5.00000000000000000000e-01) (2, 4, 5.00000000000000000000e-01) (2, 4, 5.00000000000000000000e-01) (2, 4, 5.00000000000000000000e-01) (2, 4, 5.00000000000000000000e-01) (2, 4, 5.00000000000000000000e-01) (2, 4, 5.00000000000000000000e-01) (2, 4, 5.00000000000000000000e-01) (2, 4, 5.00000000000000000000e-01) (2, 4, 5.00000000000000000000e-01) (2, 4, 5.00000000000000000000e-01) (2, 4, 5.00000000000000000000e-01) (2, 4, 5.00000000000000000000e-01) (2, 4, 5.00000000000000000000e-01) (2, 4, 5.00000000000000000000e-01) (2, 4, 5.00000000000000000000e-01) (2, 4, 5.00000000000000000000e-01) (2, 4, 5.00000000000000000000e-01) (2, 4, 5.00000000000000000000e-01) (2, 4, 5.00000000000000000000e-01) (2, 4, 5.00000000000000000000e-01) (2, 4, 5.00000000000000000000e-01) (2, 4, 5.00000000000000000000e-01) (2, 4, 5.00000000000000000000e-01) (2, 4, 5.00000000000000000000e-01) (2, 4, 5.00000000000000000000e-01) (2, 4, 5.00000000000000000000e-01) (2, 4, 5.00000000000000000000e-01) (2, 4, 5.00000000000000000000e-01) (2, 4, 5.00000000000000000000e-01) (2, 4, 5.00000000000000000000e-01) (2, 4, 5.00000000000000000000e-01) (2, 4, 5.00000000000000000000e-01) (2, 4, 5.00000000000000000000e-01) (2, 4, 5.00000000000000000000e-01) (2, 4, 5.00000000000000000000e-01) (2, 4, 5.00000000000000000000e-01) (2, 4, 5.00000000000000000000e-01) (2, 4, 5.00000000000000000000e-01) (2, 4, 5.00000000000000000000e-01) (2, 4, 5.00000000000000000000e-01) (2, 4, 5.00000000000000000000e-01) (2, 4, 5.00000000000000000000e-01) (2, 4, 5.00000000000000000000e-01) (2, 4, 5.00000000000000000000e-01) (2, 4, 5.00000000000000000000e-01) (2, 4, 5.00000000000000000000e-01) (2, 4, 5.00000000000000000000e-01) (2, 4, 5.00000000000000000000e-01) (2, 4, 5.00000000000000000000e-01) (2, 4, 5.00000000000000000000e-01) (2, 4, 5.00000000000000000000e-01) (2, 4, 5.00000000000000000000e-01) (2, 4, 5.00000000000000000000e-01) (2, 4, 5.00000000000000000000e-01) (2, 4, 5.00000000000000000000e-01) (2, 4, 5.00000000000000000000e-01) (2, 4, 5.00000000000000000000e-01) (2, 4, 5.00000000000000000000e-01) (2, 4, 5.00000000000000000000e-01) (2, 4, 5.00000000000000000000e-01) (2, 4, 5.00000000000000000000e-01) (2, 4, 5.00000000000000000000e-01) (2, 4, 5.00000000000000000000e-01) (2, 4, 5.00000000000000000000e-01) (2, 4, 5.00000000000000000000e-01) (2, 4, 5.00000000000000000000e-01) (2, 4, 5.00000000000000000000e-01) (2, 4, 5.00000000000000000000e-01) (2, 4, 5.00000000000000000000e-01) (2, 4, 5.00000000000000000000e-01) (2, 4, 5.00000000000000000000e-01) (2, 4, 5.00000000000000000000e-01) (2, 4, 5.00000000000000000000e-01) (2, 4, 5.00000000000000000000e-01) (2, 4, 5.00000000000000000000e-01) (2, 4, 5.00000000000000000000e-01) (2, 4, 5.00000000000000000000e-01) (2, 4, 5.00000000000000000000e-01) (2, 4, 5.00000000000000000000e-01) (2, 4, 5.00000000000000000000e-01) (2, 4, 5.00000000000000000000e-01) (2, 4, 5.00000000000000000000e-01) (2, 4, 5.00000000000000000000e-01) (2, 4, 5.00000000000000000000e-01) (2, 4, 5.00000000000000000000e-01) (2, 4, 5.00000000000000000000e-01) (2, 4, 5.00000000000000000000e-01) (2, 4, 5.00000000000000000000e-01) (2, 4, 5.00000000000000000000e-01) (2, 4, 5.00000000000000000000e-01) (2, 4, 5.00000000000000000000e-01) (2, 4, 5.00000000000000000000e-01) (2, 4, 5.00000000000000000000e-01) (2, 4, 5.00000000000000000000e-01) (2, 4, 5.00000000000000000000e-01) (2, 4, 5.00000000000000000000e-01) (2, 4, 5.00000000000000000000e-01) (2, 4, 5.00000000000000000000e-01) (2, 4, 5.00000000000000000000e-01) (2, 4, 5.00000000000000000000e-01) (2, 4, 5.00000000000000000000e-01) (2, 4, 5.00000000000000000000e-01) (2, 4, 5.00000000000000000000e-01) (2, 4, 5.00000000000000000000e-01) (2, 4, 5.00000000000000000000e-01) (2, 4, 5.00000000000000000000e-01) (2, 4, 5.00000000000000000000e-01) (2, 4, 5.00000000000000000000e-01) (2, 4, 5.00000000000000000000e-01) (2, 4, 5.00000000000000000000e-01) (2, 4, 5.00000000000000000000e-01) (2, 4, 5.00000000000000000000e-01) (2, 4, 5.00000000000000000000e-01) (2, 4, 5.00000000000000000000e-01) (2, 4, 5.00000000000000000000e-01) (2, 4, 5.00000000000000000000e-01) (2, 4, 5.00000000000000000000e-01) (2, 4, 5.00000000000000000000e-01) (2, 4, 5.00000000000000000000e-01) (2, 4, 5.00000000000000000000e-01) (2, 4, 5.00000000000000000000e-01) (2, 4, 5.00000000000000000000e-01) (2, 4, 5.00000000000000000000e-01) (2, 4, 5.00000000000000000000e-01) (2, 4, 5.00000000000000000000e-01) (2, 4, 5.00000000000000000000e-01) (2, 4, 5.00000000000000000000e-01) (2, 4, 5.00000000000000000000e-01) (2, 4, 5.00000000000000000000e-01) (2, 4, 5.00000000000000000000e-01) (2, 4, 5.00000000000000000000e-01) (2, 4, 5.00000000000000000000e-01) (2, 4, 5.00000000000000000000e-01) (2, 4, 5.00000000000000000000e-01) (2, 4, 5.00000000000000000000e-01) (2, 4, 5.00000000000000000000e-01) (2, 4, 5.00000000000000000000e-01) (2, 4, 5.00000000000000000000e-01) (2, 4, 5.00000000000000000000e-01) (2, 4, 5.00000000000000000000e-01) (2, 4, 5.00000000000000000000e-01) (2, 4, 5.00000000000000000000e-01) (2, 4, 5.00000000000000000000e-01) (2, 4, 5.00000000000000000000e-01) (2, 4, 5.00000000000000000000e-01) (2, 4, 5.00000000000000000000e-01) (2, 4, 5.00000000000000000000e-01) (2, 4, 5.00000000000000000000e-01) (2, 4, 5.00000000000000000000e-01) (2, 4, 5.00000000000000000000e-01) (2, 4, 5.00000000000000000000e-01) (2, 4, 5.00000000000000000000e-01) (2, 4, 5.00000000000000000000e-01) (2, 4, 5.00000000000000000000e-01) (2, 4, 5.00000000000000000000e-01) (2, 4, 5.00000000000000000000e-01) (2, 4, 5.00000000000000000000e-01) (2, 4, 5.00000000000000000000e-01) (2, 4, 5.00000000000000000000e-01) (2, 4, 5.00000000000000000000e-01) (2, 4, 5.00000000000000000000e-01) (2, 4, 5.00000000000000000000e-01) (2, 4, 5.00000000000000000000e-01) (2, 4, 5.00000000000000000000e-01) (2, 4, 5.00000000000000000000e-01) (2, 4, 5.00000000000000000000e-01) (2, 4, 5.00000000000000000000e-01) (2, 4, 5.00000000000000000000e-01) (2, 4, 5.00000000000000000000e-01) (2, 4, 5.00000000000000000000e-01) (2, 4, 5.00000000000000000000e-01) (2, 4, 5.00000000000000000000e-01) (2, 4, 5.00000000000000000000e-01) (2, 4, 5.00000000000000000000e-01) (2, 4, 5.00000000000000000000e-01) (2, 4, 5.00000000000000000000e-01) (2, 4, 5.00000000000000000000e-01) (2, 4, 5.00000000000000000000e-01) (2, 4, 5.00000000000000000000e-01) (2, 4, 5.00000000000000000000e-01) (2, 4, 5.00000000000000000000e-01) (2, 4, 5.00000000000000000000e-01) (2, 4, 5.00000000000000000000e-01) (2, 4, 5.00000000000000000000e-01) (2, 4, 5.00000000000000000000e-01) (2, 4, 5.00000000000000000000e-01) (2, 4, 5.00000000000000000000e-01) (2, 4, 5.00000000000000000000e-01) (2, 4, 5.00000000000000000000e-01) (2, 4, 5.00000000000000000000e-01) (2, 4, 5.00000000000000000000e-01) (2, 4, 5.00000000000000000000e-01) (0, 0, 0.00000000000000000000e+00) (201, 4, 5.00000000000000000000e-01) (0, 0, 0.00000000000000000000e+00) 
connections (connected_to_neuron, weight)=(0, -7.47569403430498824470e-01) (1, -3.38814312722302349301e-03) (0, 6.52701540458060947003e-01) (1, -2.62477329894937438937e-01) (0, 1.25169019674523673835e+00) (1, -1.03904826229624225320e+00) (0, 1.85819401282400398223e+00) (1, -6.78207939068698473228e-01) (0, -1.20481909924260355282e+00) (1, -3.04266982388396833858e-01) (0, 1.41756451684392903445e+00) (1, -7.15085961049094498421e-01) (0, -5.25476770628506415051e+02) (1, -9.88441514982319979765e+00) (0, 3.15595716691879850657e+01) (1, -7.61442734279363886429e+00) (0, -7.05451264587426019048e-01) (1, -3.41249957994029662345e+00) (0, -7.10092875833400638541e-01) (1, -4.30630020204952779217e-01) (0, 8.35072545427033574583e+00) (1, -3.01750170077348478515e+00) (0, -1.21809232941326484045e+00) (1, -2.87817025655115132921e-01) (0, 1.28660474400087077029e+00) (1, -8.31752139849273541827e-01) (0, 1.40938298083623325674e+00) (1, -4.76964551167090022865e-01) (0, -1.22063899259497432581e+00) (1, -2.73484249314726202140e-01) (0, -1.07734085548236779850e+00) (1, -3.29783980588783554033e-01) (0, 1.94216713442321053940e+00) (1, -7.24821793747545406461e-01) (0, -1.23910271698451768252e+00) (1, -2.58831849550040238306e-01) (0, 1.39984223148416941918e+00) (1, -7.01072581411567030685e-01) (0, 5.71248788828922542393e+01) (1, -3.84352826131157065959e+00) (0, -1.96847971359467610597e+00) (1, -2.79727707422143856419e+00) (0, -1.21361528419278785762e+00) (1, -2.92218396232994670481e-01) (0, 1.76140038811525601048e+00) (1, -6.30510657647687766669e-01) (0, 1.25568528298009018940e+00) (1, 2.16749147752489074170e-01) (0, 1.11716667840106809173e+00) (1, 2.01026442449527359413e-01) (0, 1.55270430973473927416e+00) (1, 1.15856078366070397445e-01) (0, 6.17268532445171436152e-01) (1, -4.16377538639605304649e-01) (0, 7.56996825731703353313e+01) (1, -8.98066214949044727689e+00) (0, 9.19307051172652101023e-01) (1, -8.87080264463187551094e-01) (0, 5.14942458933431490564e-01) (1, -1.04508118886557244132e+00) (0, 1.75681896325068942488e+00) (1, -6.80388267364169241347e-01) (0, 5.62999276349847832535e+01) (1, -1.09884032645370020020e+01) (0, 7.97872986793996430421e-01) (1, -6.00722907879371215145e-01) (0, 1.36498060141103549903e+00) (1, -8.08586410095636920481e-01) (0, 1.23138412822986276218e+00) (1, 2.21575960963490720124e-01) (0, -1.05191011321542648993e+00) (1, -3.66093957151760018842e-01) (0, -6.66063462903506753321e+00) (1, -1.66960562303134674167e+00) (0, 8.89812382659632139514e-01) (1, -4.63753264082549065961e+00) (0, -5.66768161843615736473e+00) (1, -4.55546857511628733306e+00) (0, 7.91017946437319929842e-01) (1, -1.10777782882150144239e+00) (0, -1.28708464982428560930e+00) (1, -2.11880721811759764606e-01) (0, 9.70364886697156925344e-01) (1, -2.05825413359729703089e+00) (0, 3.01360887251750426685e+01) (1, -7.08743861041669198642e+00) (0, -1.26539112637534034711e+00) (1, -2.28635140423202959381e-01) (0, -1.26294066830202700302e+00) (1, -2.47931198024405302638e-01) (0, -1.21026634015143508272e+00) (1, -2.77487518609274119719e-01) (0, 1.16053006666812863479e+00) (1, 2.34895134753823175977e-01) (0, -5.02502580037219703790e-01) (1, -3.50713490617131684601e+00) (0, 1.22669304369044862568e+00) (1, 2.18678288614991528371e-01) (0, -1.29918153635635391652e+00) (1, -2.03233993470848278706e-01) (0, -1.26534701206210731250e+00) (1, -2.61966605566347210399e-01) (0, -2.60991958580430434722e+02) (1, -6.52863833965006268301e+00) (0, 1.54071378815802995099e+00) (1, 8.98308805611948008041e-02) (0, 2.86278012356302369312e+01) (1, -6.46067094770776328971e+00) (0, -1.10995536991066878763e+00) (1, -3.33308549229016037874e-01) (0, 1.28972715814719629535e+00) (1, 1.31965427125396106423e-01) (0, 6.20200993587880304858e+01) (1, -7.81634605405522187027e+00) (0, 1.29910399614587701578e+00) (1, 2.69671932356758403682e-01) (0, 1.43482468732916679244e+00) (1, -7.44446977557287503657e-01) (0, -1.21949833811517160953e+00) (1, -2.64040717048951711909e-01) (0, 1.01985928786248591926e+00) (1, -4.64919077886956344514e+00) (0, -6.21099959052599981391e+00) (1, -4.45078063966356740622e+00) (0, -1.28859565641984175066e+00) (1, -2.20354554229195059856e-01) (0, -7.63489260157622195990e-01) (1, 3.05883510345881376447e-02) (0, 3.16289003273802116212e+01) (1, -7.55825470851876346501e+00) (0, 1.25025414819160030078e+00) (1, -8.86208161980328479324e-01) (0, 1.21044547308011285480e+00) (1, 1.75015287882932774055e-01) (0, 1.12578129594124431989e+00) (1, -2.88414193320007683496e+00) (0, -1.11113294958827890646e+00) (1, -3.24741839330066950353e-01) (0, 4.10005201453562784231e-01) (1, -9.02465029797308249115e-01) (0, 1.14129842871646314251e+00) (1, -3.19084200610800783338e-01) (0, 1.55476609648127883645e+00) (1, 9.89087604976021245173e-02) (0, 1.30293386206815275941e+00) (1, 1.80076139750360186831e-01) (0, 3.19637245296246319537e-01) (1, -1.12591636196841671236e+00) (0, -2.01974676678920879169e+01) (1, 2.84254460260245211956e+00) (0, -1.27462274644172413041e+00) (1, -1.82915377722729532994e-01) (0, 1.42738780548065169462e+00) (1, -7.50547107642304811570e-01) (0, -2.61024975299354480285e+02) (1, -6.64048172445240503237e+00) (0, 1.57159072125130294673e+00) (1, -1.10179641953437545965e+00) (0, 1.30035105975599241113e+00) (1, 1.44518582722345856340e-01) (0, -1.26935236219889335807e+00) (1, -2.43175149702682114050e-01) (0, -1.28137620375237393233e+00) (1, -2.17804676711732342342e-01) (0, 1.27477063772102949812e+00) (1, 1.99295983890264677418e-01) (0, 1.18581042339405806629e+00) (1, 2.67591782354125451437e-01) (0, 1.13007513962619965397e+00) (1, 2.10339434721113299753e-01) (0, 7.22863636817303367721e-01) (1, -2.86741555579820783795e-01) (0, -8.33077127298656572307e-01) (1, -4.00560669625118714876e-01) (0, 1.69425085711952294609e+00) (1, -4.11335665635902092419e+00) (0, 1.25479288424554935588e+00) (1, 2.44024980775180311277e-01) (0, -7.73996811881252799736e-01) (1, -3.35453361308019015752e+00) (0, 2.87101287880379132389e+01) (1, -6.49511424472100795668e+00) (0, 1.04660586218196649533e+00) (1, -9.94523258602697302067e-01) (0, 1.42435857373384844315e+00) (1, -7.66968020829030261432e-01) (0, -6.92051841170831738559e-01) (1, -4.24895719942947544534e-02) (0, 1.30089565512147853354e+00) (1, 2.45301805315795790063e-01) (0, 1.33743063946044893342e+00) (1, 1.62425334336640497801e-01) (0, 1.31882204153820281611e+00) (1, 1.45542846267928127624e-01) (0, 1.50085560592855271622e+00) (1, -5.67066890524050237765e-01) (0, 1.44831591713086615947e+00) (1, 8.66230050124243561305e-02) (0, -1.31867208465628515945e+00) (1, -1.99823009203899865094e-01) (0, 1.13299639729808010458e+00) (1, 2.55924705083520664939e-01) (0, 1.11990966637633149183e+00) (1, 2.66713607723864987165e-01) (0, -1.17827540740296221600e+00) (1, -3.14367278176445053006e-01) (0, 1.29307672198530143604e+00) (1, 2.20131132713617116980e-01) (0, -7.43117830535448997686e-01) (1, 1.31279079551092983658e-02) (0, -1.22443132462334092203e+00) (1, -2.82964102714384102555e-01) (0, -1.27008276674590048216e+00) (1, -2.06822014272392107337e-01) (0, -7.69266682066786389171e-01) (1, 6.88995181974681736303e-02) (0, 1.10342466018316986975e+00) (1, -2.87512730551203166129e+00) (0, 6.49604582143164743790e-01) (1, -2.72720760628620106925e-01) (0, -5.25377888452524416607e+02) (1, -9.97170455022193102934e+00) (0, -7.44760560708620067416e-01) (1, 3.89720721477931353327e-02) (0, -1.09256895469527259834e+00) (1, -3.40355808324112885099e-01) (0, -7.82904018078138586034e-01) (1, 1.05449697321346541612e-01) (0, -5.14848270421568354749e+00) (1, -4.19755375012432896398e+00) (0, 1.24918786366592016179e+00) (1, 1.86948670395546523437e-01) (0, 1.29858756036936351386e+00) (1, 1.66063970276054906350e-01) (0, -1.23160949631562033346e+00) (1, -2.07561676318087390269e-01) (0, -8.46017423520125433356e-01) (1, 9.72109280962641514323e-02) (0, -1.23363023735094423650e+00) (1, -2.32058677123283318977e-01) (0, -7.89692457762576349722e-01) (1, -2.02154148149693811687e-02) (0, -6.32938605156656453055e-01) (1, -5.32719856977324282554e-02) (0, 1.75371507638917467631e+00) (1, -7.06425219932528380973e-01) (0, -1.20798786047494632889e+00) (1, -2.50001032998746874902e-01) (0, -8.15651226291693953740e-01) (1, 6.31855410828288388547e-02) (0, -1.21529363158738834549e+00) (1, -2.38179152062126087142e-01) (0, 1.23434776516490640752e+00) (1, 1.59089161568295917037e-01) (0, 1.24384149345775196771e+00) (1, 1.87584376283817688691e-01) (0, -2.61027069352086471099e+02) (1, -6.63530427874269967958e+00) (0, 1.21164724427981629340e+00) (1, 1.73237080163607087835e-01) (0, -1.24534784363119799266e+00) (1, -2.50521523309034932492e-01) (0, 1.54882552222949421150e+00) (1, 1.08393789181739613747e-01) (0, 1.31673700990410669220e+00) (1, 1.42823153382052620008e-01) (0, 1.27489569638495403581e+00) (1, 1.98921484356591460330e-01) (0, -2.60959943502660678405e+02) (1, -6.65107575715723520204e+00) (0, -9.69290949827338543798e-01) (1, -4.18591213851802201873e+00) (0, -7.34827385804433408367e-01) (1, 6.30632399973186097419e-02) (0, -1.06462387593388618789e+00) (1, -3.55977498109784185054e-01) (0, -1.26676034028280004584e+00) (1, -1.99545523941696834047e-01) (0, -6.94295451359570581218e+00) (1, -1.57282229443523413615e+00) (0, -1.23880636430788393376e+00) (1, -2.27229180978044287276e-01) (0, -1.09820080612532722242e+00) (1, -3.49663189759644221777e-01) (0, 1.44315491233712700492e+00) (1, 8.86748800076555682148e-02) (0, 1.78830738151024104532e+00) (1, -7.29048910611887701627e-01) (0, 1.20247890917906663510e+00) (1, 2.55194105647809144077e-01) (0, 1.73203213981252135412e+00) (1, -6.63604811138061800868e-01) (0, 8.36674000597352751640e+00) (1, -6.37637073642092833126e+00) (0, -7.99285080145924586859e-01) (1, -4.12876732927635603509e-01) (0, -1.20569768099364416081e+00) (1, -3.32187960721153696664e-01) (0, 7.65721638276895211206e-01) (1, -2.91740870638528992931e-01) (0, -7.51535692772645647075e-01) (1, 4.75345103377743175010e-02) (0, -1.25805002883439387418e+00) (1, -2.43437740243240219318e-01) (0, -1.24822195169374783319e+00) (1, -3.15065401127666899761e-01) (0, 1.80160147108892743084e+00) (1, -6.90554461914111072929e-01) (0, -1.11790274358149535061e+01) (1, -6.14719095810748794584e-01) (0, 1.37504239112657211663e+00) (1, -4.74830601599465329521e-01) (0, 1.36189135008322770304e+00) (1, -7.11001509010096510721e-01) (0, 1.71679069989284727171e+00) (1, -6.26655214725596265701e-01) (0, 8.30319724298318995181e+00) (1, -3.00025003905466647325e+00) (0, -4.61846003192350522681e+01) (1, -1.00384363758327079807e+01) (0, -3.32180750029121307776e+00) (1, -2.63632117495640594385e+00) (0, 9.10187670630222878110e-01) (1, -4.63958282038014324655e+00) (0, -7.52471617242373214118e-01) (1, 5.08550276849472140950e-03) (0, 1.52339284494272608761e+00) (1, 1.18175860032873850103e-01) (0, -5.13732863984417775782e+00) (1, -1.71608202605195869772e+00) (0, -4.58615828243519185747e+00) (1, -2.54528471284237856054e+00) (0, -8.20695645610131641057e-01) (1, 8.10169040617259861303e-02) (0, -8.30010289463092520990e-01) (1, 2.01664722876370994253e-02) (0, 7.88240787828157207784e-01) (1, -2.54396288266336811912e-01) (0, 7.01410984219401512085e-01) (1, -2.81472929671445826205e-01) (0, 7.89126018688127750522e+00) (1, -2.77394394448353587279e+00) (0, 3.15404169545696362320e+01) (1, -7.60761077863404011623e+00) (0, -7.65142856916464664252e-01) (1, 3.84639574522441171633e-02) (0, 1.00548949720192370982e+00) (1, -1.17302815748689504005e+00) (0, 1.25654965075870062030e+00) (1, 1.73562316545183947802e-01) (0, 1.57648395670563745696e+00) (1, -1.03904311101749113888e+00) (0, 1.84097789645933351821e+00) (1, -6.82051303018034738024e-01) (0, 6.53621398868557634820e-01) (1, -3.10916230384919334284e-01) (0, -1.08072425779318215255e+00) (1, -3.19521935575527049611e-01) (0, -1.12455435732535602433e+00) (1, -3.21929699898923948886e-01) (0, 1.52521191428288860337e+00) (1, 1.08808155641395218338e-01) (0, -1.16290374045856275131e+01) (1, -9.84510588166703448643e-01) (0, -1.11720726632707845205e+00) (1, -2.50776729937247733204e+00) (0, -1.23763716769815612651e+00) (1, -2.72979014103258310620e-01) (0, -1.19979488313452753445e+00) (1, -2.98867400215220235804e-01) (0, -1.27551112821129297714e+00) (1, -2.24236457923615600807e-01) (0, -2.61074183426316665191e+02) (1, -6.68140309960785394594e+00) (0, 4.98921120875325752042e-01) (1, -5.82911728809099805027e-01) (0, -7.75368408575774381575e-01) (1, -1.82762658050260838605e-02) (0, 1.26936383542531849855e+00) (1, 1.82114208613071759668e-01) (0, 7.24630872941818826583e-01) (1, -2.65639898278631714224e-01) (0, 1.33384218459486536545e+00) (1, -7.30864115940063063803e-01) (0, -1.22555907268077746153e+00) (1, -3.28073561236008282016e-01) (0, 3.12340258052255919097e+01) (1, -7.45435829762480839378e+00) (0, 1.29546699290529243598e+00) (1, 2.46339402972046372930e-01) (0, -7.41429079321242467948e-01) (1, -5.75227889943272785445e-02) (0, 1.15863805878076475686e+00) (1, 2.35974917597412847670e-01) (0, -7.05062437261647745324e-01) (1, 5.04599570688593554446e-02) (0, -4.62485134000763551398e+01) (1, -1.00256789254905296360e+01) (0, 1.44395283529397544520e+00) (1, 7.58755648531056758888e-02) (2, 1.92798720658923533611e-01) (3, -3.96293167903022172660e-02) (4, 3.72779452911911335367e-02) (5, 9.79535635915866897960e-02) (6, 1.93908858712076193065e-01) (7, 3.04280035577693674931e-02) (8, 1.50000000000000000000e+03) (9, -2.13871223432471835313e-01) (10, 1.16577906622323923536e-01) (11, 1.51641169372613682231e-01) (12, 4.14180478274668584238e-01) (13, 1.80401042430949593021e-01) (14, 1.77150842180645411161e-02) (15, 9.70973111947173207759e-03) (16, 9.79854774938194450495e-02) (17, 8.34731067702856183166e-02) (18, 1.17677660485550353298e-01) (19, 1.21661953744755191309e-01) (20, 2.78066654259975787333e-02) (21, -3.25666764253117801964e-01) (22, -2.26705833793497540940e-01) (23, 1.84849690308719699638e-01) (24, 9.45351396831076579153e-02) (25, -6.53218172657808737736e-02) (26, -5.91409661498528971268e-02) (27, -1.60120472319266633765e-02) (28, -2.26259352101867913798e-02) (29, 1.38586771513928536104e-01) (30, 3.25575382330356155602e-02) (31, -1.03528167727576260460e-02) (32, 9.87636466703258192323e-02) (33, -1.24038907252322205821e+00) (34, -1.86638324644271061392e-02) (35, 2.52098266314108726549e-02) (36, -5.34165362401477980536e-02) (37, 1.00200237890395157936e-01) (38, -3.21680235393254909670e-01) (39, 8.34159366515380251705e-01) (40, -5.13284664550818447992e+01) (41, 3.89858887513443858053e-02) (42, 9.36807813678770529009e-02) (43, 2.55426516787741086922e-01) (44, -1.75658970946866416218e-01) (45, 6.61349167186365133331e-02) (46, 1.20516486299858463505e-01) (47, 1.28437932263908760611e-01) (48, -6.85227173119057481054e-02) (49, 1.17414735963923821949e-01) (50, -6.29859703817821081628e-02) (51, 1.08486973738863928807e-01) (52, 1.94373491011498866765e-01) (53, 1.50000000000000000000e+03) (54, -4.23052149463283289066e-02) (55, -2.15185691979013993258e-01) (56, 8.88146797365755580334e-02) (57, -3.79346279308870604208e-02) (58, 1.63213382074565260815e-01) (59, -4.93423424480030417549e-02) (60, 3.67285243945093820006e-02) (61, 9.59396093325226850812e-02) (62, 4.11512369933895671981e-01) (63, 6.43303052585534942409e+01) (64, 1.17814647992954296685e-01) (65, 2.00043622260522468981e-01) (66, -2.01696991044177181829e-01) (67, 1.93056592689113230843e-02) (68, -4.13067518687716406234e-02) (69, 5.26545955847830815522e-02) (70, 1.05980770846518509987e-01) (71, -1.20452806097133477414e-02) (72, -1.90543992100306383564e-02) (73, -1.99752143871933934838e-02) (74, -5.93994086501644369402e-02) (75, -1.60539398946345328312e-02) (76, -4.50517299731496390081e+00) (77, 8.34416309259263661025e-02) (78, 3.52012797013206077401e-02) (79, 1.50000000000000000000e+03) (80, 3.78959665674483345277e-02) (81, -3.13505157702046802215e-02) (82, 1.13065488470420597023e-01) (83, 7.94532467681493964617e-02) (84, -6.58092447989038903389e-02) (85, -6.17200782824014748673e-02) (86, -7.17305027571197711955e-02) (87, -4.09817764186455948949e-02) (88, 1.47962007128282696522e-01) (89, -6.56874014935250327696e-01) (90, -4.21640435739066149479e-02) (91, 1.18011480031022963910e-01) (92, -2.19167583236846597039e-01) (93, 3.58350177767220584579e-02) (94, 3.64801271572990915004e-02) (95, 1.98488079811715872891e-01) (96, -5.27956045982898858338e-02) (97, -4.29001103932934724217e-02) (98, -2.69676730992883806337e-02) (99, 1.20310556677422943184e-02) (100, -1.86204674292234917399e-02) (101, 8.12067461284246838726e-02) (102, -6.51484760194283168966e-02) (103, -7.81461667626583561530e-02) (104, 1.84928478497558723692e-01) (105, -6.87618800871430679855e-02) (106, 1.92640157402659967234e-01) (107, 1.99937367050625952603e-01) (108, 6.28616015674650918665e-02) (109, 1.86862843097355124655e-01) (110, 4.86596417255985083661e-02) (111, -4.43278503551059327448e-02) (112, 1.50000000000000000000e+03) (113, 1.91876892371322105291e-01) (114, 9.15599880734055127096e-02) (115, 1.93743111551905961010e-01) (116, 2.23083716655465629231e+01) (117, -6.72721049764479772648e-02) (118, -4.54814633247917002312e-02) (119, 1.08407049558624346552e-01) (120, 1.88753987840415998756e-01) (121, 8.21251955427972357704e-02) (122, 1.92984790155650565158e-01) (123, 2.00039048118734130721e-01) (124, 1.01674151050658731488e-01) (125, 8.67049989696531409056e-02) (126, 1.90743744919063179522e-01) (127, 6.12846188661657631513e-02) (128, -5.60517993371807063396e-02) (129, -7.46095410564320826730e-02) (130, 1.50000000000000000000e+03) (131, -2.56184591866064487187e-02) (132, 1.02277654333552708854e-01) (133, -3.76195448089246473056e-02) (134, -2.31971950295072615322e-02) (135, -6.22586526143863311367e-02) (136, 1.50000000000000000000e+03) (137, -3.97875772641893163950e+01) (138, 1.85525962020542473097e-01) (139, 9.78060867704000219680e-02) (140, 9.25590771376638560275e-02) (141, -2.30764342895716323412e+00) (142, 9.08453699745980780555e-02) (143, 1.49752729029139275418e-01) (144, -4.13426204128866381371e-02) (145, 1.01317298869880237366e-01) (146, -5.39784143252839063165e-02) (147, 9.05801613664710125740e-02) (148, -2.99714251789346164401e+00) (149, 1.46794607794996534444e-01) (150, 1.65017480626179352532e-01) (151, -3.64064347347814940004e-02) (152, 1.99612204356336309097e-01) (153, 1.01401377588710150945e-01) (154, 1.74617978277556817890e-01) (155, 9.98292233346782381664e-02) (156, 2.48796453812152806861e+00) (157, 1.09256866653262927486e-02) (158, 2.00840588509852285837e-02) (159, 9.74452105464384127353e-02) (160, 3.69487615191772478251e-01) (161, 1.50000000000000000000e+03) (162, -5.31422047984523374109e-02) (163, 8.36359371693355613253e-01) (164, 1.93452374995852771633e-01) (165, -1.90631064224868196355e-02) (166, 2.99937019892547007682e-01) (167, -1.69360017258931710993e-02) (168, 1.86165825078251245817e-01) (169, 1.93974063602210172741e-01) (170, -3.28672732855875004976e-02) (171, -4.01273587369517653611e-02) (172, 3.15242905028788378274e-01) (173, -2.20816461093846283514e-01) (174, 1.91812830032016240489e-01) (175, 2.55113884536649834778e-02) (176, -4.24811510250622942353e-02) (177, 3.71849936630148786287e-02) (178, 9.98568999093166070891e-02) (179, -2.69529938301633319175e-02) (180, 9.33368804385748124242e-02) (181, 9.16546480547516945192e-02) (182, -4.02110430050491574061e-02) (183, 1.24160913889440527313e+00) (184, 6.02082451615486846652e-02) (185, 1.68516642746598666047e-01) (186, 1.95657842991213443140e-01) (187, 8.98324726604071283065e-02) (188, 1.50000000000000000000e+03) (189, -1.47128564440790737117e-02) (190, 1.92128360817195420474e-01) (191, -6.39372763502923796564e-02) (192, -3.39285129332144302916e-02) (193, 3.23055926561176473544e-02) (194, 1.47983344736456051693e-01) (195, -2.29210370221433451521e-01) (196, -5.70812679646063095285e-02) (197, 2.00478125475835461389e-01) (198, -7.48588400631446937439e-02) (199, 1.99527763630533011563e-01) (200, 1.50000000000000000000e+03) (201, -1.26537231498385690370e-02) (202, 5.56382847980808059596e-02) 
