FANN_FLO_2.1
num_layers=3
learning_rate=0.700000
connection_rate=1.000000
network_type=0
learning_momentum=0.000000
training_algorithm=2
train_error_function=1
train_stop_function=0
cascade_output_change_fraction=0.010000
quickprop_decay=-0.000100
quickprop_mu=1.750000
rprop_increase_factor=1.200000
rprop_decrease_factor=0.500000
rprop_delta_min=0.000000
rprop_delta_max=50.000000
rprop_delta_zero=0.100000
cascade_output_stagnation_epochs=12
cascade_candidate_change_fraction=0.010000
cascade_candidate_stagnation_epochs=12
cascade_max_out_epochs=150
cascade_min_out_epochs=50
cascade_max_cand_epochs=150
cascade_min_cand_epochs=50
cascade_num_candidate_groups=2
bit_fail_limit=3.49999999999999977796e-01
cascade_candidate_limit=1.00000000000000000000e+03
cascade_weight_multiplier=4.00000000000000022204e-01
cascade_activation_functions_count=10
cascade_activation_functions=3 5 7 8 10 11 14 15 16 17 
cascade_activation_steepnesses_count=4
cascade_activation_steepnesses=2.50000000000000000000e-01 5.00000000000000000000e-01 7.50000000000000000000e-01 1.00000000000000000000e+00 
layer_sizes=2 201 2 
scale_included=0
neurons (num_inputs, activation_function, activation_steepness)=(0, 0, 0.00000000000000000000e+00) (0, 0, 0.00000000000000000000e+00) (2, 4, 5.00000000000000000000e-01) (2, 4, 5.00000000000000000000e-01) (2, 4, 5.00000000000000000000e-01) (2, 4, 5.00000000000000000000e-01) (2, 4, 5.00000000000000000000e-01) (2, 4, 5.00000000000000000000e-01) (2, 4, 5.00000000000000000000e-01) (2, 4, 5.00000000000000000000e-01) (2, 4, 5.00000000000000000000e-01) (2, 4, 5.00000000000000000000e-01) (2, 4, 5.00000000000000000000e-01) (2, 4, 5.00000000000000000000e-01) (2, 4, 5.00000000000000000000e-01) (2, 4, 5.00000000000000000000e-01) (2, 4, 5.00000000000000000000e-01) (2, 4, 5.00000000000000000000e-01) (2, 4, 5.00000000000000000000e-01) (2, 4, 5.00000000000000000000e-01) (2, 4, 5.00000000000000000000e-01) (2, 4, 5.00000000000000000000e-01) (2, 4, 5.00000000000000000000e-01) (2, 4, 5.00000000000000000000e-01) (2, 4, 5.00000000000000000000e-01) (2, 4, 5.00000000000000000000e-01) (2, 4, 5.00000000000000000000e-01) (2, 4, 5.00000000000000000000e-01) (2, 4, 5.00000000000000000000e-01) (2, 4, 5.00000000000000000000e-01) (2, 4, 5.00000000000000000000e-01) (2, 4, 5.00000000000000000000e-01) (2, 4, 5.00000000000000000000e-01) (2, 4, 5.00000000000000000000e-01) (2, 4, 5.00000000000000000000e-01) (2, 4, 5.00000000000000000000e-01) (2, 4, 5.00000000000000000000e-01) (2, 4, 5.00000000000000000000e-01) (2, 4, 5.00000000000000000000e-01) (2, 4, 5.00000000000000000000e-01) (2, 4, 5.00000000000000000000e-01) (2, 4, 5.00000000000000000000e-01) (2, 4, 5.00000000000000000000e-01) (2, 4, 5.00000000000000000000e-01) (2, 4, 5.00000000000000000000e-01) (2, 4, 5.00000000000000000000e-01) (2, 4, 5.00000000000000000000e-01) (2, 4, 5.00000000000000000000e-01) (2, 4, 5.00000000000000000000e-01) (2, 4, 5.00000000000000000000e-01) (2, 4, 5.00000000000000000000e-01) (2, 4, 5.00000000000000000000e-01) (2, 4, 5.00000000000000000000e-01) (2, 4, 5.00000000000000000000e-01) (2, 4, 5.00000000000000000000e-01) (2, 4, 5.00000000000000000000e-01) (2, 4, 5.00000000000000000000e-01) (2, 4, 5.00000000000000000000e-01) (2, 4, 5.00000000000000000000e-01) (2, 4, 5.00000000000000000000e-01) (2, 4, 5.00000000000000000000e-01) (2, 4, 5.00000000000000000000e-01) (2, 4, 5.00000000000000000000e-01) (2, 4, 5.00000000000000000000e-01) (2, 4, 5.00000000000000000000e-01) (2, 4, 5.00000000000000000000e-01) (2, 4, 5.00000000000000000000e-01) (2, 4, 5.00000000000000000000e-01) (2, 4, 5.00000000000000000000e-01) (2, 4, 5.00000000000000000000e-01) (2, 4, 5.00000000000000000000e-01) (2, 4, 5.00000000000000000000e-01) (2, 4, 5.00000000000000000000e-01) (2, 4, 5.00000000000000000000e-01) (2, 4, 5.00000000000000000000e-01) (2, 4, 5.00000000000000000000e-01) (2, 4, 5.00000000000000000000e-01) (2, 4, 5.00000000000000000000e-01) (2, 4, 5.00000000000000000000e-01) (2, 4, 5.00000000000000000000e-01) (2, 4, 5.00000000000000000000e-01) (2, 4, 5.00000000000000000000e-01) (2, 4, 5.00000000000000000000e-01) (2, 4, 5.00000000000000000000e-01) (2, 4, 5.00000000000000000000e-01) (2, 4, 5.00000000000000000000e-01) (2, 4, 5.00000000000000000000e-01) (2, 4, 5.00000000000000000000e-01) (2, 4, 5.00000000000000000000e-01) (2, 4, 5.00000000000000000000e-01) (2, 4, 5.00000000000000000000e-01) (2, 4, 5.00000000000000000000e-01) (2, 4, 5.00000000000000000000e-01) (2, 4, 5.00000000000000000000e-01) (2, 4, 5.00000000000000000000e-01) (2, 4, 5.00000000000000000000e-01) (2, 4, 5.00000000000000000000e-01) (2, 4, 5.00000000000000000000e-01) (2, 4, 5.00000000000000000000e-01) (2, 4, 5.00000000000000000000e-01) (2, 4, 5.00000000000000000000e-01) (2, 4, 5.00000000000000000000e-01) (2, 4, 5.00000000000000000000e-01) (2, 4, 5.00000000000000000000e-01) (2, 4, 5.00000000000000000000e-01) (2, 4, 5.00000000000000000000e-01) (2, 4, 5.00000000000000000000e-01) (2, 4, 5.00000000000000000000e-01) (2, 4, 5.00000000000000000000e-01) (2, 4, 5.00000000000000000000e-01) (2, 4, 5.00000000000000000000e-01) (2, 4, 5.00000000000000000000e-01) (2, 4, 5.00000000000000000000e-01) (2, 4, 5.00000000000000000000e-01) (2, 4, 5.00000000000000000000e-01) (2, 4, 5.00000000000000000000e-01) (2, 4, 5.00000000000000000000e-01) (2, 4, 5.00000000000000000000e-01) (2, 4, 5.00000000000000000000e-01) (2, 4, 5.00000000000000000000e-01) (2, 4, 5.00000000000000000000e-01) (2, 4, 5.00000000000000000000e-01) (2, 4, 5.00000000000000000000e-01) (2, 4, 5.00000000000000000000e-01) (2, 4, 5.00000000000000000000e-01) (2, 4, 5.00000000000000000000e-01) (2, 4, 5.00000000000000000000e-01) (2, 4, 5.00000000000000000000e-01) (2, 4, 5.00000000000000000000e-01) (2, 4, 5.00000000000000000000e-01) (2, 4, 5.00000000000000000000e-01) (2, 4, 5.00000000000000000000e-01) (2, 4, 5.00000000000000000000e-01) (2, 4, 5.00000000000000000000e-01) (2, 4, 5.00000000000000000000e-01) (2, 4, 5.00000000000000000000e-01) (2, 4, 5.00000000000000000000e-01) (2, 4, 5.00000000000000000000e-01) (2, 4, 5.00000000000000000000e-01) (2, 4, 5.00000000000000000000e-01) (2, 4, 5.00000000000000000000e-01) (2, 4, 5.00000000000000000000e-01) (2, 4, 5.00000000000000000000e-01) (2, 4, 5.00000000000000000000e-01) (2, 4, 5.00000000000000000000e-01) (2, 4, 5.00000000000000000000e-01) (2, 4, 5.00000000000000000000e-01) (2, 4, 5.00000000000000000000e-01) (2, 4, 5.00000000000000000000e-01) (2, 4, 5.00000000000000000000e-01) (2, 4, 5.00000000000000000000e-01) (2, 4, 5.00000000000000000000e-01) (2, 4, 5.00000000000000000000e-01) (2, 4, 5.00000000000000000000e-01) (2, 4, 5.00000000000000000000e-01) (2, 4, 5.00000000000000000000e-01) (2, 4, 5.00000000000000000000e-01) (2, 4, 5.00000000000000000000e-01) (2, 4, 5.00000000000000000000e-01) (2, 4, 5.00000000000000000000e-01) (2, 4, 5.00000000000000000000e-01) (2, 4, 5.00000000000000000000e-01) (2, 4, 5.00000000000000000000e-01) (2, 4, 5.00000000000000000000e-01) (2, 4, 5.00000000000000000000e-01) (2, 4, 5.00000000000000000000e-01) (2, 4, 5.00000000000000000000e-01) (2, 4, 5.00000000000000000000e-01) (2, 4, 5.00000000000000000000e-01) (2, 4, 5.00000000000000000000e-01) (2, 4, 5.00000000000000000000e-01) (2, 4, 5.00000000000000000000e-01) (2, 4, 5.00000000000000000000e-01) (2, 4, 5.00000000000000000000e-01) (2, 4, 5.00000000000000000000e-01) (2, 4, 5.00000000000000000000e-01) (2, 4, 5.00000000000000000000e-01) (2, 4, 5.00000000000000000000e-01) (2, 4, 5.00000000000000000000e-01) (2, 4, 5.00000000000000000000e-01) (2, 4, 5.00000000000000000000e-01) (2, 4, 5.00000000000000000000e-01) (2, 4, 5.00000000000000000000e-01) (2, 4, 5.00000000000000000000e-01) (2, 4, 5.00000000000000000000e-01) (2, 4, 5.00000000000000000000e-01) (2, 4, 5.00000000000000000000e-01) (2, 4, 5.00000000000000000000e-01) (2, 4, 5.00000000000000000000e-01) (2, 4, 5.00000000000000000000e-01) (2, 4, 5.00000000000000000000e-01) (2, 4, 5.00000000000000000000e-01) (2, 4, 5.00000000000000000000e-01) (2, 4, 5.00000000000000000000e-01) (2, 4, 5.00000000000000000000e-01) (2, 4, 5.00000000000000000000e-01) (2, 4, 5.00000000000000000000e-01) (2, 4, 5.00000000000000000000e-01) (2, 4, 5.00000000000000000000e-01) (2, 4, 5.00000000000000000000e-01) (2, 4, 5.00000000000000000000e-01) (2, 4, 5.00000000000000000000e-01) (0, 0, 0.00000000000000000000e+00) (201, 4, 5.00000000000000000000e-01) (0, 0, 0.00000000000000000000e+00) 
connections (connected_to_neuron, weight)=(0, 2.24389677614270777184e+00) (1, 5.50074185938749571356e-01) (0, 2.29400533686637952968e+00) (1, 5.09017632348067183834e-01) (0, -1.73070229104877415516e+00) (1, -3.24266994380953632593e-01) (0, -9.46093995181663149907e-01) (1, -7.53226525038837135817e-01) (0, -2.36683877386164320811e+00) (1, -2.09104862509599520592e+00) (0, -1.59822750162971805032e+00) (1, -4.20432111347666614964e-01) (0, -9.23277497751930464887e-01) (1, -7.79158466897321377864e-01) (0, 2.52877924894293260039e+00) (1, 3.94963093716994839699e-01) (0, -9.37216546300945085868e-01) (1, -7.46468767471736516228e-01) (0, 1.22812710764806141128e+01) (1, -4.36686345170547662864e-01) (0, 2.28904641697668598255e+00) (1, 5.24974866091966863024e-01) (0, -1.03415745315997531506e+00) (1, -8.73940950483352962941e-01) (0, 2.03412394365462301238e+00) (1, 6.36821171289043586050e-01) (0, 3.96616718871722095940e+00) (1, 2.42794435713281603340e-01) (0, 2.25831009604146792924e+00) (1, 5.45232768404399492645e-01) (0, 2.57404861394996942181e+00) (1, 3.67657366006455155194e-01) (0, 2.57274097679895463742e+00) (1, 3.75728159111773207801e-01) (0, -1.72312433814180443470e+00) (1, -3.57548454443446517281e-01) (0, 2.34596716421797379937e+00) (1, 4.92924115368433446438e-01) (0, 2.42710172839557580815e+00) (1, 4.29054526955046811043e-01) (0, -1.09834255305940176051e+00) (1, -8.97621219808286019415e-01) (0, -1.64928909948048474376e+00) (1, -3.80875810777846768307e-01) (0, -9.61898599130970977100e-01) (1, -7.47959874757407772172e-01) (0, 2.26561756478501719059e+00) (1, 5.18659367864134246418e-01) (0, -8.81274569246128680611e-01) (1, -7.90027411197019691080e-01) (0, -1.00591623299114107937e+00) (1, -9.10151873531135247042e-01) (0, -9.09957295712521929687e-01) (1, -9.23102729766875573780e-01) (0, 9.12237428911161885026e+00) (1, 3.14559304562537556116e-01) (0, 4.18727600156576240664e+00) (1, 2.94876358274850980390e-01) (0, -1.18148884911189666624e+00) (1, -6.68306851311908811653e-01) (0, -1.17727446822163805962e+00) (1, -6.78209993234477614976e-01) (0, -1.78534554799566036465e+00) (1, -2.96062447269633211011e-01) (0, -1.56448589800358117685e+00) (1, -4.37286807323914228363e-01) (0, -1.02708924041001736782e+00) (1, -8.79282577837975032331e-01) (0, -1.61731057622251928052e+00) (1, -4.01444034317962050729e-01) (0, 2.55248858265241551635e+00) (1, 3.76400833930880474032e-01) (0, -1.81064407832155049860e+00) (1, -2.76167756215480564297e-01) (0, -1.08692893822360225897e+00) (1, -9.01582137828534468937e-01) (0, 2.19661436064813075930e+00) (1, 5.77946952742002473258e-01) (0, 2.21450262542366704821e+00) (1, 5.65798990056421979844e-01) (0, -9.03011051978898748871e-01) (1, -8.84094650956342764658e-01) (0, 2.16333715974700835361e+00) (1, 5.89091927039523177712e-01) (0, 2.18330303567410100030e+00) (1, 5.75861304536302576196e-01) (0, -1.14099256119790193331e+00) (1, -7.10637250432811118372e-01) (0, -3.98664472167763150878e+01) (1, 2.16092840642881478530e+00) (0, 2.32154664799085930227e+00) (1, 5.04205448017953083983e-01) (0, -1.09658778175622484419e+00) (1, -8.63408855338279490610e-01) (0, -7.85163694580300131065e+01) (1, 9.02944929783650707122e+00) (0, 2.28090592475997810951e+00) (1, 5.15750128446582856157e-01) (0, -9.37876251664741422687e-01) (1, -7.55163256028675289322e-01) (0, -1.64351952958154989837e+00) (1, -3.98326286711874977264e-01) (0, 2.21228571347550762027e+00) (1, 5.65018281718162707072e-01) (0, 2.02100273052655410311e+00) (1, 6.43867644326569732449e-01) (0, -1.17160368628996391926e+00) (1, -8.86671920453971251774e-01) (0, 2.56797486041928868516e+00) (1, 3.66589926797537934977e-01) (0, 2.52528582172118509774e+00) (1, 3.92647130685720435750e-01) (0, -9.15891308672265203050e-01) (1, -9.20475190867471315670e-01) (0, -1.10949854204446318739e+00) (1, -8.57270040707055702711e-01) (0, -1.15994133063912263637e+00) (1, -9.12998340604099234419e-01) (0, -9.08349731389573200602e-01) (1, -9.00507859181450598385e-01) (0, 2.63449015061703528673e+00) (1, 3.35914888521174181957e-01) (0, 3.04920316952197412164e+00) (1, -2.51982363523252927973e-01) (0, -9.48950675610881311250e-01) (1, -7.61817778961873082189e-01) (0, -1.63172786469128761055e+00) (1, -3.71023145231909101671e-01) (0, -9.36650950207962407212e-01) (1, -7.50729419131303310486e-01) (0, 2.58611055097715025752e+00) (1, 3.47538422706796024109e-01) (0, 2.33519134529978433790e+00) (1, 4.97893129526401023721e-01) (0, 2.23165115676682157542e+00) (1, 5.41169859959774512959e-01) (0, -7.86806890489709420677e-01) (1, -1.27876384653918129253e+00) (0, -1.74375814330998912816e+00) (1, -3.24900704587695932091e-01) (0, -1.73671482055864134786e+00) (1, -3.25324236827037815978e-01) (0, 2.13218063469922425313e+00) (1, 6.10900850540530115929e-01) (0, 1.70805985426778370595e+01) (1, -2.09662531268064045165e+00) (0, -9.21677888678864465355e-01) (1, -9.41969636269027188469e-01) (0, 2.23560827974264819673e+00) (1, 5.54367564996155137713e-01) (0, -1.14180984646085970091e+00) (1, -8.96702744530146977908e-01) (0, -1.77203234405812204422e+00) (1, -2.81986138121035900816e-01) (0, 2.31457618410368359818e+00) (1, 5.10885537534290001815e-01) (0, -9.04409640599063369137e-01) (1, -9.28690734726476563310e-01) (0, -1.72661797907108582883e+00) (1, -3.46212132004348360770e-01) (0, -1.08613184530902096014e+00) (1, -9.04920266555413577159e-01) (0, -9.11986148052266187847e-01) (1, -8.95047160987900269902e-01) (0, -1.66033762872222134810e+00) (1, -3.46951578471369093126e-01) (0, -1.91597620655448497295e+00) (1, -2.86811915153392327227e-01) (0, -1.17052299689341476885e+00) (1, -6.92663353412471316517e-01) (0, 4.19890189786096179603e+00) (1, 2.47553835494645518844e-01) (0, 2.21022262668463564950e+00) (1, 5.49096638557276195414e-01) (0, -9.34468582308305983908e-01) (1, -7.52312565659547183294e-01) (0, -1.08216605726414605293e+00) (1, -6.97096357533012911389e-01) (0, 2.58655601989709404975e+00) (1, 3.46649123287392613157e-01) (0, 2.36128239105008352894e+00) (1, 4.84772108308000104770e-01) (0, -9.01260813260127968682e-01) (1, -8.03001366656155068924e-01) (0, 2.31861371386933168282e+00) (1, 5.07662382252379806857e-01) (0, -1.12322831910967013691e+00) (1, -8.97702969190868338423e-01) (0, -1.14145024633342218046e+00) (1, -7.07828767458758889575e-01) (0, -1.10112079074806246126e+00) (1, -9.26386998124663296750e-01) (0, -1.20988972642714398553e+00) (1, -4.61609390253493512279e-01) (0, 2.06404523704364617487e+00) (1, 6.26198164386693179040e-01) (0, 2.30200813614325916490e+00) (1, 5.19811000727119942866e-01) (0, 2.26149847134003767479e+00) (1, 5.43416439562714570499e-01) (0, -1.80859742278346846689e+00) (1, -2.75852253929523227871e-01) (0, -1.78571390094272164362e+00) (1, -2.99079293394091449976e-01) (0, -1.54193173977947539655e+00) (1, -4.48185933853607831878e-01) (0, -1.17959471992966857812e+00) (1, -6.78188510100207864184e-01) (0, -1.15052384186181910763e+00) (1, -8.23545472111073317834e-01) (0, -1.80629178973452031443e+00) (1, -2.91649216794970356226e-01) (0, -8.94746018650604324485e-01) (1, -8.91830871353195497875e-01) (0, -1.65478093155098249234e+00) (1, -3.94153611400309578094e-01) (0, -1.07453191716838070136e+00) (1, -9.34958623489900109149e-01) (0, -1.13495535359031163303e+00) (1, -7.09635890302501515237e-01) (0, -2.07356365728419067551e+00) (1, -2.45134300522939524436e-01) (0, -1.79850842631063212451e+00) (1, -2.88530012861636153687e-01) (0, -1.51906914935256542876e+00) (1, -4.43240965370786221822e-01) (0, -1.10235303794741801298e+00) (1, -8.98095534330075606633e-01) (0, 2.28198867556127726886e+00) (1, 5.16324180780414421221e-01) (0, -1.01667275815717550458e+00) (1, -8.90813629158289876919e-01) (0, -1.09439631414395255327e+00) (1, -6.92277620966469386943e-01) (0, -9.59920387592655521836e-01) (1, -7.52716728706574467189e-01) (0, 2.50527692405482271809e+00) (1, 4.04251178346549833176e-01) (0, -1.66008615851521823537e+00) (1, -3.89092730024043098602e-01) (0, -1.76495162131184346599e+00) (1, -3.21363969535013671575e-01) (0, 2.27073965055915749645e+00) (1, 5.38538508034627549925e-01) (0, -1.56872978885746361399e+00) (1, -4.33552349270325154684e-01) (0, 2.21725963106612411480e+00) (1, 5.58926809561832049766e-01) (0, 2.31946952721962063038e+00) (1, 5.09516118359026104478e-01) (0, -1.59577736843050987936e+00) (1, -4.31961793847542518954e-01) (0, 2.04727804674914404259e+00) (1, 6.31722164640981409534e-01) (0, 2.29196203301339451741e+00) (1, 5.25680313861309200796e-01) (0, -1.80309388716716734180e+00) (1, -2.67037948862481000489e-01) (0, -9.54157600414527351518e-01) (1, -7.48091037687324988958e-01) (0, -4.39626510320267538390e+00) (1, -4.58632095732845623814e+00) (0, -9.51458230418784856042e-01) (1, -7.49642160969280380023e-01) (0, -1.01626550414125293997e+00) (1, -8.76240801597387597432e-01) (0, -9.32152675973757172123e-01) (1, -7.56449451058888056032e-01) (0, -8.66935123994755474364e-01) (1, -8.16049347469658625798e-01) (0, -5.77362003954784319681e-01) (1, -1.87600947302091158875e+00) (0, 2.18771463858129955327e+00) (1, 5.79858460679433251883e-01) (0, -1.09657951475787340812e+00) (1, -9.00831953769391402531e-01) (0, -1.12772916131948552909e+00) (1, -8.31352098594037025592e-01) (0, -1.58368206319797844017e+00) (1, -4.25555547798624866918e-01) (0, -9.24906731704196460875e-01) (1, -7.53743498381083121274e-01) (0, -1.61861219371499065467e+00) (1, -4.23011463530522102694e-01) (0, 2.26621168351798063512e+00) (1, 5.40330633247770864003e-01) (0, -9.57186551189286527475e-01) (1, -7.48825088635944102755e-01) (0, -1.65086172139973008655e+00) (1, -3.84399236778251052193e-01) (0, 2.26979020127934871809e+00) (1, 5.36018220997925398663e-01) (0, -9.08574013613750897100e-01) (1, -8.72585736576745762960e-01) (0, -1.35412910676553899236e+00) (1, -1.19354885351104700320e+00) (0, -1.66235955832518023101e+00) (1, -3.84375067094794631295e-01) (0, -1.57553331994915302161e+00) (1, -4.32368857885819135589e-01) (0, 3.55768152437507012564e+00) (1, 2.18816566378968790918e-01) (0, 2.15106291098867341560e+00) (1, 5.94427293456030514385e-01) (0, -1.60616257793550731847e+00) (1, -3.91518698552930810575e-01) (0, -1.12494645406775739538e+00) (1, -9.20067997417016503192e-01) (0, 8.57039517990137156289e+00) (1, 4.80248170584390343674e-01) (0, -1.48257792023209611365e+00) (1, -4.63895795637007335444e-01) (0, -1.00703465454570650905e+00) (1, -9.02211642586024598067e-01) (0, 2.26488106475574113574e+00) (1, 5.41537596851266678222e-01) (0, -1.70012480491942130634e+00) (1, -3.55326516655532442801e-01) (0, -1.28237940970703880339e+03) (1, -6.23192424780329901068e+00) (0, 2.20066284918817700600e+00) (1, 5.73930961910628756328e-01) (0, -1.51114969048072467217e+00) (1, -4.45542539124143155416e-01) (0, 4.10908646647356068371e+00) (1, 2.95977511643519874962e-01) (0, -1.79073947734421468070e+00) (1, -3.09976427644869323430e-01) (0, 2.11127016944873124871e+00) (1, 6.21107565753347912185e-01) (0, -9.65518968632471996649e-01) (1, -7.44259981044792184868e-01) (0, -9.51156950318534311073e-01) (1, -7.39053076713985124258e-01) (0, 2.30926678727448031481e+00) (1, 5.14500934907249352079e-01) (0, 2.23026592111938981589e+00) (1, 5.36575248033462237629e-01) (0, -2.14104823706456226518e+00) (1, -1.88959754014802971955e-01) (0, -1.90483134531482112273e+00) (1, -2.85645283608967626154e-01) (0, 4.13814035643710997903e+00) (1, 2.97584266205070446798e-01) (0, 9.55476918116322337937e+00) (1, 1.97022200103573047469e-01) (0, 1.21881984443349917768e+01) (1, -4.01271362326388270070e-01) (0, -9.66896230575901460824e-01) (1, -7.49296676923964732886e-01) (0, 3.90186233243863744846e+00) (1, 2.30696135560978149437e-01) (0, -9.72390932506598693053e-01) (1, -7.40460934482598198692e-01) (0, -1.14689874163484462066e+00) (1, -7.26513748930297742490e-01) (0, -9.40164621931106947450e-01) (1, -7.35991851800960716901e-01) (0, -1.09929263091546558506e+00) (1, -8.96084903133865684488e-01) (0, 2.31247225511394827180e+00) (1, 5.10313567105550869307e-01) (0, -9.30134089908435823801e-01) (1, -8.99664534184502429071e-01) (0, -8.95139092981887873890e-01) (1, -9.01898268520878509946e-01) (0, 2.34043682280831255582e+00) (1, 4.54614505616205255567e-01) (0, 2.28003147335188049993e+00) (1, 5.31340107699325381319e-01) (0, -1.14369189694401773849e+00) (1, -7.02813507578693208444e-01) (0, -1.71100811236203353971e+00) (1, -3.64610807637206435494e-01) (0, 2.16803066283348444543e+00) (1, 5.88456922735590914897e-01) (0, -1.57603563009489699986e+00) (1, -4.38317252422791181488e-01) (0, -1.13623122047643532184e+00) (1, -6.83580168789135633745e-01) (0, -9.62382933529574935427e-01) (1, -7.33514104022449320297e-01) (0, 2.17269543381057417264e+00) (1, 5.76288173338087794662e-01) (0, -9.81816503550628105756e-01) (1, -7.24294064593659081552e-01) (0, 4.06294064683138866911e+00) (1, 3.28113978514908644080e-01) (0, -1.10304829469949239318e+00) (1, -8.44353762258378326422e-01) (0, 2.74511825341255732980e+00) (1, 2.82530585960063473916e-01) (0, -1.82385889955539415297e+00) (1, -2.89911163719752007495e-01) (0, 2.27543681996694324710e+00) (1, 5.24390077635383700105e-01) (0, -1.12800540294566276067e+00) (1, -7.16657853537402633748e-01) (0, 2.27428020145574372179e+00) (1, 5.24938440982198550877e-01) (2, -8.51922643122916684044e-02) (3, -1.03610380733991036539e-01) (4, 6.80605723617628277644e-02) (5, 2.08689693210307530835e-01) (6, 2.53523284663746406586e-01) (7, 8.95822317255154237925e-02) (8, 2.01528086250591570439e-01) (9, -3.44090436980684366564e-02) (10, 1.38210289889455606449e-01) (11, -4.18540250753680273532e-02) (12, -1.09387466007257030953e-01) (13, 8.74827023870796000038e-02) (14, -6.59479455209600329280e-02) (15, -3.43450236756572407915e-02) (16, -1.05632965704846884525e-01) (17, -3.29806891610580285579e-02) (18, -3.03693053653194197650e-02) (19, 8.30079897531843247105e-02) (20, -1.11451328986669109811e-01) (21, -4.16342066958686543576e-02) (22, 1.35390204187314788786e-02) (23, 6.28741511528567720291e-02) (24, 1.65860997705166213212e-01) (25, -7.97040529499328798124e-02) (26, 2.10172331747529722579e-01) (27, 6.68142141928806387874e-02) (28, 1.88414638568066040991e-02) (29, -2.15105050231414220152e-02) (30, 6.87094999181309395997e-02) (31, 1.80411322810684365825e-01) (32, 1.86272639900691844295e-01) (33, 1.02357799281985004103e-01) (34, 1.03039659287486304318e-01) (35, 7.29672918932205150089e-02) (36, 7.23172495941296483712e-02) (37, -4.87546717026988846166e-02) (38, 7.52486760702097967624e-02) (39, 1.12950024004857697141e-02) (40, -6.46737560676450412567e-02) (41, -1.04429115793157126224e-01) (42, 4.74959001017705786940e-02) (43, -8.67754717082258320016e-02) (44, -1.01676301353955791940e-01) (45, 2.24178528090494350034e-01) (46, -1.57442238797920297522e-01) (47, -9.10414611878637286546e-02) (48, 7.82768005603722283325e-02) (49, -1.20178336987741207764e+00) (50, -7.68263257990175058021e-02) (51, 1.72149196251765779220e-01) (52, 8.64174863770619250403e-02) (53, -7.84071844754501978692e-02) (54, -7.39933377619096249722e-02) (55, 4.03036832250459817195e-02) (56, -3.89286247314893987803e-02) (57, -4.99022939632697282164e-02) (58, 4.62824129015052057601e-02) (59, 4.29701444600970317023e-02) (60, 3.86142252158370932746e-02) (61, 3.29801927424564628177e-02) (62, -3.21710569193319681491e-02) (63, 2.99775918697513132916e-01) (64, 2.19276138872236486810e-01) (65, 6.94455529178714670024e-02) (66, 1.51297434127607571819e-01) (67, -3.58231645812470203549e-02) (68, -6.73434330108503981238e-02) (69, -6.65026983149395178874e-02) (70, 1.43309406903710141734e-02) (71, 9.60925431739732271996e-02) (72, 6.52810465749662782731e-02) (73, -1.14060374503159991932e-01) (74, -3.32730016068467082668e-02) (75, 5.49939987223772436264e-02) (76, -6.56812202868808092671e-02) (77, 3.15558356042726709245e-02) (78, 7.19243760194743231295e-02) (79, -8.12085953293113366191e-02) (80, 6.46411444898817577620e-02) (81, 1.05067358411858102762e-01) (82, 5.53511124845435242836e-02) (83, 3.43167884188786270760e-02) (84, 7.61745467863109426698e-02) (85, 4.12761084057805677228e-02) (86, 2.43142283666623187921e-01) (87, -3.47406652814160402110e-02) (88, -8.30646423526069238585e-02) (89, 1.58994990331449703724e-01) (90, 1.94165635313637591208e-01) (91, -2.70880625857788798205e-02) (92, -5.85316238882910150343e-02) (93, 1.91451671834758307966e-01) (94, -8.97891086278203576221e-02) (95, 5.27753235389967351177e-02) (96, 1.98812498541366955429e-01) (97, 2.49058758003314097140e-02) (98, 3.03178113631138168582e-02) (99, -8.98927096445326090368e-02) (100, -1.01743215018296764840e-01) (101, -8.34736073510423670641e-02) (102, 5.75223292198114230511e-02) (103, 8.30707978662413026871e-02) (104, 1.02399101338610867828e-01) (105, 1.84494554862507265103e-01) (106, 9.79097608542385117181e-02) (107, 9.36558193538590544325e-02) (108, 8.80519086948581136687e-02) (109, 8.35087052062168933020e-02) (110, 5.93953117587202802929e-02) (111, 2.44741370505349192799e-01) (112, 4.36774787824617607979e-02) (113, 9.40638278626540341731e-02) (114, 9.42202345614566449949e-02) (115, 8.59372734984488809151e-03) (116, -5.55862665126693883400e-02) (117, 3.25587025859142564777e-02) (118, 1.48111566975721503647e-01) (119, 1.71951623118966723247e-01) (120, -5.05330877488419580312e-02) (121, 7.64745359914913852561e-02) (122, 9.51629727592545049397e-02) (123, -8.10027397727280662476e-02) (124, 6.84387084020748742708e-02) (125, -8.66296601233717822321e-02) (126, -7.01257191156712395008e-02) (127, 8.12406996510106199638e-02) (128, -7.65499111014657784846e-02) (129, -9.33090013203864560021e-02) (130, 8.15927262392008856295e-02) (131, 1.71253040345564572222e-01) (132, 3.71511993150352237691e+00) (133, 1.79063308353797134842e-01) (134, 3.81692198750759326131e-02) (135, 1.95637765859022511039e-01) (136, 1.70019025854396210740e-01) (137, 6.49098951568629223968e-03) (138, -1.02490159371304984104e-01) (139, 6.47657257314676743087e-02) (140, 7.99795309877268933985e-02) (141, 9.13903088224545107066e-02) (142, 1.26079518143459273771e-01) (143, 7.19933966419774168388e-02) (144, -9.72315514580970180480e-02) (145, 1.83475497074405108355e-01) (146, 7.38016583764209976870e-02) (147, -9.73948699174170956505e-02) (148, 6.02509004485145618912e-02) (149, 1.38718461724897500903e-02) (150, 1.01459046476948006044e-01) (151, 8.52103454132416143763e-02) (152, -3.30003518992670261123e-02) (153, -9.92162028936629247777e-02) (154, 7.82008449376782044382e-02) (155, 3.21153908826831771539e-02) (156, -2.72983196467382997763e-02) (157, 8.01363771455898959983e-02) (158, 5.20078405871403359750e-02) (159, -6.70981103675226953076e-02) (160, 9.07213203806675888563e-02) (161, 1.50000000000000000000e+03) (162, -7.34229430602862526145e-02) (163, 6.02919445519564459190e-02) (164, 5.92250060125867131000e-02) (165, 1.04386299799921616893e-01) (166, -6.43874318945762136313e-02) (167, 1.67149407350341450140e-01) (168, 8.03853046122967734854e-02) (169, -6.47339944479817519518e-02) (170, -6.19329592116247967803e-02) (171, 3.75706361663960403119e-02) (172, 4.97350550378619030850e-03) (173, 6.25749351922550989258e-02) (174, -3.40144581245462387931e-02) (175, -2.82378751448831254167e-02) (176, 1.61774937201684454458e-01) (177, -3.52821701781522445440e-02) (178, 1.58624462334529037211e-01) (179, 1.74471365823011564933e-01) (180, 7.20415319224791267372e-02) (181, 1.07233193512835788680e-02) (182, -6.58875672104705378818e-02) (183, 3.79137685075894362297e-02) (184, 4.84724606491198362068e-02) (185, -4.62003557770999662146e-02) (186, -8.22438907561562904114e-02) (187, 2.61547781319637295816e-01) (188, 9.16685961424008183274e-02) (189, -8.78517652539488602681e-02) (190, 9.56928856346466322202e-02) (191, 1.84607992681060151252e-01) (192, 9.22936692849585654796e-02) (193, -1.04238764637494610299e-01) (194, 6.11675595728412152541e-02) (195, 7.58799736173384059557e-02) (196, 9.25849717077230072171e-02) (197, -3.17935855082944890393e-02) (198, 7.67686103178098488975e-02) (199, -8.47115671220075028280e-02) (200, 2.00140672386181495135e-01) (201, -6.08847891869913476759e-02) (202, 9.29987590861119234331e-02) 
