FANN_FLO_2.1
num_layers=3
learning_rate=0.700000
connection_rate=1.000000
network_type=0
learning_momentum=0.000000
training_algorithm=2
train_error_function=1
train_stop_function=0
cascade_output_change_fraction=0.010000
quickprop_decay=-0.000100
quickprop_mu=1.750000
rprop_increase_factor=1.200000
rprop_decrease_factor=0.500000
rprop_delta_min=0.000000
rprop_delta_max=50.000000
rprop_delta_zero=0.100000
cascade_output_stagnation_epochs=12
cascade_candidate_change_fraction=0.010000
cascade_candidate_stagnation_epochs=12
cascade_max_out_epochs=150
cascade_min_out_epochs=50
cascade_max_cand_epochs=150
cascade_min_cand_epochs=50
cascade_num_candidate_groups=2
bit_fail_limit=3.49999999999999977796e-01
cascade_candidate_limit=1.00000000000000000000e+03
cascade_weight_multiplier=4.00000000000000022204e-01
cascade_activation_functions_count=10
cascade_activation_functions=3 5 7 8 10 11 14 15 16 17 
cascade_activation_steepnesses_count=4
cascade_activation_steepnesses=2.50000000000000000000e-01 5.00000000000000000000e-01 7.50000000000000000000e-01 1.00000000000000000000e+00 
layer_sizes=2 201 2 
scale_included=0
neurons (num_inputs, activation_function, activation_steepness)=(0, 0, 0.00000000000000000000e+00) (0, 0, 0.00000000000000000000e+00) (2, 4, 5.00000000000000000000e-01) (2, 4, 5.00000000000000000000e-01) (2, 4, 5.00000000000000000000e-01) (2, 4, 5.00000000000000000000e-01) (2, 4, 5.00000000000000000000e-01) (2, 4, 5.00000000000000000000e-01) (2, 4, 5.00000000000000000000e-01) (2, 4, 5.00000000000000000000e-01) (2, 4, 5.00000000000000000000e-01) (2, 4, 5.00000000000000000000e-01) (2, 4, 5.00000000000000000000e-01) (2, 4, 5.00000000000000000000e-01) (2, 4, 5.00000000000000000000e-01) (2, 4, 5.00000000000000000000e-01) (2, 4, 5.00000000000000000000e-01) (2, 4, 5.00000000000000000000e-01) (2, 4, 5.00000000000000000000e-01) (2, 4, 5.00000000000000000000e-01) (2, 4, 5.00000000000000000000e-01) (2, 4, 5.00000000000000000000e-01) (2, 4, 5.00000000000000000000e-01) (2, 4, 5.00000000000000000000e-01) (2, 4, 5.00000000000000000000e-01) (2, 4, 5.00000000000000000000e-01) (2, 4, 5.00000000000000000000e-01) (2, 4, 5.00000000000000000000e-01) (2, 4, 5.00000000000000000000e-01) (2, 4, 5.00000000000000000000e-01) (2, 4, 5.00000000000000000000e-01) (2, 4, 5.00000000000000000000e-01) (2, 4, 5.00000000000000000000e-01) (2, 4, 5.00000000000000000000e-01) (2, 4, 5.00000000000000000000e-01) (2, 4, 5.00000000000000000000e-01) (2, 4, 5.00000000000000000000e-01) (2, 4, 5.00000000000000000000e-01) (2, 4, 5.00000000000000000000e-01) (2, 4, 5.00000000000000000000e-01) (2, 4, 5.00000000000000000000e-01) (2, 4, 5.00000000000000000000e-01) (2, 4, 5.00000000000000000000e-01) (2, 4, 5.00000000000000000000e-01) (2, 4, 5.00000000000000000000e-01) (2, 4, 5.00000000000000000000e-01) (2, 4, 5.00000000000000000000e-01) (2, 4, 5.00000000000000000000e-01) (2, 4, 5.00000000000000000000e-01) (2, 4, 5.00000000000000000000e-01) (2, 4, 5.00000000000000000000e-01) (2, 4, 5.00000000000000000000e-01) (2, 4, 5.00000000000000000000e-01) (2, 4, 5.00000000000000000000e-01) (2, 4, 5.00000000000000000000e-01) (2, 4, 5.00000000000000000000e-01) (2, 4, 5.00000000000000000000e-01) (2, 4, 5.00000000000000000000e-01) (2, 4, 5.00000000000000000000e-01) (2, 4, 5.00000000000000000000e-01) (2, 4, 5.00000000000000000000e-01) (2, 4, 5.00000000000000000000e-01) (2, 4, 5.00000000000000000000e-01) (2, 4, 5.00000000000000000000e-01) (2, 4, 5.00000000000000000000e-01) (2, 4, 5.00000000000000000000e-01) (2, 4, 5.00000000000000000000e-01) (2, 4, 5.00000000000000000000e-01) (2, 4, 5.00000000000000000000e-01) (2, 4, 5.00000000000000000000e-01) (2, 4, 5.00000000000000000000e-01) (2, 4, 5.00000000000000000000e-01) (2, 4, 5.00000000000000000000e-01) (2, 4, 5.00000000000000000000e-01) (2, 4, 5.00000000000000000000e-01) (2, 4, 5.00000000000000000000e-01) (2, 4, 5.00000000000000000000e-01) (2, 4, 5.00000000000000000000e-01) (2, 4, 5.00000000000000000000e-01) (2, 4, 5.00000000000000000000e-01) (2, 4, 5.00000000000000000000e-01) (2, 4, 5.00000000000000000000e-01) (2, 4, 5.00000000000000000000e-01) (2, 4, 5.00000000000000000000e-01) (2, 4, 5.00000000000000000000e-01) (2, 4, 5.00000000000000000000e-01) (2, 4, 5.00000000000000000000e-01) (2, 4, 5.00000000000000000000e-01) (2, 4, 5.00000000000000000000e-01) (2, 4, 5.00000000000000000000e-01) (2, 4, 5.00000000000000000000e-01) (2, 4, 5.00000000000000000000e-01) (2, 4, 5.00000000000000000000e-01) (2, 4, 5.00000000000000000000e-01) (2, 4, 5.00000000000000000000e-01) (2, 4, 5.00000000000000000000e-01) (2, 4, 5.00000000000000000000e-01) (2, 4, 5.00000000000000000000e-01) (2, 4, 5.00000000000000000000e-01) (2, 4, 5.00000000000000000000e-01) (2, 4, 5.00000000000000000000e-01) (2, 4, 5.00000000000000000000e-01) (2, 4, 5.00000000000000000000e-01) (2, 4, 5.00000000000000000000e-01) (2, 4, 5.00000000000000000000e-01) (2, 4, 5.00000000000000000000e-01) (2, 4, 5.00000000000000000000e-01) (2, 4, 5.00000000000000000000e-01) (2, 4, 5.00000000000000000000e-01) (2, 4, 5.00000000000000000000e-01) (2, 4, 5.00000000000000000000e-01) (2, 4, 5.00000000000000000000e-01) (2, 4, 5.00000000000000000000e-01) (2, 4, 5.00000000000000000000e-01) (2, 4, 5.00000000000000000000e-01) (2, 4, 5.00000000000000000000e-01) (2, 4, 5.00000000000000000000e-01) (2, 4, 5.00000000000000000000e-01) (2, 4, 5.00000000000000000000e-01) (2, 4, 5.00000000000000000000e-01) (2, 4, 5.00000000000000000000e-01) (2, 4, 5.00000000000000000000e-01) (2, 4, 5.00000000000000000000e-01) (2, 4, 5.00000000000000000000e-01) (2, 4, 5.00000000000000000000e-01) (2, 4, 5.00000000000000000000e-01) (2, 4, 5.00000000000000000000e-01) (2, 4, 5.00000000000000000000e-01) (2, 4, 5.00000000000000000000e-01) (2, 4, 5.00000000000000000000e-01) (2, 4, 5.00000000000000000000e-01) (2, 4, 5.00000000000000000000e-01) (2, 4, 5.00000000000000000000e-01) (2, 4, 5.00000000000000000000e-01) (2, 4, 5.00000000000000000000e-01) (2, 4, 5.00000000000000000000e-01) (2, 4, 5.00000000000000000000e-01) (2, 4, 5.00000000000000000000e-01) (2, 4, 5.00000000000000000000e-01) (2, 4, 5.00000000000000000000e-01) (2, 4, 5.00000000000000000000e-01) (2, 4, 5.00000000000000000000e-01) (2, 4, 5.00000000000000000000e-01) (2, 4, 5.00000000000000000000e-01) (2, 4, 5.00000000000000000000e-01) (2, 4, 5.00000000000000000000e-01) (2, 4, 5.00000000000000000000e-01) (2, 4, 5.00000000000000000000e-01) (2, 4, 5.00000000000000000000e-01) (2, 4, 5.00000000000000000000e-01) (2, 4, 5.00000000000000000000e-01) (2, 4, 5.00000000000000000000e-01) (2, 4, 5.00000000000000000000e-01) (2, 4, 5.00000000000000000000e-01) (2, 4, 5.00000000000000000000e-01) (2, 4, 5.00000000000000000000e-01) (2, 4, 5.00000000000000000000e-01) (2, 4, 5.00000000000000000000e-01) (2, 4, 5.00000000000000000000e-01) (2, 4, 5.00000000000000000000e-01) (2, 4, 5.00000000000000000000e-01) (2, 4, 5.00000000000000000000e-01) (2, 4, 5.00000000000000000000e-01) (2, 4, 5.00000000000000000000e-01) (2, 4, 5.00000000000000000000e-01) (2, 4, 5.00000000000000000000e-01) (2, 4, 5.00000000000000000000e-01) (2, 4, 5.00000000000000000000e-01) (2, 4, 5.00000000000000000000e-01) (2, 4, 5.00000000000000000000e-01) (2, 4, 5.00000000000000000000e-01) (2, 4, 5.00000000000000000000e-01) (2, 4, 5.00000000000000000000e-01) (2, 4, 5.00000000000000000000e-01) (2, 4, 5.00000000000000000000e-01) (2, 4, 5.00000000000000000000e-01) (2, 4, 5.00000000000000000000e-01) (2, 4, 5.00000000000000000000e-01) (2, 4, 5.00000000000000000000e-01) (2, 4, 5.00000000000000000000e-01) (2, 4, 5.00000000000000000000e-01) (2, 4, 5.00000000000000000000e-01) (2, 4, 5.00000000000000000000e-01) (2, 4, 5.00000000000000000000e-01) (2, 4, 5.00000000000000000000e-01) (2, 4, 5.00000000000000000000e-01) (2, 4, 5.00000000000000000000e-01) (2, 4, 5.00000000000000000000e-01) (2, 4, 5.00000000000000000000e-01) (2, 4, 5.00000000000000000000e-01) (2, 4, 5.00000000000000000000e-01) (2, 4, 5.00000000000000000000e-01) (2, 4, 5.00000000000000000000e-01) (2, 4, 5.00000000000000000000e-01) (2, 4, 5.00000000000000000000e-01) (2, 4, 5.00000000000000000000e-01) (2, 4, 5.00000000000000000000e-01) (2, 4, 5.00000000000000000000e-01) (2, 4, 5.00000000000000000000e-01) (2, 4, 5.00000000000000000000e-01) (2, 4, 5.00000000000000000000e-01) (2, 4, 5.00000000000000000000e-01) (0, 0, 0.00000000000000000000e+00) (201, 4, 5.00000000000000000000e-01) (0, 0, 0.00000000000000000000e+00) 
connections (connected_to_neuron, weight)=(0, -2.10710215622744456709e+00) (1, 1.26182852461029670899e+00) (0, -1.74659482653951481090e+00) (1, -4.55042996254262921418e-01) (0, 2.43692954399362982087e+00) (1, -4.50765698355608424031e-01) (0, -1.86301666910667340638e+00) (1, -2.28573807320561900314e-01) (0, -1.78483474770162175993e+00) (1, -3.00815468418532960815e-01) (0, -2.21687959722717264910e+00) (1, 5.62884984377028108060e-02) (0, 2.43660869219080389314e+00) (1, -4.43235858482294520222e-01) (0, -1.22183929777801969507e+00) (1, -1.18610630510511594338e+00) (0, -1.68818171837899755339e+00) (1, -4.53366530823642088777e-01) (0, -1.88741234571836247191e+00) (1, -2.11803627658840143422e-01) (0, -1.69969873645875524382e+00) (1, -4.20190054168585180872e-01) (0, -1.85159085464040873426e+00) (1, -2.35352896890607565794e-01) (0, -1.25024350213689361411e+00) (1, -1.20754198560763081893e+00) (0, 2.35672260076829420683e+00) (1, -3.41492890519075720235e-01) (0, -2.18092658132972516682e+00) (1, 1.33070871698303200281e-01) (0, -1.93691721239487524286e+00) (1, -2.01693230346199375846e-01) (0, -1.69154875496003698210e+00) (1, -4.43425896754148785028e-01) (0, -1.69433235892627309660e+00) (1, -4.27597093572500530634e-01) (0, -2.11938657501672578221e+00) (1, -5.23323060629723585402e-02) (0, -2.46146840591200843917e+00) (1, 1.63915724144514296512e+00) (0, -1.18884703033222494106e+00) (1, -1.18809127311385132053e+00) (0, -2.15994796320298032555e+00) (1, 1.29159962161471031372e+00) (0, -1.95386226090528802857e+00) (1, -2.87907971301855691859e-01) (0, -2.22454678529833671519e+00) (1, 1.20029894852841198527e-01) (0, 3.05385276260715077257e+00) (1, -9.56873865622331343239e-01) (0, -1.71055312568236028703e+00) (1, -3.21873695136919490967e-01) (0, -1.80682983661908869166e+00) (1, -2.96515748641458409818e-01) (0, -1.82084403946046857747e+00) (1, -2.09019774958697224232e-01) (0, 3.08992298650484720213e+00) (1, -1.24515398320771852880e+00) (0, -1.84158489122037938301e+00) (1, -1.99411336163665353638e-01) (0, -1.88061470938483643600e+00) (1, -2.13184887522982285946e-01) (0, -1.95330179843046503052e+00) (1, -2.68130621174158700892e-01) (0, -1.90329205232598641651e+00) (1, -3.54375979164423593470e-01) (0, 2.36360448844405901525e+00) (1, -4.04867048674468377190e-01) (0, -1.90629456592360835288e+00) (1, -2.14440798304448898559e-01) (0, 3.13974885043047713395e+00) (1, -1.18564299368179870697e+00) (0, 2.55868831057582823973e+00) (1, -4.97874736812934370889e-01) (0, 2.54025698535469057759e+00) (1, -5.05444158095895157423e-01) (0, -1.91037165799538466437e+00) (1, -2.50561804548260325110e-01) (0, -1.76130299284105418245e+00) (1, -3.07279265394586220683e-01) (0, -1.80078376922045135800e+00) (1, -3.30974869866536569596e-01) (0, 2.46869766049411820674e+00) (1, -4.08834531930312439219e-01) (0, 2.35827182290205694670e+00) (1, -3.80203108602408634820e-01) (0, -1.71057084085891086822e+00) (1, -1.54092484924891665043e-01) (0, -1.91178426517410215979e+00) (1, -2.09689685539801690117e-01) (0, 2.40787292786613882356e+00) (1, -4.05403970879488428913e-01) (0, -1.86694749510665602976e+00) (1, -2.94523888305184000647e-01) (0, 2.39648840643743188394e+00) (1, -3.61280157369547216817e-01) (0, -1.87947071011085409253e+00) (1, -1.72012430403383570487e-01) (0, -1.80809136892575983424e+00) (1, -2.98978105924096959622e-01) (0, -2.14804810035638515942e+00) (1, 1.28064104576269421898e+00) (0, -1.79869036788959291151e+00) (1, -2.96876785133036169562e-01) (0, -2.30395959637406022580e+00) (1, 8.64229894692585126625e-02) (0, -1.87603022066167213211e+00) (1, -2.41378379512783070027e-01) (0, -1.91605298848054772520e+00) (1, -1.75055456806179010609e-01) (0, -2.20859871316022404741e+00) (1, 1.31915896665810872257e+00) (0, -1.89210182121773384800e+00) (1, -2.63264247253891581213e-01) (0, -1.81131624097842935939e+00) (1, -2.99537331602540868314e-01) (0, -1.45440900060191857790e+00) (1, -9.33197661859219151914e-01) (0, 2.98390228760696452071e+00) (1, -8.07709903103723481088e-01) (0, -1.71411349197554119250e+00) (1, -4.41800147445862323448e-01) (0, -1.93414368840791994764e+00) (1, -2.77916198828997262904e-01) (0, -2.05862893628040799499e+00) (1, 1.19629671945263482691e+00) (0, -2.22618645818265559200e+00) (1, 1.38634873828977278620e+00) (0, 2.41742755242363394075e+00) (1, -4.20813298922949274861e-01) (0, -1.89364027219750741260e+00) (1, -3.36896328488173135707e-01) (0, 2.40908633687273443513e+00) (1, -4.11627828282289942585e-01) (0, -2.22964716346295954708e+00) (1, 1.38006908940472960978e+00) (0, -2.15679193876226493742e+00) (1, -5.00180319228051284419e-02) (0, 2.98546560937089466847e+00) (1, -8.06240946633233979135e-01) (0, -1.88575443906000472793e+00) (1, -2.75314600244518870031e-01) (0, -1.69559549113440044543e+00) (1, -4.99948248114594429037e-01) (0, -1.91668293465799499664e+00) (1, 2.70760462827375536499e-01) (0, -1.73310362120794780871e+00) (1, -4.09445818646798409546e-01) (0, 3.08712288322787919981e+00) (1, -9.85957899886419131263e-01) (0, 2.55911267003664066877e+00) (1, -5.35415962365493713904e-01) (0, -2.14102712908719894358e+00) (1, 3.18481240936764400939e-02) (0, -1.89527206775954559781e+00) (1, -2.38809221820433792427e-01) (0, -1.83575520572474659708e+00) (1, -3.38817754225333500617e-01) (0, -1.86457409004588048340e+00) (1, -2.04659756992014246757e-01) (0, -1.95226530346014337525e+00) (1, -2.47811300912680249064e-01) (0, -1.87710304239193770393e+00) (1, -3.04821704551931971228e-01) (0, -2.22778401805922499079e+00) (1, 1.39892444749205324683e+00) (0, -2.23786709219875135091e+00) (1, 1.38799241531539940819e-01) (0, 2.35026014507618308258e+00) (1, -3.44789762236498209536e-01) (0, -1.85012934769410986036e+00) (1, -2.31329851589170187864e-01) (0, 2.38698025860170037760e+00) (1, -3.64504887861185400411e-01) (0, -1.91827059897520380005e+00) (1, -2.98784582176985391566e-01) (0, -1.87837475073746063003e+00) (1, -2.45484502451022490455e-01) (0, -2.16953348384531574666e+00) (1, 1.31074706213870362248e+00) (0, -1.86299059363800267874e+00) (1, -3.04180652872082346594e-01) (0, -2.13222806005903198212e+00) (1, 1.29497173418133426637e+00) (0, 2.52984488263400875141e+00) (1, -4.73045907941684162790e-01) (0, 2.35768878516802526946e+00) (1, -3.79326145463828312554e-01) (0, 3.07683109822612355089e+00) (1, -1.05273764480755271933e+00) (0, -1.52189287660647987188e+00) (1, -5.79963415887023825412e-01) (0, 2.47729252652355613762e+00) (1, -5.22804557484560894487e-01) (0, -1.72614376110065093073e+00) (1, -4.39036965521042377159e-01) (0, 2.56920030360442464001e+00) (1, -5.13806756813107834425e-01) (0, -1.90036770356456163888e+00) (1, -2.01905349249170945614e-01) (0, -2.10166614392732453709e+00) (1, -2.62415975213263208410e-02) (0, -2.20834692239563690208e+00) (1, 1.38120227296679232154e+00) (0, -1.26734004781227937997e+00) (1, -1.16851298282894511260e+00) (0, -1.88710324348113789306e+00) (1, -2.16750500250812466740e-01) (0, -1.60796895514941051708e+00) (1, -6.67864030994877677649e-01) (0, -2.18496930615337925374e+00) (1, 1.32491723482171330772e+00) (0, 2.46051169422189675018e+00) (1, -3.92118106560816193085e-01) (0, 3.16437997814558702458e+00) (1, -1.21028398596561936884e+00) (0, 2.60905108993273993079e+00) (1, -5.41742369759856678968e-01) (0, -2.42510978163311596845e+00) (1, 1.64602936554249934531e+00) (0, -2.18545260915492889353e+00) (1, -2.36761616703866223377e-02) (0, 2.55932494792202547274e+00) (1, -5.34716415183653759335e-01) (0, -1.74277738054918773791e+00) (1, -3.95664490910236921195e-01) (0, -2.10794751400313273848e+00) (1, 1.25399742796112678711e+00) (0, -2.10973208451828853072e+00) (1, 1.26068633570362709229e+00) (0, -1.77910426122176756891e+00) (1, -3.46114389749234141469e-01) (0, -1.94367438170053774549e+00) (1, -2.60215832153143533656e-01) (0, -2.20283276477788803049e+00) (1, 6.75150363089682820084e-02) (0, -1.75936380042677087410e+00) (1, -3.14377960101322462272e-01) (0, -1.86612160543818395020e+00) (1, -2.13171445569959289168e-01) (0, -2.17722627410625335642e+00) (1, 3.58978642465712302623e-02) (0, -1.24378676925994269276e+00) (1, -1.13263256052831406961e+00) (0, -1.75991286004800540077e+00) (1, -3.63469672176989111456e-01) (0, 3.07351593818806367864e+00) (1, -1.16217452161825729462e+00) (0, -1.83720534707326699220e+00) (1, -2.18829525984959027962e-01) (0, -1.84840205724258321851e+00) (1, -2.01906128205494334038e-01) (0, 3.13926689657312074644e+00) (1, -1.32211342928029607080e+00) (0, 3.09700079965334484910e+00) (1, -1.06050299008295501046e+00) (0, -2.16304961828860697892e+00) (1, 4.88239609508519453729e-02) (0, -2.12378924230073762303e+00) (1, -4.79238124249337371641e-02) (0, 2.45049666657327103181e+00) (1, -3.72084990170821472422e-01) (0, -2.18653858296115943816e+00) (1, -1.77496748946884708859e-03) (0, -2.20543626932773051408e+00) (1, 5.75543854123840639692e-02) (0, -1.82327387894410897218e+00) (1, -2.71430359027353185208e-01) (0, 2.31050847527632452483e+00) (1, -3.37896885642996247512e-01) (0, -2.29141353291774629852e+00) (1, 1.29308332883223497944e+00) (0, -1.44251566803593522792e+00) (1, -8.74303731083648560940e-01) (0, -2.16968670921530204510e+00) (1, 1.29114964139222432316e+00) (0, -1.84639387245197150733e+00) (1, -2.49173954865899910383e-01) (0, -1.81146304824922155241e+00) (1, -2.59324521828133647272e-01) (0, -1.18618164472832021694e+00) (1, -1.19107906396663643100e+00) (0, -1.55746092629782428851e+00) (1, -5.72285868293246680061e-01) (0, -2.22507724008996943255e+00) (1, 7.81718993517196286680e-02) (0, -1.47938648282402174239e+00) (1, -8.72884615880673009336e-01) (0, -1.59921628916457936320e+00) (1, -5.28187803989848325692e-01) (0, -1.70994671007322796008e+00) (1, -4.63365667004750458879e-01) (0, -1.78518718148488741981e+00) (1, -3.48185346267190831693e-01) (0, 3.11174738552712248918e+00) (1, -1.20630453401125459223e+00) (0, 3.17308939393900679704e+00) (1, -1.23110137008942199799e+00) (0, 2.56704922965416004743e+00) (1, -5.45649014440403257176e-01) (0, -2.12797567883466554051e+00) (1, -9.95075232669954089226e-03) (0, 3.09094751584273019773e+00) (1, -1.22590973702289263159e+00) (0, -2.12052196280392291072e+00) (1, 1.24730332689681389091e+00) (0, -1.79195461740421779773e+00) (1, -3.18208221479306663237e-01) (0, 2.58336164449673910681e+00) (1, -5.04137750942288742628e-01) (0, 2.58969039862376471106e+00) (1, -5.36782741773902394300e-01) (0, -1.93722708138563448621e+00) (1, -3.00492605427088388392e-01) (0, -1.89464106234508689042e+00) (1, -2.53641330674645060217e-01) (0, -1.89342898783496216275e+00) (1, -2.61399568096157663977e-01) (0, -2.23560292908882018992e+00) (1, 9.94492901804092527263e-02) (0, 2.55025522454856279353e+00) (1, -5.24159968126594377757e-01) (0, -1.90667450083056788657e+00) (1, -1.99869042179952438598e-01) (0, 2.36083638065234646675e+00) (1, -3.48642393154077856465e-01) (0, 2.54526256789785687573e+00) (1, -4.41244892803058064157e-01) (0, -1.96514195629755894501e+00) (1, -1.74995535090919834831e-01) (0, 2.55724859070445909026e+00) (1, -5.30093515987552388324e-01) (0, -1.61852481305124018540e+00) (1, -6.16055591208808261960e-01) (0, -1.76975111330766421425e+00) (1, -3.15808579156781843444e-01) (0, -1.76213391443418987414e+00) (1, -3.73731680650876474381e-01) (0, 2.52798888340267025043e+00) (1, -4.66759264496192372018e-01) (0, 2.57242054325010194304e+00) (1, -5.53582355407104986789e-01) (0, -1.70904762012998290288e+00) (1, -4.28476940973649189637e-01) (0, -1.90026271044507533148e+00) (1, -2.73869154533671610441e-01) (0, -1.18396543937606368857e+00) (1, -1.30945342551025767364e+00) (0, -1.81544534529466394801e+00) (1, -2.97222995004621404203e-01) (0, 3.03594005625985907670e+00) (1, -1.10000046961821129621e+00) (0, 3.07814213219028065538e+00) (1, -1.24593810466148058325e+00) (0, -1.65555497347833369126e+00) (1, -5.81778737615010865802e-01) (0, -1.86444299576094940640e+00) (1, -2.94465982751448918098e-01) (0, 2.49151040974575588294e+00) (1, -4.35812495876132188766e-01) (0, -1.91397837701811379674e+00) (1, -3.53304796936715348465e-01) (0, -1.95993277436426538429e+00) (1, -2.37602984765352548413e-01) (0, -1.48083551956183590015e+00) (1, -8.85997607928936559141e-01) (0, -1.77783755728576253752e+00) (1, -2.99369524409655196617e-01) (0, -2.19153517500790240291e+00) (1, 1.32832665490308166056e+00) (0, -1.87880547757167715162e+00) (1, -1.91090323767629244323e-01) (0, -1.91030155775359444803e+00) (1, -2.38738664463516658820e-01) (0, -1.80992279614228968043e+00) (1, -2.80326691243799719366e-01) (0, 3.11019965591769764757e+00) (1, -1.25517882880784648059e+00) (0, -1.90375637171080924759e+00) (1, -2.34454148845275101021e-01) (0, -1.94660256483952442963e+00) (1, -1.83476024344917637565e-01) (0, -1.93190767296950216547e+00) (1, -2.06431382373329502800e-01) (0, 2.60061512534838934485e+00) (1, -5.24963200319587541820e-01) (0, -1.84429198941965699632e+00) (1, -3.23982713208993244880e-01) (0, -1.59884124929796533898e+00) (1, -6.93647968419298988074e-01) (0, -1.77873631979245883095e+00) (1, -3.29342094037683996710e-01) (0, -1.86222889182380035855e+00) (1, -2.81981961266597080940e-01) (0, -1.83999211249163852067e+00) (1, -3.47857163325306528723e-01) (0, -1.46546664551818861533e+00) (1, -9.10244255882923680723e-01) (0, 3.11617239710234450456e+00) (1, -1.28599521246768566662e+00) (2, 4.50609474496514395003e-01) (3, 2.99136167894720694793e-01) (4, -8.71217434142630559046e-02) (5, 1.10999784559489431124e-01) (6, 1.64325373764564158785e-01) (7, 2.88610071831793157937e-01) (8, -9.75510810349982521172e-02) (9, 1.09877563435347450072e-01) (10, 1.74008828930728526307e-01) (11, 1.32559845102550810658e-01) (12, 1.62464698188178657823e-01) (13, 1.10599991209366213529e-01) (14, 8.66901453912222313969e-02) (15, -7.48587523551868111449e-02) (16, 1.56518027135787912707e-01) (17, 2.13971813402021537875e-01) (18, 1.78564613096587748720e-01) (19, 1.82138626806609693620e-01) (20, 1.65833513474306637470e-01) (21, 4.24616641418606832747e-01) (22, 1.05120848877573350166e-01) (23, 3.50747511584314164423e-01) (24, 2.49035673655523009939e-01) (25, 1.53378639920442205735e-01) (26, -1.13990920118530819627e-01) (27, 1.89093128058686082982e-01) (28, 1.28852893328810863549e-01) (29, 9.43139466946985721707e-02) (30, -1.09940501383980343553e-01) (31, 1.14559115639711397994e-01) (32, 1.14618250978710575771e-01) (33, 2.57958593286527371191e-01) (34, 2.45015861906064696951e-01) (35, -9.41883210872214576836e-02) (36, 2.13458828812790268881e-01) (37, -1.18015720031698800874e-01) (38, -8.47692017408298165160e-02) (39, -9.58564911817115089532e-02) (40, 2.07059120020712028598e-01) (41, 1.05432671636905880841e-01) (42, 1.85206539662983726835e-01) (43, -9.70388402195858507104e-02) (44, -1.11651722047190024578e-01) (45, 1.72535936972700115755e-01) (46, 2.40323175868833616153e-01) (47, -1.04888971600393579586e-01) (48, 1.98600373820245867940e-01) (49, -1.04912202510694788082e-01) (50, 1.06719172686816396456e-01) (51, 1.30909551596785717065e-01) (52, 8.73100417970742226359e-01) (53, 9.83568473817360150457e-02) (54, 1.78725335380866157120e-01) (55, 1.25325855142929432073e-01) (56, 1.35900836713173212011e-01) (57, 4.52790035919816091781e-01) (58, 2.59756969727529263281e-01) (59, 1.41936070412875342539e-01) (60, 1.21283686520827285737e-01) (61, -1.17998468212326623750e-01) (62, 1.67656267579127910006e-01) (63, 2.63821872390760159277e-01) (64, 4.52452658729226186995e-01) (65, 8.70749275504673958537e-01) (66, -9.93412022326987526055e-02) (67, 2.66958954252256075446e-01) (68, -9.67994366620581886407e-02) (69, 8.67594088732327461955e-01) (70, 2.89432690435499517800e-01) (71, -1.15164148143967248750e-01) (72, 2.16563053087175438893e-01) (73, 1.41821821389228164279e-01) (74, 3.04234385098909709821e-01) (75, 1.78536715503265025484e-01) (76, -1.22479143075188257050e-01) (77, -1.01550069913475524142e-01) (78, 1.54919211371629284013e-01) (79, 1.30297134342638065707e-01) (80, 1.70063594999757844439e-01) (81, 9.86502535049926937427e-02) (82, 2.45166736163152404471e-01) (83, 2.24881564459646354770e-01) (84, 4.41784306482941702132e-01) (85, 1.65125642815699053001e-01) (86, -1.05005483779768274410e-01) (87, 1.38923666567088294199e-01) (88, -9.02613882754843693812e-02) (89, 2.71392198719037747168e-01) (90, 1.03556227214195675779e-01) (91, 8.54955139874543190714e-01) (92, 2.32116420945966850375e-01) (93, 4.38216119126946523910e-01) (94, -8.60547174664424846524e-02) (95, -1.01491126868585898602e-01) (96, -1.20987533114393808198e-01) (97, 1.64815537039762372018e-01) (98, -1.05068940374712274655e-01) (99, 1.69736653300431139524e-01) (100, -9.99146156949059366381e-02) (101, 1.16452211392643376064e-01) (102, 1.54839581137329124205e-01) (103, 4.53568852560193136458e-01) (104, 7.54762221728508403418e-02) (105, 1.26931229484798818730e-01) (106, 1.71133145424034960325e-01) (107, 8.54684944569195748088e-01) (108, -8.37082241626666695433e-02) (109, -1.07329579524239132615e-01) (110, -9.35885420290469283167e-02) (111, 1.41091240954310537248e+00) (112, 2.62406210133301898146e-01) (113, -8.84202529524367314417e-02) (114, 1.75790304835368754732e-01) (115, 4.35804857926041677718e-01) (116, 4.53167318420083120589e-01) (117, 1.69530562790539629514e-01) (118, 2.38897430218709655447e-01) (119, 1.60108957989900074770e-01) (120, 1.25128013223972517354e-01) (121, 1.07613123149157705050e-01) (122, 1.60198186143128834535e-01) (123, 1.12438447195799720579e-01) (124, 1.25955615854407509957e-01) (125, -1.22912018082579233003e-01) (126, 9.64155092002403762974e-02) (127, 1.22169829100848378878e-01) (128, -1.15301317058046914887e-01) (129, -1.15947561792572595429e-01) (130, 1.53426468321739201128e-01) (131, 1.57012905216059345248e-01) (132, -8.86746023746418227107e-02) (133, 2.83872664862722723367e-01) (134, 1.75684777859933888289e-01) (135, 1.16813085169078054171e-01) (136, -1.02773379239897086346e-01) (137, 3.96355548958488790312e-01) (138, 7.22006355203640010076e-02) (139, 4.47065486626298025374e-01) (140, 1.18853337258578481417e-01) (141, 1.97696617438495203523e-01) (142, 1.14187791956806519722e-01) (143, 1.65037366963309034551e-01) (144, 2.05691211502056769955e-01) (145, 7.33746331407417323733e-02) (146, 1.63294326343064760687e-01) (147, 1.90354563029911827421e-01) (148, 9.93127121688377606512e-02) (149, -1.10017592541416714402e-01) (150, -1.12364529154738046479e-01) (151, -1.05191563531963808154e-01) (152, 1.51564191317400703829e-01) (153, -1.17392743460377313447e-01) (154, 8.68804115175332070109e-01) (155, 1.88110209735539268827e-01) (156, -9.69645538365595111019e-02) (157, -9.64222932605932614436e-02) (158, 2.35801356352819152518e-01) (159, 2.21005623421514585392e-01) (160, 1.33582616868463566195e-01) (161, 1.67347927196710072328e-01) (162, -8.90488435362380009730e-02) (163, 1.79454200185851064919e-01) (164, -8.52207069250034005004e-02) (165, -7.55376939626620641510e-02) (166, 2.41524343571508481876e-01) (167, -1.08075027629940492724e-01) (168, 1.82693034144547294950e-01) (169, 1.31766591882849837258e-01) (170, 1.65072723957207512235e-01) (171, -8.59825138898776958341e-02) (172, -7.97589176339164179774e-02) (173, 2.24212999472567481307e-01) (174, 2.27605362615430961704e-01) (175, 8.36392347370331218359e-02) (176, 1.14696598738909902315e-01) (177, -1.17907548777302362275e-01) (178, -1.18866870633801080537e-01) (179, 1.80729083450939964628e-01) (180, 1.50458137217012399844e-01) (181, -8.39987521024631172972e-02) (182, 2.63813050903333401465e-01) (183, 2.40877243198407836600e-01) (184, 8.11709132267822291995e-02) (185, 1.60059253271152168718e-01) (186, 8.62033608674134255168e-01) (187, 9.88653368656646908130e-02) (188, 2.33083404258668969167e-01) (189, 1.33405332183982067162e-01) (190, -1.15365254215439416718e-01) (191, 1.61486382308450721057e-01) (192, 2.42567529163206174747e-01) (193, 1.99209531030500514026e-01) (194, -1.03947114035272542010e-01) (195, 2.40803531960428307546e-01) (196, 2.45272536318831391178e-01) (197, 1.37732256865645635857e-01) (198, 1.41188856489517511328e-01) (199, 1.63074354353395595263e-01) (200, 8.10122009589065578128e-02) (201, -1.22027049295147516084e-01) (202, -8.04870012724546168847e-02) 
