FANN_FLO_2.1
num_layers=3
learning_rate=0.700000
connection_rate=1.000000
network_type=0
learning_momentum=0.000000
training_algorithm=2
train_error_function=1
train_stop_function=0
cascade_output_change_fraction=0.010000
quickprop_decay=-0.000100
quickprop_mu=1.750000
rprop_increase_factor=1.200000
rprop_decrease_factor=0.500000
rprop_delta_min=0.000000
rprop_delta_max=50.000000
rprop_delta_zero=0.100000
cascade_output_stagnation_epochs=12
cascade_candidate_change_fraction=0.010000
cascade_candidate_stagnation_epochs=12
cascade_max_out_epochs=150
cascade_min_out_epochs=50
cascade_max_cand_epochs=150
cascade_min_cand_epochs=50
cascade_num_candidate_groups=2
bit_fail_limit=3.49999999999999977796e-01
cascade_candidate_limit=1.00000000000000000000e+03
cascade_weight_multiplier=4.00000000000000022204e-01
cascade_activation_functions_count=10
cascade_activation_functions=3 5 7 8 10 11 14 15 16 17 
cascade_activation_steepnesses_count=4
cascade_activation_steepnesses=2.50000000000000000000e-01 5.00000000000000000000e-01 7.50000000000000000000e-01 1.00000000000000000000e+00 
layer_sizes=2 201 2 
scale_included=0
neurons (num_inputs, activation_function, activation_steepness)=(0, 0, 0.00000000000000000000e+00) (0, 0, 0.00000000000000000000e+00) (2, 4, 5.00000000000000000000e-01) (2, 4, 5.00000000000000000000e-01) (2, 4, 5.00000000000000000000e-01) (2, 4, 5.00000000000000000000e-01) (2, 4, 5.00000000000000000000e-01) (2, 4, 5.00000000000000000000e-01) (2, 4, 5.00000000000000000000e-01) (2, 4, 5.00000000000000000000e-01) (2, 4, 5.00000000000000000000e-01) (2, 4, 5.00000000000000000000e-01) (2, 4, 5.00000000000000000000e-01) (2, 4, 5.00000000000000000000e-01) (2, 4, 5.00000000000000000000e-01) (2, 4, 5.00000000000000000000e-01) (2, 4, 5.00000000000000000000e-01) (2, 4, 5.00000000000000000000e-01) (2, 4, 5.00000000000000000000e-01) (2, 4, 5.00000000000000000000e-01) (2, 4, 5.00000000000000000000e-01) (2, 4, 5.00000000000000000000e-01) (2, 4, 5.00000000000000000000e-01) (2, 4, 5.00000000000000000000e-01) (2, 4, 5.00000000000000000000e-01) (2, 4, 5.00000000000000000000e-01) (2, 4, 5.00000000000000000000e-01) (2, 4, 5.00000000000000000000e-01) (2, 4, 5.00000000000000000000e-01) (2, 4, 5.00000000000000000000e-01) (2, 4, 5.00000000000000000000e-01) (2, 4, 5.00000000000000000000e-01) (2, 4, 5.00000000000000000000e-01) (2, 4, 5.00000000000000000000e-01) (2, 4, 5.00000000000000000000e-01) (2, 4, 5.00000000000000000000e-01) (2, 4, 5.00000000000000000000e-01) (2, 4, 5.00000000000000000000e-01) (2, 4, 5.00000000000000000000e-01) (2, 4, 5.00000000000000000000e-01) (2, 4, 5.00000000000000000000e-01) (2, 4, 5.00000000000000000000e-01) (2, 4, 5.00000000000000000000e-01) (2, 4, 5.00000000000000000000e-01) (2, 4, 5.00000000000000000000e-01) (2, 4, 5.00000000000000000000e-01) (2, 4, 5.00000000000000000000e-01) (2, 4, 5.00000000000000000000e-01) (2, 4, 5.00000000000000000000e-01) (2, 4, 5.00000000000000000000e-01) (2, 4, 5.00000000000000000000e-01) (2, 4, 5.00000000000000000000e-01) (2, 4, 5.00000000000000000000e-01) (2, 4, 5.00000000000000000000e-01) (2, 4, 5.00000000000000000000e-01) (2, 4, 5.00000000000000000000e-01) (2, 4, 5.00000000000000000000e-01) (2, 4, 5.00000000000000000000e-01) (2, 4, 5.00000000000000000000e-01) (2, 4, 5.00000000000000000000e-01) (2, 4, 5.00000000000000000000e-01) (2, 4, 5.00000000000000000000e-01) (2, 4, 5.00000000000000000000e-01) (2, 4, 5.00000000000000000000e-01) (2, 4, 5.00000000000000000000e-01) (2, 4, 5.00000000000000000000e-01) (2, 4, 5.00000000000000000000e-01) (2, 4, 5.00000000000000000000e-01) (2, 4, 5.00000000000000000000e-01) (2, 4, 5.00000000000000000000e-01) (2, 4, 5.00000000000000000000e-01) (2, 4, 5.00000000000000000000e-01) (2, 4, 5.00000000000000000000e-01) (2, 4, 5.00000000000000000000e-01) (2, 4, 5.00000000000000000000e-01) (2, 4, 5.00000000000000000000e-01) (2, 4, 5.00000000000000000000e-01) (2, 4, 5.00000000000000000000e-01) (2, 4, 5.00000000000000000000e-01) (2, 4, 5.00000000000000000000e-01) (2, 4, 5.00000000000000000000e-01) (2, 4, 5.00000000000000000000e-01) (2, 4, 5.00000000000000000000e-01) (2, 4, 5.00000000000000000000e-01) (2, 4, 5.00000000000000000000e-01) (2, 4, 5.00000000000000000000e-01) (2, 4, 5.00000000000000000000e-01) (2, 4, 5.00000000000000000000e-01) (2, 4, 5.00000000000000000000e-01) (2, 4, 5.00000000000000000000e-01) (2, 4, 5.00000000000000000000e-01) (2, 4, 5.00000000000000000000e-01) (2, 4, 5.00000000000000000000e-01) (2, 4, 5.00000000000000000000e-01) (2, 4, 5.00000000000000000000e-01) (2, 4, 5.00000000000000000000e-01) (2, 4, 5.00000000000000000000e-01) (2, 4, 5.00000000000000000000e-01) (2, 4, 5.00000000000000000000e-01) (2, 4, 5.00000000000000000000e-01) (2, 4, 5.00000000000000000000e-01) (2, 4, 5.00000000000000000000e-01) (2, 4, 5.00000000000000000000e-01) (2, 4, 5.00000000000000000000e-01) (2, 4, 5.00000000000000000000e-01) (2, 4, 5.00000000000000000000e-01) (2, 4, 5.00000000000000000000e-01) (2, 4, 5.00000000000000000000e-01) (2, 4, 5.00000000000000000000e-01) (2, 4, 5.00000000000000000000e-01) (2, 4, 5.00000000000000000000e-01) (2, 4, 5.00000000000000000000e-01) (2, 4, 5.00000000000000000000e-01) (2, 4, 5.00000000000000000000e-01) (2, 4, 5.00000000000000000000e-01) (2, 4, 5.00000000000000000000e-01) (2, 4, 5.00000000000000000000e-01) (2, 4, 5.00000000000000000000e-01) (2, 4, 5.00000000000000000000e-01) (2, 4, 5.00000000000000000000e-01) (2, 4, 5.00000000000000000000e-01) (2, 4, 5.00000000000000000000e-01) (2, 4, 5.00000000000000000000e-01) (2, 4, 5.00000000000000000000e-01) (2, 4, 5.00000000000000000000e-01) (2, 4, 5.00000000000000000000e-01) (2, 4, 5.00000000000000000000e-01) (2, 4, 5.00000000000000000000e-01) (2, 4, 5.00000000000000000000e-01) (2, 4, 5.00000000000000000000e-01) (2, 4, 5.00000000000000000000e-01) (2, 4, 5.00000000000000000000e-01) (2, 4, 5.00000000000000000000e-01) (2, 4, 5.00000000000000000000e-01) (2, 4, 5.00000000000000000000e-01) (2, 4, 5.00000000000000000000e-01) (2, 4, 5.00000000000000000000e-01) (2, 4, 5.00000000000000000000e-01) (2, 4, 5.00000000000000000000e-01) (2, 4, 5.00000000000000000000e-01) (2, 4, 5.00000000000000000000e-01) (2, 4, 5.00000000000000000000e-01) (2, 4, 5.00000000000000000000e-01) (2, 4, 5.00000000000000000000e-01) (2, 4, 5.00000000000000000000e-01) (2, 4, 5.00000000000000000000e-01) (2, 4, 5.00000000000000000000e-01) (2, 4, 5.00000000000000000000e-01) (2, 4, 5.00000000000000000000e-01) (2, 4, 5.00000000000000000000e-01) (2, 4, 5.00000000000000000000e-01) (2, 4, 5.00000000000000000000e-01) (2, 4, 5.00000000000000000000e-01) (2, 4, 5.00000000000000000000e-01) (2, 4, 5.00000000000000000000e-01) (2, 4, 5.00000000000000000000e-01) (2, 4, 5.00000000000000000000e-01) (2, 4, 5.00000000000000000000e-01) (2, 4, 5.00000000000000000000e-01) (2, 4, 5.00000000000000000000e-01) (2, 4, 5.00000000000000000000e-01) (2, 4, 5.00000000000000000000e-01) (2, 4, 5.00000000000000000000e-01) (2, 4, 5.00000000000000000000e-01) (2, 4, 5.00000000000000000000e-01) (2, 4, 5.00000000000000000000e-01) (2, 4, 5.00000000000000000000e-01) (2, 4, 5.00000000000000000000e-01) (2, 4, 5.00000000000000000000e-01) (2, 4, 5.00000000000000000000e-01) (2, 4, 5.00000000000000000000e-01) (2, 4, 5.00000000000000000000e-01) (2, 4, 5.00000000000000000000e-01) (2, 4, 5.00000000000000000000e-01) (2, 4, 5.00000000000000000000e-01) (2, 4, 5.00000000000000000000e-01) (2, 4, 5.00000000000000000000e-01) (2, 4, 5.00000000000000000000e-01) (2, 4, 5.00000000000000000000e-01) (2, 4, 5.00000000000000000000e-01) (2, 4, 5.00000000000000000000e-01) (2, 4, 5.00000000000000000000e-01) (2, 4, 5.00000000000000000000e-01) (2, 4, 5.00000000000000000000e-01) (2, 4, 5.00000000000000000000e-01) (2, 4, 5.00000000000000000000e-01) (2, 4, 5.00000000000000000000e-01) (2, 4, 5.00000000000000000000e-01) (2, 4, 5.00000000000000000000e-01) (2, 4, 5.00000000000000000000e-01) (2, 4, 5.00000000000000000000e-01) (2, 4, 5.00000000000000000000e-01) (2, 4, 5.00000000000000000000e-01) (2, 4, 5.00000000000000000000e-01) (2, 4, 5.00000000000000000000e-01) (2, 4, 5.00000000000000000000e-01) (2, 4, 5.00000000000000000000e-01) (2, 4, 5.00000000000000000000e-01) (2, 4, 5.00000000000000000000e-01) (2, 4, 5.00000000000000000000e-01) (2, 4, 5.00000000000000000000e-01) (2, 4, 5.00000000000000000000e-01) (0, 0, 0.00000000000000000000e+00) (201, 4, 5.00000000000000000000e-01) (0, 0, 0.00000000000000000000e+00) 
connections (connected_to_neuron, weight)=(0, -2.30881666711265975955e-01) (1, -8.65409463874440981757e-02) (0, 2.36199854536911635350e+00) (1, -7.90626017715619244797e+00) (0, 3.11926686872734670875e-01) (1, 8.21185485724237052008e-02) (0, 2.37683038636108934227e+00) (1, -7.82758989896462598068e+00) (0, 1.97575768224298187192e+00) (1, 2.57907719653291456208e-01) (0, 2.01560689807579551669e+00) (1, 1.76082157527340188441e-01) (0, 3.99740844845266785068e-01) (1, 8.34724103812005679970e-02) (0, -8.59823158569285261876e-01) (1, -2.76437001754414213295e-01) (0, -1.19857196941767538134e-01) (1, -2.21879791902096168421e-01) (0, 2.08071360938591309875e+00) (1, 1.21167569017467793846e-01) (0, -2.68072146394985502127e+01) (1, -7.02984530349873959487e-01) (0, -7.59607326495044921089e-01) (1, -3.51144764131727127321e-01) (0, -7.86691487752301465974e-01) (1, -3.02090797245846975905e-01) (0, 2.29384602828880845848e+00) (1, -7.94570606168196924557e+00) (0, -1.49558034994955402208e-01) (1, -9.24672903487577246828e-02) (0, -2.94240601648648736344e-01) (1, -7.67122408174424341709e-01) (0, -7.67405873841881858155e-01) (1, -3.38957593015565938899e-01) (0, -8.21743750700963948574e-01) (1, -2.78940565583228605728e-01) (0, 3.14528358413789288495e-01) (1, 4.53222091974166615969e-02) (0, -3.68595295902902131413e-01) (1, -7.13977262830998604670e-01) (0, -8.87353250489993250483e-01) (1, -2.57315785383418316190e-01) (0, -7.58317356459440428118e-01) (1, -3.30747057274211608835e-01) (0, -2.40323312998191092049e+01) (1, -9.25394978430579606687e-01) (0, 1.95149779930270717010e+00) (1, 1.30612519612222071491e-02) (0, -9.53840210094605112090e+00) (1, -4.76161613001087591357e+00) (0, 1.88077339089197881350e+00) (1, 2.15123373228399694668e-01) (0, 1.83626572577244018269e+00) (1, 6.18202767931068791762e-02) (0, 3.29747939989937677296e-01) (1, 8.38735121123788396336e-02) (0, 1.98911931474702030620e+00) (1, 1.48395944742795354854e-01) (0, 2.01914932383949530248e+00) (1, 1.69366396456410078786e-01) (0, 1.87437513195701055402e+00) (1, 8.30047567367622751711e-02) (0, -8.93085515553333042504e-01) (1, -1.88567187006227821033e-01) (0, -8.33965121538950748814e-01) (1, -2.53163554688998870823e-01) (0, -2.41776230802148744958e-01) (1, -6.93021178535912385499e-01) (0, 1.88526743454444223325e+00) (1, 1.05656807576649053315e-01) (0, -7.96665498889924772463e-01) (1, -3.08003264404400123322e-01) (0, -8.77981272448295602118e-01) (1, -2.67064180727013100736e-01) (0, 2.08104186389660927858e+00) (1, 1.04835004374480747491e-01) (0, -3.96999992288877052715e+01) (1, -9.30400280865081752424e-01) (0, -1.40241316498534968060e-01) (1, -1.45478941921735854814e-01) (0, 2.84769078817924459202e-01) (1, 8.32712149027612369423e-02) (0, -1.81663574929224425070e+00) (1, -6.92055906399464570988e-01) (0, -2.70845153480653122458e+00) (1, -1.20977519271867373085e+00) (0, -3.97554327157545657201e+01) (1, -9.47532549103278776137e-01) (0, -3.94938461291573119638e+01) (1, 3.22622773393853234936e+00) (0, 2.34068447574040083836e+00) (1, -7.93191467936919458737e+00) (0, -8.43137071076885291632e-01) (1, -2.95257479538353462267e-01) (0, -1.34167596034676567252e-01) (1, -1.65384206252176702012e-01) (0, -3.97442004365134806676e+01) (1, -9.46534213444386152148e-01) (0, -4.84456645274490682596e+01) (1, 3.90721969965803284097e+00) (0, 2.36615258713346071628e-01) (1, 3.88814603690064986008e-02) (0, 1.94739449143639054007e+00) (1, 2.64362261568582557203e-01) (0, -8.72810540112773924903e-01) (1, -2.22424185162773013769e-01) (0, 2.33182980342766432713e+00) (1, -7.95227022435353525509e+00) (0, -2.22285287281612897736e-01) (1, -1.15133028434556514141e-01) (0, -1.39922612498519116642e-01) (1, -1.27043895831799619200e-01) (0, 2.04485941237751811528e+00) (1, 1.45691623736448949700e-01) (0, -1.49461261573667902880e-01) (1, -1.06348601169338294326e-01) (0, 1.90107557588065878562e+00) (1, 6.03229601209249108318e-02) (0, 3.61137154088391310047e-01) (1, 4.43924045499719255314e-02) (0, -3.48535582963532653000e-01) (1, -7.47716460667172899690e-01) (0, -8.08889627859759485773e-01) (1, -2.59771813704412102286e-01) (0, 1.91733154257439664114e+00) (1, 6.88256838526693642821e-02) (0, -3.97503472425271553448e+01) (1, -9.27268047622406110797e-01) (0, 1.90632071875403252825e+00) (1, 1.73391828311229789783e-01) (0, -3.10967232925738357174e-01) (1, -6.47033753224642294022e-01) (0, -1.21672606896310209201e-01) (1, -2.12292759219676607785e-01) (0, 1.83741976126951067627e+00) (1, 2.92673772442331760202e-02) (0, 3.10419586297572935862e-01) (1, -8.18582181154463572881e-02) (0, -4.60515593482995697627e+01) (1, -9.58211309461784788155e-01) (0, 2.03793492580715707163e+00) (1, 2.51680873861466591901e-01) (0, -1.80013742068063287149e+00) (1, -7.58545160659267247993e-01) (0, -1.68842331612328144796e-01) (1, -7.96996689501064836669e-01) (0, -1.88610279688470328097e+00) (1, -7.15693491335279263765e-01) (0, -8.89276340522432873215e-01) (1, -1.93004017968409047334e-01) (0, -8.74725835036129772959e-01) (1, -2.63094322963940197013e-01) (0, 3.11083700464578949418e-01) (1, 5.73036779209630878218e-02) (0, -8.61960282938547317499e-01) (1, -2.43465255074721165229e-01) (0, -9.18469025350574175270e-01) (1, -1.83858490703954657874e-01) (0, -1.75335048385282532557e+00) (1, -7.05176718578118588709e-01) (0, 4.75656549568153397267e-01) (1, -3.31303891061447627897e-02) (0, -8.58585265312229894974e-01) (1, -2.97110902249340558257e-01) (0, -1.85299351789908173238e+00) (1, -6.62142372001247148106e-01) (0, 2.34978740139862773972e+00) (1, -7.93909472938464411129e+00) (0, 1.85556042975617896396e+00) (1, 9.57439464354801171575e-03) (0, 2.28832884355446397606e+00) (1, -7.87295167859481015427e+00) (0, -2.83158643952884314654e-01) (1, -7.75508100864984895040e-01) (0, 1.87024303976486794276e+00) (1, 1.27010804432855506363e-01) (0, -8.33896966850706578001e-01) (1, -2.90257295115842361977e-01) (0, -3.97015347562958282879e+01) (1, -9.37484154363426358536e-01) (0, -7.74644268802326507739e-01) (1, -3.40838017708483209667e-01) (0, 2.21999852581879286717e+00) (1, -7.90055073764012494308e+00) (0, -9.26185080826714579594e-01) (1, -2.08793648047026186854e-01) (0, 1.97893317962714743175e+00) (1, 1.38659213668653358287e-01) (0, -8.53538252773932581974e-01) (1, -2.20090717469158009267e-01) (0, -6.77119119351294540543e-01) (1, -3.75051518933382899146e-01) (0, 1.90910508998450012541e+00) (1, 5.16622953011133118073e-02) (0, -2.32267621443803501391e-01) (1, -6.82844407427693200763e-02) (0, -9.74173741059722786417e+00) (1, 9.79794654737815157164e-02) (0, -1.48380560138578920792e-01) (1, -1.02633279747714717400e-01) (0, 3.24846107556602092803e-01) (1, 5.91179357174673111852e-02) (0, 2.08342181598342701676e+00) (1, 1.25391346642179518645e-01) (0, -3.40028086205222679350e-01) (1, -7.26465354692166553896e-01) (0, -2.63881462994463902305e+01) (1, -6.63590941464504147085e-01) (0, -8.88160841832148939545e-01) (1, -2.81622606737606639982e-01) (0, -3.72698974035505585789e+01) (1, -1.12983626222557442809e+00) (0, 2.03900504840089080716e+00) (1, 9.65726599599785739958e-02) (0, -9.41299490436468566656e+00) (1, -4.84302342741349622912e+00) (0, -3.96055447356910406143e+01) (1, -9.40592905431708037334e-01) (0, 2.02943460713385004368e+00) (1, 8.09876810705915245459e-02) (0, -3.06201715430048126976e+00) (1, -9.89573223378191313415e-01) (0, -1.89595446520384558475e+00) (1, -7.03484961000286901367e-01) (0, -3.89004744219815350448e+01) (1, -1.15132780850837090902e+00) (0, -2.39107588252862129918e-01) (1, -7.90461561247454286283e-02) (0, 3.57038842564057656848e-01) (1, 1.00989646132323557248e-02) (0, -1.34037309649948560564e-01) (1, -1.38624945859169818041e-01) (0, -8.30343477856394507342e-01) (1, -2.98360246130075001947e-01) (0, -6.90175574348595999297e-01) (1, -3.98017290535546075514e-01) (0, -2.71299197111190260046e+01) (1, -6.77148127537601451920e-01) (0, 3.86742457927369442938e-01) (1, -3.44256903116367946049e-02) (0, -8.91947296658584187767e-01) (1, -2.78763009019367791197e-01) (0, 1.87290242846177901193e+00) (1, 8.58482388491700332267e-02) (0, -2.83355755781882407973e+01) (1, 3.46941583933509101190e-01) (0, 2.24347869529387144993e+00) (1, -7.86932966079400220138e+00) (0, -4.55776631428137548596e+01) (1, -9.01500358391480682840e-01) (0, -2.46242790584351141092e+01) (1, -6.36377584084897529593e-01) (0, -1.37241532979613789500e+00) (1, -1.67839914230596609634e+00) (0, 1.86198434751693087108e+00) (1, 5.58195869562770358857e-03) (0, -1.77165994763749368168e+00) (1, -7.44828585950301547136e-01) (0, 2.02126094359448238436e+00) (1, -1.90814283652775943008e-03) (0, -8.91822511396943795603e-01) (1, -2.24317498511579976883e-01) (0, 1.99636619609579857304e+00) (1, 1.61907359524574273602e-01) (0, 1.94195221454683220053e+00) (1, 6.96090708535645336097e-02) (0, -1.30021594459833500501e+00) (1, -1.75085018995520358409e+00) (0, -9.93414934522075659951e-02) (1, -1.44497326948367893484e-01) (0, 1.89540292100258800367e+00) (1, 8.14251648149448142844e-02) (0, 2.39678131266495286766e+00) (1, -7.91223987530754246933e+00) (0, 2.37642517908474504296e+00) (1, -7.83803225274966397507e+00) (0, 2.03884510282490083455e+00) (1, 6.70969223333040265533e-02) (0, -1.80024808970057947910e+00) (1, -8.12032382701702415417e-01) (0, -8.36820663730902802868e-01) (1, -2.49277693383007092898e-01) (0, -2.21035869618992547592e-01) (1, -1.15993495987695288685e-01) (0, 2.36598441227337419335e+00) (1, -7.91593126173899896969e+00) (0, 2.33523546381851820897e+00) (1, -7.91327809136198290219e+00) (0, -8.54870152883724587767e-01) (1, -2.28720257140579114052e-01) (0, -2.67192910350298475919e+01) (1, -5.98504089412577489071e-01) (0, 3.26036598577281289124e-01) (1, 6.80167058466699114838e-02) (0, -1.32506793757938501344e-01) (1, -8.52930667535875125518e-02) (0, -3.73264357124769929897e+01) (1, 3.76924149313527490079e+00) (0, -8.12125740183971878139e-01) (1, -3.14756817634287255903e-01) (0, 1.95872446112783249461e+00) (1, 1.75987929319577351972e-01) (0, -1.32640394578310533147e-01) (1, -1.70780389283445299675e-01) (0, 2.37499045058151780907e+00) (1, -7.95146256651566751827e+00) (0, -8.17561905650388887068e-01) (1, -2.67192582453109450658e-01) (0, -9.82450248322305069726e-02) (1, -1.67195483862046558043e-02) (0, -8.95310025052683422508e-01) (1, -2.19898659756428999090e-01) (0, 1.91907218147291747101e+00) (1, 1.60418804769780987129e-01) (0, -9.21377164275190702059e-02) (1, -2.29678963376732825363e-01) (0, 2.23372531904837279271e+00) (1, -7.79433838989422955734e+00) (0, -3.73200170568947129368e+01) (1, -1.15473389954135585711e+00) (0, -8.14491834310781648298e-01) (1, -2.68658513987876601536e-01) (0, 2.01361367176658673239e-01) (1, 1.09625842098855730278e-01) (0, -8.56090107565806057721e-01) (1, -3.12973365776352319134e-01) (0, -3.58515314195501133554e+01) (1, 1.45272931464500953957e+00) (0, -1.29561146852198283419e+00) (1, -1.76443353243460521185e+00) (0, 1.96906369687861437789e+00) (1, 2.09493536657969853243e-01) (0, -7.66947281879846731734e-01) (1, -3.21580336472092553901e-01) (0, -8.67838832794333603360e-01) (1, -2.19429660388219122114e-01) (0, 2.00741018095229728502e+00) (1, 1.08453947227260746877e-01) (0, 1.96932882618919347095e+00) (1, 2.01404335267220437056e-02) (0, 1.82376639124675610226e+00) (1, 6.52413777285546225837e-02) (0, -3.96247392343492208511e+01) (1, -9.42525749951323210674e-01) (0, -1.71749067416919865003e-01) (1, -4.07087484963581242026e-02) (0, -9.12288605788651119077e-01) (1, -2.00112840297212463136e-01) (0, -7.80766311718483985160e-01) (1, -2.85376102381371787864e-01) (0, -1.72828457388968237396e+00) (1, -7.20194020480370289405e-01) (0, -1.48846926336361151666e-01) (1, -1.18438122901655062957e-01) (0, -9.38275055393134316262e+00) (1, -4.72610180510738775439e+00) (0, -8.78258139163065498778e-01) (1, -2.00131546075098365467e-01) (0, -7.84310213901942998582e-01) (1, -3.14168713761146745078e-01) (0, -2.30561019103934755625e-01) (1, -1.57624672375883595477e-01) (0, -1.26174537121531304962e+00) (1, -2.20044623512037951230e+00) (0, -2.89252746807561100795e+00) (1, -1.09972603628179910196e+00) (0, 2.04024616735341135509e+00) (1, 5.82128598832777413574e-02) (0, -8.90845587116696147056e-01) (1, -2.30301054262498416936e-01) (0, -9.11013979557550257482e-01) (1, -2.55631339839558324734e-01) (0, -9.01977001177877824034e-01) (1, -2.42776840135162597090e-01) (0, -8.26522691228248285178e-01) (1, -2.77890688539790042810e-01) (0, 1.97238977744289711858e+00) (1, 6.76101932261002069868e-02) (0, -1.84983555551820444407e+00) (1, -8.25277516051270421116e-01) (0, -6.83674314043514752548e-01) (1, -3.93405801155853829254e-01) (0, 4.15483108973818071608e-01) (1, -3.15574500865604609667e-02) (0, -8.48909870439330971337e-01) (1, -2.50516808282731040514e-01) (0, -2.21496651069770650322e-01) (1, -2.12774562851639148509e-01) (0, -3.96196337239951787978e+01) (1, -9.34105178266485869365e-01) (0, 1.87490616526489972671e+00) (1, 2.17844322829572889511e-01) (0, 2.13964921197297680555e-01) (1, 2.89026668075474495179e-02) (0, -1.20983135307445074935e-01) (1, -7.53921488306133202872e-02) (0, 2.29173334910532533470e+00) (1, -7.85346285965130963547e+00) (0, -9.30666954298188353611e-01) (1, -1.87492612058343971482e-01) (2, -1.85517845401446078435e-02) (3, 1.50000000000000000000e+03) (4, 1.13240041751070955045e-01) (5, 1.50000000000000000000e+03) (6, -9.04681176274008125304e-02) (7, -1.08412071000339907401e-01) (8, 1.11766626716300554456e-01) (9, 1.94269848071288137037e-01) (10, -2.97023132103344106314e-02) (11, -1.01007434672200954728e-01) (12, -5.95792256883439819148e+01) (13, 1.74358952968907021663e-01) (14, 1.78421760754882113842e-01) (15, 1.50000000000000000000e+03) (16, -2.58558931317341769707e-02) (17, 1.59443903967800178212e-02) (18, 1.98819891169905393902e-01) (19, 2.23761094072322919146e-01) (20, 1.17938556689425683155e-01) (21, 5.11578403631114744798e-02) (22, 2.00924374008157102800e-01) (23, 1.81499848591498397221e-01) (24, 1.96028814672184296342e+02) (25, -1.22520609516801146088e-01) (26, 1.50000000000000000000e+03) (27, -7.71589047968283814338e-02) (28, -8.55782596845680032516e-02) (29, 1.09136776567146862038e-01) (30, -9.36940208176019334596e-02) (31, -1.07628580419781086364e-01) (32, -9.96825262602110268029e-02) (33, 1.43079537576121684772e-01) (34, 1.92061021221335531672e-01) (35, -1.59090492504417794876e-03) (36, -1.16523103259261920361e-01) (37, 1.96266654925719291613e-01) (38, 2.15141671013214991204e-01) (39, -1.07813416959995758693e-01) (40, -2.78953824766618900810e+01) (41, -3.30763232590041145187e-02) (42, 1.18503577453776529071e-01) (43, 5.90223389207388052236e-02) (44, -2.33904091449473605646e-01) (45, -3.00162635676874742785e+01) (46, -6.66161639994389354058e+00) (47, 1.50000000000000000000e+03) (48, 2.11827271343001971582e-01) (49, -1.83284488337828559146e-02) (50, -2.95573469162320883186e+01) (51, 8.71413461189472400292e+01) (52, 1.02958813323664633010e-01) (53, -7.38898384545030040282e-02) (54, 1.78535987959057035335e-01) (55, 1.50000000000000000000e+03) (56, -4.48930107013129700566e-02) (57, -2.45790872520211950425e-02) (58, -8.64376597051158129803e-02) (59, -2.87620107200160547711e-02) (60, -1.03230948894416377226e-01) (61, 1.07898944521771664173e-01) (62, 8.87650832325840855042e-02) (63, 1.56730009630063893411e-01) (64, -1.22709681332244691099e-01) (65, -2.70982242041957839263e+01) (66, -8.64572635184252258345e-02) (67, -4.33051504121709923689e-03) (68, -2.85716796977767313603e-02) (69, -9.67777320429476922703e-02) (70, 1.02174066919491976502e-01) (71, 7.04642531726613242427e+02) (72, -9.18470929588534185095e-02) (73, 1.00674678396525787982e-01) (74, 4.93118308690503569236e-03) (75, 8.77601881311140669117e-02) (76, 1.17529991691996488212e-01) (77, 1.81196382511085052336e-01) (78, 1.02061429964253769231e-01) (79, 1.91099895282826226506e-01) (80, 1.86358982388685645581e-01) (81, 6.10762200519321604708e-02) (82, 1.07317379612134167211e-01) (83, 2.20947717717587477360e-01) (84, -1.25069547964749061553e-01) (85, 1.50000000000000000000e+03) (86, -1.13592733632698936197e-01) (87, 1.50000000000000000000e+03) (88, 8.41391781360812350543e-03) (89, -1.03829571420927052605e-01) (90, 2.12815609547829298620e-01) (91, -2.77466509883813365889e+01) (92, 1.99561628696464959942e-01) (93, 1.50000000000000000000e+03) (94, 2.17996356853470268922e-01) (95, -1.22094102970040557787e-01) (96, 1.57887829667912676923e-01) (97, 1.62254830164163116324e-01) (98, -1.24008317499078993262e-01) (99, -3.04814308837825891085e-02) (100, -9.60518188954834983839e-01) (101, -3.71652560796746009308e-02) (102, 1.08398632646248785361e-01) (103, -8.55882942140939323439e-02) (104, 1.63273949309324373225e-02) (105, -2.77438291470143383322e+02) (106, 1.97260561218521118798e-01) (107, 3.45769381026735942442e+01) (108, -1.17009018298218539500e-01) (109, 1.50000000000000000000e+03) (110, -6.11215993003597972688e+01) (111, -1.05959631478189778009e-01) (112, -1.48273288739587449925e+00) (113, 6.82156818477195198147e-02) (114, -1.23698907291047831336e+02) (115, -1.93364618897593834590e-02) (116, 1.13724271846255067797e-01) (117, -3.88563960086104609459e-02) (118, 2.22101402256225849419e-01) (119, 2.07823557384300000583e-01) (120, -7.79156444990215657498e+00) (121, 1.03923919696770866716e-01) (122, 2.17579277982967916882e-01) (123, -1.14198410218074627998e-01) (124, 3.57207685698252191742e+02) (125, 1.50000000000000000000e+03) (126, -6.21115021899443718212e+02) (127, -7.41020607467103076260e+01) (128, 2.55442308589888984749e-02) (129, -9.79814157666493851240e-02) (130, 9.60519844552085583222e-02) (131, -9.86773756448075384240e-02) (132, 2.05195820392086947237e-01) (133, -8.26186239542496952959e-02) (134, -9.17961020380234499205e-02) (135, 4.66095929013413609598e-02) (136, -3.76295707923889818924e-02) (137, -9.07205103891024905449e-02) (138, 1.50000000000000000000e+03) (139, 1.50000000000000000000e+03) (140, -9.47709396034941004006e-02) (141, 7.15242456733297810034e-02) (142, 1.74311407602297685493e-01) (143, -4.44382980421924103642e-02) (144, 1.50000000000000000000e+03) (145, 1.50000000000000000000e+03) (146, 1.93198735254815151530e-01) (147, -4.83078503529733893629e+01) (148, 1.17920757771178386086e-01) (149, -2.47687813429840961166e-02) (150, -1.14813340251526856406e+01) (151, 2.02758127973198948313e-01) (152, -9.47651558691625234276e-02) (153, -3.60572181561232205094e-02) (154, 1.50000000000000000000e+03) (155, 2.12912238010959042889e-01) (156, 1.06972808595824225852e-01) (157, 1.87756127004869266539e-01) (158, -9.30868056430190354833e-02) (159, -2.41866448110990735210e-02) (160, 1.50000000000000000000e+03) (161, 3.97324137478227044085e+01) (162, 1.92702063037283016778e-01) (163, 1.04431013398835564887e-01) (164, 1.85553964974561336199e-01) (165, -2.45144646090090759571e+02) (166, 7.63951752101479364399e-02) (167, -1.00682157643569067385e-01) (168, 1.88782010694225760306e-01) (169, 1.82245405860025910805e-01) (170, -1.05346479288018421427e-01) (171, -1.00952894354643232799e-01) (172, -1.02323575707625083475e-01) (173, -6.07066478605165613658e+01) (174, -2.42992853282207495191e-02) (175, 1.89324414185098849339e-01) (176, 1.85927538588377683215e-01) (177, 7.67080934240644968236e-02) (178, -1.99903640760181258718e-02) (179, 1.50000000000000000000e+03) (180, 1.71187382908155744099e-01) (181, 1.80728894882212803852e-01) (182, -4.42350757453006462883e-02) (183, 1.20424638276217348121e-03) (184, -2.25939051450549222011e+00) (185, -1.18514023522066871963e-01) (186, 2.09007071431046187460e-01) (187, 2.24262245156038569904e-01) (188, 2.17923320849585960834e-01) (189, 1.79390626921641316294e-01) (190, -1.03957951757824781924e-01) (191, 5.52259739817714187526e-02) (192, 2.02336072243437109508e-01) (193, 1.01776617485425269205e-01) (194, 1.83431802790720438479e-01) (195, -3.72790646261414934659e-02) (196, -5.86695051257516126952e+01) (197, -1.02658101389924760749e-01) (198, 1.16467267288850748197e-01) (199, -2.52221087117206824169e-02) (200, 1.50000000000000000000e+03) (201, 2.04129017628670583751e-01) (202, -5.42110771735542368299e-02) 
