FANN_FLO_2.1
num_layers=3
learning_rate=0.700000
connection_rate=1.000000
network_type=0
learning_momentum=0.000000
training_algorithm=2
train_error_function=1
train_stop_function=0
cascade_output_change_fraction=0.010000
quickprop_decay=-0.000100
quickprop_mu=1.750000
rprop_increase_factor=1.200000
rprop_decrease_factor=0.500000
rprop_delta_min=0.000000
rprop_delta_max=50.000000
rprop_delta_zero=0.100000
cascade_output_stagnation_epochs=12
cascade_candidate_change_fraction=0.010000
cascade_candidate_stagnation_epochs=12
cascade_max_out_epochs=150
cascade_min_out_epochs=50
cascade_max_cand_epochs=150
cascade_min_cand_epochs=50
cascade_num_candidate_groups=2
bit_fail_limit=3.49999999999999977796e-01
cascade_candidate_limit=1.00000000000000000000e+03
cascade_weight_multiplier=4.00000000000000022204e-01
cascade_activation_functions_count=10
cascade_activation_functions=3 5 7 8 10 11 14 15 16 17 
cascade_activation_steepnesses_count=4
cascade_activation_steepnesses=2.50000000000000000000e-01 5.00000000000000000000e-01 7.50000000000000000000e-01 1.00000000000000000000e+00 
layer_sizes=2 201 2 
scale_included=0
neurons (num_inputs, activation_function, activation_steepness)=(0, 0, 0.00000000000000000000e+00) (0, 0, 0.00000000000000000000e+00) (2, 4, 5.00000000000000000000e-01) (2, 4, 5.00000000000000000000e-01) (2, 4, 5.00000000000000000000e-01) (2, 4, 5.00000000000000000000e-01) (2, 4, 5.00000000000000000000e-01) (2, 4, 5.00000000000000000000e-01) (2, 4, 5.00000000000000000000e-01) (2, 4, 5.00000000000000000000e-01) (2, 4, 5.00000000000000000000e-01) (2, 4, 5.00000000000000000000e-01) (2, 4, 5.00000000000000000000e-01) (2, 4, 5.00000000000000000000e-01) (2, 4, 5.00000000000000000000e-01) (2, 4, 5.00000000000000000000e-01) (2, 4, 5.00000000000000000000e-01) (2, 4, 5.00000000000000000000e-01) (2, 4, 5.00000000000000000000e-01) (2, 4, 5.00000000000000000000e-01) (2, 4, 5.00000000000000000000e-01) (2, 4, 5.00000000000000000000e-01) (2, 4, 5.00000000000000000000e-01) (2, 4, 5.00000000000000000000e-01) (2, 4, 5.00000000000000000000e-01) (2, 4, 5.00000000000000000000e-01) (2, 4, 5.00000000000000000000e-01) (2, 4, 5.00000000000000000000e-01) (2, 4, 5.00000000000000000000e-01) (2, 4, 5.00000000000000000000e-01) (2, 4, 5.00000000000000000000e-01) (2, 4, 5.00000000000000000000e-01) (2, 4, 5.00000000000000000000e-01) (2, 4, 5.00000000000000000000e-01) (2, 4, 5.00000000000000000000e-01) (2, 4, 5.00000000000000000000e-01) (2, 4, 5.00000000000000000000e-01) (2, 4, 5.00000000000000000000e-01) (2, 4, 5.00000000000000000000e-01) (2, 4, 5.00000000000000000000e-01) (2, 4, 5.00000000000000000000e-01) (2, 4, 5.00000000000000000000e-01) (2, 4, 5.00000000000000000000e-01) (2, 4, 5.00000000000000000000e-01) (2, 4, 5.00000000000000000000e-01) (2, 4, 5.00000000000000000000e-01) (2, 4, 5.00000000000000000000e-01) (2, 4, 5.00000000000000000000e-01) (2, 4, 5.00000000000000000000e-01) (2, 4, 5.00000000000000000000e-01) (2, 4, 5.00000000000000000000e-01) (2, 4, 5.00000000000000000000e-01) (2, 4, 5.00000000000000000000e-01) (2, 4, 5.00000000000000000000e-01) (2, 4, 5.00000000000000000000e-01) (2, 4, 5.00000000000000000000e-01) (2, 4, 5.00000000000000000000e-01) (2, 4, 5.00000000000000000000e-01) (2, 4, 5.00000000000000000000e-01) (2, 4, 5.00000000000000000000e-01) (2, 4, 5.00000000000000000000e-01) (2, 4, 5.00000000000000000000e-01) (2, 4, 5.00000000000000000000e-01) (2, 4, 5.00000000000000000000e-01) (2, 4, 5.00000000000000000000e-01) (2, 4, 5.00000000000000000000e-01) (2, 4, 5.00000000000000000000e-01) (2, 4, 5.00000000000000000000e-01) (2, 4, 5.00000000000000000000e-01) (2, 4, 5.00000000000000000000e-01) (2, 4, 5.00000000000000000000e-01) (2, 4, 5.00000000000000000000e-01) (2, 4, 5.00000000000000000000e-01) (2, 4, 5.00000000000000000000e-01) (2, 4, 5.00000000000000000000e-01) (2, 4, 5.00000000000000000000e-01) (2, 4, 5.00000000000000000000e-01) (2, 4, 5.00000000000000000000e-01) (2, 4, 5.00000000000000000000e-01) (2, 4, 5.00000000000000000000e-01) (2, 4, 5.00000000000000000000e-01) (2, 4, 5.00000000000000000000e-01) (2, 4, 5.00000000000000000000e-01) (2, 4, 5.00000000000000000000e-01) (2, 4, 5.00000000000000000000e-01) (2, 4, 5.00000000000000000000e-01) (2, 4, 5.00000000000000000000e-01) (2, 4, 5.00000000000000000000e-01) (2, 4, 5.00000000000000000000e-01) (2, 4, 5.00000000000000000000e-01) (2, 4, 5.00000000000000000000e-01) (2, 4, 5.00000000000000000000e-01) (2, 4, 5.00000000000000000000e-01) (2, 4, 5.00000000000000000000e-01) (2, 4, 5.00000000000000000000e-01) (2, 4, 5.00000000000000000000e-01) (2, 4, 5.00000000000000000000e-01) (2, 4, 5.00000000000000000000e-01) (2, 4, 5.00000000000000000000e-01) (2, 4, 5.00000000000000000000e-01) (2, 4, 5.00000000000000000000e-01) (2, 4, 5.00000000000000000000e-01) (2, 4, 5.00000000000000000000e-01) (2, 4, 5.00000000000000000000e-01) (2, 4, 5.00000000000000000000e-01) (2, 4, 5.00000000000000000000e-01) (2, 4, 5.00000000000000000000e-01) (2, 4, 5.00000000000000000000e-01) (2, 4, 5.00000000000000000000e-01) (2, 4, 5.00000000000000000000e-01) (2, 4, 5.00000000000000000000e-01) (2, 4, 5.00000000000000000000e-01) (2, 4, 5.00000000000000000000e-01) (2, 4, 5.00000000000000000000e-01) (2, 4, 5.00000000000000000000e-01) (2, 4, 5.00000000000000000000e-01) (2, 4, 5.00000000000000000000e-01) (2, 4, 5.00000000000000000000e-01) (2, 4, 5.00000000000000000000e-01) (2, 4, 5.00000000000000000000e-01) (2, 4, 5.00000000000000000000e-01) (2, 4, 5.00000000000000000000e-01) (2, 4, 5.00000000000000000000e-01) (2, 4, 5.00000000000000000000e-01) (2, 4, 5.00000000000000000000e-01) (2, 4, 5.00000000000000000000e-01) (2, 4, 5.00000000000000000000e-01) (2, 4, 5.00000000000000000000e-01) (2, 4, 5.00000000000000000000e-01) (2, 4, 5.00000000000000000000e-01) (2, 4, 5.00000000000000000000e-01) (2, 4, 5.00000000000000000000e-01) (2, 4, 5.00000000000000000000e-01) (2, 4, 5.00000000000000000000e-01) (2, 4, 5.00000000000000000000e-01) (2, 4, 5.00000000000000000000e-01) (2, 4, 5.00000000000000000000e-01) (2, 4, 5.00000000000000000000e-01) (2, 4, 5.00000000000000000000e-01) (2, 4, 5.00000000000000000000e-01) (2, 4, 5.00000000000000000000e-01) (2, 4, 5.00000000000000000000e-01) (2, 4, 5.00000000000000000000e-01) (2, 4, 5.00000000000000000000e-01) (2, 4, 5.00000000000000000000e-01) (2, 4, 5.00000000000000000000e-01) (2, 4, 5.00000000000000000000e-01) (2, 4, 5.00000000000000000000e-01) (2, 4, 5.00000000000000000000e-01) (2, 4, 5.00000000000000000000e-01) (2, 4, 5.00000000000000000000e-01) (2, 4, 5.00000000000000000000e-01) (2, 4, 5.00000000000000000000e-01) (2, 4, 5.00000000000000000000e-01) (2, 4, 5.00000000000000000000e-01) (2, 4, 5.00000000000000000000e-01) (2, 4, 5.00000000000000000000e-01) (2, 4, 5.00000000000000000000e-01) (2, 4, 5.00000000000000000000e-01) (2, 4, 5.00000000000000000000e-01) (2, 4, 5.00000000000000000000e-01) (2, 4, 5.00000000000000000000e-01) (2, 4, 5.00000000000000000000e-01) (2, 4, 5.00000000000000000000e-01) (2, 4, 5.00000000000000000000e-01) (2, 4, 5.00000000000000000000e-01) (2, 4, 5.00000000000000000000e-01) (2, 4, 5.00000000000000000000e-01) (2, 4, 5.00000000000000000000e-01) (2, 4, 5.00000000000000000000e-01) (2, 4, 5.00000000000000000000e-01) (2, 4, 5.00000000000000000000e-01) (2, 4, 5.00000000000000000000e-01) (2, 4, 5.00000000000000000000e-01) (2, 4, 5.00000000000000000000e-01) (2, 4, 5.00000000000000000000e-01) (2, 4, 5.00000000000000000000e-01) (2, 4, 5.00000000000000000000e-01) (2, 4, 5.00000000000000000000e-01) (2, 4, 5.00000000000000000000e-01) (2, 4, 5.00000000000000000000e-01) (2, 4, 5.00000000000000000000e-01) (2, 4, 5.00000000000000000000e-01) (2, 4, 5.00000000000000000000e-01) (2, 4, 5.00000000000000000000e-01) (2, 4, 5.00000000000000000000e-01) (2, 4, 5.00000000000000000000e-01) (2, 4, 5.00000000000000000000e-01) (2, 4, 5.00000000000000000000e-01) (2, 4, 5.00000000000000000000e-01) (2, 4, 5.00000000000000000000e-01) (2, 4, 5.00000000000000000000e-01) (2, 4, 5.00000000000000000000e-01) (2, 4, 5.00000000000000000000e-01) (2, 4, 5.00000000000000000000e-01) (2, 4, 5.00000000000000000000e-01) (2, 4, 5.00000000000000000000e-01) (2, 4, 5.00000000000000000000e-01) (2, 4, 5.00000000000000000000e-01) (2, 4, 5.00000000000000000000e-01) (2, 4, 5.00000000000000000000e-01) (2, 4, 5.00000000000000000000e-01) (0, 0, 0.00000000000000000000e+00) (201, 4, 5.00000000000000000000e-01) (0, 0, 0.00000000000000000000e+00) 
connections (connected_to_neuron, weight)=(0, 2.14114224994018220727e+00) (1, 1.03104139191223964644e+00) (0, 2.42798443036394218097e+00) (1, 2.85281039848313322516e-01) (0, 2.81094484957489987309e+00) (1, 5.53365373996376752608e-01) (0, 3.31007955602908809922e+00) (1, 8.60530687748755962474e-01) (0, -2.60556633809049342787e+00) (1, -7.81496221814000024963e-01) (0, -1.82375106835485212287e+00) (1, -5.19243252843070490776e-01) (0, -1.85207291996132261680e+00) (1, -4.93943958341738098561e-01) (0, -1.77832334014483084417e+00) (1, -4.81613746939751785625e-01) (0, 2.16606504195632076915e+00) (1, 1.01857599194370940232e+00) (0, 3.76227221754801322007e+00) (1, 6.19190621696203535862e-01) (0, -1.93435236798766063693e+00) (1, -4.80466253927701592019e-01) (0, -1.96229219672281218756e+00) (1, -4.72428521359843256455e-01) (0, 3.57963504648556707366e+00) (1, 7.53763153538552499455e-01) (0, -3.18072788102939352228e+00) (1, -5.84428861016351164359e-01) (0, 1.79955956438021646981e+00) (1, 5.08665689252802089015e-01) (0, 3.85784786500727827629e+00) (1, 5.76785001214290660165e-01) (0, -3.03019107404387177951e+00) (1, -6.00483986555600646184e-01) (0, -3.15851675995571090638e+00) (1, -5.59567276609396313525e-01) (0, 2.72797203247957220640e+00) (1, 9.20519523279133111693e-01) (0, -3.05080697553836177605e+00) (1, -6.27788051565296822965e-01) (0, -2.64144543647319141044e+00) (1, -7.92991649699631762083e-01) (0, 2.58757647096217935356e+00) (1, 4.46918701296627085551e-01) (0, 3.70452185341416528885e+00) (1, 5.95784097276344848382e-01) (0, -1.93414612714518363568e+00) (1, -4.72722349907858552243e-01) (0, -2.54171280086198070336e+00) (1, -8.03235908984446855818e-01) (0, 3.74995011413471557304e+00) (1, 6.92356493644436632451e-01) (0, -1.86934703552840031371e+00) (1, -4.47141430056678113036e-01) (0, 2.41771639874617250143e+00) (1, 2.80462145963127074122e-01) (0, 1.95185934674659944399e+00) (1, 6.59911375247339559991e-01) (0, 2.22749034591576666742e+00) (1, 5.94733307181814274678e-01) (0, -2.02642603597997217335e+00) (1, -4.57633957767201449141e-01) (0, -1.75387345657350124384e+00) (1, -5.26830918620397214980e-01) (0, -1.72586572439326313422e+00) (1, -3.39039838386396286118e-01) (0, -3.14930963436069255579e+00) (1, -5.56691704887454008599e-01) (0, -1.93889957312479355167e+00) (1, -4.71358410670022265343e-01) (0, 2.44538950124806975239e+00) (1, 2.46206385446668452044e-01) (0, 2.46462075836246174987e+00) (1, 1.95248346269275008247e-01) (0, -3.20102923600988287234e+00) (1, -5.59781872793318924231e-01) (0, -3.12898131731822770618e+00) (1, -5.84732378825979504100e-01) (0, -2.43670747582699975808e+00) (1, -8.54830553016602268102e-01) (0, -1.92250689370403882172e+00) (1, -4.32587758061041438573e-01) (0, -1.87348572316801353921e+00) (1, -4.96381531313377588610e-01) (0, -3.03289545860363363161e+00) (1, -7.13711901998709929984e-01) (0, -1.90645565710221687183e+00) (1, -3.78208549574738650545e-01) (0, -2.43179373053918901348e+00) (1, -8.57468121372383151879e-01) (0, -1.90752247377791284144e+00) (1, -4.55440644194986199444e-01) (0, 3.72165506506817411747e+00) (1, 5.83165835132754106773e-01) (0, 3.61630997443224533328e+00) (1, 6.18614758848850532225e-01) (0, 2.69963534910952329682e+00) (1, 9.34669955462366086607e-01) (0, -2.27611007290531608405e+00) (1, -4.39516664319227534641e-01) (0, -3.00453412664905661345e+00) (1, -5.89229090710081004900e-01) (0, 2.67676746606390603134e+00) (1, 9.45413526254945346672e-01) (0, 3.70006272327108431952e+00) (1, 7.11052755554005044836e-01) (0, -2.49205447090794240950e+00) (1, -4.41178110733728534587e-01) (0, -3.21700573273121603890e+00) (1, -5.59205168187880574671e-01) (0, 3.63022420958614855380e+00) (1, 7.42796846301594815287e-01) (0, -2.06866140199071191219e+00) (1, -5.02742224486261601868e-01) (0, -1.76054546716790372152e+00) (1, -3.09594410166962263897e-01) (0, -2.57831465751129895736e+00) (1, -8.05458648674356569863e-01) (0, -2.66767193150994641471e+00) (1, -7.70983540169199232928e-01) (0, 3.66821412737600249798e+00) (1, 7.22534734448209370328e-01) (0, 3.26569155401960786733e+00) (1, 6.51428240888820009324e-01) (0, 3.73322439964422869707e+00) (1, 6.97605163658471139065e-01) (0, 2.43669187528601005610e+00) (1, 2.82609505845369479715e-01) (0, -1.97204839108887797217e+00) (1, -2.71547494760290497595e-01) (0, 3.66942582876092027178e+00) (1, 6.00006622334178674194e-01) (0, -1.70416642304934562446e+00) (1, -3.41683976334104355654e-01) (0, -3.31275419426768769071e+00) (1, -5.44820465973136380811e-01) (0, -1.71449374361697715052e+00) (1, -5.41254766518429186739e-01) (0, 3.72693639526646736115e+00) (1, 6.99133369836040352574e-01) (0, -1.72163592125053788173e+00) (1, -3.40549295867398627014e-01) (0, 2.16233052552882565323e+00) (1, 6.09729234386722995787e-01) (0, -2.69434092589445928212e+00) (1, -7.56746125375426292869e-01) (0, 3.17943969120469116518e+00) (1, 8.71973445257891888183e-01) (0, 3.62038912557028202954e+00) (1, 7.41078797620865148410e-01) (0, 6.44613403505360480494e+01) (1, -4.24346356767599708348e+00) (0, 2.73910805281451930071e+00) (1, 9.02122385608661980783e-01) (0, -2.54951423067808136125e+00) (1, -8.35296209025266134240e-01) (0, -2.03886531934762471607e+00) (1, -4.33359242022790525084e-01) (0, 3.27288393357339435497e+00) (1, 6.55819429143112309077e-01) (0, 3.63913452644185975160e+00) (1, 7.34878038874942296488e-01) (0, 3.80538828205337154031e+00) (1, 6.01476006115311601086e-01) (0, -1.75050709946106120007e+00) (1, -5.20725818953685637425e-01) (0, -1.93526951313349093731e+00) (1, -4.24638924392046979150e-01) (0, -1.84188864856471190556e+00) (1, -5.00957541469382205968e-01) (0, 2.34697105454989030093e+00) (1, 3.06983347935256112304e-01) (0, -3.07658602218652266203e+00) (1, -5.76423991732288976131e-01) (0, -3.02792374162983923824e+00) (1, -6.07298437753311715070e-01) (0, -3.24863938775486449373e+00) (1, -5.36997560834080678305e-01) (0, -1.41515431782480094469e+00) (1, -1.00273312292116889566e+00) (0, 4.03330996957167720041e+00) (1, 7.08638627032723067423e-01) (0, -1.66258915781197136319e+00) (1, -3.60426368911277161811e-01) (0, 4.45916969152430375800e+00) (1, 5.28876392723936827878e-01) (0, -1.92721277555208425625e+00) (1, -4.65648952732974297231e-01) (0, 3.72990266166542916437e+00) (1, 7.02185229441209202150e-01) (0, 2.39554156067605061864e+00) (1, 2.94802632479222059825e-01) (0, -1.66445245624119309014e+00) (1, -3.50496875825836884388e-01) (0, 3.54357837478094150896e+00) (1, 7.64785577098064162094e-01) (0, -3.21135807198599643186e+00) (1, -5.60391822745668122252e-01) (0, 2.44923295497219983829e+00) (1, 2.12185634680455620371e-01) (0, 3.90596109759391341143e+00) (1, 5.96585642122944403987e-01) (0, 3.88255500802769093482e+00) (1, 6.15343462224110071546e-01) (0, -8.06941843049677309807e+00) (1, 4.16898042123492018618e-01) (0, 3.27854893093761878831e+00) (1, 6.44689781945833928489e-01) (0, -3.04724243889658907847e+00) (1, -7.04781095503562493576e-01) (0, -3.11144909173885597653e+00) (1, -6.88040291085173616459e-01) (0, -1.73639341616771925025e+00) (1, -3.14811492271928283770e-01) (0, -5.63681367962562962504e+00) (1, -5.57915648444912370962e-01) (0, -1.86632479463482781057e+00) (1, -4.92852513391250690589e-01) (0, -1.93286304840399725258e+00) (1, -4.33441670419066282793e-01) (0, 3.65341070562695646728e+00) (1, 7.27439328068588131337e-01) (0, 3.84144270495973039203e+00) (1, 5.85485771992688364129e-01) (0, -1.69563179609331848852e+00) (1, -3.46479729667388380854e-01) (0, -1.91866706978884260515e+00) (1, -4.32034390791621036865e-01) (0, -1.84702140473772824514e+00) (1, -5.04478182867184488103e-01) (0, -3.44725443378816587270e+00) (1, -3.96333042764268261848e+00) (0, -2.14307480738875177906e+00) (1, -7.28895693026849311735e-01) (0, 2.43865166061377403040e+00) (1, 3.23098816196351501517e-01) (0, -1.02165766670579820641e+01) (1, 3.38973624765686532001e+00) (0, 3.62810047046833439310e+00) (1, 7.38702660139209710266e-01) (0, 3.82265382042425327924e+00) (1, 5.94662869294944940179e-01) (0, 3.77639736424476835097e+00) (1, 6.63542210457685688318e-01) (0, 3.53252543597791612839e+00) (1, 7.67863856415808898603e-01) (0, -2.09841873721864935476e+00) (1, -7.47249727387776285781e-01) (0, -2.71710914926419722093e+00) (1, -9.59099041646647609838e-01) (0, 3.99597523524720799060e+00) (1, 7.13762579832842081196e-01) (0, -1.48194523351425888613e+00) (1, -1.02407669113081367662e+00) (0, 3.64866665241770160577e+00) (1, 7.31041506674995900106e-01) (0, 2.70799385014688853701e+00) (1, -6.17830388612513881075e-02) (0, -1.83570648736699970627e+00) (1, -4.70874477261935264760e-01) (0, 1.73414623993143157676e+00) (1, -6.70997767784676746317e+00) (0, 3.33338501302226575262e+00) (1, 6.33158691214959046256e-01) (0, -1.83815602111242926142e+00) (1, -4.84025339419366151805e-01) (0, -1.82684654404292579066e+00) (1, -5.17610828270273382046e-01) (0, -2.97036862822063207901e+00) (1, -6.08446259125439370408e-01) (0, -1.55319750298582226478e+00) (1, -3.55072653287181905224e-01) (0, -1.96069925647861009743e+00) (1, -4.52473580886551429714e-01) (0, 3.74003113670409526037e+00) (1, 6.94183102543396879369e-01) (0, -2.99572686314341307678e+00) (1, -7.44564557988971476021e-01) (0, -1.75600917841407433428e+00) (1, -5.28521578727154772714e-01) (0, -3.11124348044525644852e+00) (1, -5.80308572269655043030e-01) (0, 1.81677903011980723669e+00) (1, 5.45053557607885874603e-01) (0, 2.48079711765590138484e+00) (1, 3.86131309622807339377e-01) (0, -3.07497877789611084864e+00) (1, -5.93800590072656175877e-01) (0, 1.99128064153517092549e+00) (1, 6.49814921062048855838e-01) (0, -3.11466082080061656967e+00) (1, -5.89658839294511349927e-01) (0, -1.81718786218938821442e+00) (1, -5.12403779056469721453e-01) (0, -1.71929341852067674168e+00) (1, -3.41399197110226981788e-01) (0, 3.64586339049310614868e+00) (1, 7.32790183717062393320e-01) (0, -1.23590102154269956714e+02) (1, 5.45724743168717818520e+00) (0, -1.68041128285788388119e+00) (1, -3.59042130394469471977e-01) (0, 2.43851574512513780135e+00) (1, 2.14019837505277227274e-01) (0, -1.59557511020856622963e+02) (1, 5.50712490711336588589e+00) (0, -2.41067229617634648520e+00) (1, -4.40107680569330361742e-01) (0, 3.77631076255677555764e+00) (1, 6.63075955076660616960e-01) (0, 2.44221338528876463769e+00) (1, 2.10330978021359055186e-01) (0, -1.93123477708832091970e+00) (1, -4.27838434174960091649e-01) (0, 2.71537371399970561825e+00) (1, 9.01143656073312482313e-01) (0, -1.59557511020856622963e+02) (1, 5.51016929630165552823e+00) (0, 3.85226435288885671326e+00) (1, 5.79815402802055790410e-01) (0, -3.15508508837887191589e+00) (1, 4.61879372771926755004e-01) (0, -1.70851772122540279675e+00) (1, -3.47121587295868949674e-01) (0, -1.60234219748313133636e+00) (1, -3.71074836764226589914e-01) (0, -2.15598495091339570351e+00) (1, -4.61638193056114864987e-01) (0, -1.84020313588017137008e+00) (1, -4.78860983821110530734e-01) (0, -1.23616435546931185741e+02) (1, 5.43094967242247061989e+00) (0, -7.59931276399763078189e+00) (1, 1.75299152788047502005e-01) (0, -3.11629502764501831180e+00) (1, -6.89897650280856367111e-01) (0, 2.74118681417610021711e+00) (1, 9.16618476395454351291e-01) (0, -3.13214929287592891427e+00) (1, -5.77153118531584241602e-01) (0, 4.00530676265239282685e+00) (1, 1.89015955069739782779e-01) (0, 3.59822245611950108923e+00) (1, 7.48128621704943208570e-01) (0, -1.23616435546931185741e+02) (1, 5.39994190005346119676e+00) (0, -1.19960428850905187481e+00) (1, -1.19167724115499895632e+00) (0, -1.74559127548417869491e+00) (1, -3.36902958264361562790e-01) (0, -2.07240503749642313025e+00) (1, -4.96903666214882355767e-01) (0, 3.77498553285703453142e+00) (1, 6.86275499236955188742e-01) (0, -1.81080707296751719504e+00) (1, -5.23195284728104281768e-01) (0, 2.44392259640967601797e+00) (1, 2.43330550485243379821e-01) (0, -1.59169777774901124445e+01) (1, 5.51991468674370899805e+00) (0, -3.10667071094938407327e+00) (1, -6.81494733561732402016e-01) (0, -1.79917019229885233322e+00) (1, -4.69004944587964489600e-01) (0, -3.08391751049552720332e+00) (1, -5.87377912126814449856e-01) (0, 2.14428155984151747049e+00) (1, 1.00958763164126819056e+00) (0, 6.82323945982261648169e+00) (1, 5.66729824452673835999e-01) (0, -1.71823272289560935455e+00) (1, -3.43910305115804948439e-01) (0, -1.72169524266498719101e+00) (1, -3.17227892814278711331e-01) (0, -3.31606989833133969370e+00) (1, -5.44584872199556979666e-01) (0, 4.42310262907010809386e+00) (1, 4.91896552272075238132e-01) (0, -2.04939093015839794987e+01) (1, 4.12680707099238741620e+00) (0, 3.13911821328297113709e+00) (1, -7.68812864133086026897e-02) (0, -1.41056188033929696957e+00) (1, -4.30477093264009347262e-01) (0, -3.15617984072281965169e+00) (1, -6.07739618468595033107e-01) (0, -2.66008996479466031104e+00) (1, -7.79126453496611026672e-01) (0, 3.80758301791389808244e+00) (1, 6.01037987615578694900e-01) (0, -2.74509677232803772640e+00) (1, -7.77539749092983845102e-01) (0, -1.81646597404385956587e+00) (1, -4.71992360890875706225e-01) (0, 3.93099660563666164492e+00) (1, 6.25683091713439498704e-01) (0, 3.95131627666628926221e+00) (1, 6.11113541670522675275e-01) (0, 3.63408870169141717810e+00) (1, 7.41906496985093588670e-01) (2, -1.07347699689566880576e-01) (3, 2.40551200811097515286e-01) (4, -4.11051729304455909508e-02) (5, -1.37939810981972083015e-01) (6, 2.04997077761671198104e-01) (7, 1.54574512040095118914e-01) (8, 6.66208303095443543640e-02) (9, 2.54943660437351116155e-01) (10, -7.82126137844872809657e-02) (11, -1.99617731604103593179e-01) (12, 3.43819932108308801144e-02) (13, 6.48051843980216590868e-02) (14, -1.52252765034971565550e-01) (15, 1.77379546212449695775e-01) (16, 2.21702511434768656517e-01) (17, -1.94431611767011763847e-01) (18, 2.01665164371306160351e-01) (19, 1.44253630967209250935e-01) (20, -9.58987930340657324102e-02) (21, 3.93206736944019918933e-01) (22, 8.77135490170356524331e-02) (23, 4.62891748520701251657e-02) (24, -1.99017729761986783554e-01) (25, 3.66388165230145043672e-02) (26, 1.85031680692576000480e-01) (27, -1.39461886316139122011e-01) (28, 2.61690452741386747615e-01) (29, 2.55877772810130910131e-01) (30, 1.93167046277250675779e-01) (31, 2.00666792279542954835e-01) (32, 8.40138507761165193033e-02) (33, 7.99317392809509585927e-02) (34, 3.94113045546463869329e-01) (35, 1.17068006974607063952e-01) (36, 6.36240989914223648016e-02) (37, 2.47171163033246737983e-01) (38, 2.15246122722217353429e-01) (39, 1.19027734326753370508e-01) (40, 1.84042975824703108900e-01) (41, 2.77599870808678206302e-01) (42, 2.77477841001693925627e-01) (43, 4.84129256981987304842e-02) (44, 3.81912844957672914514e-01) (45, -3.02382343699567172901e-02) (46, 2.44784063003320034868e-01) (47, 3.00165539033020956072e-01) (48, -2.03276617997363351353e-01) (49, -1.80605588727387050829e-01) (50, -1.05237839355457205026e-01) (51, -1.60461736172075146445e-02) (52, 1.56862637439044216858e-01) (53, -8.57074200167527305849e-02) (54, -1.21264774755247273230e-01) (55, 6.84651078720695076274e-03) (56, 1.69425346059972503632e-01) (57, -1.42383383287201126244e-01) (58, -2.64146316625936683486e-02) (59, 3.27904397914812573145e-01) (60, 1.85042289889196694130e-02) (61, 7.01157949189398221890e-02) (62, -1.52581294039306814003e-01) (63, -1.70987690805908289227e-02) (64, -1.22723129381304169039e-01) (65, 2.35972380232808837119e-01) (66, -5.95747372861666554811e-02) (67, -1.90758886536509408849e-01) (68, 3.26691584712648197542e-01) (69, 1.82914451786674703282e-01) (70, 1.12003789162517436440e-01) (71, -1.87298538068179365457e-01) (72, 3.95155531594521491900e-01) (73, 1.93588650323499866790e-01) (74, 3.40487216783394386344e-01) (75, -1.78481104216939273632e-01) (76, -1.91150409920412434062e-01) (77, -4.68980901893517709844e-01) (78, -8.25861677031375085445e-02) (79, 2.57981772569132850048e-01) (80, 6.84678744763167201892e-02) (81, -1.31090477940312942484e-02) (82, -1.58268047278225243435e-01) (83, -1.73562979523573440721e-01) (84, 7.89120922865498841681e-02) (85, 2.69728218367342287287e-01) (86, 5.78951991261504317343e-02) (87, 2.52577203251153126207e-01) (88, 3.56648607723102223366e-02) (89, 1.96500485297641747096e-01) (90, 1.03418618094559905396e-01) (91, -1.08381383952368182122e-01) (92, -1.44978032293807068687e-01) (93, 1.36319443284704744368e-01) (94, -1.01837836643445173168e-01) (95, 6.56207064100285675234e-02) (96, -1.64206928863536966157e-01) (97, 2.46239879238528608374e-01) (98, 4.07398272446402420766e-01) (99, -1.56802735056124076252e-01) (100, 1.17969943461539009122e-01) (101, 2.05940197219514981031e-01) (102, -1.24259810619548341504e-01) (103, -1.32674047418361029660e-01) (104, 2.18072845299388262674e+00) (105, -5.23684889855067364772e-03) (106, 4.15465289122377789965e-01) (107, 1.31836554032601110942e-01) (108, 3.11287615359325087194e-01) (109, 4.39459630944106671713e-01) (110, 7.52483280267734477853e-02) (111, 2.47335495523583970279e-01) (112, -1.40147332324801421333e-01) (113, -2.04144163855269983321e-01) (114, 1.22227332054808277007e-01) (115, 2.84433866530949319706e-01) (116, 1.32795533678035093672e-01) (117, 1.20520911800319342581e-03) (118, 2.31415572196361912782e-02) (119, 2.30742311173723013695e-01) (120, -7.64076275931906523375e-01) (121, -1.53950562919626859903e-01) (122, -1.77955559152231046482e-01) (123, -1.56321176268369332885e-01) (124, -1.76871094985208310302e-01) (125, 1.07377853225128633285e-01) (126, 3.29338990099394990363e-01) (127, -1.46827642556201426460e-01) (128, -1.03710371659671701794e-01) (129, -1.58717376892864830973e-01) (130, 2.63642999739443884000e-01) (131, 2.45629516124546726230e-01) (132, 1.03932400731761127588e+01) (133, -9.99658761417018294770e-03) (134, 2.55431362466908618014e-01) (135, 6.45997757442945130801e-02) (136, 1.56872631875482670960e-01) (137, 2.06792909354301057689e-01) (138, 6.91483426136762224790e-02) (139, -1.59248399614889790676e-01) (140, 4.83995494102766710132e-01) (141, 8.26934046656248172846e-02) (142, 1.69894425078550515007e-01) (143, 6.39551845962732512518e-02) (144, 4.91145464517276503225e-02) (145, 1.95353427534588813819e-01) (146, 7.45315100100694405416e-02) (147, 1.80114876051773897814e-01) (148, 8.16923232017149753004e-02) (149, 3.03528071742960536827e-01) (150, -1.65456691416084072932e-01) (151, 3.36416136764143880455e+00) (152, 4.01818499767463199746e-01) (153, 1.98704115019322141711e-01) (154, 1.50000000000000000000e+03) (155, 5.40926317629365164402e-03) (156, -1.38695222266227380370e-01) (157, 2.07373369618151143223e-01) (158, 2.87172401935155030550e-01) (159, -9.51241347579846185933e-02) (160, 1.50000000000000000000e+03) (161, -2.06286983063414697259e-01) (162, 5.84445209381331039905e-03) (163, 4.07639520850905379135e-01) (164, 1.18716993623545361003e-01) (165, -4.02132541077467649954e-03) (166, 2.55323739191196219522e-01) (167, 3.37707256102633435191e+00) (168, 2.16633877306497302229e-01) (169, 1.65211978218346322578e-01) (170, -6.20272819105840006459e-02) (171, 1.62447081310430452294e-01) (172, 9.21015620396325174202e-02) (173, -1.85373753864486429110e-01) (174, 3.43565806858957945025e+00) (175, -1.06814290983760842857e-01) (176, 2.21907654353615230169e-01) (177, -2.92023313757221111842e-02) (178, -1.32667724786529050984e-01) (179, 1.31289109106273310656e-01) (180, 2.46523698692841103375e-01) (181, 7.15018086731478486051e-01) (182, 1.40383690311553815944e-01) (183, 2.62947780924611296260e-01) (184, 1.78950835368408889270e-01) (185, -8.04730079630229522270e-03) (186, -9.41705841563793000226e-02) (187, 2.24708600063797780955e-01) (188, 3.22136687931081133751e-01) (189, 8.80621582169825445341e-02) (190, -2.92477988845129058260e-02) (191, -2.72117930399104768213e+00) (192, 8.35747143848122736598e-02) (193, 2.82004073613802974663e-01) (194, 1.76746933844438375294e-01) (195, 1.06825112541181571624e-01) (196, -1.71375097904834128304e-01) (197, 9.11670244874274310343e-02) (198, 2.81166325549755291568e-01) (199, -1.15846933221987191676e-01) (200, -1.28410859146672523545e-01) (201, -1.77523968441495538784e-01) (202, -5.21327384657538778212e-02) 
