FANN_FLO_2.1
num_layers=3
learning_rate=0.700000
connection_rate=1.000000
network_type=0
learning_momentum=0.000000
training_algorithm=2
train_error_function=1
train_stop_function=0
cascade_output_change_fraction=0.010000
quickprop_decay=-0.000100
quickprop_mu=1.750000
rprop_increase_factor=1.200000
rprop_decrease_factor=0.500000
rprop_delta_min=0.000000
rprop_delta_max=50.000000
rprop_delta_zero=0.100000
cascade_output_stagnation_epochs=12
cascade_candidate_change_fraction=0.010000
cascade_candidate_stagnation_epochs=12
cascade_max_out_epochs=150
cascade_min_out_epochs=50
cascade_max_cand_epochs=150
cascade_min_cand_epochs=50
cascade_num_candidate_groups=2
bit_fail_limit=3.49999999999999977796e-01
cascade_candidate_limit=1.00000000000000000000e+03
cascade_weight_multiplier=4.00000000000000022204e-01
cascade_activation_functions_count=10
cascade_activation_functions=3 5 7 8 10 11 14 15 16 17 
cascade_activation_steepnesses_count=4
cascade_activation_steepnesses=2.50000000000000000000e-01 5.00000000000000000000e-01 7.50000000000000000000e-01 1.00000000000000000000e+00 
layer_sizes=2 201 2 
scale_included=0
neurons (num_inputs, activation_function, activation_steepness)=(0, 0, 0.00000000000000000000e+00) (0, 0, 0.00000000000000000000e+00) (2, 4, 5.00000000000000000000e-01) (2, 4, 5.00000000000000000000e-01) (2, 4, 5.00000000000000000000e-01) (2, 4, 5.00000000000000000000e-01) (2, 4, 5.00000000000000000000e-01) (2, 4, 5.00000000000000000000e-01) (2, 4, 5.00000000000000000000e-01) (2, 4, 5.00000000000000000000e-01) (2, 4, 5.00000000000000000000e-01) (2, 4, 5.00000000000000000000e-01) (2, 4, 5.00000000000000000000e-01) (2, 4, 5.00000000000000000000e-01) (2, 4, 5.00000000000000000000e-01) (2, 4, 5.00000000000000000000e-01) (2, 4, 5.00000000000000000000e-01) (2, 4, 5.00000000000000000000e-01) (2, 4, 5.00000000000000000000e-01) (2, 4, 5.00000000000000000000e-01) (2, 4, 5.00000000000000000000e-01) (2, 4, 5.00000000000000000000e-01) (2, 4, 5.00000000000000000000e-01) (2, 4, 5.00000000000000000000e-01) (2, 4, 5.00000000000000000000e-01) (2, 4, 5.00000000000000000000e-01) (2, 4, 5.00000000000000000000e-01) (2, 4, 5.00000000000000000000e-01) (2, 4, 5.00000000000000000000e-01) (2, 4, 5.00000000000000000000e-01) (2, 4, 5.00000000000000000000e-01) (2, 4, 5.00000000000000000000e-01) (2, 4, 5.00000000000000000000e-01) (2, 4, 5.00000000000000000000e-01) (2, 4, 5.00000000000000000000e-01) (2, 4, 5.00000000000000000000e-01) (2, 4, 5.00000000000000000000e-01) (2, 4, 5.00000000000000000000e-01) (2, 4, 5.00000000000000000000e-01) (2, 4, 5.00000000000000000000e-01) (2, 4, 5.00000000000000000000e-01) (2, 4, 5.00000000000000000000e-01) (2, 4, 5.00000000000000000000e-01) (2, 4, 5.00000000000000000000e-01) (2, 4, 5.00000000000000000000e-01) (2, 4, 5.00000000000000000000e-01) (2, 4, 5.00000000000000000000e-01) (2, 4, 5.00000000000000000000e-01) (2, 4, 5.00000000000000000000e-01) (2, 4, 5.00000000000000000000e-01) (2, 4, 5.00000000000000000000e-01) (2, 4, 5.00000000000000000000e-01) (2, 4, 5.00000000000000000000e-01) (2, 4, 5.00000000000000000000e-01) (2, 4, 5.00000000000000000000e-01) (2, 4, 5.00000000000000000000e-01) (2, 4, 5.00000000000000000000e-01) (2, 4, 5.00000000000000000000e-01) (2, 4, 5.00000000000000000000e-01) (2, 4, 5.00000000000000000000e-01) (2, 4, 5.00000000000000000000e-01) (2, 4, 5.00000000000000000000e-01) (2, 4, 5.00000000000000000000e-01) (2, 4, 5.00000000000000000000e-01) (2, 4, 5.00000000000000000000e-01) (2, 4, 5.00000000000000000000e-01) (2, 4, 5.00000000000000000000e-01) (2, 4, 5.00000000000000000000e-01) (2, 4, 5.00000000000000000000e-01) (2, 4, 5.00000000000000000000e-01) (2, 4, 5.00000000000000000000e-01) (2, 4, 5.00000000000000000000e-01) (2, 4, 5.00000000000000000000e-01) (2, 4, 5.00000000000000000000e-01) (2, 4, 5.00000000000000000000e-01) (2, 4, 5.00000000000000000000e-01) (2, 4, 5.00000000000000000000e-01) (2, 4, 5.00000000000000000000e-01) (2, 4, 5.00000000000000000000e-01) (2, 4, 5.00000000000000000000e-01) (2, 4, 5.00000000000000000000e-01) (2, 4, 5.00000000000000000000e-01) (2, 4, 5.00000000000000000000e-01) (2, 4, 5.00000000000000000000e-01) (2, 4, 5.00000000000000000000e-01) (2, 4, 5.00000000000000000000e-01) (2, 4, 5.00000000000000000000e-01) (2, 4, 5.00000000000000000000e-01) (2, 4, 5.00000000000000000000e-01) (2, 4, 5.00000000000000000000e-01) (2, 4, 5.00000000000000000000e-01) (2, 4, 5.00000000000000000000e-01) (2, 4, 5.00000000000000000000e-01) (2, 4, 5.00000000000000000000e-01) (2, 4, 5.00000000000000000000e-01) (2, 4, 5.00000000000000000000e-01) (2, 4, 5.00000000000000000000e-01) (2, 4, 5.00000000000000000000e-01) (2, 4, 5.00000000000000000000e-01) (2, 4, 5.00000000000000000000e-01) (2, 4, 5.00000000000000000000e-01) (2, 4, 5.00000000000000000000e-01) (2, 4, 5.00000000000000000000e-01) (2, 4, 5.00000000000000000000e-01) (2, 4, 5.00000000000000000000e-01) (2, 4, 5.00000000000000000000e-01) (2, 4, 5.00000000000000000000e-01) (2, 4, 5.00000000000000000000e-01) (2, 4, 5.00000000000000000000e-01) (2, 4, 5.00000000000000000000e-01) (2, 4, 5.00000000000000000000e-01) (2, 4, 5.00000000000000000000e-01) (2, 4, 5.00000000000000000000e-01) (2, 4, 5.00000000000000000000e-01) (2, 4, 5.00000000000000000000e-01) (2, 4, 5.00000000000000000000e-01) (2, 4, 5.00000000000000000000e-01) (2, 4, 5.00000000000000000000e-01) (2, 4, 5.00000000000000000000e-01) (2, 4, 5.00000000000000000000e-01) (2, 4, 5.00000000000000000000e-01) (2, 4, 5.00000000000000000000e-01) (2, 4, 5.00000000000000000000e-01) (2, 4, 5.00000000000000000000e-01) (2, 4, 5.00000000000000000000e-01) (2, 4, 5.00000000000000000000e-01) (2, 4, 5.00000000000000000000e-01) (2, 4, 5.00000000000000000000e-01) (2, 4, 5.00000000000000000000e-01) (2, 4, 5.00000000000000000000e-01) (2, 4, 5.00000000000000000000e-01) (2, 4, 5.00000000000000000000e-01) (2, 4, 5.00000000000000000000e-01) (2, 4, 5.00000000000000000000e-01) (2, 4, 5.00000000000000000000e-01) (2, 4, 5.00000000000000000000e-01) (2, 4, 5.00000000000000000000e-01) (2, 4, 5.00000000000000000000e-01) (2, 4, 5.00000000000000000000e-01) (2, 4, 5.00000000000000000000e-01) (2, 4, 5.00000000000000000000e-01) (2, 4, 5.00000000000000000000e-01) (2, 4, 5.00000000000000000000e-01) (2, 4, 5.00000000000000000000e-01) (2, 4, 5.00000000000000000000e-01) (2, 4, 5.00000000000000000000e-01) (2, 4, 5.00000000000000000000e-01) (2, 4, 5.00000000000000000000e-01) (2, 4, 5.00000000000000000000e-01) (2, 4, 5.00000000000000000000e-01) (2, 4, 5.00000000000000000000e-01) (2, 4, 5.00000000000000000000e-01) (2, 4, 5.00000000000000000000e-01) (2, 4, 5.00000000000000000000e-01) (2, 4, 5.00000000000000000000e-01) (2, 4, 5.00000000000000000000e-01) (2, 4, 5.00000000000000000000e-01) (2, 4, 5.00000000000000000000e-01) (2, 4, 5.00000000000000000000e-01) (2, 4, 5.00000000000000000000e-01) (2, 4, 5.00000000000000000000e-01) (2, 4, 5.00000000000000000000e-01) (2, 4, 5.00000000000000000000e-01) (2, 4, 5.00000000000000000000e-01) (2, 4, 5.00000000000000000000e-01) (2, 4, 5.00000000000000000000e-01) (2, 4, 5.00000000000000000000e-01) (2, 4, 5.00000000000000000000e-01) (2, 4, 5.00000000000000000000e-01) (2, 4, 5.00000000000000000000e-01) (2, 4, 5.00000000000000000000e-01) (2, 4, 5.00000000000000000000e-01) (2, 4, 5.00000000000000000000e-01) (2, 4, 5.00000000000000000000e-01) (2, 4, 5.00000000000000000000e-01) (2, 4, 5.00000000000000000000e-01) (2, 4, 5.00000000000000000000e-01) (2, 4, 5.00000000000000000000e-01) (2, 4, 5.00000000000000000000e-01) (2, 4, 5.00000000000000000000e-01) (2, 4, 5.00000000000000000000e-01) (2, 4, 5.00000000000000000000e-01) (2, 4, 5.00000000000000000000e-01) (2, 4, 5.00000000000000000000e-01) (2, 4, 5.00000000000000000000e-01) (2, 4, 5.00000000000000000000e-01) (2, 4, 5.00000000000000000000e-01) (2, 4, 5.00000000000000000000e-01) (2, 4, 5.00000000000000000000e-01) (2, 4, 5.00000000000000000000e-01) (2, 4, 5.00000000000000000000e-01) (2, 4, 5.00000000000000000000e-01) (2, 4, 5.00000000000000000000e-01) (2, 4, 5.00000000000000000000e-01) (2, 4, 5.00000000000000000000e-01) (2, 4, 5.00000000000000000000e-01) (2, 4, 5.00000000000000000000e-01) (2, 4, 5.00000000000000000000e-01) (2, 4, 5.00000000000000000000e-01) (2, 4, 5.00000000000000000000e-01) (2, 4, 5.00000000000000000000e-01) (2, 4, 5.00000000000000000000e-01) (0, 0, 0.00000000000000000000e+00) (201, 4, 5.00000000000000000000e-01) (0, 0, 0.00000000000000000000e+00) 
connections (connected_to_neuron, weight)=(0, -8.78081616528530339849e-01) (1, -1.70572879942369089179e-02) (0, 1.55845060936622181735e+00) (1, -5.55384342757576754401e-01) (0, 1.55040043395909266088e+00) (1, -5.52786820403630030363e-01) (0, -9.20392642774789049298e-01) (1, 1.06999608960074849007e-01) (0, -4.63809446836670069558e+00) (1, -1.30973283711183197120e+00) (0, -8.90558517579161157407e-01) (1, 3.53704113580054352317e-02) (0, -1.17501549505536329043e+00) (1, -6.77089975895120321780e-01) (0, -4.61034373494839577745e+00) (1, -1.31904646416275217469e+00) (0, -4.42278179809296290159e+00) (1, -1.38455936674651303164e+00) (0, -4.35579093150456131411e+01) (1, -7.02208124755614448986e+00) (0, 1.50827762782024077381e+00) (1, -2.07613063812831233346e-01) (0, -9.24596313672853886700e-01) (1, -9.13130403393604683782e-02) (0, -1.24547293985250484560e+00) (1, -6.51580722960724112447e-01) (0, -5.19769678606041618529e-01) (1, 1.23532936393078301984e-01) (0, -1.97258111144526289138e+01) (1, -4.49612488354735262419e+00) (0, -1.98931524212582395705e+01) (1, -4.40131784732632524992e+00) (0, -4.37098541982133568240e+01) (1, -6.95957887082093407116e+00) (0, -4.34205931058736194217e+00) (1, -1.41278964717033339582e+00) (0, -9.58010180146757095443e-01) (1, 8.96270569448973652982e-02) (0, -9.40588150012006796175e-01) (1, -1.96012578861761987969e-02) (0, 1.53394699100300013761e+00) (1, -2.42866598623955098901e-01) (0, 1.48848956103787122274e+00) (1, -1.18769039050947267100e-01) (0, 1.46719883416445817659e+00) (1, -6.44324163708910602200e-02) (0, -8.74002165502534622554e-01) (1, -8.47344592216931757900e-02) (0, -4.35598469726402939273e+01) (1, -6.98818601577275444470e+00) (0, -4.19112674369914106620e+00) (1, -1.46549208570127609264e+00) (0, -1.23340513938062668053e+00) (1, -6.55714343139383259995e-01) (0, -9.38632831488109720119e-01) (1, 7.55734517374521408417e-02) (0, -4.66429946221497360170e+00) (1, -1.30064171592728627935e+00) (0, -9.37607551852939313797e-01) (1, 4.65011357062760921632e-02) (0, 1.53196802544631416332e+00) (1, -4.86581825883427521173e-01) (0, -4.36339239827950180484e+01) (1, -7.00054478554719139538e+00) (0, -3.84902201429969503810e-01) (1, -6.91666159396720492403e-01) (0, -1.22977007597025056462e+00) (1, -5.98751642244836457252e-01) (0, 1.53511897349559345294e+00) (1, -1.91690060856753080598e-01) (0, -1.98946353475673483047e+01) (1, -4.32479928936056978728e+00) (0, 1.45673641732761716128e+00) (1, -9.98174571606545713021e-02) (0, -4.59860827281409356715e+00) (1, -1.32312855587715594297e+00) (0, -4.36269836775620163394e+01) (1, -6.95480963497155357800e+00) (0, -4.35919112018902481509e+01) (1, -6.89172327427857567272e+00) (0, -9.84877027797204318560e-01) (1, -1.17849482055937246350e-01) (0, 1.53540024657144003051e+00) (1, -5.46486387660924499698e-01) (0, -4.36786600850184143496e+01) (1, -7.08007276712649513684e+00) (0, -9.72057497542982762440e-01) (1, 8.20235169512282813464e-02) (0, 1.49505891464044626815e+00) (1, -9.80562351736945919667e-02) (0, 1.46439449100225260736e+00) (1, -3.74392386342260852228e-01) (0, -4.15154826433262780228e+00) (1, -1.47916261151167294230e+00) (0, -4.42255879287630460084e+00) (1, -1.38464358272459309163e+00) (0, -5.06864207887952056275e-01) (1, 4.63086513797506885148e-02) (0, 1.52396334819747347744e+00) (1, -4.91466612131063906865e-01) (0, -6.38716230584042365948e-01) (1, 1.21491888010549248245e-01) (0, -3.54087348941126645041e-01) (1, -7.39022596901526829249e-01) (0, -9.66975338196302769411e-01) (1, 1.14774509307054461971e-01) (0, 1.53993378513864653812e+00) (1, -4.04436134841812566787e-01) (0, 1.46771260392153424235e+00) (1, -6.69806192431620650574e-02) (0, -1.71673159558550919579e-01) (1, -7.05145463642567471574e-01) (0, 1.47013444375627577720e+00) (1, -3.84422994351607205665e-01) (0, 1.50403327834667122076e+00) (1, -1.34105190512830596550e-01) (0, -4.36154367677529037906e+01) (1, -7.08593551723950554333e+00) (0, 1.48172232160395078715e+00) (1, -1.67188921590418010377e-01) (0, 1.45518367106972501546e+00) (1, -4.69070656539209984714e-02) (0, -4.36770715392787636233e+01) (1, -6.98144555001252342663e+00) (0, -4.36617433406074226809e+01) (1, -6.96030548124306847058e+00) (0, 1.48299982747375058700e+00) (1, -8.44937151328094271374e-02) (0, 1.50280424231697362636e+00) (1, -4.64769627184820233179e-01) (0, -9.19049792263753273502e-01) (1, 9.39752647327710688430e-02) (0, -4.40310684648845107603e+00) (1, -1.39145083088724885734e+00) (0, -9.69550483154760556204e-01) (1, -1.24702779408727454369e-01) (0, -6.30719377156193639067e-01) (1, 2.33314131873038815845e-01) (0, -8.82501674668910940369e-01) (1, 4.30940784377161142937e-02) (0, 1.42984705970378356277e+00) (1, -4.48481491278893626418e-02) (0, -5.35346518647103919442e-01) (1, 1.58727914683157028675e-01) (0, -4.59141499355745086319e+00) (1, -1.32606353404564325515e+00) (0, -5.32484586694158879006e-01) (1, 1.80695423100763946644e-01) (0, -9.91964996762186745904e-01) (1, -2.86082675331156485732e-02) (0, -4.51556329619647645046e+00) (1, -1.35233648958220054048e+00) (0, -4.13897543000121093115e+00) (1, -1.48374372420102007553e+00) (0, -9.51599064651499570999e-01) (1, -1.44389254110209253046e-01) (0, -1.88351164655113088031e+01) (1, -7.91320637203008292460e+00) (0, 1.52285520787286254851e+00) (1, -1.63870504163490054994e-01) (0, -9.13387474952711109211e-01) (1, 4.36514575603791851743e-02) (0, -9.98399473082788535550e-01) (1, 5.62542209774590795668e-02) (0, 1.51415321195709018376e+00) (1, -1.79948975316979092876e-01) (0, 1.53847923595973035127e+00) (1, -2.18332023161623534069e-01) (0, -6.09172692690604145049e-01) (1, 1.81080896460919682500e-01) (0, -1.73974726770471370685e+01) (1, -3.80520415015595636632e+00) (0, -4.51156485424716180432e+00) (1, -1.35359090971012374638e+00) (0, -4.35658786944706619693e+01) (1, -6.96315798072808433972e+00) (0, -1.12271971987092689105e+00) (1, -6.96102336622720474502e-01) (0, -3.43071801823301936185e-01) (1, -7.13551151735368982543e-01) (0, -6.03270145301333937660e-01) (1, 1.84409183091073458627e-01) (0, -4.11116881218082153016e-01) (1, -6.51814830113386922683e-01) (0, -9.35172971712408318545e-01) (1, 9.70712881073398647924e-02) (0, -1.10257092498559772231e+00) (1, -2.40853822312855958554e-01) (0, -9.21058280137459495229e-01) (1, -2.94302803031958985780e-02) (0, -4.68193051638182922147e+00) (1, -1.29410284217959059561e+00) (0, -5.57000408733989349486e+00) (1, 4.69212293733368535076e-01) (0, -8.88028004559713979305e-01) (1, -4.17690044913658631298e-02) (0, 1.48203480953339972181e+00) (1, -1.43637754433418612932e-01) (0, 1.49907184005605143007e+00) (1, -2.05052011651424170857e-01) (0, 1.49119904264918368142e+00) (1, -1.77395757739727627511e-01) (0, -4.36611272968013466311e+01) (1, -7.00649949817650963269e+00) (0, -7.73874157495625047964e-01) (1, -1.00338658941293651372e-01) (0, 1.54941074464676131761e+00) (1, -2.24274889187637438415e-01) (0, 1.54201960508851776410e+00) (1, -4.50200965240587336336e-01) (0, 1.51865135503930948069e+00) (1, -4.16504197251174157479e-01) (0, -5.06450739341526734449e-01) (1, 1.02530695914087366383e-01) (0, -4.37490648753602684451e+01) (1, -6.97334859429591347180e+00) (0, -9.04910728745375148030e-01) (1, 1.01827196522433438552e-01) (0, -9.84606732080702928833e-01) (1, -1.36235258555583327311e-01) (0, 1.50515208499650143814e+00) (1, -1.09982796437974358894e-01) (0, -4.26185641481702770506e+00) (1, -1.44078880285613952772e+00) (0, -4.38433177351045144654e-01) (1, -6.84073504363628903668e-01) (0, -8.88642118153963100902e-01) (1, 8.47793085131963615464e-03) (0, 1.47793458430235635781e+00) (1, -1.87771393765222616157e-01) (0, 1.49635795221146072898e+00) (1, -1.73859049854961256187e-01) (0, -3.19706483555592013701e+00) (1, -6.13746720461586958706e-01) (0, -4.36843366823752106143e+01) (1, -7.08666963039630104504e+00) (0, -8.70785468834888942702e-01) (1, -7.00336462462923803329e-02) (0, -9.51139410775996618774e-01) (1, 3.20009823368673715360e-02) (0, -6.20444163611938659386e-01) (1, 1.88549622838503599942e-01) (0, -9.93669105084679205042e-01) (1, 7.65804472588920148723e-02) (0, -6.11061785561981762882e-01) (1, 1.79406616890339903891e-01) (0, 1.60721781310741040905e+00) (1, -5.37774186409333165848e-01) (0, 1.50073300547601773403e+00) (1, -3.91839182065377156228e-01) (0, 1.54209812159833492551e+00) (1, -4.92300191200160275340e-01) (0, -4.36718625999648750735e+01) (1, -7.03480715959065605603e+00) (0, -2.85989120554018871889e-01) (1, -8.24591269956968853094e-01) (0, -4.06819405627817687332e+00) (1, -1.50830732897288921635e+00) (0, -4.48530881417432070180e+00) (1, -1.36273123523990191686e+00) (0, 1.56327148910863056308e+00) (1, -5.13205288611762511231e-01) (0, 1.47605215327643657375e+00) (1, -1.44042487334095470342e-01) (0, 1.44917933665409304211e+00) (1, -8.91585765976875138650e-02) (0, -9.37933548873815858826e-01) (1, 1.03875059280817513829e-01) (0, -1.87275954940640794177e+01) (1, -7.80818832255155204081e+00) (0, -8.95913600975707713481e-01) (1, 7.79980705143013403058e-02) (0, -4.36855273000557602359e+01) (1, -6.89737942724221397839e+00) (0, -4.53091562606089581777e+00) (1, -1.34699652844200934432e+00) (0, -4.30675710729822824874e+00) (1, -1.42513742352248362621e+00) (0, 1.44092912109619675221e+00) (1, -6.76941942931247320203e-02) (0, -4.30001722253889351322e+00) (1, -1.42747972017810043077e+00) (0, -9.12080740730564110130e-01) (1, -2.19332818377912727725e-02) (0, 1.50310091265052014897e+00) (1, -2.02781917541412531891e-01) (0, -8.90313638115408867435e-01) (1, 7.36536211267504736799e-02) (0, 1.56679484777064392809e+00) (1, -4.10697963185045367140e-01) (0, 1.54235578348754942546e+00) (1, -4.47221300186265047216e-01) (0, -4.23251893800463019346e+00) (1, -1.45089844876057205703e+00) (0, -4.67918895702790216262e+00) (1, -1.29506623431252676504e+00) (0, 1.44171872547419410715e+00) (1, -4.75538115754374213218e-02) (0, -4.37121885917742432071e+01) (1, -6.99369546680443932019e+00) (0, -6.37088009658391851708e-01) (1, 1.44593646506574441402e-01) (0, 1.52032836368543144978e+00) (1, -4.59237068113819812964e-01) (0, -8.16470826629279322617e+00) (1, -4.51249905812661999960e+00) (0, 1.49700386919270433950e+00) (1, -1.03311546901217132799e-01) (0, 1.44586298608506669261e+00) (1, -7.55729365248713202963e-02) (0, -5.74130186857965463254e-01) (1, 9.53425833168124597927e-02) (0, 1.52259461532914408544e+00) (1, -2.04418753128231545091e-01) (0, -4.37308291770179451419e+01) (1, -7.08603371589177299938e+00) (0, 1.51319199954147243226e+00) (1, -4.10682947927135888477e-01) (0, 1.46854409350956793823e+00) (1, -8.09627007187869590643e-02) (0, -9.96617370777006961191e-01) (1, 8.24104155844096880612e-02) (0, -4.36398195750672996951e+01) (1, -7.08757162748568703137e+00) (0, -4.47878904192307203402e+00) (1, -1.36500909746649967680e+00) (0, -9.98092701393315406833e-01) (1, -2.53072080133483444386e-02) (0, -6.25780560838292698733e-01) (1, 6.18957408336652040171e-02) (0, -4.44865878153318394794e+00) (1, -1.37531588534895332643e+00) (0, -4.30355107549320869964e+00) (1, -1.42624876642749098821e+00) (0, 1.53636400421863505983e+00) (1, -4.82142183652164435514e-01) (0, -9.67218092213487423692e-01) (1, 8.77970507464793936681e-02) (0, -4.60529914189333133834e+00) (1, -1.32080992077230741089e+00) (0, -7.13881450684426077657e+00) (1, -4.49619493780754220236e-01) (0, -8.96887936146442688035e-01) (1, -8.40678334252795006476e-02) (0, -9.29758648160416978357e-01) (1, 9.55675722535535010493e-02) (0, -5.02427559540904011826e-01) (1, 1.60827842545801097396e-01) (0, -4.10579222950005284787e+00) (1, -1.49516647038363426070e+00) (0, 1.55147899062761829292e+00) (1, -4.36579061704401305555e-01) (0, -5.16406136495617951176e-01) (1, -8.93973676664472122373e-04) (0, -9.42811928928358522484e-01) (1, 3.07079236560454625626e-02) (0, -5.37254565458050947768e-01) (1, 8.24237715553381988798e-02) (0, 1.50301618734850483960e+00) (1, -1.46038829218078897165e-01) (0, 1.47336107119033754564e+00) (1, -1.27876068251879693172e-01) (0, -9.08086379121206821452e-01) (1, -3.34864356693663489661e-02) (0, -9.93378540067919924006e-01) (1, 3.59258087171088341671e-02) (0, -9.57551168110571726544e-01) (1, -1.39669251697413870916e-01) (0, -4.90936255844977409435e-01) (1, 1.85433435861689379330e-03) (0, -8.72836012893762669407e-01) (1, -3.53471777941153017522e-02) (0, -3.62336394134634476316e-01) (1, -7.16376763293587126569e-01) (0, -9.60344893235038910007e-01) (1, -4.47866374373541362153e-02) (0, -4.33374032570838174649e+00) (1, -1.41565009742338587806e+00) (0, -9.28060372506898434430e-01) (1, -3.75903054851644338741e-02) (0, -5.94431398002314592688e-01) (1, 1.06799467044124490878e-01) (0, -9.28003097262310561177e-01) (1, -8.03325787553273579222e-02) (0, 1.42288980083716820602e+00) (1, -7.15527176121208002835e-02) (0, -9.25867794392942755621e-01) (1, -2.39349037002884509201e-03) (0, -5.82157940236068038864e-01) (1, 1.13649057995805713439e-01) (0, -3.73594786509319543022e-01) (1, -7.62789195822153875959e-01) (0, 1.55168694598396195161e+00) (1, -4.51014855275930881540e-01) (0, -4.02314165878830021228e+00) (1, -1.52420625997887948522e+00) (0, -3.19485748798463031761e+00) (1, -6.18152485150261998825e-01) (0, -4.36128503285010040713e+01) (1, -7.01554611979716469250e+00) (2, 3.33552541831341198275e-01) (3, -1.34479342651839445244e-01) (4, -1.40226003275913391199e-01) (5, 4.02642525871318657238e-01) (6, 7.96189003893005620149e-01) (7, 3.24704819297709501580e-01) (8, 7.42615282575965068856e-02) (9, 6.00887926120280857489e-01) (10, 5.73667996151732473287e-01) (11, 1.50000000000000000000e+03) (12, -1.24368384753652541641e-01) (13, 2.60926897127522428033e-01) (14, 1.55902813464390867237e-02) (15, 2.20319686033285472293e-01) (16, 1.50000000000000000000e+03) (17, 1.50000000000000000000e+03) (18, 1.50000000000000000000e+03) (19, 5.46993347061548007559e-01) (20, 3.52657845732824604124e-01) (21, 2.72295066090404880299e-01) (22, -1.57526026662776374998e-01) (23, -1.41493610003205205761e-01) (24, -1.29254685241051242572e-01) (25, 2.72839306865112818379e-01) (26, 1.50000000000000000000e+03) (27, 5.06884635940933581111e-01) (28, 2.01860536483333997959e-02) (29, 3.28739053167857842030e-01) (30, 8.16126283430917309758e-01) (31, 3.28136403828658385073e-01) (32, -1.22142235698313672554e-01) (33, 1.50000000000000000000e+03) (34, 1.50696386439336527108e-01) (35, -1.34626945101217563444e-02) (36, -1.42195332201525470595e-01) (37, 1.50000000000000000000e+03) (38, -1.20280868526667583662e-01) (39, 8.26366504273056245999e-01) (40, 1.50000000000000000000e+03) (41, 1.50000000000000000000e+03) (42, 2.07485945948101352387e-01) (43, -1.25427374719567080730e-01) (44, 1.50000000000000000000e+03) (45, 3.04090472281980161995e-01) (46, -1.34113931982822703892e-01) (47, -1.25043500780227717639e-01) (48, 5.61646483081025715833e-01) (49, 5.59070326982787801917e-01) (50, 2.31488190545117711316e-01) (51, -1.28751123511691517587e-01) (52, 3.22335233246997254763e-01) (53, 6.39740639762385737699e-02) (54, 3.36685831261578583096e-01) (55, -1.22301516895527748185e-01) (56, -1.09294391387289413498e-01) (57, 3.80612303505969071238e-02) (58, -1.28551734613302909294e-01) (59, -1.41758792462204297191e-01) (60, 1.50000000000000000000e+03) (61, -1.30442092007871518478e-01) (62, -1.06195854926889127201e-01) (63, 1.50000000000000000000e+03) (64, 1.50000000000000000000e+03) (65, -1.34988306915589106882e-01) (66, -1.24753604363582987213e-01) (67, 3.68490157427044884297e-01) (68, 5.71438876335377599069e-01) (69, 2.39720069061441387603e-01) (70, 2.86718159026570051928e-01) (71, 3.56321977897678110470e-01) (72, -1.08786868243520809529e-01) (73, 2.36644349946057347411e-01) (74, 5.94386625534343848720e-01) (75, 2.24498567678487886967e-01) (76, 2.17393745832962947961e-01) (77, 5.84670706045725574462e-01) (78, 5.16278509134213470233e-01) (79, 1.90955364610273736758e-01) (80, 1.50000000000000000000e+03) (81, -1.22785094012876960790e-01) (82, 3.50017894903127790851e-01) (83, 3.04830671519018381321e-01) (84, -1.36813295454737304802e-01) (85, -1.51036422281787180433e-01) (86, 2.91765950751636859994e-01) (87, 1.50000000000000000000e+03) (88, 6.69826174215704783776e-01) (89, 1.50000000000000000000e+03) (90, 2.94022922932094255000e-02) (91, 2.39441115017617264793e-02) (92, 2.76365705549949991493e-01) (93, 2.02369185475261920137e-01) (94, 3.87954503008316464729e-01) (95, -4.84982521484631709519e-02) (96, 2.79748252630453220213e-01) (97, 7.63932053683807454902e-01) (98, -1.88671449921026201935e+01) (99, 2.87740592293472152718e-01) (100, -1.35221279562423080112e-01) (101, -1.46311437794825277559e-01) (102, -1.41123099137065027842e-01) (103, 1.50000000000000000000e+03) (104, 3.20399975910946155366e-01) (105, -1.50800168273780205164e-01) (106, -1.18434912214941789887e-01) (107, -1.23179542780966710946e-01) (108, 2.23801409664190348314e-01) (109, 1.50000000000000000000e+03) (110, 3.44834590084120540254e-01) (111, 1.95443146907303244575e-01) (112, -1.15850568859881153383e-01) (113, 5.38346167884707904605e-01) (114, 9.85734515130074762101e-02) (115, 3.20352578989352931860e-01) (116, -1.41773740079829069227e-01) (117, -1.45081292176482384848e-01) (118, -1.65264656644989527123e+00) (119, 1.50000000000000000000e+03) (120, 3.10489867949519993129e-01) (121, 2.96267520903715886327e-01) (122, 2.92430697984168430636e-01) (123, 2.91752359734562927152e-01) (124, 2.79716103381578429232e-01) (125, -1.27064406671328178344e-01) (126, -1.18275414804695264137e-01) (127, -1.24453592498726742233e-01) (128, 1.50000000000000000000e+03) (129, 4.15134169888745560573e-02) (130, 5.04755979702258494868e-01) (131, 7.28776926024711779739e-01) (132, -1.34995000800223335924e-01) (133, -1.26537899583289203953e-01) (134, -1.36129498047371899627e-01) (135, 3.63711446234173563230e-01) (136, 1.50000000000000000000e+03) (137, 3.73801854041231118586e-01) (138, 1.50000000000000000000e+03) (139, 6.50780154643015751326e-01) (140, 5.33867814267131035599e-01) (141, -1.09764977519338613465e-01) (142, 5.23798052629347310472e-01) (143, 3.15989338614224291035e-01) (144, -1.19698047229905749078e-01) (145, 3.43405528489622746680e-01) (146, -1.29628703489299418328e-01) (147, -1.31239303207536156526e-01) (148, 5.94904371743211202173e-01) (149, 7.83752928785005908985e-01) (150, -1.30284544777222066614e-01) (151, 1.50000000000000000000e+03) (152, 3.08269695031738011348e-01) (153, -1.28110816369862934305e-01) (154, 1.50000000000000000000e+03) (155, -1.32595125328846097368e-01) (156, -1.08903676695840487265e-01) (157, 2.82312486315487942701e-01) (158, -1.39629409703012991040e-01) (159, 1.50000000000000000000e+03) (160, -1.19293395830626342002e-01) (161, -1.19305042856520895911e-01) (162, 2.80339528841237251022e-01) (163, 1.50000000000000000000e+03) (164, 5.64601708345904396147e-01) (165, 2.53009679764684636272e-01) (166, 3.37948019610594174722e-01) (167, 8.41073935753721912967e-01) (168, 7.06939227311678797250e-01) (169, -1.19543495537848265542e-01) (170, 3.31461490288021187745e-01) (171, 6.83405275373381804194e-01) (172, 1.09540595387770665070e+01) (173, 2.39771771026583646602e-01) (174, 3.67679009231991871243e-01) (175, 2.33056924285205441238e-01) (176, 5.87942460275640121914e-01) (177, -1.34296563013787173535e-01) (178, 2.58389997800863358002e-01) (179, 3.02023218628831413568e-01) (180, 2.56513643583329842279e-01) (181, -1.29709118689486480047e-01) (182, -1.34700821864909586756e-01) (183, 3.15642085428570307037e-01) (184, 2.69955100769462830179e-01) (185, 2.26150014902658874627e-01) (186, 2.28046534158742819631e-01) (187, 3.29306561293639221688e-01) (188, 1.33124450401604033090e-01) (189, 2.65348033349946443860e-01) (190, 7.10579314678367213176e-01) (191, 2.89449188418974656667e-01) (192, 2.92681782550284985689e-01) (193, 2.67724572869577348566e-01) (194, -1.26265321198195973329e-01) (195, 2.99658266414969565172e-01) (196, 2.73950137913458513506e-01) (197, 9.62471570844604107364e-02) (198, -1.33298606431622584934e-01) (199, 5.16296734047626548758e-01) (200, -2.01197961829278693102e+00) (201, 1.50000000000000000000e+03) (202, -1.56818466434695963363e-02) 
