FANN_FLO_2.1
num_layers=3
learning_rate=0.700000
connection_rate=1.000000
network_type=0
learning_momentum=0.000000
training_algorithm=2
train_error_function=1
train_stop_function=0
cascade_output_change_fraction=0.010000
quickprop_decay=-0.000100
quickprop_mu=1.750000
rprop_increase_factor=1.200000
rprop_decrease_factor=0.500000
rprop_delta_min=0.000000
rprop_delta_max=50.000000
rprop_delta_zero=0.100000
cascade_output_stagnation_epochs=12
cascade_candidate_change_fraction=0.010000
cascade_candidate_stagnation_epochs=12
cascade_max_out_epochs=150
cascade_min_out_epochs=50
cascade_max_cand_epochs=150
cascade_min_cand_epochs=50
cascade_num_candidate_groups=2
bit_fail_limit=3.49999999999999977796e-01
cascade_candidate_limit=1.00000000000000000000e+03
cascade_weight_multiplier=4.00000000000000022204e-01
cascade_activation_functions_count=10
cascade_activation_functions=3 5 7 8 10 11 14 15 16 17 
cascade_activation_steepnesses_count=4
cascade_activation_steepnesses=2.50000000000000000000e-01 5.00000000000000000000e-01 7.50000000000000000000e-01 1.00000000000000000000e+00 
layer_sizes=2 201 2 
scale_included=0
neurons (num_inputs, activation_function, activation_steepness)=(0, 0, 0.00000000000000000000e+00) (0, 0, 0.00000000000000000000e+00) (2, 4, 5.00000000000000000000e-01) (2, 4, 5.00000000000000000000e-01) (2, 4, 5.00000000000000000000e-01) (2, 4, 5.00000000000000000000e-01) (2, 4, 5.00000000000000000000e-01) (2, 4, 5.00000000000000000000e-01) (2, 4, 5.00000000000000000000e-01) (2, 4, 5.00000000000000000000e-01) (2, 4, 5.00000000000000000000e-01) (2, 4, 5.00000000000000000000e-01) (2, 4, 5.00000000000000000000e-01) (2, 4, 5.00000000000000000000e-01) (2, 4, 5.00000000000000000000e-01) (2, 4, 5.00000000000000000000e-01) (2, 4, 5.00000000000000000000e-01) (2, 4, 5.00000000000000000000e-01) (2, 4, 5.00000000000000000000e-01) (2, 4, 5.00000000000000000000e-01) (2, 4, 5.00000000000000000000e-01) (2, 4, 5.00000000000000000000e-01) (2, 4, 5.00000000000000000000e-01) (2, 4, 5.00000000000000000000e-01) (2, 4, 5.00000000000000000000e-01) (2, 4, 5.00000000000000000000e-01) (2, 4, 5.00000000000000000000e-01) (2, 4, 5.00000000000000000000e-01) (2, 4, 5.00000000000000000000e-01) (2, 4, 5.00000000000000000000e-01) (2, 4, 5.00000000000000000000e-01) (2, 4, 5.00000000000000000000e-01) (2, 4, 5.00000000000000000000e-01) (2, 4, 5.00000000000000000000e-01) (2, 4, 5.00000000000000000000e-01) (2, 4, 5.00000000000000000000e-01) (2, 4, 5.00000000000000000000e-01) (2, 4, 5.00000000000000000000e-01) (2, 4, 5.00000000000000000000e-01) (2, 4, 5.00000000000000000000e-01) (2, 4, 5.00000000000000000000e-01) (2, 4, 5.00000000000000000000e-01) (2, 4, 5.00000000000000000000e-01) (2, 4, 5.00000000000000000000e-01) (2, 4, 5.00000000000000000000e-01) (2, 4, 5.00000000000000000000e-01) (2, 4, 5.00000000000000000000e-01) (2, 4, 5.00000000000000000000e-01) (2, 4, 5.00000000000000000000e-01) (2, 4, 5.00000000000000000000e-01) (2, 4, 5.00000000000000000000e-01) (2, 4, 5.00000000000000000000e-01) (2, 4, 5.00000000000000000000e-01) (2, 4, 5.00000000000000000000e-01) (2, 4, 5.00000000000000000000e-01) (2, 4, 5.00000000000000000000e-01) (2, 4, 5.00000000000000000000e-01) (2, 4, 5.00000000000000000000e-01) (2, 4, 5.00000000000000000000e-01) (2, 4, 5.00000000000000000000e-01) (2, 4, 5.00000000000000000000e-01) (2, 4, 5.00000000000000000000e-01) (2, 4, 5.00000000000000000000e-01) (2, 4, 5.00000000000000000000e-01) (2, 4, 5.00000000000000000000e-01) (2, 4, 5.00000000000000000000e-01) (2, 4, 5.00000000000000000000e-01) (2, 4, 5.00000000000000000000e-01) (2, 4, 5.00000000000000000000e-01) (2, 4, 5.00000000000000000000e-01) (2, 4, 5.00000000000000000000e-01) (2, 4, 5.00000000000000000000e-01) (2, 4, 5.00000000000000000000e-01) (2, 4, 5.00000000000000000000e-01) (2, 4, 5.00000000000000000000e-01) (2, 4, 5.00000000000000000000e-01) (2, 4, 5.00000000000000000000e-01) (2, 4, 5.00000000000000000000e-01) (2, 4, 5.00000000000000000000e-01) (2, 4, 5.00000000000000000000e-01) (2, 4, 5.00000000000000000000e-01) (2, 4, 5.00000000000000000000e-01) (2, 4, 5.00000000000000000000e-01) (2, 4, 5.00000000000000000000e-01) (2, 4, 5.00000000000000000000e-01) (2, 4, 5.00000000000000000000e-01) (2, 4, 5.00000000000000000000e-01) (2, 4, 5.00000000000000000000e-01) (2, 4, 5.00000000000000000000e-01) (2, 4, 5.00000000000000000000e-01) (2, 4, 5.00000000000000000000e-01) (2, 4, 5.00000000000000000000e-01) (2, 4, 5.00000000000000000000e-01) (2, 4, 5.00000000000000000000e-01) (2, 4, 5.00000000000000000000e-01) (2, 4, 5.00000000000000000000e-01) (2, 4, 5.00000000000000000000e-01) (2, 4, 5.00000000000000000000e-01) (2, 4, 5.00000000000000000000e-01) (2, 4, 5.00000000000000000000e-01) (2, 4, 5.00000000000000000000e-01) (2, 4, 5.00000000000000000000e-01) (2, 4, 5.00000000000000000000e-01) (2, 4, 5.00000000000000000000e-01) (2, 4, 5.00000000000000000000e-01) (2, 4, 5.00000000000000000000e-01) (2, 4, 5.00000000000000000000e-01) (2, 4, 5.00000000000000000000e-01) (2, 4, 5.00000000000000000000e-01) (2, 4, 5.00000000000000000000e-01) (2, 4, 5.00000000000000000000e-01) (2, 4, 5.00000000000000000000e-01) (2, 4, 5.00000000000000000000e-01) (2, 4, 5.00000000000000000000e-01) (2, 4, 5.00000000000000000000e-01) (2, 4, 5.00000000000000000000e-01) (2, 4, 5.00000000000000000000e-01) (2, 4, 5.00000000000000000000e-01) (2, 4, 5.00000000000000000000e-01) (2, 4, 5.00000000000000000000e-01) (2, 4, 5.00000000000000000000e-01) (2, 4, 5.00000000000000000000e-01) (2, 4, 5.00000000000000000000e-01) (2, 4, 5.00000000000000000000e-01) (2, 4, 5.00000000000000000000e-01) (2, 4, 5.00000000000000000000e-01) (2, 4, 5.00000000000000000000e-01) (2, 4, 5.00000000000000000000e-01) (2, 4, 5.00000000000000000000e-01) (2, 4, 5.00000000000000000000e-01) (2, 4, 5.00000000000000000000e-01) (2, 4, 5.00000000000000000000e-01) (2, 4, 5.00000000000000000000e-01) (2, 4, 5.00000000000000000000e-01) (2, 4, 5.00000000000000000000e-01) (2, 4, 5.00000000000000000000e-01) (2, 4, 5.00000000000000000000e-01) (2, 4, 5.00000000000000000000e-01) (2, 4, 5.00000000000000000000e-01) (2, 4, 5.00000000000000000000e-01) (2, 4, 5.00000000000000000000e-01) (2, 4, 5.00000000000000000000e-01) (2, 4, 5.00000000000000000000e-01) (2, 4, 5.00000000000000000000e-01) (2, 4, 5.00000000000000000000e-01) (2, 4, 5.00000000000000000000e-01) (2, 4, 5.00000000000000000000e-01) (2, 4, 5.00000000000000000000e-01) (2, 4, 5.00000000000000000000e-01) (2, 4, 5.00000000000000000000e-01) (2, 4, 5.00000000000000000000e-01) (2, 4, 5.00000000000000000000e-01) (2, 4, 5.00000000000000000000e-01) (2, 4, 5.00000000000000000000e-01) (2, 4, 5.00000000000000000000e-01) (2, 4, 5.00000000000000000000e-01) (2, 4, 5.00000000000000000000e-01) (2, 4, 5.00000000000000000000e-01) (2, 4, 5.00000000000000000000e-01) (2, 4, 5.00000000000000000000e-01) (2, 4, 5.00000000000000000000e-01) (2, 4, 5.00000000000000000000e-01) (2, 4, 5.00000000000000000000e-01) (2, 4, 5.00000000000000000000e-01) (2, 4, 5.00000000000000000000e-01) (2, 4, 5.00000000000000000000e-01) (2, 4, 5.00000000000000000000e-01) (2, 4, 5.00000000000000000000e-01) (2, 4, 5.00000000000000000000e-01) (2, 4, 5.00000000000000000000e-01) (2, 4, 5.00000000000000000000e-01) (2, 4, 5.00000000000000000000e-01) (2, 4, 5.00000000000000000000e-01) (2, 4, 5.00000000000000000000e-01) (2, 4, 5.00000000000000000000e-01) (2, 4, 5.00000000000000000000e-01) (2, 4, 5.00000000000000000000e-01) (2, 4, 5.00000000000000000000e-01) (2, 4, 5.00000000000000000000e-01) (2, 4, 5.00000000000000000000e-01) (2, 4, 5.00000000000000000000e-01) (2, 4, 5.00000000000000000000e-01) (2, 4, 5.00000000000000000000e-01) (2, 4, 5.00000000000000000000e-01) (2, 4, 5.00000000000000000000e-01) (2, 4, 5.00000000000000000000e-01) (2, 4, 5.00000000000000000000e-01) (2, 4, 5.00000000000000000000e-01) (2, 4, 5.00000000000000000000e-01) (2, 4, 5.00000000000000000000e-01) (2, 4, 5.00000000000000000000e-01) (2, 4, 5.00000000000000000000e-01) (2, 4, 5.00000000000000000000e-01) (2, 4, 5.00000000000000000000e-01) (2, 4, 5.00000000000000000000e-01) (2, 4, 5.00000000000000000000e-01) (2, 4, 5.00000000000000000000e-01) (2, 4, 5.00000000000000000000e-01) (2, 4, 5.00000000000000000000e-01) (2, 4, 5.00000000000000000000e-01) (2, 4, 5.00000000000000000000e-01) (2, 4, 5.00000000000000000000e-01) (0, 0, 0.00000000000000000000e+00) (201, 4, 5.00000000000000000000e-01) (0, 0, 0.00000000000000000000e+00) 
connections (connected_to_neuron, weight)=(0, 1.49837199779133900535e+00) (1, 8.19051470702097828003e-01) (0, 2.50115236171303489954e+00) (1, 5.52789496882807984690e-01) (0, -1.95368626879272633268e+00) (1, -8.07863561261301099670e-01) (0, -1.49310113028912416766e+00) (1, -4.13367533696919364772e-01) (0, 1.54901585349557024962e+00) (1, 8.64277704784502498470e-01) (0, -1.59610084499178328521e+00) (1, -3.34963514691812014323e-01) (0, 1.46834358339615289601e+00) (1, 9.09651912049586619524e-01) (0, -1.56572524911705257544e+00) (1, -3.20961955574303015037e-01) (0, -2.30725435615578788884e+01) (1, 1.50709886238322754437e+00) (0, -1.61717175116200784224e+00) (1, -3.49844742909413641829e-01) (0, -2.04439971352933813620e+00) (1, -7.55470123349699984594e-01) (0, 2.38057940035744586282e+01) (1, 3.31266647652187495865e-02) (0, -2.04244638282486157266e+00) (1, -9.02031627397820168213e-01) (0, 2.34762426713043659277e+00) (1, 5.07358896875761300471e-01) (0, -2.02402553310565602729e+00) (1, -7.55334540975794666018e-01) (0, -1.93346375400812453549e+00) (1, -8.40645610755571093264e-01) (0, -1.49245230390982808188e+00) (1, -3.97730663340064571898e-01) (0, 1.47742099729604059455e+00) (1, 8.31463224665565880933e-01) (0, 1.53795757165801161293e+00) (1, 8.71965154239761619515e-01) (0, 1.48007749318689363349e+00) (1, 8.51662103289620886493e-01) (0, -1.56200945778757027682e+00) (1, -3.27163261483651102157e-01) (0, 2.47440822886500644273e+00) (1, 5.42299378662002395934e-01) (0, -1.31970803696567582364e+01) (1, -6.38074563524753113342e-01) (0, -1.60829059288745357392e+00) (1, -3.35698283499700045329e-01) (0, 1.51827222662730232372e+00) (1, 8.11101720354390098855e-01) (0, 1.52903738319611059993e+00) (1, 8.53946798176876686881e-01) (0, 7.45573734070330118584e+01) (1, -5.61815609353023948103e+00) (0, 1.40755303253609942438e+00) (1, 9.22888706507977274462e-01) (0, -2.02732279919155278236e+00) (1, -7.64253888915477630484e-01) (0, 2.29023442536955945670e+00) (1, 6.26565143491278231380e-01) (0, -2.00036182206598622813e+00) (1, -7.87758811406741643601e-01) (0, 1.41980846840528851516e+00) (1, 7.35940150964584871573e-01) (0, -2.04756744825852265990e+00) (1, -8.99163185402962472637e-01) (0, -1.45499723346421383496e+00) (1, -4.22501074131938270106e-01) (0, -2.05049389362863410113e+00) (1, -8.00740424311770393473e-01) (0, -1.60596709625306766078e+00) (1, -3.57001273951989495092e-01) (0, 2.48124724369232385612e+00) (1, 7.03571780086875597782e-01) (0, -1.46804828706263168492e+00) (1, -3.40121332053260283512e-01) (0, -1.99225654949449726416e+00) (1, -8.59467092019971179440e-01) (0, -1.62361926653599653037e+00) (1, -3.76844750626784630310e-01) (0, -1.63048066080852094295e+00) (1, -3.18152188282948944487e-01) (0, 1.49170986164618701864e+00) (1, 8.83433985081299333331e-01) (0, -1.89233197245845441437e+00) (1, -8.69143433850559032905e-01) (0, 1.42074442677991141792e+00) (1, 8.76354963477241843961e-01) (0, -1.98905334171758774175e+00) (1, -7.58649287649569292746e-01) (0, -3.93883773504969667556e+01) (1, 3.54253649055311559124e+00) (0, 2.32197973864047746417e+00) (1, 5.23524098456855768724e-01) (0, -1.98947653496363541237e+00) (1, -9.39567344658945424740e-01) (0, -2.35868925737266721399e+01) (1, -2.39361671514427415408e-02) (0, -1.48796471371306116005e+00) (1, -3.30972466115073638004e-01) (0, -1.60082093334627617587e+00) (1, -3.21376799565297577299e-01) (0, -1.99370600376513773533e+00) (1, -7.91059726485951575370e-01) (0, -3.32646075787388406653e+00) (1, -3.60893298086006120151e-01) (0, -2.01739410903944049736e+00) (1, -8.12530686356766951306e-01) (0, -1.51902736765951940079e+00) (1, -4.10256969937592308462e-01) (0, 2.32034035456899534466e+00) (1, 5.82918335245310448300e-01) (0, -1.57479722333084382058e+00) (1, -3.07840889442998366654e-01) (0, -1.98170225309777880973e+00) (1, -7.85286028767804844541e-01) (0, 2.45292361690018667630e+00) (1, 6.47827766198614263260e-01) (0, 1.46500302966052586839e+00) (1, 7.41181584469451038011e-01) (0, 2.33796805037308033093e+01) (1, 1.02050179239712365820e-01) (0, -2.00563896731106394711e+00) (1, -7.87599065934310504922e-01) (0, -2.42354133499823092279e+01) (1, 1.76003572027748633744e+00) (0, -2.35870555288783734227e+01) (1, -2.35059928037941144596e-02) (0, 2.35142770579041737733e+00) (1, 6.67522772063133706943e-01) (0, 2.32903615359576887656e+00) (1, 6.32043865152339123803e-01) (0, -1.94077685094585161707e+00) (1, -7.94148633258752956188e-01) (0, 1.56146725315320100691e+00) (1, 8.63666463492502645138e-01) (0, -1.58132936602836227102e+00) (1, -3.66387947521668755346e-01) (0, 1.41672300295855912999e+00) (1, 8.54134301105802573595e-01) (0, -1.59700818364725827259e+00) (1, -3.53623777093392710480e-01) (0, 2.47260307505294996133e+00) (1, 7.04857129551478500673e-01) (0, -1.61085045462428366747e+00) (1, -2.95141611501485379154e-01) (0, 1.49209296824421944194e+00) (1, 8.25328517799779781683e-01) (0, 1.51017719044596998579e+00) (1, 9.01700580363568926501e-01) (0, -1.91321978640059975341e+00) (1, -8.19891194824152180765e-01) (0, -1.51913847007357905028e+01) (1, -3.85102236744394699208e-01) (0, -2.41669572017396916408e+01) (1, 9.75240872668245023513e-02) (0, 2.37710156423210321464e+01) (1, 3.14940464651071241886e-02) (0, -1.95992863802129546613e+00) (1, -9.01334716292031545848e-01) (0, -1.50429038533178394133e+00) (1, -3.46084309389655064848e-01) (0, 1.46996046760911203144e+00) (1, 7.93154074606732928387e-01) (0, 9.22781497591884658505e+01) (1, -7.62245819059862306233e+00) (0, 2.49177391050120222715e+00) (1, 6.45650727759150111496e-01) (0, -1.62613351986098675361e+00) (1, -3.58147965987664351761e-01) (0, 1.49106524958567532302e+00) (1, 9.16345638686471453127e-01) (0, -2.05491708736528666535e+00) (1, -7.92541101453453133985e-01) (0, 1.59382908221457486597e+00) (1, 7.32690550356140946064e-01) (0, -1.60260523937125554106e+00) (1, -3.45758118063908936879e-01) (0, -1.62168120301471163636e+00) (1, -3.36694427163106324574e-01) (0, 2.47443692732449749272e+00) (1, 6.05400360025100559014e-01) (0, 7.41474959327848210933e+01) (1, -5.58616178331418833380e+00) (0, -1.62249059045882249031e+00) (1, -3.64312673417788446262e-01) (0, 2.31507724678216453285e+00) (1, 5.43306666890663869651e-01) (0, -2.03952564825284055061e+00) (1, -7.62579201815639096118e-01) (0, 2.53627060281080929371e+00) (1, -7.20184426863442705979e+00) (0, -1.91897152723866026847e+00) (1, -8.07243022639878793356e-01) (0, -2.04641353218862853680e+00) (1, -7.60836674926791745044e-01) (0, 1.46531417623061210875e+00) (1, 8.08289387367082445834e-01) (0, -4.28707105902829788135e+00) (1, -1.12097422495056120439e+00) (0, 2.37436505972654465779e+00) (1, 5.47533430468315374107e-01) (0, 1.58503240988812432732e+00) (1, 7.47366996006431194566e-01) (0, -1.98988750265267455575e+00) (1, -8.16035357513173353894e-01) (0, 1.42728551033931538861e+00) (1, 7.63506083820473024915e-01) (0, -1.59650315351133298414e+00) (1, -3.77808845971804474484e-01) (0, 2.44574822967876404078e+00) (1, -4.94324404652264082216e+00) (0, -1.97850891215107527188e+00) (1, -7.80037035132627232237e-01) (0, 2.37883793258564679718e+01) (1, 3.90046985395452669443e-02) (0, 2.29880737693118941678e+00) (1, 5.69286464671023062500e-01) (0, 1.61843989791218811902e+00) (1, 8.27451002385921841054e-01) (0, -1.49887830465736970886e+00) (1, -2.88549263538781741723e-01) (0, -1.95227067704737167197e+00) (1, -8.12332196123345617877e-01) (0, -1.95137830759187114182e+00) (1, -8.19864008349065920278e-01) (0, 1.42243892575946873080e+00) (1, -1.62580709033102221994e+00) (0, 2.46277668789095338653e+00) (1, 5.93277213237743739072e-01) (0, -1.90126962413997380175e+00) (1, -8.67355991136583126533e-01) (0, -1.70288018567295011962e+01) (1, 2.60044657412311530642e-01) (0, -1.88182602408323917942e+00) (1, -8.89944629767354777883e-01) (0, -1.60075343680401349644e+00) (1, -3.15069387448960847031e-01) (0, 1.62136622316589407156e+00) (1, 8.83726971548286832636e-01) (0, -2.05622806615188347124e+00) (1, -7.60901211855922299243e-01) (0, 2.47254901429263940216e+00) (1, 6.25136937189941344073e-01) (0, -1.99727538726476128161e+00) (1, -7.90413187420975660302e-01) (0, -1.96122098474660178091e+00) (1, -7.80910106581050311725e-01) (0, 1.49134802194237536810e+00) (1, 7.66969303195511598048e-01) (0, 1.47626900426548868239e+00) (1, 8.84413066336734776662e-01) (0, 1.50480456901888448584e+00) (1, 8.34491048306769789278e-01) (0, -2.02553780399331140316e+00) (1, -7.64143558985362791880e-01) (0, -1.96728218225652495832e+00) (1, -8.92009334663613762118e-01) (0, 2.43448838658223065678e+00) (1, 5.69487375208269419602e-01) (0, 2.30967439347281988660e+00) (1, 5.48907970850033177790e-01) (0, 9.21730034237663886643e+01) (1, -7.61315391564386434453e+00) (0, 1.49158117304803106151e+00) (1, 8.80361192109689105756e-01) (0, -1.55718046662594611362e+00) (1, -2.94487268012695591057e-01) (0, 1.61389659258841966505e+00) (1, 7.89004676605444266180e-01) (0, 1.61656813285876377329e+00) (1, 8.16863334472296642730e-01) (0, 7.92525551081938459674e+01) (1, -5.93467417417366860377e+00) (0, 1.56067868314517133044e+00) (1, 7.31733074412194040015e-01) (0, -1.88480921151237978961e+00) (1, -8.76555259989770796381e-01) (0, -1.54087611612554331586e+00) (1, -3.39344746862870139115e-01) (0, 1.41453409135482166548e+00) (1, 8.59781031255070549157e-01) (0, 1.62212749097632880080e+00) (1, 7.55810810832489354816e-01) (0, -2.00772934956213244817e+00) (1, -8.09285106714471069722e-01) (0, 2.43578254659676307625e+00) (1, 6.22878647590427325653e-01) (0, 1.59103474120259003044e+00) (1, 8.92026290482438533047e-01) (0, 2.42973938109206732960e+00) (1, 5.00114545265769261384e-01) (0, -1.52888503426169308774e+00) (1, -3.05287242041092143907e-01) (0, -2.00083148246560993400e+00) (1, -7.58548799958168262769e-01) (0, -1.59486734317918465997e+00) (1, -3.56689253857594812391e-01) (0, -1.52941778592925570202e+00) (1, -3.70514506591302306138e-01) (0, -1.64827575988402941221e+00) (1, -3.26087579459649445912e-01) (0, 2.33100521139753347200e+00) (1, 5.96135631706033342070e-01) (0, 1.51478813159337133420e+00) (1, 7.90234213482218006419e-01) (0, -1.99056041764531999050e+00) (1, -7.84422090627227119874e-01) (0, -1.51586380362945050138e+00) (1, -3.65504095592471212051e-01) (0, -1.54819625731340826391e+00) (1, -3.10155892041556691119e-01) (0, 1.51437483954596086022e+00) (1, 8.36222737020606454728e-01) (0, 1.47622849711717996080e+00) (1, 8.24851978664800644658e-01) (0, -1.98613442262890727008e+00) (1, -8.16738893487199080212e-01) (0, 1.62144901458118018134e+00) (1, 7.30990232424203245643e-01) (0, -2.03537529822144946934e+00) (1, -7.89204461831702230867e-01) (0, -1.57502641950964972217e+00) (1, -3.78831689992648101839e-01) (0, 2.57577655983076958535e+00) (1, -6.82922868146096995190e+00) (0, 1.76934079205843586280e+00) (1, -2.22022416669668792855e-01) (0, 9.00381723791688841629e+01) (1, -7.38057118148662016921e+00) (0, 1.41629378219046064835e+00) (1, 7.24584458311120616081e-01) (0, 1.41208575535206160012e+00) (1, 7.40251712549057194757e-01) (0, -1.58916506754441599902e+00) (1, -3.43689008838159060222e-01) (0, -2.04812869278824161157e+00) (1, -9.12271547778316982402e-01) (0, -3.58687908966113955245e+00) (1, -1.39003729646890428207e+00) (0, 1.50479844988348698820e+00) (1, 7.35043179363956133976e-01) (0, 2.41753264545579282796e+00) (1, 5.64262818130861321109e-01) (0, 1.60719060489665110936e+00) (1, 8.28606749179191748311e-01) (0, -2.00141248188598996904e+00) (1, -7.65151067731891232349e-01) (0, 2.42967164238858623904e+00) (1, 5.83748656449396330359e-01) (0, 1.60031565508732342984e+00) (1, 8.53387133967510647103e-01) (0, -2.02832176471709146881e+00) (1, -8.09943390032036969473e-01) (0, 7.41478260227545717953e+01) (1, -5.58615072794093858732e+00) (0, -1.60736963632422757975e+00) (1, -2.94631290646916066400e-01) (0, 1.61605245244445239194e+00) (1, 7.78078718791899048846e-01) (0, -1.51012587118583185841e+00) (1, -3.61759895720454305312e-01) (0, 2.34103678519262281554e+00) (1, 5.16010093237397104993e-01) (0, -1.91978463414107025642e+00) (1, -8.23539536099847424566e-01) (0, -2.41051150229252471036e+01) (1, 8.73552099855666730477e-02) (0, -1.47207670436160320548e+00) (1, -4.10895630557033042507e-01) (0, -1.51098238302744714012e+00) (1, -3.13565758717136322531e-01) (0, 1.50433079274296899186e+00) (1, 7.68836929403196922550e-01) (0, 2.35973923832968335290e+00) (1, 6.49070385978483654910e-01) (0, -1.96423339048920042593e+00) (1, -8.33697164208062835300e-01) (0, -1.68390811225629413173e+01) (1, 3.48084801766202600604e-01) (0, -2.03691848184059765003e+00) (1, -7.67899839976535658614e-01) (0, -1.91043695010910030696e+00) (1, -8.77345759140523817621e-01) (0, 2.32322352557891598224e+00) (1, 5.83110249032961047710e-01) (0, -1.96746708171220263672e+00) (1, -7.83521440272359703805e-01) (0, 1.59345788900874141270e+00) (1, 7.34121503585091317312e-01) (0, -1.51563554138895240087e+00) (1, -3.35448855004565282822e-01) (0, 1.53528377712578878445e+00) (1, 7.31296212978974180530e-01) (0, 1.52389458015427514681e+00) (1, 9.14984644501977695263e-01) (0, -1.94692713391154037517e+00) (1, -8.74163165842183786935e-01) (0, 1.75611161371664015185e+00) (1, -1.46760418500288064569e-01) (2, -4.28561971988882586815e-02) (3, -3.02728525238204586312e-02) (4, 4.91850714884138895400e-02) (5, 1.53806036146817565191e-01) (6, -4.72652483683312432672e-02) (7, 1.38363390889823856256e-01) (8, -5.64602180698597841402e-02) (9, 1.52842513181546624246e-01) (10, 2.14072565951791304872e-01) (11, 1.40862452956187322872e-01) (12, 2.57609236340225790374e-02) (13, 7.58464928565261570226e-02) (14, 8.18577617964529741235e-02) (15, -2.80418838678051229873e-02) (16, 1.79830248023689423520e-02) (17, 9.60578699839899213808e-02) (18, 1.40865040974031963117e-01) (19, -5.75791256036983153943e-02) (20, -8.56266748111980668945e-02) (21, -5.54727990320408384517e-02) (22, 1.43124142457853736898e-01) (23, -3.06821819638896063631e-02) (24, 2.00793072601218952622e-01) (25, 1.61911120999988555891e-01) (26, -3.83125425782408282616e-02) (27, -7.24056127889889517002e-02) (28, -1.07190039692929839354e-01) (29, -6.85197671602698760163e-02) (30, 4.91170378316583972067e-02) (31, -3.24061542205972205610e-02) (32, 5.81672939427328519746e-02) (33, -5.23854625193817674544e-02) (34, 7.21497746626645619639e-02) (35, 1.53935391857132619631e-01) (36, 6.03448852856968143143e-02) (37, 1.37220688946712465750e-01) (38, -9.31165306207426546337e-03) (39, 1.21769443697892151834e-01) (40, 6.39005673045523608922e-02) (41, 1.84284534099848823496e-01) (42, 1.45141259504972836014e-01) (43, -6.20809062698577107664e-02) (44, 6.87799684483449275119e-02) (45, -6.88624236872930062248e-02) (46, 4.80386743809386035364e-02) (47, 5.24541116116018901749e+00) (48, -1.47772633238960251351e-02) (49, 3.39705611733732426583e-02) (50, -5.23818317423794255205e-01) (51, 1.16839941519699994088e-01) (52, 1.47597926036535154193e-01) (53, 9.45976493398017620473e-02) (54, 2.95180894107940905435e-02) (55, 7.18078523678192109925e-02) (56, 1.64615586648163003680e-01) (57, -2.32743467415500102091e-02) (58, 1.32194331616295540632e-01) (59, 5.93766876064253448786e-02) (60, -1.99919886096646057250e-02) (61, -6.79138078699366293245e-02) (62, 7.64860677662131116517e-02) (63, 7.30581435330323464283e-02) (64, 3.61077910102849397589e-01) (65, -6.20174393500830589687e-01) (66, -9.72546765577074825981e-03) (67, -2.52391221873927776298e-02) (68, 8.25693109331054470035e-02) (69, -4.04862234273639445825e-02) (70, 1.42330152448641333862e-01) (71, -5.60245959232550383433e-02) (72, 1.66580434661372622784e-01) (73, -1.50111497783352153962e-02) (74, 1.50980853262791786529e-01) (75, -5.66141115036232836499e-02) (76, -6.82849501527070940066e-02) (77, 6.10784886570311380538e-02) (78, -1.42356171969402589550e-01) (79, -3.91325313481175296459e+00) (80, 7.35127772984745242457e-02) (81, 5.29643746805402437783e-02) (82, 1.41936919674449796291e-01) (83, -7.05515913990276549717e-02) (84, -1.43942802786559992390e-01) (85, -9.95577455055004015283e-03) (86, 1.41491862996184936119e-01) (87, -8.80262767232196652323e-02) (88, 6.84652330996839003641e-02) (89, -6.04302535017244429882e-02) (90, 1.37924248536957116951e-01) (91, 1.47058901440321104781e-01) (92, -2.46315419901062329644e-02) (93, -1.17615785375930259615e-01) (94, 1.69759993510326334665e-01) (95, -1.80245703606772972316e-02) (96, 6.94560797799739226832e-02) (97, -9.97001290125341768089e+01) (98, 6.32630765042633408379e-02) (99, 5.07956720065773914552e-02) (100, -6.77773232663410607479e-02) (101, 1.24802967119612570612e-01) (102, -1.34396954001593012945e-02) (103, -4.84723092807020985995e-02) (104, 6.97636201103576658600e-02) (105, -2.54817061243748886612e-02) (106, 1.57465197712693572019e-01) (107, 5.10846090915269268606e+00) (108, 9.24387691304131009495e-02) (109, 7.80317183432815836275e-02) (110, -1.16612184208080942038e-02) (111, -8.61863051183841821778e-02) (112, 9.79093969004682790347e-02) (113, 1.05665231379444349291e-01) (114, 7.95691175898919217380e-02) (115, 1.06213841053468302511e-01) (116, -2.93629707338978855613e-02) (117, 8.90183795633220503740e-02) (118, -1.20210269930302038333e+00) (119, 8.33046060684853456602e-02) (120, 1.59440857033428057266e-01) (121, -5.24956239609824931724e-02) (122, 4.58336861718838389779e-02) (123, -1.23137278850723001777e-02) (124, 5.40743776164961317821e-02) (125, 8.13731468196793733538e-02) (126, -5.94692226079217289847e-02) (127, -6.99091467483771156211e-02) (128, -5.23231331399166624263e-02) (129, 3.16971201926896095635e-02) (130, 8.06647309567662951224e-02) (131, -3.08548906701730588087e-02) (132, -1.33007698844122331655e-02) (133, -1.31774038673561771917e-01) (134, -7.25227036875027153418e-02) (135, 1.14313460992585144704e-01) (136, -4.40013946867080854575e-02) (137, -5.06836486232849284250e-02) (138, -2.22094059485995615200e-01) (139, -4.09206366999354184677e-02) (140, 5.12169399821065310374e-02) (141, 1.31362944539506809605e-01) (142, -5.35761688001839542217e-02) (143, -6.94781018252512427846e-02) (144, 9.64191022703478617384e-02) (145, -1.88028040335822058116e-02) (146, -7.49455845856823593687e-02) (147, -2.78698314182448843301e-02) (148, 1.23999746081696518574e-01) (149, 4.88622856065815402982e-02) (150, 1.67598622069342784169e-01) (151, 1.54423268985638406647e-01) (152, 1.29414248036087753402e-01) (153, -2.02691322725461302301e-02) (154, -6.32455868044149438489e-02) (155, 4.64514364273026017504e-02) (156, 1.37141513390023700447e-01) (157, 1.36112904299028253385e-01) (158, -4.25107371202194730953e-02) (159, -4.43817677769865401305e-02) (160, 6.12172826250446180940e-02) (161, -7.06164182914034849192e-02) (162, 8.24608621880455472386e-02) (163, 1.59040559087262056703e-01) (164, 5.52011152772200475169e+01) (165, 4.04538630936824294970e-02) (166, -1.42262903048442967968e-01) (167, -6.42370032770407523026e-02) (168, -5.05150464145875457977e-02) (169, 1.35511555884254758508e-01) (170, 8.66653606054626352018e-02) (171, 1.93510010304197177522e-01) (172, -3.69774937694278202360e-02) (173, -1.93649700920269889071e-02) (174, -5.55688147075741809000e-02) (175, 7.07343530212077853392e-02) (176, -2.11588100869345152599e-02) (177, -8.42046867160954753961e-02) (178, 6.28455412544614427928e-02) (179, -1.13819803968765037583e-01) (180, 1.42132873348032623406e-01) (181, -3.01103241243471167476e-02) (182, 1.58779295844510170976e-01) (183, -2.42859339101482787915e-02) (184, 9.91021059199679171803e-02) (185, -7.66833638385294946715e+00) (186, 1.33680035302121719143e-01) (187, 1.22596697364579218514e-01) (188, -5.69938022874105984505e-02) (189, -1.51834434917618808086e-02) (190, 7.53057559041384882992e-02) (191, -2.02121572132303661817e+00) (192, 3.14814504888243917868e-02) (193, 4.43775334410584712530e-02) (194, -2.49904091681171537653e-02) (195, 6.99292801819746540071e-02) (196, -6.16788590510605333472e-02) (197, 1.35389375460203020829e-01) (198, -3.73165616269317199083e-02) (199, -4.49930262212974024782e-02) (200, 7.89027617978964451728e-02) (201, 4.03458052290774984994e-02) (202, 1.93874765114069869121e-02) 
