FANN_FLO_2.1
num_layers=3
learning_rate=0.700000
connection_rate=1.000000
network_type=0
learning_momentum=0.000000
training_algorithm=2
train_error_function=1
train_stop_function=0
cascade_output_change_fraction=0.010000
quickprop_decay=-0.000100
quickprop_mu=1.750000
rprop_increase_factor=1.200000
rprop_decrease_factor=0.500000
rprop_delta_min=0.000000
rprop_delta_max=50.000000
rprop_delta_zero=0.100000
cascade_output_stagnation_epochs=12
cascade_candidate_change_fraction=0.010000
cascade_candidate_stagnation_epochs=12
cascade_max_out_epochs=150
cascade_min_out_epochs=50
cascade_max_cand_epochs=150
cascade_min_cand_epochs=50
cascade_num_candidate_groups=2
bit_fail_limit=3.49999999999999977796e-01
cascade_candidate_limit=1.00000000000000000000e+03
cascade_weight_multiplier=4.00000000000000022204e-01
cascade_activation_functions_count=10
cascade_activation_functions=3 5 7 8 10 11 14 15 16 17 
cascade_activation_steepnesses_count=4
cascade_activation_steepnesses=2.50000000000000000000e-01 5.00000000000000000000e-01 7.50000000000000000000e-01 1.00000000000000000000e+00 
layer_sizes=2 201 2 
scale_included=0
neurons (num_inputs, activation_function, activation_steepness)=(0, 0, 0.00000000000000000000e+00) (0, 0, 0.00000000000000000000e+00) (2, 4, 5.00000000000000000000e-01) (2, 4, 5.00000000000000000000e-01) (2, 4, 5.00000000000000000000e-01) (2, 4, 5.00000000000000000000e-01) (2, 4, 5.00000000000000000000e-01) (2, 4, 5.00000000000000000000e-01) (2, 4, 5.00000000000000000000e-01) (2, 4, 5.00000000000000000000e-01) (2, 4, 5.00000000000000000000e-01) (2, 4, 5.00000000000000000000e-01) (2, 4, 5.00000000000000000000e-01) (2, 4, 5.00000000000000000000e-01) (2, 4, 5.00000000000000000000e-01) (2, 4, 5.00000000000000000000e-01) (2, 4, 5.00000000000000000000e-01) (2, 4, 5.00000000000000000000e-01) (2, 4, 5.00000000000000000000e-01) (2, 4, 5.00000000000000000000e-01) (2, 4, 5.00000000000000000000e-01) (2, 4, 5.00000000000000000000e-01) (2, 4, 5.00000000000000000000e-01) (2, 4, 5.00000000000000000000e-01) (2, 4, 5.00000000000000000000e-01) (2, 4, 5.00000000000000000000e-01) (2, 4, 5.00000000000000000000e-01) (2, 4, 5.00000000000000000000e-01) (2, 4, 5.00000000000000000000e-01) (2, 4, 5.00000000000000000000e-01) (2, 4, 5.00000000000000000000e-01) (2, 4, 5.00000000000000000000e-01) (2, 4, 5.00000000000000000000e-01) (2, 4, 5.00000000000000000000e-01) (2, 4, 5.00000000000000000000e-01) (2, 4, 5.00000000000000000000e-01) (2, 4, 5.00000000000000000000e-01) (2, 4, 5.00000000000000000000e-01) (2, 4, 5.00000000000000000000e-01) (2, 4, 5.00000000000000000000e-01) (2, 4, 5.00000000000000000000e-01) (2, 4, 5.00000000000000000000e-01) (2, 4, 5.00000000000000000000e-01) (2, 4, 5.00000000000000000000e-01) (2, 4, 5.00000000000000000000e-01) (2, 4, 5.00000000000000000000e-01) (2, 4, 5.00000000000000000000e-01) (2, 4, 5.00000000000000000000e-01) (2, 4, 5.00000000000000000000e-01) (2, 4, 5.00000000000000000000e-01) (2, 4, 5.00000000000000000000e-01) (2, 4, 5.00000000000000000000e-01) (2, 4, 5.00000000000000000000e-01) (2, 4, 5.00000000000000000000e-01) (2, 4, 5.00000000000000000000e-01) (2, 4, 5.00000000000000000000e-01) (2, 4, 5.00000000000000000000e-01) (2, 4, 5.00000000000000000000e-01) (2, 4, 5.00000000000000000000e-01) (2, 4, 5.00000000000000000000e-01) (2, 4, 5.00000000000000000000e-01) (2, 4, 5.00000000000000000000e-01) (2, 4, 5.00000000000000000000e-01) (2, 4, 5.00000000000000000000e-01) (2, 4, 5.00000000000000000000e-01) (2, 4, 5.00000000000000000000e-01) (2, 4, 5.00000000000000000000e-01) (2, 4, 5.00000000000000000000e-01) (2, 4, 5.00000000000000000000e-01) (2, 4, 5.00000000000000000000e-01) (2, 4, 5.00000000000000000000e-01) (2, 4, 5.00000000000000000000e-01) (2, 4, 5.00000000000000000000e-01) (2, 4, 5.00000000000000000000e-01) (2, 4, 5.00000000000000000000e-01) (2, 4, 5.00000000000000000000e-01) (2, 4, 5.00000000000000000000e-01) (2, 4, 5.00000000000000000000e-01) (2, 4, 5.00000000000000000000e-01) (2, 4, 5.00000000000000000000e-01) (2, 4, 5.00000000000000000000e-01) (2, 4, 5.00000000000000000000e-01) (2, 4, 5.00000000000000000000e-01) (2, 4, 5.00000000000000000000e-01) (2, 4, 5.00000000000000000000e-01) (2, 4, 5.00000000000000000000e-01) (2, 4, 5.00000000000000000000e-01) (2, 4, 5.00000000000000000000e-01) (2, 4, 5.00000000000000000000e-01) (2, 4, 5.00000000000000000000e-01) (2, 4, 5.00000000000000000000e-01) (2, 4, 5.00000000000000000000e-01) (2, 4, 5.00000000000000000000e-01) (2, 4, 5.00000000000000000000e-01) (2, 4, 5.00000000000000000000e-01) (2, 4, 5.00000000000000000000e-01) (2, 4, 5.00000000000000000000e-01) (2, 4, 5.00000000000000000000e-01) (2, 4, 5.00000000000000000000e-01) (2, 4, 5.00000000000000000000e-01) (2, 4, 5.00000000000000000000e-01) (2, 4, 5.00000000000000000000e-01) (2, 4, 5.00000000000000000000e-01) (2, 4, 5.00000000000000000000e-01) (2, 4, 5.00000000000000000000e-01) (2, 4, 5.00000000000000000000e-01) (2, 4, 5.00000000000000000000e-01) (2, 4, 5.00000000000000000000e-01) (2, 4, 5.00000000000000000000e-01) (2, 4, 5.00000000000000000000e-01) (2, 4, 5.00000000000000000000e-01) (2, 4, 5.00000000000000000000e-01) (2, 4, 5.00000000000000000000e-01) (2, 4, 5.00000000000000000000e-01) (2, 4, 5.00000000000000000000e-01) (2, 4, 5.00000000000000000000e-01) (2, 4, 5.00000000000000000000e-01) (2, 4, 5.00000000000000000000e-01) (2, 4, 5.00000000000000000000e-01) (2, 4, 5.00000000000000000000e-01) (2, 4, 5.00000000000000000000e-01) (2, 4, 5.00000000000000000000e-01) (2, 4, 5.00000000000000000000e-01) (2, 4, 5.00000000000000000000e-01) (2, 4, 5.00000000000000000000e-01) (2, 4, 5.00000000000000000000e-01) (2, 4, 5.00000000000000000000e-01) (2, 4, 5.00000000000000000000e-01) (2, 4, 5.00000000000000000000e-01) (2, 4, 5.00000000000000000000e-01) (2, 4, 5.00000000000000000000e-01) (2, 4, 5.00000000000000000000e-01) (2, 4, 5.00000000000000000000e-01) (2, 4, 5.00000000000000000000e-01) (2, 4, 5.00000000000000000000e-01) (2, 4, 5.00000000000000000000e-01) (2, 4, 5.00000000000000000000e-01) (2, 4, 5.00000000000000000000e-01) (2, 4, 5.00000000000000000000e-01) (2, 4, 5.00000000000000000000e-01) (2, 4, 5.00000000000000000000e-01) (2, 4, 5.00000000000000000000e-01) (2, 4, 5.00000000000000000000e-01) (2, 4, 5.00000000000000000000e-01) (2, 4, 5.00000000000000000000e-01) (2, 4, 5.00000000000000000000e-01) (2, 4, 5.00000000000000000000e-01) (2, 4, 5.00000000000000000000e-01) (2, 4, 5.00000000000000000000e-01) (2, 4, 5.00000000000000000000e-01) (2, 4, 5.00000000000000000000e-01) (2, 4, 5.00000000000000000000e-01) (2, 4, 5.00000000000000000000e-01) (2, 4, 5.00000000000000000000e-01) (2, 4, 5.00000000000000000000e-01) (2, 4, 5.00000000000000000000e-01) (2, 4, 5.00000000000000000000e-01) (2, 4, 5.00000000000000000000e-01) (2, 4, 5.00000000000000000000e-01) (2, 4, 5.00000000000000000000e-01) (2, 4, 5.00000000000000000000e-01) (2, 4, 5.00000000000000000000e-01) (2, 4, 5.00000000000000000000e-01) (2, 4, 5.00000000000000000000e-01) (2, 4, 5.00000000000000000000e-01) (2, 4, 5.00000000000000000000e-01) (2, 4, 5.00000000000000000000e-01) (2, 4, 5.00000000000000000000e-01) (2, 4, 5.00000000000000000000e-01) (2, 4, 5.00000000000000000000e-01) (2, 4, 5.00000000000000000000e-01) (2, 4, 5.00000000000000000000e-01) (2, 4, 5.00000000000000000000e-01) (2, 4, 5.00000000000000000000e-01) (2, 4, 5.00000000000000000000e-01) (2, 4, 5.00000000000000000000e-01) (2, 4, 5.00000000000000000000e-01) (2, 4, 5.00000000000000000000e-01) (2, 4, 5.00000000000000000000e-01) (2, 4, 5.00000000000000000000e-01) (2, 4, 5.00000000000000000000e-01) (2, 4, 5.00000000000000000000e-01) (2, 4, 5.00000000000000000000e-01) (2, 4, 5.00000000000000000000e-01) (2, 4, 5.00000000000000000000e-01) (2, 4, 5.00000000000000000000e-01) (2, 4, 5.00000000000000000000e-01) (2, 4, 5.00000000000000000000e-01) (2, 4, 5.00000000000000000000e-01) (2, 4, 5.00000000000000000000e-01) (2, 4, 5.00000000000000000000e-01) (2, 4, 5.00000000000000000000e-01) (2, 4, 5.00000000000000000000e-01) (2, 4, 5.00000000000000000000e-01) (2, 4, 5.00000000000000000000e-01) (2, 4, 5.00000000000000000000e-01) (2, 4, 5.00000000000000000000e-01) (2, 4, 5.00000000000000000000e-01) (2, 4, 5.00000000000000000000e-01) (2, 4, 5.00000000000000000000e-01) (2, 4, 5.00000000000000000000e-01) (2, 4, 5.00000000000000000000e-01) (0, 0, 0.00000000000000000000e+00) (201, 4, 5.00000000000000000000e-01) (0, 0, 0.00000000000000000000e+00) 
connections (connected_to_neuron, weight)=(0, -6.19681921965381121709e+00) (1, -5.72867451306310782044e-01) (0, -3.28657280564418954327e+01) (1, 8.97029774217680930803e+00) (0, -1.54547137544406005816e+01) (1, -5.66356194721237660161e-01) (0, 6.53656942191232559480e+00) (1, -2.20426781196048693356e-01) (0, -9.90547968344101803506e-02) (1, -3.53626154480688181803e-01) (0, -7.48415101141444383259e-01) (1, -9.66047470479485026473e-01) (0, 2.33164829650896265889e+00) (1, -2.61222001160042460732e-01) (0, -3.90965049766872896342e+00) (1, -6.22859393459818444505e-01) (0, 2.20257088795944433457e+00) (1, -1.68121229585770332049e-01) (0, 2.43634048931535973637e+00) (1, -3.21609062750427554533e-01) (0, -1.54293893231105450070e+00) (1, 4.49185759808222867528e-02) (0, -4.08448399788498051066e+00) (1, -5.33182693262223006414e-01) (0, -1.58916773625965168648e+00) (1, 3.96744884605652214926e-01) (0, -4.23768463261196171032e+00) (1, -4.39540259195265070602e-01) (0, 1.90988666367011394875e+00) (1, 9.12089550347915112294e-02) (0, -1.11404234935514701021e+00) (1, 1.90692409987884309297e-01) (0, -8.72781148058246571964e+01) (1, 9.60444272612151550561e+00) (0, -2.34468279338143270607e+00) (1, -1.53183865102560257121e+00) (0, 2.33834703624586426329e+00) (1, -2.68833199345324735940e-01) (0, -2.35530349909196717872e-01) (1, -2.22488927881736353598e-01) (0, -3.34438724963388933631e+00) (1, -9.27942436031418127484e-01) (0, -4.70689400669517539200e+01) (1, 1.04658538907416165387e+01) (0, -4.23686840395349939570e+00) (1, -4.03460604347454288021e-01) (0, -3.28884771001586706518e+00) (1, -9.61884994199399989689e-01) (0, -3.90843820262308883073e+00) (1, -6.37133114672052802696e-01) (0, 2.47536454689554963338e+00) (1, 1.34489007349907013777e-01) (0, 2.34479204632333182445e+00) (1, -2.69453874153964156868e-01) (0, -2.28870678290506834873e-01) (1, -2.29631532316702191565e-01) (0, -8.65164983366536327614e-02) (1, -3.77701878082019271154e-01) (0, 2.01362463720517181898e+00) (1, 5.11815695603641471201e-02) (0, 1.99924726667707908234e+00) (1, -4.17776152385983187698e-02) (0, 2.35238785259425142726e+00) (1, -2.65059330187888242403e-01) (0, 2.31656106529839123098e+00) (1, 8.65797896499365254863e-02) (0, 1.89576689045849211546e+00) (1, -6.90600580028773950586e-03) (0, 1.96280652921125997601e+00) (1, 9.23210204295419056830e-02) (0, 2.34050336564117111848e+00) (1, -2.79529850035128923924e-01) (0, -3.92654223059216800351e+00) (1, -6.01060975179646406197e-01) (0, 2.21237157106000958962e+00) (1, -1.58365585914147982693e-01) (0, 2.40663546300478037310e+00) (1, 1.36331343890140038733e-01) (0, 2.32093404008127235372e+00) (1, -2.53754978799858976757e-01) (0, -7.25752857565195474976e-01) (1, -1.33176261709066223737e+00) (0, -2.41917312091073322122e+00) (1, -1.44574446192008698731e+00) (0, 2.39509433936140903043e+00) (1, -3.10587184105974078996e-01) (0, -3.61643125773127982470e+00) (1, -1.67202039916366018701e+00) (0, -1.12702932402421907021e-01) (1, -3.31865885417057471241e-01) (0, -8.66821610314356533200e-02) (1, -3.53908149803756455487e-01) (0, 3.33512868210896140653e+00) (1, -5.86555234467669717180e-02) (0, 2.40295513262749915739e+00) (1, -2.84574239373380555307e-01) (0, -1.22026450433260968964e+00) (1, -5.64619956474409323555e-01) (0, 2.23845631259842958727e+00) (1, 1.24342116564701857251e-01) (0, -1.74467251926466593304e+00) (1, 2.38660588686622820997e-01) (0, -1.90919543487154008687e-01) (1, -2.81276281104470615713e-01) (0, -1.91794231854304220164e-01) (1, -2.68254198878479843682e-01) (0, 2.11466240881514355721e+00) (1, 6.47467113598189092372e-02) (0, 2.07087558930627135823e+00) (1, -2.08205779845406641071e-02) (0, -6.21159203170943641226e+00) (1, -5.65076943709298284979e-01) (0, -3.91626068741188637645e+00) (1, -5.72724654884059214410e-01) (0, -2.25599254180900793409e-01) (1, -2.32394356613653069177e-01) (0, -3.34066961358087199940e+00) (1, -9.24768966023870930826e-01) (0, -1.11093428969505539361e-01) (1, -3.42289256219591608854e-01) (0, 2.02755930185852317749e+00) (1, 5.37729090196655268308e-02) (0, 6.22510704648904855674e+00) (1, -6.07291179538532038817e-02) (0, 5.88306094354405062496e-01) (1, -2.67894653640205482326e-01) (0, -1.59031076805685156472e+00) (1, 1.69129800575269217955e-01) (0, 3.53271641901148303333e+00) (1, -2.13438915951569024854e-01) (0, -1.69450641829733967825e+01) (1, -1.86300883876511530479e-01) (0, 7.62019423357300809130e+01) (1, -2.59047753534857676527e+01) (0, 3.59399767640808143199e+00) (1, -3.38578185681124743667e-01) (0, 6.02216453669226048362e+00) (1, 6.72767979530106419173e-02) (0, 6.31063542021612988719e+00) (1, -1.15595294437162030010e-01) (0, -3.09455610813331416509e+00) (1, -1.06604825055749286022e+00) (0, 2.47225981301039645643e+01) (1, -6.81482179168498536370e+00) (0, -1.81654359683773997114e-01) (1, -2.98645918920113329076e-01) (0, -5.49314624197277936446e+01) (1, 5.23202579736199968607e+00) (0, -1.58391180124976382881e-01) (1, -3.18193906181105545805e-01) (0, 1.98905630230243102297e+00) (1, 1.43817596792642499182e-01) (0, -2.10271080594901044192e-01) (1, -2.01499643470050171512e-01) (0, -8.03034211009901882639e-02) (1, -3.59304163944976606704e-01) (0, -1.54752567569024601646e+00) (1, 1.59683090860042897763e-01) (0, -1.34995121678841534241e-01) (1, -7.09828414439908184086e-01) (0, 6.06639810395644851759e-01) (1, -2.95590842826207733651e-01) (0, -1.49162166915593652483e+00) (1, -1.59905439404592369934e-01) (0, 2.37663642106413330879e+00) (1, -2.83366388458519746774e-01) (0, 2.35523153361544501649e+00) (1, 7.55963735676362935667e-02) (0, 2.22290600312067798683e+00) (1, -1.76639136332128354745e-01) (0, -3.92165561019953212707e+00) (1, -6.31456479752267485495e-01) (0, -2.04258713495205190824e+00) (1, -3.01842620532749394968e+00) (0, -1.04234598733134320447e+00) (1, 1.06850379764167974228e-01) (0, -2.22639540339143515713e-01) (1, -2.46245616287775526132e-01) (0, -2.69769199207645193894e+00) (1, -1.29222409420702222249e+00) (0, -3.30462195551288129280e+00) (1, -9.52755832537454327991e-01) (0, 2.35054777385362667630e+00) (1, -3.01043440639724879659e-01) (0, -1.21230307419391628021e-01) (1, -3.37782727842058649870e-01) (0, 2.39259711678962760928e+00) (1, -2.71357417216766205748e-01) (0, 2.38900418403939074352e+00) (1, -3.24951521149094701979e-01) (0, -2.44831089613683272610e-01) (1, -2.17825112898083039781e-01) (0, -4.67767095221115596360e+01) (1, 1.04027358820270094952e+01) (0, -2.51739797132351794673e+00) (1, -1.38197242167553069336e+00) (0, 2.21379052012001187322e+00) (1, -1.60292784032574908704e-01) (0, 7.05090397668276658294e+00) (1, -4.37697229760915185182e-01) (0, -4.06199225441769140588e+00) (1, -5.45164509809109576466e-01) (0, -1.06932498878165169742e+01) (1, -1.92235261895811060384e+00) (0, -3.91254791928058365258e+00) (1, -6.06740438465915299382e-01) (0, -4.10564403432491342727e+00) (1, -5.20032421614153306244e-01) (0, -1.73632787102808161528e+00) (1, 2.65271424271667111139e-01) (0, -4.68329295365330278145e+00) (1, -6.33723540313954836201e-01) (0, -2.23332578266783343679e+00) (1, -1.59971011351314951199e+00) (0, -3.02902872315466575870e+00) (1, -1.08751995031213866127e+00) (0, -1.15551764338051121683e+00) (1, -7.29824455248440528976e-01) (0, -2.77914854325544524727e+00) (1, -1.25784241131140750447e+00) (0, -1.95853835702467587998e-01) (1, -2.79066882569407814785e-01) (0, 5.77271144525280499593e-01) (1, -2.90072547277223757867e-01) (0, 2.40695885554803457040e+00) (1, -2.81661041384698829226e-01) (0, -1.75393556111457527003e+00) (1, 2.40015146866487061317e-01) (0, -2.49434657613200805315e+00) (1, -2.66905342492430186496e+00) (0, 2.39684394387708543661e+00) (1, -3.20823323365495627346e-01) (0, -1.08112554805478155995e-01) (1, -3.68607740867752164959e-01) (0, -1.50173249025382915534e+00) (1, 7.93452222307563376225e-02) (0, 1.98978357555443019500e+00) (1, 1.28578147816941351644e-01) (0, 5.69985494989860841386e-01) (1, -2.70399963797719189440e-01) (0, -1.54342563821949241287e+01) (1, -5.70770704127667172223e-01) (0, -1.63447192122512130474e-01) (1, -2.30100273207977740197e-01) (0, -3.92198221557454251851e+00) (1, -6.17105378023192319148e-01) (0, 2.32456187843342299004e+00) (1, 8.82199537195753891172e-02) (0, -4.09901645859000041128e+00) (1, -5.23753087099727676623e-01) (0, -4.23436390878313417829e+00) (1, -4.04989238932263240223e-01) (0, 2.38097138706124944463e+00) (1, -3.06497740764971549066e-01) (0, 5.62256217537618896429e-01) (1, -3.57128156090963655434e-01) (0, -3.71031559309617264830e+00) (1, -7.28124526791559034677e-01) (0, 2.22726147728018286642e+00) (1, -1.73498966285527411735e-01) (0, -3.37577597523496741871e+00) (1, -9.05105132642778809071e-01) (0, -3.94780757713010688192e+00) (1, -5.73649560001613934013e-01) (0, -2.18634355521589718307e-01) (1, -2.51417913646285684504e-01) (0, -3.93893994160880822619e+00) (1, -6.07393571733795600842e-01) (0, 2.24029224944273819276e+00) (1, -1.79510638358169605233e-01) (0, 5.99411522508304761558e-01) (1, -2.96039517800686824422e-01) (0, -1.85275744570099237807e-01) (1, -2.89971086711220016330e-01) (0, -3.90540496547466675636e+00) (1, -6.24932616342298019596e-01) (0, 2.21667669516679799457e+00) (1, -1.62215728358555938415e-01) (0, 7.51498866419860966914e+00) (1, 8.16923640117961902263e+00) (0, -1.53138141488898205100e-01) (1, -3.19867776288287719577e-01) (0, 2.45327967328160534421e+00) (1, 1.61702983453342885589e-01) (0, -1.71507095690533295507e-01) (1, -3.04255349786281936719e-01) (0, -1.71733387571861378929e-01) (1, -3.08580445683815984825e-01) (0, -2.47601696873439358626e-01) (1, -2.21645379848180446025e-01) (0, -5.86815448337922234145e+01) (1, 1.03387057657380179165e+01) (0, -5.58913535109368879716e+01) (1, 8.37684437742958465378e+00) (0, -1.54143260284034937513e+01) (1, -5.76561411560077563543e-01) (0, -1.07393615436754141790e+00) (1, -7.71128914719985014692e-01) (0, -3.04909496011023950501e+00) (1, -1.07444880593028302407e+00) (0, 2.24302401290627884123e+00) (1, 3.01640223905213611388e-01) (0, 2.32449191583372138936e+00) (1, -2.55551085559883817133e-01) (0, 6.28125631922680893737e-01) (1, -3.43208510157417989728e-01) (0, 2.39125587386671423218e+00) (1, -2.52681152799769437323e-01) (0, 2.35566826675164664451e+00) (1, 6.92862622204745148835e-02) (0, -5.56182931076986548646e+01) (1, 8.43141118206024664516e+00) (0, 3.37807010791683337558e+00) (1, -9.08969206563642467822e-02) (0, 2.35190533684810754167e+00) (1, -2.85231537564282600083e-01) (0, -4.96553602455894420586e+01) (1, 1.10874262846267459537e+01) (0, -2.20156694479619918781e+00) (1, -1.50633474340075479425e+00) (0, -4.35783896220446731462e+00) (1, -3.87286713565958451433e-01) (0, -6.17213801115461802027e+00) (1, -5.88664536481082967256e-01) (0, -4.07692472047054277340e+00) (1, -5.36343011412779402391e-01) (0, -1.78286484371947073768e+00) (1, -1.84573288213926511858e+00) (0, 3.30358676475387813554e+00) (1, -3.40283472636583456117e-02) (0, -1.68323439150599654113e+01) (1, -2.11054372913946575174e-01) (0, 2.37644329926452657631e+00) (1, -2.99957860747549265312e-01) (0, -1.78353811166230807883e-01) (1, -3.00478056068752386043e-01) (0, -9.46363774818321096260e-02) (1, -3.47918199458926213907e-01) (0, -5.59703556770893584371e+01) (1, 8.49629339100484415326e+00) (0, 2.34208199536276051589e+00) (1, -2.73285699421834282763e-01) (0, -1.06814560985428430584e+00) (1, -7.24615691472598300038e-01) (0, 2.44086544525461146549e+00) (1, -3.27414637879829384381e-01) (0, -3.93080250200186354093e+00) (1, -6.25704826410712344753e-01) (0, 5.60606642169417135335e-01) (1, -3.15317572559860259673e-01) (0, -1.54139004071607672586e+01) (1, -5.77461218388367392151e-01) (0, -2.30871389506249496959e-01) (1, -2.55733234458186464710e-01) (0, 6.70100804844549102768e+00) (1, -4.03190454010613763547e-01) (0, -5.91628371839994504633e-01) (1, -1.35240035461465835098e+00) (0, -1.76716931208135963338e+00) (1, 7.49999814824969662785e-02) (0, -7.34874203390915159417e+00) (1, -9.97648029577050399208e-02) (0, -4.29726622961319559835e+00) (1, -4.11990465087010648837e-01) (0, -2.07911980145754002325e-02) (1, -6.78076619224314836032e-01) (0, -2.13288246565903039098e+00) (1, -1.62492278181912030988e+00) (0, -2.23799067188930278505e-01) (1, -2.51761918925509142753e-01) (0, -1.91970089499612583950e-01) (1, -2.81810520516758755694e-01) (0, 1.98727922825373082283e+00) (1, 2.84827148609236129040e-02) (0, -3.11263090408112752527e+00) (1, -1.05623109084569599680e+00) (0, -6.97202565278976571506e+00) (1, -2.57795372900827712837e-01) (0, -5.76722498645881245238e+01) (1, 9.07059192391487023599e+00) (0, -2.23700574487437409132e-01) (1, -2.34050769691960924845e-01) (0, -3.22846370215909317380e+00) (1, -9.78547433244389086582e-01) (0, -3.91553327240154214195e+00) (1, -6.04642297173401233046e-01) (0, -3.92452332877403087252e+00) (1, -5.84748390863425338004e-01) (0, 2.15950319610620944388e+01) (1, -5.63101541521025872328e+00) (0, -1.48623226758235360556e+00) (1, 1.48788441668497556369e-01) (0, -1.90016295455570860540e-01) (1, -2.84443196600976999644e-01) (0, -4.21690778309659020096e+00) (1, -4.49622383638513978266e-01) (0, -3.21381412602221061547e+00) (1, -9.98157664172957370674e-01) (0, -5.67859311754384563642e+01) (1, 8.81627402857602682218e+00) (2, 5.38373603949168000327e-01) (3, -5.22093067498825149642e+01) (4, 9.90789420644775020719e+01) (5, 1.70242666444887308375e-01) (6, 3.10346695862811328137e-01) (7, 2.84855307877691144025e-01) (8, -6.19726134394967542729e-02) (9, 4.38070324578266334647e-01) (10, -5.41216789624357000332e-02) (11, -8.60761245269995450835e-02) (12, 1.32499786907832373117e-01) (13, 5.50044164766380738740e-01) (14, 9.60169465188376869413e-02) (15, 6.29541897638477565557e-01) (16, 1.37379775313456603536e-01) (17, 2.46163515947465272315e-01) (18, -1.64693340066280057954e+02) (19, 2.84245434810527664027e-01) (20, -6.10015999288747237661e-02) (21, 2.82703710900980287324e-01) (22, 9.99218895083564873083e-01) (23, -3.24578859901146676847e+00) (24, 5.77274416404160883864e-01) (25, 1.15918167680156347643e+00) (26, 4.00781510574811428160e-01) (27, 4.82832557230812031701e-02) (28, -5.91462763641213903898e-02) (29, 2.81637173725637623978e-01) (30, 3.26578971880539969952e-01) (31, 1.34330308462073888531e-01) (32, 1.76346911668404021656e-01) (33, -6.73615869780987974735e-02) (34, 1.15952123274830912192e-01) (35, 1.85998093593543856183e-01) (36, 1.43435659984972235792e-01) (37, -3.17535416869589998123e-02) (38, 3.41173557988565745447e-01) (39, -7.25119803819110481102e-02) (40, 1.36819014374678360468e-01) (41, -5.97377472920358892905e-02) (42, 2.98363707741502892645e-01) (43, 9.54948984353077734433e-01) (44, -5.97383355968846146977e-02) (45, -3.22284278707501181671e+00) (46, 3.44665494985550990847e-01) (47, 3.38085113873886455860e-01) (48, 3.55349574898852715865e-01) (49, -1.43744193471139185964e-02) (50, 3.55135194635063322632e-01) (51, 1.32193371513094265479e-01) (52, 1.31941093752857729893e-01) (53, 3.36057647076858367896e-01) (54, 3.16235197707253889998e-01) (55, -3.93003710048641027863e-02) (56, 1.66428688326884649529e-01) (57, 5.60707537142627332472e-01) (58, 5.46818492731980687616e-01) (59, 2.95856929414777203302e-01) (60, 1.16532744074965899372e+00) (61, 3.46587180828242968911e-01) (62, 1.53920635198946303968e-01) (63, 5.32445954995203085680e-01) (64, 8.68836714640221635664e-02) (65, 5.20412886910112670869e-02) (66, 3.36032406532263128174e-01) (67, 2.96035032463959396409e+02) (68, -1.03733153966768671950e+01) (69, 3.49612984537956528186e-01) (70, 5.17644631864089058149e-02) (71, 5.16532778905490763677e-01) (72, 2.02616325014753628775e-01) (73, -8.55375854454740458532e-02) (74, 3.21563430913147041412e-01) (75, -6.74971325304486557961e-01) (76, 3.28419163205713848797e-01) (77, 1.22471396306900029427e-01) (78, 2.72907975793515722440e-01) (79, 2.91424345592952382944e-01) (80, 5.10999410751316052171e-02) (81, 2.22672306459259089495e-01) (82, 7.69772525774789634356e-02) (83, 7.06023950657654109087e-01) (84, -7.41105469421724644130e-02) (85, 1.41908936569557553309e-01) (86, -5.91504568938781005727e-02) (87, 4.66374463694049501417e-01) (88, -8.95055745447010608906e-01) (89, 2.48218294331769839811e-01) (90, 2.57908738484588395679e-01) (91, 2.02362575718116416423e-01) (92, 1.15221031970145793011e+00) (93, -2.21875447694018443356e-02) (94, 3.08592400196497085307e-01) (95, -8.88756435547298218047e-02) (96, -5.74510570797337472015e-02) (97, 2.97750955392834582014e-01) (98, -3.17935397036096745182e+00) (99, 3.05646346634546040022e-01) (100, -5.92590214638121989821e-02) (101, 2.49294724452211319266e-01) (102, 6.11039571587219443316e-01) (103, 2.37841431353520448511e+02) (104, 3.49518405400692677709e-01) (105, 5.36589663652016990447e-01) (106, 1.12589300624112445548e-01) (107, 3.81094732186371742966e-01) (108, 2.30045680247346145952e-01) (109, 7.27749342798872822513e-01) (110, 3.54482807140782674171e-01) (111, 4.26964993458756769673e-01) (112, 3.04103268816618976800e-01) (113, 9.62694212079785449632e-02) (114, -8.42260966679709011107e-02) (115, 1.42741810014371223181e-01) (116, -4.18764006770786068046e+00) (117, -4.16769704298772108997e-02) (118, 3.57573017540691484584e-01) (119, 6.59424902532168982772e-02) (120, 1.45063472894605888230e-01) (121, 6.40579169612598003924e-02) (122, 1.15725189374326490110e+02) (123, 2.60194739635344673978e-01) (124, 4.46293901510116997056e-01) (125, 1.17360810573817309077e-01) (126, 5.42665878429519743520e-01) (127, 5.61397536657047613318e-01) (128, -3.72509321942293691876e-02) (129, 7.59512978488132012300e-02) (130, 2.67294220508633717515e-01) (131, -6.90778430969987700117e-02) (132, 1.21025533181111955017e+00) (133, 3.30467056036509998496e-01) (134, 2.84493522361000450438e-01) (135, 3.46557325143857175576e-01) (136, -6.40459647887195449023e-02) (137, 8.23718234630393536522e-02) (138, 3.46000476630744291384e-01) (139, 3.37059378990517077845e-01) (140, -8.74455217990390554217e-02) (141, 1.45859162950163101513e-01) (142, 3.28871535143386573008e-01) (143, 4.84406952804561502512e-02) (144, 3.01615673515763238477e-01) (145, 3.14451062943863213217e-01) (146, 2.88727217078205311562e-01) (147, 3.88508973583060779333e+00) (148, -5.01721792252763254538e-01) (149, 1.05519764918139699716e+02) (150, 3.11118451884992597289e-01) (151, 5.84904728856411093574e-01) (152, 1.15410001275170995272e-01) (153, -8.29671225691088892740e-02) (154, 9.51948845522528758201e-02) (155, -1.72869362978047801105e-02) (156, 1.54199352552660734483e-01) (157, -4.09479975586418964983e-01) (158, 3.52275818239552174216e-01) (159, -4.28710330084223559255e-02) (160, -6.32525382510876976738e+00) (161, -1.61034212788076364076e-02) (162, 6.44744849888062576682e-01) (163, 5.70398506882930367290e-01) (164, 5.51104690275181940962e-01) (165, 4.01274381389513101759e-01) (166, 3.48901316594972754626e-01) (167, 2.96032671140295803980e+02) (168, -3.28601897892056293848e-02) (169, 3.15367773238726500917e-01) (170, 3.35142725379523442886e-01) (171, 1.95066024065432552792e-01) (172, -5.35592561814773465700e-02) (173, 3.03594233600452789723e-01) (174, -5.00982060337752665991e-02) (175, 4.80943435904159610761e-01) (176, 8.50665747342740780068e-02) (177, 1.02154446244267134603e+02) (178, 2.97150906427783023656e-01) (179, 2.19144479030490640925e-01) (180, 2.81166819100616471871e-01) (181, 4.63857003956812008472e-01) (182, 1.53669408819191932736e+00) (183, 5.34542436983091118208e-01) (184, 2.22084719286418208473e-01) (185, 1.89440991948286341362e-01) (186, 2.95051870674969296537e-01) (187, 3.02507945813293488424e-01) (188, 1.37134457771782847235e-01) (189, 2.21665862349109205054e-01) (190, 8.16627396186042631143e-01) (191, -2.70097041719127908266e+01) (192, 3.28744757106730511875e-01) (193, 1.14406817650598968683e+00) (194, 3.42009181511510496065e-01) (195, 3.13288478746786891449e-01) (196, -7.00668471280141841318e-02) (197, 6.75228667228202072970e-02) (198, 3.05318755969788024895e-01) (199, 5.73910305878997717421e-01) (200, 3.16504114145742476705e-01) (201, 6.23391489495638162488e-01) (202, 6.12857812952202415935e-02) 
