FANN_FLO_2.1
num_layers=3
learning_rate=0.700000
connection_rate=1.000000
network_type=0
learning_momentum=0.000000
training_algorithm=2
train_error_function=1
train_stop_function=0
cascade_output_change_fraction=0.010000
quickprop_decay=-0.000100
quickprop_mu=1.750000
rprop_increase_factor=1.200000
rprop_decrease_factor=0.500000
rprop_delta_min=0.000000
rprop_delta_max=50.000000
rprop_delta_zero=0.100000
cascade_output_stagnation_epochs=12
cascade_candidate_change_fraction=0.010000
cascade_candidate_stagnation_epochs=12
cascade_max_out_epochs=150
cascade_min_out_epochs=50
cascade_max_cand_epochs=150
cascade_min_cand_epochs=50
cascade_num_candidate_groups=2
bit_fail_limit=3.49999999999999977796e-01
cascade_candidate_limit=1.00000000000000000000e+03
cascade_weight_multiplier=4.00000000000000022204e-01
cascade_activation_functions_count=10
cascade_activation_functions=3 5 7 8 10 11 14 15 16 17 
cascade_activation_steepnesses_count=4
cascade_activation_steepnesses=2.50000000000000000000e-01 5.00000000000000000000e-01 7.50000000000000000000e-01 1.00000000000000000000e+00 
layer_sizes=2 201 2 
scale_included=0
neurons (num_inputs, activation_function, activation_steepness)=(0, 0, 0.00000000000000000000e+00) (0, 0, 0.00000000000000000000e+00) (2, 4, 5.00000000000000000000e-01) (2, 4, 5.00000000000000000000e-01) (2, 4, 5.00000000000000000000e-01) (2, 4, 5.00000000000000000000e-01) (2, 4, 5.00000000000000000000e-01) (2, 4, 5.00000000000000000000e-01) (2, 4, 5.00000000000000000000e-01) (2, 4, 5.00000000000000000000e-01) (2, 4, 5.00000000000000000000e-01) (2, 4, 5.00000000000000000000e-01) (2, 4, 5.00000000000000000000e-01) (2, 4, 5.00000000000000000000e-01) (2, 4, 5.00000000000000000000e-01) (2, 4, 5.00000000000000000000e-01) (2, 4, 5.00000000000000000000e-01) (2, 4, 5.00000000000000000000e-01) (2, 4, 5.00000000000000000000e-01) (2, 4, 5.00000000000000000000e-01) (2, 4, 5.00000000000000000000e-01) (2, 4, 5.00000000000000000000e-01) (2, 4, 5.00000000000000000000e-01) (2, 4, 5.00000000000000000000e-01) (2, 4, 5.00000000000000000000e-01) (2, 4, 5.00000000000000000000e-01) (2, 4, 5.00000000000000000000e-01) (2, 4, 5.00000000000000000000e-01) (2, 4, 5.00000000000000000000e-01) (2, 4, 5.00000000000000000000e-01) (2, 4, 5.00000000000000000000e-01) (2, 4, 5.00000000000000000000e-01) (2, 4, 5.00000000000000000000e-01) (2, 4, 5.00000000000000000000e-01) (2, 4, 5.00000000000000000000e-01) (2, 4, 5.00000000000000000000e-01) (2, 4, 5.00000000000000000000e-01) (2, 4, 5.00000000000000000000e-01) (2, 4, 5.00000000000000000000e-01) (2, 4, 5.00000000000000000000e-01) (2, 4, 5.00000000000000000000e-01) (2, 4, 5.00000000000000000000e-01) (2, 4, 5.00000000000000000000e-01) (2, 4, 5.00000000000000000000e-01) (2, 4, 5.00000000000000000000e-01) (2, 4, 5.00000000000000000000e-01) (2, 4, 5.00000000000000000000e-01) (2, 4, 5.00000000000000000000e-01) (2, 4, 5.00000000000000000000e-01) (2, 4, 5.00000000000000000000e-01) (2, 4, 5.00000000000000000000e-01) (2, 4, 5.00000000000000000000e-01) (2, 4, 5.00000000000000000000e-01) (2, 4, 5.00000000000000000000e-01) (2, 4, 5.00000000000000000000e-01) (2, 4, 5.00000000000000000000e-01) (2, 4, 5.00000000000000000000e-01) (2, 4, 5.00000000000000000000e-01) (2, 4, 5.00000000000000000000e-01) (2, 4, 5.00000000000000000000e-01) (2, 4, 5.00000000000000000000e-01) (2, 4, 5.00000000000000000000e-01) (2, 4, 5.00000000000000000000e-01) (2, 4, 5.00000000000000000000e-01) (2, 4, 5.00000000000000000000e-01) (2, 4, 5.00000000000000000000e-01) (2, 4, 5.00000000000000000000e-01) (2, 4, 5.00000000000000000000e-01) (2, 4, 5.00000000000000000000e-01) (2, 4, 5.00000000000000000000e-01) (2, 4, 5.00000000000000000000e-01) (2, 4, 5.00000000000000000000e-01) (2, 4, 5.00000000000000000000e-01) (2, 4, 5.00000000000000000000e-01) (2, 4, 5.00000000000000000000e-01) (2, 4, 5.00000000000000000000e-01) (2, 4, 5.00000000000000000000e-01) (2, 4, 5.00000000000000000000e-01) (2, 4, 5.00000000000000000000e-01) (2, 4, 5.00000000000000000000e-01) (2, 4, 5.00000000000000000000e-01) (2, 4, 5.00000000000000000000e-01) (2, 4, 5.00000000000000000000e-01) (2, 4, 5.00000000000000000000e-01) (2, 4, 5.00000000000000000000e-01) (2, 4, 5.00000000000000000000e-01) (2, 4, 5.00000000000000000000e-01) (2, 4, 5.00000000000000000000e-01) (2, 4, 5.00000000000000000000e-01) (2, 4, 5.00000000000000000000e-01) (2, 4, 5.00000000000000000000e-01) (2, 4, 5.00000000000000000000e-01) (2, 4, 5.00000000000000000000e-01) (2, 4, 5.00000000000000000000e-01) (2, 4, 5.00000000000000000000e-01) (2, 4, 5.00000000000000000000e-01) (2, 4, 5.00000000000000000000e-01) (2, 4, 5.00000000000000000000e-01) (2, 4, 5.00000000000000000000e-01) (2, 4, 5.00000000000000000000e-01) (2, 4, 5.00000000000000000000e-01) (2, 4, 5.00000000000000000000e-01) (2, 4, 5.00000000000000000000e-01) (2, 4, 5.00000000000000000000e-01) (2, 4, 5.00000000000000000000e-01) (2, 4, 5.00000000000000000000e-01) (2, 4, 5.00000000000000000000e-01) (2, 4, 5.00000000000000000000e-01) (2, 4, 5.00000000000000000000e-01) (2, 4, 5.00000000000000000000e-01) (2, 4, 5.00000000000000000000e-01) (2, 4, 5.00000000000000000000e-01) (2, 4, 5.00000000000000000000e-01) (2, 4, 5.00000000000000000000e-01) (2, 4, 5.00000000000000000000e-01) (2, 4, 5.00000000000000000000e-01) (2, 4, 5.00000000000000000000e-01) (2, 4, 5.00000000000000000000e-01) (2, 4, 5.00000000000000000000e-01) (2, 4, 5.00000000000000000000e-01) (2, 4, 5.00000000000000000000e-01) (2, 4, 5.00000000000000000000e-01) (2, 4, 5.00000000000000000000e-01) (2, 4, 5.00000000000000000000e-01) (2, 4, 5.00000000000000000000e-01) (2, 4, 5.00000000000000000000e-01) (2, 4, 5.00000000000000000000e-01) (2, 4, 5.00000000000000000000e-01) (2, 4, 5.00000000000000000000e-01) (2, 4, 5.00000000000000000000e-01) (2, 4, 5.00000000000000000000e-01) (2, 4, 5.00000000000000000000e-01) (2, 4, 5.00000000000000000000e-01) (2, 4, 5.00000000000000000000e-01) (2, 4, 5.00000000000000000000e-01) (2, 4, 5.00000000000000000000e-01) (2, 4, 5.00000000000000000000e-01) (2, 4, 5.00000000000000000000e-01) (2, 4, 5.00000000000000000000e-01) (2, 4, 5.00000000000000000000e-01) (2, 4, 5.00000000000000000000e-01) (2, 4, 5.00000000000000000000e-01) (2, 4, 5.00000000000000000000e-01) (2, 4, 5.00000000000000000000e-01) (2, 4, 5.00000000000000000000e-01) (2, 4, 5.00000000000000000000e-01) (2, 4, 5.00000000000000000000e-01) (2, 4, 5.00000000000000000000e-01) (2, 4, 5.00000000000000000000e-01) (2, 4, 5.00000000000000000000e-01) (2, 4, 5.00000000000000000000e-01) (2, 4, 5.00000000000000000000e-01) (2, 4, 5.00000000000000000000e-01) (2, 4, 5.00000000000000000000e-01) (2, 4, 5.00000000000000000000e-01) (2, 4, 5.00000000000000000000e-01) (2, 4, 5.00000000000000000000e-01) (2, 4, 5.00000000000000000000e-01) (2, 4, 5.00000000000000000000e-01) (2, 4, 5.00000000000000000000e-01) (2, 4, 5.00000000000000000000e-01) (2, 4, 5.00000000000000000000e-01) (2, 4, 5.00000000000000000000e-01) (2, 4, 5.00000000000000000000e-01) (2, 4, 5.00000000000000000000e-01) (2, 4, 5.00000000000000000000e-01) (2, 4, 5.00000000000000000000e-01) (2, 4, 5.00000000000000000000e-01) (2, 4, 5.00000000000000000000e-01) (2, 4, 5.00000000000000000000e-01) (2, 4, 5.00000000000000000000e-01) (2, 4, 5.00000000000000000000e-01) (2, 4, 5.00000000000000000000e-01) (2, 4, 5.00000000000000000000e-01) (2, 4, 5.00000000000000000000e-01) (2, 4, 5.00000000000000000000e-01) (2, 4, 5.00000000000000000000e-01) (2, 4, 5.00000000000000000000e-01) (2, 4, 5.00000000000000000000e-01) (2, 4, 5.00000000000000000000e-01) (2, 4, 5.00000000000000000000e-01) (2, 4, 5.00000000000000000000e-01) (2, 4, 5.00000000000000000000e-01) (2, 4, 5.00000000000000000000e-01) (2, 4, 5.00000000000000000000e-01) (2, 4, 5.00000000000000000000e-01) (2, 4, 5.00000000000000000000e-01) (2, 4, 5.00000000000000000000e-01) (2, 4, 5.00000000000000000000e-01) (2, 4, 5.00000000000000000000e-01) (2, 4, 5.00000000000000000000e-01) (2, 4, 5.00000000000000000000e-01) (2, 4, 5.00000000000000000000e-01) (2, 4, 5.00000000000000000000e-01) (2, 4, 5.00000000000000000000e-01) (2, 4, 5.00000000000000000000e-01) (2, 4, 5.00000000000000000000e-01) (2, 4, 5.00000000000000000000e-01) (2, 4, 5.00000000000000000000e-01) (2, 4, 5.00000000000000000000e-01) (2, 4, 5.00000000000000000000e-01) (2, 4, 5.00000000000000000000e-01) (0, 0, 0.00000000000000000000e+00) (201, 4, 5.00000000000000000000e-01) (0, 0, 0.00000000000000000000e+00) 
connections (connected_to_neuron, weight)=(0, -4.47460760234282073355e+00) (1, -7.12596390463850704045e-01) (0, -4.41055392280826641382e+00) (1, -7.43602827202581306842e-01) (0, 6.76021633707231672794e-01) (1, 8.30493384377845367261e-01) (0, -1.34202910127784735828e+00) (1, -1.38635384556344692930e-01) (0, -2.04795258092992904508e+00) (1, 5.90040687542642494634e-01) (0, -1.17255482174201397516e-01) (1, -4.17109372840713032993e-01) (0, 5.39860901178734753358e-01) (1, 7.58757988607085653854e-01) (0, -2.08752184179688082821e+00) (1, 6.17129852857566607582e-01) (0, 8.68290373980557417255e-01) (1, 8.42812917517719362159e-01) (0, 2.69740550252333066705e-01) (1, 6.22370277719313191866e-01) (0, -2.04001706044333674939e+00) (1, 5.83813379229749962462e-01) (0, -5.16098386334618552951e+00) (1, -3.75779150938494455048e-01) (0, 6.30640957429708826076e-01) (1, 8.54056527571261270282e-01) (0, 4.38387033982880258698e-01) (1, 6.92081046232575491928e-01) (0, -2.00189185633168387213e+00) (1, 5.50161632204535400170e-01) (0, 5.03814416622073935059e-01) (1, 6.79639554119650712849e-01) (0, 7.17748203602465273399e-01) (1, 9.87790361588133603021e-01) (0, 7.61964897150610775967e-01) (1, 9.63791851185449965911e-01) (0, -1.41603809132426122774e-01) (1, -3.78712666982805756799e-01) (0, 5.61574105556999492173e-01) (1, 7.73916382734352703565e-01) (0, -8.35352970375475400999e-01) (1, -3.83139981247397620745e-01) (0, -1.50091530077393231490e-01) (1, -3.25221690375482930246e-01) (0, -2.07449648385755025526e-01) (1, -4.06179444058886174318e-01) (0, -4.89627289645498375847e+00) (1, -5.06508926175960327853e-01) (0, -3.09836677269233291554e+01) (1, 3.23943180928973228916e+00) (0, 6.86542133026062817436e-01) (1, 9.74813685008943497934e-01) (0, -7.54129353364809025539e-03) (1, 2.96785362905121030686e-01) (0, -1.38979271031888368393e-01) (1, -4.33617083186495833047e-01) (0, 7.74183616231599147639e-01) (1, 8.29573273689872103809e-01) (0, 6.32613676460533791435e-01) (1, 9.25604362931520596725e-01) (0, 1.64353980506725144695e-01) (1, 5.37131600338674797257e-01) (0, 7.53260562971825975431e-01) (1, 9.74442917725693580344e-01) (0, -4.85064013036364638509e+00) (1, -5.28516497408565766314e-01) (0, -2.90384915368764540133e-01) (1, -4.46096814173760458644e-01) (0, -2.40723162722757233478e-01) (1, -3.54671641536964177277e-01) (0, 6.82533961052094073629e-01) (1, 9.24317612050131076629e-01) (0, 4.91193169952154728986e-01) (1, 7.62404920272520270075e-01) (0, -1.31486137917291667776e+00) (1, -1.51210925306995286332e-01) (0, 1.54055533780222408957e-01) (1, 4.52214499824265758754e-01) (0, -1.05169794605558086786e-01) (1, -3.41455973734533346775e-01) (0, -1.47532643725249962285e-01) (1, -3.85345766931688926693e-01) (0, 6.29467628206553886372e-01) (1, 8.53228599219000516385e-01) (0, -1.20675560658381830770e+00) (1, -9.21444513335579529212e-01) (0, 7.36295199072924733130e-01) (1, 9.69899515463867878395e-01) (0, 7.85944437268194739943e-01) (1, 9.17386590941750901251e-01) (0, -1.50450358975413922558e+00) (1, 7.54090692796446027124e-01) (0, -7.88071184491385912096e-01) (1, -6.76075127577475565310e-01) (0, 5.46174393406285263453e-01) (1, 7.50833459756530263718e-01) (0, -7.20975285053606640417e-02) (1, -4.74122356845295189753e-01) (0, -8.50826366055681682088e-02) (1, -3.76548054309999435940e-01) (0, -2.07866041983304383756e-01) (1, -3.26754521017897925361e-01) (0, -2.05382497502122812749e-01) (1, -3.69768620450557194967e-01) (0, -7.79183778029153839562e-01) (1, -9.52854058456212738015e-01) (0, -1.28815719486349244960e+00) (1, -5.58438534995243318626e-01) (0, 7.56058880571326863418e-01) (1, 9.47983147713126195200e-01) (0, -1.13642139848131012991e-01) (1, -4.64295034812408913272e-01) (0, 3.87146428277297949272e-01) (1, 6.96066314512698514072e-01) (0, -2.53808690845938711433e+00) (1, 9.78155088843581266289e-01) (0, 3.52380689370828614759e-01) (1, 6.30691459907510854066e-01) (0, -6.83482447574016305225e+00) (1, -4.36862818929614038499e-01) (0, -1.14055698407677083561e-01) (1, -5.02607616619762720411e-01) (0, -9.02466630876062048117e+00) (1, 6.86495943120019713746e+00) (0, -4.66598088604794103418e+00) (1, -6.18612478998850967571e-01) (0, 5.48246109017743621372e-01) (1, 7.00644312205181085673e-01) (0, -7.86603052319146067717e-01) (1, -9.50652611322862273191e-01) (0, -1.17815891113191217876e+00) (1, -2.46354491222089827529e-01) (0, 7.49283344199897949345e-01) (1, 9.98813040108453509269e-01) (0, 6.06779883758293836493e-01) (1, 8.56839326211238039299e-01) (0, -2.37865292841747899555e-01) (1, -3.38524897131217583635e-01) (0, -1.27064579181218523241e-01) (1, -5.11567054494009965104e-01) (0, 5.60908318827689211794e-01) (1, 7.89087068861837548361e-01) (0, -5.22791839537400981897e+00) (1, -3.45169215023349906790e-01) (0, 3.97926224906292536065e-01) (1, 6.14022419584155709771e-01) (0, 7.74823630262829521342e-01) (1, 9.35654042709194722072e-01) (0, -1.44939855925968696937e-01) (1, -3.41160970766222371164e-01) (0, -2.51183602333293798381e+00) (1, 9.53313973151241000892e-01) (0, 7.17809079714413766915e-01) (1, 9.03827942486176150183e-01) (0, 3.73996654502186720581e-01) (1, 7.94178587333074781363e-01) (0, -4.62934318489657670170e+00) (1, -6.36687061125960296337e-01) (0, -8.06910414628667305159e-01) (1, -5.58564651660263478128e-01) (0, -2.27533111178466473934e-01) (1, -4.69117123852171413745e-01) (0, -8.57693420182389365536e-02) (1, -4.29487779958402871028e-01) (0, -2.00248777837224078979e+00) (1, 5.50620981455137825655e-01) (0, 3.77759597696773918862e-01) (1, 7.09468116095902878726e-01) (0, 7.89819188827051266166e-01) (1, 9.20639680476315280799e-01) (0, -1.72689541415803908819e+01) (1, 8.04148716879439340310e-01) (0, -2.24376933587166904616e+00) (1, 8.26022631701741838484e-01) (0, 1.85045643329137643462e-01) (1, 6.17860603276896291902e-01) (0, -1.53569502404782887162e+00) (1, 7.53056413909661825912e-01) (0, -1.03265532912102901975e+01) (1, 6.85243875242137523429e+00) (0, -1.49458376381748569983e+00) (1, 7.98565940459523337935e-01) (0, -2.47903442600044998656e+00) (1, 9.50517573449516928186e-01) (0, 7.09799938107798622511e-01) (1, 8.55788905898320351184e-01) (0, -1.25010803319478697171e-01) (1, -4.65567818866646832010e-01) (0, 7.22234820638977259577e-01) (1, 8.27809632277857532223e-01) (0, 6.97440365723616562121e-01) (1, 1.03258456932581776933e+00) (0, -2.92445044243980822873e-01) (1, -3.48704745648064196040e-01) (0, -3.17592899719502774758e-01) (1, -4.91681078274932681360e-01) (0, 2.33574281905774394641e-01) (1, 5.24320411786910023366e-01) (0, -2.21063119580950206977e-01) (1, -5.17965625063147694362e-01) (0, 2.67386454637716985960e-01) (1, 5.84359107126106058772e-01) (0, -1.26766352921248559582e+00) (1, -2.00605337348895490512e-01) (0, -2.19394093906568388164e-01) (1, -5.00061258892217086469e-01) (0, -5.32041739996922669054e-02) (1, 3.58411439603432413481e-01) (0, -1.96593878316579151466e-01) (1, -4.33375022658122777131e-01) (0, 7.13587632449743436425e-01) (1, 8.78838910113421856174e-01) (0, -3.01035473029946709644e-01) (1, -3.73697050503291328116e-01) (0, 5.73602753532358455857e-01) (1, 8.96188634544044848695e-01) (0, 6.37791994166820530587e-01) (1, 9.25332625355989701887e-01) (0, 2.07767234366927483480e-01) (1, 4.71411501080353678717e-01) (0, 8.87259212726251078607e-01) (1, 8.61491216742234389159e-01) (0, 2.86010948693997624215e-01) (1, 3.05512205533134240110e-01) (0, -2.27688695985609168559e+00) (1, 9.30824702307798568235e-01) (0, -2.32261021816415030861e-01) (1, -5.51327899613976990523e-01) (0, 4.92562059955845177317e-01) (1, 6.40696769886816563933e-01) (0, -7.03773125449393133213e-02) (1, -3.77358990403329819241e-01) (0, 6.01396314433428891277e-01) (1, 8.81607205395848247953e-01) (0, 1.68896169553881892247e-03) (1, 2.18973130821330519424e-01) (0, 4.75420400275263999035e-01) (1, 8.64201451524418851058e-01) (0, 5.76401391935404849853e-01) (1, 8.64017651650771933980e-01) (0, 7.34498833647320825690e-01) (1, 1.01387197479858626181e+00) (0, -1.72284751798021495972e-01) (1, -3.55349744696486391504e-01) (0, 4.79629554291280124634e-01) (1, 8.03639652471889065488e-01) (0, -2.11711520229218086442e+00) (1, 6.46198231610431106375e-01) (0, -1.51029988576211304796e-01) (1, -3.45694523482593385477e-01) (0, 7.64248349514618063871e-01) (1, 1.03120166747326513779e+00) (0, 7.36200010291691353537e-01) (1, 8.39191453955207999904e-01) (0, -8.83438753921844954764e-02) (1, -4.54666835845625227908e-01) (0, -2.74974433894702552372e-01) (1, -4.14883011348309294064e-01) (0, 8.14015022204452542987e-01) (1, 2.27847066954775967496e-01) (0, -4.48932298222208725491e+00) (1, -7.05249418438861130909e-01) (0, -8.81654429123783667244e-01) (1, -9.36104971526278584193e-01) (0, -1.43152863262260537924e-01) (1, -3.14748067522135688279e-01) (0, -9.67801558360594227359e-02) (1, -3.95636337166822282807e-01) (0, -2.44696340551017410547e+00) (1, 9.40174897837231071662e-01) (0, -1.38134747721226192052e-01) (1, -4.39938652527678608628e-01) (0, -1.04458416226904882151e+00) (1, -3.03890073175762109869e-01) (0, 1.99412922758130384260e-02) (1, 2.87064210420702847770e-01) (0, -4.65279669953374219737e-01) (1, -3.40057288624062870053e-01) (0, -1.46858178143221551615e-01) (1, -3.22279246312902944993e-01) (0, 7.65681885825683417046e-01) (1, 9.90647837258208818767e-01) (0, -1.73448666143659474548e-01) (1, -4.17049739123881713088e-01) (0, -5.78767860154562052699e-01) (1, -4.10780563206240956209e-01) (0, -7.14871953918812252926e-02) (1, -5.03429025633513216320e-01) (0, -2.83386623676370852376e-01) (1, -3.98625620968403593380e-01) (0, -1.03792107968101610105e+00) (1, -2.21045611347424036941e-01) (0, 5.93135416464057874109e-01) (1, 9.74160479588486283298e-01) (0, -2.19279224635378877650e+00) (1, 8.26547272691129042421e-01) (0, 4.90473468779954901997e-01) (1, 6.98258641861306372789e-01) (0, 3.72054684342185804091e-01) (1, 7.70179502240340041475e-01) (0, 4.79279149766955514522e-01) (1, 8.13051668736709531871e-01) (0, 4.51296256483082192101e-01) (1, 6.16247048814256515037e-01) (0, -1.67423652456473925909e+00) (1, 5.36097470190080097052e-02) (0, 6.38994108948715333618e-01) (1, 8.58790391711412248732e-01) (0, -5.91559137440994220469e+01) (1, 1.12352565872524081669e+01) (0, 2.30701150777468777520e-01) (1, 6.86685367029145732332e-01) (0, 6.69954634704569840231e-01) (1, 1.00997095763550781555e+00) (0, -1.29600231613856697876e+00) (1, -7.31456656513768344041e-01) (0, 3.90450233950898339952e-01) (1, 6.62842938847990503781e-01) (0, -2.06977346199317135955e+00) (1, 6.05146944520641216769e-01) (0, -2.30048356098680933934e-01) (1, -3.28786940295756779928e-01) (0, 6.45816702560534805500e-01) (1, 8.56122959529288296565e-01) (0, 2.42107765843156796937e-01) (1, 5.33285528513977924447e-01) (0, -7.89444735731221425290e-01) (1, -9.51357957787973052000e-01) (0, -2.29134974435051708141e-01) (1, -4.83672810378099227169e-01) (0, -1.38507140160405078921e-01) (1, -4.12827546387827537533e-01) (0, -9.94590519514262361156e-02) (1, -4.10541748286402052859e-01) (0, -1.16959688025077057638e+00) (1, -9.24052873896662907427e-01) (0, -2.03959246690149109682e+00) (1, 5.78234508592704421481e-01) (0, 7.21416385199331045008e-01) (1, 8.93053266212161633852e-01) (0, -4.47105915286621158344e+00) (1, -7.14274914247745806861e-01) (0, -1.50004614426947235906e-01) (1, -3.71684362423574998768e-01) (0, -7.39642013156483257852e-01) (1, -3.95853118716430363300e-01) (0, -1.02699384461921994216e+01) (1, 6.81680205267026639859e+00) (0, 3.88236800636014012245e-01) (1, 6.70413223565575200347e-01) (0, 5.62075235196656586290e-01) (1, 7.30382644005168835122e-01) (0, -7.62271009658070930470e-02) (1, -4.21796719397699526599e-01) (0, 7.56548355035576491900e-01) (1, 9.50569996657980142984e-01) (0, -1.11289907505000984500e+00) (1, -2.52679219427991652580e-01) (0, -2.08292968300560321637e+00) (1, 6.81642662786894448779e-01) (0, -1.29365488864445626893e-01) (1, -4.54336328087962149080e-01) (0, -1.39867590710661904296e+00) (1, -1.31520673886130451402e-01) (0, -5.37951744485529470552e+00) (1, -2.73111234434722460751e-01) (0, 6.05227253560559286250e-01) (1, 9.49160668045779809532e-01) (0, -4.59110130445969755186e+00) (1, -6.55475228456920078202e-01) (0, 6.89331823473259275303e-01) (1, 8.97274991627347029421e-01) (0, -3.32957348527932572857e-01) (1, -4.81064114675680054578e-01) (0, -1.09393751645123482596e+00) (1, -2.69902281442966907044e-01) (0, -2.34931305535308776467e-01) (1, -3.36352773997790177596e-01) (0, -7.42868882705899069574e-02) (1, -4.32548190321123293689e-01) (0, -2.22841499597724868043e-01) (1, -3.21499493173234729415e-01) (0, 7.40234629234744256898e-01) (1, 9.87693373367726556999e-01) (0, 5.86500403316628338146e-01) (1, 8.86931584006367956796e-01) (0, -1.95542845406893039950e+00) (1, 2.28070704718907862896e-01) (0, -1.11184926023329744282e+00) (1, -2.52832957593403351293e-01) (0, -1.05537630561940612428e-01) (1, -3.16918092461740463772e-01) (0, -2.08022782099996139671e-01) (1, -3.44567533196509734328e-01) (0, 5.77958197288565456162e-01) (1, 8.34563711356501536365e-01) (0, 8.66598639970152961887e-01) (1, 8.85441647928033814807e-01) (0, 7.36214471376001489134e-01) (1, 1.01014107956329257654e+00) (2, 3.64263451650994884989e-01) (3, 3.09165208951354020250e-01) (4, -1.98228704496094046417e-02) (5, -9.79149860970153634865e-02) (6, 9.28899624663476752850e-02) (7, -1.87531408419038155000e-03) (8, -4.25990872110879048584e-02) (9, 1.16392155526808649402e-01) (10, -5.62512863235044291432e-02) (11, -1.65919628094990702361e-02) (12, 8.26071108201170273277e-02) (13, 5.27328599284311194673e-01) (14, -2.78284330382911060386e-02) (15, -9.62956471133035070420e-03) (16, 5.10542196291862010460e-02) (17, -3.00649304372822417930e-02) (18, -2.24385330357076070995e-02) (19, -8.35521780176077741298e-03) (20, 7.94782991435516623924e-03) (21, -4.87891356953177035560e-02) (22, -6.67743799478421745652e-02) (23, 2.69880859861379961140e-02) (24, -2.19428176042882946278e-03) (25, 3.41626959362702764533e-01) (26, 3.14040026737846424965e+01) (27, -1.68854065722941898420e-02) (28, -4.07356655940368309055e-02) (29, 4.47571380984864309466e-03) (30, -2.19065858141650748880e-02) (31, -1.07223253789713965367e-01) (32, -2.60139728657081369112e-02) (33, -1.85649683112620693393e-02) (34, 3.74958545378301755235e-01) (35, 6.79361694198952082574e-03) (36, 1.93079630534715774616e-03) (37, -3.49818179552553037981e-02) (38, -2.23632752311673267676e-02) (39, -9.93393344495438201935e-02) (40, -3.03370977512675693566e-02) (41, 9.63141890254537794136e-03) (42, 2.23477195109097540038e-02) (43, -5.06273208087079096273e-02) (44, 1.37953517540456427337e-01) (45, -4.63093844773808244186e-02) (46, -2.75638054667014346932e-02) (47, -7.32425596297043290939e-02) (48, 3.04582756683003837150e-02) (49, -4.47166220030343203318e-02) (50, 7.07637483678445582125e-03) (51, 1.82310762065443603130e-02) (52, 3.22069527389266876960e-02) (53, 1.61755831720086541703e-02) (54, 2.85713395372062181621e-02) (55, -4.24905005720307704653e-02) (56, -4.19318874935671187520e-02) (57, -2.03999201568988734398e-03) (58, -1.15875293051555579987e-02) (59, -2.01262788753651750140e-01) (60, 3.65564506584823692079e-03) (61, 2.30256008394167446807e-02) (62, 3.99466474242227975733e-02) (63, -4.65055687978474352473e-01) (64, 4.14133758611742508471e-01) (65, -3.00588934737240631723e-02) (66, 2.73212133017972438886e-02) (67, -1.12031104898909952827e-01) (68, -6.87509720604439072966e-02) (69, -8.11605332490190345407e-02) (70, 7.19675889785206281124e-03) (71, 3.33964736245852961138e-02) (72, -5.11183219472916353099e-02) (73, 7.01630725255747322855e-01) (74, 9.31911407334023132731e-03) (75, -1.11379611896037390012e-02) (76, 3.03642933892831548559e-02) (77, -2.47291161402692499793e-01) (78, -6.08595692203079269289e-02) (79, -1.72460469736412901065e-02) (80, 3.32585013009185526123e-01) (81, -1.81750959842214253326e-02) (82, 2.87211462395881855780e-02) (83, 3.41679822882200029399e-02) (84, 6.51041961724246887044e-02) (85, -4.37547232251773218076e-03) (86, -1.64878520547389849360e-02) (87, -1.28288692970001942939e+01) (88, -1.72132573893079149352e-02) (89, -2.70532789589241727535e-02) (90, -7.43662484983108329484e-02) (91, 1.68525739136255392481e+00) (92, -7.76940790144370757586e-02) (93, -2.50031151061235523692e-01) (94, -6.67297162611139305088e-02) (95, 3.32473393380860599011e-02) (96, -6.55777586259979894390e-02) (97, -9.46999953553710055454e-02) (98, 2.37503887286397256939e-02) (99, 2.43362905774378475432e-02) (100, -1.88030176678971872040e-02) (101, 1.29504848735058891024e-02) (102, -1.29725527118998065074e-02) (103, -9.55811580202428762165e-02) (104, 2.82148643868659655676e-02) (105, -4.70963884286242917554e-02) (106, 1.05167680984244050341e-02) (107, -2.05767344230635210178e-02) (108, -2.14989722239937106063e-03) (109, -8.97926497126233374990e-02) (110, -7.16986380791233418597e-02) (111, -1.94287675052956659849e-02) (112, 5.46936205329685582593e-03) (113, 7.81624152285283202435e-03) (114, -2.61404071066654697386e-01) (115, -4.61063569319118075202e-03) (116, -2.09807162973384801752e-02) (117, 3.10442910275954449262e-02) (118, -1.25778889699047685680e-01) (119, -4.03421903838470444215e-02) (120, -3.61899789781756145435e-02) (121, -9.61650508760110850348e-02) (122, -7.21394375398178577807e-02) (123, 2.69096441677788879299e-02) (124, -2.96597050117207369779e-02) (125, 1.45480652492539302978e-01) (126, -1.44111158812717707854e-03) (127, -9.01477895711441795656e-02) (128, -3.99830279898775037273e-02) (129, 1.12071652356674853618e-02) (130, 6.57157014515200206539e-03) (131, 8.77325034558298355591e-02) (132, 3.34758832316498222692e-01) (133, 1.51313545336618764797e-02) (134, -4.92750144589614025303e-03) (135, -4.37804693130880700352e-03) (136, -2.63323886923950090111e-01) (137, 1.56682144011234779357e-02) (138, -7.09448085334157541038e-02) (139, -3.81187940161062319144e-02) (140, -6.16224784386162696692e-02) (141, -8.19736719297784258154e-03) (142, -7.88747187549141970386e-02) (143, 1.13862834291203716963e-02) (144, -6.77648210956616203759e-02) (145, 1.76674496611152927195e-02) (146, 1.62627638449868022752e-02) (147, -9.83443128774660890734e-02) (148, -9.81127761858021918417e-02) (149, -2.17505012413767746804e-02) (150, -4.45189334245241000176e-02) (151, -1.74057687951877995691e-02) (152, -2.90620828269661304888e-02) (153, 1.10466411542886853991e-02) (154, -2.90112042669075476109e-01) (155, -3.28936281464688659582e-02) (156, -7.69080096297430237939e+00) (157, -2.42682777496655011085e-02) (158, -5.22499109392670288421e-02) (159, -2.88673433007976196207e-02) (160, -2.21950323956874532444e-03) (161, 4.15968037370606918968e-02) (162, 2.97687554364903309012e-02) (163, -4.13913837955586366713e-02) (164, 2.05608482844067772671e-03) (165, 3.09621699746445572243e-02) (166, -3.90253597387697857141e-03) (167, 1.99329317592349605781e-02) (168, 4.31235480828873370129e-03) (169, 1.05966396152311955609e-02) (170, 1.11680288899730945085e-01) (171, -4.25640651834979857893e-02) (172, 3.77686449155901327046e-01) (173, 1.46566937769630912386e-02) (174, -5.33558743406323462977e-02) (175, 1.68570199426468891879e+00) (176, 6.03319205385851025508e-03) (177, -2.83282985074075448206e-02) (178, 1.99700566190271558420e-02) (179, -2.22927119149701723211e-02) (180, -1.31807504140298764606e-01) (181, -1.37154896286449858728e-02) (182, 3.48528535150271281950e-02) (183, -1.07259257938991270365e-01) (184, 3.29172848730531431016e+00) (185, -8.22418126815354089132e-02) (186, 3.07010113100297743483e-01) (187, -6.06636050233393883668e-02) (188, 1.68200854157126225563e-02) (189, -8.26037817270393465163e-02) (190, -3.78327852022512399130e-03) (191, 1.85026647704632958569e-02) (192, -3.85924637262696377735e-03) (193, -2.09618421077250975670e-02) (194, -1.00165681223930130850e-01) (195, -2.02568128041464845523e-01) (196, -8.01921101490784132837e-02) (197, 1.04607679788164247697e-02) (198, 3.35567297221882540614e-02) (199, -3.18246302544632000964e-02) (200, -4.06449303556965513273e-02) (201, -5.90665150728234000788e-02) (202, -7.54710002486514985875e-02) 
