FANN_FLO_2.1
num_layers=3
learning_rate=0.700000
connection_rate=1.000000
network_type=0
learning_momentum=0.000000
training_algorithm=2
train_error_function=1
train_stop_function=0
cascade_output_change_fraction=0.010000
quickprop_decay=-0.000100
quickprop_mu=1.750000
rprop_increase_factor=1.200000
rprop_decrease_factor=0.500000
rprop_delta_min=0.000000
rprop_delta_max=50.000000
rprop_delta_zero=0.100000
cascade_output_stagnation_epochs=12
cascade_candidate_change_fraction=0.010000
cascade_candidate_stagnation_epochs=12
cascade_max_out_epochs=150
cascade_min_out_epochs=50
cascade_max_cand_epochs=150
cascade_min_cand_epochs=50
cascade_num_candidate_groups=2
bit_fail_limit=3.49999999999999977796e-01
cascade_candidate_limit=1.00000000000000000000e+03
cascade_weight_multiplier=4.00000000000000022204e-01
cascade_activation_functions_count=10
cascade_activation_functions=3 5 7 8 10 11 14 15 16 17 
cascade_activation_steepnesses_count=4
cascade_activation_steepnesses=2.50000000000000000000e-01 5.00000000000000000000e-01 7.50000000000000000000e-01 1.00000000000000000000e+00 
layer_sizes=2 201 2 
scale_included=0
neurons (num_inputs, activation_function, activation_steepness)=(0, 0, 0.00000000000000000000e+00) (0, 0, 0.00000000000000000000e+00) (2, 4, 5.00000000000000000000e-01) (2, 4, 5.00000000000000000000e-01) (2, 4, 5.00000000000000000000e-01) (2, 4, 5.00000000000000000000e-01) (2, 4, 5.00000000000000000000e-01) (2, 4, 5.00000000000000000000e-01) (2, 4, 5.00000000000000000000e-01) (2, 4, 5.00000000000000000000e-01) (2, 4, 5.00000000000000000000e-01) (2, 4, 5.00000000000000000000e-01) (2, 4, 5.00000000000000000000e-01) (2, 4, 5.00000000000000000000e-01) (2, 4, 5.00000000000000000000e-01) (2, 4, 5.00000000000000000000e-01) (2, 4, 5.00000000000000000000e-01) (2, 4, 5.00000000000000000000e-01) (2, 4, 5.00000000000000000000e-01) (2, 4, 5.00000000000000000000e-01) (2, 4, 5.00000000000000000000e-01) (2, 4, 5.00000000000000000000e-01) (2, 4, 5.00000000000000000000e-01) (2, 4, 5.00000000000000000000e-01) (2, 4, 5.00000000000000000000e-01) (2, 4, 5.00000000000000000000e-01) (2, 4, 5.00000000000000000000e-01) (2, 4, 5.00000000000000000000e-01) (2, 4, 5.00000000000000000000e-01) (2, 4, 5.00000000000000000000e-01) (2, 4, 5.00000000000000000000e-01) (2, 4, 5.00000000000000000000e-01) (2, 4, 5.00000000000000000000e-01) (2, 4, 5.00000000000000000000e-01) (2, 4, 5.00000000000000000000e-01) (2, 4, 5.00000000000000000000e-01) (2, 4, 5.00000000000000000000e-01) (2, 4, 5.00000000000000000000e-01) (2, 4, 5.00000000000000000000e-01) (2, 4, 5.00000000000000000000e-01) (2, 4, 5.00000000000000000000e-01) (2, 4, 5.00000000000000000000e-01) (2, 4, 5.00000000000000000000e-01) (2, 4, 5.00000000000000000000e-01) (2, 4, 5.00000000000000000000e-01) (2, 4, 5.00000000000000000000e-01) (2, 4, 5.00000000000000000000e-01) (2, 4, 5.00000000000000000000e-01) (2, 4, 5.00000000000000000000e-01) (2, 4, 5.00000000000000000000e-01) (2, 4, 5.00000000000000000000e-01) (2, 4, 5.00000000000000000000e-01) (2, 4, 5.00000000000000000000e-01) (2, 4, 5.00000000000000000000e-01) (2, 4, 5.00000000000000000000e-01) (2, 4, 5.00000000000000000000e-01) (2, 4, 5.00000000000000000000e-01) (2, 4, 5.00000000000000000000e-01) (2, 4, 5.00000000000000000000e-01) (2, 4, 5.00000000000000000000e-01) (2, 4, 5.00000000000000000000e-01) (2, 4, 5.00000000000000000000e-01) (2, 4, 5.00000000000000000000e-01) (2, 4, 5.00000000000000000000e-01) (2, 4, 5.00000000000000000000e-01) (2, 4, 5.00000000000000000000e-01) (2, 4, 5.00000000000000000000e-01) (2, 4, 5.00000000000000000000e-01) (2, 4, 5.00000000000000000000e-01) (2, 4, 5.00000000000000000000e-01) (2, 4, 5.00000000000000000000e-01) (2, 4, 5.00000000000000000000e-01) (2, 4, 5.00000000000000000000e-01) (2, 4, 5.00000000000000000000e-01) (2, 4, 5.00000000000000000000e-01) (2, 4, 5.00000000000000000000e-01) (2, 4, 5.00000000000000000000e-01) (2, 4, 5.00000000000000000000e-01) (2, 4, 5.00000000000000000000e-01) (2, 4, 5.00000000000000000000e-01) (2, 4, 5.00000000000000000000e-01) (2, 4, 5.00000000000000000000e-01) (2, 4, 5.00000000000000000000e-01) (2, 4, 5.00000000000000000000e-01) (2, 4, 5.00000000000000000000e-01) (2, 4, 5.00000000000000000000e-01) (2, 4, 5.00000000000000000000e-01) (2, 4, 5.00000000000000000000e-01) (2, 4, 5.00000000000000000000e-01) (2, 4, 5.00000000000000000000e-01) (2, 4, 5.00000000000000000000e-01) (2, 4, 5.00000000000000000000e-01) (2, 4, 5.00000000000000000000e-01) (2, 4, 5.00000000000000000000e-01) (2, 4, 5.00000000000000000000e-01) (2, 4, 5.00000000000000000000e-01) (2, 4, 5.00000000000000000000e-01) (2, 4, 5.00000000000000000000e-01) (2, 4, 5.00000000000000000000e-01) (2, 4, 5.00000000000000000000e-01) (2, 4, 5.00000000000000000000e-01) (2, 4, 5.00000000000000000000e-01) (2, 4, 5.00000000000000000000e-01) (2, 4, 5.00000000000000000000e-01) (2, 4, 5.00000000000000000000e-01) (2, 4, 5.00000000000000000000e-01) (2, 4, 5.00000000000000000000e-01) (2, 4, 5.00000000000000000000e-01) (2, 4, 5.00000000000000000000e-01) (2, 4, 5.00000000000000000000e-01) (2, 4, 5.00000000000000000000e-01) (2, 4, 5.00000000000000000000e-01) (2, 4, 5.00000000000000000000e-01) (2, 4, 5.00000000000000000000e-01) (2, 4, 5.00000000000000000000e-01) (2, 4, 5.00000000000000000000e-01) (2, 4, 5.00000000000000000000e-01) (2, 4, 5.00000000000000000000e-01) (2, 4, 5.00000000000000000000e-01) (2, 4, 5.00000000000000000000e-01) (2, 4, 5.00000000000000000000e-01) (2, 4, 5.00000000000000000000e-01) (2, 4, 5.00000000000000000000e-01) (2, 4, 5.00000000000000000000e-01) (2, 4, 5.00000000000000000000e-01) (2, 4, 5.00000000000000000000e-01) (2, 4, 5.00000000000000000000e-01) (2, 4, 5.00000000000000000000e-01) (2, 4, 5.00000000000000000000e-01) (2, 4, 5.00000000000000000000e-01) (2, 4, 5.00000000000000000000e-01) (2, 4, 5.00000000000000000000e-01) (2, 4, 5.00000000000000000000e-01) (2, 4, 5.00000000000000000000e-01) (2, 4, 5.00000000000000000000e-01) (2, 4, 5.00000000000000000000e-01) (2, 4, 5.00000000000000000000e-01) (2, 4, 5.00000000000000000000e-01) (2, 4, 5.00000000000000000000e-01) (2, 4, 5.00000000000000000000e-01) (2, 4, 5.00000000000000000000e-01) (2, 4, 5.00000000000000000000e-01) (2, 4, 5.00000000000000000000e-01) (2, 4, 5.00000000000000000000e-01) (2, 4, 5.00000000000000000000e-01) (2, 4, 5.00000000000000000000e-01) (2, 4, 5.00000000000000000000e-01) (2, 4, 5.00000000000000000000e-01) (2, 4, 5.00000000000000000000e-01) (2, 4, 5.00000000000000000000e-01) (2, 4, 5.00000000000000000000e-01) (2, 4, 5.00000000000000000000e-01) (2, 4, 5.00000000000000000000e-01) (2, 4, 5.00000000000000000000e-01) (2, 4, 5.00000000000000000000e-01) (2, 4, 5.00000000000000000000e-01) (2, 4, 5.00000000000000000000e-01) (2, 4, 5.00000000000000000000e-01) (2, 4, 5.00000000000000000000e-01) (2, 4, 5.00000000000000000000e-01) (2, 4, 5.00000000000000000000e-01) (2, 4, 5.00000000000000000000e-01) (2, 4, 5.00000000000000000000e-01) (2, 4, 5.00000000000000000000e-01) (2, 4, 5.00000000000000000000e-01) (2, 4, 5.00000000000000000000e-01) (2, 4, 5.00000000000000000000e-01) (2, 4, 5.00000000000000000000e-01) (2, 4, 5.00000000000000000000e-01) (2, 4, 5.00000000000000000000e-01) (2, 4, 5.00000000000000000000e-01) (2, 4, 5.00000000000000000000e-01) (2, 4, 5.00000000000000000000e-01) (2, 4, 5.00000000000000000000e-01) (2, 4, 5.00000000000000000000e-01) (2, 4, 5.00000000000000000000e-01) (2, 4, 5.00000000000000000000e-01) (2, 4, 5.00000000000000000000e-01) (2, 4, 5.00000000000000000000e-01) (2, 4, 5.00000000000000000000e-01) (2, 4, 5.00000000000000000000e-01) (2, 4, 5.00000000000000000000e-01) (2, 4, 5.00000000000000000000e-01) (2, 4, 5.00000000000000000000e-01) (2, 4, 5.00000000000000000000e-01) (2, 4, 5.00000000000000000000e-01) (2, 4, 5.00000000000000000000e-01) (2, 4, 5.00000000000000000000e-01) (2, 4, 5.00000000000000000000e-01) (2, 4, 5.00000000000000000000e-01) (2, 4, 5.00000000000000000000e-01) (2, 4, 5.00000000000000000000e-01) (2, 4, 5.00000000000000000000e-01) (2, 4, 5.00000000000000000000e-01) (2, 4, 5.00000000000000000000e-01) (2, 4, 5.00000000000000000000e-01) (2, 4, 5.00000000000000000000e-01) (2, 4, 5.00000000000000000000e-01) (2, 4, 5.00000000000000000000e-01) (2, 4, 5.00000000000000000000e-01) (2, 4, 5.00000000000000000000e-01) (2, 4, 5.00000000000000000000e-01) (0, 0, 0.00000000000000000000e+00) (201, 4, 5.00000000000000000000e-01) (0, 0, 0.00000000000000000000e+00) 
connections (connected_to_neuron, weight)=(0, -5.28997477840209673339e-01) (1, -2.90761354202387800605e-01) (0, 1.03552261701816883388e+00) (1, 1.79238152318960258791e-01) (0, -5.01736741614317804938e-01) (1, -2.34908382882306421280e-01) (0, -5.33505520855689696624e-01) (1, -2.96989608677504457468e-01) (0, 2.47370008861317991489e-01) (1, -2.12581007716980158184e-01) (0, 1.11873632640621401002e+00) (1, 1.33747264544020971755e-01) (0, -5.60780853417309099740e-01) (1, -2.55267910744783999011e-01) (0, 1.12709601930375691303e+00) (1, 3.82206515383968076227e-02) (0, -2.60476226180058745285e+01) (1, -4.39078164226528588898e+00) (0, -4.84118978312096992500e-01) (1, -2.69813943975286596455e+00) (0, -5.42647835811645773418e-01) (1, -3.74391375466463505184e-01) (0, 1.08570460201284202384e+00) (1, 1.75582780366903251634e-01) (0, -1.30557220058591738621e+00) (1, -2.09260707520899158496e+00) (0, -5.05978696707311437208e-01) (1, 9.03114254640712127431e-02) (0, 1.11732411736074710440e+00) (1, 1.62209917926795704757e-01) (0, -6.88268723561029860392e-01) (1, -8.10398127671514423298e-01) (0, -2.22513719614338301156e+00) (1, -3.21281729124694725996e+00) (0, -5.49801397122257506922e-01) (1, -3.63109914002535227873e-01) (0, 2.24833624029130901834e-01) (1, -2.28092805150596433794e-01) (0, -5.29900521593313245106e-01) (1, 1.24946050695814075970e-01) (0, -5.98243835059551400946e+01) (1, -8.07450514104503369595e+00) (0, -8.58571767317224954219e-01) (1, -7.14535955189023797018e-01) (0, -4.80948288973488791154e-01) (1, -3.19411799469111579164e-01) (0, -8.45698422605101196581e-01) (1, -6.82179186259982861529e-01) (0, -4.97536044668969112958e-01) (1, -2.33916889418790185928e-01) (0, -2.16172607085357837420e+00) (1, -9.78452678000393372137e-01) (0, 1.05863406681377059115e+00) (1, 6.23943488316772779112e-02) (0, -2.00168252875096186472e+00) (1, -1.76638776744780501282e+00) (0, -2.01157712580796621538e+00) (1, -1.76360146094031389197e+00) (0, -5.99646673066167039678e+01) (1, -8.02416395213741040493e+00) (0, -5.36077906390697633832e-01) (1, -3.55545630746004648337e-01) (0, -4.73233633296550271208e-01) (1, 1.24815312247671075796e-01) (0, -5.45589419998043334559e-01) (1, -3.72740614268419645505e-01) (0, 1.13380328729263801790e+00) (1, 1.71717697092461013542e-01) (0, -5.52580085347915361815e-01) (1, -2.42370268758961199262e-01) (0, 1.14089852156020654661e+00) (1, 8.22302575578869182626e-02) (0, -5.80406903704946741662e-01) (1, -2.66603527947542551235e-01) (0, -5.47804160959833419398e-01) (1, -3.93287457539198193057e-01) (0, 1.06121179791069430998e+00) (1, 2.02985946938517236582e-01) (0, -4.84993477400460171189e-01) (1, -3.06887455442069190248e-01) (0, -2.13600489094333667595e+00) (1, -1.80141395506638724022e+00) (0, -1.15649632309772720795e+00) (1, 2.36779572512874070256e-01) (0, -4.71580554937911011759e-01) (1, -8.76857082725850722760e-01) (0, -5.57527899566380158447e-01) (1, -2.10573124522397236991e-01) (0, 1.15908382794853292985e+00) (1, 5.02788722701293863682e-02) (0, -2.31704279465111007141e+00) (1, -8.42192818571036228015e-01) (0, -3.99956053057725580135e-01) (1, 9.26349538257731780488e-02) (0, -1.68478906879318857115e+00) (1, -1.04912712045757228196e+00) (0, -2.09694652522333724320e+00) (1, -1.73038718179275741171e+00) (0, -5.98004705248026056097e+01) (1, -7.96886636879496279562e+00) (0, 1.02075590508503191711e-01) (1, -2.03629997452872552044e-01) (0, -5.10399787578908581409e-01) (1, -2.39023357787320395174e-01) (0, -2.64775402646165218812e+01) (1, -4.79322151410686192463e+00) (0, -5.43111239573032644756e-01) (1, -3.63071959515211539760e-01) (0, -4.14148536554007851151e-01) (1, 5.05326765468709915297e-02) (0, 1.16820398816458714819e+00) (1, 1.44011460795637258325e-01) (0, -4.98498309842634157452e-01) (1, -3.81433733254549989233e-01) (0, -8.73333821986061686893e-01) (1, -6.89637712503551658649e-01) (0, 1.14812234750982211651e+00) (1, 2.30796685247683514008e-02) (0, 2.94335394099087988007e-01) (1, -2.15271792331524491892e-01) (0, -5.98978645888713998602e+01) (1, -8.07086749937671399380e+00) (0, -7.77373117545605674117e-01) (1, -7.05331274626850412979e-01) (0, -4.65757402048691704355e-01) (1, -3.76835517742751258119e-01) (0, -5.23634401309786556844e-01) (1, -3.55541539472935430588e-01) (0, 1.14155735791704704418e+00) (1, 8.18278672158898046085e-02) (0, -2.08907776598586858441e+00) (1, -1.73817937090456609006e+00) (0, -5.33254854205338135742e-01) (1, -2.54457462411044110784e-01) (0, -5.17499823667769254243e-01) (1, -3.87712682058928226336e-01) (0, 1.08598545523262757229e+00) (1, 1.68341451496130972698e-01) (0, -1.86664258422307427487e+00) (1, 1.43387816092431719106e+00) (0, -8.55704187857080911250e-01) (1, -7.18617700504575518394e-01) (0, -8.86898624692302850470e-01) (1, -6.73356718684314903278e-01) (0, -2.64142303567033138734e+01) (1, -4.74372393953906712483e+00) (0, 1.14102348656437424523e+00) (1, 1.11046127125276866687e-01) (0, -7.23377806285382507490e-01) (1, -8.03396948280929668051e-01) (0, 1.03584902905780107396e+00) (1, 1.14613648123756753372e-01) (0, 7.93590792233515723852e-02) (1, -9.51036912517520677257e-02) (0, -1.22816948978138085202e+00) (1, -4.09902773171178097522e-02) (0, 1.17141164810440989719e+00) (1, 3.77562525352883940344e-02) (0, 1.20459069004886143439e+00) (1, 8.58112031557594912012e-02) (0, 1.17535569617144664001e+00) (1, 1.41999465647932310297e-01) (0, -4.78419455351748179606e-01) (1, -2.47933492349412032407e-01) (0, -4.60481025937461263542e-01) (1, -3.02964609993334466065e-02) (0, 1.08074986891723345828e+00) (1, 1.75568635765081554334e-01) (0, -7.48423655668259524276e-01) (1, -7.50282150686382487415e-01) (0, -5.98895009023694200323e+01) (1, -7.90256371166758242452e+00) (0, -1.81477088503038364031e+00) (1, 1.21657560809140963265e+00) (0, -2.64602986823420849305e+01) (1, -4.81399660873519597004e+00) (0, -7.48176765377116970157e-01) (1, -6.68414424873793988624e-01) (0, -1.91134133624222113390e+00) (1, -1.33464684113649934005e+00) (0, -5.21382423506522862944e-01) (1, -2.65449324147341736424e-01) (0, -8.08268382655550232663e-01) (1, -8.01809569173452474367e-01) (0, -8.50062859484662203258e-01) (1, -8.98938305833332340633e-01) (0, 1.20324725133960219736e+00) (1, 6.82004182462759289685e-02) (0, 1.13416736534829842853e+00) (1, 8.54806295480905475870e-02) (0, -5.54818666342029476191e-01) (1, -3.11400615053770590812e-01) (0, -4.78275778355517100504e-01) (1, -2.38325894776611396653e-01) (0, -4.20016713993609902555e-01) (1, -5.86438206621058277790e-02) (0, -1.98591440940230401502e+00) (1, -1.98403412470830797787e+00) (0, 1.12158801368470739668e+00) (1, 6.36738163864823542015e-02) (0, -5.99746856031564874456e+01) (1, -8.00168649670022702480e+00) (0, -5.97980133233217401312e+01) (1, -8.07077028420108533169e+00) (0, -1.83417987843762930744e+00) (1, -1.96541420846885239726e+00) (0, -4.15896960156024453337e-01) (1, -1.80421431669589710234e-02) (0, -5.29451809247677540604e-01) (1, -3.68647075334665896840e-01) (0, -2.18403329711527760537e+00) (1, -9.58549428165724082262e-01) (0, -1.93220739330433177727e+00) (1, 3.06274430623003057761e+00) (0, -4.10295715490396173397e-01) (1, 1.13915838568509994455e-01) (0, -5.61659056381315302531e-01) (1, -2.31925422429272637403e-01) (0, -5.03437106119613675403e-01) (1, 9.53635151552333221181e-02) (0, 1.04936201087231206763e+00) (1, 1.75612687358862346043e-01) (0, 1.16574770997683474505e+00) (1, 9.13087811443841768089e-02) (0, -5.06671939484325872805e-01) (1, -3.55727360099432954321e-01) (0, -5.02876852687675235387e-01) (1, -2.72707164445040783907e-01) (0, -5.98315646586565179632e+01) (1, -7.96811672862820330465e+00) (0, -5.99910463181881112860e+01) (1, -7.97618189271740618551e+00) (0, -2.39192429119838845253e+00) (1, -7.76700185438299550711e-01) (0, 1.09620932451482033798e+00) (1, 1.31269784173977249742e-01) (0, -7.53887918928624167769e-01) (1, -7.85709945451139479822e-01) (0, -6.18063088685102512976e-01) (1, -8.71405597285775823657e-01) (0, -5.38535681060997584169e-01) (1, -2.87738373932001967326e-01) (0, -5.91342590233629561425e-01) (1, -2.60142053807375150942e-01) (0, -4.72179391043246743376e-01) (1, 4.37638263272397270987e-02) (0, 1.18549375891368136138e+00) (1, 1.74985674444429001317e-01) (0, -3.72538265815406166581e-01) (1, -5.46513471096691638013e-03) (0, 1.03938955775494012990e+00) (1, 1.69749757202155487912e-01) (0, -5.99388996859637899206e+01) (1, -7.94776030447535131174e+00) (0, 1.14483428352896354774e+00) (1, 1.21123636347704469185e-01) (0, 9.52591205979335109433e-02) (1, -1.45757691540379541451e-01) (0, 1.06382519178945256222e+00) (1, 1.04192728357331593214e-01) (0, -2.18941461892625843788e+00) (1, -9.54244815802863466381e-01) (0, -1.78299986765262263866e+00) (1, -1.00919644147351417196e+00) (0, 1.06183754824954657003e+00) (1, 9.87004295025046413103e-02) (0, -3.81532900588572976286e-01) (1, -6.14054200360187457663e-02) (0, -5.81132091066187128625e-01) (1, -2.55104560454485318477e-01) (0, 1.16219068510977652231e+00) (1, 1.59156248234981839706e-01) (0, 2.75458498790592309913e-01) (1, -8.06811670717011708565e-02) (0, -5.26475676063123509962e-01) (1, -8.22671637617869281646e-04) (0, -5.86023330172842360497e-01) (1, -2.61045840916750260252e-01) (0, 1.17092260680195092704e+00) (1, 2.27365496855038255741e-02) (0, -5.61548940321749068261e-01) (1, -3.20822200163481174862e-01) (0, -4.69861318600626631792e-01) (1, -2.45909190395621951586e-01) (0, 1.15001717180988949352e+00) (1, 6.30337695586888069332e-02) (0, -2.64955902423363056641e+01) (1, -4.75927388239013371418e+00) (0, -3.94447212973649652401e-01) (1, 7.94848876884593352754e-02) (0, 5.11847563275485625822e-02) (1, -2.59254768961656278936e-01) (0, -5.72219458021883675691e-01) (1, -2.58839011567232601951e-01) (0, -3.71165399915090787886e-01) (1, 7.50729369810237273652e-02) (0, -8.38606176117421053817e-01) (1, -6.49733688466285985719e-01) (0, -4.77214124154862417981e-01) (1, -2.83454987694380877716e-01) (0, 1.03845691853123978099e+00) (1, 1.41913793564807239056e-01) (0, -5.99333902386573953436e+01) (1, -7.95051381554655467454e+00) (0, -2.02109249250506817219e+00) (1, -1.10155278481630736209e+00) (0, 1.19791292497508417014e+00) (1, 5.12688335085004359692e-02) (0, -4.63535264687598702604e-01) (1, 1.25324768047709977914e-01) (0, -9.22589543330830608170e+00) (1, 4.45286914759568297484e+00) (0, -5.23200765805463818836e-01) (1, 1.27752580098529439079e-01) (0, 1.15013883831373897593e+00) (1, 1.14605373592788287174e-01) (0, -5.10018768177772252592e-01) (1, -2.77187530723689123935e-01) (0, 1.18992774351947083744e+00) (1, 4.29556684892280424282e-02) (0, -5.90455700803099392537e-01) (1, -2.17987517577358957954e-01) (0, -5.19169273243690221342e-01) (1, -2.69159638778803833592e-01) (0, 1.05808515273887282504e+00) (1, 3.90197571931042291871e-02) (0, -4.36885838440089546708e-01) (1, 1.04824908345045028635e-01) (0, -1.60731795696374274440e-01) (1, -2.31688882072654678268e+00) (0, -8.08031102456597927208e-01) (1, -8.01518554775831337800e-01) (0, -3.93615355650003106991e-01) (1, 6.07832896402471650754e-02) (0, -5.55155987836235320643e-01) (1, -3.56265128612634929262e-01) (0, -3.75488993755011879472e-01) (1, 1.59715142756805712765e-03) (0, 1.79516831394638476382e-01) (1, -1.74178541306100997943e-01) (0, 2.60640351965755523445e-01) (1, -1.29202953999881325897e-01) (0, -4.51196030335486886198e-01) (1, 1.10372372238935409494e-01) (0, 1.11238249362489827199e+00) (1, 1.46314967550287111653e-01) (0, 1.58781065270869437001e-01) (1, -2.00327477322006758387e-01) (0, -5.08374953774181848054e-01) (1, -3.38421549480078742711e-01) (0, -2.08907892023553198868e+00) (1, -1.83660060051532569858e+00) (0, -1.96072202499759251637e+00) (1, 1.72597044489134954226e+00) (0, -6.85230013275265337214e-01) (1, -9.17345414641073442219e-01) (0, -4.99225597929772335615e-01) (1, -2.30141501416394445023e-01) (0, -5.59588290438980173747e-01) (1, -2.29668811700055153224e-01) (0, 2.22588719442662591463e-01) (1, -2.02565804723347758776e-01) (0, -5.39429485282247878075e-01) (1, -3.60620303761837512901e-01) (0, 3.80917089156097432578e+00) (1, -2.94464136804340403941e+00) (0, 1.03531079911547929662e+00) (1, 7.27121444602126104639e-02) (0, 1.09336859704038502628e+00) (1, 1.84916997509007224876e-01) (0, -1.94352824064906659629e+00) (1, 2.57049134003533952253e+00) (0, -4.95241629348381950937e-01) (1, -3.17599099901793580081e-01) (0, 2.79285236194461827797e-01) (1, -1.64008639042630716132e-01) (0, -5.72874293170420267884e-01) (1, -2.14533754718968350250e-01) (0, -2.05509685750011650285e+00) (1, -1.07188185743216912726e+00) (0, -4.74121930466278984628e-01) (1, -3.59619662323115485414e-01) (0, -5.29749303480332112137e-01) (1, -3.68527769187567355580e-01) (0, -1.92557260018219511544e+00) (1, -1.88506364492518474485e+00) (0, 1.08618315481502536457e+00) (1, 7.22188622083874270929e-02) (0, -5.16945990191245763334e-01) (1, -3.02090745251296088902e-01) (0, -5.11479210547653773133e-01) (1, -3.51251984769461622626e-01) (0, 1.16145214409611541306e+00) (1, 4.95111644454224730794e-02) (0, -6.37796404724452759005e-01) (1, -9.49664768116239565998e-01) (0, 1.16524093692276853318e+00) (1, 9.30497011660906120367e-02) (0, 1.25585284171748329252e-01) (1, -1.94947449722616572565e-01) (2, 1.30362633050679965763e-01) (3, -5.88877155999886076065e-02) (4, 1.10506690365558296607e-01) (5, 1.16505931208377100372e-01) (6, -2.07028053239774502414e-02) (7, -4.83795434813298896870e-02) (8, 1.10331370029215752870e-01) (9, -5.99375270148191918729e-02) (10, 1.50000000000000000000e+03) (11, 2.25234311655897423421e+00) (12, 1.52967089165113367955e-01) (13, -6.63283199648635884982e-02) (14, 3.69698966158368697021e-02) (15, 1.24622956868622764004e-01) (16, -6.77450106124656697970e-02) (17, 5.32227123650738133398e-03) (18, 1.97652784916972962037e+02) (19, 1.61163110226386380175e-01) (20, -1.06308785647354978043e-02) (21, 1.25596471791709102250e-01) (22, 1.50000000000000000000e+03) (23, 7.82791060051714476797e-02) (24, 1.11630894510989786550e-01) (25, 6.22672508737512203636e-02) (26, 1.17603089602237392830e-01) (27, -1.09146098902260221819e-01) (28, -4.85124096851148323140e-02) (29, 5.40075072120771021433e-02) (30, 6.17998682927236031581e-02) (31, 1.50000000000000000000e+03) (32, 1.17539726136596245354e-01) (33, 1.27239207123236441888e-01) (34, 1.22080056244616153016e-01) (35, -5.23515523056783532718e-02) (36, 1.47330495316260218219e-01) (37, -4.75346498032483827378e-02) (38, 1.33563765888929431025e-01) (39, 1.45016848186524965891e-01) (40, -7.32855007629173299533e-02) (41, 9.68866127421909584250e-02) (42, 9.99869421895244539500e-03) (43, 2.86778881266220808666e-01) (44, 7.68818814973748422721e-04) (45, 1.35162259528871842029e-01) (46, -7.63232759972465729659e-02) (47, -8.13668283897971522656e-01) (48, 1.24314975012273690180e-01) (49, 7.19446770253919926086e-02) (50, 5.86351373266324610301e-02) (51, 1.50000000000000000000e+03) (52, -1.45717077733151356006e-02) (53, 1.28786428800340163603e-01) (54, 1.50000000000000000000e+03) (55, 1.60170294644733285372e-01) (56, 1.31830599790530023085e-01) (57, -7.52478591938865876143e-02) (58, 1.36466538565391398707e-01) (59, 8.68529961658263682800e-02) (60, -4.57802988429937135484e-02) (61, -2.61095108565759445596e-02) (62, 1.50000000000000000000e+03) (63, 7.28077780325809414963e-02) (64, 8.31645102679782755040e-02) (65, 1.39585469654794680494e-01) (66, -6.09485559006606031351e-02) (67, 4.78070138825851115305e-02) (68, 1.05944177167659164818e-01) (69, 1.07524256660227787719e-01) (70, -7.47771889548080465060e-02) (71, 7.41668682693010339335e-01) (72, 7.46856515602861981140e-02) (73, 8.11544361711653561287e-02) (74, 1.50000000000000000000e+03) (75, -4.02896679778966676500e-02) (76, 6.99236758054651852401e-02) (77, -6.86997502665247505860e-02) (78, -1.07843697431050569019e-02) (79, 1.87389660493363335858e-01) (80, -4.89833481450948488023e-02) (81, -7.27264090591438622235e-02) (82, -6.26364402314079499190e-02) (83, 8.35390453126485799107e-02) (84, 1.31076136921362690346e-01) (85, -4.73570407013692573628e-02) (86, 6.97230588515201227251e-02) (87, 1.50000000000000000000e+03) (88, 1.43017867320853486746e+00) (89, 1.50000000000000000000e+03) (90, 7.93762994078930222974e-02) (91, 1.78379566789558071304e-05) (92, 9.90177334144166920726e-02) (93, 1.30479156900857512502e-01) (94, 9.11093762209131269314e-02) (95, -4.52878939914769865216e-02) (96, -7.53323860307586884444e-02) (97, 1.33595471798658244067e-01) (98, 1.14752135136371447022e-01) (99, 1.28817038934664535033e-01) (100, 6.85526463066620239672e-02) (101, -5.40229037980832910160e-02) (102, 1.50000000000000000000e+03) (103, 1.50000000000000000000e+03) (104, 1.45393431297625407017e-02) (105, 1.31994467860178765761e-01) (106, 1.29391661775020511138e-01) (107, -7.89819787388844896103e-02) (108, 4.46757127061640224586e-01) (109, 1.28640543688251174359e-01) (110, 1.39700393630739577722e-01) (111, 1.23083954379532817258e-01) (112, -5.28018579463758325199e-02) (113, -6.38477332731140351241e-02) (114, 1.38937072245353260280e-01) (115, 1.23159308579211784762e-01) (116, 1.50000000000000000000e+03) (117, 1.50000000000000000000e+03) (118, -2.05192307213509089747e-01) (119, -4.96894524078168586811e-02) (120, 7.42965982016481063521e-02) (121, 8.95026091202732586999e-04) (122, 9.91448276603271033691e-02) (123, 1.29563430717503785816e-01) (124, 1.33420342896895222085e-01) (125, -4.88528959294233094957e-02) (126, 1.27928566206409161099e-01) (127, -7.02925055842127388672e-02) (128, 1.50000000000000000000e+03) (129, -5.86080975671682755102e-02) (130, -2.00675539411020523173e-02) (131, -6.90157369355934163790e-02) (132, -8.25495952211422329148e-02) (133, 6.09483318328486317617e-02) (134, -4.49016348104276374897e-02) (135, 1.23164486158819100337e-01) (136, 1.15307716900591480935e-01) (137, -7.53742210408104157393e-02) (138, -9.81111099671943404088e-03) (139, 1.34967080390410665292e-01) (140, 1.17130995062593987188e-01) (141, -7.40708984275711274092e-02) (142, 1.38379020864247165301e-01) (143, 1.06291870157962681231e-01) (144, -7.37531982203376984542e-02) (145, 1.50000000000000000000e+03) (146, 1.26789402235461839963e-01) (147, -3.20868504372296033111e-03) (148, 1.46503245995280001468e-01) (149, 1.18689697254629036860e-01) (150, 7.21456646202372625654e-02) (151, 1.14687885090594965387e-01) (152, -4.73847642163978677310e-02) (153, 1.50000000000000000000e+03) (154, -5.58743129277258429588e-02) (155, -6.99447187590645363953e-02) (156, 1.30923832152800401207e-01) (157, -1.21094754882439321619e+01) (158, 1.21052004117463057886e-01) (159, -4.69275243421468507554e-02) (160, 1.12856702874904152312e-01) (161, -7.47293113881119103192e-02) (162, 1.30911243386984538217e-01) (163, 1.28765099379302139226e-01) (164, -6.33937970380561849337e-02) (165, 1.30430844312624694137e-01) (166, 8.84679461377327336358e-01) (167, 1.26723909275697099730e-01) (168, 1.17870580423803231196e-01) (169, 1.41660764138935219014e-01) (170, 1.27157073486758837033e-01) (171, -2.46759314099740945103e-02) (172, -1.35346064027272380836e-02) (173, 1.24062719147656430607e-01) (174, -6.99358687381523153048e-02) (175, -2.10942405475092013833e-02) (176, 1.13354027610545526894e-01) (177, 7.70480201419229942389e-03) (178, 7.14674621511554031272e-01) (179, 2.26330054063238542139e-02) (180, 1.12251695187335659432e-01) (181, 1.29281704119444895706e-01) (182, -2.27096331685972159520e-02) (183, 1.55304804348701253058e-01) (184, -3.90127151323511833780e+00) (185, -6.77128985147203987793e-02) (186, -4.23715517501630500874e-02) (187, 7.15188554491219541376e-01) (188, 9.50786024110369942797e-02) (189, -1.48322181459390033814e-02) (190, 1.50212912354224875644e-01) (191, -6.80581404848402127250e-02) (192, 1.32592919866317354716e-01) (193, 1.26892737042813008586e-01) (194, 5.43783379550630881910e-03) (195, -6.20992288570204747922e-02) (196, 1.11271838372950931939e-01) (197, 1.22908525218730274586e-01) (198, -6.11651368280325818949e-02) (199, 2.20177869874871832978e-02) (200, -4.52565304776105653550e-02) (201, -2.80944764850617999252e-02) (202, -5.84384190440604620043e-02) 
