FANN_FLO_2.1
num_layers=3
learning_rate=0.700000
connection_rate=1.000000
network_type=0
learning_momentum=0.000000
training_algorithm=2
train_error_function=1
train_stop_function=0
cascade_output_change_fraction=0.010000
quickprop_decay=-0.000100
quickprop_mu=1.750000
rprop_increase_factor=1.200000
rprop_decrease_factor=0.500000
rprop_delta_min=0.000000
rprop_delta_max=50.000000
rprop_delta_zero=0.100000
cascade_output_stagnation_epochs=12
cascade_candidate_change_fraction=0.010000
cascade_candidate_stagnation_epochs=12
cascade_max_out_epochs=150
cascade_min_out_epochs=50
cascade_max_cand_epochs=150
cascade_min_cand_epochs=50
cascade_num_candidate_groups=2
bit_fail_limit=3.49999999999999977796e-01
cascade_candidate_limit=1.00000000000000000000e+03
cascade_weight_multiplier=4.00000000000000022204e-01
cascade_activation_functions_count=10
cascade_activation_functions=3 5 7 8 10 11 14 15 16 17 
cascade_activation_steepnesses_count=4
cascade_activation_steepnesses=2.50000000000000000000e-01 5.00000000000000000000e-01 7.50000000000000000000e-01 1.00000000000000000000e+00 
layer_sizes=2 201 2 
scale_included=0
neurons (num_inputs, activation_function, activation_steepness)=(0, 0, 0.00000000000000000000e+00) (0, 0, 0.00000000000000000000e+00) (2, 4, 5.00000000000000000000e-01) (2, 4, 5.00000000000000000000e-01) (2, 4, 5.00000000000000000000e-01) (2, 4, 5.00000000000000000000e-01) (2, 4, 5.00000000000000000000e-01) (2, 4, 5.00000000000000000000e-01) (2, 4, 5.00000000000000000000e-01) (2, 4, 5.00000000000000000000e-01) (2, 4, 5.00000000000000000000e-01) (2, 4, 5.00000000000000000000e-01) (2, 4, 5.00000000000000000000e-01) (2, 4, 5.00000000000000000000e-01) (2, 4, 5.00000000000000000000e-01) (2, 4, 5.00000000000000000000e-01) (2, 4, 5.00000000000000000000e-01) (2, 4, 5.00000000000000000000e-01) (2, 4, 5.00000000000000000000e-01) (2, 4, 5.00000000000000000000e-01) (2, 4, 5.00000000000000000000e-01) (2, 4, 5.00000000000000000000e-01) (2, 4, 5.00000000000000000000e-01) (2, 4, 5.00000000000000000000e-01) (2, 4, 5.00000000000000000000e-01) (2, 4, 5.00000000000000000000e-01) (2, 4, 5.00000000000000000000e-01) (2, 4, 5.00000000000000000000e-01) (2, 4, 5.00000000000000000000e-01) (2, 4, 5.00000000000000000000e-01) (2, 4, 5.00000000000000000000e-01) (2, 4, 5.00000000000000000000e-01) (2, 4, 5.00000000000000000000e-01) (2, 4, 5.00000000000000000000e-01) (2, 4, 5.00000000000000000000e-01) (2, 4, 5.00000000000000000000e-01) (2, 4, 5.00000000000000000000e-01) (2, 4, 5.00000000000000000000e-01) (2, 4, 5.00000000000000000000e-01) (2, 4, 5.00000000000000000000e-01) (2, 4, 5.00000000000000000000e-01) (2, 4, 5.00000000000000000000e-01) (2, 4, 5.00000000000000000000e-01) (2, 4, 5.00000000000000000000e-01) (2, 4, 5.00000000000000000000e-01) (2, 4, 5.00000000000000000000e-01) (2, 4, 5.00000000000000000000e-01) (2, 4, 5.00000000000000000000e-01) (2, 4, 5.00000000000000000000e-01) (2, 4, 5.00000000000000000000e-01) (2, 4, 5.00000000000000000000e-01) (2, 4, 5.00000000000000000000e-01) (2, 4, 5.00000000000000000000e-01) (2, 4, 5.00000000000000000000e-01) (2, 4, 5.00000000000000000000e-01) (2, 4, 5.00000000000000000000e-01) (2, 4, 5.00000000000000000000e-01) (2, 4, 5.00000000000000000000e-01) (2, 4, 5.00000000000000000000e-01) (2, 4, 5.00000000000000000000e-01) (2, 4, 5.00000000000000000000e-01) (2, 4, 5.00000000000000000000e-01) (2, 4, 5.00000000000000000000e-01) (2, 4, 5.00000000000000000000e-01) (2, 4, 5.00000000000000000000e-01) (2, 4, 5.00000000000000000000e-01) (2, 4, 5.00000000000000000000e-01) (2, 4, 5.00000000000000000000e-01) (2, 4, 5.00000000000000000000e-01) (2, 4, 5.00000000000000000000e-01) (2, 4, 5.00000000000000000000e-01) (2, 4, 5.00000000000000000000e-01) (2, 4, 5.00000000000000000000e-01) (2, 4, 5.00000000000000000000e-01) (2, 4, 5.00000000000000000000e-01) (2, 4, 5.00000000000000000000e-01) (2, 4, 5.00000000000000000000e-01) (2, 4, 5.00000000000000000000e-01) (2, 4, 5.00000000000000000000e-01) (2, 4, 5.00000000000000000000e-01) (2, 4, 5.00000000000000000000e-01) (2, 4, 5.00000000000000000000e-01) (2, 4, 5.00000000000000000000e-01) (2, 4, 5.00000000000000000000e-01) (2, 4, 5.00000000000000000000e-01) (2, 4, 5.00000000000000000000e-01) (2, 4, 5.00000000000000000000e-01) (2, 4, 5.00000000000000000000e-01) (2, 4, 5.00000000000000000000e-01) (2, 4, 5.00000000000000000000e-01) (2, 4, 5.00000000000000000000e-01) (2, 4, 5.00000000000000000000e-01) (2, 4, 5.00000000000000000000e-01) (2, 4, 5.00000000000000000000e-01) (2, 4, 5.00000000000000000000e-01) (2, 4, 5.00000000000000000000e-01) (2, 4, 5.00000000000000000000e-01) (2, 4, 5.00000000000000000000e-01) (2, 4, 5.00000000000000000000e-01) (2, 4, 5.00000000000000000000e-01) (2, 4, 5.00000000000000000000e-01) (2, 4, 5.00000000000000000000e-01) (2, 4, 5.00000000000000000000e-01) (2, 4, 5.00000000000000000000e-01) (2, 4, 5.00000000000000000000e-01) (2, 4, 5.00000000000000000000e-01) (2, 4, 5.00000000000000000000e-01) (2, 4, 5.00000000000000000000e-01) (2, 4, 5.00000000000000000000e-01) (2, 4, 5.00000000000000000000e-01) (2, 4, 5.00000000000000000000e-01) (2, 4, 5.00000000000000000000e-01) (2, 4, 5.00000000000000000000e-01) (2, 4, 5.00000000000000000000e-01) (2, 4, 5.00000000000000000000e-01) (2, 4, 5.00000000000000000000e-01) (2, 4, 5.00000000000000000000e-01) (2, 4, 5.00000000000000000000e-01) (2, 4, 5.00000000000000000000e-01) (2, 4, 5.00000000000000000000e-01) (2, 4, 5.00000000000000000000e-01) (2, 4, 5.00000000000000000000e-01) (2, 4, 5.00000000000000000000e-01) (2, 4, 5.00000000000000000000e-01) (2, 4, 5.00000000000000000000e-01) (2, 4, 5.00000000000000000000e-01) (2, 4, 5.00000000000000000000e-01) (2, 4, 5.00000000000000000000e-01) (2, 4, 5.00000000000000000000e-01) (2, 4, 5.00000000000000000000e-01) (2, 4, 5.00000000000000000000e-01) (2, 4, 5.00000000000000000000e-01) (2, 4, 5.00000000000000000000e-01) (2, 4, 5.00000000000000000000e-01) (2, 4, 5.00000000000000000000e-01) (2, 4, 5.00000000000000000000e-01) (2, 4, 5.00000000000000000000e-01) (2, 4, 5.00000000000000000000e-01) (2, 4, 5.00000000000000000000e-01) (2, 4, 5.00000000000000000000e-01) (2, 4, 5.00000000000000000000e-01) (2, 4, 5.00000000000000000000e-01) (2, 4, 5.00000000000000000000e-01) (2, 4, 5.00000000000000000000e-01) (2, 4, 5.00000000000000000000e-01) (2, 4, 5.00000000000000000000e-01) (2, 4, 5.00000000000000000000e-01) (2, 4, 5.00000000000000000000e-01) (2, 4, 5.00000000000000000000e-01) (2, 4, 5.00000000000000000000e-01) (2, 4, 5.00000000000000000000e-01) (2, 4, 5.00000000000000000000e-01) (2, 4, 5.00000000000000000000e-01) (2, 4, 5.00000000000000000000e-01) (2, 4, 5.00000000000000000000e-01) (2, 4, 5.00000000000000000000e-01) (2, 4, 5.00000000000000000000e-01) (2, 4, 5.00000000000000000000e-01) (2, 4, 5.00000000000000000000e-01) (2, 4, 5.00000000000000000000e-01) (2, 4, 5.00000000000000000000e-01) (2, 4, 5.00000000000000000000e-01) (2, 4, 5.00000000000000000000e-01) (2, 4, 5.00000000000000000000e-01) (2, 4, 5.00000000000000000000e-01) (2, 4, 5.00000000000000000000e-01) (2, 4, 5.00000000000000000000e-01) (2, 4, 5.00000000000000000000e-01) (2, 4, 5.00000000000000000000e-01) (2, 4, 5.00000000000000000000e-01) (2, 4, 5.00000000000000000000e-01) (2, 4, 5.00000000000000000000e-01) (2, 4, 5.00000000000000000000e-01) (2, 4, 5.00000000000000000000e-01) (2, 4, 5.00000000000000000000e-01) (2, 4, 5.00000000000000000000e-01) (2, 4, 5.00000000000000000000e-01) (2, 4, 5.00000000000000000000e-01) (2, 4, 5.00000000000000000000e-01) (2, 4, 5.00000000000000000000e-01) (2, 4, 5.00000000000000000000e-01) (2, 4, 5.00000000000000000000e-01) (2, 4, 5.00000000000000000000e-01) (2, 4, 5.00000000000000000000e-01) (2, 4, 5.00000000000000000000e-01) (2, 4, 5.00000000000000000000e-01) (2, 4, 5.00000000000000000000e-01) (2, 4, 5.00000000000000000000e-01) (2, 4, 5.00000000000000000000e-01) (2, 4, 5.00000000000000000000e-01) (2, 4, 5.00000000000000000000e-01) (2, 4, 5.00000000000000000000e-01) (2, 4, 5.00000000000000000000e-01) (2, 4, 5.00000000000000000000e-01) (2, 4, 5.00000000000000000000e-01) (2, 4, 5.00000000000000000000e-01) (2, 4, 5.00000000000000000000e-01) (2, 4, 5.00000000000000000000e-01) (2, 4, 5.00000000000000000000e-01) (2, 4, 5.00000000000000000000e-01) (2, 4, 5.00000000000000000000e-01) (2, 4, 5.00000000000000000000e-01) (0, 0, 0.00000000000000000000e+00) (201, 4, 5.00000000000000000000e-01) (0, 0, 0.00000000000000000000e+00) 
connections (connected_to_neuron, weight)=(0, 4.37923510938035109863e-01) (1, 1.68105206219397729228e-01) (0, -6.19583752879930926838e+00) (1, -3.59978710034104698590e-01) (0, 2.61073506531434407218e-01) (1, -9.90578916775745332846e-02) (0, 3.18790820280834552580e-01) (1, 3.33855788061108438303e-02) (0, -9.34959084592054895727e-04) (1, -3.65890493957261309088e-01) (0, -3.72158676206677974108e+00) (1, -1.21629032302116879549e+00) (0, 4.68662798356502055541e-02) (1, -2.67956785618186421605e-01) (0, -5.52566372002434214039e+00) (1, -1.40980424024253436777e+00) (0, 5.60138587242790322862e-02) (1, -3.15705655107155924721e-01) (0, -3.53978636954428260708e+00) (1, -1.29742994441029479979e+00) (0, -3.54575161410157013719e+00) (1, -1.29470432969102122733e+00) (0, -4.28405812654566175990e-01) (1, -7.38088077207774362343e-01) (0, -2.92472462056070303671e-01) (1, -1.11965385186801352768e-01) (0, -5.96148434805117943824e+00) (1, -4.42795161847660989629e-01) (0, 3.28333081518932257126e-02) (1, -3.56299509259442592768e-01) (0, 1.01327363676323611852e-01) (1, -9.15150034845624710256e-02) (0, -5.40232035185885717254e+00) (1, -6.51835230758245676164e-01) (0, -4.74411728939535204397e-01) (1, -1.32795973676709389011e+00) (0, -8.12762355110741374631e+00) (1, 2.10900878484461956619e-01) (0, 2.39939473663433877615e-01) (1, 5.59792421706187398600e-02) (0, -1.33433895332545293666e-01) (1, -7.46578651142398158624e-02) (0, 4.38020117962754695906e-01) (1, 1.43125244062629969344e-01) (0, -6.23801555439066235387e-01) (1, -7.05860264901373657409e-01) (0, -5.57378240780396772003e-01) (1, -1.19588008948382151786e+00) (0, 2.00611968663982809247e+00) (1, -4.70026349539549373469e-02) (0, 2.04702472532943380301e+00) (1, -5.52179723015084264470e-02) (0, -1.04093086119009359258e-01) (1, -1.14269629366432035056e-01) (0, 6.49202132037798307351e-02) (1, -4.26913999553338530113e-01) (0, 1.43015156632421813754e+00) (1, 1.05789090010459885249e-01) (0, 2.19860144644640986833e-01) (1, -2.48551973278091503650e-02) (0, 3.22078670358654506334e-01) (1, 2.01725329110088620610e-02) (0, 2.07615644507408880770e-01) (1, -7.63472470991193863377e-02) (0, 2.49157760897597384264e-02) (1, -4.01156339850559706672e-01) (0, -1.09544545995900666213e+01) (1, -9.67632513068120481137e+00) (0, 4.02612757333712656393e-01) (1, 2.77268154830268453992e-01) (0, -5.49551170731157601068e+00) (1, -1.41685680251482448710e+00) (0, -3.30396044070002670168e+00) (1, -1.40339159277239500234e+00) (0, -5.62357019584722395145e-01) (1, -7.32698848541785019428e-01) (0, 5.43083055975136161364e-02) (1, -9.49766571811009041593e-02) (0, 4.38268894763722161034e-01) (1, 2.49516574816229158573e-01) (0, -5.04322145301699040210e-02) (1, -2.62639176572504351448e-01) (0, 3.53262025562656345468e-01) (1, 1.79345465535461406903e-01) (0, -4.01681674660726573123e-01) (1, -7.21106403499760961751e-01) (0, -4.20745953022788554687e-01) (1, -8.12517667353558903365e-01) (0, 1.35607123445557520292e+00) (1, 1.20460265025399373973e-01) (0, -1.00897897564572805451e-02) (1, -3.52513069022111102946e-01) (0, -7.97110632905519533864e+00) (1, 1.44062020703271675970e-01) (0, -2.62295918287581732165e-02) (1, -3.04264138556889607301e-01) (0, 1.64169467798328772012e+00) (1, 1.23288025287539952657e-02) (0, -4.57003759646402274441e-01) (1, -3.19473078718313152624e-01) (0, 7.21445931508688520495e-02) (1, -4.28894951953069258899e-01) (0, -3.46585263804390786291e+00) (1, -1.33020796829264265071e+00) (0, 9.27697258303313843086e-02) (1, -7.62417902086531401595e-02) (0, -3.76463757591239747691e-02) (1, -2.41810681112194253428e-01) (0, 2.04327646783847027834e+00) (1, 2.07981828682102850431e-03) (0, -8.72232595404744681655e-02) (1, -1.54253550119436699806e-01) (0, -5.79896242521267613057e+00) (1, -4.99762653082666485904e-01) (0, -3.51783095770846099271e+00) (1, -1.30695235668109899230e+00) (0, -3.38898000546334454697e+00) (1, -1.36515128679759434327e+00) (0, -3.60536174000990383703e+00) (1, -1.26799540526236609317e+00) (0, 6.92059691309079849653e-02) (1, -3.96817387201444049527e-01) (0, -3.47732566053985170385e+00) (1, -1.32494770539104278484e+00) (0, -5.64116633356329777449e-01) (1, -7.35892078861932419365e-01) (0, -9.90766805652180254649e-03) (1, -3.32454400391034243789e-01) (0, -5.49532466456662671561e+00) (1, -1.41718354538352775407e+00) (0, -3.05424803542119170652e-02) (1, -2.94288763160637845129e-01) (0, 4.06285009378811012848e-01) (1, 1.08886034093020042657e-01) (0, 6.03605798270060445176e-01) (1, 7.43703541413699015239e-02) (0, -5.78654896212793312671e-01) (1, -7.15814206559328480850e-01) (0, -9.01055711104922218979e-02) (1, -2.03971959889454490522e-01) (0, 3.52396681034986947179e-01) (1, 1.05063351824592574046e-01) (0, -3.57146929747424568546e+00) (1, -1.28318129775447475893e+00) (0, 1.42500888219903240617e-02) (1, -2.66207608991812338939e-01) (0, 3.41976911150644768966e-01) (1, 1.14613124314295683481e-01) (0, -3.63033999312897881495e+00) (1, -1.25657339495787701011e+00) (0, -9.32908179026312456283e-02) (1, -3.66658038740138192413e-01) (0, -3.55100466726112529159e+00) (1, -1.29232987633504259328e+00) (0, 3.88239434686444562228e-01) (1, 1.35393883945101239918e-01) (0, 4.33401409025339148795e-02) (1, -3.37715947356835577420e-01) (0, 4.56894686376861647314e-01) (1, 1.48389190948976790185e-01) (0, 1.80231044833672049421e+00) (1, -1.52001302334004101749e-03) (0, -4.10441949886352699939e-02) (1, -2.72703373625121370250e-01) (0, -2.52176103772516280524e-03) (1, -2.32068184964656865077e-01) (0, 4.75036959679364101383e-01) (1, 1.56000977005302882139e-01) (0, 2.07395035499399645051e-02) (1, -3.20546873811463461923e-01) (0, 8.06116191111273805436e-03) (1, -2.43181321436130554181e-01) (0, -3.76836495537768279007e+00) (1, -1.19605198889119246353e+00) (0, 5.67768373102101264749e-01) (1, 1.11635537359413172798e-01) (0, 3.67731390490879495037e-01) (1, 2.17115135344322640609e-01) (0, -3.70192760941090348581e+00) (1, -1.22512169741953558244e+00) (0, -7.85407989253899607718e+00) (1, 1.12926694686544787372e-01) (0, 4.60302778749129781755e-01) (1, 9.54556535346251233687e-02) (0, 3.67554327411212244936e-01) (1, -1.57410680878680743489e-02) (0, 7.14662708532310710086e-03) (1, -3.70398119300059613934e-01) (0, -4.06944539859833490092e-02) (1, -2.88123646396759858224e-01) (0, -3.19018040861711149603e+00) (1, -1.45347488706227045974e+00) (0, 4.20789634957325298092e-01) (1, 1.48562826864638619639e-01) (0, -5.63611036667077236473e-01) (1, -5.72689786805107625689e-01) (0, 3.33387569307462439117e-01) (1, 1.43644556772177991316e-02) (0, -5.60549106760970694552e+00) (1, -5.69398146648485758980e-01) (0, 2.56588260811677570938e-01) (1, -8.16305589782768542539e-02) (0, -3.60039806875106949136e+00) (1, -1.27032133618890319404e+00) (0, -3.89969437398035179143e+00) (1, -1.14458785791900718998e+00) (0, -1.17604161227871546747e-02) (1, -3.44373563558510897842e-01) (0, 1.72172807477651811092e-02) (1, -3.46510793945721817799e-01) (0, -5.36342353189429466020e-01) (1, -7.37087444238598288315e-01) (0, 2.19480891797483934624e+00) (1, -3.46031006549472053280e-01) (0, 3.35822572126591778474e-01) (1, 2.74454943070701951058e-01) (0, 5.55492107159325301802e-02) (1, -3.25424555090085221298e-01) (0, 4.04394498770076632477e-02) (1, -2.50668436568153629729e-01) (0, 2.61260552435737527718e-03) (1, -2.81957503090790650990e-01) (0, -2.62392543795903820936e-01) (1, -8.07379715391445679229e-02) (0, 3.91967820086262797030e-01) (1, 1.17223074879285280026e-01) (0, -2.59106072512944207720e-01) (1, -8.53375576683337438988e-02) (0, 1.46982716334554064375e+00) (1, 9.07031228955069018793e-02) (0, -3.45501917771245858901e+00) (1, -1.33506715321238100813e+00) (0, 5.39391825676093852882e-02) (1, -3.61576469322339388857e-01) (0, -2.87031364982394746055e-02) (1, -2.98231620033196420660e-01) (0, -7.37977134661393563420e+00) (1, -2.21861001550716190056e-02) (0, -5.80167691715445688061e+00) (1, -4.98844022779217632912e-01) (0, 3.51044114964283171521e-01) (1, 1.54750445075813508611e-01) (0, 4.91620417035677326201e-01) (1, 3.64242555232976092383e-02) (0, -2.76341088572971516069e-01) (1, -1.78633391743860309164e-01) (0, -6.29711517726601055500e-01) (1, -7.03964652362940368491e-01) (0, -3.11884417508548061893e-01) (1, -1.36471094603096387843e+00) (0, 2.73846702741284385441e-02) (1, -3.22450269452229598688e-01) (0, 3.94274072693189120420e-02) (1, -2.65690058749081969847e-01) (0, -4.10043543659433140647e+00) (1, -1.07994711482485561405e+00) (0, -4.12430349410811913913e+00) (1, -1.07221757633542735810e+00) (0, -2.04865784272158002466e+00) (1, -1.13374859367801739118e+00) (0, -7.15130645552313093383e-01) (1, -6.67923305484921514541e-01) (0, -7.94245628865636010829e+00) (1, 1.38415735407927009692e-01) (0, -3.48856905210516643479e+00) (1, -1.31977796679818482062e+00) (0, 8.55415231025260791586e-02) (1, -6.74279768799098538912e-02) (0, -5.56694896090321300619e+00) (1, -1.40156435095380604849e+00) (0, 1.39848018426179510065e+00) (1, 1.22088214765838073972e-01) (0, -1.10035664948532616592e+01) (1, -9.69982083461682798031e+00) (0, 2.17188764215583973716e-01) (1, 1.48214013579314150826e-02) (0, -2.29936666247139258334e-02) (1, -2.25250937247276433739e-01) (0, -7.95218469771870850593e+00) (1, 1.41947240986457834389e-01) (0, -4.85225114867470941338e-01) (1, -7.78323240072509636711e-01) (0, 3.93480672333445358202e-01) (1, 1.76360860455142154368e-01) (0, -3.45851829519870923590e+00) (1, -1.33348646837634721152e+00) (0, -5.55794713404447637828e-01) (1, -6.37702556967350453476e-01) (0, 2.47734882031543646175e-01) (1, 7.33748875506378267497e-02) (0, -5.18837275355400126542e-02) (1, -2.66552743042632600545e-01) (0, 3.60194985550416790776e-01) (1, 2.52935319477849085423e-01) (0, -3.69889776168255066113e-02) (1, -2.64938676550279028632e-01) (0, 3.49326171880996738661e-01) (1, 1.63569978708566460268e-01) (0, -1.34984362028933626426e-02) (1, -2.81958797937802374545e-01) (0, 2.31667760485472738752e-02) (1, -3.25363882783631430673e-01) (0, -5.52544771571841941693e+00) (1, -1.40989158534237546405e+00) (0, 2.32283027848462841902e+00) (1, -3.69436549127759861211e-01) (0, -1.12672364288830414991e-01) (1, -1.92881911975901376710e-01) (0, 4.13231584397932671937e-01) (1, 1.41779071519743560259e-01) (0, 1.19573489117539080717e-02) (1, -4.15104852459172612988e-01) (0, 1.61051285637647187410e-02) (1, -3.66680287032775220624e-01) (0, 7.22196292025162117287e-04) (1, -2.30257410757541691737e-01) (0, -4.45650468259179921571e-01) (1, -6.72399636651866527970e-01) (0, 5.14293267490564462441e-02) (1, -8.12494895218158347250e-02) (0, 3.72641471305442617545e-01) (1, -9.26395460594219705142e-02) (0, 2.67578396798243800525e-01) (1, -8.95539981233641341207e-02) (0, -7.75440440994789792484e+00) (1, 7.51150123258868401832e-02) (0, 9.81238678276187825666e-02) (1, -2.20884337023108473508e-01) (0, -2.96452150020223204052e+00) (1, -1.45820831763179414864e+00) (0, 3.88006590627429162610e-02) (1, -3.99542243524007134603e-01) (0, -1.00973094757823178558e-01) (1, -3.47584005831936881936e-01) (0, -5.88959935792899957896e-01) (1, -7.15305356627397026514e-01) (0, -5.65643468622781364630e-01) (1, -7.16568176017728819538e-01) (0, -1.13321949504470616266e-02) (1, -2.41595255367755945564e-01) (0, 5.15232668380035882527e-02) (1, -3.97505424774388826936e-01) (0, -4.52547432658877535339e-01) (1, -6.40934335444266034543e-01) (0, 4.27177937829399778646e-01) (1, 2.38847084008889126716e-01) (0, 1.34767683826741180297e+00) (1, 1.20313514157269804694e-01) (0, -5.59654134400434655205e-01) (1, -7.33356964638759101227e-01) (0, -1.06012847578892843714e-01) (1, -3.73585134605864566115e-01) (0, -4.33865386771453476200e-01) (1, -7.99122185188144595891e-01) (0, 4.03788600285001797463e-01) (1, 2.47742161752514067352e-01) (0, 3.27355474676335134188e-01) (1, 2.88002750733190093779e-01) (0, 3.55662321850298210335e-02) (1, -3.53069686618462774685e-01) (0, 3.08629590825041766333e-01) (1, 1.51377136656705817142e-02) (0, -4.44363140728889405295e+00) (1, -9.67523255919213398535e-01) (0, -8.71181667604234433178e-03) (1, -3.41629015535763858047e-01) (0, 2.53399248645407304537e-01) (1, -7.15252184172116521610e-03) (0, -1.66062794562083955452e-02) (1, -2.51067774527071019275e-01) (0, 4.54796954657537763622e-02) (1, -4.17339630720071463887e-01) (0, -3.84442800100584936018e+00) (1, -1.16503144626525134697e+00) (0, -4.48201145511460463666e+00) (1, -9.55648135742168447493e-01) (0, 1.57172276632655504025e-02) (1, -3.17262242643288616684e-01) (0, 4.19907804226014425009e-01) (1, 2.50291099297907382315e-01) (0, -7.83606684944171139051e+00) (1, 1.06847788637553661739e-01) (0, -1.13928965684598655639e-02) (1, -2.53238247864243481988e-01) (0, 1.99293926871112159205e+00) (1, -4.48761126597352622003e-02) (0, -5.88586954592284616189e-03) (1, -3.58672604869107403136e-01) (0, 4.16887660883833166547e-01) (1, 9.85021163706049363018e-02) (0, -5.82308162708290755205e+00) (1, -4.91326557940195363106e-01) (0, -9.55077240025508367172e-02) (1, -3.85471985385636484178e-01) (0, -5.43065068875394274528e+00) (1, -1.43182301546682522186e+00) (0, 2.92686066493752332363e-02) (1, -4.21248694518498945083e-01) (0, -2.34669745788719463775e-01) (1, -1.51939705804003677425e-01) (2, -8.73215606624252842216e-03) (3, 2.67162125095706892708e+00) (4, 9.05901137399574840625e-02) (5, 9.27272627003570548698e-02) (6, 4.65681706168734402262e-02) (7, 1.83310808999015806275e-01) (8, 4.16830483878863206071e-02) (9, -2.03171601979417992823e+00) (10, 5.27528503984236382673e-02) (11, 1.37589111812571385229e-01) (12, 1.40388326625805248682e-01) (13, -3.27315833453066043490e-02) (14, -5.51061814586688777928e-02) (15, 1.14529296932331425829e+00) (16, 3.33443280583927553762e-02) (17, -3.37729858401814020397e-02) (18, 9.38213061667554137912e-01) (19, -4.64649042169826068105e-02) (20, 2.61307855119795329202e+00) (21, 9.15351002511872041678e-02) (22, -6.37115061454325004586e-02) (23, -1.09935277164615475415e-02) (24, 1.48292723260538862606e-02) (25, -5.24809471996352527867e-02) (26, 3.98569226155811515144e-02) (27, 4.56697237468295727525e-02) (28, -6.41160168443604405741e-02) (29, 6.16380250899201259651e-02) (30, 3.94378033634992380962e-02) (31, 8.10212966146421492697e-02) (32, 9.25189047878168246974e-02) (33, 8.91063338284396599942e-02) (34, 3.07900871800967056158e-02) (35, 1.50000000000000000000e+03) (36, -2.48042713951268506412e-02) (37, -3.86776832109947887872e+00) (38, 1.42239828036621412943e-01) (39, 8.40318530258492568663e-02) (40, -3.12965814512775816758e-02) (41, -1.70711702960171483878e-02) (42, 2.60499898566780435649e-02) (43, -3.71237782517579509300e-02) (44, -4.19270170033908193274e-02) (45, 4.84443486906612000298e-02) (46, 3.94322570211264183948e-02) (47, 6.04371074832703025770e-02) (48, 1.65800130618079788469e+00) (49, 6.17553762336325515192e-02) (50, 4.30514140083167254347e-02) (51, -5.43588746250674992311e-02) (52, 5.98735091115842055220e-02) (53, 7.47049820863869562526e-02) (54, -3.14852925184767179489e-02) (55, 2.72802803910979774216e-02) (56, 3.24999111515575297982e-02) (57, -5.27878107751771907807e-02) (58, 1.02447808161380660152e+00) (59, 6.42046032481725509333e-02) (60, 1.03641389799741523436e-01) (61, 5.06177504931551863754e-02) (62, 3.82860256095770845608e-02) (63, 6.46918799607726635603e-02) (64, 1.06818506295045245746e-01) (65, 2.37374548114539021815e-02) (66, -2.64501004288633412287e+00) (67, 3.39391789275903035805e-02) (68, -2.12034561622778464085e-02) (69, -2.86993451768490165713e-03) (70, 4.32128724175747935821e-02) (71, -5.84031943706715128695e-02) (72, -1.22926084976352455180e-02) (73, 3.25865198431683003588e-02) (74, 5.12462594558615314178e-02) (75, -7.22185820466643597915e-03) (76, 1.87915632479853877967e-01) (77, 5.15793879808036648260e-02) (78, 4.85093626050774329173e-02) (79, -2.51707081163560775217e-02) (80, 4.28032453152546940589e-02) (81, -2.21609503243871061584e-02) (82, 3.94008918053479414989e-02) (83, 3.49402151246617845293e-02) (84, 3.63172245996360512632e-02) (85, -8.79878577370103200084e-03) (86, 3.86280284866884135453e-02) (87, 2.80828663160198055415e-02) (88, 2.24069623475058044004e-01) (89, -6.83446258857085169394e-06) (90, -1.63625254016078643116e-02) (91, 1.39077282644565258796e-01) (92, 1.77087982031387780602e+00) (93, -1.78029644616548854419e-02) (94, 9.75188203080074311746e-02) (95, 5.62804401788507824289e-02) (96, 6.43400417300777488494e-02) (97, 8.66069568845371784427e-02) (98, -1.61784799221195499386e-02) (99, -5.91506757404634334052e-02) (100, 8.61612995865765618486e-02) (101, 1.02937217902768818334e+00) (102, 8.96971218042275364457e-02) (103, 4.95572884194843341077e-02) (104, 1.35250471046166470535e-01) (105, 2.84648631013643474419e-02) (106, 1.46540952699526251524e-02) (107, 4.04833849816455260129e-02) (108, 1.09308344074164662252e-01) (109, -2.79357227054754832241e-02) (110, 4.04990911430245723035e-02) (111, 2.59550068582286574959e-02) (112, 1.99804557340485175465e-02) (113, -7.24904538549683147286e-02) (114, -1.21040279367603531568e-02) (115, -6.70399145640625804266e-02) (116, 6.67138040319046644877e-03) (117, 6.99862041394806178030e-02) (118, 3.97507226912384437068e-02) (119, 5.89856526990492902041e-02) (120, 1.45313379451863422531e+00) (121, 1.01066609307335175671e+00) (122, -2.17277047911801877988e-02) (123, -6.21063575584054200496e-03) (124, -5.26900306016465022618e-02) (125, 2.00356335502820254169e-02) (126, -3.94888378697567862807e-02) (127, 2.66206004669059734247e-02) (128, 2.56848661397686001129e-02) (129, 2.29843094016028370863e-01) (130, 2.31304382635080629793e-01) (131, -8.94528229773121491553e-02) (132, -1.70825712679211552669e-02) (133, 2.33184209555753207965e+00) (134, 9.89857541510718585975e-02) (135, -3.05962844787640228517e-02) (136, -7.60105595583950410798e+00) (137, 3.53562374207073773502e-02) (138, 1.50000000000000000000e+03) (139, 8.43271937313005565118e-02) (140, 4.20842378452089896368e-02) (141, 1.62947287683757346954e+00) (142, 9.50750146548504093680e-02) (143, -2.67199147904554415445e-02) (144, 7.45486897522766311930e-02) (145, -4.41042313673968774945e-02) (146, 7.98570602235766507926e-02) (147, 5.72400275840366512536e-02) (148, -2.72723186646620756324e-02) (149, 6.39202616353587577125e-02) (150, -1.82928679267086342908e-02) (151, 3.99099647119308120757e-02) (152, 3.35840579396793487144e-02) (153, -5.81947821387179509145e+00) (154, 6.27316252656094502926e-02) (155, -5.98584460478135613193e-02) (156, -6.57202431356033317522e-03) (157, 3.30819344577380977657e-02) (158, 3.11756249236649594925e-02) (159, 3.72108226332550848237e-02) (160, -4.61398685608091288501e-02) (161, -4.64449968312777849988e-02) (162, 8.35263170226074186386e-02) (163, 9.29280910301096413351e-02) (164, 1.64549744302173772681e+00) (165, -2.51477835188909856767e-02) (166, -1.57600131927079604999e-02) (167, 2.44208850707871433228e-02) (168, 5.09969909967032467013e-02) (169, 5.73998325433374007032e-02) (170, 3.12238158554328827654e-02) (171, 3.19831026571154655724e-02) (172, 6.01713957980709868156e-02) (173, -5.20555254624861310497e-02) (174, -2.00286376112143345296e-02) (175, 3.87153655559393169994e-02) (176, 7.68972604498229794778e-02) (177, 4.55179975959382754347e-02) (178, 8.04489740118572715932e-02) (179, -1.01554355586208309992e-02) (180, -2.73280608025709623177e-02) (181, 5.18158586780446961395e-02) (182, 9.33732357514282101940e-02) (183, 5.11193062758770744303e-01) (184, 2.53740642465357449375e-02) (185, 7.76921950035076303021e-02) (186, 2.97732709958805005779e-02) (187, 6.82309510699824067759e-02) (188, 1.73104453614410874751e-01) (189, 5.01000629440010780691e-01) (190, 3.16162807720063998573e-02) (191, -2.68960196717422279911e-02) (192, 1.79096297189649655834e+00) (193, 4.41930205497531800041e-02) (194, 3.49052628189617727972e-02) (195, 5.39592675109476505035e-02) (196, -2.24025471709403296849e-02) (197, 1.02748423147562140123e+00) (198, 2.62253896924553586700e-02) (199, -2.21839849399376483063e+01) (200, 6.42575384053970383169e-02) (201, -6.31809302117865845272e-02) (202, -4.37857304973162733686e-02) 
