FANN_FLO_2.1
num_layers=3
learning_rate=0.700000
connection_rate=1.000000
network_type=0
learning_momentum=0.000000
training_algorithm=2
train_error_function=1
train_stop_function=0
cascade_output_change_fraction=0.010000
quickprop_decay=-0.000100
quickprop_mu=1.750000
rprop_increase_factor=1.200000
rprop_decrease_factor=0.500000
rprop_delta_min=0.000000
rprop_delta_max=50.000000
rprop_delta_zero=0.100000
cascade_output_stagnation_epochs=12
cascade_candidate_change_fraction=0.010000
cascade_candidate_stagnation_epochs=12
cascade_max_out_epochs=150
cascade_min_out_epochs=50
cascade_max_cand_epochs=150
cascade_min_cand_epochs=50
cascade_num_candidate_groups=2
bit_fail_limit=3.49999999999999977796e-01
cascade_candidate_limit=1.00000000000000000000e+03
cascade_weight_multiplier=4.00000000000000022204e-01
cascade_activation_functions_count=10
cascade_activation_functions=3 5 7 8 10 11 14 15 16 17 
cascade_activation_steepnesses_count=4
cascade_activation_steepnesses=2.50000000000000000000e-01 5.00000000000000000000e-01 7.50000000000000000000e-01 1.00000000000000000000e+00 
layer_sizes=2 201 2 
scale_included=0
neurons (num_inputs, activation_function, activation_steepness)=(0, 0, 0.00000000000000000000e+00) (0, 0, 0.00000000000000000000e+00) (2, 4, 5.00000000000000000000e-01) (2, 4, 5.00000000000000000000e-01) (2, 4, 5.00000000000000000000e-01) (2, 4, 5.00000000000000000000e-01) (2, 4, 5.00000000000000000000e-01) (2, 4, 5.00000000000000000000e-01) (2, 4, 5.00000000000000000000e-01) (2, 4, 5.00000000000000000000e-01) (2, 4, 5.00000000000000000000e-01) (2, 4, 5.00000000000000000000e-01) (2, 4, 5.00000000000000000000e-01) (2, 4, 5.00000000000000000000e-01) (2, 4, 5.00000000000000000000e-01) (2, 4, 5.00000000000000000000e-01) (2, 4, 5.00000000000000000000e-01) (2, 4, 5.00000000000000000000e-01) (2, 4, 5.00000000000000000000e-01) (2, 4, 5.00000000000000000000e-01) (2, 4, 5.00000000000000000000e-01) (2, 4, 5.00000000000000000000e-01) (2, 4, 5.00000000000000000000e-01) (2, 4, 5.00000000000000000000e-01) (2, 4, 5.00000000000000000000e-01) (2, 4, 5.00000000000000000000e-01) (2, 4, 5.00000000000000000000e-01) (2, 4, 5.00000000000000000000e-01) (2, 4, 5.00000000000000000000e-01) (2, 4, 5.00000000000000000000e-01) (2, 4, 5.00000000000000000000e-01) (2, 4, 5.00000000000000000000e-01) (2, 4, 5.00000000000000000000e-01) (2, 4, 5.00000000000000000000e-01) (2, 4, 5.00000000000000000000e-01) (2, 4, 5.00000000000000000000e-01) (2, 4, 5.00000000000000000000e-01) (2, 4, 5.00000000000000000000e-01) (2, 4, 5.00000000000000000000e-01) (2, 4, 5.00000000000000000000e-01) (2, 4, 5.00000000000000000000e-01) (2, 4, 5.00000000000000000000e-01) (2, 4, 5.00000000000000000000e-01) (2, 4, 5.00000000000000000000e-01) (2, 4, 5.00000000000000000000e-01) (2, 4, 5.00000000000000000000e-01) (2, 4, 5.00000000000000000000e-01) (2, 4, 5.00000000000000000000e-01) (2, 4, 5.00000000000000000000e-01) (2, 4, 5.00000000000000000000e-01) (2, 4, 5.00000000000000000000e-01) (2, 4, 5.00000000000000000000e-01) (2, 4, 5.00000000000000000000e-01) (2, 4, 5.00000000000000000000e-01) (2, 4, 5.00000000000000000000e-01) (2, 4, 5.00000000000000000000e-01) (2, 4, 5.00000000000000000000e-01) (2, 4, 5.00000000000000000000e-01) (2, 4, 5.00000000000000000000e-01) (2, 4, 5.00000000000000000000e-01) (2, 4, 5.00000000000000000000e-01) (2, 4, 5.00000000000000000000e-01) (2, 4, 5.00000000000000000000e-01) (2, 4, 5.00000000000000000000e-01) (2, 4, 5.00000000000000000000e-01) (2, 4, 5.00000000000000000000e-01) (2, 4, 5.00000000000000000000e-01) (2, 4, 5.00000000000000000000e-01) (2, 4, 5.00000000000000000000e-01) (2, 4, 5.00000000000000000000e-01) (2, 4, 5.00000000000000000000e-01) (2, 4, 5.00000000000000000000e-01) (2, 4, 5.00000000000000000000e-01) (2, 4, 5.00000000000000000000e-01) (2, 4, 5.00000000000000000000e-01) (2, 4, 5.00000000000000000000e-01) (2, 4, 5.00000000000000000000e-01) (2, 4, 5.00000000000000000000e-01) (2, 4, 5.00000000000000000000e-01) (2, 4, 5.00000000000000000000e-01) (2, 4, 5.00000000000000000000e-01) (2, 4, 5.00000000000000000000e-01) (2, 4, 5.00000000000000000000e-01) (2, 4, 5.00000000000000000000e-01) (2, 4, 5.00000000000000000000e-01) (2, 4, 5.00000000000000000000e-01) (2, 4, 5.00000000000000000000e-01) (2, 4, 5.00000000000000000000e-01) (2, 4, 5.00000000000000000000e-01) (2, 4, 5.00000000000000000000e-01) (2, 4, 5.00000000000000000000e-01) (2, 4, 5.00000000000000000000e-01) (2, 4, 5.00000000000000000000e-01) (2, 4, 5.00000000000000000000e-01) (2, 4, 5.00000000000000000000e-01) (2, 4, 5.00000000000000000000e-01) (2, 4, 5.00000000000000000000e-01) (2, 4, 5.00000000000000000000e-01) (2, 4, 5.00000000000000000000e-01) (2, 4, 5.00000000000000000000e-01) (2, 4, 5.00000000000000000000e-01) (2, 4, 5.00000000000000000000e-01) (2, 4, 5.00000000000000000000e-01) (2, 4, 5.00000000000000000000e-01) (2, 4, 5.00000000000000000000e-01) (2, 4, 5.00000000000000000000e-01) (2, 4, 5.00000000000000000000e-01) (2, 4, 5.00000000000000000000e-01) (2, 4, 5.00000000000000000000e-01) (2, 4, 5.00000000000000000000e-01) (2, 4, 5.00000000000000000000e-01) (2, 4, 5.00000000000000000000e-01) (2, 4, 5.00000000000000000000e-01) (2, 4, 5.00000000000000000000e-01) (2, 4, 5.00000000000000000000e-01) (2, 4, 5.00000000000000000000e-01) (2, 4, 5.00000000000000000000e-01) (2, 4, 5.00000000000000000000e-01) (2, 4, 5.00000000000000000000e-01) (2, 4, 5.00000000000000000000e-01) (2, 4, 5.00000000000000000000e-01) (2, 4, 5.00000000000000000000e-01) (2, 4, 5.00000000000000000000e-01) (2, 4, 5.00000000000000000000e-01) (2, 4, 5.00000000000000000000e-01) (2, 4, 5.00000000000000000000e-01) (2, 4, 5.00000000000000000000e-01) (2, 4, 5.00000000000000000000e-01) (2, 4, 5.00000000000000000000e-01) (2, 4, 5.00000000000000000000e-01) (2, 4, 5.00000000000000000000e-01) (2, 4, 5.00000000000000000000e-01) (2, 4, 5.00000000000000000000e-01) (2, 4, 5.00000000000000000000e-01) (2, 4, 5.00000000000000000000e-01) (2, 4, 5.00000000000000000000e-01) (2, 4, 5.00000000000000000000e-01) (2, 4, 5.00000000000000000000e-01) (2, 4, 5.00000000000000000000e-01) (2, 4, 5.00000000000000000000e-01) (2, 4, 5.00000000000000000000e-01) (2, 4, 5.00000000000000000000e-01) (2, 4, 5.00000000000000000000e-01) (2, 4, 5.00000000000000000000e-01) (2, 4, 5.00000000000000000000e-01) (2, 4, 5.00000000000000000000e-01) (2, 4, 5.00000000000000000000e-01) (2, 4, 5.00000000000000000000e-01) (2, 4, 5.00000000000000000000e-01) (2, 4, 5.00000000000000000000e-01) (2, 4, 5.00000000000000000000e-01) (2, 4, 5.00000000000000000000e-01) (2, 4, 5.00000000000000000000e-01) (2, 4, 5.00000000000000000000e-01) (2, 4, 5.00000000000000000000e-01) (2, 4, 5.00000000000000000000e-01) (2, 4, 5.00000000000000000000e-01) (2, 4, 5.00000000000000000000e-01) (2, 4, 5.00000000000000000000e-01) (2, 4, 5.00000000000000000000e-01) (2, 4, 5.00000000000000000000e-01) (2, 4, 5.00000000000000000000e-01) (2, 4, 5.00000000000000000000e-01) (2, 4, 5.00000000000000000000e-01) (2, 4, 5.00000000000000000000e-01) (2, 4, 5.00000000000000000000e-01) (2, 4, 5.00000000000000000000e-01) (2, 4, 5.00000000000000000000e-01) (2, 4, 5.00000000000000000000e-01) (2, 4, 5.00000000000000000000e-01) (2, 4, 5.00000000000000000000e-01) (2, 4, 5.00000000000000000000e-01) (2, 4, 5.00000000000000000000e-01) (2, 4, 5.00000000000000000000e-01) (2, 4, 5.00000000000000000000e-01) (2, 4, 5.00000000000000000000e-01) (2, 4, 5.00000000000000000000e-01) (2, 4, 5.00000000000000000000e-01) (2, 4, 5.00000000000000000000e-01) (2, 4, 5.00000000000000000000e-01) (2, 4, 5.00000000000000000000e-01) (2, 4, 5.00000000000000000000e-01) (2, 4, 5.00000000000000000000e-01) (2, 4, 5.00000000000000000000e-01) (2, 4, 5.00000000000000000000e-01) (2, 4, 5.00000000000000000000e-01) (2, 4, 5.00000000000000000000e-01) (2, 4, 5.00000000000000000000e-01) (2, 4, 5.00000000000000000000e-01) (2, 4, 5.00000000000000000000e-01) (2, 4, 5.00000000000000000000e-01) (2, 4, 5.00000000000000000000e-01) (2, 4, 5.00000000000000000000e-01) (2, 4, 5.00000000000000000000e-01) (2, 4, 5.00000000000000000000e-01) (2, 4, 5.00000000000000000000e-01) (2, 4, 5.00000000000000000000e-01) (2, 4, 5.00000000000000000000e-01) (2, 4, 5.00000000000000000000e-01) (2, 4, 5.00000000000000000000e-01) (2, 4, 5.00000000000000000000e-01) (2, 4, 5.00000000000000000000e-01) (0, 0, 0.00000000000000000000e+00) (201, 4, 5.00000000000000000000e-01) (0, 0, 0.00000000000000000000e+00) 
connections (connected_to_neuron, weight)=(0, -1.87621429116732918452e+00) (1, -2.77985855092464706484e-01) (0, -2.09692088167416645916e+00) (1, -1.36716099048405453908e-01) (0, -1.36559264543082803378e+00) (1, 3.41713798995406589643e-02) (0, -4.51184562716292880680e+00) (1, 9.59110495015829817023e-02) (0, -1.46114256054762559067e+00) (1, 1.30633680061804424710e-01) (0, -4.13787971830607004264e-01) (1, -5.18873590482616720010e+00) (0, -2.10042629926825208386e+00) (1, -1.39310599528850859175e-01) (0, -2.03916723521080589521e+00) (1, -9.55212218227622700262e-01) (0, -2.47226275468374634414e+00) (1, -2.50695358402147183696e-01) (0, -4.38938365308549904853e+00) (1, -2.70147718214056170583e-02) (0, -2.16719894715030658716e+00) (1, -1.06355340833321787564e+00) (0, -2.27341145219639750863e+00) (1, -7.72248399096086002302e-01) (0, -1.29126380884493996426e+00) (1, -4.73542424975138213222e-03) (0, -2.13788038880440511846e+00) (1, -1.08363953378226929303e+00) (0, 2.18746202637759123988e+00) (1, 2.02146678320636985493e-01) (0, 2.13111137951906126631e+00) (1, 1.80271699181828393144e-01) (0, -7.97048509584666470262e-02) (1, -7.89784902677297040441e+00) (0, -2.57961657233766716857e+00) (1, -9.70812913747269079501e-01) (0, -2.66532674895527364745e-02) (1, -7.85980385139941617467e+00) (0, -2.25435096471736962087e+00) (1, -9.86962351965019468736e-01) (0, 2.13741160043099576171e+00) (1, 1.90330903815342650232e-01) (0, 2.07167027598483732831e+00) (1, 1.54992684271986452815e-01) (0, -1.42308043268319517338e+00) (1, 8.62910620034896130859e-02) (0, -2.16844902643872838865e+00) (1, -1.95985070209819006726e-01) (0, -2.54938697126388502667e+00) (1, -1.02951465264265518140e-01) (0, 1.10470993059544064785e+00) (1, -4.36628315585909296259e-02) (0, 4.80155198444891240239e-02) (1, -5.28816057523089444459e+00) (0, 2.11946821746090074967e+00) (1, 2.28260795375807845620e-01) (0, -2.50987808830964009843e+00) (1, -2.48807409715153471375e-01) (0, -3.23815718756918294319e-02) (1, -7.73528422758340461485e+00) (0, 6.91417304685398081965e-01) (1, -3.17883064532471171226e-01) (0, -5.67143744673086480645e+00) (1, -4.67243274039828104804e+00) (0, -5.00052611075686304076e+00) (1, -4.84651308855932416719e+00) (0, -4.44187355268803329977e+00) (1, -1.31098222780356155059e-01) (0, 3.66368922392018916412e+01) (1, -1.16630893537613342659e+01) (0, 2.10958183538521204525e+00) (1, 2.07420375107749022092e-01) (0, -9.72793982510733679092e-01) (1, -5.16906713708289622389e+00) (0, -1.36683770555121597567e+00) (1, 3.26839618306540360959e-02) (0, -2.45475895607763883177e+00) (1, -8.07810620602310680560e-01) (0, -4.77644653508340688575e+00) (1, -6.24910134520533899760e-01) (0, 2.56426250536190591944e+00) (1, 2.37630993849811927854e-01) (0, 6.08086569415557609553e-01) (1, -3.59174086242064427577e-01) (0, -2.81012850403435443525e+00) (1, -5.27859064894283580571e-01) (0, -2.76184879431404262107e+00) (1, 6.95307350319884498457e-02) (0, -1.36008791671875517437e-01) (1, -7.79803546116113288633e+00) (0, 2.21252063888351280241e+00) (1, 2.03887297145171675350e-01) (0, -2.40332455494402319474e+00) (1, -1.60219471603962271278e-01) (0, -2.76129625752957119644e+00) (1, 5.29768055696411485633e-02) (0, -2.53699525970643202655e+00) (1, -1.05634562286800057218e-01) (0, -1.40423780746512760764e+00) (1, 9.07082563515568540691e-02) (0, -1.36406233835394341547e+00) (1, 5.11955288277351691639e-02) (0, -2.79205816100038983762e+00) (1, 8.07542693157139584992e-02) (0, 7.60771308914317878624e-01) (1, -1.40055112152524696700e-01) (0, -2.91083264023416488087e+00) (1, -4.54528440568833125290e-01) (0, 6.24009533034790564443e-01) (1, -3.42276065133432672027e-01) (0, -2.08412266404163570854e+00) (1, -1.13502777542754906825e+00) (0, 1.09662757117310016852e+00) (1, -1.55138758200430632028e-01) (0, 2.10156367891634632272e+00) (1, 2.12692376135809935178e-01) (0, 1.14134733196530957500e+00) (1, -3.32628526026528745230e-02) (0, -2.84447632168375319495e+00) (1, -5.07170286309151174819e-01) (0, -6.78916648494005403602e-02) (1, -7.75345468864202125303e+00) (0, -1.37433691329927598623e+00) (1, 6.06085059204061055160e-02) (0, -1.40689527643648792932e+00) (1, 1.00106977140920691549e-01) (0, -1.44893036960382914913e+00) (1, 1.36682807462580185875e-01) (0, 5.19849720833669648457e-01) (1, -2.76513475704553479684e-01) (0, -2.32537761794329202181e-02) (1, -7.92453929379939481237e+00) (0, 2.25564493829725343232e+00) (1, 1.72558235924056224686e-01) (0, 5.02668063608836868106e-01) (1, -2.70815942216278304766e-01) (0, -2.49206478299155653744e+00) (1, -2.07298465107990242950e-01) (0, -2.48269693981171535313e+00) (1, -1.68553183089360875124e-01) (0, 2.19813381599601553873e+00) (1, 2.55227848187823624926e-01) (0, -2.33705001680548196674e+00) (1, -9.18408409912460088620e-01) (0, -2.36190575927857038252e+00) (1, -8.92420453756815779123e-01) (0, -2.46930327341333244462e+00) (1, -4.88072859290918995012e-02) (0, 7.78937711921917630420e-01) (1, -1.59560321189820997212e-01) (0, 2.23695760077752536787e+00) (1, 1.98512307707826129999e-01) (0, -5.25900063808271234223e+00) (1, -3.99332423648468437527e-01) (0, -2.41435157422615986889e+00) (1, -1.79164595217944616623e-01) (0, -2.02439129541283380220e+00) (1, -2.73549270572589042771e-01) (0, -2.62076184617284248246e-02) (1, -7.76979628548383338682e+00) (0, -2.82807729895948689602e+00) (1, -5.21097746197673905577e-01) (0, -2.09068422160139277821e+00) (1, -2.71399385448911845131e-01) (0, 6.85214634975312764098e-01) (1, -2.70367607074440130521e-01) (0, -2.96140684582241808798e+00) (1, -3.08808272739807265772e-01) (0, 2.22898591489860198323e+00) (1, 2.27022278712462943773e-01) (0, -7.25155994759797278837e-02) (1, -7.86806016758441373327e+00) (0, -2.15489576846998431847e+00) (1, -1.07116586943080749350e+00) (0, 2.24116139331076524854e+00) (1, 2.13110594044875506503e-01) (0, -1.46112059524092408047e+00) (1, 1.56616290930251700342e-01) (0, -2.39589674904210259143e+00) (1, -8.65869611960771612402e-01) (0, -3.76528874503377700145e-02) (1, -7.93058410629987164953e+00) (0, -2.09331146090112962810e+00) (1, -1.12614425086337788251e+00) (0, -4.67280157541714036284e+00) (1, -6.77264144169388071504e-01) (0, 2.10772842303164109623e+00) (1, 1.59519351474172593752e-01) (0, -2.47968190431071633384e+00) (1, -1.70963006459925626057e-01) (0, -1.51883770703191722795e+00) (1, 1.80429938970449621483e-01) (0, -3.26754574602952185813e+00) (1, -1.37645692216695159082e+00) (0, -2.22038125029733324212e+00) (1, -1.00902155561817319374e+00) (0, -2.22833903023787893716e+00) (1, -2.55538701338070939340e-01) (0, -1.77209698238232404854e+00) (1, 2.83676113147988684382e-02) (0, -2.48829391350135997740e+00) (1, -1.77276427669910946472e-01) (0, 2.19665356528367761157e+00) (1, 2.21867000826830390592e-01) (0, 1.18547600484809545485e+00) (1, -2.53242001668689931115e-01) (0, -1.43281255338554625034e+00) (1, 1.44074963354354851353e-01) (0, -2.79156607722735783383e+00) (1, -5.38419367518374492043e-01) (0, -1.26800477551105073015e-01) (1, -7.83396727189778907530e+00) (0, -2.22936528804414413329e+00) (1, -2.16451462532330302091e-01) (0, -2.23524185058802160597e+00) (1, -2.35962460395572504179e-01) (0, -1.45761526691742493433e+00) (1, 1.15867014940761445252e-01) (0, 2.11788850345162105171e+00) (1, 2.07459042069223276172e-01) (0, -2.19811203507655728018e+00) (1, -1.03521208402185793673e+00) (0, -2.16768481475265417657e+00) (1, -1.06171077825480453249e+00) (0, 2.46962937572045015955e+00) (1, 1.50783478734254988707e-01) (0, -1.42969904177227280506e+00) (1, -9.58413611690464462001e-01) (0, -4.39282508001435978429e+00) (1, -1.85693172193600597453e-02) (0, -5.36356404931313157647e+00) (1, -4.89150068540958216090e-01) (0, -2.54352202783797309849e+00) (1, -1.51197488077904507175e-01) (0, -2.10154215955388057324e+00) (1, -1.25175910849118998680e-01) (0, -3.04971197034112351254e-01) (1, -4.71787392984944009555e+00) (0, -3.54971544136295391603e-01) (1, -7.52543714543593589283e-01) (0, -1.44767673868037860530e+00) (1, -9.51513436523793498800e-01) (0, -2.30806800425082281336e+00) (1, -9.43445296000296473871e-01) (0, -2.03997273401331913334e+00) (1, -9.57505819859741036382e-01) (0, -4.21001446478837326737e+00) (1, -2.66692226046523928051e-01) (0, 1.20760238922194007571e+00) (1, -2.53244117633579512994e-01) (0, -5.14088269034536526902e+00) (1, -3.27290764411976353720e-01) (0, -1.98186665819772650510e-01) (1, -7.82156049058198554746e+00) (0, -2.82490237530350940531e+00) (1, -5.22554449511724916633e-01) (0, -5.34982741181700927058e+00) (1, -3.48255872459116821993e-01) (0, 2.23928228670088458330e+00) (1, 2.33458863273805355965e-01) (0, 1.08400603007412432710e+00) (1, -1.16809867064543493331e-01) (0, -4.86872505844395053742e+00) (1, -5.83968878044724304388e-01) (0, -5.17600551711321146819e-02) (1, -7.82969887152671439878e+00) (0, 2.24389243591884524065e+00) (1, 1.73717645732019060345e-01) (0, 1.10798480023060674782e+00) (1, -1.93063612120619870760e-01) (0, 1.09591312200060020388e+00) (1, -2.21304454888288981707e-01) (0, 2.18973495533438056171e+00) (1, 2.13318135335921699181e-01) (0, 1.19143568130577670594e+00) (1, -5.38799908515797815189e-02) (0, -2.74975259255496506938e+00) (1, 5.43017053929208404206e-02) (0, -2.35274577719713340329e+00) (1, -9.02176260777256766588e-01) (0, -4.51156674337404961506e+00) (1, 1.15000757083901242184e-01) (0, -1.39940664162384598157e+00) (1, 5.61521539912002362605e-02) (0, 1.04959408865300085623e+00) (1, -9.22734349875343057290e-02) (0, 2.16093354870582254890e+00) (1, 1.53192180856041443304e-01) (0, -1.20733462320449305705e-01) (1, -7.86559684917687818029e+00) (0, -1.49501215163131218056e+00) (1, 1.37806073288174651958e-01) (0, -2.19929291496573720011e+00) (1, -2.33694266087093149853e-01) (0, 2.17013915425148740113e+00) (1, 1.89228975873225624404e-01) (0, -3.29795911613021131004e+00) (1, -1.04993134954695088723e+00) (0, 2.14464235535127478727e+00) (1, 1.58037902983955286240e-01) (0, -4.82650132590352765050e+00) (1, -4.56116380422260242478e-02) (0, 1.16886028815421694205e+00) (1, -2.38943562642809137486e-01) (0, 2.18560542098312726722e+00) (1, 2.20123371252054611524e-01) (0, -2.19944009650983574033e+00) (1, -1.02698176657283934965e+00) (0, 2.56727811613126233325e+00) (1, 2.15901355377252662793e-01) (0, 4.93106392685011163390e-01) (1, -4.83396197120281456705e+00) (0, -2.73288641422219358290e+00) (1, 3.55268726582739641229e-02) (0, -2.20614818179265137488e+00) (1, -2.15437590430364755978e-01) (0, 2.22913254017569828491e+00) (1, 2.35048203704069924580e-01) (0, 2.22436194993482772020e+00) (1, 1.80339858053776391777e-01) (0, 2.13508613793943125003e+00) (1, 2.22803073901918419208e-01) (0, -2.92479578286131269849e+00) (1, -4.42522162400253549208e-01) (0, -2.18659850084364881795e+00) (1, -1.04427388763965289797e+00) (0, -5.29217779999190263140e+00) (1, -3.79992522416732037005e-01) (0, -1.38204616757612330780e+00) (1, 6.72244276861138634338e-02) (0, -1.37969659844403946813e+00) (1, 6.76860852389280648334e-02) (0, 2.15752352992968754464e+00) (1, 2.48115601403611635289e-01) (0, -1.43467624955194339442e+00) (1, 1.02628219903936751534e-01) (0, 1.10665382639742659876e+00) (1, -2.11774758087866832312e-01) (0, -1.52959840556033999093e+00) (1, -2.20441128843970914064e-02) (0, 2.12576871231019381980e+00) (1, 1.69770681026344738562e-01) (0, 2.50207694851735862329e+00) (1, 2.78147497754873906928e-01) (0, -2.47652553271197728435e+00) (1, -2.68369558722425738395e-01) (0, -1.60173825966006905253e-01) (1, -7.73978895292043311827e+00) (0, -7.47474214841555895106e+00) (1, -2.04495694343680256555e-01) (0, -1.42589590792909426398e+00) (1, 1.19117872073639705088e-01) (0, -2.82432439266680335166e+00) (1, -5.19689233883849910356e-01) (0, -2.82631398557438240360e+00) (1, -5.19387393552054543733e-01) (0, -2.52733946635550932314e+00) (1, -1.61342118394917383162e-01) (0, 2.11804927207974147407e+00) (1, 2.07352272902472462013e-01) (0, -1.09334230469348189785e-01) (1, -7.87876495316981717565e+00) (0, -2.88138132819282777319e+00) (1, -4.77793868026473222965e-01) (0, -2.12588278698182797655e+00) (1, -1.09165041589300759739e+00) (0, -2.66153855802102867756e+00) (1, -1.35246636651682426711e-02) (0, 6.43448641543469923576e-01) (1, -1.90201223905721472640e-01) (0, -4.80823048878635450620e+00) (1, -4.96891836500958292144e-02) (0, 2.24971047549701452795e+00) (1, 2.51184546564292343618e-01) (0, -3.10003855308121556433e+00) (1, -2.81502113624584604512e-01) (0, -3.02189839082372557755e+00) (1, -3.00860224290493138977e-01) (0, 1.09542182733555493179e+00) (1, -6.01079747207518694241e-02) (0, -1.82525493250974585324e-01) (1, -7.80424864933251960508e+00) (0, 1.05514280268252447215e+00) (1, -5.52795216567863387236e-02) (0, -5.54452013889361694510e+00) (1, -4.30272105757087186539e-01) (0, -3.91294137107135800435e-02) (1, -7.74655470595121009580e+00) (0, -4.79948893653154781691e-02) (1, -7.74840219661950690977e+00) (0, -2.26518298433237452727e+00) (1, -9.79340592042083901703e-01) (0, -9.05696824656737620174e-02) (1, -7.90305973187446042516e+00) (0, 3.85431929031396725005e-01) (1, -8.76749202428752316685e-01) (0, 2.10148910857056270274e+00) (1, 2.16793970738394931042e-01) (0, -2.51272457740490873235e+00) (1, -1.93214240029448619529e-01) (2, 3.29153499651583109076e-02) (3, 1.95948432075797374097e-01) (4, 1.77052361699101601378e-01) (5, -1.02769945431360240629e-01) (6, 1.75768033516976340813e-01) (7, 5.21318363114626635024e+01) (8, 1.65256312978379116263e-01) (9, 1.38783421610048002259e-01) (10, 8.75918780456724638261e-02) (11, -5.74586074900306914559e-02) (12, 1.54827183172776328135e-01) (13, 6.89959536220809913770e-03) (14, 1.75252728017429193486e-01) (15, 1.23393778675787699206e-01) (16, -5.50991656475650695701e-02) (17, -6.77723267798058803812e-02) (18, 1.50000000000000000000e+03) (19, 3.56255629124543199415e-02) (20, 1.50000000000000000000e+03) (21, 1.34749468882234713085e-01) (22, -8.27343975387475338845e-02) (23, -9.06142768967375528133e-02) (24, 1.83271254719087228757e-01) (25, 1.35054667982421633399e-01) (26, 1.55906278136983877936e-01) (27, -4.20967071027440534192e-02) (28, 4.78421580744413645903e+01) (29, -5.13428703288589041720e-02) (30, 1.01337664630181983894e-01) (31, 1.50000000000000000000e+03) (32, -3.85540675361532095278e-02) (33, 9.19810121860113305559e+00) (34, 1.69689584642372977896e+02) (35, -5.73712428595150245036e-02) (36, -1.27999598149115856316e+00) (37, -5.64198136815614800788e-02) (38, 9.28773615175745703709e+01) (39, 1.71090248473165257304e-01) (40, 2.92980148802694906340e-01) (41, 3.59596383929813205940e-03) (42, -3.78251349810677928165e-02) (43, -2.80656359307698347050e-02) (44, 3.56337811269159324135e-02) (45, -2.48036719513012385296e-02) (46, 1.50000000000000000000e+03) (47, -5.72950549956917215555e-02) (48, 1.33426265309014718818e-01) (49, -5.24455115153695406588e-03) (50, 1.29317867997905566746e-01) (51, 1.58692905500408959485e-01) (52, 1.71661370016302550212e-01) (53, -1.30825180574877363709e-02) (54, -4.29259956417016516617e-02) (55, 4.51537558771933134061e-01) (56, -1.04654945470112753503e-02) (57, 1.53964745002054426148e-01) (58, -4.43158774307416195026e-02) (59, -7.83533469328529103004e-02) (60, -5.53376130953525183220e-02) (61, 9.39583998823966259906e-02) (62, 1.50000000000000000000e+03) (63, 1.78508550455661135770e-01) (64, 1.53695262182258207684e-01) (65, 1.35179849015713060556e-01) (66, -7.24482388740427425688e-03) (67, 1.50000000000000000000e+03) (68, -4.83477300529274386931e-02) (69, -6.67799931025959709469e-03) (70, 1.29719950871016953542e-01) (71, 1.38329702204574911395e-01) (72, -6.66025920392681464177e-02) (73, 1.38295455832951580399e-01) (74, 2.05361285782226482555e-01) (75, 1.49626254091935140256e-01) (76, -4.14349272324489106833e-02) (77, -5.72026554278243920537e-02) (78, 5.05540382784371786218e-02) (79, 1.50504969839632296580e-01) (80, 2.24477131659810945352e-02) (81, 1.50000000000000000000e+03) (82, 1.46928755822207768311e-01) (83, 2.12131257853810303859e-02) (84, -3.90596888906377739947e-02) (85, -8.21652285384123944045e-03) (86, -6.62099168955494615796e-02) (87, 1.50000000000000000000e+03) (88, 1.55898911759835667734e-01) (89, -4.61399131652409297266e-02) (90, 1.38579173547838468972e-01) (91, 1.68566618234734955095e-01) (92, 1.50000000000000000000e+03) (93, 1.65993309107386133316e-01) (94, 2.13786763602050837452e-02) (95, -5.43311686538900107113e-02) (96, 1.18601115981864499438e-01) (97, 1.74913140233918851241e-01) (98, -3.31379807528313571896e-02) (99, 1.29937132859536369489e-01) (100, 1.16684115141319322273e-01) (101, -2.12660826947895197081e-02) (102, 1.09718472657720625407e-01) (103, -7.43929663359332860040e-02) (104, -5.13452047341111522671e-02) (105, 1.30412565650534356676e-01) (106, 6.49739271459426337429e-02) (107, 1.50000000000000000000e+03) (108, 1.56583077795606623317e-01) (109, 1.21742622608007847185e-01) (110, 1.84513559620359007818e-01) (111, -5.44697508420036308197e-02) (112, 1.63767229871450564760e-01) (113, 1.66205422949764536344e-01) (114, -4.83552185586878791046e-02) (115, 1.83779365280214046496e-01) (116, -6.60625560309880954790e-02) (117, -3.53049087759112964480e-02) (118, 1.06403006367002547772e-01) (119, 1.78631166172977584594e-01) (120, 7.89988025922268377599e+01) (121, 4.82580153231121009028e-02) (122, 1.75480442501387112753e-01) (123, 1.47842833868952749921e-01) (124, 1.54716950935340241680e-01) (125, -3.16752975316556828478e-02) (126, -5.20170008254152924088e-02) (127, -1.99468046915727559298e-02) (128, 1.50000000000000000000e+03) (129, 7.22386373448541951880e-02) (130, 2.24353602709496641188e-01) (131, -6.13542713824913182874e-02) (132, -4.68414230913811110990e-02) (133, 2.22728530338932063926e-02) (134, 1.50000000000000000000e+03) (135, -7.68258977479838039981e-02) (136, -1.67179205274123471314e-02) (137, -1.76711366331118169271e-02) (138, -5.31078909031482554459e-02) (139, -5.11497588690488641516e-02) (140, -2.50790799146957590210e-03) (141, 1.48342629984432761159e-01) (142, -1.25420427289215874467e-01) (143, 1.78679206144640001508e-01) (144, -5.68104542248919833214e-02) (145, -8.72862441770074493075e-02) (146, 1.50000000000000000000e+03) (147, 1.87748748717335045555e-01) (148, 1.75942907947448407002e-01) (149, -7.43848005208871954075e-02) (150, -3.75529726900736531697e-03) (151, -7.67319802452561539052e-02) (152, -7.10804568479375536993e-02) (153, -1.74825801227273050498e-02) (154, -8.08621628696132022096e-02) (155, 1.27329247139723128468e-01) (156, -4.55562038604795382923e-02) (157, -1.04436654254777145923e+01) (158, -7.19990426821161006582e-03) (159, 1.65805723150955874878e-01) (160, -7.75316773535419806462e-02) (161, -6.61849877226732968838e-02) (162, -6.41179361127854618996e-02) (163, 4.45453161482508352975e-01) (164, 1.62474877707801501625e-01) (165, 2.43351510227290346311e-01) (166, 1.72653273274989721431e-01) (167, 1.68048516216776244736e-01) (168, -5.04563436047457056222e-02) (169, 1.73575048609945159495e-01) (170, -2.70527348241868387246e-02) (171, 1.81278162529171235975e-03) (172, -6.68414737664811409168e-02) (173, -8.77092051864894646507e-03) (174, 6.03241501522801676360e-02) (175, 1.50000000000000000000e+03) (176, -1.01791926407531541088e+01) (177, 1.41473634368322664923e-01) (178, 3.32807581448002764990e-02) (179, 8.40428161449465749300e-02) (180, 1.10349605163656314111e-01) (181, -8.31737905944939515113e-02) (182, 1.50000000000000000000e+03) (183, 4.90360374926517156302e-02) (184, 1.50342458952576224496e-01) (185, -6.88449737645858202834e-03) (186, -4.57974376936699026364e-02) (187, -7.04148444681236829190e-02) (188, -7.46216565310281465528e-02) (189, 6.84729032960603844343e-03) (190, -4.87616038367476127557e-03) (191, -5.20083672077353217911e-02) (192, 1.50000000000000000000e+03) (193, -4.33907590263529416297e-02) (194, -3.88841587136219690723e-03) (195, 1.50000000000000000000e+03) (196, 1.50000000000000000000e+03) (197, 1.34357590024785145122e-01) (198, 1.50000000000000000000e+03) (199, -2.65226932062837244403e-03) (200, -8.41888726243621571266e-02) (201, 1.19842076504614619692e-01) (202, 6.79222240649563491210e-02) 
