FANN_FLO_2.1
num_layers=3
learning_rate=0.700000
connection_rate=1.000000
network_type=0
learning_momentum=0.000000
training_algorithm=2
train_error_function=1
train_stop_function=0
cascade_output_change_fraction=0.010000
quickprop_decay=-0.000100
quickprop_mu=1.750000
rprop_increase_factor=1.200000
rprop_decrease_factor=0.500000
rprop_delta_min=0.000000
rprop_delta_max=50.000000
rprop_delta_zero=0.100000
cascade_output_stagnation_epochs=12
cascade_candidate_change_fraction=0.010000
cascade_candidate_stagnation_epochs=12
cascade_max_out_epochs=150
cascade_min_out_epochs=50
cascade_max_cand_epochs=150
cascade_min_cand_epochs=50
cascade_num_candidate_groups=2
bit_fail_limit=3.49999999999999977796e-01
cascade_candidate_limit=1.00000000000000000000e+03
cascade_weight_multiplier=4.00000000000000022204e-01
cascade_activation_functions_count=10
cascade_activation_functions=3 5 7 8 10 11 14 15 16 17 
cascade_activation_steepnesses_count=4
cascade_activation_steepnesses=2.50000000000000000000e-01 5.00000000000000000000e-01 7.50000000000000000000e-01 1.00000000000000000000e+00 
layer_sizes=2 201 2 
scale_included=0
neurons (num_inputs, activation_function, activation_steepness)=(0, 0, 0.00000000000000000000e+00) (0, 0, 0.00000000000000000000e+00) (2, 4, 5.00000000000000000000e-01) (2, 4, 5.00000000000000000000e-01) (2, 4, 5.00000000000000000000e-01) (2, 4, 5.00000000000000000000e-01) (2, 4, 5.00000000000000000000e-01) (2, 4, 5.00000000000000000000e-01) (2, 4, 5.00000000000000000000e-01) (2, 4, 5.00000000000000000000e-01) (2, 4, 5.00000000000000000000e-01) (2, 4, 5.00000000000000000000e-01) (2, 4, 5.00000000000000000000e-01) (2, 4, 5.00000000000000000000e-01) (2, 4, 5.00000000000000000000e-01) (2, 4, 5.00000000000000000000e-01) (2, 4, 5.00000000000000000000e-01) (2, 4, 5.00000000000000000000e-01) (2, 4, 5.00000000000000000000e-01) (2, 4, 5.00000000000000000000e-01) (2, 4, 5.00000000000000000000e-01) (2, 4, 5.00000000000000000000e-01) (2, 4, 5.00000000000000000000e-01) (2, 4, 5.00000000000000000000e-01) (2, 4, 5.00000000000000000000e-01) (2, 4, 5.00000000000000000000e-01) (2, 4, 5.00000000000000000000e-01) (2, 4, 5.00000000000000000000e-01) (2, 4, 5.00000000000000000000e-01) (2, 4, 5.00000000000000000000e-01) (2, 4, 5.00000000000000000000e-01) (2, 4, 5.00000000000000000000e-01) (2, 4, 5.00000000000000000000e-01) (2, 4, 5.00000000000000000000e-01) (2, 4, 5.00000000000000000000e-01) (2, 4, 5.00000000000000000000e-01) (2, 4, 5.00000000000000000000e-01) (2, 4, 5.00000000000000000000e-01) (2, 4, 5.00000000000000000000e-01) (2, 4, 5.00000000000000000000e-01) (2, 4, 5.00000000000000000000e-01) (2, 4, 5.00000000000000000000e-01) (2, 4, 5.00000000000000000000e-01) (2, 4, 5.00000000000000000000e-01) (2, 4, 5.00000000000000000000e-01) (2, 4, 5.00000000000000000000e-01) (2, 4, 5.00000000000000000000e-01) (2, 4, 5.00000000000000000000e-01) (2, 4, 5.00000000000000000000e-01) (2, 4, 5.00000000000000000000e-01) (2, 4, 5.00000000000000000000e-01) (2, 4, 5.00000000000000000000e-01) (2, 4, 5.00000000000000000000e-01) (2, 4, 5.00000000000000000000e-01) (2, 4, 5.00000000000000000000e-01) (2, 4, 5.00000000000000000000e-01) (2, 4, 5.00000000000000000000e-01) (2, 4, 5.00000000000000000000e-01) (2, 4, 5.00000000000000000000e-01) (2, 4, 5.00000000000000000000e-01) (2, 4, 5.00000000000000000000e-01) (2, 4, 5.00000000000000000000e-01) (2, 4, 5.00000000000000000000e-01) (2, 4, 5.00000000000000000000e-01) (2, 4, 5.00000000000000000000e-01) (2, 4, 5.00000000000000000000e-01) (2, 4, 5.00000000000000000000e-01) (2, 4, 5.00000000000000000000e-01) (2, 4, 5.00000000000000000000e-01) (2, 4, 5.00000000000000000000e-01) (2, 4, 5.00000000000000000000e-01) (2, 4, 5.00000000000000000000e-01) (2, 4, 5.00000000000000000000e-01) (2, 4, 5.00000000000000000000e-01) (2, 4, 5.00000000000000000000e-01) (2, 4, 5.00000000000000000000e-01) (2, 4, 5.00000000000000000000e-01) (2, 4, 5.00000000000000000000e-01) (2, 4, 5.00000000000000000000e-01) (2, 4, 5.00000000000000000000e-01) (2, 4, 5.00000000000000000000e-01) (2, 4, 5.00000000000000000000e-01) (2, 4, 5.00000000000000000000e-01) (2, 4, 5.00000000000000000000e-01) (2, 4, 5.00000000000000000000e-01) (2, 4, 5.00000000000000000000e-01) (2, 4, 5.00000000000000000000e-01) (2, 4, 5.00000000000000000000e-01) (2, 4, 5.00000000000000000000e-01) (2, 4, 5.00000000000000000000e-01) (2, 4, 5.00000000000000000000e-01) (2, 4, 5.00000000000000000000e-01) (2, 4, 5.00000000000000000000e-01) (2, 4, 5.00000000000000000000e-01) (2, 4, 5.00000000000000000000e-01) (2, 4, 5.00000000000000000000e-01) (2, 4, 5.00000000000000000000e-01) (2, 4, 5.00000000000000000000e-01) (2, 4, 5.00000000000000000000e-01) (2, 4, 5.00000000000000000000e-01) (2, 4, 5.00000000000000000000e-01) (2, 4, 5.00000000000000000000e-01) (2, 4, 5.00000000000000000000e-01) (2, 4, 5.00000000000000000000e-01) (2, 4, 5.00000000000000000000e-01) (2, 4, 5.00000000000000000000e-01) (2, 4, 5.00000000000000000000e-01) (2, 4, 5.00000000000000000000e-01) (2, 4, 5.00000000000000000000e-01) (2, 4, 5.00000000000000000000e-01) (2, 4, 5.00000000000000000000e-01) (2, 4, 5.00000000000000000000e-01) (2, 4, 5.00000000000000000000e-01) (2, 4, 5.00000000000000000000e-01) (2, 4, 5.00000000000000000000e-01) (2, 4, 5.00000000000000000000e-01) (2, 4, 5.00000000000000000000e-01) (2, 4, 5.00000000000000000000e-01) (2, 4, 5.00000000000000000000e-01) (2, 4, 5.00000000000000000000e-01) (2, 4, 5.00000000000000000000e-01) (2, 4, 5.00000000000000000000e-01) (2, 4, 5.00000000000000000000e-01) (2, 4, 5.00000000000000000000e-01) (2, 4, 5.00000000000000000000e-01) (2, 4, 5.00000000000000000000e-01) (2, 4, 5.00000000000000000000e-01) (2, 4, 5.00000000000000000000e-01) (2, 4, 5.00000000000000000000e-01) (2, 4, 5.00000000000000000000e-01) (2, 4, 5.00000000000000000000e-01) (2, 4, 5.00000000000000000000e-01) (2, 4, 5.00000000000000000000e-01) (2, 4, 5.00000000000000000000e-01) (2, 4, 5.00000000000000000000e-01) (2, 4, 5.00000000000000000000e-01) (2, 4, 5.00000000000000000000e-01) (2, 4, 5.00000000000000000000e-01) (2, 4, 5.00000000000000000000e-01) (2, 4, 5.00000000000000000000e-01) (2, 4, 5.00000000000000000000e-01) (2, 4, 5.00000000000000000000e-01) (2, 4, 5.00000000000000000000e-01) (2, 4, 5.00000000000000000000e-01) (2, 4, 5.00000000000000000000e-01) (2, 4, 5.00000000000000000000e-01) (2, 4, 5.00000000000000000000e-01) (2, 4, 5.00000000000000000000e-01) (2, 4, 5.00000000000000000000e-01) (2, 4, 5.00000000000000000000e-01) (2, 4, 5.00000000000000000000e-01) (2, 4, 5.00000000000000000000e-01) (2, 4, 5.00000000000000000000e-01) (2, 4, 5.00000000000000000000e-01) (2, 4, 5.00000000000000000000e-01) (2, 4, 5.00000000000000000000e-01) (2, 4, 5.00000000000000000000e-01) (2, 4, 5.00000000000000000000e-01) (2, 4, 5.00000000000000000000e-01) (2, 4, 5.00000000000000000000e-01) (2, 4, 5.00000000000000000000e-01) (2, 4, 5.00000000000000000000e-01) (2, 4, 5.00000000000000000000e-01) (2, 4, 5.00000000000000000000e-01) (2, 4, 5.00000000000000000000e-01) (2, 4, 5.00000000000000000000e-01) (2, 4, 5.00000000000000000000e-01) (2, 4, 5.00000000000000000000e-01) (2, 4, 5.00000000000000000000e-01) (2, 4, 5.00000000000000000000e-01) (2, 4, 5.00000000000000000000e-01) (2, 4, 5.00000000000000000000e-01) (2, 4, 5.00000000000000000000e-01) (2, 4, 5.00000000000000000000e-01) (2, 4, 5.00000000000000000000e-01) (2, 4, 5.00000000000000000000e-01) (2, 4, 5.00000000000000000000e-01) (2, 4, 5.00000000000000000000e-01) (2, 4, 5.00000000000000000000e-01) (2, 4, 5.00000000000000000000e-01) (2, 4, 5.00000000000000000000e-01) (2, 4, 5.00000000000000000000e-01) (2, 4, 5.00000000000000000000e-01) (2, 4, 5.00000000000000000000e-01) (2, 4, 5.00000000000000000000e-01) (2, 4, 5.00000000000000000000e-01) (2, 4, 5.00000000000000000000e-01) (2, 4, 5.00000000000000000000e-01) (2, 4, 5.00000000000000000000e-01) (2, 4, 5.00000000000000000000e-01) (2, 4, 5.00000000000000000000e-01) (2, 4, 5.00000000000000000000e-01) (2, 4, 5.00000000000000000000e-01) (2, 4, 5.00000000000000000000e-01) (2, 4, 5.00000000000000000000e-01) (2, 4, 5.00000000000000000000e-01) (2, 4, 5.00000000000000000000e-01) (2, 4, 5.00000000000000000000e-01) (2, 4, 5.00000000000000000000e-01) (2, 4, 5.00000000000000000000e-01) (2, 4, 5.00000000000000000000e-01) (2, 4, 5.00000000000000000000e-01) (0, 0, 0.00000000000000000000e+00) (201, 4, 5.00000000000000000000e-01) (0, 0, 0.00000000000000000000e+00) 
connections (connected_to_neuron, weight)=(0, 1.89558325881058364892e+00) (1, -7.34036937167489023093e-02) (0, -9.77509469143508780142e-01) (1, -1.94262580072252277752e-01) (0, -8.72798753794042347920e+00) (1, 1.50407903636518325285e+00) (0, -2.35799201367640343108e+00) (1, -1.71934907907447276365e+00) (0, -1.05630904972133254915e+00) (1, -2.49073484527467831073e-01) (0, -1.46183657086538931758e+00) (1, -2.66504096595359257771e-02) (0, -1.17674143356934224336e+00) (1, -1.83442386270362078893e-01) (0, 2.19922423408293310487e+00) (1, 5.78970298377497055720e-02) (0, -1.50168255857862265046e+00) (1, -1.82160803408343389964e-02) (0, -6.72807883470120327019e+00) (1, 4.98544237363330533519e-01) (0, 2.11047884805336138925e+00) (1, 1.54430554981046158636e-01) (0, -5.37589560928785115124e+00) (1, -1.80013714270448377253e-01) (0, -1.00982909699939948922e+00) (1, -5.47160585939331298166e-02) (0, -9.49498581716111234030e-01) (1, -5.80778641540444506841e-02) (0, 2.01262092468199860207e+00) (1, -3.30366396377428234166e-02) (0, -1.04474158241219350352e+00) (1, -1.89008409252757664243e-01) (0, -9.99596119170389929565e-01) (1, -2.02978834725548507034e-01) (0, -2.49401361331254278753e+00) (1, -1.64915382833826473785e+00) (0, 2.17764814512754023568e+00) (1, 8.07774022710103928313e-02) (0, -1.41872269091512603900e+00) (1, -4.73612099981622902689e-02) (0, -2.79540707176626224140e+00) (1, -2.52592146536550155034e+00) (0, 1.99013658924491076974e+00) (1, 1.00290185265361361799e-01) (0, 6.21861776513246908293e-02) (1, 1.11643169889889523616e-01) (0, -1.04497372415784450794e+00) (1, -1.73320930459705313531e-01) (0, -1.62372533657082773750e+00) (1, 1.66436264122800658960e-02) (0, -1.79168389197936495094e+00) (1, -4.50781440867689031649e+00) (0, -1.20904203979994528950e+00) (1, -1.93778181154862838564e-01) (0, -5.15679232034467993628e+00) (1, -8.55134774976834655114e-01) (0, 1.96191822597006160223e+00) (1, -6.54331350606632451694e-03) (0, 2.16875457886159228593e+00) (1, 4.11683891625148276616e-02) (0, -1.05701568020562186589e+00) (1, -1.82486157355692929505e-01) (0, -1.18441266857192362139e+00) (1, -8.85599475361136534435e-02) (0, 1.24568002160539714751e+00) (1, -3.88859564640313681849e-01) (0, -1.02926389568199838642e+00) (1, -7.56163071055585556124e-02) (0, 2.09397466921789954242e+00) (1, 1.24707325068290394987e-01) (0, -1.95059252253385584375e+00) (1, -1.93102340192013643971e+00) (0, -2.23730259957084509637e+00) (1, -1.78296160908732992390e+00) (0, 2.01697135129199578429e+00) (1, -6.18023967927092965358e-02) (0, -3.49196045232400831271e-01) (1, 6.89012667719067217753e-02) (0, -1.16274330356979915813e+00) (1, -1.82819690986796373755e-01) (0, -1.15675696941220884639e+00) (1, -2.06120049414760725393e-01) (0, -1.40297477380884796361e+01) (1, -4.35547115827349395900e-01) (0, -3.70195557939927075153e-02) (1, 1.07010979206211220838e-01) (0, -2.33110508034267871480e+00) (1, -1.97309354418540450204e+00) (0, 2.20651420586662316836e+00) (1, 1.96097616296039389816e-01) (0, -2.06776978951560108655e+00) (1, -1.87053959725569596273e+00) (0, -1.20969560491329053420e+00) (1, -2.24532263387165142987e-01) (0, 1.21901133353941260040e+00) (1, -3.45488230678870911206e-01) (0, -6.12990401893180464343e-02) (1, 1.68888764668107871358e-01) (0, -1.01135164297551316537e+00) (1, -2.41013661995107153491e-01) (0, -1.11437312518387932059e+00) (1, -7.93929689655634984735e-02) (0, -5.30063519978817154765e+00) (1, -7.92819296613621937730e-01) (0, -8.39066233737141176086e-01) (1, -1.08333174205300264425e+00) (0, -1.55980965260694137697e+00) (1, -9.60282809009998294947e-01) (0, 1.89203482778507425799e+00) (1, -4.16074826994332971908e-02) (0, 2.16805266272716101739e+00) (1, 4.13775866198459185696e-02) (0, -2.44137789062658239203e+00) (1, -1.67659819658528608244e+00) (0, -3.63396935761906414442e+00) (1, -1.46326876273793970995e+00) (0, -1.40998938563065259189e+01) (1, -5.55763747930936524710e-01) (0, -1.20659972025524275807e+00) (1, -3.17348886543092456591e-01) (0, -6.98008314440146993007e-01) (1, -9.59228040188000563582e-01) (0, -5.13502741615303404110e-01) (1, -4.67885554298594996681e+00) (0, 1.37408382779153281916e+00) (1, -4.85880339113057113654e-01) (0, 1.19943508368995543911e+00) (1, -3.23232121530205751547e-01) (0, -6.46365507539464645426e-01) (1, -9.17042111662738634870e-01) (0, -1.98659623409666230565e+00) (1, -1.91282811072771075089e+00) (0, -1.68595285412648565604e+00) (1, 3.00123537265446597988e-02) (0, -2.03596805958646243084e+00) (1, -1.88698676286559408055e+00) (0, 1.22507651835723940792e+00) (1, -3.85366387996875503497e-01) (0, 1.30763890113242475799e+00) (1, -4.25074903161425099452e-01) (0, 1.18842599989964559093e+00) (1, -3.27225207009715413076e-01) (0, -1.03983133837730856719e+00) (1, -1.54875175919167995531e-01) (0, 2.07503493168192498786e+00) (1, -6.22993543361975432582e-02) (0, -4.21474275262690767363e+00) (1, -7.64531277828556676823e-01) (0, -1.94503773113572275832e+00) (1, -1.93370626252472210815e+00) (0, -1.14360258343212817245e+00) (1, -1.35744192008627861945e-01) (0, -9.95993153328413760583e-01) (1, -1.62435015714959163358e-01) (0, 2.19659229449143111879e+00) (1, 6.05995620680958857474e-02) (0, -4.16522530548652269999e+00) (1, -7.89488430153900910824e-01) (0, -1.85972292354953627758e+00) (1, -1.97784683289642826409e+00) (0, -6.24759401582963747046e+00) (1, -7.30674952196226634715e-02) (0, -1.14437987350216818783e+00) (1, -1.87985565862245768143e-01) (0, -9.91094699930610278926e-01) (1, -1.46992719942355465346e-01) (0, -9.19731917256767239621e+00) (1, 1.73991948844187560574e+00) (0, 5.61767630651323401914e-01) (1, 7.67230373325667902584e-01) (0, -6.83833415548512402182e-01) (1, -8.69953385525406130974e-01) (0, -5.77557050713504782635e+00) (1, -2.92146096349565564942e-01) (0, -9.48033395950105273187e-01) (1, -6.93769586506776947399e-02) (0, 1.35981833426019926847e+00) (1, -4.66240174806813900688e-01) (0, -1.03451566618551060728e+00) (1, -1.76646432051277141317e-01) (0, -2.55568445392101617486e+00) (1, -1.61763833296048642474e+00) (0, -1.12880826831775005203e+00) (1, -2.45362436292556079787e-01) (0, 1.23542303241801709746e+00) (1, -3.79426884686831833449e-01) (0, 2.24439152027443844517e+00) (1, 1.17417093341347117397e-01) (0, -4.87336797834695578668e-01) (1, -5.90259381546823780340e-01) (0, 1.88288967210103175276e+00) (1, -9.50874778452022312303e-02) (0, 1.93931536455363273674e+00) (1, 4.63796545829379784631e-03) (0, 1.19427294490185831322e+00) (1, -3.17930623660235556205e-01) (0, -1.16158402161858154145e+00) (1, -2.41763887462669552209e-01) (0, 1.34011168634316391035e+00) (1, -4.64046866725624007621e-01) (0, -1.16446392370813112116e+00) (1, -1.14350133856934058074e-01) (0, -1.16268010619268902239e+00) (1, -1.79337897015544395218e-01) (0, -1.52348722926368118635e+00) (1, -7.29315399556421280203e-03) (0, -5.85356595761756803853e+00) (1, -2.56051098041425340135e-01) (0, -7.77157680539596462665e+00) (1, 6.33529668480644736483e-01) (0, -9.56637298550368164740e-01) (1, -1.69184869013721594921e-01) (0, -3.72613149268014365312e-01) (1, 9.75286922041139064943e-02) (0, 1.36467932967256788679e+00) (1, -4.99387918407505626561e-01) (0, -2.67360352011891067026e-01) (1, -4.66005469096937829931e+00) (0, -9.72101338564957617727e-01) (1, -1.77966468084664125593e-01) (0, 8.93700818887293690906e-01) (1, -4.43912775561587036321e+00) (0, -3.17922790466808535825e+00) (1, -1.62311608566376341933e+00) (0, -1.26555935270112254187e+01) (1, 3.00949995201245190657e+00) (0, -1.03812944988459521234e+00) (1, -7.67272777880001477513e-02) (0, -2.45947175950100538344e+00) (1, -1.66724479425752059036e+00) (0, -2.34921635814888407623e+00) (1, -1.96566496720010541743e+00) (0, -9.95233801846075905040e-01) (1, -6.16002630656696525957e-02) (0, -5.80711734734221995957e-01) (1, 2.69240343053407694962e-02) (0, -5.84667973271715180061e+00) (1, -2.59420346130152412734e-01) (0, -1.20655268864365741166e+01) (1, -6.25931380733493747393e-01) (0, 2.17584602305698693314e+00) (1, 1.05780283625830168193e-01) (0, -9.70305584162388767844e-01) (1, -9.95426806210195774804e-02) (0, -1.10969060162444987938e+00) (1, -1.60038832069211683917e-01) (0, 2.01925554804439633116e+00) (1, -5.36234112340839702560e-02) (0, -1.20721561298759749725e+00) (1, -2.56139271188316697270e-01) (0, 2.19001849802819625879e+00) (1, 6.41290837294198196039e-02) (0, 1.31624284658169488083e+00) (1, -4.80721869463792750299e-01) (0, -5.32685660554198214811e+00) (1, -7.71198186262835316818e-01) (0, 2.17694948391289599954e+00) (1, 7.96109820032695619796e-02) (0, -1.03166057464517901820e+00) (1, -1.51684784633462271808e-01) (0, 1.96267783163963760451e+00) (1, -2.59495892309032881451e-02) (0, -7.80666960487664707280e-01) (1, -1.10928561268859482425e+00) (0, -4.19136847790319566620e-01) (1, 1.49940126812558999214e-01) (0, -2.37358128302855275749e+00) (1, -1.95609204070468889469e+00) (0, -1.15180735299517245096e+00) (1, -2.71364764362661547992e-01) (0, 2.07925005196085477266e+00) (1, 2.07247736547351374403e-01) (0, 2.19403734129656724505e+00) (1, 2.14209201422387099378e-02) (0, 2.02678196106250751996e+00) (1, -7.76310343771218769326e-01) (0, 1.34051031511322848999e+00) (1, -5.21814585783354378812e-01) (0, -3.69649560262104492914e-01) (1, -5.49631870156920498971e-01) (0, 1.19419016284374257530e+00) (1, -3.26911680902005341576e-01) (0, -2.26244231743708246185e+00) (1, -1.76919619215038315119e+00) (0, -3.35450542301040766091e+00) (1, -1.57109662309701869631e+00) (0, -1.48517123089463431995e+00) (1, -1.05003987352319128057e+00) (0, -2.20498641560261443573e+00) (1, -1.79978211748147876037e+00) (0, -1.02403803058097331302e+00) (1, -2.11327874205122528961e-01) (0, 1.38912167223494442680e+00) (1, -4.97797606801504199936e-01) (0, 1.23430380121635249746e-01) (1, 1.60217262980696332347e-03) (0, -1.17674882494523713738e+00) (1, -9.86626087326320094784e-02) (0, 1.23520190041007871251e+00) (1, -3.86021890550911184192e-01) (0, 1.86101864980800701943e+00) (1, -1.00872816360575567884e+00) (0, -1.60784499115760581844e+00) (1, -9.08581891986174894349e-01) (0, 1.19068409481615322676e+00) (1, -3.33099522324486529978e-01) (0, 4.18339931041198584416e-02) (1, 1.25223071693826404349e-01) (0, 1.91300288429516185396e+00) (1, 3.37790651359902160955e-02) (0, 1.25010070829170527595e+00) (1, -4.11288992222878013738e-01) (0, -4.03459654812386059319e+00) (1, -1.63016206579263100984e+00) (0, -5.48216246405665907915e-01) (1, 1.02510722894677219763e-01) (0, -1.04127242302531342055e+00) (1, -2.17968073515466209678e-01) (0, -7.74714686093832649583e-01) (1, -1.19351495480340985544e+00) (0, 2.08117441620663568003e+00) (1, -8.57313323090292539463e-02) (0, 2.16873481014453739490e+00) (1, 1.23316532962307420784e-01) (0, -4.14790709567744886321e-01) (1, -4.41031921408283977826e+00) (0, 1.90934269124947619822e+00) (1, -3.65158314342441184253e-02) (0, -1.88884014886115525478e+00) (1, -1.96272604620446577961e+00) (0, -1.13880176494864326919e+00) (1, -2.85634744281288543988e-01) (0, -8.00966657559072459094e+00) (1, 1.14300255404894013367e+00) (0, -9.85436477968174795450e-01) (1, -9.27190191624361892409e-02) (0, -3.87073688843304231089e-01) (1, 1.31595004219156042069e-01) (0, 1.32479218236030638067e+00) (1, -4.49632448937262452215e-01) (0, -1.49260838702444154080e+00) (1, -1.04302160915976904754e+00) (0, 2.17860433215586590805e+00) (1, 8.35700032396466951923e-02) (0, 1.42222695346452421283e+00) (1, -5.95478056680733391914e-01) (0, -8.39719292630921043674e-01) (1, -6.25953351623345644050e-01) (0, -8.30692248881948924755e-01) (1, -9.77651425450099309522e-01) (0, -8.36550049758260527710e+00) (1, -2.72507413408496690366e+00) (0, -6.80255965038978560600e-01) (1, -8.29322672411018091410e-01) (0, 1.23252502001253971819e+00) (1, -3.85469065523921017302e-01) (0, -8.90189513543891841607e+00) (1, 1.59135366567167690910e+00) (0, -1.02920283839995829744e+00) (1, -7.81546850370694740073e-02) (0, -3.75607896921990435518e-03) (1, 1.68358087993829286244e-01) (0, -6.15136690188492374354e-01) (1, -1.22448445152894924703e+00) (0, -3.09919001554092743422e-01) (1, 1.16035437365061527837e-01) (0, -9.81106945332522184522e-01) (1, -1.33867756496848316905e-01) (0, 1.83089722913433461393e+00) (1, 6.38149513702520199826e-03) (0, 1.28101787504917008498e+00) (1, -4.28377972404699047804e-01) (0, -1.56672479495729533028e+00) (1, -9.83645220688786570129e-01) (0, -1.05255224771355249125e+00) (1, -9.50376866178934409657e-02) (0, -6.08924048004472506790e+00) (1, -1.46615957158207493860e-01) (0, -1.14419803386336571549e+00) (1, -1.05988254515052171545e-01) (0, -3.07969939955894778105e-01) (1, -2.71172802973163994816e-03) (0, 2.20372542868154264184e+00) (1, 1.52331672671654066997e-01) (0, -8.20051783792288624397e+00) (1, 8.39579064388564444421e-01) (0, -1.14625976432846909958e+00) (1, -2.86883589370915015326e-01) (0, -1.03151473479096456032e+00) (1, -2.39795896204835906618e-01) (0, -3.75266561788899943863e-01) (1, 1.01726170498485785076e-01) (0, -1.01665874521747867654e+00) (1, -7.96671526932890144979e-02) (0, 2.06020933910523407206e+00) (1, -7.81455638700030708055e-02) (0, -9.99266944417879998674e-01) (1, -1.12704071713882567063e-01) (0, -1.51214993636707517588e+00) (1, -7.80971535408590961103e-02) (2, 8.07054983385330076961e-02) (3, 2.21766314301483968841e-01) (4, 4.39091731865867540563e+00) (5, 1.40093269599958131222e-01) (6, 1.99494355424187336245e-01) (7, -1.16452785204838288324e-01) (8, 1.87605381111766833513e-01) (9, -7.73681598639892886826e-02) (10, -8.86249564483522211944e-02) (11, 1.10115422090710168845e+01) (12, 4.71866854575117289361e-02) (13, 2.50325118237391874843e+00) (14, 2.16085534776747550945e-01) (15, 2.25754290559849635223e-01) (16, 1.05641892751874827416e-01) (17, 2.06473392602785466021e-01) (18, 1.93228899644876050967e-01) (19, 2.94756607501381107106e-01) (20, -6.15968652503922978192e-02) (21, -1.42503959005723823683e-01) (22, -1.58094989086791457567e+01) (23, 6.49625008614795745876e-02) (24, 1.62946795142943551271e-01) (25, 2.01791813497514405107e-01) (26, -1.31248213934584079254e-01) (27, 1.47887924780063087837e+02) (28, 1.91624438442377587055e-01) (29, -1.23811995048153953292e+01) (30, 1.02133506143873148408e-01) (31, -1.02150294792108416175e-02) (32, 2.34304838662408726480e-01) (33, 2.38116878490723909989e-01) (34, -2.04386457465466978012e-02) (35, 2.05594307197131453968e-01) (36, 5.00011055996899544951e-02) (37, 1.35884593599798764174e-01) (38, 1.65861669333942196580e-01) (39, 9.66093267398110550070e-02) (40, 1.83365279590489593797e-01) (41, 2.15980966234169846629e-01) (42, 2.06114975299184072233e-01) (43, 2.16137920681210204066e+02) (44, 1.56952563665239408497e-01) (45, 1.23861967508962750317e-01) (46, 1.82589466878865028243e-02) (47, 2.06714786904532432654e-01) (48, 1.91253315604626494828e-01) (49, -1.85824982603440130857e-02) (50, 1.67690648431737643342e-01) (51, 2.40004172259556947111e-01) (52, 2.05734648051095314614e-01) (53, -4.72033692461122297845e-02) (54, 1.34577294240302514083e-01) (55, 3.42429458464340696899e-01) (56, 8.76261802862395577929e-02) (57, -3.07680665115612379801e-02) (58, 1.45454413966265738711e-01) (59, 5.49790066432552304576e+00) (60, -9.53510325836321896986e+01) (61, 1.84891485292124818640e-01) (62, 1.19791275425453688785e-01) (63, -5.79995175399722242560e+01) (64, -2.06383132209564251758e-02) (65, -2.80444482419468753276e-02) (66, 9.11582228372002367767e-02) (67, 7.51490778529088215842e-02) (68, -7.95571210041418758196e-02) (69, 1.78646517917774305673e-01) (70, -1.91455434371698429707e-02) (71, -3.42222274214658839231e-02) (72, -2.26506204923118022176e-02) (73, 2.27928199112163387685e-01) (74, 1.00233672125005779385e-01) (75, 2.14316985237937934761e-01) (76, 1.72091764500964305995e-01) (77, 2.38900457190112325279e-01) (78, 2.31949136178684900411e-01) (79, -5.07148759998685694228e-02) (80, 5.49441721522956072477e+00) (81, 1.64766754361325484801e-01) (82, -1.96944712648458164495e+01) (83, 2.14275546441869357839e-01) (84, 1.98856269099904503506e-01) (85, 1.36683604354646064394e+01) (86, -3.35873482800848957575e-02) (87, 1.17160138551029219256e-01) (88, -1.86458004730891524492e-01) (89, 2.25561326836666659057e-01) (90, -2.82822950339560730271e-02) (91, -7.65571660312206053733e-02) (92, 1.85179836013648541071e-01) (93, 2.20371857568540968630e-01) (94, -1.17583354447122288150e-02) (95, 1.57421869267450817431e-02) (96, 8.27987379991460131778e-02) (97, 6.56622941073068261408e-02) (98, 1.05800250521078054167e-01) (99, -1.29487412128472031275e-02) (100, 2.12850873604004314776e-01) (101, -2.45289922990065620279e-02) (102, 2.14835331318357802832e-01) (103, 2.06851084375346078170e-01) (104, -8.25338006955804170950e-02) (105, -2.25372230264029038693e+00) (106, -3.10242466490578339133e+00) (107, 2.05554351772074761495e-01) (108, 1.85450744831898134413e-01) (109, -1.74544938885910633219e-02) (110, 8.23202349611155881348e+01) (111, 2.05288607522464472410e-01) (112, -9.56839483299234103697e+01) (113, 4.52503042624488660550e+00) (114, -1.24398914748878457459e+01) (115, 2.53148952432401597168e-01) (116, 3.50375133903575164407e-01) (117, 1.77289645030260928360e-01) (118, 2.18738747071039629777e-01) (119, 2.31691184462843258185e-01) (120, -4.62048087310221955448e-01) (121, -7.50436933898628488748e+00) (122, -7.63718924066728727107e-02) (123, 2.49379226576970952634e-01) (124, 2.15758057128210417597e-01) (125, 1.06237748223621003563e-01) (126, 1.74867414547561522697e-01) (127, -4.17373507450476133318e-02) (128, -7.51721387425694723833e-03) (129, -3.72655169284463951840e+01) (130, -4.40528058702529534685e-02) (131, 2.08157091707831365390e-01) (132, 8.32489413490374030591e-02) (133, 1.21145309255566213658e-01) (134, 1.87767836586401309917e-01) (135, 1.72554661114018070833e-01) (136, 1.68553020645612505746e-01) (137, -1.64826466560565251807e-02) (138, -2.98955838076713428797e-02) (139, 2.77233040782783601852e-02) (140, -3.17467991544231886714e-02) (141, 5.04343784738129144452e-02) (142, -2.44168956141102566626e-02) (143, 1.61253521330976079540e+00) (144, 7.55769875973067772890e+00) (145, 3.36095593241008627761e-01) (146, 1.26915028833846366130e-01) (147, 2.16638884812476728570e-01) (148, -2.08307344395902635514e-02) (149, 1.47900637468058149260e-01) (150, 2.48308870573875989374e-01) (151, -2.85926778355830857326e-02) (152, 2.13441791722732109038e-02) (153, 3.25013872894993283147e-01) (154, -1.62170554721968313006e-02) (155, 1.49982828865445533273e-01) (156, 1.09472955103184013681e-01) (157, -1.49100061819844795230e-02) (158, -7.44688679992988245004e+00) (159, 1.96189199143060627462e-01) (160, 2.50365475758637323622e-01) (161, 1.34886737103344950262e-01) (162, 9.51879413971198351518e-02) (163, -4.57907181892629744357e-02) (164, -5.41035524039578987754e+01) (165, 7.22697233255392978979e-02) (166, 8.27976716113467542391e-02) (167, 1.91542284781007404737e-01) (168, 1.56607772990783300493e+00) (169, 2.38952923308136278013e-01) (170, 1.72357774051302065077e-01) (171, -2.61418146152772729041e-02) (172, 3.45826124429831238682e-01) (173, -7.97845433755353522498e-02) (174, -1.73345696675521257490e-02) (175, 1.99410643536423633215e-02) (176, 1.26691387656869436373e-01) (177, 4.26940910868451339866e+01) (178, 1.18676477894448004213e-01) (179, -2.51035024855341300232e-02) (180, 4.29056121794449740747e+00) (181, 2.32269663620507549329e-01) (182, 1.50323428764548849834e-01) (183, 1.22557028226656761216e-01) (184, 1.69592619205188172016e-01) (185, 2.00529570386319466735e-01) (186, 8.40086606973621252692e-02) (187, -2.63118564707925002566e-02) (188, 3.41306876916503076913e-01) (189, 2.11602222597741224108e-01) (190, -1.80295840576051991100e+00) (191, 2.58308638660446177049e-01) (192, 1.86295162959384613677e-01) (193, 1.98062988195169889516e-02) (194, -4.22181184859673663823e+00) (195, 1.93285154018745131133e-01) (196, 2.01978712674965116269e-01) (197, 1.77138400280810154319e-01) (198, 2.22128440441773489233e-01) (199, 1.02203680300190766217e-01) (200, 2.09459115367501919058e-01) (201, -1.96115938664844863260e-01) (202, 7.59035310361454162997e-03) 
