FANN_FLO_2.1
num_layers=3
learning_rate=0.700000
connection_rate=1.000000
network_type=0
learning_momentum=0.000000
training_algorithm=2
train_error_function=1
train_stop_function=0
cascade_output_change_fraction=0.010000
quickprop_decay=-0.000100
quickprop_mu=1.750000
rprop_increase_factor=1.200000
rprop_decrease_factor=0.500000
rprop_delta_min=0.000000
rprop_delta_max=50.000000
rprop_delta_zero=0.100000
cascade_output_stagnation_epochs=12
cascade_candidate_change_fraction=0.010000
cascade_candidate_stagnation_epochs=12
cascade_max_out_epochs=150
cascade_min_out_epochs=50
cascade_max_cand_epochs=150
cascade_min_cand_epochs=50
cascade_num_candidate_groups=2
bit_fail_limit=3.49999999999999977796e-01
cascade_candidate_limit=1.00000000000000000000e+03
cascade_weight_multiplier=4.00000000000000022204e-01
cascade_activation_functions_count=10
cascade_activation_functions=3 5 7 8 10 11 14 15 16 17 
cascade_activation_steepnesses_count=4
cascade_activation_steepnesses=2.50000000000000000000e-01 5.00000000000000000000e-01 7.50000000000000000000e-01 1.00000000000000000000e+00 
layer_sizes=2 201 2 
scale_included=0
neurons (num_inputs, activation_function, activation_steepness)=(0, 0, 0.00000000000000000000e+00) (0, 0, 0.00000000000000000000e+00) (2, 4, 5.00000000000000000000e-01) (2, 4, 5.00000000000000000000e-01) (2, 4, 5.00000000000000000000e-01) (2, 4, 5.00000000000000000000e-01) (2, 4, 5.00000000000000000000e-01) (2, 4, 5.00000000000000000000e-01) (2, 4, 5.00000000000000000000e-01) (2, 4, 5.00000000000000000000e-01) (2, 4, 5.00000000000000000000e-01) (2, 4, 5.00000000000000000000e-01) (2, 4, 5.00000000000000000000e-01) (2, 4, 5.00000000000000000000e-01) (2, 4, 5.00000000000000000000e-01) (2, 4, 5.00000000000000000000e-01) (2, 4, 5.00000000000000000000e-01) (2, 4, 5.00000000000000000000e-01) (2, 4, 5.00000000000000000000e-01) (2, 4, 5.00000000000000000000e-01) (2, 4, 5.00000000000000000000e-01) (2, 4, 5.00000000000000000000e-01) (2, 4, 5.00000000000000000000e-01) (2, 4, 5.00000000000000000000e-01) (2, 4, 5.00000000000000000000e-01) (2, 4, 5.00000000000000000000e-01) (2, 4, 5.00000000000000000000e-01) (2, 4, 5.00000000000000000000e-01) (2, 4, 5.00000000000000000000e-01) (2, 4, 5.00000000000000000000e-01) (2, 4, 5.00000000000000000000e-01) (2, 4, 5.00000000000000000000e-01) (2, 4, 5.00000000000000000000e-01) (2, 4, 5.00000000000000000000e-01) (2, 4, 5.00000000000000000000e-01) (2, 4, 5.00000000000000000000e-01) (2, 4, 5.00000000000000000000e-01) (2, 4, 5.00000000000000000000e-01) (2, 4, 5.00000000000000000000e-01) (2, 4, 5.00000000000000000000e-01) (2, 4, 5.00000000000000000000e-01) (2, 4, 5.00000000000000000000e-01) (2, 4, 5.00000000000000000000e-01) (2, 4, 5.00000000000000000000e-01) (2, 4, 5.00000000000000000000e-01) (2, 4, 5.00000000000000000000e-01) (2, 4, 5.00000000000000000000e-01) (2, 4, 5.00000000000000000000e-01) (2, 4, 5.00000000000000000000e-01) (2, 4, 5.00000000000000000000e-01) (2, 4, 5.00000000000000000000e-01) (2, 4, 5.00000000000000000000e-01) (2, 4, 5.00000000000000000000e-01) (2, 4, 5.00000000000000000000e-01) (2, 4, 5.00000000000000000000e-01) (2, 4, 5.00000000000000000000e-01) (2, 4, 5.00000000000000000000e-01) (2, 4, 5.00000000000000000000e-01) (2, 4, 5.00000000000000000000e-01) (2, 4, 5.00000000000000000000e-01) (2, 4, 5.00000000000000000000e-01) (2, 4, 5.00000000000000000000e-01) (2, 4, 5.00000000000000000000e-01) (2, 4, 5.00000000000000000000e-01) (2, 4, 5.00000000000000000000e-01) (2, 4, 5.00000000000000000000e-01) (2, 4, 5.00000000000000000000e-01) (2, 4, 5.00000000000000000000e-01) (2, 4, 5.00000000000000000000e-01) (2, 4, 5.00000000000000000000e-01) (2, 4, 5.00000000000000000000e-01) (2, 4, 5.00000000000000000000e-01) (2, 4, 5.00000000000000000000e-01) (2, 4, 5.00000000000000000000e-01) (2, 4, 5.00000000000000000000e-01) (2, 4, 5.00000000000000000000e-01) (2, 4, 5.00000000000000000000e-01) (2, 4, 5.00000000000000000000e-01) (2, 4, 5.00000000000000000000e-01) (2, 4, 5.00000000000000000000e-01) (2, 4, 5.00000000000000000000e-01) (2, 4, 5.00000000000000000000e-01) (2, 4, 5.00000000000000000000e-01) (2, 4, 5.00000000000000000000e-01) (2, 4, 5.00000000000000000000e-01) (2, 4, 5.00000000000000000000e-01) (2, 4, 5.00000000000000000000e-01) (2, 4, 5.00000000000000000000e-01) (2, 4, 5.00000000000000000000e-01) (2, 4, 5.00000000000000000000e-01) (2, 4, 5.00000000000000000000e-01) (2, 4, 5.00000000000000000000e-01) (2, 4, 5.00000000000000000000e-01) (2, 4, 5.00000000000000000000e-01) (2, 4, 5.00000000000000000000e-01) (2, 4, 5.00000000000000000000e-01) (2, 4, 5.00000000000000000000e-01) (2, 4, 5.00000000000000000000e-01) (2, 4, 5.00000000000000000000e-01) (2, 4, 5.00000000000000000000e-01) (2, 4, 5.00000000000000000000e-01) (2, 4, 5.00000000000000000000e-01) (2, 4, 5.00000000000000000000e-01) (2, 4, 5.00000000000000000000e-01) (2, 4, 5.00000000000000000000e-01) (2, 4, 5.00000000000000000000e-01) (2, 4, 5.00000000000000000000e-01) (2, 4, 5.00000000000000000000e-01) (2, 4, 5.00000000000000000000e-01) (2, 4, 5.00000000000000000000e-01) (2, 4, 5.00000000000000000000e-01) (2, 4, 5.00000000000000000000e-01) (2, 4, 5.00000000000000000000e-01) (2, 4, 5.00000000000000000000e-01) (2, 4, 5.00000000000000000000e-01) (2, 4, 5.00000000000000000000e-01) (2, 4, 5.00000000000000000000e-01) (2, 4, 5.00000000000000000000e-01) (2, 4, 5.00000000000000000000e-01) (2, 4, 5.00000000000000000000e-01) (2, 4, 5.00000000000000000000e-01) (2, 4, 5.00000000000000000000e-01) (2, 4, 5.00000000000000000000e-01) (2, 4, 5.00000000000000000000e-01) (2, 4, 5.00000000000000000000e-01) (2, 4, 5.00000000000000000000e-01) (2, 4, 5.00000000000000000000e-01) (2, 4, 5.00000000000000000000e-01) (2, 4, 5.00000000000000000000e-01) (2, 4, 5.00000000000000000000e-01) (2, 4, 5.00000000000000000000e-01) (2, 4, 5.00000000000000000000e-01) (2, 4, 5.00000000000000000000e-01) (2, 4, 5.00000000000000000000e-01) (2, 4, 5.00000000000000000000e-01) (2, 4, 5.00000000000000000000e-01) (2, 4, 5.00000000000000000000e-01) (2, 4, 5.00000000000000000000e-01) (2, 4, 5.00000000000000000000e-01) (2, 4, 5.00000000000000000000e-01) (2, 4, 5.00000000000000000000e-01) (2, 4, 5.00000000000000000000e-01) (2, 4, 5.00000000000000000000e-01) (2, 4, 5.00000000000000000000e-01) (2, 4, 5.00000000000000000000e-01) (2, 4, 5.00000000000000000000e-01) (2, 4, 5.00000000000000000000e-01) (2, 4, 5.00000000000000000000e-01) (2, 4, 5.00000000000000000000e-01) (2, 4, 5.00000000000000000000e-01) (2, 4, 5.00000000000000000000e-01) (2, 4, 5.00000000000000000000e-01) (2, 4, 5.00000000000000000000e-01) (2, 4, 5.00000000000000000000e-01) (2, 4, 5.00000000000000000000e-01) (2, 4, 5.00000000000000000000e-01) (2, 4, 5.00000000000000000000e-01) (2, 4, 5.00000000000000000000e-01) (2, 4, 5.00000000000000000000e-01) (2, 4, 5.00000000000000000000e-01) (2, 4, 5.00000000000000000000e-01) (2, 4, 5.00000000000000000000e-01) (2, 4, 5.00000000000000000000e-01) (2, 4, 5.00000000000000000000e-01) (2, 4, 5.00000000000000000000e-01) (2, 4, 5.00000000000000000000e-01) (2, 4, 5.00000000000000000000e-01) (2, 4, 5.00000000000000000000e-01) (2, 4, 5.00000000000000000000e-01) (2, 4, 5.00000000000000000000e-01) (2, 4, 5.00000000000000000000e-01) (2, 4, 5.00000000000000000000e-01) (2, 4, 5.00000000000000000000e-01) (2, 4, 5.00000000000000000000e-01) (2, 4, 5.00000000000000000000e-01) (2, 4, 5.00000000000000000000e-01) (2, 4, 5.00000000000000000000e-01) (2, 4, 5.00000000000000000000e-01) (2, 4, 5.00000000000000000000e-01) (2, 4, 5.00000000000000000000e-01) (2, 4, 5.00000000000000000000e-01) (2, 4, 5.00000000000000000000e-01) (2, 4, 5.00000000000000000000e-01) (2, 4, 5.00000000000000000000e-01) (2, 4, 5.00000000000000000000e-01) (2, 4, 5.00000000000000000000e-01) (2, 4, 5.00000000000000000000e-01) (2, 4, 5.00000000000000000000e-01) (2, 4, 5.00000000000000000000e-01) (2, 4, 5.00000000000000000000e-01) (2, 4, 5.00000000000000000000e-01) (2, 4, 5.00000000000000000000e-01) (2, 4, 5.00000000000000000000e-01) (2, 4, 5.00000000000000000000e-01) (2, 4, 5.00000000000000000000e-01) (2, 4, 5.00000000000000000000e-01) (2, 4, 5.00000000000000000000e-01) (2, 4, 5.00000000000000000000e-01) (2, 4, 5.00000000000000000000e-01) (2, 4, 5.00000000000000000000e-01) (2, 4, 5.00000000000000000000e-01) (2, 4, 5.00000000000000000000e-01) (0, 0, 0.00000000000000000000e+00) (201, 4, 5.00000000000000000000e-01) (0, 0, 0.00000000000000000000e+00) 
connections (connected_to_neuron, weight)=(0, 1.55706495165503810973e+00) (1, -4.13777340755633105118e-01) (0, -6.42201838053213847068e-01) (1, -1.09152438229120865576e-01) (0, -8.03712793656158330791e-02) (1, -2.18541021499932153205e-01) (0, -1.17916869609403951458e+00) (1, -8.32577734772349531411e-01) (0, 6.24567545786709810152e-01) (1, -1.96319985995004470114e-01) (0, -1.19164310491406499892e+00) (1, -7.68332164010193219283e-01) (0, -4.14175137628701173220e-01) (1, -2.47368221210226807427e-01) (0, 1.25094968247486360013e+00) (1, -5.46476857459040732401e-01) (0, -6.46721621013628733543e-01) (1, -7.31619169173609168455e-02) (0, -1.06903578840338653322e+00) (1, -7.53577634278918440103e-01) (0, -1.17099927120053237672e+00) (1, -6.53746150020743543863e-01) (0, -7.71959680913901435950e-01) (1, -9.03852452693354041502e-02) (0, -1.14174406729781097170e+00) (1, -7.61579319421435529947e-01) (0, 6.94783076480241068573e-01) (1, -8.39592440518834720597e-02) (0, -7.09755230545020210364e-01) (1, -2.20220288371838185393e-01) (0, 1.25617452877832658231e+00) (1, -5.32583610808344931620e-01) (0, -1.14826807213354564752e+00) (1, -8.39541460594322552780e-01) (0, 7.35095694497437723847e-01) (1, -1.49792611459205443625e-01) (0, 1.23295203763319261014e+00) (1, -4.32900109981986469521e-01) (0, 1.55745869248784374328e+00) (1, -3.96345768675974596817e-01) (0, 5.60155384078831697359e-01) (1, -1.71505100885341515982e-01) (0, 7.25992426112504252167e-01) (1, -1.48167721787402922873e-01) (0, 5.57215109303803468599e-01) (1, -1.88621867308328444723e-01) (0, -5.85646812773691904930e-01) (1, -1.88884394353426549040e-01) (0, -6.85460258125281440833e-01) (1, -9.46233292279611976072e-02) (0, -1.25652564150619960870e+00) (1, -7.04524473752856650322e-01) (0, -1.12085880838477081056e+00) (1, -7.43051394406939680337e-01) (0, 1.58353158205426503002e+00) (1, -3.89148179993799914200e-01) (0, 4.45316614804156962748e-01) (1, -2.77482686069893513814e-01) (0, -7.09282357095694648841e-01) (1, -7.25172628817926795408e-02) (0, 1.35202163451325119148e+00) (1, -3.42341838423540711922e-01) (0, -1.27161939275789714898e+00) (1, -5.85225345101237914847e-01) (0, -7.29365501402831184485e-01) (1, -2.09934746956623646819e-01) (0, -6.78778890370345222571e-01) (1, -2.00822210049427601897e-01) (0, -7.24344406126952278235e-01) (1, -2.20513193046845051848e-01) (0, 1.43792428940213512512e+00) (1, -4.10824575082234133561e-01) (0, 1.50466533869183849426e+00) (1, -2.94088464782408465226e-01) (0, -6.31453380889641535667e-01) (1, -7.98700921271936814527e-01) (0, -6.52915199256884348777e-01) (1, -1.68612713104284855925e-01) (0, 1.22471279817892320096e+00) (1, -5.09808646237346008157e-01) (0, -1.08410103373372024294e+00) (1, -7.55166984681273634195e-01) (0, 6.67040228679986135774e-01) (1, -1.57806783774802977804e-01) (0, -6.76500056839930197228e-01) (1, -1.56291890459264448676e-01) (0, -6.90094474553084480384e-01) (1, -1.81883217876947972380e-01) (0, 1.49183431759155560314e+00) (1, -3.45063340470961377182e-01) (0, -7.54788648187136756995e-01) (1, -9.68396385369669210341e-02) (0, 1.36569100611817084712e+00) (1, -3.99342358664444674332e-01) (0, -6.33575116253840220359e-01) (1, -1.19801523273981636031e-01) (0, -1.14104106776558822389e+00) (1, -7.46241136972094709634e-01) (0, 2.25307932463497034847e-01) (1, -6.85041325750964325003e-01) (0, 1.29316518622709519803e+00) (1, -4.30591055845710224403e-01) (0, 2.46186856291223943316e-01) (1, -2.97786463098313414211e-01) (0, 5.45316777959675813570e-01) (1, -1.63950428226898009543e-01) (0, 1.33355474465500534187e+00) (1, -3.15278431419661053781e-01) (0, 1.20366798508239991605e+00) (1, -6.10092097615691386636e-01) (0, -8.16737737356639015296e-01) (1, -7.51395394263636023924e-02) (0, -1.10703592501723235841e+00) (1, -8.21872442547465498208e-01) (0, -6.81655098653780600060e-01) (1, -1.96987341659272841010e-01) (0, -6.69793677485930216697e-01) (1, -2.42128636257852219993e-01) (0, 1.56026474505341838928e+00) (1, -4.34906017587355309129e-01) (0, -1.15731201899576641168e+00) (1, -8.41054703315880169967e-01) (0, -7.16798025964713203528e-01) (1, -1.88398437684572789275e-01) (0, -7.18055400847411262610e-01) (1, -1.21054263895548436247e-01) (0, 5.54161101415963197603e-01) (1, -1.17362201074073579932e-01) (0, 1.34188103669296920906e+00) (1, -3.73573806688956011612e-01) (0, -1.14695095849562145318e+00) (1, -9.02962810566809048751e-01) (0, -1.13752881936871474977e+00) (1, -7.15891696099425489663e-01) (0, -6.63259667314039957908e-01) (1, -2.25083808915818861518e-01) (0, -1.20712008826577132936e+00) (1, -7.36345454637194807290e-01) (0, -1.14978563539826339479e+00) (1, -7.16214455250884229898e-01) (0, -1.11158663875186025649e+00) (1, -8.59148214778091778854e-01) (0, 6.04487538174004579439e-01) (1, -8.09846146497228275285e-02) (0, 2.45394310322612746456e-01) (1, -6.93236837747710388236e-01) (0, 1.45578894138015102477e+00) (1, -3.59751690731219042618e-01) (0, 5.96859689638228330111e-01) (1, -8.22475327643849979387e-02) (0, 3.93172400293239410196e-01) (1, -4.65518651035713881825e-01) (0, -1.16095475234233802553e+00) (1, -8.35525452677394087075e-01) (0, -7.36622590421652900794e-01) (1, -1.79901944583452794157e-01) (0, 7.01358809903474100800e-01) (1, -1.65582507708976617300e-01) (0, 1.30326061689268790644e+00) (1, -2.68663620595266827706e-01) (0, 3.88871373829730804239e-01) (1, -3.52721755829739302968e-01) (0, 1.45636996745742153259e+00) (1, -3.94447967962197054703e-01) (0, -1.17897495461035228814e+00) (1, -8.17083504059826881694e-01) (0, 7.36329555347771891327e-01) (1, -2.12224416295001799826e-01) (0, -1.17543065040159566692e+00) (1, -8.07320445362712080239e-01) (0, -6.95111382602667915442e-01) (1, -1.01157026475466357840e-01) (0, -1.26828297806311107720e+00) (1, -7.10117646958709047844e-01) (0, -6.05211910761343729881e-01) (1, -2.19450419878758046233e-01) (0, -8.08731328546023475745e-01) (1, -1.11537726706064821425e-01) (0, -7.20185566543555366614e-01) (1, -1.22656794374979588591e-01) (0, 6.20597243145318056001e-01) (1, -1.25179290631721340521e-01) (0, 1.30900251287294633329e+00) (1, -4.52660778259726837014e-01) (0, -6.79838654554831167687e-01) (1, -7.11026360450159461424e-02) (0, -1.14413025808859325494e+00) (1, -8.95188085010435452560e-01) (0, -7.36399013399100410560e-01) (1, -2.22297707682646367155e-01) (0, -1.17603609203148229412e+00) (1, -7.82884008769179517984e-01) (0, -9.82268508837060988492e-02) (1, -5.54115698589894067894e-01) (0, 5.77050901785702730074e-01) (1, -2.08570167282531554465e-01) (0, -1.26216000897217250909e+00) (1, -6.01405823137641570852e-01) (0, -1.29108295423317409600e+00) (1, -7.09295400884032534172e-01) (0, -7.74543564616656410315e-01) (1, -1.17734314983881552252e-01) (0, 1.44242539375699352355e+00) (1, -3.60827822790316332657e-01) (0, -7.08587113617873298743e-01) (1, -1.87724480515516850554e-01) (0, 1.21326594966722733915e+00) (1, -4.97104363238307200845e-01) (0, -6.43292260325896037010e-01) (1, -2.32838395552838889335e-01) (0, 1.50134816884673427673e+00) (1, -4.45727650628260307908e-01) (0, -1.23650957850146747674e+00) (1, -6.94578440394282958792e-01) (0, 1.48202220096863079846e+00) (1, -2.57249575660399187882e-01) (0, 1.43967086195624660583e+00) (1, -2.56182771728209246476e-01) (0, 1.31589549773346603523e+00) (1, -3.12582087323836022019e-01) (0, 1.16156861352993256986e+00) (1, -5.74190972095223628457e-01) (0, -1.15787258498513168092e+00) (1, -8.33537086431170637368e-01) (0, -7.18223083614325630286e-01) (1, -1.39282884186304661833e-01) (0, 2.83111868055372639663e-01) (1, -2.88597603699354054996e-01) (0, 5.44978357687802339449e-01) (1, -5.17768187913396488176e-02) (0, -1.15084276475154823061e+00) (1, -6.83313928131247694253e-01) (0, -1.04888479910933440920e+00) (1, -6.75855032686377699136e-01) (0, 1.55291190117276500793e+00) (1, -4.14179783866575945694e-01) (0, -1.21155336332846141900e+00) (1, -7.62341167786633966408e-01) (0, -1.24470374939370609368e+00) (1, -6.14035302307487151907e-01) (0, -9.95422748800902756905e-01) (1, -9.28093194860098225085e-01) (0, -6.85024726985907661536e-01) (1, -1.74778262263334843718e-01) (0, 1.20034838634802110136e+00) (1, -6.02545784508677684244e-01) (0, -1.11720347158753341432e+00) (1, -7.07797996286536390542e-01) (0, -1.15237899251424735780e+00) (1, -7.02717430476332838296e-01) (0, -1.16348938770734733339e+00) (1, -8.35120141092921430825e-01) (0, -1.15944481736743032485e+00) (1, -8.11611364802505841354e-01) (0, -3.33049855926508209247e-01) (1, -6.29967500635890576000e-01) (0, -6.69584666348444712547e-01) (1, -1.32333727663553807341e-01) (0, 5.80363731667609239473e-01) (1, -1.29774138191650234564e-01) (0, 1.33442562811981857429e+00) (1, -2.78253948334982459389e-01) (0, 1.27427130359483964384e+00) (1, -5.80021822547408305581e-01) (0, -8.25661994366860496619e-01) (1, -6.51537944732080848143e-02) (0, -7.45281193255400764563e-01) (1, -1.05032013839281665457e-01) (0, 6.40302628115029359712e-01) (1, -1.36778652528236205344e-01) (0, -1.17670530580126708742e+00) (1, -7.55085385922576124429e-01) (0, -1.19704020602035976495e+00) (1, -7.52758513411667218307e-01) (0, 6.96122541859956034394e-01) (1, -1.71544253686378350698e-01) (0, 3.83247332868465240274e-01) (1, -4.75978238013672561024e-01) (0, -1.24054700714874721612e+00) (1, -7.27026168327743693709e-01) (0, 1.46657234549201342944e+00) (1, -3.23083382651976280808e-01) (0, 1.26615239101721055448e+00) (1, -4.34814104532691425575e-01) (0, -1.13621759248304821099e+00) (1, -9.07162758728649487594e-01) (0, 3.39385273156055156107e-01) (1, -4.65634947148251265858e-01) (0, -1.11557325475060409303e+00) (1, -7.08731077198172743081e-01) (0, 1.60513918965733815014e+00) (1, -4.30254515812567406297e-01) (0, 6.55903041199059511079e-01) (1, -1.40657737711379821066e-01) (0, -1.15421460806179387859e+00) (1, -8.29360849742079908609e-01) (0, 2.32246240940898879268e-01) (1, -6.73019046548026245169e-01) (0, 1.45622144013322185607e+00) (1, -2.90655922696760882218e-01) (0, 6.89413234427781351776e-01) (1, -1.34777270117709929709e-01) (0, -1.12120857219455513643e-01) (1, -2.53537730380651471496e-01) (0, 1.56400219469941448303e+00) (1, -4.19577260122469652970e-01) (0, 1.34477160864483535896e+00) (1, -3.91859345690182436783e-01) (0, -6.66519646502482188133e-01) (1, -2.15500827448571852241e-01) (0, 6.04024182841391588106e-01) (1, -6.85976816806295047746e-02) (0, 1.58057957261479664623e+00) (1, -4.03431546495131243546e-01) (0, 1.25474830883814103544e+00) (1, -5.03071540688964202737e-01) (0, 6.96422293618531473847e-01) (1, -1.33522525289962584738e-01) (0, 1.28429355639292008817e+00) (1, -5.36236541068049521463e-01) (0, -1.28609089240164595896e-02) (1, -2.86755413198019004639e-01) (0, 6.60030700102658296480e-01) (1, -1.67169645288894525015e-01) (0, 5.91922677889676007723e-01) (1, -5.86102975997426639543e-02) (0, -1.20112114899002975221e+00) (1, -7.12152652029181654214e-01) (0, -6.21282135106074107078e-01) (1, -1.11654760426081300917e-01) (0, -6.87036681770300972083e-01) (1, -1.89425284153021428191e-01) (0, 1.27888999127756797236e+00) (1, -2.64138769910505943894e-01) (0, -6.66917351044165385154e-01) (1, -1.02741913980043994559e-01) (0, 7.30065762832970865936e-01) (1, -8.77398772630193224398e-02) (0, -6.61903155005919230369e-01) (1, -2.26123515086377790961e-01) (0, -7.50294659136748420813e-01) (1, -1.66295202559031102263e-01) (0, 1.17506716194821603239e+00) (1, -5.04092292582484557961e-01) (0, 7.40679651335091837616e-01) (1, -1.00179903069446324393e-01) (0, -1.16536723918044149428e+00) (1, -7.49784569462921490768e-01) (0, 1.31567008786808670173e+00) (1, -3.02617540602018841867e-01) (0, -6.19897698021876109031e-01) (1, -2.43497373646296144667e-01) (0, -5.77035439170347941307e-01) (1, -2.57573569303549410048e-01) (0, -1.07566948734366363283e+00) (1, -6.46279446367407972573e-01) (0, -1.11379473752104818374e+00) (1, -7.70703370889809002975e-01) (0, -7.21981573699927436927e-01) (1, -1.08144389575518251601e-01) (0, -6.88265073894476997474e-01) (1, -2.35019551700151929641e-01) (0, 1.37604436271797858637e+00) (1, -3.90639130578211535294e-01) (0, 2.13265737858623377621e-01) (1, -6.78354846897738616995e-01) (0, 1.57741553455270100415e+00) (1, -3.81602418229750384171e-01) (0, -1.28377511185932613458e+00) (1, -6.86418303754211089895e-01) (0, 1.32485736328436165543e+00) (1, -5.80318143313618861612e-01) (0, -8.05956419407343971351e-01) (1, -7.35631157813440711424e-02) (0, 1.32322844284845619889e+00) (1, -5.57383568679782115396e-01) (0, -1.07579629622542327638e+00) (1, -7.77279257361079389810e-01) (0, 6.25961996451230073824e-01) (1, -1.59735999861667449240e-01) (0, -6.89692292212462310097e-01) (1, -2.22276268636978718840e-01) (0, 7.16116025880189188690e-01) (1, -1.41076944628665740256e-01) (0, -1.12192625648104726821e+00) (1, -8.37277214249756207565e-01) (0, 1.17560272085739381254e+00) (1, -5.02945886647197082375e-01) (0, -2.61126185705022328953e-02) (1, -4.37290215439215534943e-01) (0, -7.20451999305701362708e-01) (1, -2.00772235280073735320e-01) (0, 1.31959516722036607206e+00) (1, -4.21901860928031391396e-01) (0, 2.56937077608913433391e-01) (1, -6.94042446675913970999e-01) (0, -6.03949417329775584129e-01) (1, -2.00742093956268879973e-01) (0, 1.22626492548061616361e+00) (1, -4.23342818116637653603e-01) (2, -4.04087750973976325697e-02) (3, 2.02262747750318688800e-01) (4, 7.86074488753453655410e-03) (5, 1.86166283379112618146e-01) (6, -7.87823419705711985861e-02) (7, 2.53928419838463259595e-01) (8, 4.53699485732684485578e-03) (9, -2.64249550810036100412e-02) (10, 1.93624160901344460894e-01) (11, 1.48351336674187372910e-01) (12, 3.26802946353539069957e-01) (13, 1.64302518318208801151e-01) (14, 2.03207333276783419507e-01) (15, -7.11081183621885548618e-02) (16, 1.90966820071252929569e-01) (17, -1.31793277969536135746e-02) (18, 2.51294758806740237134e-01) (19, -6.57468593785764943149e-02) (20, -1.90059221137325075335e-02) (21, -3.43257038655555915541e-02) (22, -8.29687934056603099142e-02) (23, -7.05938718388082753208e-02) (24, -8.12110971347176219259e-02) (25, 1.86613187485825254841e-01) (26, 1.93623427593599989338e-01) (27, 4.79652313200911784019e-01) (28, 1.47348644988033961045e-01) (29, -3.74267994227684211439e-02) (30, -3.03019542849888032579e-03) (31, 1.73064779782187178059e-01) (32, -3.37315591026657313201e-02) (33, 4.75312327651461863365e-01) (34, 1.89126496861490356327e-01) (35, 1.73275986413272964359e-01) (36, 1.73710757593425857426e-01) (37, -3.89885248590820521208e-02) (38, -6.26369507957809518173e-02) (39, 1.97489362501990034504e-01) (40, 1.98536846504247826983e-01) (41, -1.69910448303398423087e-02) (42, 1.56996431605312986024e-01) (43, -8.26511091659071495119e-02) (44, 1.96376748100555581500e-01) (45, 1.95010384271654235722e-01) (46, -5.60813786436432093474e-02) (47, 1.77600560436758148075e-01) (48, -6.30423517872207711532e-02) (49, 1.92755944744384927203e-01) (50, 1.86674398074661629376e-01) (51, -1.33797938811048178209e-01) (52, -2.14073317756828598868e-02) (53, 1.53140764080653699400e-03) (54, -7.45190452472054148947e-02) (55, -5.92042298961990565154e-02) (56, -2.50813620796379345423e-02) (57, 1.75405833587682885577e-01) (58, 1.83354486415897743878e-01) (59, 1.86845071331298989703e-01) (60, 2.04520526990926904132e-01) (61, -5.33069669070518684095e-02) (62, 2.60405619333301974194e-01) (63, 1.76773899893077957035e-01) (64, 1.63141077111276733280e-01) (65, -7.87665914431893016134e-02) (66, -4.77617176224106043669e-02) (67, 2.52787199507271242993e-01) (68, 1.50187942044232053407e-01) (69, 2.11807500288522881915e-01) (70, 1.86184231827770607648e-01) (71, 1.84522871563946144757e-01) (72, 2.61968900154148531811e-01) (73, -6.41969140306793556450e-02) (74, -1.65369695859416632189e-01) (75, -5.11265935350769251677e-02) (76, -6.23780037895523484237e-02) (77, -6.94539085709027317374e-05) (78, 1.81485657284771340070e-01) (79, 1.68936693767818557621e-01) (80, -7.30310238072874318149e-02) (81, -4.70647285453193869875e-02) (82, -6.43882115043034695262e-03) (83, -3.48976643730514735076e-02) (84, 2.58898962924992037671e-01) (85, -6.19366995165350417429e-02) (86, 1.81426514575992958722e-01) (87, 1.74357462966334059162e-01) (88, 4.76597187725981974449e-01) (89, 1.92234065101183099200e-01) (90, 1.77323206976688546588e-01) (91, 1.62117963383707153202e-01) (92, -7.42311920658432627951e-02) (93, -2.13090272594803030459e-02) (94, 2.04719695911443871905e-01) (95, 2.61429403613125277417e-01) (96, 1.83508472244056808353e-01) (97, 1.97678242514645052808e-01) (98, 7.81878189517627372740e-03) (99, -6.74892138377510414360e-02) (100, 4.75207296816787028160e-01) (101, 4.88067647127589487877e-01) (102, 1.67784163455280410648e-01) (103, -4.72405942131393641326e-02) (104, 1.64667686174425231815e-01) (105, -2.27354424705681068541e-02) (106, 2.03212547764814538409e-01) (107, -3.65999190869606208509e-02) (108, 4.73437411395987772789e-01) (109, -4.25098778654449671599e-02) (110, -4.60686029840820521208e-02) (111, -5.76336922098510950896e-02) (112, -2.90920245161232458864e-02) (113, 2.06417736301933718579e-01) (114, 2.02462499688181030155e-01) (115, 1.46334723903308351611e-03) (116, -8.34986786977135325705e-02) (117, 1.56170564548466367372e-01) (118, 1.61704841718710107257e-01) (119, -5.65202831092155646986e-02) (120, 2.54244011531387759106e-01) (121, 4.82918260304412150230e-01) (122, 3.39487199651677784562e-01) (123, 1.88070785546194746418e-01) (124, -2.46193068733391029479e-02) (125, 1.49054485218022031434e-01) (126, 1.69486622170899131623e-01) (127, 2.02824216971908999341e-01) (128, 2.52726708243404818433e-01) (129, 2.80801424469465758793e-02) (130, 2.11598667964971703936e-01) (131, -8.52405275837265496985e-02) (132, -5.51939548899048060271e-02) (133, -2.42233830204185707213e-02) (134, 1.95495888308323068072e-01) (135, 1.90356028924497711063e-01) (136, -7.70728211537682200705e-02) (137, 1.85951244721924202619e-01) (138, 2.68644404302154915509e-01) (139, -7.02799267241956959751e-02) (140, -4.64633066810001514602e-03) (141, 2.57864703128849459546e-01) (142, -4.83158024002426356169e-02) (143, -2.30079996099647743346e-02) (144, 2.60663513730083895581e-01) (145, -7.11784685429298850240e-04) (146, 1.68327445940468528596e-01) (147, -4.67847584548271369642e-02) (148, -8.24277247921311045920e-02) (149, 1.86009053776775734601e-01) (150, -1.16319379644855155909e-01) (151, -6.25633390594833443954e-02) (152, -8.09537551472189476076e-02) (153, 5.38086251689563147688e-03) (154, -4.74013536038673591322e-02) (155, -5.04046173740738123747e-02) (156, 1.95189628467596215655e-01) (157, -7.19596590534530983208e-02) (158, -4.45675401749885749525e-02) (159, -1.92930358162102036368e-02) (160, -6.48903629848959218052e-02) (161, -2.40251379718956215026e-02) (162, 5.89051335448399857736e-03) (163, -9.04655016133787542865e-02) (164, -6.36130418316208229301e-02) (165, 2.04334062228714419263e-01) (166, 1.90532095447815102984e-01) (167, 1.63905033568653213383e-01) (168, -4.37035928241127219485e-02) (169, 2.07779410944021386554e-01) (170, -7.67855427334311058107e-02) (171, 1.78931478128469628741e-01) (172, 1.92323399434599029423e-01) (173, -1.31179219830791296553e-02) (174, -7.02502138087751637485e-02) (175, 2.56270010660206271069e-01) (176, -5.03449978281372279021e-02) (177, 1.97304565177000207354e-01) (178, 1.88684871147188293339e-01) (179, 3.23393907571883632013e-01) (180, 2.35877032236550071564e-01) (181, 1.79892139236244308353e-01) (182, 1.71389737824710952641e-01) (183, -4.83349205900543421599e-02) (184, -1.37678610967858938707e-01) (185, -4.79639469447410773939e-02) (186, 4.78388605324706339683e-01) (187, -2.78654785801284894664e-02) (188, 2.02200283954652892948e-01) (189, -1.55891718317382969167e-02) (190, 1.46085227684471796739e-01) (191, -6.59914385215126381157e-02) (192, 1.84263532708200561405e-01) (193, -7.49270922610762168947e-02) (194, 2.52034869680916262524e-01) (195, -2.70602679599086688722e-02) (196, 7.05396489574084632063e-03) (197, 1.93180096993955718876e-01) (198, -1.78840102602356131045e-02) (199, -1.49439765947326330675e-01) (200, 2.11400869951284570147e-01) (201, -1.12683302510539849056e-02) (202, -1.80933860546406338754e-01) 
