FANN_FLO_2.1
num_layers=3
learning_rate=0.700000
connection_rate=1.000000
network_type=0
learning_momentum=0.000000
training_algorithm=2
train_error_function=1
train_stop_function=0
cascade_output_change_fraction=0.010000
quickprop_decay=-0.000100
quickprop_mu=1.750000
rprop_increase_factor=1.200000
rprop_decrease_factor=0.500000
rprop_delta_min=0.000000
rprop_delta_max=50.000000
rprop_delta_zero=0.100000
cascade_output_stagnation_epochs=12
cascade_candidate_change_fraction=0.010000
cascade_candidate_stagnation_epochs=12
cascade_max_out_epochs=150
cascade_min_out_epochs=50
cascade_max_cand_epochs=150
cascade_min_cand_epochs=50
cascade_num_candidate_groups=2
bit_fail_limit=3.49999999999999977796e-01
cascade_candidate_limit=1.00000000000000000000e+03
cascade_weight_multiplier=4.00000000000000022204e-01
cascade_activation_functions_count=10
cascade_activation_functions=3 5 7 8 10 11 14 15 16 17 
cascade_activation_steepnesses_count=4
cascade_activation_steepnesses=2.50000000000000000000e-01 5.00000000000000000000e-01 7.50000000000000000000e-01 1.00000000000000000000e+00 
layer_sizes=2 201 2 
scale_included=0
neurons (num_inputs, activation_function, activation_steepness)=(0, 0, 0.00000000000000000000e+00) (0, 0, 0.00000000000000000000e+00) (2, 4, 5.00000000000000000000e-01) (2, 4, 5.00000000000000000000e-01) (2, 4, 5.00000000000000000000e-01) (2, 4, 5.00000000000000000000e-01) (2, 4, 5.00000000000000000000e-01) (2, 4, 5.00000000000000000000e-01) (2, 4, 5.00000000000000000000e-01) (2, 4, 5.00000000000000000000e-01) (2, 4, 5.00000000000000000000e-01) (2, 4, 5.00000000000000000000e-01) (2, 4, 5.00000000000000000000e-01) (2, 4, 5.00000000000000000000e-01) (2, 4, 5.00000000000000000000e-01) (2, 4, 5.00000000000000000000e-01) (2, 4, 5.00000000000000000000e-01) (2, 4, 5.00000000000000000000e-01) (2, 4, 5.00000000000000000000e-01) (2, 4, 5.00000000000000000000e-01) (2, 4, 5.00000000000000000000e-01) (2, 4, 5.00000000000000000000e-01) (2, 4, 5.00000000000000000000e-01) (2, 4, 5.00000000000000000000e-01) (2, 4, 5.00000000000000000000e-01) (2, 4, 5.00000000000000000000e-01) (2, 4, 5.00000000000000000000e-01) (2, 4, 5.00000000000000000000e-01) (2, 4, 5.00000000000000000000e-01) (2, 4, 5.00000000000000000000e-01) (2, 4, 5.00000000000000000000e-01) (2, 4, 5.00000000000000000000e-01) (2, 4, 5.00000000000000000000e-01) (2, 4, 5.00000000000000000000e-01) (2, 4, 5.00000000000000000000e-01) (2, 4, 5.00000000000000000000e-01) (2, 4, 5.00000000000000000000e-01) (2, 4, 5.00000000000000000000e-01) (2, 4, 5.00000000000000000000e-01) (2, 4, 5.00000000000000000000e-01) (2, 4, 5.00000000000000000000e-01) (2, 4, 5.00000000000000000000e-01) (2, 4, 5.00000000000000000000e-01) (2, 4, 5.00000000000000000000e-01) (2, 4, 5.00000000000000000000e-01) (2, 4, 5.00000000000000000000e-01) (2, 4, 5.00000000000000000000e-01) (2, 4, 5.00000000000000000000e-01) (2, 4, 5.00000000000000000000e-01) (2, 4, 5.00000000000000000000e-01) (2, 4, 5.00000000000000000000e-01) (2, 4, 5.00000000000000000000e-01) (2, 4, 5.00000000000000000000e-01) (2, 4, 5.00000000000000000000e-01) (2, 4, 5.00000000000000000000e-01) (2, 4, 5.00000000000000000000e-01) (2, 4, 5.00000000000000000000e-01) (2, 4, 5.00000000000000000000e-01) (2, 4, 5.00000000000000000000e-01) (2, 4, 5.00000000000000000000e-01) (2, 4, 5.00000000000000000000e-01) (2, 4, 5.00000000000000000000e-01) (2, 4, 5.00000000000000000000e-01) (2, 4, 5.00000000000000000000e-01) (2, 4, 5.00000000000000000000e-01) (2, 4, 5.00000000000000000000e-01) (2, 4, 5.00000000000000000000e-01) (2, 4, 5.00000000000000000000e-01) (2, 4, 5.00000000000000000000e-01) (2, 4, 5.00000000000000000000e-01) (2, 4, 5.00000000000000000000e-01) (2, 4, 5.00000000000000000000e-01) (2, 4, 5.00000000000000000000e-01) (2, 4, 5.00000000000000000000e-01) (2, 4, 5.00000000000000000000e-01) (2, 4, 5.00000000000000000000e-01) (2, 4, 5.00000000000000000000e-01) (2, 4, 5.00000000000000000000e-01) (2, 4, 5.00000000000000000000e-01) (2, 4, 5.00000000000000000000e-01) (2, 4, 5.00000000000000000000e-01) (2, 4, 5.00000000000000000000e-01) (2, 4, 5.00000000000000000000e-01) (2, 4, 5.00000000000000000000e-01) (2, 4, 5.00000000000000000000e-01) (2, 4, 5.00000000000000000000e-01) (2, 4, 5.00000000000000000000e-01) (2, 4, 5.00000000000000000000e-01) (2, 4, 5.00000000000000000000e-01) (2, 4, 5.00000000000000000000e-01) (2, 4, 5.00000000000000000000e-01) (2, 4, 5.00000000000000000000e-01) (2, 4, 5.00000000000000000000e-01) (2, 4, 5.00000000000000000000e-01) (2, 4, 5.00000000000000000000e-01) (2, 4, 5.00000000000000000000e-01) (2, 4, 5.00000000000000000000e-01) (2, 4, 5.00000000000000000000e-01) (2, 4, 5.00000000000000000000e-01) (2, 4, 5.00000000000000000000e-01) (2, 4, 5.00000000000000000000e-01) (2, 4, 5.00000000000000000000e-01) (2, 4, 5.00000000000000000000e-01) (2, 4, 5.00000000000000000000e-01) (2, 4, 5.00000000000000000000e-01) (2, 4, 5.00000000000000000000e-01) (2, 4, 5.00000000000000000000e-01) (2, 4, 5.00000000000000000000e-01) (2, 4, 5.00000000000000000000e-01) (2, 4, 5.00000000000000000000e-01) (2, 4, 5.00000000000000000000e-01) (2, 4, 5.00000000000000000000e-01) (2, 4, 5.00000000000000000000e-01) (2, 4, 5.00000000000000000000e-01) (2, 4, 5.00000000000000000000e-01) (2, 4, 5.00000000000000000000e-01) (2, 4, 5.00000000000000000000e-01) (2, 4, 5.00000000000000000000e-01) (2, 4, 5.00000000000000000000e-01) (2, 4, 5.00000000000000000000e-01) (2, 4, 5.00000000000000000000e-01) (2, 4, 5.00000000000000000000e-01) (2, 4, 5.00000000000000000000e-01) (2, 4, 5.00000000000000000000e-01) (2, 4, 5.00000000000000000000e-01) (2, 4, 5.00000000000000000000e-01) (2, 4, 5.00000000000000000000e-01) (2, 4, 5.00000000000000000000e-01) (2, 4, 5.00000000000000000000e-01) (2, 4, 5.00000000000000000000e-01) (2, 4, 5.00000000000000000000e-01) (2, 4, 5.00000000000000000000e-01) (2, 4, 5.00000000000000000000e-01) (2, 4, 5.00000000000000000000e-01) (2, 4, 5.00000000000000000000e-01) (2, 4, 5.00000000000000000000e-01) (2, 4, 5.00000000000000000000e-01) (2, 4, 5.00000000000000000000e-01) (2, 4, 5.00000000000000000000e-01) (2, 4, 5.00000000000000000000e-01) (2, 4, 5.00000000000000000000e-01) (2, 4, 5.00000000000000000000e-01) (2, 4, 5.00000000000000000000e-01) (2, 4, 5.00000000000000000000e-01) (2, 4, 5.00000000000000000000e-01) (2, 4, 5.00000000000000000000e-01) (2, 4, 5.00000000000000000000e-01) (2, 4, 5.00000000000000000000e-01) (2, 4, 5.00000000000000000000e-01) (2, 4, 5.00000000000000000000e-01) (2, 4, 5.00000000000000000000e-01) (2, 4, 5.00000000000000000000e-01) (2, 4, 5.00000000000000000000e-01) (2, 4, 5.00000000000000000000e-01) (2, 4, 5.00000000000000000000e-01) (2, 4, 5.00000000000000000000e-01) (2, 4, 5.00000000000000000000e-01) (2, 4, 5.00000000000000000000e-01) (2, 4, 5.00000000000000000000e-01) (2, 4, 5.00000000000000000000e-01) (2, 4, 5.00000000000000000000e-01) (2, 4, 5.00000000000000000000e-01) (2, 4, 5.00000000000000000000e-01) (2, 4, 5.00000000000000000000e-01) (2, 4, 5.00000000000000000000e-01) (2, 4, 5.00000000000000000000e-01) (2, 4, 5.00000000000000000000e-01) (2, 4, 5.00000000000000000000e-01) (2, 4, 5.00000000000000000000e-01) (2, 4, 5.00000000000000000000e-01) (2, 4, 5.00000000000000000000e-01) (2, 4, 5.00000000000000000000e-01) (2, 4, 5.00000000000000000000e-01) (2, 4, 5.00000000000000000000e-01) (2, 4, 5.00000000000000000000e-01) (2, 4, 5.00000000000000000000e-01) (2, 4, 5.00000000000000000000e-01) (2, 4, 5.00000000000000000000e-01) (2, 4, 5.00000000000000000000e-01) (2, 4, 5.00000000000000000000e-01) (2, 4, 5.00000000000000000000e-01) (2, 4, 5.00000000000000000000e-01) (2, 4, 5.00000000000000000000e-01) (2, 4, 5.00000000000000000000e-01) (2, 4, 5.00000000000000000000e-01) (2, 4, 5.00000000000000000000e-01) (2, 4, 5.00000000000000000000e-01) (2, 4, 5.00000000000000000000e-01) (2, 4, 5.00000000000000000000e-01) (2, 4, 5.00000000000000000000e-01) (2, 4, 5.00000000000000000000e-01) (2, 4, 5.00000000000000000000e-01) (2, 4, 5.00000000000000000000e-01) (2, 4, 5.00000000000000000000e-01) (2, 4, 5.00000000000000000000e-01) (2, 4, 5.00000000000000000000e-01) (2, 4, 5.00000000000000000000e-01) (2, 4, 5.00000000000000000000e-01) (2, 4, 5.00000000000000000000e-01) (2, 4, 5.00000000000000000000e-01) (2, 4, 5.00000000000000000000e-01) (2, 4, 5.00000000000000000000e-01) (0, 0, 0.00000000000000000000e+00) (201, 4, 5.00000000000000000000e-01) (0, 0, 0.00000000000000000000e+00) 
connections (connected_to_neuron, weight)=(0, -2.26583670413941318245e+00) (1, -3.28855334495966766806e-01) (0, 3.48205351972156051943e+00) (1, 7.28338188793727359105e-01) (0, -2.11751872885438086058e+00) (1, -4.06897938588252738867e-01) (0, -2.15821335477198061881e+00) (1, -3.94621722979465128223e-01) (0, -2.11236795962831847007e+00) (1, -3.98598149998107553760e-01) (0, 2.99142538460963214320e+00) (1, 7.31737131614456859374e-01) (0, -1.68311939221355411078e+00) (1, -5.39163118133275220956e-01) (0, -2.44985831804436049453e+00) (1, -2.71061571553333935380e-01) (0, 3.20982549662974037119e+00) (1, 7.04709571300949466632e-01) (0, 2.84749137405175822835e+00) (1, 7.35283524588632220187e-01) (0, -1.53881124271871527753e+02) (1, -2.01848358692139628889e-01) (0, -2.51240496615420072501e+00) (1, -2.02036356716997184124e-01) (0, 2.78997472443586680413e+00) (1, 8.75702642943866238490e-01) (0, -2.17823948187744154126e+00) (1, -8.81900761325745019548e-01) (0, 3.19240295161912346344e+00) (1, 7.17237392233717963030e-01) (0, -2.19686999599889576373e+00) (1, -3.04142112021382526876e-01) (0, 3.01833069188686575757e+00) (1, 7.45363433824342336287e-01) (0, 2.94116670621300757560e+00) (1, 8.21378981318709122661e-01) (0, 2.71895621222947125872e+00) (1, 6.66788976478048245333e-01) (0, -1.76568023292685012393e+02) (1, 1.32717781395309497583e+00) (0, -2.06313394505430336423e+00) (1, -8.53154059048044199898e-01) (0, 4.99747922200542316062e+00) (1, -3.33795089273524803186e-01) (0, 3.10828578426868551432e+00) (1, 7.43127823197978876202e-01) (0, -2.17035974128319741894e+00) (1, -4.07508898822418363928e-01) (0, 2.85202593531141124217e+00) (1, 8.61440117610918654201e-01) (0, -2.28610774228900837102e+00) (1, -2.40682280010040439144e-01) (0, -2.27207335660888398721e+00) (1, -2.85069691361530541673e-01) (0, 2.95630105896370309893e+00) (1, 7.62721499416153414508e-01) (0, -8.77429300268768344040e+01) (1, 2.10797121745969651130e+00) (0, 2.46320485035643921279e+00) (1, 4.92621351161720455458e-01) (0, -1.91465742545539163721e+00) (1, -5.82665277504043066514e-01) (0, 3.20909741316273411371e+00) (1, 7.07543120849098317038e-01) (0, 2.57624029329873271976e+00) (1, 6.56153585699114527685e-01) (0, -2.13043419064615324743e+00) (1, -3.40365543763097022634e-01) (0, -2.09027112622953881171e+00) (1, -8.70443240811621499198e-01) (0, 2.19355849505832933843e+00) (1, 6.66822040523353032349e-01) (0, -7.16221709057886712912e+00) (1, -5.33540379844819145916e+00) (0, -1.67220803297438802559e+00) (1, -5.25385275444855803784e-01) (0, -8.89150320026482354763e+00) (1, -2.49248095219413157153e+00) (0, -2.72244348441707861852e+00) (1, -1.90106148463386648295e+00) (0, -2.23023046077297015799e+00) (1, -3.74584941839640472860e-01) (0, 2.91395312097311975919e+00) (1, 8.13511898269604794010e-01) (0, -1.85997898260506788759e+00) (1, -5.64614066239477185860e-01) (0, -2.24566233144382065845e+00) (1, -2.58474396650727467062e-01) (0, 2.43315286681039433248e+00) (1, 5.15829233888386196050e-01) (0, 2.38511120318814162644e+00) (1, 8.66461485755503524331e-01) (0, 2.88546748569560751463e+00) (1, 8.17604789465083192646e-01) (0, 2.90531284774229181522e+00) (1, 8.63963614353059905504e-01) (0, 2.45956705317846369141e+00) (1, 5.14909496966598934087e-01) (0, -2.48695191640147239553e+00) (1, -2.03100872639853824442e-01) (0, 3.13549409171382187367e+00) (1, 4.80817226483248705282e-01) (0, 3.13697030407729693380e+00) (1, 7.18709675368559675057e-01) (0, -2.26331160447208068476e+00) (1, -2.81627299608333825365e-01) (0, -1.85619915864337747813e+00) (1, -6.90607966804290818175e-01) (0, -2.22270340396502108504e+00) (1, -4.03363148968807316841e-01) (0, -2.04308259856402818500e+00) (1, -8.02325928844310753973e-01) (0, 2.37136290746975575416e+00) (1, 8.52818851985363446389e-01) (0, 3.02229808174149683353e+00) (1, 7.17191964372789203530e-01) (0, 2.76043941806035331155e+00) (1, 8.58118053694426619060e-01) (0, -2.45873603796847728375e+00) (1, -2.22280862847501453627e-01) (0, 2.49980217453059916366e+00) (1, 4.82925944773436088830e-01) (0, -2.60756570130493514625e+00) (1, -1.80387084470235037337e+00) (0, 2.94807969974166805827e+00) (1, 7.93752534999690451123e-01) (0, 2.36580161127099453111e+00) (1, 8.90787232896533498483e-01) (0, 9.34804546635291089274e+00) (1, -1.68236172629780700305e+00) (0, -2.54908190478770668719e+00) (1, -2.05686648112493902785e-01) (0, 2.77617456215048497015e+00) (1, 8.96328528608991259574e-01) (0, -2.27047634795822039777e+00) (1, -2.52726839334114272706e-01) (0, -2.01074342592268795471e+00) (1, -8.91309087354668849734e-01) (0, 2.28340057321468536955e+00) (1, 6.01946171034345778317e-01) (0, 2.39883714443833273577e+00) (1, 5.24567619094369774757e-01) (0, 2.83891872230165676072e+00) (1, 7.63364781450111329342e-01) (0, 4.81946192038440734962e+00) (1, -4.03910034125351369294e-01) (0, -2.12626924755972179781e+00) (1, -3.49404598054830983767e-01) (0, -2.12699972775315560014e+00) (1, -3.30926984350140784841e-01) (0, -2.42966237509833220543e+01) (1, 8.23761530198242475365e+00) (0, 2.48755581888058063811e+00) (1, 4.19819713606262745476e-01) (0, 2.96618079520427890827e+00) (1, 7.84257072697963630858e-01) (0, 2.39668859421880364735e+00) (1, 4.86588194957220054881e-01) (0, -2.11170377895010119573e+00) (1, -3.54166260389034703859e-01) (0, -6.76501142712509739852e+00) (1, -5.87898892852826904232e+00) (0, 2.80310163121280320198e+00) (1, 9.02207882173920450164e-01) (0, -2.21898643871853540332e+00) (1, -8.65248407837044708479e-01) (0, -2.08425130523494850365e+00) (1, -8.78361493799149184447e-01) (0, 2.35760717606506498001e+00) (1, 2.87106962836404133732e-01) (0, 4.97721260215882033151e+00) (1, -3.45168814260831458007e-01) (0, 2.91038453213711933998e+00) (1, 8.00531828980391990669e-01) (0, 2.65431354547174924718e+00) (1, 5.98038915200329701527e-01) (0, 1.95594146810082314403e+00) (1, 5.00933296624815671549e-01) (0, -2.20217686628545195049e+00) (1, -2.83633511211509758976e-01) (0, -3.66382518611423165567e+02) (1, 8.79099900514771981364e+00) (0, -2.38089734949397779928e+00) (1, -2.61620657756909069658e-01) (0, -1.87134556456460376950e+00) (1, -8.91504323209892812763e-01) (0, -2.16964299009893668568e+00) (1, -3.71064417508785659994e-01) (0, -2.10424981778283637368e+00) (1, -8.74567961206852539924e-01) (0, -6.15176069227422228636e+00) (1, -6.49762257786354613387e+00) (0, -2.43932628528318007355e+00) (1, -2.17155256107514210706e-01) (0, -2.42220083624423532243e+00) (1, -2.49133270075442225799e-01) (0, -2.26924846309050431969e+00) (1, -3.24173421228822422613e-01) (0, 2.39373761133452234162e+00) (1, 5.50604611021287215777e-01) (0, 4.81453463479788634771e+00) (1, -3.27748192608497135314e-01) (0, -2.18188016753058589003e+00) (1, -2.80386723379548286061e-01) (0, -2.20840438580826470272e+00) (1, -3.66632247374956976582e-01) (0, -1.79130885975462517123e+00) (1, -9.10047618532189406260e-01) (0, 2.38033872370758237125e+00) (1, 8.52357735552219941688e-01) (0, -2.43986075190280571334e+00) (1, -2.44252677848467630861e-01) (0, -1.09276416499800088644e+01) (1, -7.90248421293581415625e+00) (0, -1.52258042302211038077e+02) (1, -1.73839572883663751046e-01) (0, 4.72988677712190863645e+00) (1, -2.67091440295900761637e-01) (0, 3.13516777268955681990e+00) (1, 7.33285422239171369441e-01) (0, 2.16100028416533227471e+01) (1, -7.40524301258513983903e-01) (0, 2.96723310347721325186e+00) (1, 7.79651062729586730171e-01) (0, 2.02268666731551576277e+01) (1, -7.63686469061131911751e-01) (0, 2.40329128995445229222e+00) (1, 8.46158417846494814718e-01) (0, 2.94876190768186274838e+00) (1, 7.98976783221191588780e-01) (0, 1.76816006201529276609e+01) (1, -9.38396248347468930895e-01) (0, 2.41449888415592539559e+00) (1, 5.06420661832573060224e-01) (0, -2.22379642741482053125e+00) (1, -8.63230368094479616481e-01) (0, -1.85541046948815480100e+00) (1, -7.16709511243055708007e-01) (0, -1.86530116204168705529e+00) (1, -8.73852521846613439216e-01) (0, -2.05332730094308058000e+00) (1, -8.87297993060974343749e-01) (0, -1.98297714108560452217e+00) (1, -7.30033867613968490140e-01) (0, 2.33556388771153589090e+00) (1, 5.11512344386538919672e-01) (0, 4.82230748176069390354e+00) (1, -3.57376421182950099187e-01) (0, 2.44756666263749256274e+00) (1, 5.19006546587715167362e-01) (0, -2.18561366370925025393e+00) (1, -3.18509718762810978276e-01) (0, -2.04563749279820461524e+00) (1, -8.58454263352045665592e-01) (0, -1.43379016584960239378e+00) (1, -5.47604250209720588849e-01) (0, -2.29013325719789495594e+00) (1, -2.42154246515087295810e-01) (0, -2.21325583707553352752e+00) (1, -3.08210196947987791205e-01) (0, 3.46252583170729177908e+00) (1, 7.57259902595905365352e-01) (0, 2.30442036368890557085e+00) (1, 6.02175502594003764223e-01) (0, 3.29451566241881632635e+00) (1, 4.16737245274094281200e-01) (0, 3.13855915776798699568e+00) (1, 7.32202115270959352777e-01) (0, -2.20306326277001440772e+00) (1, -8.69955166944491264935e-01) (0, -2.45216292816932934784e+00) (1, -2.59772595563992181322e-01) (0, -1.85127108528270145626e+00) (1, -8.98026148564183279710e-01) (0, 3.01083194069463289111e+00) (1, 7.05231755956805206331e-01) (0, -1.80542570234996468947e+00) (1, -5.09045329989860406705e-01) (0, 3.00485124945918569139e+00) (1, 7.13950566932356034400e-01) (0, 2.95495641609403714156e+00) (1, 7.94557093396029534560e-01) (0, 5.05048403442616677950e+00) (1, -3.70383597379945639361e-01) (0, 2.40982857779090942074e+00) (1, 8.35710637619027196799e-01) (0, 3.04292429244223194829e+00) (1, 8.12017125383329485544e-01) (0, -1.63565304663505401095e+02) (1, -2.63625483506559177282e-01) (0, -2.21359987144611780607e+00) (1, -3.38910415492480188160e-01) (0, -2.13438316452154941416e+00) (1, -3.23782846133168433767e-01) (0, 3.03514989368693521854e+00) (1, 7.17128994235669892099e-01) (0, 2.93682271259652072359e+00) (1, 8.28996015682072373565e-01) (0, -2.14065698766042977752e+00) (1, -3.61662136527960254018e-01) (0, 2.88597770432882816394e+00) (1, 8.29350839617008728233e-01) (0, 2.25849844257514931201e+00) (1, 6.26481966061695261239e-01) (0, -2.19589465522507021333e+00) (1, -3.52031562201207071094e-01) (0, 2.89076873656999522311e+00) (1, 8.62938563474535347275e-01) (0, 2.74332439578240139255e+00) (1, 6.45483129692314472337e-01) (0, -2.41606701605146545475e+00) (1, -2.76398958876713451982e-01) (0, 2.34809228628005328687e+00) (1, 5.47507296018846179031e-01) (0, 2.44708051116892422172e+00) (1, 5.10533890191315342655e-01) (0, -2.42526753013557216931e+00) (1, -2.65993353525265374682e-01) (0, 3.03155126450792744564e+00) (1, 7.23862013831387929308e-01) (0, -2.26194040698701659409e+00) (1, -2.89222216487344474523e-01) (0, -1.85285920103976486928e+00) (1, -8.96456466331521983903e-01) (0, -2.13586847022733117285e+00) (1, -3.32513719598706458669e-01) (0, -2.41711315903228385338e+00) (1, -2.53815439144238153002e-01) (0, -2.23263875636818109882e+00) (1, -8.60759081292235106453e-01) (0, -4.42195230724724552829e+00) (1, -6.77239034802007733305e+00) (0, 2.75337854620319166798e+00) (1, 8.36060027075693379395e-01) (0, -1.76343530172463403005e+00) (1, -5.55857497201204697745e-01) (0, -1.66228447815380775410e+00) (1, -5.31340002422456048059e-01) (0, -2.19242765706680931004e+00) (1, -3.73846290049498486407e-01) (0, -2.05536979750205706097e+00) (1, -8.78622830637489804495e-01) (0, 3.00929249382692809434e+00) (1, 7.22703933700715284161e-01) (0, 2.35107928364600304860e+00) (1, 5.49690301232583444779e-01) (0, 2.89522706490798586998e+00) (1, 8.26100178589482592173e-01) (0, 2.38374581759757697697e+00) (1, 8.27909703954612163912e-01) (0, -7.15459313277290509525e-01) (1, -2.42253320144233708078e+00) (0, 2.96356952451307353869e+00) (1, 7.81695995953787470256e-01) (0, 2.89298430699806763400e+00) (1, 8.29747732045406527490e-01) (0, -2.15676625032604407650e+00) (1, -3.66594318745081360067e-01) (0, 2.32477037142668585545e+00) (1, 8.92133549526792357653e-01) (0, 2.43979696549431590569e+00) (1, 4.91621392608882878950e-01) (0, -2.19991821970108647477e+00) (1, -2.71886365597184376242e-01) (0, -2.12387939883158693988e+00) (1, -6.07060399038545028816e-01) (0, -4.06149874378965858313e+00) (1, -8.19468981679218888559e-01) (0, -1.89025724470614719941e+00) (1, -5.71108086471916798210e-01) (0, -1.85937908330946832791e+00) (1, -6.35124824911769692015e-01) (0, -2.55275995807757771772e+00) (1, -2.10864265185552152149e-01) (0, 2.31774041193587887477e+00) (1, 5.89087415666590730190e-01) (0, -2.35939777159295038800e+00) (1, -3.54170173407065302928e-01) (0, -9.01541455268249336541e+01) (1, 2.09275547308189580065e+00) (0, 2.78311659509146824831e+00) (1, 6.39034464866196971755e-01) (0, -2.35190724917616167389e+00) (1, -2.85124229505642590166e-01) (0, -2.19130228461182641198e+00) (1, -8.72374116977726488109e-01) (0, 2.33321984072581711800e+00) (1, 5.68981018858673581740e-01) (0, 2.24254774199859152617e+00) (1, 6.15783297741898882904e-01) (0, 2.43622418994319112073e+00) (1, 5.07248994091272664697e-01) (0, -1.07532261595570318491e+02) (1, -8.74392908290004911009e+00) (0, 2.77123542425282520796e+00) (1, 6.50529330659721183316e-01) (0, -1.07565172605656854898e+02) (1, -8.67925551757192792479e+00) (0, 2.36103835330266553783e+00) (1, 8.91636956712451245188e-01) (2, 1.45483564859493291754e-01) (3, -7.81508511551155804487e-02) (4, 1.33212149347892633289e-01) (5, 1.32538925446144512099e-01) (6, 1.35474559892667351102e-01) (7, -7.51605596752417531858e-02) (8, 1.11763685692734347082e-02) (9, 1.25825486426864779910e-01) (10, -6.41535958681349743893e-02) (11, -5.69845101183059990491e-02) (12, 1.26396789476831816756e+01) (13, 6.48741004963045153620e-02) (14, -6.99369548989444977938e-02) (15, 7.60445429937947614540e-02) (16, -8.35099998014701555560e-02) (17, 1.21935665096014847486e-01) (18, -5.29451560214164382301e-02) (19, -6.23864835958597291343e-02) (20, -2.71584217166438296465e-02) (21, 9.13171759941142546779e+00) (22, -2.09084358776358584728e-03) (23, -2.71081358284817608428e-02) (24, -5.74541322134243248598e-02) (25, 1.16774763245695981095e-01) (26, -6.47541802955772238803e-02) (27, 1.09449195327109241593e-01) (28, 1.19790399592512988858e-01) (29, -7.94494589822916930100e-02) (30, 5.04396106244565878285e-01) (31, -4.46259088892302924201e-02) (32, 1.02891427227870500827e-02) (33, -4.63498710129486707343e-02) (34, -3.50600475543987669114e-02) (35, 1.18721580940741269772e-01) (36, 1.54470443275875942563e-02) (37, -2.76622877795710819804e-02) (38, 1.50000000000000000000e+03) (39, -1.46952593670981405266e-03) (40, 2.90914454278146210331e-02) (41, 2.19378944348851724622e-02) (42, 1.21304940706366423675e-01) (43, -5.04411624790312637656e-02) (44, 6.04354845482434847176e-03) (45, 1.27845242002216946675e-01) (46, -4.76489407282195132076e-02) (47, -7.94135456272274387057e-02) (48, -6.67388977528720339638e-02) (49, -4.80931119047286678714e-02) (50, -3.58734490990490137441e-02) (51, 1.38934409197745384335e-01) (52, -2.05247747828354171196e-02) (53, -6.43666693046814064605e-02) (54, 1.26819798868292338279e-01) (55, 5.95496823818712842091e-02) (56, 1.10880177011215649840e-01) (57, -2.94621227796454041026e-03) (58, -4.08837128347041625642e-02) (59, -7.09466225295317387545e-02) (60, -6.66900455962330246384e-02) (61, 1.38148223933158564858e-01) (62, -3.70818570334287764267e-02) (63, 4.81544548527348872241e-03) (64, -3.82053354564892005962e-02) (65, -7.51448624850421659227e-02) (66, -4.45117050735897523683e-01) (67, 1.14076058700030194548e-01) (68, -6.14693660596031393739e-02) (69, 1.32352361251560524114e-01) (70, 6.20906247237788672111e-02) (71, -3.08161449590537289689e-02) (72, -4.23841469257674463567e-02) (73, -3.90685701680782079825e-02) (74, -4.12288849379971802933e-02) (75, 1.44746294218548232635e-01) (76, 1.08205849935263345718e-01) (77, 8.35723399282396028909e-01) (78, -2.16475522425519234515e-02) (79, -4.39977856162773323101e-02) (80, -4.14734505873048664437e-02) (81, 1.10842084485548872386e-01) (82, 1.50000000000000000000e+03) (83, -3.61324075861576346491e-02) (84, 5.26176873635062977708e-02) (85, 1.98917577311286397634e-02) (86, -2.15670983933545779010e-02) (87, -3.80437166232302087510e-02) (88, -4.70398622275473923815e-02) (89, -1.65908495284589237173e-02) (90, -4.64891895040831643060e-02) (91, 5.52582842360393386438e-02) (92, 1.96666639356555816853e+00) (93, 1.25224512808738919212e-01) (94, 6.88148017776655726574e-03) (95, 1.15577350891703539704e-01) (96, 1.34336887280228946262e-02) (97, 1.50000000000000000000e+03) (98, 1.28232944055883424372e-01) (99, 1.10917647996371146468e-01) (100, 1.25426234644049255929e-01) (101, -3.47154444330066841440e-02) (102, -2.94955694064461086679e-02) (103, 1.38332867290648087177e-01) (104, 1.18773660272711648056e-01) (105, 3.81555409967814646022e-02) (106, -6.46741133099704296194e-02) (107, 1.23649110713427420882e-01) (108, 1.50000000000000000000e+03) (109, -2.24733687389652416755e+01) (110, -2.57372702674977110737e-02) (111, -7.06943330486549392777e-02) (112, 9.97424532997160800951e-02) (113, -7.87151637197642667365e-02) (114, 9.56428650814084846399e-02) (115, -6.91569264894633800589e-02) (116, -5.54870920897605271471e-02) (117, 1.23012361948626858243e-01) (118, -2.73109305106016900244e-02) (119, 1.90285676911121706678e-02) (120, 1.39065300886735531555e-02) (121, 7.40738319236434062526e-03) (122, 4.78429705839757551944e-02) (123, 4.64821981463336020984e-03) (124, -3.14675965198371390685e-02) (125, -3.54767680746396613101e-02) (126, -3.72294100642057007589e-02) (127, 1.47022084622867060810e-01) (128, -6.16506246443978894387e-04) (129, 9.72693512429151016518e-03) (130, 1.14363642992323780168e-01) (131, 1.16768339794272327237e-01) (132, -6.56800300168290523972e-02) (133, -2.87366042254302289649e-02) (134, -1.83398604878296095366e-02) (135, -6.93378877957595840531e-02) (136, 1.26948173651457978800e-02) (137, 1.18385073702370113846e-01) (138, 1.31453853607156664202e-02) (139, -8.52500113392126168677e-02) (140, 1.63228484903886082377e-03) (141, -8.01354509558927924351e-02) (142, -4.15667952779518318218e-02) (143, -2.79849710623827283018e-02) (144, -5.11461457553985185398e-02) (145, -5.13915701437117414252e-02) (146, -1.92472048774062649557e+01) (147, 1.16843776059740944717e-01) (148, 1.03222444036215513230e-01) (149, -7.20764360218298649752e-02) (150, -5.57704304006697362817e-02) (151, 1.45439913469799092516e-01) (152, -6.31469010301722311063e-02) (153, -3.02537286994788434669e-02) (154, 1.27912591732614600026e-01) (155, -4.59894904571655008252e-02) (156, -3.40952719486570313134e-02) (157, 1.32681615000280389571e-01) (158, -4.33317961486182068320e-02) (159, -4.13114751398409515981e-02) (160, 1.40823401591238350772e-01) (161, -8.78964116125253575040e-02) (162, 1.45606557052715301914e-01) (163, 4.71443752280528618342e-03) (164, 1.05413446833342264175e-01) (165, 1.11106475511019583968e-01) (166, 3.92457162366649237040e-02) (167, 1.50000000000000000000e+03) (168, -7.39942387462764056272e-02) (169, 2.71965384248657620660e-04) (170, 1.31680332297104078082e-02) (171, 1.20447606993311806534e-01) (172, 1.82876918859250468807e-02) (173, -5.68513616647842376373e-02) (174, -3.18794455578657806583e-02) (175, -4.21106598266245621409e-02) (176, -6.15946885467659466240e-02) (177, 3.26795242783506287299e-02) (178, -8.33964752675204618049e-02) (179, -5.37443261888624970735e-02) (180, 1.15227978266352587555e-01) (181, -3.95902022133948136573e-02) (182, -3.02513600151869538335e-02) (183, 1.15756237175148282703e-01) (184, 2.67311822674276763911e-02) (185, 5.00139915683852215311e-02) (186, 9.06065237215904380197e-03) (187, 4.75908940024780558603e-03) (188, 1.14920725741808768539e-01) (189, -4.01908640721640730842e-02) (190, 6.03362675626879785273e-02) (191, -2.01260947579596088941e-01) (192, -4.29011578596434628441e-02) (193, 1.31890524738248832159e-01) (194, 1.58508405018571198186e-02) (195, -3.57152104671331835362e-02) (196, -4.47270457604727195156e-02) (197, -4.40244213502726799980e-02) (198, 1.50000000000000000000e+03) (199, -4.28830641246638333275e-02) (200, 1.50000000000000000000e+03) (201, -5.87435566903235437120e-02) (202, 6.33268838820400525869e-02) 
