FANN_FLO_2.1
num_layers=3
learning_rate=0.700000
connection_rate=1.000000
network_type=0
learning_momentum=0.000000
training_algorithm=2
train_error_function=1
train_stop_function=0
cascade_output_change_fraction=0.010000
quickprop_decay=-0.000100
quickprop_mu=1.750000
rprop_increase_factor=1.200000
rprop_decrease_factor=0.500000
rprop_delta_min=0.000000
rprop_delta_max=50.000000
rprop_delta_zero=0.100000
cascade_output_stagnation_epochs=12
cascade_candidate_change_fraction=0.010000
cascade_candidate_stagnation_epochs=12
cascade_max_out_epochs=150
cascade_min_out_epochs=50
cascade_max_cand_epochs=150
cascade_min_cand_epochs=50
cascade_num_candidate_groups=2
bit_fail_limit=3.49999999999999977796e-01
cascade_candidate_limit=1.00000000000000000000e+03
cascade_weight_multiplier=4.00000000000000022204e-01
cascade_activation_functions_count=10
cascade_activation_functions=3 5 7 8 10 11 14 15 16 17 
cascade_activation_steepnesses_count=4
cascade_activation_steepnesses=2.50000000000000000000e-01 5.00000000000000000000e-01 7.50000000000000000000e-01 1.00000000000000000000e+00 
layer_sizes=2 201 2 
scale_included=0
neurons (num_inputs, activation_function, activation_steepness)=(0, 0, 0.00000000000000000000e+00) (0, 0, 0.00000000000000000000e+00) (2, 4, 5.00000000000000000000e-01) (2, 4, 5.00000000000000000000e-01) (2, 4, 5.00000000000000000000e-01) (2, 4, 5.00000000000000000000e-01) (2, 4, 5.00000000000000000000e-01) (2, 4, 5.00000000000000000000e-01) (2, 4, 5.00000000000000000000e-01) (2, 4, 5.00000000000000000000e-01) (2, 4, 5.00000000000000000000e-01) (2, 4, 5.00000000000000000000e-01) (2, 4, 5.00000000000000000000e-01) (2, 4, 5.00000000000000000000e-01) (2, 4, 5.00000000000000000000e-01) (2, 4, 5.00000000000000000000e-01) (2, 4, 5.00000000000000000000e-01) (2, 4, 5.00000000000000000000e-01) (2, 4, 5.00000000000000000000e-01) (2, 4, 5.00000000000000000000e-01) (2, 4, 5.00000000000000000000e-01) (2, 4, 5.00000000000000000000e-01) (2, 4, 5.00000000000000000000e-01) (2, 4, 5.00000000000000000000e-01) (2, 4, 5.00000000000000000000e-01) (2, 4, 5.00000000000000000000e-01) (2, 4, 5.00000000000000000000e-01) (2, 4, 5.00000000000000000000e-01) (2, 4, 5.00000000000000000000e-01) (2, 4, 5.00000000000000000000e-01) (2, 4, 5.00000000000000000000e-01) (2, 4, 5.00000000000000000000e-01) (2, 4, 5.00000000000000000000e-01) (2, 4, 5.00000000000000000000e-01) (2, 4, 5.00000000000000000000e-01) (2, 4, 5.00000000000000000000e-01) (2, 4, 5.00000000000000000000e-01) (2, 4, 5.00000000000000000000e-01) (2, 4, 5.00000000000000000000e-01) (2, 4, 5.00000000000000000000e-01) (2, 4, 5.00000000000000000000e-01) (2, 4, 5.00000000000000000000e-01) (2, 4, 5.00000000000000000000e-01) (2, 4, 5.00000000000000000000e-01) (2, 4, 5.00000000000000000000e-01) (2, 4, 5.00000000000000000000e-01) (2, 4, 5.00000000000000000000e-01) (2, 4, 5.00000000000000000000e-01) (2, 4, 5.00000000000000000000e-01) (2, 4, 5.00000000000000000000e-01) (2, 4, 5.00000000000000000000e-01) (2, 4, 5.00000000000000000000e-01) (2, 4, 5.00000000000000000000e-01) (2, 4, 5.00000000000000000000e-01) (2, 4, 5.00000000000000000000e-01) (2, 4, 5.00000000000000000000e-01) (2, 4, 5.00000000000000000000e-01) (2, 4, 5.00000000000000000000e-01) (2, 4, 5.00000000000000000000e-01) (2, 4, 5.00000000000000000000e-01) (2, 4, 5.00000000000000000000e-01) (2, 4, 5.00000000000000000000e-01) (2, 4, 5.00000000000000000000e-01) (2, 4, 5.00000000000000000000e-01) (2, 4, 5.00000000000000000000e-01) (2, 4, 5.00000000000000000000e-01) (2, 4, 5.00000000000000000000e-01) (2, 4, 5.00000000000000000000e-01) (2, 4, 5.00000000000000000000e-01) (2, 4, 5.00000000000000000000e-01) (2, 4, 5.00000000000000000000e-01) (2, 4, 5.00000000000000000000e-01) (2, 4, 5.00000000000000000000e-01) (2, 4, 5.00000000000000000000e-01) (2, 4, 5.00000000000000000000e-01) (2, 4, 5.00000000000000000000e-01) (2, 4, 5.00000000000000000000e-01) (2, 4, 5.00000000000000000000e-01) (2, 4, 5.00000000000000000000e-01) (2, 4, 5.00000000000000000000e-01) (2, 4, 5.00000000000000000000e-01) (2, 4, 5.00000000000000000000e-01) (2, 4, 5.00000000000000000000e-01) (2, 4, 5.00000000000000000000e-01) (2, 4, 5.00000000000000000000e-01) (2, 4, 5.00000000000000000000e-01) (2, 4, 5.00000000000000000000e-01) (2, 4, 5.00000000000000000000e-01) (2, 4, 5.00000000000000000000e-01) (2, 4, 5.00000000000000000000e-01) (2, 4, 5.00000000000000000000e-01) (2, 4, 5.00000000000000000000e-01) (2, 4, 5.00000000000000000000e-01) (2, 4, 5.00000000000000000000e-01) (2, 4, 5.00000000000000000000e-01) (2, 4, 5.00000000000000000000e-01) (2, 4, 5.00000000000000000000e-01) (2, 4, 5.00000000000000000000e-01) (2, 4, 5.00000000000000000000e-01) (2, 4, 5.00000000000000000000e-01) (2, 4, 5.00000000000000000000e-01) (2, 4, 5.00000000000000000000e-01) (2, 4, 5.00000000000000000000e-01) (2, 4, 5.00000000000000000000e-01) (2, 4, 5.00000000000000000000e-01) (2, 4, 5.00000000000000000000e-01) (2, 4, 5.00000000000000000000e-01) (2, 4, 5.00000000000000000000e-01) (2, 4, 5.00000000000000000000e-01) (2, 4, 5.00000000000000000000e-01) (2, 4, 5.00000000000000000000e-01) (2, 4, 5.00000000000000000000e-01) (2, 4, 5.00000000000000000000e-01) (2, 4, 5.00000000000000000000e-01) (2, 4, 5.00000000000000000000e-01) (2, 4, 5.00000000000000000000e-01) (2, 4, 5.00000000000000000000e-01) (2, 4, 5.00000000000000000000e-01) (2, 4, 5.00000000000000000000e-01) (2, 4, 5.00000000000000000000e-01) (2, 4, 5.00000000000000000000e-01) (2, 4, 5.00000000000000000000e-01) (2, 4, 5.00000000000000000000e-01) (2, 4, 5.00000000000000000000e-01) (2, 4, 5.00000000000000000000e-01) (2, 4, 5.00000000000000000000e-01) (2, 4, 5.00000000000000000000e-01) (2, 4, 5.00000000000000000000e-01) (2, 4, 5.00000000000000000000e-01) (2, 4, 5.00000000000000000000e-01) (2, 4, 5.00000000000000000000e-01) (2, 4, 5.00000000000000000000e-01) (2, 4, 5.00000000000000000000e-01) (2, 4, 5.00000000000000000000e-01) (2, 4, 5.00000000000000000000e-01) (2, 4, 5.00000000000000000000e-01) (2, 4, 5.00000000000000000000e-01) (2, 4, 5.00000000000000000000e-01) (2, 4, 5.00000000000000000000e-01) (2, 4, 5.00000000000000000000e-01) (2, 4, 5.00000000000000000000e-01) (2, 4, 5.00000000000000000000e-01) (2, 4, 5.00000000000000000000e-01) (2, 4, 5.00000000000000000000e-01) (2, 4, 5.00000000000000000000e-01) (2, 4, 5.00000000000000000000e-01) (2, 4, 5.00000000000000000000e-01) (2, 4, 5.00000000000000000000e-01) (2, 4, 5.00000000000000000000e-01) (2, 4, 5.00000000000000000000e-01) (2, 4, 5.00000000000000000000e-01) (2, 4, 5.00000000000000000000e-01) (2, 4, 5.00000000000000000000e-01) (2, 4, 5.00000000000000000000e-01) (2, 4, 5.00000000000000000000e-01) (2, 4, 5.00000000000000000000e-01) (2, 4, 5.00000000000000000000e-01) (2, 4, 5.00000000000000000000e-01) (2, 4, 5.00000000000000000000e-01) (2, 4, 5.00000000000000000000e-01) (2, 4, 5.00000000000000000000e-01) (2, 4, 5.00000000000000000000e-01) (2, 4, 5.00000000000000000000e-01) (2, 4, 5.00000000000000000000e-01) (2, 4, 5.00000000000000000000e-01) (2, 4, 5.00000000000000000000e-01) (2, 4, 5.00000000000000000000e-01) (2, 4, 5.00000000000000000000e-01) (2, 4, 5.00000000000000000000e-01) (2, 4, 5.00000000000000000000e-01) (2, 4, 5.00000000000000000000e-01) (2, 4, 5.00000000000000000000e-01) (2, 4, 5.00000000000000000000e-01) (2, 4, 5.00000000000000000000e-01) (2, 4, 5.00000000000000000000e-01) (2, 4, 5.00000000000000000000e-01) (2, 4, 5.00000000000000000000e-01) (2, 4, 5.00000000000000000000e-01) (2, 4, 5.00000000000000000000e-01) (2, 4, 5.00000000000000000000e-01) (2, 4, 5.00000000000000000000e-01) (2, 4, 5.00000000000000000000e-01) (2, 4, 5.00000000000000000000e-01) (2, 4, 5.00000000000000000000e-01) (2, 4, 5.00000000000000000000e-01) (2, 4, 5.00000000000000000000e-01) (2, 4, 5.00000000000000000000e-01) (2, 4, 5.00000000000000000000e-01) (2, 4, 5.00000000000000000000e-01) (2, 4, 5.00000000000000000000e-01) (2, 4, 5.00000000000000000000e-01) (2, 4, 5.00000000000000000000e-01) (2, 4, 5.00000000000000000000e-01) (2, 4, 5.00000000000000000000e-01) (2, 4, 5.00000000000000000000e-01) (2, 4, 5.00000000000000000000e-01) (2, 4, 5.00000000000000000000e-01) (2, 4, 5.00000000000000000000e-01) (2, 4, 5.00000000000000000000e-01) (2, 4, 5.00000000000000000000e-01) (2, 4, 5.00000000000000000000e-01) (2, 4, 5.00000000000000000000e-01) (0, 0, 0.00000000000000000000e+00) (201, 4, 5.00000000000000000000e-01) (0, 0, 0.00000000000000000000e+00) 
connections (connected_to_neuron, weight)=(0, -1.16596545283599334342e-01) (1, -3.25187432290319877737e-01) (0, 2.28562098657553114389e-01) (1, -9.53238347211510655965e-02) (0, -2.37438739338446558325e-01) (1, -6.00246189968497545486e-01) (0, -7.82755581846236614396e-01) (1, -3.61113050883939690205e-01) (0, -3.49147842326689272774e-01) (1, -6.94718957660420355360e-01) (0, -6.99783593461945629954e-02) (1, -2.13237407327894784581e-01) (0, 1.72666941499178272501e-01) (1, 7.49853736123412412118e-02) (0, -8.21767712119223836531e-01) (1, -3.52449135786226219746e-01) (0, 9.06984104866432050418e-02) (1, 2.99200004300445264460e-02) (0, 1.61285985922281605021e-01) (1, -4.70692307144702625638e-03) (0, -8.09879830291270641496e-01) (1, -4.38530618256261772725e-01) (0, 3.76069601194729763449e+00) (1, -8.94007217759110162092e+00) (0, -1.58026042036537379687e+01) (1, 2.24914049940298799157e+00) (0, 1.42450433885519395227e-01) (1, 2.60712391099303976427e-02) (0, -8.44700314021694076416e+00) (1, -7.45602491166585390481e-01) (0, -7.74088334652374143730e-01) (1, -3.40370060807397734060e-01) (0, -1.11181052962902580106e+01) (1, 1.05497295605877772218e+00) (0, 3.77785503358034269183e+00) (1, -8.99656684508746629092e+00) (0, -5.86882560652744134089e-01) (1, -8.38802244200575475297e-01) (0, -5.92282413417473230233e-01) (1, -3.33289046572390390555e-01) (0, -1.23915341480201117719e+01) (1, 1.40297189456384541195e+00) (0, -8.77576375487448934187e-01) (1, -3.64574499967055265515e-01) (0, -7.73106573333739666154e-01) (1, -3.90482040053537315938e-01) (0, -2.25424940888686670126e-01) (1, -2.04000356317762976399e-01) (0, 2.19888207232420362924e-01) (1, -7.70805516877801077946e-02) (0, -7.93781677368285421004e-01) (1, -3.91248943215539879414e-01) (0, 1.82257947241728168741e-01) (1, 7.09986275395720761727e-02) (0, -6.56718853026976301379e-01) (1, -8.14852129354345922074e-01) (0, -8.14118811967971089949e-01) (1, -3.97518845206430382344e-01) (0, -7.78038870903442258964e-01) (1, -3.36998427218130003347e-01) (0, -8.26028378787638906111e-01) (1, -3.61588129705121941182e-01) (0, -2.05443750326438467901e-01) (1, -3.80103806675676836324e-01) (0, 2.49132496034567246790e-01) (1, 3.15344518384307881398e-02) (0, -3.30417462685633211983e-01) (1, -6.93603250073106081253e-01) (0, -8.95725426729975104934e+00) (1, -6.03569042131179012145e-01) (0, -9.00853710356356751632e-01) (1, -3.50839340990713066670e-01) (0, -6.02691724103938897272e-01) (1, -7.43385892047751073441e-01) (0, -8.80972365024688008894e-01) (1, -4.05083851820161766621e-01) (0, -4.80265963176978005755e-01) (1, -3.11325498231696695672e-01) (0, -7.77621697994659299980e-01) (1, -3.25650053030183683767e-01) (0, -8.93759312215449464034e-01) (1, -3.51200037243323270886e-01) (0, 3.84935606213083270077e+00) (1, -9.03070352846600066243e+00) (0, -1.89556884770198386114e-01) (1, -3.69519839705233110738e-01) (0, -8.62584291210173992326e-01) (1, -4.42310215836694664571e-01) (0, -6.30668285400023176379e-01) (1, -7.83019732370245580277e-01) (0, -8.92906263377724052077e+00) (1, -5.86820211455100215758e-01) (0, -8.02940664997100261857e-01) (1, -4.12031119620731300923e-01) (0, -9.00140008141993797075e-01) (1, -4.41335769301584190938e-01) (0, 1.73057612692777973429e-01) (1, 4.10509145221084753574e-02) (0, -1.09257964991516018927e+01) (1, 9.79951499131716197155e-01) (0, -7.80473379602431682756e-01) (1, -4.04296444660356468770e-01) (0, 9.29621054882453778934e-02) (1, 7.58246964177459042977e-02) (0, -9.15253663542868745040e-01) (1, -3.70815092629125542256e-01) (0, -1.01947035489276540687e+01) (1, 4.45299946150906067466e-02) (0, -6.05072735947620232722e-01) (1, -7.61111434235441808305e-01) (0, 2.02303332006399549936e-01) (1, -2.63603666463524191621e-02) (0, -4.82155832747710122455e-01) (1, -2.74416603454398666528e-01) (0, -1.64866100256247899436e-01) (1, -1.91451090098623905034e-01) (0, 1.35105122541849503870e-01) (1, -2.64623054900795309785e-02) (0, -8.37830329603540313599e+00) (1, -7.11286182258217158925e-01) (0, -2.20117221777244104208e-01) (1, -1.97152676702742196690e-01) (0, 3.78496898577002660602e+00) (1, -9.03241773506825929019e+00) (0, -7.20450698970183767145e-01) (1, -3.02660481935670744313e-01) (0, 3.76486028224615232318e+00) (1, -8.99937140753692155215e+00) (0, 2.26055425321524061655e-01) (1, -2.46601665058761923555e-02) (0, -6.47531777666047331232e-02) (1, -1.93535419822935678136e-01) (0, 3.74540297629108387412e+00) (1, -8.97012569630362222028e+00) (0, -1.01696298120216024330e+01) (1, 5.87935127697117171364e-02) (0, -9.25871292236449372481e-01) (1, -4.21352287685802406880e-01) (0, -1.90029420950938027213e-01) (1, -5.91734616892249376541e-01) (0, -2.29681427781386837683e-01) (1, -3.42761500449184852712e-01) (0, -5.64977961689581698046e-01) (1, -9.25825316145289067826e-01) (0, -4.08604323909715211327e-02) (1, -2.28249805690054541341e-01) (0, -5.66808986574759310351e-01) (1, -8.99813610746729497514e-01) (0, 3.93906261546101932325e+00) (1, -9.03559178489354231090e+00) (0, -5.83061187440529260506e-01) (1, -3.52244165526572117209e-01) (0, -8.91084328945932746535e+00) (1, -5.74295427843802608336e-01) (0, -3.27879385152388125313e-01) (1, -6.36135696308524400955e-01) (0, -2.06823968389559548209e-01) (1, -6.57807825939566881424e-01) (0, 1.75154288029138904825e-01) (1, 7.98639243802398007821e-02) (0, -1.28493013982577813925e-01) (1, -2.68989811362032371633e-01) (0, -6.07213466567050774714e-01) (1, -7.40226965083944921098e-01) (0, 2.07551461374227919077e-01) (1, -2.07322874704033190130e-02) (0, -4.91069766978514565814e-01) (1, -2.91054867514419168817e-01) (0, -3.32472474375296145332e-01) (1, -6.32137774364859850174e-01) (0, -8.53991091297105764379e-02) (1, -3.90012363613848223043e-01) (0, -8.40608685008274925110e+00) (1, -6.69451093975393596303e-01) (0, -9.78648245380357717504e-02) (1, -3.01092545212511497610e-01) (0, -1.05626071994109532737e-01) (1, -3.44436510176662880056e-01) (0, -8.87360090497138154220e-01) (1, -3.63601567155054039571e-01) (0, -5.74460926562895601855e-01) (1, -9.06016010477411759538e-01) (0, 1.80230497895277869125e-01) (1, -5.22244202346451835695e+00) (0, 3.78554904402961733823e+00) (1, -9.03527603918529997884e+00) (0, -4.81953907112372292865e-01) (1, -2.80577324637221903192e-01) (0, -6.37085343808283521838e-01) (1, -8.34586191608774785600e-01) (0, 3.75367372425069767417e+00) (1, -8.96363336467959115339e+00) (0, -9.66314523687419502096e+00) (1, 2.10970744000627263848e-01) (0, -3.81108999298051392968e-02) (1, -2.16851430655722238194e-01) (0, -8.88711959775743842727e+00) (1, -6.50128979429476894225e-01) (0, -8.33596589151026967635e-01) (1, -3.60427761381795830342e-01) (0, -2.31588923433352411596e-01) (1, -6.82244653688580782180e-01) (0, -8.85328403767404914504e+00) (1, -5.76069187566512264098e-01) (0, -2.10967469219966452521e-01) (1, -2.17277022720579721105e-01) (0, -1.03300002438620239786e+01) (1, 1.12972480841649305927e-01) (0, -5.69291803151717012987e-01) (1, -8.28616711928713445268e-01) (0, 2.41092783128683485483e-01) (1, -9.19987002053887364950e-02) (0, -3.51830908158350497139e-01) (1, -5.89362694756896288162e-01) (0, 3.77398475946655276303e+00) (1, -8.99605338150478850423e+00) (0, 3.77673496825185139869e+00) (1, -8.87635030227807320102e+00) (0, -1.91829242804575722525e-01) (1, -6.41512713270098955398e-01) (0, 2.47052010809843486383e-01) (1, 6.48036038836806577157e-02) (0, -4.72464889333680665429e-02) (1, -3.58799206734900011373e-01) (0, -3.09943885603476187995e-01) (1, -5.94186811582953722244e-01) (0, -5.72623896509756868944e-01) (1, -8.30976757838595037065e-01) (0, 3.88003276062693958082e+00) (1, -8.95031860846188820346e+00) (0, 3.95254558844056491651e+00) (1, -9.02725385504868604869e+00) (0, -7.98958340767028096785e-01) (1, -3.95449513500860161397e-01) (0, -8.13354598465564015974e-01) (1, -3.53318327969243950459e-01) (0, -9.14253397097586906206e-01) (1, -4.44988923078706688496e-01) (0, -1.02342083153918892435e+01) (1, 8.78539808473713240700e-02) (0, -3.35179575779963045967e-01) (1, -7.30042648283465323011e-01) (0, -8.54886325183512929549e-01) (1, -3.77032386070421166036e-01) (0, -8.76676516714694264998e-01) (1, -4.04734661734035439107e-01) (0, 1.27847746675674861505e-01) (1, -1.23646498114169615251e-03) (0, -8.82179809841515782942e-01) (1, -2.98563511973550688161e-01) (0, -1.10752305353644864283e+01) (1, 8.63849374915914069994e-01) (0, -1.47692988817496678733e-01) (1, -3.63006147266630663228e-01) (0, -9.22019870091763138475e+00) (1, -1.46199825669115623938e+00) (0, -8.86061594542322517043e+00) (1, -6.03362944170706905211e-01) (0, 1.59723487412397724405e-01) (1, -6.56381735244423725195e-02) (0, -3.10494777807522437385e-01) (1, -6.52997649149806291824e-01) (0, -1.01889538762763631752e+01) (1, 7.93409027538425765114e-02) (0, -1.01977230010226858070e+01) (1, 9.66001727066166243629e-02) (0, -6.61550014418613274714e-01) (1, -7.74695139064657811723e-01) (0, -6.28587765430446032688e-01) (1, -8.65503202810156468949e-01) (0, -9.28621206929009446185e+00) (1, -5.72015078487555395093e-01) (0, -8.18592341724040273299e-01) (1, -3.84083399480512566182e-01) (0, -8.35087776229814504614e-02) (1, -2.19105842233900643956e-01) (0, -2.83620410659838340095e-01) (1, -5.75508787171752245193e-01) (0, 4.02348233201155558447e+00) (1, -8.96327965409605020852e+00) (0, -6.21414741312499407933e-01) (1, -9.08499318792688859148e-01) (0, -1.01545088288978231361e+01) (1, -2.76475619457894295980e-03) (0, -3.58616292522386109765e-02) (1, -2.13589238644842721593e-01) (0, 2.59376954948370430643e-01) (1, 1.00834852418273529517e-02) (0, 1.68807578002874714151e-01) (1, 1.06912365516990265357e-02) (0, -8.93534492608366370803e+00) (1, -5.73269497796767391051e-01) (0, 1.40467893993322712198e-01) (1, -9.44110044875771520223e-02) (0, -6.19169741076480706354e-01) (1, -8.89417268022167806230e-01) (0, -7.41654773746394901934e+00) (1, -1.04257207633432180671e+00) (0, -8.98075421806631446486e+00) (1, -5.67263674184554256286e-01) (0, -8.55723047167545480818e+00) (1, -5.99874048236696544301e-01) (0, 1.80627275919382435099e-01) (1, 6.42149037083953183602e-02) (0, -1.41458342973990819358e-01) (1, -3.77329061449770464254e-01) (0, -2.12806726996703637900e-01) (1, -3.29626149208549934500e-01) (0, -7.69323094000815776994e-01) (1, -4.01560513234069771382e-01) (0, -2.21348817651076806845e-01) (1, -2.96589235485796409719e-01) (0, -2.18602772061629785361e-01) (1, -3.43764993072752433889e-01) (0, -1.20698836667552580337e+01) (1, 1.37767144394080998104e+00) (0, 8.36173589811695094909e-02) (1, -5.19954989851363258424e+00) (0, -9.04799567642809998702e-01) (1, -2.68966095453431863760e-01) (0, -8.06263631393908886125e-01) (1, -4.60900412803819659047e-01) (0, -2.75415540733862540534e-01) (1, -6.76358490126044542556e-01) (0, -1.23838331459587447370e+01) (1, 1.43381690707962872189e+00) (0, -7.44152010151557430362e+00) (1, -9.69273861746598686118e-01) (0, -6.04596766740431501574e-01) (1, -7.98861410155165319047e-01) (0, -8.98016163613853812819e+00) (1, -6.07775222703688777770e-01) (0, -2.22704210379648992468e-01) (1, -5.56831582324416429763e-01) (0, -1.03259900731638580851e+01) (1, 1.11853522845280897724e-01) (0, 4.09898103960404291968e+00) (1, -9.05670875013915832596e+00) (0, -5.14864653394654786522e-02) (1, -2.20178174496893502843e-01) (0, -8.51824973807221574873e+00) (1, -6.50662160221426311146e-01) (0, -1.02238691074446350626e+01) (1, 5.89799560985691390114e-02) (0, -9.26616519735292409887e-02) (1, -2.51396256209616142385e-01) (0, -6.01136267230943238671e-02) (1, -2.16813879729513742101e-01) (0, -1.41931520203465499907e-01) (1, -2.69192003020095327326e-01) (0, -2.83283704021502158454e-01) (1, -7.16453707652003557449e-01) (0, 1.13824584251110416666e-01) (1, -8.84726607838303563680e-02) (0, -1.61277692024512669944e-01) (1, -2.81180361927751976125e-01) (0, -4.16271865413621461327e-02) (1, -3.15238642216925102346e-01) (0, -1.01708099690869939735e+01) (1, 2.39406504116184623565e-02) (0, -6.30613392030234698460e-01) (1, -9.10289313330519211931e-01) (0, -8.26884733620288137068e-01) (1, -3.54368859833410210225e-01) (0, 2.15123645542658697982e-01) (1, -5.17348767817862587037e+00) (0, -1.35756428390255319272e+01) (1, 1.94899614501184914594e+00) (0, -9.33057915676918625536e+00) (1, -1.35585145826007180681e+00) (0, -8.52563506176471141984e-01) (1, -4.22949464923074669453e-01) (0, -8.05049324515464070906e-01) (1, -3.66566466098955101582e-01) (0, -7.75632782092093853166e-01) (1, -4.48330225354364397816e-01) (0, -2.08226465681124517371e-01) (1, -6.29409207837493211990e-01) (0, -2.26226511602206720175e-01) (1, -2.75974298537973838918e-01) (0, -8.42880884292723897566e-01) (1, -4.01643590933015770528e-01) (0, 3.72102400602569538535e+00) (1, -8.90752923363663384748e+00) (0, -1.03107576293543488077e+01) (1, 1.23701093383801752346e-01) (0, -2.52664984264898917488e-01) (1, -7.07594520287425310379e-01) (0, -7.71861043187568540702e-01) (1, -3.06420134311845671071e-01) (0, -8.96726580443980347823e-01) (1, -3.86093305355241722676e-01) (0, -1.01755905149177205971e+01) (1, 7.72019602737552962379e-02) (0, -5.64332666904082236314e-01) (1, -8.80221236183512334428e-01) (0, -8.72741634133460286726e-01) (1, -2.71205337649514932608e-01) (0, -7.42684514018958541470e+00) (1, -1.28363803403803444780e+00) (2, -6.69825216481368945765e-02) (3, 9.13674569091170729607e-02) (4, -5.44765077074733788942e-02) (5, 6.08471152915930624250e-02) (6, -5.15855952163853798131e-02) (7, -8.20828368613403525078e-02) (8, 1.00452516075071662804e-01) (9, 9.74856910775970773864e-03) (10, 9.83142739495604933708e-02) (11, 1.00906181927618354699e-01) (12, 4.28641370914579836193e-02) (13, -1.90721992193345819544e+01) (14, 4.12165475840508399585e+00) (15, 9.23838204106658400505e-02) (16, 5.76604574124059340856e-02) (17, 2.27663896463514425772e-02) (18, 1.85888060733896409715e-01) (19, 8.09159598262424708537e+01) (20, -3.49763139148869597883e-02) (21, 5.64117477277598505792e-02) (22, 3.85006039904884522773e-01) (23, 3.19261759288199317708e-02) (24, 1.49126318826651518834e-02) (25, -5.87240373441856311487e-02) (26, 9.17179173192351759880e-02) (27, 1.34473559989905303014e-02) (28, 1.01614523526129096886e-01) (29, -3.27384202738919202758e-02) (30, 4.69894228115057890904e-02) (31, 2.28045962236524679678e-02) (32, 2.47545897729285029054e-02) (33, -8.23807036230247702324e-02) (34, 9.46681160048812309071e-02) (35, -5.51124951800027046422e-02) (36, 6.55643322651054544226e-02) (37, 4.17154490716345471846e-02) (38, -3.51197822948613250227e-02) (39, 2.34034774436926752694e-02) (40, 3.33055005410990700998e-02) (41, 4.94846932075620887792e-02) (42, 3.70524585015662016874e-02) (43, -1.90713697983507906031e+01) (44, -7.03398426720779623711e-02) (45, 4.47665981433988946492e-02) (46, -3.22408406993069593383e-02) (47, 6.94206708256866478202e-02) (48, 6.35622076175809680443e-02) (49, 4.63333062313200372273e-02) (50, 1.00129607912000984093e-01) (51, 1.13976014195040109556e-01) (52, 5.97137925758337712034e-02) (53, 1.01440686579641670129e-01) (54, 1.78238063819296313484e-02) (55, 2.64014355056873095684e-01) (56, -3.39743374844708456717e-02) (57, 9.73591244181960524529e-02) (58, 4.68736187557063227471e-02) (59, -7.81683167168777670586e-02) (60, 9.17534863910048903435e-02) (61, 7.00616341718722501763e-02) (62, -6.56670918414276327812e-02) (63, 8.09335411624427081279e+01) (64, 3.92365259348266548489e-02) (65, 8.09302593381519557170e+01) (66, 9.77329349479049147575e-02) (67, -5.68136339733283854403e-02) (68, -1.90664252503399644922e+01) (69, 2.64902009778610003643e-01) (70, 6.55070922754407841682e-02) (71, -3.30672366270701942326e-02) (72, -8.14481293508690085137e-02) (73, -3.28183053990521375609e-02) (74, -6.01832410046737598108e-02) (75, -3.39570968409695639334e-02) (76, -1.19079130889344668276e+02) (77, 7.53214553932032154782e-02) (78, 6.89961218421127342459e-02) (79, -5.20330637236801202272e-02) (80, -4.96844315567642191844e-02) (81, 8.66302734574645461052e-02) (82, -5.92313026735465930628e-02) (83, -3.46528581341424071760e-02) (84, 9.34938675126403273552e-02) (85, 8.34679053167185353024e-02) (86, -5.11783591946331078981e-02) (87, -7.17580010840576376641e-02) (88, 6.62904631980944791803e-02) (89, -4.77392365882079935946e-02) (90, -7.38752474734466757500e-02) (91, 1.68331771857626495692e-02) (92, -3.15167783757367148123e-02) (93, 2.59068187126792643937e+01) (94, -1.90811673788909708094e+01) (95, 4.80431959966502453163e-02) (96, -3.45640062352337920637e-02) (97, -1.90794461234097276758e+01) (98, 2.92927148809526971540e-01) (99, -7.07583417842071737969e-02) (100, 6.83707797114517096260e-02) (101, 9.64482722352814035582e-03) (102, -4.55073423227039253192e-02) (103, 6.53056630079414529577e-02) (104, -6.42618080327194557411e-02) (105, 2.68934864245467808441e-01) (106, -3.06428103705563628645e-02) (107, 9.08837127999633231923e-02) (108, -5.96366702576794777135e-02) (109, -1.90757089866881166529e+01) (110, -1.19078234472740149386e+02) (111, -4.49082655558269358553e-02) (112, 9.33772510251372755974e-02) (113, -6.26712655374687260812e-02) (114, -4.96282137473789131121e-02) (115, -3.21128918787159794990e-02) (116, -1.19083657899368262179e+02) (117, -1.19075741433966612703e+02) (118, 2.02035424842810645840e-02) (119, 2.39441305167563227296e-02) (120, 6.29522434852720080833e-02) (121, 2.59931481593242363903e-01) (122, -5.47175399025597725133e-02) (123, 3.78411471612341704374e-02) (124, 2.78576729431128725101e-02) (125, 9.54562014302581252068e-02) (126, 2.13113998520893799249e-02) (127, 2.07547204722376033015e-01) (128, -7.63190006563347067559e-02) (129, 6.37968093698067922892e-02) (130, 6.44825079624321007010e-02) (131, 8.81187206467956007927e-02) (132, -5.60510724326339776491e-02) (133, 2.64814651721111071758e-01) (134, 2.62705235891929400616e-01) (135, -3.62791112621941580496e-02) (136, -3.96782449444451415510e-02) (137, 7.06881558260882697509e-02) (138, 4.42213235034918730748e-02) (139, -6.74905171343963689035e-02) (140, -4.67945344289508735613e-02) (141, 1.91647959368955696391e+02) (142, -3.06829093953290069074e-02) (143, 2.61620453708759026501e-01) (144, -5.45826172182243204989e-02) (145, 9.71049624995558580132e-02) (146, 1.01927731033262580773e-01) (147, 6.94573574845459007499e-02) (148, 1.00222144123014778039e-01) (149, -3.42195733448185934744e-02) (150, -2.85167061852167891267e-01) (151, 6.05042108480598542219e-02) (152, 6.11472752579737474643e-02) (153, 9.75885575970977248161e-02) (154, -8.33434229442756857598e-02) (155, -7.33385672518890585625e-02) (156, 4.29005888833975737584e-02) (157, -6.50052865693252768242e-02) (158, -6.42975857207458839637e-02) (159, 3.63554544176886651474e-01) (160, 1.53061213827822868438e+01) (161, 4.52456389717562860314e-04) (162, 2.07638523958326472185e-02) (163, -4.59004573067394172625e-02) (164, 3.79741352117663799604e-01) (165, -9.50671531938330538480e-01) (166, -3.56445304115929686994e-02) (167, 6.36295654956962608573e-02) (168, -4.73917612472206095653e-02) (169, 2.69983049176746037201e-01) (170, 7.84055540515112436850e+00) (171, -8.08140178868454184258e-02) (172, 6.18566897400904536219e-02) (173, 2.65986300223460925274e-01) (174, -7.77031620690506186211e-02) (175, -7.75287737795990195000e-02) (176, 4.05203288754791418613e-02) (177, -4.22548174401489243235e-02) (178, 9.33416372498839796990e-02) (179, -6.14479919621627734827e-02) (180, -7.69112696597259726250e-02) (181, 2.64061658793082965069e-01) (182, -3.89513998290219390364e-02) (183, 1.93340092666037174918e-02) (184, 1.07952041322789735744e+01) (185, 1.54462128960712297143e+00) (186, 8.00405325774870973765e-02) (187, 5.68965009830595391804e-02) (188, 7.30580685209107193873e-03) (189, 2.26556740186811544913e-02) (190, -4.96817828753620127635e-02) (191, -5.59428026625793314852e-02) (192, 1.33815673723196911643e-02) (193, -1.90704830525998865198e+01) (194, 2.70706418596320774750e-01) (195, -5.56561208804813439821e-02) (196, 3.73951576135755914265e-02) (197, 5.43888477220511382115e-02) (198, 2.50210753791919204847e-01) (199, -3.10476898213543975324e-02) (200, 5.70429622895605517585e-02) (201, 3.21470702810035258157e-02) (202, 9.79294961652129591911e-02) 
