FANN_FLO_2.1
num_layers=3
learning_rate=0.700000
connection_rate=1.000000
network_type=0
learning_momentum=0.000000
training_algorithm=2
train_error_function=1
train_stop_function=0
cascade_output_change_fraction=0.010000
quickprop_decay=-0.000100
quickprop_mu=1.750000
rprop_increase_factor=1.200000
rprop_decrease_factor=0.500000
rprop_delta_min=0.000000
rprop_delta_max=50.000000
rprop_delta_zero=0.100000
cascade_output_stagnation_epochs=12
cascade_candidate_change_fraction=0.010000
cascade_candidate_stagnation_epochs=12
cascade_max_out_epochs=150
cascade_min_out_epochs=50
cascade_max_cand_epochs=150
cascade_min_cand_epochs=50
cascade_num_candidate_groups=2
bit_fail_limit=3.49999999999999977796e-01
cascade_candidate_limit=1.00000000000000000000e+03
cascade_weight_multiplier=4.00000000000000022204e-01
cascade_activation_functions_count=10
cascade_activation_functions=3 5 7 8 10 11 14 15 16 17 
cascade_activation_steepnesses_count=4
cascade_activation_steepnesses=2.50000000000000000000e-01 5.00000000000000000000e-01 7.50000000000000000000e-01 1.00000000000000000000e+00 
layer_sizes=2 201 2 
scale_included=0
neurons (num_inputs, activation_function, activation_steepness)=(0, 0, 0.00000000000000000000e+00) (0, 0, 0.00000000000000000000e+00) (2, 4, 5.00000000000000000000e-01) (2, 4, 5.00000000000000000000e-01) (2, 4, 5.00000000000000000000e-01) (2, 4, 5.00000000000000000000e-01) (2, 4, 5.00000000000000000000e-01) (2, 4, 5.00000000000000000000e-01) (2, 4, 5.00000000000000000000e-01) (2, 4, 5.00000000000000000000e-01) (2, 4, 5.00000000000000000000e-01) (2, 4, 5.00000000000000000000e-01) (2, 4, 5.00000000000000000000e-01) (2, 4, 5.00000000000000000000e-01) (2, 4, 5.00000000000000000000e-01) (2, 4, 5.00000000000000000000e-01) (2, 4, 5.00000000000000000000e-01) (2, 4, 5.00000000000000000000e-01) (2, 4, 5.00000000000000000000e-01) (2, 4, 5.00000000000000000000e-01) (2, 4, 5.00000000000000000000e-01) (2, 4, 5.00000000000000000000e-01) (2, 4, 5.00000000000000000000e-01) (2, 4, 5.00000000000000000000e-01) (2, 4, 5.00000000000000000000e-01) (2, 4, 5.00000000000000000000e-01) (2, 4, 5.00000000000000000000e-01) (2, 4, 5.00000000000000000000e-01) (2, 4, 5.00000000000000000000e-01) (2, 4, 5.00000000000000000000e-01) (2, 4, 5.00000000000000000000e-01) (2, 4, 5.00000000000000000000e-01) (2, 4, 5.00000000000000000000e-01) (2, 4, 5.00000000000000000000e-01) (2, 4, 5.00000000000000000000e-01) (2, 4, 5.00000000000000000000e-01) (2, 4, 5.00000000000000000000e-01) (2, 4, 5.00000000000000000000e-01) (2, 4, 5.00000000000000000000e-01) (2, 4, 5.00000000000000000000e-01) (2, 4, 5.00000000000000000000e-01) (2, 4, 5.00000000000000000000e-01) (2, 4, 5.00000000000000000000e-01) (2, 4, 5.00000000000000000000e-01) (2, 4, 5.00000000000000000000e-01) (2, 4, 5.00000000000000000000e-01) (2, 4, 5.00000000000000000000e-01) (2, 4, 5.00000000000000000000e-01) (2, 4, 5.00000000000000000000e-01) (2, 4, 5.00000000000000000000e-01) (2, 4, 5.00000000000000000000e-01) (2, 4, 5.00000000000000000000e-01) (2, 4, 5.00000000000000000000e-01) (2, 4, 5.00000000000000000000e-01) (2, 4, 5.00000000000000000000e-01) (2, 4, 5.00000000000000000000e-01) (2, 4, 5.00000000000000000000e-01) (2, 4, 5.00000000000000000000e-01) (2, 4, 5.00000000000000000000e-01) (2, 4, 5.00000000000000000000e-01) (2, 4, 5.00000000000000000000e-01) (2, 4, 5.00000000000000000000e-01) (2, 4, 5.00000000000000000000e-01) (2, 4, 5.00000000000000000000e-01) (2, 4, 5.00000000000000000000e-01) (2, 4, 5.00000000000000000000e-01) (2, 4, 5.00000000000000000000e-01) (2, 4, 5.00000000000000000000e-01) (2, 4, 5.00000000000000000000e-01) (2, 4, 5.00000000000000000000e-01) (2, 4, 5.00000000000000000000e-01) (2, 4, 5.00000000000000000000e-01) (2, 4, 5.00000000000000000000e-01) (2, 4, 5.00000000000000000000e-01) (2, 4, 5.00000000000000000000e-01) (2, 4, 5.00000000000000000000e-01) (2, 4, 5.00000000000000000000e-01) (2, 4, 5.00000000000000000000e-01) (2, 4, 5.00000000000000000000e-01) (2, 4, 5.00000000000000000000e-01) (2, 4, 5.00000000000000000000e-01) (2, 4, 5.00000000000000000000e-01) (2, 4, 5.00000000000000000000e-01) (2, 4, 5.00000000000000000000e-01) (2, 4, 5.00000000000000000000e-01) (2, 4, 5.00000000000000000000e-01) (2, 4, 5.00000000000000000000e-01) (2, 4, 5.00000000000000000000e-01) (2, 4, 5.00000000000000000000e-01) (2, 4, 5.00000000000000000000e-01) (2, 4, 5.00000000000000000000e-01) (2, 4, 5.00000000000000000000e-01) (2, 4, 5.00000000000000000000e-01) (2, 4, 5.00000000000000000000e-01) (2, 4, 5.00000000000000000000e-01) (2, 4, 5.00000000000000000000e-01) (2, 4, 5.00000000000000000000e-01) (2, 4, 5.00000000000000000000e-01) (2, 4, 5.00000000000000000000e-01) (2, 4, 5.00000000000000000000e-01) (2, 4, 5.00000000000000000000e-01) (2, 4, 5.00000000000000000000e-01) (2, 4, 5.00000000000000000000e-01) (2, 4, 5.00000000000000000000e-01) (2, 4, 5.00000000000000000000e-01) (2, 4, 5.00000000000000000000e-01) (2, 4, 5.00000000000000000000e-01) (2, 4, 5.00000000000000000000e-01) (2, 4, 5.00000000000000000000e-01) (2, 4, 5.00000000000000000000e-01) (2, 4, 5.00000000000000000000e-01) (2, 4, 5.00000000000000000000e-01) (2, 4, 5.00000000000000000000e-01) (2, 4, 5.00000000000000000000e-01) (2, 4, 5.00000000000000000000e-01) (2, 4, 5.00000000000000000000e-01) (2, 4, 5.00000000000000000000e-01) (2, 4, 5.00000000000000000000e-01) (2, 4, 5.00000000000000000000e-01) (2, 4, 5.00000000000000000000e-01) (2, 4, 5.00000000000000000000e-01) (2, 4, 5.00000000000000000000e-01) (2, 4, 5.00000000000000000000e-01) (2, 4, 5.00000000000000000000e-01) (2, 4, 5.00000000000000000000e-01) (2, 4, 5.00000000000000000000e-01) (2, 4, 5.00000000000000000000e-01) (2, 4, 5.00000000000000000000e-01) (2, 4, 5.00000000000000000000e-01) (2, 4, 5.00000000000000000000e-01) (2, 4, 5.00000000000000000000e-01) (2, 4, 5.00000000000000000000e-01) (2, 4, 5.00000000000000000000e-01) (2, 4, 5.00000000000000000000e-01) (2, 4, 5.00000000000000000000e-01) (2, 4, 5.00000000000000000000e-01) (2, 4, 5.00000000000000000000e-01) (2, 4, 5.00000000000000000000e-01) (2, 4, 5.00000000000000000000e-01) (2, 4, 5.00000000000000000000e-01) (2, 4, 5.00000000000000000000e-01) (2, 4, 5.00000000000000000000e-01) (2, 4, 5.00000000000000000000e-01) (2, 4, 5.00000000000000000000e-01) (2, 4, 5.00000000000000000000e-01) (2, 4, 5.00000000000000000000e-01) (2, 4, 5.00000000000000000000e-01) (2, 4, 5.00000000000000000000e-01) (2, 4, 5.00000000000000000000e-01) (2, 4, 5.00000000000000000000e-01) (2, 4, 5.00000000000000000000e-01) (2, 4, 5.00000000000000000000e-01) (2, 4, 5.00000000000000000000e-01) (2, 4, 5.00000000000000000000e-01) (2, 4, 5.00000000000000000000e-01) (2, 4, 5.00000000000000000000e-01) (2, 4, 5.00000000000000000000e-01) (2, 4, 5.00000000000000000000e-01) (2, 4, 5.00000000000000000000e-01) (2, 4, 5.00000000000000000000e-01) (2, 4, 5.00000000000000000000e-01) (2, 4, 5.00000000000000000000e-01) (2, 4, 5.00000000000000000000e-01) (2, 4, 5.00000000000000000000e-01) (2, 4, 5.00000000000000000000e-01) (2, 4, 5.00000000000000000000e-01) (2, 4, 5.00000000000000000000e-01) (2, 4, 5.00000000000000000000e-01) (2, 4, 5.00000000000000000000e-01) (2, 4, 5.00000000000000000000e-01) (2, 4, 5.00000000000000000000e-01) (2, 4, 5.00000000000000000000e-01) (2, 4, 5.00000000000000000000e-01) (2, 4, 5.00000000000000000000e-01) (2, 4, 5.00000000000000000000e-01) (2, 4, 5.00000000000000000000e-01) (2, 4, 5.00000000000000000000e-01) (2, 4, 5.00000000000000000000e-01) (2, 4, 5.00000000000000000000e-01) (2, 4, 5.00000000000000000000e-01) (2, 4, 5.00000000000000000000e-01) (2, 4, 5.00000000000000000000e-01) (2, 4, 5.00000000000000000000e-01) (2, 4, 5.00000000000000000000e-01) (2, 4, 5.00000000000000000000e-01) (2, 4, 5.00000000000000000000e-01) (2, 4, 5.00000000000000000000e-01) (2, 4, 5.00000000000000000000e-01) (2, 4, 5.00000000000000000000e-01) (2, 4, 5.00000000000000000000e-01) (2, 4, 5.00000000000000000000e-01) (2, 4, 5.00000000000000000000e-01) (2, 4, 5.00000000000000000000e-01) (2, 4, 5.00000000000000000000e-01) (2, 4, 5.00000000000000000000e-01) (2, 4, 5.00000000000000000000e-01) (2, 4, 5.00000000000000000000e-01) (2, 4, 5.00000000000000000000e-01) (2, 4, 5.00000000000000000000e-01) (2, 4, 5.00000000000000000000e-01) (2, 4, 5.00000000000000000000e-01) (2, 4, 5.00000000000000000000e-01) (0, 0, 0.00000000000000000000e+00) (201, 4, 5.00000000000000000000e-01) (0, 0, 0.00000000000000000000e+00) 
connections (connected_to_neuron, weight)=(0, 5.17531476707995263808e+00) (1, 8.91684968889970841488e-01) (0, 4.77263678985435557678e+00) (1, 1.03021546506370564877e+00) (0, -6.08161933682054178796e-01) (1, -8.54381216793288378319e-01) (0, -2.72232413769943804027e+00) (1, -5.40565918590415361855e-01) (0, 4.12760268414937403492e+00) (1, 2.50289143310610473492e-01) (0, -2.13229686363085697565e+01) (1, -7.51730673339967570001e+00) (0, -5.83123630880794063813e+00) (1, 6.01264885294060941190e-02) (0, -2.99523435867283360778e+00) (1, -8.99201322198081798298e-01) (0, 2.67791084192917328011e+00) (1, -1.45045603316444088327e-01) (0, 7.17789815787739260422e-01) (1, 7.27459488091569406176e-02) (0, -1.16263700906883715724e+00) (1, 1.00271600438485458673e-01) (0, -2.19012990262658036045e+00) (1, -8.89177366575451211261e-01) (0, -8.10102484167720349184e-01) (1, -5.71773033981540890203e-01) (0, -1.95479148391221246861e+00) (1, -1.83930014274988756773e-01) (0, -1.45040711666141586278e+00) (1, 1.34381328340513445108e-01) (0, 2.01349686534328808918e+00) (1, -8.16691041371179760056e-01) (0, 4.84261453057185420334e+00) (1, 9.97714381398575600457e-01) (0, -1.96508918778537000627e+00) (1, -1.76579718492899467863e-01) (0, -9.58188011043841103564e-01) (1, -5.77512290099909189611e-02) (0, -3.01550957493104965224e+00) (1, -3.31065668718240779800e-01) (0, -2.39218401464636842846e+00) (1, -8.36829975648893720219e-01) (0, -2.14242988048538158807e+01) (1, -7.37320295301084360773e+00) (0, 2.01548761337215864842e+00) (1, -7.62490458178478269780e-01) (0, 2.14103990851782111093e+00) (1, 4.67397280149735826205e-03) (0, 4.39759993359919576505e+00) (1, 2.62567170553534845467e+00) (0, -2.14996150030240009698e+01) (1, -7.41255245682601771051e+00) (0, 1.94982880082422624923e+01) (1, 2.12017107737527910061e+00) (0, 1.33963568896411011622e+00) (1, -8.91435505809780970310e+00) (0, -4.19070112415406903494e+00) (1, 4.26491106055204094796e-04) (0, -2.53487138240882847739e+00) (1, 1.42097665406417617007e+00) (0, -2.14531701958223770532e+01) (1, -7.41474318829183420831e+00) (0, -2.13890785096630047235e+01) (1, -7.42590488818292460138e+00) (0, -2.13837843133553455743e+01) (1, -7.44644768115882715875e+00) (0, 4.17515402706038507574e+00) (1, 2.10659409657238061442e-01) (0, 2.79308987070764658256e+00) (1, -2.93712193486074690796e-01) (0, -1.95378005813868549367e+00) (1, -2.00062865816618473680e-01) (0, -2.14092936782583187494e+01) (1, -7.38219197419290384943e+00) (0, -9.85592241365222276883e-01) (1, -7.15269496648786654025e-03) (0, 4.81248485130924219533e+00) (1, 1.01742179042127767197e+00) (0, -1.56382983327092683901e+00) (1, -4.22747793601448040857e-01) (0, -1.97306327103474687945e+00) (1, -1.87293693541081107679e-01) (0, -1.89730188895882312394e+00) (1, -2.70897610141187850097e-01) (0, 4.80560960838097717129e+00) (1, 1.02911934441305263910e+00) (0, -4.66712066696802718724e+00) (1, -2.96063289416893349326e+00) (0, -5.73820725316587143539e+00) (1, -1.88909793997991154457e-01) (0, -1.82247154421764667731e+00) (1, -3.21724648140009950037e-01) (0, -2.14199066279872845087e+01) (1, -7.35388161566858133966e+00) (0, 1.89804255921694098319e+00) (1, -9.55211818436120907450e-01) (0, -1.93765384349147584686e+00) (1, -2.18922700054835883687e-01) (0, -1.88941522818473583989e+00) (1, -2.72079334337526568266e-01) (0, 4.33561506101228033572e+00) (1, 1.94892954963438502780e+00) (0, 1.51702871084421908598e+00) (1, 1.07551378412772791204e-01) (0, 1.72045038345258083368e+00) (1, -6.50134974510757635002e-01) (0, 1.43517590670648971241e+01) (1, -1.21014162831378335738e+01) (0, -2.49964463901894928810e+00) (1, -7.33120408194645190036e-01) (0, -1.90225676238002039398e+00) (1, -2.92003732276588601202e-01) (0, -2.52139190203637841847e+00) (1, -7.13818356456777158847e-01) (0, -1.93518161160848922719e+00) (1, -2.23261225115775646666e-01) (0, -5.81775012884384068457e+00) (1, 9.45909068390072826915e-02) (0, -3.00904933444183075864e+00) (1, -3.47993414363311881488e-01) (0, 4.29617654669251791688e+00) (1, 2.44615133310749266471e+00) (0, 4.09258365156770764770e+00) (1, 1.57546372156365910300e+00) (0, -2.13718510462387989435e+01) (1, -7.48392542031411966974e+00) (0, 2.11531565588880354767e+00) (1, 1.07264378647166144093e-02) (0, 2.56650312199013619363e+00) (1, -5.96476964400353804052e-01) (0, -6.95448143846926769562e-01) (1, -4.59776995857560510927e+00) (0, -3.02613379946111882290e+00) (1, -3.26371382123426978517e-01) (0, 1.50628330212850314318e+00) (1, 6.52519497114206203925e-02) (0, 4.98232236640383696624e+00) (1, -6.69906844487289321322e-01) (0, 4.83754886018686125482e+00) (1, 1.01860067856431157907e+00) (0, -2.15058521299108456049e+01) (1, -7.43997852084045252496e+00) (0, -1.86198714347489757692e+00) (1, -2.56290556391784052348e-01) (0, -3.14253669024283377453e+00) (1, -7.73963623906827824506e-01) (0, -1.99557498805681721166e+00) (1, -3.66961718494506961008e+00) (0, 9.62402687516000998613e-01) (1, -4.97933503590904824598e-01) (0, 6.64958915153416652011e-01) (1, 5.78636226855548593817e-02) (0, 4.14551251715886870386e+00) (1, 1.75967862681078113241e-01) (0, -1.51283314979968608327e+00) (1, 1.34062900144271857084e-01) (0, -2.99376848357362890241e+00) (1, -9.11431591246920635996e-01) (0, -2.55973105441628945300e+00) (1, -7.12265562747579239478e-01) (0, 4.71524864655471986907e+00) (1, 1.06535893129228775855e+00) (0, -1.40524077665356439404e+00) (1, 6.62210104257195397714e-02) (0, 4.11886729481571123301e+00) (1, 2.58620475826837170619e-01) (0, -2.96852327668210946854e+00) (1, -9.29699114847839180875e-01) (0, 7.23702812616295543258e-01) (1, 5.24633450088593453198e-02) (0, -2.13372831536873768243e+01) (1, -7.50143486586217722589e+00) (0, -3.02464105708465558209e+00) (1, -3.30191745310165485350e-01) (0, 2.01587367088595836861e+00) (1, -8.84438811080241915619e-01) (0, -3.31684403197000809982e+00) (1, -1.20101607702121054855e-01) (0, 7.57217667608296007842e+00) (1, -1.74938479391857637513e-01) (0, -3.04707574010824400190e+00) (1, -9.30551432177234238985e-01) (0, -1.40909237027196265757e+00) (1, 1.25109521690897201873e-01) (0, -9.66038853803806829568e-01) (1, -6.69917717690277168124e-03) (0, -1.94050200307019182766e+00) (1, -2.53070977986579848107e-01) (0, -1.10981511095953888635e+00) (1, -2.06596637307262270822e-01) (0, -2.79043361059004579872e+00) (1, -3.85126242790913952962e-01) (0, -3.11802562492499646396e+00) (1, -8.09128327354478704692e-01) (0, 4.70158394650962030425e+00) (1, 1.06353906159657896069e+00) (0, -5.84436471024362802495e+00) (1, -3.03757007082334461179e-02) (0, 2.19022020563049402142e+00) (1, -8.16807273964212154915e-01) (0, 4.14279060246391761524e+00) (1, 1.69937229508271459011e+00) (0, 4.66310365436086904367e+00) (1, 1.07580333184098830834e+00) (0, -4.19056442198971090818e+00) (1, -1.78010288557385355779e-02) (0, 2.07252667211176300199e+00) (1, -8.28007359299616885195e-01) (0, 1.71836598445085608766e+00) (1, -1.00484085052657690085e+00) (0, -1.20668644945105163480e+00) (1, 5.85072595594484323733e-01) (0, -1.98426181147309654840e+00) (1, -1.85489374226822045788e-01) (0, 2.03250318376647820529e+00) (1, -7.91306856961764726321e-01) (0, 5.14800073796335588838e+00) (1, 9.00439749370663289341e-01) (0, -2.71384202186209577690e+00) (1, -5.54219521976542450759e-01) (0, 1.90505380436627937968e+01) (1, -1.24858797358731017368e+01) (0, 4.73942680578789232726e+00) (1, 1.05195798859335876152e+00) (0, 4.80657587124860619099e+00) (1, 1.02739396451412479117e+00) (0, -5.37836805041624277379e+00) (1, -2.30464466515238608491e-01) (0, 4.81950154703243427434e+00) (1, 1.02597290550543784882e+00) (0, -2.13824914290055225763e+01) (1, -7.51671813753251871759e+00) (0, 1.40941285848093889044e+00) (1, 1.58387502281463338205e-01) (0, -2.13702259852036426935e+01) (1, -7.37156215634946665460e+00) (0, -1.40332494926003259472e+00) (1, 6.55758572012513640814e-02) (0, -5.80811520210984433277e+00) (1, -3.02105521990230045659e-02) (0, 1.55429164767429361937e+00) (1, 1.01951447244956777682e-01) (0, -1.92439725816124251878e+00) (1, -2.36422794774811234619e-01) (0, 4.62759599417164135815e+00) (1, 1.09820229827803106382e+00) (0, -3.03127829795134440261e+00) (1, -8.80306854073886313472e-01) (0, 4.36506289251423051923e+00) (1, 1.94431788957669726692e+00) (0, -1.88465298728894281588e+00) (1, -3.14776883658367478969e-01) (0, -2.14967686041746874892e+00) (1, -9.62841527885270886955e-01) (0, -2.14600458523675392541e+01) (1, -7.37389184859399637872e+00) (0, -1.47369150169663964967e+00) (1, -3.59703240198228613167e+00) (0, 1.43688532090345333359e+00) (1, 1.45400124239816158633e-01) (0, -2.13514092011794041071e+01) (1, -7.51770229962472757990e+00) (0, -3.24878001097120572283e+00) (1, -1.23402012365946681105e-01) (0, 2.74737577657235920725e+00) (1, -3.24267311459286333708e-01) (0, 7.14111922720344849402e-01) (1, -2.70537171708244879309e-02) (0, 1.08357765607786937778e+00) (1, 5.53986717563049158031e+00) (0, -1.92812055769556400797e+00) (1, -2.38588821854678223566e-01) (0, -2.25235885467673124793e+00) (1, -1.07702797299702757172e+00) (0, 1.59693588062601166122e+00) (1, -6.98983070632469338790e-01) (0, -1.88221955133732010701e+00) (1, -2.25405627220711862746e-01) (0, 1.22637340053278123264e+01) (1, 1.46884592733287133726e+00) (0, 1.87244433862312864569e+00) (1, -7.22564111506081019343e-01) (0, -2.27713749930191733384e+00) (1, -6.02416658645543279249e-01) (0, 2.02537013320759928803e+00) (1, -8.07599567023725706250e-01) (0, 1.39225344002602646754e+00) (1, -8.96787829312083140110e+00) (0, -1.94751907489250486449e+00) (1, -2.19538332970261235166e-01) (0, -2.57555667487340311794e+00) (1, 2.23744378814788058563e+00) (0, -1.91389567347900957373e+00) (1, -2.59626815253007181550e-01) (0, -2.23446347923638466426e+00) (1, -1.56135227586344127459e+00) (0, 7.46222675886319741778e-01) (1, 1.14457677003713453878e-01) (0, -9.70512011030846166726e-01) (1, 1.30192723858845657570e-02) (0, 1.47099383972973796197e+00) (1, 1.04364609054473131411e-01) (0, -2.13902725993141125116e+01) (1, -7.49475052532558283502e+00) (0, -3.08360506704164016867e+00) (1, -8.15854355520607699148e-01) (0, 2.02831610216390867407e+00) (1, -7.77725821960415619749e-01) (0, 4.12162628453067370060e+00) (1, 1.54768398897478487442e+00) (0, 4.08824455646678242005e+00) (1, 2.55535394362268575286e-01) (0, -2.14146389110430668268e+01) (1, -7.41941611793641886408e+00) (0, -1.85878746224513791141e+00) (1, -2.84229153534227729772e-01) (0, -1.36079008776736398723e+00) (1, 1.35047320550246013893e-01) (0, 2.09071085113591514926e+00) (1, 2.72968049703936309347e-02) (0, 5.13911792960682323184e+00) (1, 9.02754004074930671564e-01) (0, -2.49594085214697258834e+00) (1, -7.45724863498722134736e-01) (0, 1.54601474342825273567e+01) (1, -1.23294009536498219148e+01) (0, -2.76339744108624119079e+00) (1, -5.08607807932730193734e-01) (0, 4.79186221424124791923e+00) (1, 1.02616362565704943854e+00) (0, -2.13541764958247135553e+01) (1, -7.42779872891311487848e+00) (0, 5.16274668627084221129e+00) (1, 8.92349925757665696224e-01) (0, -6.05294414619253107190e+00) (1, 2.17846963589411884987e-01) (0, 4.38902198589703829157e+00) (1, 2.62896058015145195341e+00) (0, -2.22979354259335726951e+00) (1, -8.79292270451273449972e-01) (0, 1.37990254984719040721e+00) (1, -6.60114136076817903387e-01) (0, -5.82809032199423349141e+00) (1, -1.70141645482193876182e-01) (0, 4.83610594270111793236e+00) (1, 1.01776968396859257560e+00) (0, -3.50516808722126560482e+00) (1, -1.61455076391604328279e-02) (0, -1.94337786407370338715e+00) (1, -2.92761285152115469099e-01) (0, 4.64817259661135739890e+00) (1, 1.07385291024018347805e+00) (0, -8.87933098732647607676e+00) (1, -1.72077585311596159556e+00) (0, -4.19691511979301346003e+00) (1, 1.16556072463221051944e-02) (0, -5.83265633216238210679e+00) (1, 1.02596356252092305028e-01) (0, -1.42291060503732302855e+00) (1, 1.43761990901659003628e-01) (0, 8.15759911485037347845e-01) (1, -4.45733563375044286592e-02) (0, 4.54790933317736900676e+00) (1, 1.10527798679691913186e+00) (0, -1.90683414686769880930e+00) (1, -3.28075934965760596107e-01) (0, -1.89115674794577603990e+00) (1, -2.25529023913757314945e-01) (0, -5.89068679365728531394e+00) (1, -1.35135527328737570230e-01) (0, -2.76663043456946988741e+00) (1, -5.06713307233656484740e-01) (0, -1.54848445864104000691e+00) (1, 9.04923749480501110609e-02) (0, 1.45707835644839356348e+00) (1, -8.85541668894287958835e+00) (0, -1.06146909071866124563e+00) (1, 3.67368081022277706560e-02) (0, -2.81570134264876370533e-01) (1, -4.10204748568394084174e+00) (0, -2.95098540739446990600e+00) (1, -9.11202135539883828486e-01) (0, 1.46514624243526925262e+00) (1, 7.54352612293270052835e-02) (0, -1.91874698944730148753e+00) (1, -3.07269210758091493307e-01) (0, -2.99240966283409504101e+00) (1, -9.66853677355858587283e-01) (0, 2.00177134559700009575e+00) (1, -7.89153571398424014127e-01) (0, -2.72608254441059161266e+00) (1, -5.38138249910277699506e-01) (0, 4.74460085667470998771e+00) (1, 1.04458883874262076219e+00) (0, -2.14281454874619434747e+01) (1, -7.42447740909461817438e+00) (0, 5.70223352028253049895e+00) (1, -1.39416761024853630424e+00) (0, -1.42747874354487480630e+00) (1, 1.08615837904316975271e-01) (2, -1.12471220321626638738e-01) (3, -1.03477401601872881498e-01) (4, -6.52019786769095568979e-03) (5, 6.79957002113340536198e-01) (6, -1.16869221535766967812e-01) (7, 1.50000000000000000000e+03) (8, -3.74393601708196976929e+00) (9, 4.04052901873451997261e-01) (10, -2.03376208333676464224e-02) (11, 1.29868854533542910090e-01) (12, -1.22385013536598738493e-01) (13, 9.16245170442100742569e-01) (14, -1.76406667889257781634e-02) (15, 1.34823330786188161357e-01) (16, -1.24900263384627313590e-01) (17, 5.73981068309026981611e-02) (18, -9.95313475339090897309e-02) (19, 1.85672172453362316347e-01) (20, 1.40478056140680263031e-01) (21, 2.81131621816503363132e-01) (22, 2.42147948141349073081e-01) (23, 1.50000000000000000000e+03) (24, 4.47491761065574381040e-02) (25, 1.49866330193926311498e-01) (26, -8.92583593140486852846e-02) (27, 1.50000000000000000000e+03) (28, -3.48532410990805806283e-03) (29, 1.50000000000000000000e+03) (30, 2.66599280853572762062e-01) (31, -1.32450261564628291033e+00) (32, 1.50000000000000000000e+03) (33, 1.50000000000000000000e+03) (34, 1.50000000000000000000e+03) (35, -1.35793519477856561295e-01) (36, -2.31244067299106979829e-02) (37, 1.90489301279130912592e-01) (38, 1.50000000000000000000e+03) (39, 1.35996834919489523186e-01) (40, -1.08071263521753280212e-01) (41, 8.70855149932663746837e-03) (42, 1.51872714103762990190e-01) (43, 2.04999338148204257593e-01) (44, -9.87234356308505089928e-02) (45, 1.12423625454746929364e+01) (46, 4.35083492070113708738e-01) (47, 1.61103915853420126547e-01) (48, 1.50000000000000000000e+03) (49, 2.32868833193867925957e-02) (50, 1.90051877950175723830e-01) (51, 1.86522188900801050293e-01) (52, -8.36548459865614768560e-02) (53, 1.37562370812189471714e-01) (54, 8.73799149537533327570e-03) (55, 1.19998595393711382506e+00) (56, 6.73110523101234092813e-01) (57, 1.99762444953328149877e-01) (58, 6.82672331952007382938e-01) (59, 1.81078273620167123914e-01) (60, -2.65537323345529208130e-01) (61, 5.00803431259494225003e-01) (62, -7.39761355816745402869e-02) (63, -1.20988115006243776572e-01) (64, 1.50000000000000000000e+03) (65, 1.47300681968836139069e-01) (66, 1.06879619582558281488e-02) (67, 8.35619745708641801230e+01) (68, 3.03815430195045976802e-01) (69, 1.30437740223286247065e-01) (70, -6.72214109950367011415e-02) (71, -9.09596444163842665631e-02) (72, 1.50000000000000000000e+03) (73, 1.47570377040508377009e-01) (74, 3.77849368137482488628e-01) (75, 8.40740752357174585541e+01) (76, 1.01551480826034615235e-02) (77, 1.38199021418904444136e-01) (78, -1.31265141054843659241e-01) (79, -2.04150280943927092681e-01) (80, 3.67661563383472722588e-01) (81, 6.32514210522668762771e-01) (82, -8.42560297063503216286e-02) (83, -1.66388746781190949298e-01) (84, -1.14682933726394944984e-01) (85, 3.71568775632395043029e-01) (86, 1.33874912511218607802e-01) (87, 1.50000000000000000000e+03) (88, 2.85052230309091825244e-01) (89, 5.23040076150355151552e-02) (90, 2.10686144267228175897e-01) (91, -3.60299380069489666445e-02) (92, 3.70470333284781905281e-01) (93, -1.84826451617893378065e-02) (94, 1.33457890304345766497e-01) (95, 2.10116210646520945593e-01) (96, -7.42714752901765286330e-03) (97, 6.21461548038752531475e-01) (98, 4.25588820415816471154e-01) (99, -1.00056088807026238863e-01) (100, -9.21263561766514804674e-01) (101, 3.19218986123116985065e-02) (102, -8.85853016179738717017e-02) (103, -8.20905929578936710556e-02) (104, 3.20881540030621414950e-01) (105, 2.90085319131179707186e-02) (106, -4.59132415646782473390e-03) (107, -1.71148903785012596046e+00) (108, 1.48469168410780255618e-01) (109, 4.70023278467747510079e-02) (110, -8.42684159485971723269e-02) (111, 6.51420067244213640834e-01) (112, 5.37751908221257290954e-01) (113, -1.00999860437364710752e-01) (114, -9.17653927355333021154e-02) (115, 4.92758744353785471670e-01) (116, -9.65080523610929164047e-02) (117, 1.50000000000000000000e+03) (118, 1.38799249962832632610e-01) (119, 1.50000000000000000000e+03) (120, -1.86177017223067564622e-01) (121, -4.63780297779643557732e+00) (122, 1.35745793179839702169e-01) (123, 1.82626691654434542000e-01) (124, -9.21605436832103191991e-02) (125, 3.71182685590915995011e-01) (126, -9.91725398214145792419e-02) (127, 1.90618820852617193440e-01) (128, 1.68619851250870506076e-01) (129, 1.50000000000000000000e+03) (130, 8.62023623322360776911e+01) (131, 1.43903585676452921982e-01) (132, 1.50000000000000000000e+03) (133, 1.56103167388747077204e-01) (134, -2.11254042049442737616e-02) (135, 1.22846410572205633205e-01) (136, -7.73456625976986916760e-02) (137, 1.62931498749513542501e-01) (138, 1.47097356291356756719e-01) (139, 2.94229581488602634498e-02) (140, 1.08554959853079988075e-01) (141, -7.08294782710827131034e-02) (142, 2.75244906991992215051e-02) (143, 1.69339230259291789737e-01) (144, 4.47422287314949637671e-02) (145, 1.50000000000000000000e+03) (146, 1.84688349080601138530e-01) (147, -1.49573431104290288651e+00) (148, 1.94013669651127540483e-01) (149, 1.60475002874608974057e-01) (150, 1.29230858090042394215e-01) (151, 1.41146129521150798247e-01) (152, 1.37486952844307619426e-01) (153, 1.50000000000000000000e+03) (154, 3.02322900993633902900e-01) (155, 5.25313874322945600914e-02) (156, -1.49444510113524969830e-01) (157, -1.13566182618384817204e-01) (158, 1.50000000000000000000e+03) (159, 1.83183883659324059368e-01) (160, -2.74650460722191333551e-02) (161, 1.33435645359559679202e-01) (162, -1.06799975768200258730e-01) (163, 6.24281322723461817858e-01) (164, 3.38126343226642867013e-01) (165, 6.67019542047992630707e-01) (166, -9.37656672026048187973e-02) (167, 1.50000000000000000000e+03) (168, -8.61239417225512920995e-02) (169, -8.97416327127983848300e+00) (170, -8.56734001128930666713e-02) (171, 1.10237690391369191900e+00) (172, 4.37480949290747298669e-03) (173, 5.30086105482148253754e-02) (174, -9.09185343238506082919e-02) (175, 1.95123850977782786753e-01) (176, 2.07806731127427007921e-01) (177, -8.54370217210740495739e-02) (178, 1.60959237675397233147e+01) (179, 2.59188320221078294381e-01) (180, -2.70659711415692005865e-01) (181, -2.58725054178006383387e-02) (182, 1.27436790472650968153e-01) (183, -8.93799487966693145813e-02) (184, 1.73878789714968617908e-01) (185, 1.32421895775320597188e-01) (186, 9.52876776202769781854e-01) (187, 6.79478497416660109920e-01) (188, -1.52415319637898810656e-01) (189, 1.50000000000000000000e+03) (190, 1.38241475666900259789e-01) (191, -1.79453860065593744366e+01) (192, 3.32457470297583601582e-01) (193, 1.38742227965138159584e-01) (194, 1.68322086574969415063e-01) (195, 5.64522301597429443376e-01) (196, 5.36616931344160788542e-02) (197, 6.84179994751477393855e-01) (198, -9.03007996164077730850e-02) (199, 1.50000000000000000000e+03) (200, -5.17226864605208128123e-02) (201, -1.25790473974761972398e-02) (202, 1.09281901848660295551e-01) 
