FANN_FLO_2.1
num_layers=3
learning_rate=0.700000
connection_rate=1.000000
network_type=0
learning_momentum=0.000000
training_algorithm=2
train_error_function=1
train_stop_function=0
cascade_output_change_fraction=0.010000
quickprop_decay=-0.000100
quickprop_mu=1.750000
rprop_increase_factor=1.200000
rprop_decrease_factor=0.500000
rprop_delta_min=0.000000
rprop_delta_max=50.000000
rprop_delta_zero=0.100000
cascade_output_stagnation_epochs=12
cascade_candidate_change_fraction=0.010000
cascade_candidate_stagnation_epochs=12
cascade_max_out_epochs=150
cascade_min_out_epochs=50
cascade_max_cand_epochs=150
cascade_min_cand_epochs=50
cascade_num_candidate_groups=2
bit_fail_limit=3.49999999999999977796e-01
cascade_candidate_limit=1.00000000000000000000e+03
cascade_weight_multiplier=4.00000000000000022204e-01
cascade_activation_functions_count=10
cascade_activation_functions=3 5 7 8 10 11 14 15 16 17 
cascade_activation_steepnesses_count=4
cascade_activation_steepnesses=2.50000000000000000000e-01 5.00000000000000000000e-01 7.50000000000000000000e-01 1.00000000000000000000e+00 
layer_sizes=2 201 2 
scale_included=0
neurons (num_inputs, activation_function, activation_steepness)=(0, 0, 0.00000000000000000000e+00) (0, 0, 0.00000000000000000000e+00) (2, 4, 5.00000000000000000000e-01) (2, 4, 5.00000000000000000000e-01) (2, 4, 5.00000000000000000000e-01) (2, 4, 5.00000000000000000000e-01) (2, 4, 5.00000000000000000000e-01) (2, 4, 5.00000000000000000000e-01) (2, 4, 5.00000000000000000000e-01) (2, 4, 5.00000000000000000000e-01) (2, 4, 5.00000000000000000000e-01) (2, 4, 5.00000000000000000000e-01) (2, 4, 5.00000000000000000000e-01) (2, 4, 5.00000000000000000000e-01) (2, 4, 5.00000000000000000000e-01) (2, 4, 5.00000000000000000000e-01) (2, 4, 5.00000000000000000000e-01) (2, 4, 5.00000000000000000000e-01) (2, 4, 5.00000000000000000000e-01) (2, 4, 5.00000000000000000000e-01) (2, 4, 5.00000000000000000000e-01) (2, 4, 5.00000000000000000000e-01) (2, 4, 5.00000000000000000000e-01) (2, 4, 5.00000000000000000000e-01) (2, 4, 5.00000000000000000000e-01) (2, 4, 5.00000000000000000000e-01) (2, 4, 5.00000000000000000000e-01) (2, 4, 5.00000000000000000000e-01) (2, 4, 5.00000000000000000000e-01) (2, 4, 5.00000000000000000000e-01) (2, 4, 5.00000000000000000000e-01) (2, 4, 5.00000000000000000000e-01) (2, 4, 5.00000000000000000000e-01) (2, 4, 5.00000000000000000000e-01) (2, 4, 5.00000000000000000000e-01) (2, 4, 5.00000000000000000000e-01) (2, 4, 5.00000000000000000000e-01) (2, 4, 5.00000000000000000000e-01) (2, 4, 5.00000000000000000000e-01) (2, 4, 5.00000000000000000000e-01) (2, 4, 5.00000000000000000000e-01) (2, 4, 5.00000000000000000000e-01) (2, 4, 5.00000000000000000000e-01) (2, 4, 5.00000000000000000000e-01) (2, 4, 5.00000000000000000000e-01) (2, 4, 5.00000000000000000000e-01) (2, 4, 5.00000000000000000000e-01) (2, 4, 5.00000000000000000000e-01) (2, 4, 5.00000000000000000000e-01) (2, 4, 5.00000000000000000000e-01) (2, 4, 5.00000000000000000000e-01) (2, 4, 5.00000000000000000000e-01) (2, 4, 5.00000000000000000000e-01) (2, 4, 5.00000000000000000000e-01) (2, 4, 5.00000000000000000000e-01) (2, 4, 5.00000000000000000000e-01) (2, 4, 5.00000000000000000000e-01) (2, 4, 5.00000000000000000000e-01) (2, 4, 5.00000000000000000000e-01) (2, 4, 5.00000000000000000000e-01) (2, 4, 5.00000000000000000000e-01) (2, 4, 5.00000000000000000000e-01) (2, 4, 5.00000000000000000000e-01) (2, 4, 5.00000000000000000000e-01) (2, 4, 5.00000000000000000000e-01) (2, 4, 5.00000000000000000000e-01) (2, 4, 5.00000000000000000000e-01) (2, 4, 5.00000000000000000000e-01) (2, 4, 5.00000000000000000000e-01) (2, 4, 5.00000000000000000000e-01) (2, 4, 5.00000000000000000000e-01) (2, 4, 5.00000000000000000000e-01) (2, 4, 5.00000000000000000000e-01) (2, 4, 5.00000000000000000000e-01) (2, 4, 5.00000000000000000000e-01) (2, 4, 5.00000000000000000000e-01) (2, 4, 5.00000000000000000000e-01) (2, 4, 5.00000000000000000000e-01) (2, 4, 5.00000000000000000000e-01) (2, 4, 5.00000000000000000000e-01) (2, 4, 5.00000000000000000000e-01) (2, 4, 5.00000000000000000000e-01) (2, 4, 5.00000000000000000000e-01) (2, 4, 5.00000000000000000000e-01) (2, 4, 5.00000000000000000000e-01) (2, 4, 5.00000000000000000000e-01) (2, 4, 5.00000000000000000000e-01) (2, 4, 5.00000000000000000000e-01) (2, 4, 5.00000000000000000000e-01) (2, 4, 5.00000000000000000000e-01) (2, 4, 5.00000000000000000000e-01) (2, 4, 5.00000000000000000000e-01) (2, 4, 5.00000000000000000000e-01) (2, 4, 5.00000000000000000000e-01) (2, 4, 5.00000000000000000000e-01) (2, 4, 5.00000000000000000000e-01) (2, 4, 5.00000000000000000000e-01) (2, 4, 5.00000000000000000000e-01) (2, 4, 5.00000000000000000000e-01) (2, 4, 5.00000000000000000000e-01) (2, 4, 5.00000000000000000000e-01) (2, 4, 5.00000000000000000000e-01) (2, 4, 5.00000000000000000000e-01) (2, 4, 5.00000000000000000000e-01) (2, 4, 5.00000000000000000000e-01) (2, 4, 5.00000000000000000000e-01) (2, 4, 5.00000000000000000000e-01) (2, 4, 5.00000000000000000000e-01) (2, 4, 5.00000000000000000000e-01) (2, 4, 5.00000000000000000000e-01) (2, 4, 5.00000000000000000000e-01) (2, 4, 5.00000000000000000000e-01) (2, 4, 5.00000000000000000000e-01) (2, 4, 5.00000000000000000000e-01) (2, 4, 5.00000000000000000000e-01) (2, 4, 5.00000000000000000000e-01) (2, 4, 5.00000000000000000000e-01) (2, 4, 5.00000000000000000000e-01) (2, 4, 5.00000000000000000000e-01) (2, 4, 5.00000000000000000000e-01) (2, 4, 5.00000000000000000000e-01) (2, 4, 5.00000000000000000000e-01) (2, 4, 5.00000000000000000000e-01) (2, 4, 5.00000000000000000000e-01) (2, 4, 5.00000000000000000000e-01) (2, 4, 5.00000000000000000000e-01) (2, 4, 5.00000000000000000000e-01) (2, 4, 5.00000000000000000000e-01) (2, 4, 5.00000000000000000000e-01) (2, 4, 5.00000000000000000000e-01) (2, 4, 5.00000000000000000000e-01) (2, 4, 5.00000000000000000000e-01) (2, 4, 5.00000000000000000000e-01) (2, 4, 5.00000000000000000000e-01) (2, 4, 5.00000000000000000000e-01) (2, 4, 5.00000000000000000000e-01) (2, 4, 5.00000000000000000000e-01) (2, 4, 5.00000000000000000000e-01) (2, 4, 5.00000000000000000000e-01) (2, 4, 5.00000000000000000000e-01) (2, 4, 5.00000000000000000000e-01) (2, 4, 5.00000000000000000000e-01) (2, 4, 5.00000000000000000000e-01) (2, 4, 5.00000000000000000000e-01) (2, 4, 5.00000000000000000000e-01) (2, 4, 5.00000000000000000000e-01) (2, 4, 5.00000000000000000000e-01) (2, 4, 5.00000000000000000000e-01) (2, 4, 5.00000000000000000000e-01) (2, 4, 5.00000000000000000000e-01) (2, 4, 5.00000000000000000000e-01) (2, 4, 5.00000000000000000000e-01) (2, 4, 5.00000000000000000000e-01) (2, 4, 5.00000000000000000000e-01) (2, 4, 5.00000000000000000000e-01) (2, 4, 5.00000000000000000000e-01) (2, 4, 5.00000000000000000000e-01) (2, 4, 5.00000000000000000000e-01) (2, 4, 5.00000000000000000000e-01) (2, 4, 5.00000000000000000000e-01) (2, 4, 5.00000000000000000000e-01) (2, 4, 5.00000000000000000000e-01) (2, 4, 5.00000000000000000000e-01) (2, 4, 5.00000000000000000000e-01) (2, 4, 5.00000000000000000000e-01) (2, 4, 5.00000000000000000000e-01) (2, 4, 5.00000000000000000000e-01) (2, 4, 5.00000000000000000000e-01) (2, 4, 5.00000000000000000000e-01) (2, 4, 5.00000000000000000000e-01) (2, 4, 5.00000000000000000000e-01) (2, 4, 5.00000000000000000000e-01) (2, 4, 5.00000000000000000000e-01) (2, 4, 5.00000000000000000000e-01) (2, 4, 5.00000000000000000000e-01) (2, 4, 5.00000000000000000000e-01) (2, 4, 5.00000000000000000000e-01) (2, 4, 5.00000000000000000000e-01) (2, 4, 5.00000000000000000000e-01) (2, 4, 5.00000000000000000000e-01) (2, 4, 5.00000000000000000000e-01) (2, 4, 5.00000000000000000000e-01) (2, 4, 5.00000000000000000000e-01) (2, 4, 5.00000000000000000000e-01) (2, 4, 5.00000000000000000000e-01) (2, 4, 5.00000000000000000000e-01) (2, 4, 5.00000000000000000000e-01) (2, 4, 5.00000000000000000000e-01) (2, 4, 5.00000000000000000000e-01) (2, 4, 5.00000000000000000000e-01) (2, 4, 5.00000000000000000000e-01) (2, 4, 5.00000000000000000000e-01) (2, 4, 5.00000000000000000000e-01) (2, 4, 5.00000000000000000000e-01) (2, 4, 5.00000000000000000000e-01) (2, 4, 5.00000000000000000000e-01) (2, 4, 5.00000000000000000000e-01) (2, 4, 5.00000000000000000000e-01) (2, 4, 5.00000000000000000000e-01) (2, 4, 5.00000000000000000000e-01) (2, 4, 5.00000000000000000000e-01) (2, 4, 5.00000000000000000000e-01) (0, 0, 0.00000000000000000000e+00) (201, 4, 5.00000000000000000000e-01) (0, 0, 0.00000000000000000000e+00) 
connections (connected_to_neuron, weight)=(0, -1.65887304025535953222e+00) (1, 6.14258495771546463721e-03) (0, -1.56911127210418510636e+00) (1, -8.58368239038191926937e-02) (0, 1.40794742868272804159e+00) (1, -5.30896380669852799294e-02) (0, 1.24798847435064397260e+00) (1, -5.68173186786984640850e-02) (0, 1.22786995765274564718e+00) (1, 7.76699816130681647275e-02) (0, -2.40052127397519710073e+00) (1, 2.63078246366423273983e+00) (0, 7.73895655274663196721e-01) (1, 2.98518114670101086805e-01) (0, 7.65564569182904053335e-01) (1, 2.41639141653764544238e-01) (0, 9.61996528643970449934e-01) (1, -1.77720187784455668778e-01) (0, -1.84920323632924321622e+00) (1, -8.20525296737078080334e-01) (0, 1.20416908211446060939e+00) (1, 9.41321760503494725514e-02) (0, 1.17912913369839955635e+00) (1, 9.23657029954623731705e-02) (0, 1.41959510328484950215e+00) (1, -7.67254374396637295330e-02) (0, 1.03923467673313818516e+00) (1, 7.73433506576146762024e-02) (0, 1.02632105369348414214e+00) (1, 1.22686840339842187508e-01) (0, -1.55132208957246797709e+00) (1, 5.10451199872931447171e-03) (0, -9.98735330550234667868e-01) (1, 3.78678831878305532932e-01) (0, -2.13292669059203721105e+00) (1, -5.78781861832290744907e-01) (0, 1.15951979043787289925e+00) (1, 1.36680155738542280508e-01) (0, -1.56586531273834395073e+00) (1, -9.05046499006945948107e-02) (0, -2.34762815259393375911e+00) (1, 2.64645506826129350841e+00) (0, -7.85451944967276660670e-01) (1, -2.43612836660156290014e-01) (0, -1.62320575820109058718e+00) (1, -2.99850488645113988362e-01) (0, 1.18256292540461371843e+00) (1, -2.10461671525792065607e-01) (0, -1.09169515254444515762e+00) (1, -4.94817480985698887608e-01) (0, 1.14944460716856422522e+00) (1, -1.15689308016340877683e-01) (0, -1.85638048347158890472e+00) (1, -7.12034543941547082291e-01) (0, -1.83954718915559900516e+00) (1, -7.25941046682203050544e-01) (0, 1.24853768328809122679e+00) (1, 5.35905358635272860424e-02) (0, 1.32848541404533859733e+00) (1, -5.04224718890447995423e-02) (0, -1.86953512991135473165e+00) (1, -7.97366930306404930739e-01) (0, 1.12147714883190241508e+00) (1, -8.88426920219820975833e-02) (0, -1.98679533617447789950e+00) (1, -5.69563539263030826909e-01) (0, 2.78329835036261785675e+00) (1, -1.62307845638712533454e-01) (0, 1.26719390406904341972e+00) (1, 1.70601070014094607918e-02) (0, 1.35231918882855572939e+00) (1, 2.02110489490160520620e-03) (0, -1.83693674977943088855e+00) (1, -6.90515598594139912159e-01) (0, -9.77695298513636568138e-01) (1, 3.53059951340843225509e-01) (0, -9.20968892362464930379e-01) (1, -5.22896414599989367566e-01) (0, -1.20316290204752163184e+00) (1, -5.29966538425283628655e-01) (0, -1.56663723584684277945e+00) (1, -2.68167799499681933084e-02) (0, -1.63285767911653745266e+00) (1, -5.82856094671893032455e-01) (0, -9.64861139472321660548e-01) (1, 3.57968833587528290074e-01) (0, 3.47366521152413509910e+00) (1, 1.39203979593697152461e-01) (0, -1.02706870667468752600e+00) (1, 4.19858287695051290989e-01) (0, 1.04430598177288769257e+00) (1, 5.57086415676020518806e-02) (0, -2.15832492966826983150e+00) (1, -6.23922497814498600022e-01) (0, 1.18140763655013514288e+00) (1, 1.30369610830492643760e-01) (0, -1.25558761432745380482e+00) (1, -5.15756572940389901305e-01) (0, 1.50996139715007626769e+00) (1, 2.07708602257663216273e-01) (0, -2.67368950376041425443e+00) (1, -3.30798933572155479110e-02) (0, -1.66636305009119323195e+00) (1, 1.98545355295274353336e-02) (0, -1.24863946097702926963e+00) (1, -9.23945816225823363110e-02) (0, -8.82731401792750225432e-01) (1, -1.79963877548957290609e-01) (0, -1.21606763656725913592e+00) (1, -1.02479225582580643628e-01) (0, -2.16084807250593424754e+00) (1, -6.96235289249303224146e-01) (0, 1.31227921624870580430e+00) (1, -7.33550606056537213284e-02) (0, -3.06911198121815731454e+00) (1, -2.38544557361909659310e-01) (0, 1.86371918562122762530e+00) (1, -4.92904799742991048261e-02) (0, -2.06195265682456030376e+00) (1, -5.98011876088793359330e-01) (0, -1.59423581140888837027e+00) (1, -3.44904122827293241338e-02) (0, 1.30595460781152761243e+00) (1, 1.14092540693155730658e+00) (0, 9.88738605436012107930e-01) (1, 1.35861908455560037590e-01) (0, 1.42795131929312124619e+00) (1, -1.43844938547839362730e-01) (0, -2.02025255212833743101e+00) (1, -5.66366295251527596122e-01) (0, -1.97138656315850568923e+00) (1, -5.51516632351530811107e-01) (0, 1.17091948795026112862e+00) (1, 1.12849546977696238437e-01) (0, -8.44145288493039158695e-01) (1, -3.99651585590995173103e-01) (0, -8.82013657143618345913e-01) (1, -3.52000477862541405472e-01) (0, 7.78607088127105106956e-01) (1, 2.85341759782344606133e-01) (0, -2.12247512321590514617e+00) (1, -6.23255338769278077748e-01) (0, -2.04805368062974579857e+00) (1, -5.65557524425145841107e-01) (0, 1.26244221800890832341e+00) (1, 3.23428049770580344768e-02) (0, -9.52978414812372665033e-01) (1, 3.16700510805536294967e-01) (0, -2.00684780343690416515e+00) (1, -8.19650845147523399170e-01) (0, -2.91271282599931824464e+00) (1, 2.45813875974168416505e+00) (0, -2.06591030462918334720e+00) (1, -8.88778714788658885659e-01) (0, -8.10833918901152750358e-01) (1, -3.62340711426910211390e-01) (0, -1.82276672424366315006e+00) (1, -7.24693194570862231352e-01) (0, 2.18361350479152571680e+00) (1, 8.08351717179960904680e-01) (0, -2.62877199054149857105e+00) (1, 7.81492713123898424810e-02) (0, 1.05154582541414387542e+00) (1, 1.07014111920527454913e-01) (0, 1.40994652376501106161e+00) (1, -5.42547449595710343240e-02) (0, -2.09667133051103160568e+00) (1, 6.45693648679936726964e-01) (0, -2.43133525408710582383e+00) (1, -8.34621912815581734613e-01) (0, -1.68170814978971705500e+00) (1, -9.31978767165031821151e-03) (0, -1.68950888455654468778e+00) (1, 4.50615948973767752733e-03) (0, 1.29535399863199507386e+00) (1, -2.78973875945385862973e-01) (0, -1.01163899585130434566e+00) (1, 3.99295266392828085422e-01) (0, 1.38131409033130614361e+00) (1, 1.01783668406308213522e-02) (0, 1.23926706956277610239e+00) (1, 6.59975431946762391977e-02) (0, 2.75023835925142901004e+00) (1, -2.10562044859991054357e-01) (0, -1.65397417252057943315e+00) (1, -1.14090249198517873497e-01) (0, 1.52984067882475960332e+00) (1, -3.58792974060302916062e-01) (0, -7.67013531679933913132e-01) (1, -3.94256185603298614506e-01) (0, -8.98799941954827041890e-01) (1, -8.30741014979149566821e-02) (0, 1.50000000000000000000e+03) (1, 7.36991296839074649938e+00) (0, 1.24150046741188635480e+00) (1, 5.08481783114740903962e-02) (0, -9.81521789424117407918e+00) (1, 5.51998943124530239146e+00) (0, -1.98655268855788369464e+00) (1, -5.18445543152365795336e-01) (0, 7.64949945562968913748e-01) (1, 2.08439680606675364904e-01) (0, -1.83124481972649388872e+00) (1, -6.91771739162054477568e-01) (0, 1.53040695430540751865e+00) (1, 1.21181854193607763115e+00) (0, -1.63405624190171772092e+00) (1, -5.74639529207931626376e-02) (0, 1.26837823772496949282e+00) (1, 1.12395396035782302313e+00) (0, -2.12576350397934987768e+00) (1, 5.36236214096935781548e-01) (0, 1.01995620178362678132e+00) (1, 1.33746891959854397047e-01) (0, -2.14637416984013373877e+00) (1, -5.93937101262734246099e-01) (0, -1.02772727626134030565e+00) (1, 4.20817587199808218479e-01) (0, 9.73940875814682249789e-01) (1, -6.62736106770248217801e-02) (0, -1.56153423063271268312e+00) (1, -9.82581018793774879638e-02) (0, 1.05700332815224307126e+00) (1, 1.53319999321656907920e-01) (0, -1.01571583770893769660e+00) (1, 4.03449014977003195259e-01) (0, -1.01127812029694075235e+00) (1, -1.68918658425599582662e-01) (0, -2.06894830296105070033e+00) (1, -6.06721623405208076996e-01) (0, -1.87415243403880071860e+00) (1, -8.06865982670765480300e-01) (0, 2.73953161345989393283e+00) (1, -1.83585671588000653998e-01) (0, 1.26615039816198859945e+00) (1, 3.06124821392260576536e-02) (0, -8.66076586003581616602e-01) (1, -1.53710046113758297404e-01) (0, -9.70623380224443166320e-01) (1, 3.41050628247858145237e-01) (0, -8.68023490393179497637e-01) (1, -1.07656220783978143207e-01) (0, -8.35711876840785516940e-01) (1, -2.21905680169841079685e-01) (0, -1.58539141655721382840e+00) (1, -1.07252487562055201509e-01) (0, -1.60023060910213232866e+00) (1, -6.87007999826646925667e-02) (0, -2.43846022314302013356e+00) (1, -7.71549047463616965992e-01) (0, -9.45533632763978615365e-01) (1, -3.17111677696439275831e-01) (0, -1.22570617772114722754e+01) (1, 6.52803931667428027907e+00) (0, 1.25049963524685781024e+00) (1, 4.60528430782594644377e-02) (0, -1.10395019602902788591e+00) (1, -4.20512197953608279910e-01) (0, -7.99988749178576319387e-01) (1, -5.97312562708609329221e-01) (0, -1.78217843905758788203e+00) (1, -6.45249924540658548189e-01) (0, 1.44386169923145946115e+00) (1, 1.17698735353952388394e+00) (0, -9.09160039696694455280e-01) (1, -2.36154367496747757960e-01) (0, -1.58933647348302709013e+00) (1, -3.74679323988690096692e-02) (0, 2.08700781215896569165e+00) (1, 8.47917732564451687161e-01) (0, -1.57096901830705015790e+00) (1, -3.10204571273970976242e-02) (0, -1.27295297751870659653e+01) (1, 6.41900286245065565538e+00) (0, -2.41788136317676949361e+00) (1, 5.35391456294559198170e-01) (0, 1.35753133189210095644e+00) (1, 2.44388064029348733852e-03) (0, -1.62749791520485342922e+00) (1, -7.22321920315002613533e-02) (0, -1.24270047172882480702e+00) (1, -5.21875781071676425604e-01) (0, -2.10843952788272437360e+00) (1, -5.50843358971796703827e-01) (0, -1.70795307902172299741e+00) (1, -6.02267256230269998341e-01) (0, -2.40862953537074853116e+00) (1, -7.93329531305603796731e-01) (0, -1.00344781811661598603e+00) (1, 4.12559929910303213596e-01) (0, -9.86869197919323926094e-01) (1, 3.62136186316991903755e-01) (0, 1.28573711561087367095e+00) (1, 9.68205574539288127411e-03) (0, -2.08378910572680187130e+00) (1, -5.35169987898035492968e-01) (0, 2.75193328532238634665e+00) (1, -1.28295398309473368537e-01) (0, -1.90876006325405422892e+00) (1, -7.33605408299133121552e-01) (0, -1.25499994322409613723e+00) (1, -8.01590742535418371295e-02) (0, 3.47431364834065670166e+00) (1, -3.82664269763191067231e-01) (0, 1.15240899718737832558e+00) (1, 1.80957786484927302117e-01) (0, -1.27544013156820810195e+01) (1, 5.74792703937512783341e+00) (0, 1.27201124393906939147e+00) (1, 4.73787609813442270323e-03) (0, 1.20914701081232056623e+00) (1, 1.08880571767025355334e-01) (0, -1.59285038122738642485e+00) (1, -1.10647799096459636958e-01) (0, 1.15686654824240675588e+00) (1, -1.10540018997522623834e-01) (0, 6.54515317260899509577e-01) (1, 2.87427546662911648223e-01) (0, 1.34983400829229727158e+00) (1, -8.07430862906779595045e-02) (0, -8.74054394326228778489e-01) (1, -5.60999222640678696372e-01) (0, -2.12230174784246283792e+00) (1, -6.39551445228347059668e-01) (0, 2.84876681468401748987e+00) (1, -9.45917779668990627018e-02) (0, -2.11132863201060816394e+00) (1, -5.45943432428552699598e-01) (0, -8.16975004310908303751e-01) (1, -2.15992342670937587101e-01) (0, -1.08154402058413783294e+01) (1, 5.41691931156337158626e+00) (0, 1.27969063991346221343e+00) (1, 1.12292826872936690741e+00) (0, 3.44148475482816929016e+00) (1, -3.37085995320833387012e-01) (0, 1.50000000000000000000e+03) (1, 6.52688410744314317924e+00) (0, -1.22678918500256117774e+00) (1, -5.30341157082968472913e-01) (0, -5.62337083898477274602e+00) (1, 2.68543029470167837758e+00) (0, -7.40949191568449738732e-01) (1, -5.43477039387833538164e-01) (0, -1.60644008160387974371e+00) (1, -7.21379161099170440608e-02) (0, 1.35617885766878476517e+00) (1, -7.83362496819833137307e-02) (0, 1.17526316064179292553e+00) (1, -1.33215418956608766532e-01) (0, -1.62681612002501041481e+00) (1, -1.29358954294940698554e-02) (0, -6.34725769910196802037e-01) (1, -5.02845377807387250435e-01) (0, -1.91711899177997113775e+00) (1, -7.61426031897613708743e-01) (0, 1.00895102477376163996e+00) (1, 9.77444869720193870721e-02) (0, 1.41694961223357784874e+00) (1, -3.11099629284114775896e-01) (0, -8.56577744982645161720e-01) (1, -5.73408530930704873896e-01) (0, -8.50165086589371732373e-01) (1, -5.78027004281715162115e-01) (0, 1.87376785218816510614e+00) (1, -2.53855224908599630407e-01) (0, 1.17156745731539180255e+00) (1, 1.46484963341905971568e-01) (0, 3.88594678428691731042e+00) (1, -4.80427793427316146557e-02) (0, -2.27053446288331839398e+00) (1, 2.61143854996534452440e+00) (0, 1.06979833911636434962e+00) (1, 2.99171343532753375438e-02) (0, -1.06604263997327279867e+01) (1, 5.52060785415474342130e+00) (0, -8.05260423827107607586e-01) (1, -5.93359231081956650655e-01) (0, 1.13626317107382912575e+00) (1, 8.94813895312955853711e-02) (0, -8.42857767479732067351e-01) (1, -1.82433861245894390901e-01) (0, 1.34837667599703925347e+00) (1, -2.31288943578971784021e-01) (0, 1.02040739376325495513e+00) (1, 1.31640001877494111637e-01) (0, 1.54879172786976493370e+00) (1, 1.18991551881233648125e+00) (0, 1.41394290560857793793e+00) (1, -4.67050269372245516197e-02) (0, 1.35295267640781680107e+00) (1, -1.32163111847634545670e-01) (0, 1.17786812293237019844e+00) (1, 9.85624477354759970238e-02) (0, 1.66360448979052755192e+00) (1, 1.16872640129505556139e+00) (0, 1.27978209709019941087e+00) (1, -5.22644164724643534026e-02) (0, 1.26761285716516725053e+00) (1, 1.11727682089010671440e+00) (2, 2.79866441064287353735e-02) (3, 7.96228338931311396820e-01) (4, -2.85135183693163041241e-01) (5, -2.59399631121499330000e-01) (6, -3.02986767092783770838e-01) (7, 1.09478180008872272300e-01) (8, 6.43084703794620127226e-01) (9, 6.89131954522277934139e-01) (10, -1.36604256318474226450e-01) (11, -1.94503563925858297123e-01) (12, -3.03596351245482010128e-01) (13, -3.06677866676884680608e-01) (14, -2.97900581812176989960e-01) (15, -3.05477350900012600832e-01) (16, -3.19730726216149174768e-01) (17, 1.77734422315314367913e-02) (18, 8.51167207572405493110e-01) (19, -1.54764475931031375566e-01) (20, -3.19585740516018512736e-01) (21, 8.05523392711389729648e-01) (22, 6.59021588071584119017e-02) (23, -1.42852392452811949308e-01) (24, -8.06863156901911210417e-02) (25, -2.71535312836694908700e-01) (26, -1.75025385126640176114e-01) (27, 7.14937437469106318311e-01) (28, -1.80475343073485755552e-01) (29, -1.73426633363842647162e-01) (30, -3.43173764595802177624e-01) (31, -2.82659485016196754259e-01) (32, -1.91783595888539021290e-01) (33, 7.13415671283345820264e-01) (34, -1.49256236387472318583e-01) (35, -2.80677537190098858044e-01) (36, -3.39247696051417080287e-01) (37, -2.99895059093651161763e-01) (38, -1.75376147346520072645e-01) (39, 8.32770995658246304671e-01) (40, -1.65510695681146763336e-01) (41, -1.86278055431943423415e-01) (42, 4.66626114707273456639e-02) (43, -1.37973912377389124062e-01) (44, 8.39877226697388845622e-01) (45, 7.31717829407459441349e-01) (46, 8.65510826919025033632e-01) (47, -3.36208470115483215590e-01) (48, -1.66693773448233745205e-01) (49, -3.47414858588986186216e-01) (50, -1.62958006355814477573e-01) (51, -3.26638961702174657198e-01) (52, 1.09408180880647326605e-01) (53, -7.27708701856502691158e-04) (54, 7.99764392473760743485e-01) (55, -1.47692644449899684878e-01) (56, 8.43009065542954738603e-01) (57, -1.81647438004420430646e-01) (58, -2.60902096384865223033e-01) (59, -2.54871765893504020895e-01) (60, -2.74893724227044444763e-01) (61, -1.55680243585709504606e-01) (62, 8.45846396594399974056e-01) (63, -3.26004723249264161122e-01) (64, -3.05404542176324511615e-01) (65, -2.57269610518320812620e-01) (66, -1.48506709883051452037e-01) (67, -1.43367410625964947224e-01) (68, -3.14453333566023784940e-01) (69, -1.73610402055885432171e-01) (70, -1.66940743148378117899e-01) (71, 6.60955118193863766507e-01) (72, -1.66433562267451762295e-01) (73, -1.49722393050604057896e-01) (74, -3.20176698217224442455e-01) (75, 8.44587994038431322252e-01) (76, -2.13697779017997413487e-01) (77, 1.04209906572161198346e-01) (78, -2.33918824625032967246e-01) (79, -1.60998138926367939661e-01) (80, -1.72566650098442936345e-01) (81, 7.22702316552406576200e-01) (82, -1.29776736122392377659e-01) (83, -3.00133631620725815914e-01) (84, -3.01174499304279086331e-01) (85, -1.86680333655510011237e-01) (86, -2.18878164752109555247e-01) (87, -1.99082716413322884444e-03) (88, 4.38027451466004649760e-02) (89, -2.70201174622107465062e-01) (90, 8.58588254067843670292e-01) (91, -2.85604554502622787204e-01) (92, -3.04594144174892500487e-01) (93, -2.57226175018080482904e-01) (94, -3.56793826106623079841e-02) (95, -2.71724967365789438212e-01) (96, -1.65359779847101373562e-01) (97, -1.39092914150619334501e-01) (98, -2.49069331405985333605e-01) (99, -3.40912274966058248538e-01) (100, -3.29630031718227800575e-01) (101, -1.36361424539693409930e-01) (102, 6.80925796070960598350e-01) (103, -1.70546620885015015601e-01) (104, -3.40871599041280393116e-01) (105, 8.33706070382270597596e-02) (106, -3.36149577521145881409e-01) (107, 1.61751408121588252653e-01) (108, -3.10822445587472184769e-01) (109, -1.60875454107136356408e-01) (110, 8.40900441620294425427e-01) (111, -1.24939269708064348841e-01) (112, 8.49284298061124709456e-01) (113, -3.31687611673179894023e-01) (114, 8.58889952598040906651e-01) (115, -1.60504989292331173845e-01) (116, -1.61451685277393619522e-01) (117, -1.95802760559197153167e-01) (118, -2.75959111526439204720e-01) (119, -3.28209787556952237164e-01) (120, -1.47420597021005406191e-01) (121, 8.23523654602470234209e-01) (122, -1.36118808021736648062e-01) (123, -1.52252238648984378200e-01) (124, 8.17766837118853784361e-01) (125, 7.99002512632597916564e-01) (126, -2.19815065874454207417e-01) (127, -1.76557281822196515675e-01) (128, 1.44939937569371124493e-01) (129, -3.36813628623306715593e-01) (130, -1.83555105745839802767e-01) (131, -1.33620006511269651117e-01) (132, -1.61077900913074056888e-01) (133, -2.84544376726238501529e-01) (134, -1.59154274913497206789e-01) (135, -6.25809567906393700298e-03) (136, 7.18566425288063026500e-01) (137, 8.14034360314433103056e-01) (138, 4.91896098476188259330e-01) (139, -2.94948066538806785708e-01) (140, -2.83379390612071346833e-01) (141, 8.04669543443906953861e-01) (142, -1.72245513418968432262e-01) (143, -1.48825635811098450079e-01) (144, -1.46753634360819756877e-01) (145, -2.17443013956519215490e-01) (146, 8.51725071964686164527e-01) (147, 8.27517738554421233843e-01) (148, -2.86125047212163419186e-01) (149, -1.47287484760054071531e-01) (150, -2.80247936192841828884e-01) (151, -1.89875630034945147573e-01) (152, 8.27461821534698493963e-01) (153, 7.75482973905048056373e-01) (154, -3.21245876286338660766e-01) (155, 4.71098834440634883780e-01) (156, -2.94380182480132090994e-01) (157, -3.38172711381732438163e-01) (158, 8.13891948345221494243e-01) (159, 7.13586915427785517529e-01) (160, 6.88121239949371132916e-01) (161, -2.87241498952236606890e-01) (162, -1.49566677877957548981e-01) (163, -1.66571164774729219005e-01) (164, 7.34894702649837916475e-01) (165, -1.46226084229907238310e-01) (166, -1.47494187674902521579e-01) (167, -6.29114344174791617625e-01) (168, -3.25071704112359138872e-01) (169, 7.75150046881160403878e-01) (170, -2.49595893739092272723e-01) (171, -1.90896963861852203559e-01) (172, -2.93601601515449950330e-01) (173, -1.62259610236983098375e-01) (174, 8.40767137049428181506e-01) (175, -2.58069669192178996475e-01) (176, 7.26016812169891556650e-01) (177, 2.68346611458802584982e-02) (178, -1.50079990193040579971e-01) (179, -1.93402614121077204290e-01) (180, -3.00875459853729099180e-01) (181, -1.57587973676105636001e-01) (182, -1.45086320101030563645e-01) (183, -1.29604788481009119971e-01) (184, -1.53651889818760989392e-01) (185, -3.51943336376954518663e-01) (186, 7.40750834199768948274e-01) (187, 9.27055096547975410193e-02) (188, -3.47885765085033826782e-01) (189, -3.33771275282926049854e-01) (190, -1.44609955618437230340e-01) (191, -3.16440850446058408174e-01) (192, -1.46174692740629302845e-01) (193, -1.42729296198081223590e-01) (194, -3.19678788218808018762e-01) (195, -3.25715426825352372120e-01) (196, -2.87463649883690663955e-01) (197, -2.58926850106961814468e-01) (198, -3.33490841040434748965e-01) (199, 6.49662008866165208154e-01) (200, -2.68558666908837506693e-01) (201, -3.37720733605682277290e-01) (202, -2.58633171353681190485e-01) 
