FANN_FLO_2.1
num_layers=3
learning_rate=0.700000
connection_rate=1.000000
network_type=0
learning_momentum=0.000000
training_algorithm=2
train_error_function=1
train_stop_function=0
cascade_output_change_fraction=0.010000
quickprop_decay=-0.000100
quickprop_mu=1.750000
rprop_increase_factor=1.200000
rprop_decrease_factor=0.500000
rprop_delta_min=0.000000
rprop_delta_max=50.000000
rprop_delta_zero=0.100000
cascade_output_stagnation_epochs=12
cascade_candidate_change_fraction=0.010000
cascade_candidate_stagnation_epochs=12
cascade_max_out_epochs=150
cascade_min_out_epochs=50
cascade_max_cand_epochs=150
cascade_min_cand_epochs=50
cascade_num_candidate_groups=2
bit_fail_limit=3.49999999999999977796e-01
cascade_candidate_limit=1.00000000000000000000e+03
cascade_weight_multiplier=4.00000000000000022204e-01
cascade_activation_functions_count=10
cascade_activation_functions=3 5 7 8 10 11 14 15 16 17 
cascade_activation_steepnesses_count=4
cascade_activation_steepnesses=2.50000000000000000000e-01 5.00000000000000000000e-01 7.50000000000000000000e-01 1.00000000000000000000e+00 
layer_sizes=2 201 2 
scale_included=0
neurons (num_inputs, activation_function, activation_steepness)=(0, 0, 0.00000000000000000000e+00) (0, 0, 0.00000000000000000000e+00) (2, 4, 5.00000000000000000000e-01) (2, 4, 5.00000000000000000000e-01) (2, 4, 5.00000000000000000000e-01) (2, 4, 5.00000000000000000000e-01) (2, 4, 5.00000000000000000000e-01) (2, 4, 5.00000000000000000000e-01) (2, 4, 5.00000000000000000000e-01) (2, 4, 5.00000000000000000000e-01) (2, 4, 5.00000000000000000000e-01) (2, 4, 5.00000000000000000000e-01) (2, 4, 5.00000000000000000000e-01) (2, 4, 5.00000000000000000000e-01) (2, 4, 5.00000000000000000000e-01) (2, 4, 5.00000000000000000000e-01) (2, 4, 5.00000000000000000000e-01) (2, 4, 5.00000000000000000000e-01) (2, 4, 5.00000000000000000000e-01) (2, 4, 5.00000000000000000000e-01) (2, 4, 5.00000000000000000000e-01) (2, 4, 5.00000000000000000000e-01) (2, 4, 5.00000000000000000000e-01) (2, 4, 5.00000000000000000000e-01) (2, 4, 5.00000000000000000000e-01) (2, 4, 5.00000000000000000000e-01) (2, 4, 5.00000000000000000000e-01) (2, 4, 5.00000000000000000000e-01) (2, 4, 5.00000000000000000000e-01) (2, 4, 5.00000000000000000000e-01) (2, 4, 5.00000000000000000000e-01) (2, 4, 5.00000000000000000000e-01) (2, 4, 5.00000000000000000000e-01) (2, 4, 5.00000000000000000000e-01) (2, 4, 5.00000000000000000000e-01) (2, 4, 5.00000000000000000000e-01) (2, 4, 5.00000000000000000000e-01) (2, 4, 5.00000000000000000000e-01) (2, 4, 5.00000000000000000000e-01) (2, 4, 5.00000000000000000000e-01) (2, 4, 5.00000000000000000000e-01) (2, 4, 5.00000000000000000000e-01) (2, 4, 5.00000000000000000000e-01) (2, 4, 5.00000000000000000000e-01) (2, 4, 5.00000000000000000000e-01) (2, 4, 5.00000000000000000000e-01) (2, 4, 5.00000000000000000000e-01) (2, 4, 5.00000000000000000000e-01) (2, 4, 5.00000000000000000000e-01) (2, 4, 5.00000000000000000000e-01) (2, 4, 5.00000000000000000000e-01) (2, 4, 5.00000000000000000000e-01) (2, 4, 5.00000000000000000000e-01) (2, 4, 5.00000000000000000000e-01) (2, 4, 5.00000000000000000000e-01) (2, 4, 5.00000000000000000000e-01) (2, 4, 5.00000000000000000000e-01) (2, 4, 5.00000000000000000000e-01) (2, 4, 5.00000000000000000000e-01) (2, 4, 5.00000000000000000000e-01) (2, 4, 5.00000000000000000000e-01) (2, 4, 5.00000000000000000000e-01) (2, 4, 5.00000000000000000000e-01) (2, 4, 5.00000000000000000000e-01) (2, 4, 5.00000000000000000000e-01) (2, 4, 5.00000000000000000000e-01) (2, 4, 5.00000000000000000000e-01) (2, 4, 5.00000000000000000000e-01) (2, 4, 5.00000000000000000000e-01) (2, 4, 5.00000000000000000000e-01) (2, 4, 5.00000000000000000000e-01) (2, 4, 5.00000000000000000000e-01) (2, 4, 5.00000000000000000000e-01) (2, 4, 5.00000000000000000000e-01) (2, 4, 5.00000000000000000000e-01) (2, 4, 5.00000000000000000000e-01) (2, 4, 5.00000000000000000000e-01) (2, 4, 5.00000000000000000000e-01) (2, 4, 5.00000000000000000000e-01) (2, 4, 5.00000000000000000000e-01) (2, 4, 5.00000000000000000000e-01) (2, 4, 5.00000000000000000000e-01) (2, 4, 5.00000000000000000000e-01) (2, 4, 5.00000000000000000000e-01) (2, 4, 5.00000000000000000000e-01) (2, 4, 5.00000000000000000000e-01) (2, 4, 5.00000000000000000000e-01) (2, 4, 5.00000000000000000000e-01) (2, 4, 5.00000000000000000000e-01) (2, 4, 5.00000000000000000000e-01) (2, 4, 5.00000000000000000000e-01) (2, 4, 5.00000000000000000000e-01) (2, 4, 5.00000000000000000000e-01) (2, 4, 5.00000000000000000000e-01) (2, 4, 5.00000000000000000000e-01) (2, 4, 5.00000000000000000000e-01) (2, 4, 5.00000000000000000000e-01) (2, 4, 5.00000000000000000000e-01) (2, 4, 5.00000000000000000000e-01) (2, 4, 5.00000000000000000000e-01) (2, 4, 5.00000000000000000000e-01) (2, 4, 5.00000000000000000000e-01) (2, 4, 5.00000000000000000000e-01) (2, 4, 5.00000000000000000000e-01) (2, 4, 5.00000000000000000000e-01) (2, 4, 5.00000000000000000000e-01) (2, 4, 5.00000000000000000000e-01) (2, 4, 5.00000000000000000000e-01) (2, 4, 5.00000000000000000000e-01) (2, 4, 5.00000000000000000000e-01) (2, 4, 5.00000000000000000000e-01) (2, 4, 5.00000000000000000000e-01) (2, 4, 5.00000000000000000000e-01) (2, 4, 5.00000000000000000000e-01) (2, 4, 5.00000000000000000000e-01) (2, 4, 5.00000000000000000000e-01) (2, 4, 5.00000000000000000000e-01) (2, 4, 5.00000000000000000000e-01) (2, 4, 5.00000000000000000000e-01) (2, 4, 5.00000000000000000000e-01) (2, 4, 5.00000000000000000000e-01) (2, 4, 5.00000000000000000000e-01) (2, 4, 5.00000000000000000000e-01) (2, 4, 5.00000000000000000000e-01) (2, 4, 5.00000000000000000000e-01) (2, 4, 5.00000000000000000000e-01) (2, 4, 5.00000000000000000000e-01) (2, 4, 5.00000000000000000000e-01) (2, 4, 5.00000000000000000000e-01) (2, 4, 5.00000000000000000000e-01) (2, 4, 5.00000000000000000000e-01) (2, 4, 5.00000000000000000000e-01) (2, 4, 5.00000000000000000000e-01) (2, 4, 5.00000000000000000000e-01) (2, 4, 5.00000000000000000000e-01) (2, 4, 5.00000000000000000000e-01) (2, 4, 5.00000000000000000000e-01) (2, 4, 5.00000000000000000000e-01) (2, 4, 5.00000000000000000000e-01) (2, 4, 5.00000000000000000000e-01) (2, 4, 5.00000000000000000000e-01) (2, 4, 5.00000000000000000000e-01) (2, 4, 5.00000000000000000000e-01) (2, 4, 5.00000000000000000000e-01) (2, 4, 5.00000000000000000000e-01) (2, 4, 5.00000000000000000000e-01) (2, 4, 5.00000000000000000000e-01) (2, 4, 5.00000000000000000000e-01) (2, 4, 5.00000000000000000000e-01) (2, 4, 5.00000000000000000000e-01) (2, 4, 5.00000000000000000000e-01) (2, 4, 5.00000000000000000000e-01) (2, 4, 5.00000000000000000000e-01) (2, 4, 5.00000000000000000000e-01) (2, 4, 5.00000000000000000000e-01) (2, 4, 5.00000000000000000000e-01) (2, 4, 5.00000000000000000000e-01) (2, 4, 5.00000000000000000000e-01) (2, 4, 5.00000000000000000000e-01) (2, 4, 5.00000000000000000000e-01) (2, 4, 5.00000000000000000000e-01) (2, 4, 5.00000000000000000000e-01) (2, 4, 5.00000000000000000000e-01) (2, 4, 5.00000000000000000000e-01) (2, 4, 5.00000000000000000000e-01) (2, 4, 5.00000000000000000000e-01) (2, 4, 5.00000000000000000000e-01) (2, 4, 5.00000000000000000000e-01) (2, 4, 5.00000000000000000000e-01) (2, 4, 5.00000000000000000000e-01) (2, 4, 5.00000000000000000000e-01) (2, 4, 5.00000000000000000000e-01) (2, 4, 5.00000000000000000000e-01) (2, 4, 5.00000000000000000000e-01) (2, 4, 5.00000000000000000000e-01) (2, 4, 5.00000000000000000000e-01) (2, 4, 5.00000000000000000000e-01) (2, 4, 5.00000000000000000000e-01) (2, 4, 5.00000000000000000000e-01) (2, 4, 5.00000000000000000000e-01) (2, 4, 5.00000000000000000000e-01) (2, 4, 5.00000000000000000000e-01) (2, 4, 5.00000000000000000000e-01) (2, 4, 5.00000000000000000000e-01) (2, 4, 5.00000000000000000000e-01) (2, 4, 5.00000000000000000000e-01) (2, 4, 5.00000000000000000000e-01) (2, 4, 5.00000000000000000000e-01) (2, 4, 5.00000000000000000000e-01) (2, 4, 5.00000000000000000000e-01) (2, 4, 5.00000000000000000000e-01) (2, 4, 5.00000000000000000000e-01) (2, 4, 5.00000000000000000000e-01) (2, 4, 5.00000000000000000000e-01) (2, 4, 5.00000000000000000000e-01) (2, 4, 5.00000000000000000000e-01) (2, 4, 5.00000000000000000000e-01) (2, 4, 5.00000000000000000000e-01) (2, 4, 5.00000000000000000000e-01) (2, 4, 5.00000000000000000000e-01) (2, 4, 5.00000000000000000000e-01) (2, 4, 5.00000000000000000000e-01) (0, 0, 0.00000000000000000000e+00) (201, 4, 5.00000000000000000000e-01) (0, 0, 0.00000000000000000000e+00) 
connections (connected_to_neuron, weight)=(0, 4.44161780697265196061e-01) (1, -1.44513621186450058609e-01) (0, -1.32453008476097910950e+00) (1, -8.47584020571912066799e-01) (0, 6.57687857595491087714e-01) (1, 1.12185732416016092916e-01) (0, -5.12933921933214187483e-01) (1, -3.25980352593804256767e-01) (0, 7.93200322124493650833e-01) (1, 2.26169126838814793512e-01) (0, -5.61818077020395212351e-01) (1, -2.62113503716278561928e-01) (0, -2.16647178106276889764e+01) (1, -8.26060833678544348402e+00) (0, -1.32053510051228650823e+00) (1, -7.28234449656106175297e-01) (0, -1.35166912670090599846e+00) (1, -8.24673684521401884062e-01) (0, -6.48790309783753293971e-01) (1, -4.09375275302917451814e-01) (0, -6.37742726740290200027e-01) (1, -2.62417323544120673073e-01) (0, -6.34886558393993216676e-01) (1, -3.13151004965225465693e-01) (0, 2.17415595943417111480e-01) (1, -3.11862789148010965956e-01) (0, 7.20405795928613534862e-01) (1, 1.64390334865710585621e-01) (0, 3.00952779979340723226e-01) (1, -2.47622255945887770334e-01) (0, -5.07459291012869684323e-01) (1, -2.26383733797491465412e-01) (0, -4.86830115716072431287e-01) (1, -2.31882605655599705052e-01) (0, -2.15702690728275676690e+01) (1, -8.26088271186650580091e+00) (0, 7.13992064807040582863e-01) (1, 2.48817041215074585825e-01) (0, 4.53030170758645100992e-01) (1, -1.32400068031026274529e-01) (0, -1.66380401790128862327e-01) (1, 7.40379251210630806579e-02) (0, -5.89410579976309079164e-01) (1, -1.87565040187042009201e-01) (0, 4.71338794841022867832e-01) (1, -8.04225621416066460689e-02) (0, -5.71999923063505000265e-01) (1, -3.12613362565231645007e-01) (0, -5.22932252508203743169e-01) (1, -2.43631639575394659536e-01) (0, -5.69242954798493960844e-02) (1, 5.38842952973786898374e-02) (0, 7.33192170085812833236e-01) (1, 2.60428798997058896791e-01) (0, -5.50682052196447169301e-01) (1, -2.51774184950638357794e-01) (0, -3.03875675236575704119e+00) (1, 2.91278602476069981009e+00) (0, 7.54479689245123763541e-01) (1, 2.36896199424875247841e-01) (0, -5.78561607382814702127e-01) (1, -1.61741110706686369580e-01) (0, -6.24844054482925570504e-01) (1, -1.31087851701905983015e-01) (0, -2.15609779604046245538e+01) (1, -8.30507004902661627455e+00) (0, -1.40084105319450347160e+00) (1, -5.97172679272747863877e-01) (0, -6.30140215784479762462e-01) (1, -2.44600273325542627578e-01) (0, -2.16874815695254703485e+01) (1, -8.25109647856057648596e+00) (0, -1.33991733284052405573e+00) (1, -6.28788197113413271921e-01) (0, 3.78726755556062388841e-01) (1, -5.29263594791374303306e-02) (0, 3.00643312663666895101e-01) (1, -2.48847265506472958840e-01) (0, -1.33736691438226107387e+00) (1, -7.95584151902836489434e-01) (0, -1.42527328577646117402e+00) (1, -7.24037883332698584127e-01) (0, -1.37075878537686191017e+00) (1, -7.72822051200116155734e-01) (0, -6.58712564716269488585e-01) (1, -1.30460984951188546654e-01) (0, -5.48638591650712936776e-01) (1, -2.74615418710756842291e-01) (0, -5.79221154969442486582e-01) (1, -2.33164565756526498408e-01) (0, -1.77667648304449199426e-01) (1, 8.85139561860509849200e-02) (0, 5.11596822738387024820e-01) (1, -1.28964470339012760025e-01) (0, -6.16894247691480379636e-01) (1, -1.30533891413858210706e-01) (0, 7.68688532869234775191e-01) (1, 2.01259062840119407056e-01) (0, -6.17484890117652840402e-01) (1, -3.61487175540681715535e-01) (0, -2.17412343792884250604e+01) (1, -8.27463319794238394422e+00) (0, -5.06394708294020556849e-01) (1, -2.12946363651711823017e-01) (0, -1.34659595602186143992e+00) (1, -6.85890823839284013985e-01) (0, 5.24408825325036076492e-01) (1, -1.93807507507045340134e-01) (0, 6.57696888869815254886e-01) (1, 2.45997679989184148130e-01) (0, 3.35790467246651125333e-01) (1, -1.43214968074516113550e-01) (0, -1.84201867061502753131e+01) (1, -5.08851096475707809219e+00) (0, -1.44193804786922141759e+00) (1, -7.11073758224933349936e-01) (0, -8.42485529457844134482e-02) (1, 3.02440330269284837761e-02) (0, -2.16090428926317592584e+01) (1, -8.33226271615327185316e+00) (0, 8.24256020943522127453e-01) (1, 1.06045638860610608178e-01) (0, 7.23236359023705310811e-01) (1, 1.79821398422856187915e-01) (0, -4.85951832157160423797e-01) (1, -3.18520075759793519499e-01) (0, -3.97458350027710016761e-01) (1, -5.03968054754298067088e-01) (0, 4.63248026358622111420e-01) (1, -2.10848691775283647587e-01) (0, -5.03227684719191437068e-01) (1, -2.25546559869708312940e-01) (0, 7.73900947553528673062e-01) (1, 2.07809237661495394001e-01) (0, -4.83269997628300695958e-01) (1, -2.80604754537488287891e-01) (0, 6.78649726429512045733e-01) (1, 1.56027849383687217122e-01) (0, -2.00880266014183073153e+00) (1, -2.02852467916685874627e+00) (0, -1.46040780883021059644e+00) (1, -7.10391972583167552457e-01) (0, 7.49158839494164396910e-01) (1, 1.63353788320204612594e-01) (0, -5.23401954883424225251e-01) (1, -3.39605253770638326749e-01) (0, -5.86261944172422722055e-01) (1, -1.40332691265466852348e-01) (0, 7.95031877953542021054e-01) (1, 1.97389228385105086616e-01) (0, 7.64442459997300649555e-01) (1, 8.19922011338805878378e-02) (0, -5.93692693184700970299e-01) (1, -3.27464052513886161311e-01) (0, -1.30996845001867212588e+00) (1, -7.28632915097333189181e-01) (0, -1.34042559603680944136e+00) (1, -7.85837846258324201898e-01) (0, 4.02992945807846447703e-01) (1, -5.54761170832596961500e-02) (0, 7.41652821843527321199e-01) (1, 2.57906635253085603221e-01) (0, 7.55968889615082795252e-01) (1, 2.78871591435568721984e-01) (0, -1.87795111655400609463e-01) (1, -8.05986363279871803611e-02) (0, -5.81819525711286700265e-01) (1, -2.22898442724445422503e-01) (0, -1.04642244805476867242e+01) (1, -4.87938566046917365782e+00) (0, -2.99993181205741121786e+00) (1, 2.87342037526212745746e+00) (0, -1.40251132482712681515e+00) (1, -7.64014908041065199384e-01) (0, -4.97074693839175185683e-01) (1, -2.10577288578474380865e-01) (0, 6.60237154933123626677e-01) (1, 2.76706141048758735845e-01) (0, 6.91999539588512124766e-01) (1, 2.77391247975676658033e-01) (0, -6.10815833114135897652e-01) (1, -1.59128057454274718374e-01) (0, -2.27727918063034301399e-01) (1, -4.05638304157252826965e-01) (0, -6.06906089690534389369e-01) (1, -1.39529311414886864062e-01) (0, -2.16345110632746120416e+01) (1, -8.37575995073617285414e+00) (0, -2.16126994140713115655e+01) (1, -8.38762832329572027845e+00) (0, 4.05261080037437104728e-01) (1, -2.41858868110860797396e-01) (0, -4.99197644913778049158e-01) (1, -1.68102830276942727394e-01) (0, 4.53359566867844954174e-01) (1, -6.73585483295408016247e-02) (0, -6.34693769991436007594e-01) (1, -3.02284314466157721935e-01) (0, 4.84878083651438640533e-01) (1, -1.22395532424164232843e-01) (0, -5.73300451419580414658e-01) (1, -2.88176482047272086717e-01) (0, -5.25730368449060070368e-01) (1, -3.09110141316223885344e-01) (0, 7.94297243184101886548e-01) (1, 2.19820293397080701592e-01) (0, -1.53569132718012602012e+00) (1, -3.85586589327766182667e-01) (0, -1.38521116249975073664e+00) (1, -7.83867892682278522010e-01) (0, -2.16378667228190799676e+01) (1, -8.37432367996276205702e+00) (0, -5.83033343120423430683e-01) (1, -3.30429501712418027815e-01) (0, 3.75611942884972793699e-01) (1, -6.53463528444260394190e-02) (0, -6.45669603466737629383e-01) (1, -1.49745160678075889260e-01) (0, -2.16980173796682258569e+01) (1, -8.32649207011760061903e+00) (0, 5.22069377409768220488e-01) (1, -1.86520439521986658438e-01) (0, 3.71694008493950511784e-01) (1, -7.09265005347228388866e-02) (0, -5.34395056840048621183e-01) (1, -1.70950670458769132809e-01) (0, 4.53115474395387018980e-01) (1, -8.60819020730950040798e-02) (0, 2.76391999803525689750e-01) (1, -2.05811758081572288015e-01) (0, 4.53543085949723145944e-01) (1, -1.66481497274118012131e-01) (0, -5.99860822987374309179e-01) (1, -3.54197910034100171828e-01) (0, -6.07604301000583713055e-01) (1, -1.84966268633048297465e-01) (0, -1.33931665365961016789e+00) (1, -6.57832272297955711338e-01) (0, 1.73956048185941486439e-01) (1, -2.27058606589933709152e-01) (0, -5.77858107561815326214e-01) (1, -2.45754199221329183711e-01) (0, 7.08319614079419124231e-01) (1, 1.07050614323002196704e-01) (0, -5.68791381241266269519e-01) (1, -2.13946547578663992528e-01) (0, 2.92983603386005764246e-01) (1, -3.46352134725972760076e-01) (0, -8.00320625849521710693e-02) (1, 8.15641111857841050181e-02) (0, -5.47158193547952476088e-01) (1, -3.16573153170872256812e-01) (0, 7.12541837649389053766e-01) (1, 1.38099460437632853838e-01) (0, 3.33079496741889469202e-01) (1, -2.29521478260243577685e-01) (0, -5.15071946762125087993e-01) (1, -2.99020036488676921316e-01) (0, -6.32381735658872012884e-01) (1, -2.74333568904972124880e-01) (0, -1.25129119728933424494e-01) (1, -6.25783106935068611509e-02) (0, 7.50877516101738473608e-01) (1, 2.11401063901081737173e-01) (0, 6.87248281923819259731e-01) (1, 1.51607406244134712558e-01) (0, -6.54908642219950598573e-01) (1, -1.59426947349140923915e-01) (0, 7.86604788137075572330e-01) (1, 8.29426021138755659168e-02) (0, -1.43404366570262298275e+00) (1, -6.40552033066433268438e-01) (0, -5.10961790212671407296e-01) (1, -2.99824318930769939673e-01) (0, 7.64032073347942319863e-01) (1, 2.22321142982615488348e-01) (0, -2.04748194144617007284e-01) (1, 4.52386478726810453699e-02) (0, -2.16207742341129680597e+01) (1, -8.30100986258090323133e+00) (0, -1.65678072810159837669e-01) (1, 7.82078958718725181232e-02) (0, -2.15866180904476543390e+01) (1, -8.23867953465283875403e+00) (0, -6.09328501877953288002e-01) (1, -2.61751757609462731846e-01) (0, -2.17101143509416480981e+01) (1, -8.24033219263852600989e+00) (0, 2.00621846006359738634e-01) (1, -2.81119929987579841857e-01) (0, 7.60444753841298282104e-01) (1, 2.09667608998432591916e-01) (0, 4.07555291387401708025e-01) (1, -2.44623458195413728822e-01) (0, 7.52541039204021378062e-01) (1, 2.10526613778248550268e-01) (0, 5.20354425465036074527e-01) (1, -1.92951035635192308382e-01) (0, -5.19086331526862121422e-01) (1, -1.57629642221428056814e-01) (0, -1.18142141698733937893e-01) (1, 9.59582948434301724605e-02) (0, -1.44399484753679141491e+00) (1, -7.18803067212073987235e-01) (0, -2.18569591736173768348e-01) (1, 6.92063583013949185085e-02) (0, -6.42145949779440838867e-01) (1, -1.78001070359392832287e-01) (0, -1.04612908740422927423e+01) (1, -4.97451624560320304624e+00) (0, 7.49711261261966299685e-01) (1, 2.62051177461757711651e-01) (0, -1.41782203339752066462e+00) (1, -7.29469369318931359913e-01) (0, -5.71050387580621765515e-01) (1, -2.69388986255360007860e-01) (0, -5.58580641408193412367e-01) (1, -2.92723121033478250741e-01) (0, -1.31134379385107546767e+00) (1, -6.53710516520876527835e-01) (0, -5.02923730254279277574e-01) (1, -1.53659752442425717733e-01) (0, 4.30658217047895086615e-01) (1, -6.02473258373225281637e-02) (0, -2.42420626274566997083e+00) (1, 1.99793462253875930834e+00) (0, -2.16977095328538318597e+01) (1, -8.35255762458742445631e+00) (0, -1.40957557988217274669e+00) (1, -7.35364998545849579692e-01) (0, 3.94064998695644208571e-01) (1, -1.80033686706263934552e-01) (0, 7.17055902193205474404e-01) (1, 1.84648503872055558261e-01) (0, 5.41326892372152035371e-01) (1, -2.33295384445391718042e-01) (0, -1.71636315784918114247e-01) (1, 9.96586687533804055361e-02) (0, 7.19485066455941679742e-01) (1, 2.57083300814761495090e-01) (0, -5.45098251324693916509e-01) (1, -1.83630191045162538543e-01) (0, 7.87716724947819524338e-01) (1, 1.63337696513315089319e-01) (0, -1.42576070495169471286e+00) (1, -6.65112141847294169317e-01) (0, 7.91270596866620046228e-01) (1, 2.39622709447991327769e-01) (0, 7.09049362918707348769e-01) (1, 1.46377962281561052604e-01) (0, 2.55660170067754710654e-01) (1, -3.12728487359680229485e-01) (0, 1.75544876432773222508e-01) (1, -2.04487892235416107711e-01) (0, 3.56935002136066270584e-01) (1, -1.81231876885612569472e-01) (0, 6.84621248376989788298e-01) (1, 2.61367285226192902492e-01) (0, -1.43375866731979062507e+00) (1, -7.19656509808032751607e-01) (0, 8.16340832095158508430e-01) (1, 8.65175892464232348944e-02) (0, -2.15641337283222576104e+01) (1, -8.34397381068170851393e+00) (0, 7.88012093326582951924e-01) (1, 2.19744613220346246552e-01) (0, -5.17922377304183001456e-01) (1, -1.55509595354058116623e-01) (0, -1.84244266005999861591e+01) (1, -4.94840761715757171402e+00) (0, -1.37908332308762493490e+00) (1, -7.92616971026623651220e-01) (0, -5.25847740720788991986e-01) (1, -2.86795345482016350580e-01) (0, -6.26307780645836031930e-01) (1, -1.31694010757615803664e-01) (0, -5.12835073850671840923e-01) (1, -3.04249172156477842854e-01) (0, -2.15731179811327358209e+01) (1, -8.34235782817900961561e+00) (0, -1.36671306526979319251e+00) (1, -8.06818657753193835269e-01) (0, -1.33407561629288506921e+00) (1, -8.19545163374627239072e-01) (0, -6.45905748635698939708e-01) (1, -2.13885635083807035262e-01) (0, 6.57668332734155369756e-01) (1, 1.03245572141512087505e-01) (0, -5.60852649377096112993e-01) (1, -3.20346003925133238077e-01) (0, 3.82872213281826467846e-01) (1, -6.10244998380630732093e-02) (0, -1.34885279569135985156e-01) (1, 5.18521793167535938185e-02) (0, -1.13555437367039502305e+00) (1, -1.25240366875544895109e+00) (0, -1.46338039625780869102e+00) (1, -6.21097249439685694661e-01) (0, -6.01428682381856982708e-01) (1, -1.92740260632673826580e-01) (2, -3.94757402472986768105e-02) (3, 7.77606617040709630073e-02) (4, -6.47348738434802145614e-02) (5, 7.42183686141674736625e-02) (6, -8.11323390743785011203e-02) (7, 4.04465030242607825883e-02) (8, 1.50000000000000000000e+03) (9, 3.90699785940919960825e-02) (10, 7.63079005364493967445e-02) (11, 3.44149403164555958701e-02) (12, 6.50857787146009170165e-02) (13, 7.19660671651982108976e-02) (14, -2.16111605210792673271e-02) (15, -7.18728351247363006493e-02) (16, -4.35622410166754542304e-02) (17, 6.36760454417888144274e-02) (18, 7.02803658975878209336e-02) (19, 1.50000000000000000000e+03) (20, -5.94843971383621772375e-02) (21, -3.01061173313155912290e-02) (22, 9.66914418599557484724e-02) (23, 4.61158452481911368404e-02) (24, -3.41796543397730467895e-02) (25, 4.65902328113243849317e-02) (26, 8.54722291553203783465e-02) (27, 1.08083469171757540206e-01) (28, -6.72717439782671844384e-02) (29, 7.67964070764248774026e-02) (30, 1.11264941432623487572e+00) (31, -6.16076412451317806385e-02) (32, 7.33726566758816645120e-02) (33, 4.06598928504631612624e-02) (34, 1.50000000000000000000e+03) (35, 3.55952278113313771990e-02) (36, 6.64963990588849918062e-02) (37, 1.50000000000000000000e+03) (38, 2.85103136921089662936e-02) (39, -3.67436263658827422240e-02) (40, -3.34621594536795574637e-02) (41, 7.26718551314429195287e-02) (42, 1.32897456799098173663e-01) (43, 7.77612612157897314935e-02) (44, 7.35323697467512027437e-02) (45, 4.96101921525643335675e-02) (46, 6.54262153358166897998e-02) (47, 1.02802497472519849264e-01) (48, -3.23091172156824563144e-02) (49, 7.84218011350339139209e-02) (50, -7.25889647500567447569e-02) (51, 6.71781421913707904592e-02) (52, 1.50000000000000000000e+03) (53, 4.44518371599840200759e-02) (54, 3.60905204951234917510e-02) (55, -2.54820352495212058830e-02) (56, -6.00176504972460486687e-02) (57, -3.35594081569209057303e-02) (58, 1.50000000000000000000e+03) (59, 1.31280904428793365746e-01) (60, 1.05553162594075058967e-01) (61, 1.50000000000000000000e+03) (62, -6.54699752875857465817e-02) (63, -5.07423329007681001013e-02) (64, 8.57089321853343466540e-02) (65, -5.71257236703532900179e-02) (66, -4.28993155591978619912e-02) (67, 8.14905210512820304958e-02) (68, -4.98597914474065845303e-02) (69, 7.92086083627978332355e-02) (70, -7.65688545229922384872e-02) (71, 9.46903485716814874440e-02) (72, 1.20775427976204094427e-01) (73, -6.68663153545908939268e-02) (74, 4.93889883132622928286e-02) (75, 8.98123180595105097268e-02) (76, -4.89966885588224432269e-02) (77, -4.74071071884687444964e-02) (78, 5.57580737193272141239e-02) (79, 4.26210695607199541168e-02) (80, 8.01979420822219041254e-02) (81, -3.04813375692195229205e-02) (82, -4.84788316142614472692e-02) (83, -6.34864020001940643212e-02) (84, 9.68698385617684926130e-02) (85, 4.43102566451714224849e-02) (86, 1.50000000000000000000e+03) (87, 1.10256002051309343059e+00) (88, 1.21319812907575846905e-01) (89, 6.89877447442332064620e-02) (90, -4.84518609169020120220e-02) (91, -5.04348474395330537146e-02) (92, 5.36811516177825576168e-02) (93, -4.29969958807414481816e-02) (94, 5.25559483022376497385e-02) (95, 1.50000000000000000000e+03) (96, 1.50000000000000000000e+03) (97, -3.86525442235960553505e-02) (98, 5.79372572435634669574e-02) (99, -3.82140953042334058365e-02) (100, 3.75858393270615959159e-02) (101, -2.50460634882945405721e-02) (102, 4.40904828839943502272e-02) (103, 5.83413172052084927355e-02) (104, -5.42755366704504513264e-02) (105, 1.70364960008494881194e-01) (106, 6.57051440594749042168e-02) (107, 1.50000000000000000000e+03) (108, 6.13035931762944200085e-02) (109, -2.60390419461558400571e-02) (110, 6.62390691735929293404e-02) (111, 1.50000000000000000000e+03) (112, -3.70401688395037148593e-02) (113, -2.34093595244709781755e-02) (114, 6.62062610627834335908e-02) (115, -2.97093180351751147417e-02) (116, -2.38859617400657975317e-02) (117, -2.51348217361466973185e-02) (118, 4.84873805124833578972e-02) (119, 8.09429767661755950048e-02) (120, 4.03468060225500718685e-02) (121, -2.06565425792228640756e-02) (122, 8.91198364944165433155e-02) (123, -6.43180362108241171493e-02) (124, 7.93736093410199183840e-02) (125, -1.74878613341343178145e-02) (126, 9.77518384649704585865e-02) (127, 8.02464820241635401477e-02) (128, -5.71263260367397412987e-02) (129, -3.87018758168711368706e-02) (130, 9.10224659644787575941e-02) (131, 6.13426250285651758487e-02) (132, 1.02260060550446368888e-01) (133, -7.87635641944460784813e-02) (134, -5.21081960919383829767e-02) (135, 8.80078494687742268754e-02) (136, -5.29648028996034803129e-02) (137, 6.81604632574156765745e-02) (138, 7.59462424636547506207e-02) (139, -5.81786456358482015339e-02) (140, 1.04304474916214889868e-01) (141, 1.50000000000000000000e+03) (142, 9.42289554912995597213e-02) (143, 1.50000000000000000000e+03) (144, 5.75834930082022300457e-02) (145, 1.50000000000000000000e+03) (146, -2.37096588235389746369e-02) (147, -7.90003808987193023583e-02) (148, -3.53282926016344617226e-02) (149, -6.49469691169314300438e-02) (150, -3.82965378938211892246e-02) (151, 4.84423464912675932892e-02) (152, 9.39598008410881951891e-02) (153, 1.19592869150901337516e-01) (154, 9.97916651804399007508e-02) (155, 5.39428115029990939977e-02) (156, 1.50000000000000000000e+03) (157, -6.59541311514429962060e-02) (158, 1.30081385892745121646e-01) (159, 4.29086832256004996333e-02) (160, 5.01901654452965514941e-02) (161, 2.88778192979971988497e-02) (162, 5.61759995950964208244e-02) (163, -3.96933186747854688248e-02) (164, 1.34040930874929298255e-01) (165, 1.50000000000000000000e+03) (166, 6.45239837732391047220e-02) (167, -2.66735813971060754801e-02) (168, -6.75287815582804734627e-02) (169, -2.91648670259013233219e-02) (170, 9.86478153130960211392e-02) (171, -6.53794678700022613427e-02) (172, 8.14548888326351583355e-02) (173, -7.39583910844378578098e-02) (174, 6.92392639195517634043e-02) (175, -8.17459465405993568332e-02) (176, -5.78630021932609109325e-02) (177, -2.04463900316250099531e-02) (178, -1.81591473756662416528e-02) (179, -3.21401966147913525917e-02) (180, -7.57340914729128927840e-02) (181, 1.20168542282419757439e-01) (182, -5.26893422038598874257e-02) (183, 1.50000000000000000000e+03) (184, -7.76090489170603858859e-02) (185, 5.67537373680381124208e-02) (186, 1.50000000000000000000e+03) (187, 7.08881089167670702667e-02) (188, 4.32058335189507425333e-02) (189, 8.23499146037763030126e-02) (190, 8.49852456056301719389e-02) (191, 1.50000000000000000000e+03) (192, 6.92223010937766530803e-02) (193, 6.92714951312140558848e-02) (194, 4.99155193706199845627e-02) (195, -6.47828481319438070907e-02) (196, 6.53406602321332241612e-02) (197, -3.60654694955175880722e-02) (198, 9.24941077249001458727e-02) (199, 1.41957033555414335879e-01) (200, 7.48657363604621345354e-02) (201, 8.21961179864590940625e-02) (202, 2.94878981239742599119e-02) 
