FANN_FLO_2.1
num_layers=3
learning_rate=0.700000
connection_rate=1.000000
network_type=0
learning_momentum=0.000000
training_algorithm=2
train_error_function=1
train_stop_function=0
cascade_output_change_fraction=0.010000
quickprop_decay=-0.000100
quickprop_mu=1.750000
rprop_increase_factor=1.200000
rprop_decrease_factor=0.500000
rprop_delta_min=0.000000
rprop_delta_max=50.000000
rprop_delta_zero=0.100000
cascade_output_stagnation_epochs=12
cascade_candidate_change_fraction=0.010000
cascade_candidate_stagnation_epochs=12
cascade_max_out_epochs=150
cascade_min_out_epochs=50
cascade_max_cand_epochs=150
cascade_min_cand_epochs=50
cascade_num_candidate_groups=2
bit_fail_limit=3.49999999999999977796e-01
cascade_candidate_limit=1.00000000000000000000e+03
cascade_weight_multiplier=4.00000000000000022204e-01
cascade_activation_functions_count=10
cascade_activation_functions=3 5 7 8 10 11 14 15 16 17 
cascade_activation_steepnesses_count=4
cascade_activation_steepnesses=2.50000000000000000000e-01 5.00000000000000000000e-01 7.50000000000000000000e-01 1.00000000000000000000e+00 
layer_sizes=2 201 2 
scale_included=0
neurons (num_inputs, activation_function, activation_steepness)=(0, 0, 0.00000000000000000000e+00) (0, 0, 0.00000000000000000000e+00) (2, 4, 5.00000000000000000000e-01) (2, 4, 5.00000000000000000000e-01) (2, 4, 5.00000000000000000000e-01) (2, 4, 5.00000000000000000000e-01) (2, 4, 5.00000000000000000000e-01) (2, 4, 5.00000000000000000000e-01) (2, 4, 5.00000000000000000000e-01) (2, 4, 5.00000000000000000000e-01) (2, 4, 5.00000000000000000000e-01) (2, 4, 5.00000000000000000000e-01) (2, 4, 5.00000000000000000000e-01) (2, 4, 5.00000000000000000000e-01) (2, 4, 5.00000000000000000000e-01) (2, 4, 5.00000000000000000000e-01) (2, 4, 5.00000000000000000000e-01) (2, 4, 5.00000000000000000000e-01) (2, 4, 5.00000000000000000000e-01) (2, 4, 5.00000000000000000000e-01) (2, 4, 5.00000000000000000000e-01) (2, 4, 5.00000000000000000000e-01) (2, 4, 5.00000000000000000000e-01) (2, 4, 5.00000000000000000000e-01) (2, 4, 5.00000000000000000000e-01) (2, 4, 5.00000000000000000000e-01) (2, 4, 5.00000000000000000000e-01) (2, 4, 5.00000000000000000000e-01) (2, 4, 5.00000000000000000000e-01) (2, 4, 5.00000000000000000000e-01) (2, 4, 5.00000000000000000000e-01) (2, 4, 5.00000000000000000000e-01) (2, 4, 5.00000000000000000000e-01) (2, 4, 5.00000000000000000000e-01) (2, 4, 5.00000000000000000000e-01) (2, 4, 5.00000000000000000000e-01) (2, 4, 5.00000000000000000000e-01) (2, 4, 5.00000000000000000000e-01) (2, 4, 5.00000000000000000000e-01) (2, 4, 5.00000000000000000000e-01) (2, 4, 5.00000000000000000000e-01) (2, 4, 5.00000000000000000000e-01) (2, 4, 5.00000000000000000000e-01) (2, 4, 5.00000000000000000000e-01) (2, 4, 5.00000000000000000000e-01) (2, 4, 5.00000000000000000000e-01) (2, 4, 5.00000000000000000000e-01) (2, 4, 5.00000000000000000000e-01) (2, 4, 5.00000000000000000000e-01) (2, 4, 5.00000000000000000000e-01) (2, 4, 5.00000000000000000000e-01) (2, 4, 5.00000000000000000000e-01) (2, 4, 5.00000000000000000000e-01) (2, 4, 5.00000000000000000000e-01) (2, 4, 5.00000000000000000000e-01) (2, 4, 5.00000000000000000000e-01) (2, 4, 5.00000000000000000000e-01) (2, 4, 5.00000000000000000000e-01) (2, 4, 5.00000000000000000000e-01) (2, 4, 5.00000000000000000000e-01) (2, 4, 5.00000000000000000000e-01) (2, 4, 5.00000000000000000000e-01) (2, 4, 5.00000000000000000000e-01) (2, 4, 5.00000000000000000000e-01) (2, 4, 5.00000000000000000000e-01) (2, 4, 5.00000000000000000000e-01) (2, 4, 5.00000000000000000000e-01) (2, 4, 5.00000000000000000000e-01) (2, 4, 5.00000000000000000000e-01) (2, 4, 5.00000000000000000000e-01) (2, 4, 5.00000000000000000000e-01) (2, 4, 5.00000000000000000000e-01) (2, 4, 5.00000000000000000000e-01) (2, 4, 5.00000000000000000000e-01) (2, 4, 5.00000000000000000000e-01) (2, 4, 5.00000000000000000000e-01) (2, 4, 5.00000000000000000000e-01) (2, 4, 5.00000000000000000000e-01) (2, 4, 5.00000000000000000000e-01) (2, 4, 5.00000000000000000000e-01) (2, 4, 5.00000000000000000000e-01) (2, 4, 5.00000000000000000000e-01) (2, 4, 5.00000000000000000000e-01) (2, 4, 5.00000000000000000000e-01) (2, 4, 5.00000000000000000000e-01) (2, 4, 5.00000000000000000000e-01) (2, 4, 5.00000000000000000000e-01) (2, 4, 5.00000000000000000000e-01) (2, 4, 5.00000000000000000000e-01) (2, 4, 5.00000000000000000000e-01) (2, 4, 5.00000000000000000000e-01) (2, 4, 5.00000000000000000000e-01) (2, 4, 5.00000000000000000000e-01) (2, 4, 5.00000000000000000000e-01) (2, 4, 5.00000000000000000000e-01) (2, 4, 5.00000000000000000000e-01) (2, 4, 5.00000000000000000000e-01) (2, 4, 5.00000000000000000000e-01) (2, 4, 5.00000000000000000000e-01) (2, 4, 5.00000000000000000000e-01) (2, 4, 5.00000000000000000000e-01) (2, 4, 5.00000000000000000000e-01) (2, 4, 5.00000000000000000000e-01) (2, 4, 5.00000000000000000000e-01) (2, 4, 5.00000000000000000000e-01) (2, 4, 5.00000000000000000000e-01) (2, 4, 5.00000000000000000000e-01) (2, 4, 5.00000000000000000000e-01) (2, 4, 5.00000000000000000000e-01) (2, 4, 5.00000000000000000000e-01) (2, 4, 5.00000000000000000000e-01) (2, 4, 5.00000000000000000000e-01) (2, 4, 5.00000000000000000000e-01) (2, 4, 5.00000000000000000000e-01) (2, 4, 5.00000000000000000000e-01) (2, 4, 5.00000000000000000000e-01) (2, 4, 5.00000000000000000000e-01) (2, 4, 5.00000000000000000000e-01) (2, 4, 5.00000000000000000000e-01) (2, 4, 5.00000000000000000000e-01) (2, 4, 5.00000000000000000000e-01) (2, 4, 5.00000000000000000000e-01) (2, 4, 5.00000000000000000000e-01) (2, 4, 5.00000000000000000000e-01) (2, 4, 5.00000000000000000000e-01) (2, 4, 5.00000000000000000000e-01) (2, 4, 5.00000000000000000000e-01) (2, 4, 5.00000000000000000000e-01) (2, 4, 5.00000000000000000000e-01) (2, 4, 5.00000000000000000000e-01) (2, 4, 5.00000000000000000000e-01) (2, 4, 5.00000000000000000000e-01) (2, 4, 5.00000000000000000000e-01) (2, 4, 5.00000000000000000000e-01) (2, 4, 5.00000000000000000000e-01) (2, 4, 5.00000000000000000000e-01) (2, 4, 5.00000000000000000000e-01) (2, 4, 5.00000000000000000000e-01) (2, 4, 5.00000000000000000000e-01) (2, 4, 5.00000000000000000000e-01) (2, 4, 5.00000000000000000000e-01) (2, 4, 5.00000000000000000000e-01) (2, 4, 5.00000000000000000000e-01) (2, 4, 5.00000000000000000000e-01) (2, 4, 5.00000000000000000000e-01) (2, 4, 5.00000000000000000000e-01) (2, 4, 5.00000000000000000000e-01) (2, 4, 5.00000000000000000000e-01) (2, 4, 5.00000000000000000000e-01) (2, 4, 5.00000000000000000000e-01) (2, 4, 5.00000000000000000000e-01) (2, 4, 5.00000000000000000000e-01) (2, 4, 5.00000000000000000000e-01) (2, 4, 5.00000000000000000000e-01) (2, 4, 5.00000000000000000000e-01) (2, 4, 5.00000000000000000000e-01) (2, 4, 5.00000000000000000000e-01) (2, 4, 5.00000000000000000000e-01) (2, 4, 5.00000000000000000000e-01) (2, 4, 5.00000000000000000000e-01) (2, 4, 5.00000000000000000000e-01) (2, 4, 5.00000000000000000000e-01) (2, 4, 5.00000000000000000000e-01) (2, 4, 5.00000000000000000000e-01) (2, 4, 5.00000000000000000000e-01) (2, 4, 5.00000000000000000000e-01) (2, 4, 5.00000000000000000000e-01) (2, 4, 5.00000000000000000000e-01) (2, 4, 5.00000000000000000000e-01) (2, 4, 5.00000000000000000000e-01) (2, 4, 5.00000000000000000000e-01) (2, 4, 5.00000000000000000000e-01) (2, 4, 5.00000000000000000000e-01) (2, 4, 5.00000000000000000000e-01) (2, 4, 5.00000000000000000000e-01) (2, 4, 5.00000000000000000000e-01) (2, 4, 5.00000000000000000000e-01) (2, 4, 5.00000000000000000000e-01) (2, 4, 5.00000000000000000000e-01) (2, 4, 5.00000000000000000000e-01) (2, 4, 5.00000000000000000000e-01) (2, 4, 5.00000000000000000000e-01) (2, 4, 5.00000000000000000000e-01) (2, 4, 5.00000000000000000000e-01) (2, 4, 5.00000000000000000000e-01) (2, 4, 5.00000000000000000000e-01) (2, 4, 5.00000000000000000000e-01) (2, 4, 5.00000000000000000000e-01) (2, 4, 5.00000000000000000000e-01) (2, 4, 5.00000000000000000000e-01) (2, 4, 5.00000000000000000000e-01) (2, 4, 5.00000000000000000000e-01) (2, 4, 5.00000000000000000000e-01) (2, 4, 5.00000000000000000000e-01) (2, 4, 5.00000000000000000000e-01) (2, 4, 5.00000000000000000000e-01) (2, 4, 5.00000000000000000000e-01) (2, 4, 5.00000000000000000000e-01) (2, 4, 5.00000000000000000000e-01) (2, 4, 5.00000000000000000000e-01) (2, 4, 5.00000000000000000000e-01) (2, 4, 5.00000000000000000000e-01) (0, 0, 0.00000000000000000000e+00) (201, 4, 5.00000000000000000000e-01) (0, 0, 0.00000000000000000000e+00) 
connections (connected_to_neuron, weight)=(0, -9.08029396637272223636e-01) (1, -3.14574485403604997558e-01) (0, -2.58638026369737694665e+00) (1, -1.59763286202572940553e+00) (0, -9.17522453822901318254e-01) (1, -3.08350675323265210892e-01) (0, -8.65753304079634355972e-01) (1, -1.30012320110669610251e+00) (0, 7.59392408514757311089e-01) (1, -2.63423653381466726930e-01) (0, -3.95160552386331920260e+00) (1, -8.84164965818653891816e-01) (0, 1.67368340102782084955e+01) (1, -2.03650858799949130429e+00) (0, -8.78766114198321801609e+00) (1, 1.67419663353468428646e+00) (0, -1.18362012573666808279e+00) (1, -3.29951278418993798613e-01) (0, -6.14963499334815977271e-01) (1, -4.17276250225184275333e-01) (0, 1.27806383068838125272e-01) (1, -4.03599037872018617801e-01) (0, -3.15315361632349544507e+00) (1, -1.30174713545351905530e+00) (0, -6.73599624937974628125e+00) (1, -2.84217967760258760634e+00) (0, -5.13668062486970389280e-01) (1, -7.98274879359588268590e-02) (0, -4.21503193130696196533e+00) (1, -7.49516783717899870432e-01) (0, -8.94214897206890957371e-01) (1, -3.25612845387215021908e-01) (0, -1.43871910687874517976e+01) (1, -1.40744299903351421932e+00) (0, -1.01216974870942255649e+00) (1, -2.83586576898193165608e-01) (0, 1.60172435447551525511e-01) (1, -1.10566779986118829404e-01) (0, 1.60619466732518496599e+01) (1, -3.55194299553039938289e+00) (0, 1.72857241766594826871e+00) (1, 2.40128532746201911463e-01) (0, 7.07253120695463866063e-01) (1, -2.03424793431035005886e-01) (0, -1.96293175017256071868e-01) (1, -9.26338828475709141763e-01) (0, -1.15422212082368844110e-01) (1, -9.46612603576679201289e-01) (0, 6.04601136338064115705e-01) (1, -2.76187954881092601056e-01) (0, -1.21670596333619300822e+01) (1, -3.98078945101408898655e-01) (0, -1.05687924239627895062e+00) (1, -2.23002073301858921850e-01) (0, -9.93786843535188313403e-01) (1, -2.68851771799847871769e-01) (0, 1.01402123290985346493e+00) (1, -9.87405359737829474431e-02) (0, 1.44185085480651475898e+00) (1, -2.85169330814604660151e-01) (0, -2.33573881278871686717e+00) (1, -7.72922965028029107515e+00) (0, -1.11402149269382966246e+00) (1, -2.18596066585604570376e-01) (0, -7.17977498678248959862e+00) (1, -1.72992664089878206424e-01) (0, -8.70976581906799163235e-01) (1, -3.64438230832449749919e-01) (0, -1.01141784368700271557e+00) (1, -2.60030734044087608048e-01) (0, -1.03229226195686809575e+01) (1, -8.85285650856467043468e-01) (0, -7.05600243977419494534e-01) (1, -3.78769874188896960021e-01) (0, -2.35998128469227941295e+00) (1, -7.77241285779219293062e+00) (0, -3.31534340793322401808e+00) (1, -1.21714610667178924075e+00) (0, 1.42790046156653693821e+00) (1, 2.71892026445491374886e-01) (0, -3.40822355134293175638e+00) (1, -1.16883665520807578098e+00) (0, -8.89495656014568925052e-01) (1, -7.65499514230232858125e+00) (0, -1.05548127684380488311e+00) (1, -2.29711323388156224423e-01) (0, 8.71187289363568817535e-01) (1, -1.31118192510470965573e-01) (0, 1.52774041601286181269e+00) (1, 2.63578457467699200922e-01) (0, -9.13831505420496958969e-01) (1, -3.14105712902965517053e-01) (0, 9.59791076670898313239e+00) (1, 5.07899282620043746039e-02) (0, -2.33042298744558484813e+00) (1, -7.78609671332579278413e+00) (0, -1.07733128361009367069e+00) (1, -2.11340287657351522110e-01) (0, -7.46064276324826014530e+00) (1, -2.01396547815802362535e+00) (0, -7.25531022323708252308e-01) (1, -1.19544011219192647388e+00) (0, 6.98842189612858044612e-01) (1, -1.97076732817170474643e-01) (0, -1.09405969126363422639e+00) (1, -2.27413889618947900884e-01) (0, -7.71051073585138890820e+00) (1, 7.16599829227304863100e-02) (0, -4.07082391647857200212e-01) (1, -2.28503764795226216311e-02) (0, 1.74712693440522448540e+00) (1, 2.90196559979841950394e-01) (0, -4.50964691049157651026e-01) (1, -4.14644498790672846877e-02) (0, 1.01554591231930579909e+01) (1, -2.33589463273913411356e+00) (0, -1.22760915999458948278e+01) (1, -1.97255059385192277333e-01) (0, 9.58477546285193326980e+00) (1, 5.65521849467037623915e-02) (0, 3.52046954840616599380e-01) (1, -6.87931748881748461599e-01) (0, -2.25561444858889146303e+01) (1, 4.71082321426186056978e-01) (0, 1.81808880866906719120e+01) (1, -4.54389053268434572885e+00) (0, -1.00826277229783412004e+00) (1, -2.64721212040537279275e-01) (0, -2.20770071189045280491e+00) (1, -7.79270405956249856416e+00) (0, 6.35766820134266552600e-01) (1, -1.50513036341291345233e-01) (0, 9.93235494079808667323e+00) (1, -8.95487535149057656270e-02) (0, 9.44838091147557967986e+00) (1, 1.18489756293580147939e-01) (0, 2.42687669618736029387e-01) (1, -5.18211351218570648314e-01) (0, -6.44282140438450889874e-01) (1, -7.68464852373522466777e-01) (0, -8.44689557060878892791e-01) (1, -3.55165701806093303539e-01) (0, -2.33386464904188306591e+00) (1, -7.83013293035965585176e+00) (0, -2.22466887275814384495e+00) (1, -7.77673572935801171724e+00) (0, -2.37788304428695829174e+00) (1, -7.84733346738558434907e+00) (0, -1.07498966132623308134e+00) (1, -2.14785306879617027276e-01) (0, -9.56082432159177386666e+00) (1, -2.73685945585014689385e+00) (0, -2.21910369138359397922e+00) (1, -7.84286223985891961519e+00) (0, -6.78010462413009840077e+00) (1, -3.39205186214428466851e-01) (0, 9.54111285603647019116e+00) (1, 7.61743393564858900513e-02) (0, -1.06243870423456931995e+00) (1, -2.19414602907453654135e-01) (0, -8.52109320399208836072e-01) (1, -3.62509904346124012253e-01) (0, -2.36445156226991803905e+00) (1, -7.70427578576546334688e+00) (0, -8.66909516429934190462e-01) (1, -3.43391685494733533979e-01) (0, 1.49992631575834689528e+00) (1, 2.74567123080522890177e-01) (0, -5.95669471661689886588e+00) (1, -2.35312360836004952347e+00) (0, 1.53683109537531059630e+00) (1, 2.60712262085553758695e-01) (0, 1.01942990575200154169e+00) (1, -2.03500554840165492898e-01) (0, -9.12957705240009520509e-01) (1, -2.93033855897182893280e-01) (0, -5.83730304942417177472e-01) (1, -4.04955342498848291921e-01) (0, -5.56172130312365231575e-01) (1, -6.63507377967496259075e-01) (0, -1.40264791904792712751e-01) (1, -4.84725085592342885832e+00) (0, -2.26184266547798396019e+00) (1, -7.75668904074173592988e+00) (0, 9.72523501366268483537e+00) (1, -4.43172759826339270756e-03) (0, 9.45824525523844772401e-01) (1, -2.45819797384480370761e-01) (0, 9.56813031655251400309e+00) (1, 6.37389307437240815180e-02) (0, -5.12121695746374072655e+00) (1, -1.32631277072039144294e+00) (0, -2.37799572686790616771e+00) (1, -7.74115829803686761323e+00) (0, -1.01819667598789820318e+00) (1, -2.36748965288930385276e-01) (0, -2.22356965880035728489e+00) (1, -7.70212307461243295137e+00) (0, -5.29189079700337905443e-01) (1, 5.70281277929337374055e-02) (0, -7.21707694213093375879e+00) (1, -1.00372492059082329963e-01) (0, -1.14573320231112085743e+00) (1, -2.34384943083186136903e+00) (0, 1.48938978947460598512e+00) (1, 2.96506724657458031746e-01) (0, -7.98705189745291255221e-01) (1, -4.09810093685481269254e-01) (0, 9.66380078134388575961e+00) (1, 2.10639251074534045172e-02) (0, -1.16976294519320611620e+00) (1, -2.58605117057799316349e-01) (0, -3.95942487622217242915e+00) (1, -8.80080361008606315565e-01) (0, 9.54659682280271404409e+00) (1, 7.34094832953784831586e-02) (0, -9.92754373316037330710e+00) (1, -3.31725841782306973826e+00) (0, -1.19951750588598393676e+00) (1, -1.42176577074769183717e+00) (0, -9.44575732875469320504e+00) (1, -2.39402475807890047221e+00) (0, -5.68718347570421611792e-01) (1, -6.63056867607460409531e-01) (0, 1.73422506896741679405e+00) (1, 2.96589849064657351541e-01) (0, -1.00674554542223404496e+00) (1, -2.70628369155725190254e-01) (0, -8.55370343082972550697e-01) (1, -3.87669257423863489187e-01) (0, 1.83668531029311243863e-01) (1, -5.51745904781547391593e-01) (0, -8.18121578664668613889e-01) (1, -7.67090473957996987764e+00) (0, -4.16134978930896348714e-01) (1, 1.45776814228140844110e-02) (0, -4.13133405141780263303e-01) (1, 6.23664766747499751953e-02) (0, -2.30795164148449094554e+00) (1, -7.71024444588165902559e+00) (0, -2.25899070243477106956e+00) (1, -7.82380407192450189058e+00) (0, 6.47830021147572931994e-01) (1, -1.51390012286491570936e-01) (0, -1.09570616086530270294e+00) (1, -3.08193248422747201332e-01) (0, -9.91029559509925106475e-01) (1, -2.75842476258195190564e-01) (0, 5.74592759744065761929e-01) (1, -3.59646703041490323205e-01) (0, -8.23953782733033324170e-01) (1, -3.98530086645406789181e-01) (0, -8.36993495604475690186e+00) (1, 3.76926476246363384437e-01) (0, -7.23914488045627901869e+00) (1, -1.20513152537657083907e-01) (0, -8.73099162550504570568e-01) (1, -3.29682367862356773269e-01) (0, -2.22715615968345970188e+00) (1, -7.78072832413654946748e+00) (0, -4.21179394524043737569e-01) (1, 3.30597183114152565198e-02) (0, 6.73866560141963000241e-01) (1, -7.43152926076549147361e-01) (0, -5.21299875750130148333e+00) (1, -2.57682755364811111320e-01) (0, 1.52836179755811918390e+00) (1, 2.56061870531893442937e-01) (0, -8.53513412115021519178e-01) (1, -3.61160779288665134690e-01) (0, -1.05605152101680155319e+00) (1, -2.31160195904887427742e-01) (0, 1.30199170162332483747e-01) (1, -1.93552264622843084307e-01) (0, 5.62789169344363515712e-01) (1, -4.12912528752739405036e+00) (0, -7.87681636760955705689e-01) (1, -4.16175389361741754346e-01) (0, -3.74176169337702013706e+00) (1, -9.94000465253752740757e-01) (0, -1.06167701575956074933e+00) (1, -3.14833778478591730376e-01) (0, -5.45882659205949916092e-01) (1, -3.77354392690521164844e-02) (0, 1.80993465425817205983e+01) (1, -4.49535533070088089147e+00) (0, -3.21461004627679747259e+00) (1, -1.26974005289408031771e+00) (0, -2.27342454831241669311e+00) (1, -7.81333132722120904390e+00) (0, -1.00475553199000233739e+00) (1, -1.61855645765322053720e+00) (0, 1.67166088405893753510e+00) (1, 2.24553739491280268670e-01) (0, -6.42162927226159641059e-01) (1, -3.69243685052798031876e-01) (0, -2.26484349112152338890e+00) (1, -7.79144982882481240694e+00) (0, -1.03575101104215794301e+00) (1, -2.51129638698316892675e-01) (0, 9.33383601432612231008e+00) (1, 8.86832022950162918162e-02) (0, -8.85702770993399335353e-01) (1, -3.23736218312589307811e-01) (0, -2.28282341848253400585e+00) (1, -7.78032704331617974702e+00) (0, 9.44610420407527939801e+00) (1, 1.19518325149583784506e-01) (0, -3.36481220473450726161e+00) (1, -1.19132037289725545293e+00) (0, -4.76021836798186770423e-01) (1, 9.65979021373774698889e-02) (0, -1.21587322585996715496e+00) (1, -1.99586258826242279873e+00) (0, -7.45913752914621053236e+00) (1, -4.25932092826002209329e-02) (0, 1.80901256349490147102e+01) (1, -4.49126989581573177190e+00) (0, -1.31958717395509417258e+01) (1, -1.79381534390346875085e+00) (0, -1.07147994778564648044e+00) (1, -2.18209119976671583885e-01) (0, -8.03745271069866817903e-01) (1, -4.04201507847693763953e-01) (0, -8.66909624463352845858e-01) (1, -3.44202534869981424670e-01) (0, -5.82220624225560645648e-01) (1, -3.82818926077388044238e-01) (0, 1.72248540792680127076e+00) (1, 2.14504691434048461174e-01) (0, -6.36838886390338743126e+00) (1, 1.32424090120998438208e-02) (0, -3.36567979629454783197e-01) (1, -5.05533525049964005404e+00) (0, 1.44835109135842987627e+00) (1, 2.93442748667303188181e-01) (0, -5.21229203490839787527e-01) (1, 3.86363397871094110814e-02) (0, -1.17966091959507690667e+00) (1, -2.52159289219258897496e-01) (0, -2.25150015692352623020e+00) (1, -7.73001933731775903169e+00) (0, -3.16100294949509041942e+00) (1, -1.29769684365338910936e+00) (0, -3.50196462944152386854e+00) (1, -2.43205009020967555244e+00) (0, -1.05580423003193235587e+00) (1, -3.25887422455565067825e-01) (0, -3.65923709038267075400e+00) (1, -1.03875750073417005837e+00) (0, 9.43420826515236221610e+00) (1, 1.30996466777232728473e-01) (0, -2.40602228876762964660e+01) (1, 9.18804706882116017930e-01) (0, -4.98460153439363951033e-01) (1, -8.06866839552270037617e-02) (0, -1.02800885556907561913e+00) (1, -2.49657082047689382609e-01) (0, -4.49007314938628887546e+00) (1, -6.08972558534789154550e-01) (0, 9.97938896228949934297e-01) (1, -9.35413408631742548938e-02) (0, -8.28314870064819075424e-01) (1, -3.87861237311226014768e-01) (0, 9.40257064594695535220e+00) (1, 1.12306106296205812645e-01) (0, -8.67136050135978941888e-01) (1, -7.65720540173988961641e+00) (0, -5.90255853479247427629e+00) (1, -2.49165199263097170146e+00) (0, 9.92247710402599736312e+00) (1, -8.66054638664931625280e-02) (0, -4.24278686123321147061e-01) (1, 1.03192186375334685189e-01) (0, -5.16244519202338048025e-01) (1, 1.55146033621877711683e-02) (0, 9.55480103018726723008e+00) (1, 7.02773295386308477495e-02) (0, 9.90644020931528501706e+00) (1, -8.06188987499611292575e-02) (0, -1.71822888386023397977e+00) (1, -1.70208956077016693165e+00) (0, 2.41937133058117953555e-01) (1, -5.07854311217356024777e-01) (0, -2.36384724567770154735e+00) (1, -7.74760507681112908784e+00) (0, -3.45778983503750136919e+00) (1, -1.14298788458358191455e+00) (0, -6.15394958861636753866e-01) (1, -3.79912801702622593414e-01) (0, 1.80935554105869726982e+01) (1, -4.49276401710108341803e+00) (0, 9.60340751311322371464e+00) (1, 4.77862017427018725968e-02) (0, -2.27644660811065735473e+00) (1, -7.80517646559219979707e+00) (0, -8.70319992825063226682e-01) (1, -3.69612980200163532274e-01) (0, -6.48566172389816286703e-01) (1, -3.68353920755928654351e-01) (2, 4.32257240101691225798e-02) (3, 1.10075261295623907931e-01) (4, 4.12491726792410806635e-02) (5, -9.33060451808739692303e-03) (6, -8.27406920812503478280e-03) (7, 8.85972638956971869639e-01) (8, -1.03858306401276329067e-01) (9, 6.85424492938427665223e-01) (10, 6.84550141787007571104e-02) (11, 2.51044230602208741365e-02) (12, -2.14276607086740546182e-02) (13, 1.08542851797174866313e+00) (14, 9.61497328671242712517e+01) (15, 8.03331199624195968489e-02) (16, 2.67469429321651464004e-01) (17, 6.92828091317199135091e-02) (18, 1.21936685803384776250e+02) (19, 1.38597896036713491563e-01) (20, -1.97189807149369157602e-02) (21, -1.53088536183995066464e-01) (22, -6.61636573242710968046e-02) (23, -6.00491297397115833534e-03) (24, -2.00847568554423823450e-02) (25, -2.06975807294373127798e-02) (26, -1.14156934765827517558e-02) (27, -5.22320066456946996425e+00) (28, 1.57109906375470037565e-01) (29, 8.58696361350124587331e-02) (30, -7.49885563172946519733e-03) (31, 4.20688429558849046053e-03) (32, 1.50000000000000000000e+03) (33, 1.62234258473432452208e-01) (34, -2.08579321174637088987e+00) (35, 6.09839508980994302045e-02) (36, 1.30423226557473626031e-01) (37, -4.28714535965504905946e-01) (38, -2.22860964803760948361e-02) (39, 1.50000000000000000000e+03) (40, 5.46420504880278112836e+00) (41, -5.12044157921940773504e-02) (42, 1.70175809182387927088e+00) (43, 1.50000000000000000000e+03) (44, 1.29875928364021064887e-01) (45, -7.29298123771280736721e-03) (46, -5.49214533477149699503e-02) (47, 4.99276663588286290230e-02) (48, -1.59882188301084804394e-02) (49, 1.50000000000000000000e+03) (50, 1.25173435649318209872e-01) (51, -6.47500125669304367193e+01) (52, -2.08224880376049921449e-02) (53, -9.12347339226769402099e-03) (54, 1.33012880382148229730e-01) (55, -2.50791184414091858912e+01) (56, 9.37284225622330435801e-02) (57, -5.03154837032007556941e-02) (58, 9.24863666800653794198e-02) (59, -9.58429985927559541237e-02) (60, 7.20973759241400955489e+01) (61, -6.49137114528607018712e-04) (62, 3.25134762648291060494e-03) (63, 4.23500618200103247091e+01) (64, -1.36467026433750249215e-01) (65, 1.37091966588440861141e-01) (66, 1.50000000000000000000e+03) (67, -9.60740465984050336090e-03) (68, -3.56742287628163054491e-02) (69, -1.82023687527102379091e-02) (70, -1.26254184278344824821e-02) (71, -6.17675895167923115492e-03) (72, 2.93075474104776551032e-02) (73, 1.50000000000000000000e+03) (74, 1.50000000000000000000e+03) (75, 1.50000000000000000000e+03) (76, 1.17792736202712924887e-01) (77, 7.96837112158228961789e+01) (78, 1.50000000000000000000e+03) (79, -7.06637334845753417589e-01) (80, -2.98745591684374568742e-02) (81, 1.49954327795841640958e-01) (82, 4.13178887939249228634e-02) (83, 1.50000000000000000000e+03) (84, 3.79756514761876995401e-02) (85, -6.22585801569210325890e-02) (86, 6.31037511718307371211e+01) (87, -4.29387297959634983702e-02) (88, -1.59166341757149797098e-02) (89, 4.62554994095902491380e-02) (90, 5.39615330001468329613e-02) (91, -1.69067795101698892246e-02) (92, 5.40607438910871636040e+01) (93, 1.50000000000000000000e+03) (94, -9.53766471421454986590e-03) (95, -5.83963073065894844316e-03) (96, -6.10883310632644692395e-03) (97, 3.79290010634044882920e+00) (98, 1.50000000000000000000e+03) (99, 6.59982743914389741180e-02) (100, 1.50000000000000000000e+03) (101, 8.81391804973736397999e-02) (102, 7.05941930737881279123e-02) (103, 2.83374535550553439955e-02) (104, -7.13082848387971979243e-02) (105, 4.38922774414533881093e-02) (106, -3.11672775930478991591e-02) (107, 1.09669588183611513288e-01) (108, 8.72952958673616885577e-01) (109, -3.33889604285272229012e-02) (110, 1.50000000000000000000e+03) (111, 9.94515549069344417799e-02) (112, -1.23842028542201688879e+02) (113, -1.58359242199289443342e-02) (114, -5.50891153951338780059e-02) (115, 1.41935879170967282903e-01) (116, 1.10247225530859041531e-01) (117, -1.25772149329680359153e-02) (118, 1.50000000000000000000e+03) (119, 8.87931467162282883621e-02) (120, 8.21099066141278838282e-02) (121, 1.50000000000000000000e+03) (122, 1.50000000000000000000e+03) (123, -1.06826139090155109584e-02) (124, 9.08598451892446978828e-02) (125, 1.32560688484897742923e-01) (126, -4.81278568558639926328e-03) (127, 7.99200793331200781688e-02) (128, -1.61052514868756517785e+01) (129, 1.82855768835932207261e-02) (130, 3.70142378356879200862e-02) (131, 1.50000000000000000000e+03) (132, 8.18948850335042555226e-02) (133, 1.81362174922517493947e-02) (134, 5.38906421452110873105e+00) (135, -4.72835872502634368963e-02) (136, 3.30858913039958763003e-02) (137, 1.11175738696894468860e-01) (138, -2.00443293369819662553e-02) (139, -2.08730547761427516207e+01) (140, 1.33161181234572132542e-02) (141, 4.43333263454808779169e-01) (142, 1.30988779264190086105e-01) (143, 9.29605953153907205166e-02) (144, -1.32875631189830784029e-01) (145, 1.19398196377308485339e+00) (146, 1.50000000000000000000e+03) (147, -5.17993349334983088639e-03) (148, -5.08569403220935564724e-02) (149, 5.23642941544435885914e-02) (150, 1.50000000000000000000e+03) (151, 1.23698125429493127614e-01) (152, 3.86796789328832952420e-03) (153, 2.82309474853213934753e-02) (154, 1.50000000000000000000e+03) (155, -2.90510106840176449833e-03) (156, 2.41449050213438276558e+00) (157, 9.18477024020997873111e-02) (158, 1.15314794397118249719e-02) (159, -1.56627216596722101949e-01) (160, -1.49866161642843886970e-01) (161, -3.15805109910640346982e+01) (162, 1.42238220873167703351e-01) (163, 5.68582389665773582643e-02) (164, 1.83011268113096696453e-02) (165, 5.38622983080668596423e-02) (166, -6.68004820885537003994e-02) (167, 1.15371481638371478629e-01) (168, 5.53549317378033052250e+01) (169, -5.55951984665095377824e-02) (170, 8.86094075181141915820e-02) (171, 9.02792229071731761048e-02) (172, 1.50000000000000000000e+03) (173, 1.08472591715265265222e+00) (174, -1.62859890284053001608e+01) (175, 1.15728058833531335936e-01) (176, 4.96603626963013744522e-01) (177, 7.48374247875306826405e-03) (178, 4.92021745063531099618e+01) (179, 8.55739120716229179076e-02) (180, 1.43522162355382620902e-01) (181, 8.26539837070311422806e-01) (182, -7.25482310660392499396e-03) (183, 8.04355675877932441153e-02) (184, 3.52882825464931760423e-03) (185, 1.50000000000000000000e+03) (186, -1.18684096025240357619e+01) (187, -4.09638037218094594460e-02) (188, 9.22077104748647846666e-02) (189, 8.96968346573963903889e-02) (190, -1.12706609225273843983e-02) (191, -5.15501399768876072960e-02) (192, -1.49649537146106571296e-03) (193, -1.25749632989301321495e-02) (194, 1.50000000000000000000e+03) (195, 6.43803183792111655137e-01) (196, 7.38764340806614544510e-02) (197, -1.51973754249865700139e-01) (198, -1.58508741254072445248e-02) (199, 1.50000000000000000000e+03) (200, 1.21962988315696685415e-01) (201, 4.99524433993737068671e-02) (202, -8.37432735947568757107e-02) 
