FANN_FLO_2.1
num_layers=3
learning_rate=0.700000
connection_rate=1.000000
network_type=0
learning_momentum=0.000000
training_algorithm=2
train_error_function=1
train_stop_function=0
cascade_output_change_fraction=0.010000
quickprop_decay=-0.000100
quickprop_mu=1.750000
rprop_increase_factor=1.200000
rprop_decrease_factor=0.500000
rprop_delta_min=0.000000
rprop_delta_max=50.000000
rprop_delta_zero=0.100000
cascade_output_stagnation_epochs=12
cascade_candidate_change_fraction=0.010000
cascade_candidate_stagnation_epochs=12
cascade_max_out_epochs=150
cascade_min_out_epochs=50
cascade_max_cand_epochs=150
cascade_min_cand_epochs=50
cascade_num_candidate_groups=2
bit_fail_limit=3.49999999999999977796e-01
cascade_candidate_limit=1.00000000000000000000e+03
cascade_weight_multiplier=4.00000000000000022204e-01
cascade_activation_functions_count=10
cascade_activation_functions=3 5 7 8 10 11 14 15 16 17 
cascade_activation_steepnesses_count=4
cascade_activation_steepnesses=2.50000000000000000000e-01 5.00000000000000000000e-01 7.50000000000000000000e-01 1.00000000000000000000e+00 
layer_sizes=2 201 2 
scale_included=0
neurons (num_inputs, activation_function, activation_steepness)=(0, 0, 0.00000000000000000000e+00) (0, 0, 0.00000000000000000000e+00) (2, 4, 5.00000000000000000000e-01) (2, 4, 5.00000000000000000000e-01) (2, 4, 5.00000000000000000000e-01) (2, 4, 5.00000000000000000000e-01) (2, 4, 5.00000000000000000000e-01) (2, 4, 5.00000000000000000000e-01) (2, 4, 5.00000000000000000000e-01) (2, 4, 5.00000000000000000000e-01) (2, 4, 5.00000000000000000000e-01) (2, 4, 5.00000000000000000000e-01) (2, 4, 5.00000000000000000000e-01) (2, 4, 5.00000000000000000000e-01) (2, 4, 5.00000000000000000000e-01) (2, 4, 5.00000000000000000000e-01) (2, 4, 5.00000000000000000000e-01) (2, 4, 5.00000000000000000000e-01) (2, 4, 5.00000000000000000000e-01) (2, 4, 5.00000000000000000000e-01) (2, 4, 5.00000000000000000000e-01) (2, 4, 5.00000000000000000000e-01) (2, 4, 5.00000000000000000000e-01) (2, 4, 5.00000000000000000000e-01) (2, 4, 5.00000000000000000000e-01) (2, 4, 5.00000000000000000000e-01) (2, 4, 5.00000000000000000000e-01) (2, 4, 5.00000000000000000000e-01) (2, 4, 5.00000000000000000000e-01) (2, 4, 5.00000000000000000000e-01) (2, 4, 5.00000000000000000000e-01) (2, 4, 5.00000000000000000000e-01) (2, 4, 5.00000000000000000000e-01) (2, 4, 5.00000000000000000000e-01) (2, 4, 5.00000000000000000000e-01) (2, 4, 5.00000000000000000000e-01) (2, 4, 5.00000000000000000000e-01) (2, 4, 5.00000000000000000000e-01) (2, 4, 5.00000000000000000000e-01) (2, 4, 5.00000000000000000000e-01) (2, 4, 5.00000000000000000000e-01) (2, 4, 5.00000000000000000000e-01) (2, 4, 5.00000000000000000000e-01) (2, 4, 5.00000000000000000000e-01) (2, 4, 5.00000000000000000000e-01) (2, 4, 5.00000000000000000000e-01) (2, 4, 5.00000000000000000000e-01) (2, 4, 5.00000000000000000000e-01) (2, 4, 5.00000000000000000000e-01) (2, 4, 5.00000000000000000000e-01) (2, 4, 5.00000000000000000000e-01) (2, 4, 5.00000000000000000000e-01) (2, 4, 5.00000000000000000000e-01) (2, 4, 5.00000000000000000000e-01) (2, 4, 5.00000000000000000000e-01) (2, 4, 5.00000000000000000000e-01) (2, 4, 5.00000000000000000000e-01) (2, 4, 5.00000000000000000000e-01) (2, 4, 5.00000000000000000000e-01) (2, 4, 5.00000000000000000000e-01) (2, 4, 5.00000000000000000000e-01) (2, 4, 5.00000000000000000000e-01) (2, 4, 5.00000000000000000000e-01) (2, 4, 5.00000000000000000000e-01) (2, 4, 5.00000000000000000000e-01) (2, 4, 5.00000000000000000000e-01) (2, 4, 5.00000000000000000000e-01) (2, 4, 5.00000000000000000000e-01) (2, 4, 5.00000000000000000000e-01) (2, 4, 5.00000000000000000000e-01) (2, 4, 5.00000000000000000000e-01) (2, 4, 5.00000000000000000000e-01) (2, 4, 5.00000000000000000000e-01) (2, 4, 5.00000000000000000000e-01) (2, 4, 5.00000000000000000000e-01) (2, 4, 5.00000000000000000000e-01) (2, 4, 5.00000000000000000000e-01) (2, 4, 5.00000000000000000000e-01) (2, 4, 5.00000000000000000000e-01) (2, 4, 5.00000000000000000000e-01) (2, 4, 5.00000000000000000000e-01) (2, 4, 5.00000000000000000000e-01) (2, 4, 5.00000000000000000000e-01) (2, 4, 5.00000000000000000000e-01) (2, 4, 5.00000000000000000000e-01) (2, 4, 5.00000000000000000000e-01) (2, 4, 5.00000000000000000000e-01) (2, 4, 5.00000000000000000000e-01) (2, 4, 5.00000000000000000000e-01) (2, 4, 5.00000000000000000000e-01) (2, 4, 5.00000000000000000000e-01) (2, 4, 5.00000000000000000000e-01) (2, 4, 5.00000000000000000000e-01) (2, 4, 5.00000000000000000000e-01) (2, 4, 5.00000000000000000000e-01) (2, 4, 5.00000000000000000000e-01) (2, 4, 5.00000000000000000000e-01) (2, 4, 5.00000000000000000000e-01) (2, 4, 5.00000000000000000000e-01) (2, 4, 5.00000000000000000000e-01) (2, 4, 5.00000000000000000000e-01) (2, 4, 5.00000000000000000000e-01) (2, 4, 5.00000000000000000000e-01) (2, 4, 5.00000000000000000000e-01) (2, 4, 5.00000000000000000000e-01) (2, 4, 5.00000000000000000000e-01) (2, 4, 5.00000000000000000000e-01) (2, 4, 5.00000000000000000000e-01) (2, 4, 5.00000000000000000000e-01) (2, 4, 5.00000000000000000000e-01) (2, 4, 5.00000000000000000000e-01) (2, 4, 5.00000000000000000000e-01) (2, 4, 5.00000000000000000000e-01) (2, 4, 5.00000000000000000000e-01) (2, 4, 5.00000000000000000000e-01) (2, 4, 5.00000000000000000000e-01) (2, 4, 5.00000000000000000000e-01) (2, 4, 5.00000000000000000000e-01) (2, 4, 5.00000000000000000000e-01) (2, 4, 5.00000000000000000000e-01) (2, 4, 5.00000000000000000000e-01) (2, 4, 5.00000000000000000000e-01) (2, 4, 5.00000000000000000000e-01) (2, 4, 5.00000000000000000000e-01) (2, 4, 5.00000000000000000000e-01) (2, 4, 5.00000000000000000000e-01) (2, 4, 5.00000000000000000000e-01) (2, 4, 5.00000000000000000000e-01) (2, 4, 5.00000000000000000000e-01) (2, 4, 5.00000000000000000000e-01) (2, 4, 5.00000000000000000000e-01) (2, 4, 5.00000000000000000000e-01) (2, 4, 5.00000000000000000000e-01) (2, 4, 5.00000000000000000000e-01) (2, 4, 5.00000000000000000000e-01) (2, 4, 5.00000000000000000000e-01) (2, 4, 5.00000000000000000000e-01) (2, 4, 5.00000000000000000000e-01) (2, 4, 5.00000000000000000000e-01) (2, 4, 5.00000000000000000000e-01) (2, 4, 5.00000000000000000000e-01) (2, 4, 5.00000000000000000000e-01) (2, 4, 5.00000000000000000000e-01) (2, 4, 5.00000000000000000000e-01) (2, 4, 5.00000000000000000000e-01) (2, 4, 5.00000000000000000000e-01) (2, 4, 5.00000000000000000000e-01) (2, 4, 5.00000000000000000000e-01) (2, 4, 5.00000000000000000000e-01) (2, 4, 5.00000000000000000000e-01) (2, 4, 5.00000000000000000000e-01) (2, 4, 5.00000000000000000000e-01) (2, 4, 5.00000000000000000000e-01) (2, 4, 5.00000000000000000000e-01) (2, 4, 5.00000000000000000000e-01) (2, 4, 5.00000000000000000000e-01) (2, 4, 5.00000000000000000000e-01) (2, 4, 5.00000000000000000000e-01) (2, 4, 5.00000000000000000000e-01) (2, 4, 5.00000000000000000000e-01) (2, 4, 5.00000000000000000000e-01) (2, 4, 5.00000000000000000000e-01) (2, 4, 5.00000000000000000000e-01) (2, 4, 5.00000000000000000000e-01) (2, 4, 5.00000000000000000000e-01) (2, 4, 5.00000000000000000000e-01) (2, 4, 5.00000000000000000000e-01) (2, 4, 5.00000000000000000000e-01) (2, 4, 5.00000000000000000000e-01) (2, 4, 5.00000000000000000000e-01) (2, 4, 5.00000000000000000000e-01) (2, 4, 5.00000000000000000000e-01) (2, 4, 5.00000000000000000000e-01) (2, 4, 5.00000000000000000000e-01) (2, 4, 5.00000000000000000000e-01) (2, 4, 5.00000000000000000000e-01) (2, 4, 5.00000000000000000000e-01) (2, 4, 5.00000000000000000000e-01) (2, 4, 5.00000000000000000000e-01) (2, 4, 5.00000000000000000000e-01) (2, 4, 5.00000000000000000000e-01) (2, 4, 5.00000000000000000000e-01) (2, 4, 5.00000000000000000000e-01) (2, 4, 5.00000000000000000000e-01) (2, 4, 5.00000000000000000000e-01) (2, 4, 5.00000000000000000000e-01) (2, 4, 5.00000000000000000000e-01) (2, 4, 5.00000000000000000000e-01) (2, 4, 5.00000000000000000000e-01) (2, 4, 5.00000000000000000000e-01) (2, 4, 5.00000000000000000000e-01) (2, 4, 5.00000000000000000000e-01) (2, 4, 5.00000000000000000000e-01) (2, 4, 5.00000000000000000000e-01) (2, 4, 5.00000000000000000000e-01) (2, 4, 5.00000000000000000000e-01) (2, 4, 5.00000000000000000000e-01) (2, 4, 5.00000000000000000000e-01) (2, 4, 5.00000000000000000000e-01) (2, 4, 5.00000000000000000000e-01) (2, 4, 5.00000000000000000000e-01) (2, 4, 5.00000000000000000000e-01) (0, 0, 0.00000000000000000000e+00) (201, 4, 5.00000000000000000000e-01) (0, 0, 0.00000000000000000000e+00) 
connections (connected_to_neuron, weight)=(0, 1.40168505380370200797e+00) (1, -1.20243331011045118117e-01) (0, -8.71136080704234427863e-01) (1, 4.97671578523336821664e-01) (0, -5.96359930000893490032e-01) (1, -6.69771506525414089817e-02) (0, -7.88777771072196487445e-01) (1, 3.44783191861884052987e-01) (0, 1.44419394611956408703e+00) (1, -2.37765550589097901524e-01) (0, -9.63747575974346126770e-01) (1, -5.56366541413788828763e-01) (0, 1.39335262962819084187e+00) (1, -1.66498059690025623780e-01) (0, -6.04225338353745478059e-01) (1, -3.90745660369900715825e-01) (0, -1.95583181076798262588e+00) (1, -1.36669761344732609842e+00) (0, -7.23005870595872401907e-01) (1, -1.11833254752745747673e-01) (0, -1.49998386960070251916e+03) (1, -7.72690678519024842785e+00) (0, 1.45637873651508265027e+00) (1, -4.14759389291165569968e-01) (0, -8.13822401635577064027e-01) (1, 4.01456129249740056864e-01) (0, -1.49998386960070251916e+03) (1, -7.69085376840844237023e+00) (0, -8.67288902546845541508e-01) (1, -2.80611341617300058537e-01) (0, -9.48735273619029428893e-01) (1, -5.70728162855300591438e-01) (0, -2.03122511569859742764e+00) (1, -1.82157995167481345788e+00) (0, -8.73976822491072224963e-01) (1, 4.99819580909430127846e-01) (0, -1.82568243532568730281e+00) (1, -1.34647856341672267355e+00) (0, -9.48791494128139567543e-01) (1, -5.48376466394044137509e-01) (0, -7.72974150797699710580e-01) (1, -4.04967589864246718667e-02) (0, -5.89659228911021626729e-01) (1, -3.97975245803836308323e-01) (0, 1.33640153351720059050e+00) (1, -8.51256198354329307598e-02) (0, -9.63406467790010712093e-01) (1, -5.12413637924682974223e-01) (0, -8.22045582607242808493e-01) (1, 4.19441509482639918183e-01) (0, -4.36109879309662273883e-01) (1, -1.46782097569894309785e+00) (0, -1.49998386960070251916e+03) (1, -7.87350615245183593771e+00) (0, -2.22219462735056438873e+00) (1, -1.71649340189548293978e+00) (0, -1.49998386960070251916e+03) (1, -7.88383710515583935319e+00) (0, 1.54827510026548598177e+00) (1, -4.88268116473310365144e-01) (0, -7.10800513544676659805e-01) (1, 1.88962787815487337495e-01) (0, -8.27783292473043164073e-01) (1, -6.23197066330007820589e-01) (0, -7.59387650261017732589e-01) (1, 5.61467338537435800561e-02) (0, -7.83873078394455413687e-01) (1, 3.62425413426560649732e-01) (0, 1.45944512282120730795e+00) (1, -2.59172909977828658246e-01) (0, -7.65420196698661015056e-01) (1, 4.36738597184564980580e-02) (0, -1.49998386960070251916e+03) (1, -7.80433357638165592363e+00) (0, -6.87801051684248987428e-01) (1, -7.32588429248090533541e-02) (0, -8.55572565499742143658e-01) (1, -2.83215925377314048372e-01) (0, -6.92538167038577845425e-01) (1, 1.06400886508299832856e-01) (0, -1.87390430321652678991e+00) (1, -9.85649020068289027918e-01) (0, -1.49998386960070251916e+03) (1, -7.72414439302697175549e+00) (0, -7.27446792955392274038e-01) (1, 6.51502719701714666511e-02) (0, -6.61388571035349093208e-01) (1, -9.52396045261091478418e-02) (0, -6.87732598619481105828e-01) (1, -1.35221492826179484625e-01) (0, -8.59607510093039817178e-01) (1, -2.81013354324186226396e-01) (0, -2.08719329132300224217e+00) (1, -7.95826583046039370828e-01) (0, 1.49878220225270242238e+00) (1, -4.21325754064838409185e-01) (0, -8.14479327388723528536e-01) (1, 4.06389732357673560958e-01) (0, 1.39514092407984735544e+00) (1, -2.08423293422606376035e-01) (0, -1.49998386960070251916e+03) (1, -7.75081933420910562660e+00) (0, -7.09979794867859115293e-01) (1, 1.14014807913266513761e-01) (0, 1.46731073678300583119e+00) (1, -4.28929742985445561221e-01) (0, 1.53944912276788237193e+00) (1, -5.00904529975632062389e-01) (0, 1.40444181444761562183e+00) (1, -2.34026395735172199064e-01) (0, 1.40498776016361492935e+00) (1, -2.34802809563306597029e-01) (0, 1.37039959651694287501e+00) (1, -1.87121863803780957847e-01) (0, -7.37944942758984701037e-01) (1, 1.64513052626173578163e-02) (0, 1.50196466715589260765e+00) (1, -4.77533908933751027881e-01) (0, -5.80437780341439113485e-01) (1, -2.17758168721552930469e-01) (0, -1.49998386960070251916e+03) (1, -7.87812037897192052327e+00) (0, -6.88478431077454211540e-01) (1, -6.75636067087270308917e-01) (0, 1.53727560948865216162e+00) (1, -4.20684758395851898793e-01) (0, -1.91200164116247428581e+00) (1, -8.84896896608645011639e-01) (0, -8.47229239431073533062e-01) (1, -2.91222657573958043642e-01) (0, 1.48278528519650154571e+00) (1, -2.72752223845665497937e-01) (0, -8.73564258221510514524e-01) (1, 5.00325400826154287337e-01) (0, -8.95716702945905773880e-01) (1, -2.55155888765024152498e-01) (0, -7.10562403042201196079e-01) (1, -6.97224043352869360390e-01) (0, -1.49998386960070251916e+03) (1, -7.74254239481701844738e+00) (0, -1.98266243129763908293e+00) (1, -1.84851882832013303393e+00) (0, -9.40294162738747996144e-01) (1, -5.79212143139800850200e-01) (0, -1.74281557865784875183e+00) (1, -1.01077803591252246562e+00) (0, -1.67865083930652012612e+01) (1, 1.23802514561436893814e+00) (0, -8.53190306314522861619e-01) (1, 4.56795715936931856493e-01) (0, -6.88566471973962590525e-01) (1, 7.09792126834152227108e-04) (0, -1.49998386960070251916e+03) (1, -7.83099038657604840097e+00) (0, -8.85555543576014403406e-01) (1, -2.62825910627864811620e-01) (0, -7.41429844536667603805e-01) (1, -4.66046743154104048390e-02) (0, -8.25739074176202625388e-01) (1, 4.16372972962635590211e-01) (0, 1.37088605416223030531e+00) (1, -1.12102384037533087113e-01) (0, -7.99602946652210766487e-01) (1, 3.72592721578283159189e-01) (0, -7.80979094436404785995e-01) (1, 3.51294924017589937915e-01) (0, 1.42568125755084595951e+00) (1, -2.40802140349798826646e-01) (0, -1.49998386960070251916e+03) (1, -7.87843755018793245881e+00) (0, 1.44976844290632111978e+00) (1, -2.84154895152723296903e-01) (0, -1.59643973100544234178e+00) (1, -1.08279048771518082717e+00) (0, -2.00425665828363763765e+00) (1, -1.83624979790242459643e+00) (0, 1.33918866051798834960e+00) (1, -1.19426602539469586817e-01) (0, 1.49380151456592691339e+00) (1, -4.58385429599654725674e-01) (0, -7.94454142073093061427e-01) (1, -3.43156608780954899829e-02) (0, 1.36809507572096022976e+00) (1, -1.59274863120955317841e-01) (0, -6.66659063864309175962e-01) (1, -3.67367584090965648702e-01) (0, -6.60540604337704340132e-01) (1, -9.04868033808910454674e-02) (0, -1.74353620216215965399e+00) (1, -1.03044451167206507769e+00) (0, -7.26302539307236871835e-01) (1, 1.52894828000265298185e-01) (0, -8.31353141390707039982e-01) (1, 4.36293666884023767505e-01) (0, 1.42054180198514523603e+00) (1, -2.55999409787750931145e-01) (0, 1.36379923747959530544e+00) (1, -1.22009830832516874555e-01) (0, -7.11845225931452385559e-01) (1, 1.61166993591513985074e-01) (0, -7.08747391441366225706e-01) (1, 1.44771118978350155082e-01) (0, -7.46658757605768164112e-01) (1, -1.80920875377350333368e-02) (0, 1.47685140589271157729e+00) (1, -4.40026036718256019498e-01) (0, 1.46986603028420392825e+00) (1, -4.39561687502651787796e-01) (0, -6.46927388735308195322e-01) (1, 2.37052194246257230681e-02) (0, -2.03487007292720711860e+00) (1, -1.81959330961388765502e+00) (0, 1.39323370218955555622e+00) (1, -2.09156038109215652865e-01) (0, -7.77088179806246337478e-01) (1, -2.61611843568879554739e-03) (0, 1.50341682513285102019e+00) (1, -4.89639338896175335680e-01) (0, -8.50097809216633359952e-01) (1, 4.68098397788784648110e-01) (0, -6.57101182292569863108e-01) (1, -5.71453622192610866115e-01) (0, -1.49998386960070251916e+03) (1, -7.75621258598580087806e+00) (0, 1.37610726087901436010e+00) (1, -2.04418073735151223369e-01) (0, -2.68517174012037118658e+00) (1, -2.35817522616415375936e+00) (0, -7.97692332883394805698e-01) (1, 1.98247521192817521829e-02) (0, -8.56516566519141098190e-01) (1, -2.85398601035892929279e-01) (0, -1.00934458209872746082e+00) (1, -5.09035587000751688080e-01) (0, -8.05760882401945210951e-01) (1, 3.89940958913966628785e-01) (0, 1.38245474864671291648e+00) (1, -1.97588335118209140751e-01) (0, 1.59640203532919655594e+00) (1, -5.36732535320690429259e-01) (0, -2.73085072842564535733e+00) (1, -2.12451786473765569241e+00) (0, -9.17507520167169743353e-01) (1, -1.26681138180790936465e-01) (0, 1.37551841483769377028e+00) (1, -1.93490843615448077086e-01) (0, 1.39599610131445328598e+00) (1, -1.84876311723541769672e-01) (0, -1.77061861936966669084e+00) (1, -1.37995335320467926721e+00) (0, -6.95954949550802615121e-01) (1, -9.17050157628346962468e-01) (0, -8.96041968959516044180e-01) (1, -2.57700392002366995836e-01) (0, 1.56993415135368574731e+00) (1, -5.02148624020984923888e-01) (0, -7.57245649550824517782e-01) (1, -6.40483448879002326137e-02) (0, 1.55220499859808702681e+00) (1, -5.75544027396964308352e-01) (0, -8.67211679221530751249e-01) (1, 4.93246455189405463848e-01) (0, -8.34997886048436388506e-01) (1, 4.43436723646338681881e-01) (0, -7.28641834952943323600e-01) (1, 1.35503801980217136736e-01) (0, -3.92177299459838346607e+00) (1, -1.29103079179093205298e+00) (0, -7.54231638965111361728e-01) (1, -8.69977664329245614638e-02) (0, -6.70361793693169394359e-01) (1, 5.37594505995791296926e-02) (0, -9.78138398284563503893e-01) (1, -5.54142495471534268781e-01) (0, 1.40513883191584398880e+00) (1, -2.02709494181748245412e-01) (0, -1.99872296289007977954e+00) (1, -8.51983959839032412020e-01) (0, -2.12078269672846531080e+00) (1, -1.77233306575614135703e+00) (0, 5.43049733080912755412e+00) (1, -1.61506824324835807083e+00) (0, 1.46899341498204960565e+00) (1, -2.57343516451823961511e-01) (0, -4.39705854334899448599e-01) (1, -4.27214852426509694716e-01) (0, 1.51769562805412494555e+00) (1, -4.43844057308398265427e-01) (0, -7.44825270862168986596e-01) (1, 1.80974130848728542720e-01) (0, -6.29802349886520285160e-01) (1, -2.53530454706195791659e-02) (0, 1.45771109463432946285e+00) (1, -4.19429735754370314194e-01) (0, -6.75853223337739117405e-01) (1, -7.11637389486387883508e-01) (0, -7.23279402609025012794e-01) (1, -4.11871735533525934470e-02) (0, -7.07690287026153996841e-01) (1, -4.12176032975605857733e-02) (0, 1.34002146135116717574e+00) (1, -1.43240643624231528408e-01) (0, -8.19287470992452804275e-01) (1, -6.55363708665547384236e-01) (0, -7.76290232731634222141e-01) (1, 1.13277473849354257118e-01) (0, -1.49998386960070251916e+03) (1, -7.75030202549710001136e+00) (0, -7.14746781406256470603e-01) (1, -4.24385773154402137775e-02) (0, -8.11253331806882305166e-01) (1, 9.90084886854728091210e-02) (0, 1.40088843668299056766e+00) (1, -1.51444283657580808233e-01) (0, -6.17974776343534260015e-01) (1, 1.16650341388349499533e-02) (0, -7.55710968514099468152e-01) (1, 1.91093242576443528291e-01) (0, -7.23777188706227869730e-01) (1, 1.16309442263089812819e-01) (0, -1.49998386960070251916e+03) (1, -7.77470338475735189832e+00) (0, -1.02195781865868817739e+00) (1, -4.98352217415275688950e-01) (0, -8.49643858614144265040e-01) (1, 4.64395527240452354878e-01) (0, -7.35414967195530122623e-01) (1, -1.35809291194332881769e-02) (0, -6.14132025698685968251e-01) (1, -4.84612893178761744428e-02) (0, -8.62760065777501861106e-01) (1, 4.70245410200772095966e-01) (0, -6.84381758364586034737e-01) (1, 1.69195012994070056837e-03) (0, -1.49998386960070251916e+03) (1, -7.81171579045105701766e+00) (0, 1.40231042563037844317e+00) (1, -1.22927179153668506006e-01) (0, -8.67144421506114038145e-01) (1, -2.75258407531205628871e+00) (0, -1.49998386960070251916e+03) (1, -7.86241893601491792509e+00) (0, -7.24285057540560162082e-01) (1, -3.74792933610734527172e-02) (0, 1.48567460377348625755e+00) (1, -4.69673749849691346547e-01) (0, 1.42069476749323642117e+00) (1, -2.31250598486294867140e-01) (0, -7.08177564327486241957e-01) (1, -4.92766948960579806438e-02) (0, -4.42877957907256369907e+00) (1, -8.97619900146774951644e-01) (0, 1.41768047810835584599e+00) (1, -2.47721345357991479252e-01) (0, -7.69839600691243242103e-01) (1, 1.61893165501882541069e-01) (0, -7.51368974881215345718e-01) (1, 1.69614841560208229332e-01) (0, -7.24015103649968017052e-01) (1, 1.82507644376384642326e-01) (0, 1.64816439931252323170e+00) (1, -6.11348922807148253966e-01) (0, -8.51985703460811372167e-01) (1, -2.89564850126700856769e-01) (0, -9.47954260253945912851e-01) (1, -2.72002847084728749394e+00) (0, 3.11515447875728623828e+00) (1, -3.17134427657260242750e-01) (0, -1.78669945279059660947e+00) (1, -1.06254259924315075381e+00) (0, -1.49998386960070251916e+03) (1, -7.86546353381947938033e+00) (0, -7.31358966514034758433e-01) (1, 1.49192216483346684619e-01) (0, -8.49260956791691334899e-01) (1, 4.62461654540714972583e-01) (0, -5.47422513431102153447e-01) (1, -1.23171310182665605382e+00) (0, -1.49998386960070251916e+03) (1, -7.68732030075802885705e+00) (0, -7.06019934752848965509e-01) (1, -5.83503888987802685206e-02) (0, -2.19761019171844251829e+00) (1, -1.73004701494269230722e+00) (0, -5.90216953974671998395e-01) (1, -2.23841024827519635698e-01) (0, 1.38976811086511919946e+00) (1, -1.16688331007993972843e-01) (0, 1.36902240938862096442e+00) (1, -1.52413928923053970665e-01) (0, -6.84741041830609797891e-01) (1, -7.02616500646358832505e-01) (0, -7.61330759318036842664e-01) (1, 4.54071597079658897944e-02) (0, -3.83431074502624866795e+01) (1, 2.83584095152962145647e+00) (0, 1.56989596723197566419e+00) (1, -5.67950125728586607821e-01) (0, -1.49998386960070251916e+03) (1, -7.73841064554467195080e+00) (2, -1.62356925915360938983e-01) (3, 5.21511069627911716395e-01) (4, -6.91362852230427427092e-02) (5, 5.32685983206423019354e-01) (6, -1.64169815832543780632e-01) (7, 2.96338694171759897689e-01) (8, -1.73728642772317004583e-01) (9, -1.04207287994629600042e-02) (10, -1.18827460486642375037e-01) (11, -5.10205353040623088567e-02) (12, 1.50000000000000000000e+03) (13, -1.35670280075146865162e-01) (14, 5.24292550178677929651e-01) (15, 1.50000000000000000000e+03) (16, -4.53462636665168047911e-02) (17, 3.06491225331089967021e-01) (18, 2.13044471508709809537e-01) (19, 5.34567583759840592172e-01) (20, -1.48184661059965777641e-01) (21, 2.68349141952077430151e-01) (22, -6.07975035256106272064e-02) (23, -1.21741845735317943261e-02) (24, -1.72764834125382626961e-01) (25, 9.06383633821467998848e-02) (26, 5.17618643058307514870e-01) (27, 2.51984313617022892551e-01) (28, 1.50000000000000000000e+03) (29, 7.25402728227165782826e-01) (30, 1.50000000000000000000e+03) (31, -9.17840051651261229493e-02) (32, 4.79731961212453761334e-01) (33, 2.17701973410675542198e-01) (34, -5.76708436624954884353e-02) (35, 5.33610184153135658214e-01) (36, -1.68548991873383985363e-01) (37, -6.21361864273071093367e-02) (38, 1.50000000000000000000e+03) (39, -6.67185028664501883489e-02) (40, -6.13488021721623547067e-02) (41, 1.87999705726871052525e-01) (42, -3.02479807434920699993e-01) (43, 1.50000000000000000000e+03) (44, -6.14561603801797862179e-02) (45, -6.11849331514192767978e-02) (46, -5.03047659413380574001e-02) (47, -4.47031078955474961423e-02) (48, -5.12985924183736319293e+00) (49, -8.74874750377435533855e-02) (50, 5.24539387913854016077e-01) (51, -1.62672063122869026142e-01) (52, 1.50000000000000000000e+03) (53, 1.66959368791354700878e-01) (54, -9.42717253511217712081e-02) (55, -1.17601768966415845541e-01) (56, -1.91556138704891937286e-01) (57, -1.59284343730092536884e-01) (58, -1.66484059311254234403e-01) (59, -6.23256156235027294898e-02) (60, -9.24061206716322164345e-02) (61, 3.92663479369055323787e-01) (62, 1.50000000000000000000e+03) (63, 1.29099674923177198949e-01) (64, -8.60534471422449986910e-02) (65, -3.07044496269233224695e+00) (66, -4.42860663232625545449e-02) (67, -1.77747502683117036826e-01) (68, 5.23286393972546837183e-01) (69, -6.09370236001400139569e-02) (70, 2.22099083639051508854e-01) (71, 1.50000000000000000000e+03) (72, 3.91076396950296775040e-03) (73, 3.06094014541981207511e-01) (74, -9.07306605166349533498e-01) (75, 4.59109245787660480431e+00) (76, 5.33352976883416429743e-01) (77, -6.75111557075940976747e-02) (78, 1.50000000000000000000e+03) (79, -6.68326956347261580405e-02) (80, -5.46106579385331400434e-02) (81, 5.18620487190725065751e-01) (82, -1.75272198614525448468e-01) (83, 5.19967234822423018947e-01) (84, 5.22801748605878136011e-01) (85, -1.67291748748422453019e-01) (86, 1.50000000000000000000e+03) (87, -1.61254671865869059211e-01) (88, -2.52131059579566607631e-01) (89, 8.00000189603205846822e-01) (90, -1.62374706572206151112e-01) (91, -1.43414279003645811494e-01) (92, -5.95924768576988617141e-02) (93, -1.58555536572808852824e-01) (94, -1.16357514565376381557e-03) (95, -5.46292555805081708753e-02) (96, -1.39421637834275569112e+00) (97, 1.54960866730944474279e-01) (98, 5.17868438806323050372e-01) (99, -1.77755895481704812022e-01) (100, -1.77181476401203324977e-01) (101, 4.54805114929015930070e-01) (102, 1.85054611128101981210e-01) (103, -5.35281370604078765574e-02) (104, -1.34414586127762414325e-01) (105, -1.28772596236076702914e-01) (106, -6.85578604387917234231e-02) (107, 7.94611732015105598492e-01) (108, -1.82150064968733788051e-01) (109, 1.05918564634199505181e-01) (110, -1.26334244772392356726e-01) (111, 5.27304666055203430375e-01) (112, -4.50794724221770855971e-03) (113, 1.50000000000000000000e+03) (114, -1.65074675385827512875e-01) (115, -8.68136279526357412806e+00) (116, -6.02209536148062135608e-02) (117, -6.05724405843537372363e-02) (118, 2.69779963481307782924e-01) (119, 5.27731541951711347060e-01) (120, -1.69089039574743082994e-01) (121, -1.02047659027222251127e-01) (122, -1.25004735420324930573e+01) (123, -6.10911344534188355260e-02) (124, -1.73345902479989211198e-01) (125, -1.68811706613183870607e-01) (126, -1.44270015509471161153e-01) (127, 4.18910797963217285123e-01) (128, -6.04585820343280094802e-02) (129, -9.63923220660476143262e-02) (130, -5.70703646165548472702e-02) (131, -1.42152188436592691323e-01) (132, 5.27583531232984181969e-01) (133, 5.29774655064161215101e-01) (134, 1.73579062979948406387e-01) (135, -1.68213170563907454813e+00) (136, -5.38156643074100826674e-02) (137, -6.32014022851953433113e-02) (138, 3.01676935820839542401e-01) (139, -1.88980808268662814342e-01) (140, -1.04621199124233710265e+00) (141, 2.35280694329878770077e+00) (142, 3.73685040304652382748e-01) (143, -1.67799970279526949879e-01) (144, 3.52963667061442221140e-01) (145, -9.93415291432650920944e-02) (146, 1.56207274359003528419e-01) (147, -7.20625839227086034677e-02) (148, -1.43234370267464689030e-01) (149, 2.16528420857172387848e-01) (150, -6.80056580252304809786e-02) (151, -6.20773045099869275054e-02) (152, -1.81210757797865995578e-01) (153, 2.36466361778236627833e-01) (154, 1.43249644501944439767e-01) (155, 1.50000000000000000000e+03) (156, -6.56562636728895698823e-02) (157, 1.03350691622325172037e-01) (158, -1.73367379020333445272e-01) (159, -6.08600778735608610726e-02) (160, 4.13494306598681138354e-01) (161, 1.47041120733994667980e-01) (162, 1.50000000000000000000e+03) (163, 2.60333890541986467948e-01) (164, 5.26474497409970765283e-01) (165, -6.03761187227413939627e-02) (166, -7.21382609461193868849e-02) (167, 5.26442099770124016800e-01) (168, -5.15635212726415215201e-02) (169, 1.50000000000000000000e+03) (170, -1.82426614473937015459e-01) (171, 2.24583357294696472906e-01) (172, 1.50000000000000000000e+03) (173, -6.82266878734624909741e-02) (174, -1.34678522945408413181e-01) (175, -1.77046108470558405390e-01) (176, -6.83933757278476772701e-02) (177, -3.30856475258220816826e-01) (178, -1.62728931234479456958e-01) (179, 1.79037869812737532316e-01) (180, 1.85209598105679135172e-01) (181, 4.70450179854973837834e-01) (182, -1.24780934612729529909e-01) (183, -4.56913752523243898995e-02) (184, 2.49669574966183777098e-01) (185, 1.85860361064536322440e-01) (186, -2.98876341016353297420e-01) (187, 1.50000000000000000000e+03) (188, 1.71478058856260912046e-01) (189, 5.23458934518010399195e-01) (190, 4.17088443453080159884e-01) (191, 1.50000000000000000000e+03) (192, -6.88838882341800268216e-02) (193, 1.50966933624615395892e+00) (194, 3.86659579979357459489e-01) (195, -1.88095120500203688563e-01) (196, -1.89495443408360747517e-01) (197, 2.05196527649392390646e-01) (198, -5.80278922752362480431e-02) (199, -4.42656293813983925389e+00) (200, -1.08232572986201994181e-01) (201, 1.50000000000000000000e+03) (202, 2.47400458318544652636e-01) 
