FANN_FLO_2.1
num_layers=3
learning_rate=0.700000
connection_rate=1.000000
network_type=0
learning_momentum=0.000000
training_algorithm=2
train_error_function=1
train_stop_function=0
cascade_output_change_fraction=0.010000
quickprop_decay=-0.000100
quickprop_mu=1.750000
rprop_increase_factor=1.200000
rprop_decrease_factor=0.500000
rprop_delta_min=0.000000
rprop_delta_max=50.000000
rprop_delta_zero=0.100000
cascade_output_stagnation_epochs=12
cascade_candidate_change_fraction=0.010000
cascade_candidate_stagnation_epochs=12
cascade_max_out_epochs=150
cascade_min_out_epochs=50
cascade_max_cand_epochs=150
cascade_min_cand_epochs=50
cascade_num_candidate_groups=2
bit_fail_limit=3.49999999999999977796e-01
cascade_candidate_limit=1.00000000000000000000e+03
cascade_weight_multiplier=4.00000000000000022204e-01
cascade_activation_functions_count=10
cascade_activation_functions=3 5 7 8 10 11 14 15 16 17 
cascade_activation_steepnesses_count=4
cascade_activation_steepnesses=2.50000000000000000000e-01 5.00000000000000000000e-01 7.50000000000000000000e-01 1.00000000000000000000e+00 
layer_sizes=2 201 2 
scale_included=0
neurons (num_inputs, activation_function, activation_steepness)=(0, 0, 0.00000000000000000000e+00) (0, 0, 0.00000000000000000000e+00) (2, 4, 5.00000000000000000000e-01) (2, 4, 5.00000000000000000000e-01) (2, 4, 5.00000000000000000000e-01) (2, 4, 5.00000000000000000000e-01) (2, 4, 5.00000000000000000000e-01) (2, 4, 5.00000000000000000000e-01) (2, 4, 5.00000000000000000000e-01) (2, 4, 5.00000000000000000000e-01) (2, 4, 5.00000000000000000000e-01) (2, 4, 5.00000000000000000000e-01) (2, 4, 5.00000000000000000000e-01) (2, 4, 5.00000000000000000000e-01) (2, 4, 5.00000000000000000000e-01) (2, 4, 5.00000000000000000000e-01) (2, 4, 5.00000000000000000000e-01) (2, 4, 5.00000000000000000000e-01) (2, 4, 5.00000000000000000000e-01) (2, 4, 5.00000000000000000000e-01) (2, 4, 5.00000000000000000000e-01) (2, 4, 5.00000000000000000000e-01) (2, 4, 5.00000000000000000000e-01) (2, 4, 5.00000000000000000000e-01) (2, 4, 5.00000000000000000000e-01) (2, 4, 5.00000000000000000000e-01) (2, 4, 5.00000000000000000000e-01) (2, 4, 5.00000000000000000000e-01) (2, 4, 5.00000000000000000000e-01) (2, 4, 5.00000000000000000000e-01) (2, 4, 5.00000000000000000000e-01) (2, 4, 5.00000000000000000000e-01) (2, 4, 5.00000000000000000000e-01) (2, 4, 5.00000000000000000000e-01) (2, 4, 5.00000000000000000000e-01) (2, 4, 5.00000000000000000000e-01) (2, 4, 5.00000000000000000000e-01) (2, 4, 5.00000000000000000000e-01) (2, 4, 5.00000000000000000000e-01) (2, 4, 5.00000000000000000000e-01) (2, 4, 5.00000000000000000000e-01) (2, 4, 5.00000000000000000000e-01) (2, 4, 5.00000000000000000000e-01) (2, 4, 5.00000000000000000000e-01) (2, 4, 5.00000000000000000000e-01) (2, 4, 5.00000000000000000000e-01) (2, 4, 5.00000000000000000000e-01) (2, 4, 5.00000000000000000000e-01) (2, 4, 5.00000000000000000000e-01) (2, 4, 5.00000000000000000000e-01) (2, 4, 5.00000000000000000000e-01) (2, 4, 5.00000000000000000000e-01) (2, 4, 5.00000000000000000000e-01) (2, 4, 5.00000000000000000000e-01) (2, 4, 5.00000000000000000000e-01) (2, 4, 5.00000000000000000000e-01) (2, 4, 5.00000000000000000000e-01) (2, 4, 5.00000000000000000000e-01) (2, 4, 5.00000000000000000000e-01) (2, 4, 5.00000000000000000000e-01) (2, 4, 5.00000000000000000000e-01) (2, 4, 5.00000000000000000000e-01) (2, 4, 5.00000000000000000000e-01) (2, 4, 5.00000000000000000000e-01) (2, 4, 5.00000000000000000000e-01) (2, 4, 5.00000000000000000000e-01) (2, 4, 5.00000000000000000000e-01) (2, 4, 5.00000000000000000000e-01) (2, 4, 5.00000000000000000000e-01) (2, 4, 5.00000000000000000000e-01) (2, 4, 5.00000000000000000000e-01) (2, 4, 5.00000000000000000000e-01) (2, 4, 5.00000000000000000000e-01) (2, 4, 5.00000000000000000000e-01) (2, 4, 5.00000000000000000000e-01) (2, 4, 5.00000000000000000000e-01) (2, 4, 5.00000000000000000000e-01) (2, 4, 5.00000000000000000000e-01) (2, 4, 5.00000000000000000000e-01) (2, 4, 5.00000000000000000000e-01) (2, 4, 5.00000000000000000000e-01) (2, 4, 5.00000000000000000000e-01) (2, 4, 5.00000000000000000000e-01) (2, 4, 5.00000000000000000000e-01) (2, 4, 5.00000000000000000000e-01) (2, 4, 5.00000000000000000000e-01) (2, 4, 5.00000000000000000000e-01) (2, 4, 5.00000000000000000000e-01) (2, 4, 5.00000000000000000000e-01) (2, 4, 5.00000000000000000000e-01) (2, 4, 5.00000000000000000000e-01) (2, 4, 5.00000000000000000000e-01) (2, 4, 5.00000000000000000000e-01) (2, 4, 5.00000000000000000000e-01) (2, 4, 5.00000000000000000000e-01) (2, 4, 5.00000000000000000000e-01) (2, 4, 5.00000000000000000000e-01) (2, 4, 5.00000000000000000000e-01) (2, 4, 5.00000000000000000000e-01) (2, 4, 5.00000000000000000000e-01) (2, 4, 5.00000000000000000000e-01) (2, 4, 5.00000000000000000000e-01) (2, 4, 5.00000000000000000000e-01) (2, 4, 5.00000000000000000000e-01) (2, 4, 5.00000000000000000000e-01) (2, 4, 5.00000000000000000000e-01) (2, 4, 5.00000000000000000000e-01) (2, 4, 5.00000000000000000000e-01) (2, 4, 5.00000000000000000000e-01) (2, 4, 5.00000000000000000000e-01) (2, 4, 5.00000000000000000000e-01) (2, 4, 5.00000000000000000000e-01) (2, 4, 5.00000000000000000000e-01) (2, 4, 5.00000000000000000000e-01) (2, 4, 5.00000000000000000000e-01) (2, 4, 5.00000000000000000000e-01) (2, 4, 5.00000000000000000000e-01) (2, 4, 5.00000000000000000000e-01) (2, 4, 5.00000000000000000000e-01) (2, 4, 5.00000000000000000000e-01) (2, 4, 5.00000000000000000000e-01) (2, 4, 5.00000000000000000000e-01) (2, 4, 5.00000000000000000000e-01) (2, 4, 5.00000000000000000000e-01) (2, 4, 5.00000000000000000000e-01) (2, 4, 5.00000000000000000000e-01) (2, 4, 5.00000000000000000000e-01) (2, 4, 5.00000000000000000000e-01) (2, 4, 5.00000000000000000000e-01) (2, 4, 5.00000000000000000000e-01) (2, 4, 5.00000000000000000000e-01) (2, 4, 5.00000000000000000000e-01) (2, 4, 5.00000000000000000000e-01) (2, 4, 5.00000000000000000000e-01) (2, 4, 5.00000000000000000000e-01) (2, 4, 5.00000000000000000000e-01) (2, 4, 5.00000000000000000000e-01) (2, 4, 5.00000000000000000000e-01) (2, 4, 5.00000000000000000000e-01) (2, 4, 5.00000000000000000000e-01) (2, 4, 5.00000000000000000000e-01) (2, 4, 5.00000000000000000000e-01) (2, 4, 5.00000000000000000000e-01) (2, 4, 5.00000000000000000000e-01) (2, 4, 5.00000000000000000000e-01) (2, 4, 5.00000000000000000000e-01) (2, 4, 5.00000000000000000000e-01) (2, 4, 5.00000000000000000000e-01) (2, 4, 5.00000000000000000000e-01) (2, 4, 5.00000000000000000000e-01) (2, 4, 5.00000000000000000000e-01) (2, 4, 5.00000000000000000000e-01) (2, 4, 5.00000000000000000000e-01) (2, 4, 5.00000000000000000000e-01) (2, 4, 5.00000000000000000000e-01) (2, 4, 5.00000000000000000000e-01) (2, 4, 5.00000000000000000000e-01) (2, 4, 5.00000000000000000000e-01) (2, 4, 5.00000000000000000000e-01) (2, 4, 5.00000000000000000000e-01) (2, 4, 5.00000000000000000000e-01) (2, 4, 5.00000000000000000000e-01) (2, 4, 5.00000000000000000000e-01) (2, 4, 5.00000000000000000000e-01) (2, 4, 5.00000000000000000000e-01) (2, 4, 5.00000000000000000000e-01) (2, 4, 5.00000000000000000000e-01) (2, 4, 5.00000000000000000000e-01) (2, 4, 5.00000000000000000000e-01) (2, 4, 5.00000000000000000000e-01) (2, 4, 5.00000000000000000000e-01) (2, 4, 5.00000000000000000000e-01) (2, 4, 5.00000000000000000000e-01) (2, 4, 5.00000000000000000000e-01) (2, 4, 5.00000000000000000000e-01) (2, 4, 5.00000000000000000000e-01) (2, 4, 5.00000000000000000000e-01) (2, 4, 5.00000000000000000000e-01) (2, 4, 5.00000000000000000000e-01) (2, 4, 5.00000000000000000000e-01) (2, 4, 5.00000000000000000000e-01) (2, 4, 5.00000000000000000000e-01) (2, 4, 5.00000000000000000000e-01) (2, 4, 5.00000000000000000000e-01) (2, 4, 5.00000000000000000000e-01) (2, 4, 5.00000000000000000000e-01) (2, 4, 5.00000000000000000000e-01) (2, 4, 5.00000000000000000000e-01) (2, 4, 5.00000000000000000000e-01) (2, 4, 5.00000000000000000000e-01) (2, 4, 5.00000000000000000000e-01) (2, 4, 5.00000000000000000000e-01) (2, 4, 5.00000000000000000000e-01) (2, 4, 5.00000000000000000000e-01) (2, 4, 5.00000000000000000000e-01) (2, 4, 5.00000000000000000000e-01) (2, 4, 5.00000000000000000000e-01) (2, 4, 5.00000000000000000000e-01) (2, 4, 5.00000000000000000000e-01) (2, 4, 5.00000000000000000000e-01) (2, 4, 5.00000000000000000000e-01) (2, 4, 5.00000000000000000000e-01) (0, 0, 0.00000000000000000000e+00) (201, 4, 5.00000000000000000000e-01) (0, 0, 0.00000000000000000000e+00) 
connections (connected_to_neuron, weight)=(0, -5.34309904915497124733e-01) (1, -8.61581791278797526346e-01) (0, -1.58851477297550625067e+00) (1, -1.14954390092015759639e-01) (0, -1.45393508720578018556e-01) (1, -8.28574323656705580277e-01) (0, 3.44866810670271606298e+00) (1, -6.05266041996473358466e+00) (0, -1.60517229082454448985e+00) (1, -2.05286535503357153720e-01) (0, -3.38616788721660499917e+00) (1, -6.11281869429508462055e-01) (0, 2.19608899131005053107e+00) (1, -5.51415665696888476766e-03) (0, 2.20044211019496760429e+00) (1, -1.37066614653792412382e-01) (0, -8.39847949848118502381e-01) (1, -1.43821718325431280316e-01) (0, -1.54646321358383498357e+00) (1, -2.63058905436764189911e-01) (0, -3.89978113670693848913e-01) (1, -9.36002341986900798787e-01) (0, 1.27991248207905777834e-01) (1, -9.89625824403856935163e-01) (0, -1.69940379405909625099e+00) (1, -1.25714651251748188443e-01) (0, -1.56548723815959611727e+00) (1, -1.80657901242978258249e-01) (0, -1.38351717330974163800e-02) (1, -8.46185885821617800318e-01) (0, -9.08519623002469578488e-01) (1, -2.43740250828934468252e-01) (0, -1.01011206143388143630e+00) (1, -1.92273995753288989841e-01) (0, -4.36724034610939781942e+00) (1, 4.31631616075777366226e-02) (0, 2.05390818110974748834e+00) (1, -4.65004376106883249298e-03) (0, 2.38356098140602856716e+00) (1, -1.65025695381642856230e-01) (0, 2.14666106428108927062e+00) (1, -9.86421591288760141181e-02) (0, -9.85431909949694539996e-01) (1, -2.28270694041691646348e-01) (0, 2.20356970586817180191e+00) (1, -1.43101791005204509455e-01) (0, -1.53276291678894360793e+00) (1, -2.40482662373694311420e-01) (0, 4.20200964225440204425e-02) (1, -7.86940402653844683911e-01) (0, -1.64453656147172844193e+00) (1, -2.44298132563341485746e-01) (0, 2.25867029342894332089e+00) (1, -1.18762596020308738853e-01) (0, 2.19149380643586955131e+00) (1, -1.31332035668912022741e-01) (0, -3.48100657584887018814e+00) (1, -5.86211324050304738442e-01) (0, -4.03381380339022099779e-01) (1, -1.00333627492992172314e+00) (0, -6.59070146193026662473e+00) (1, -6.05485349778894121897e-01) (0, 8.19017584332465825581e-02) (1, -1.56976693930012956013e-02) (0, -9.95897106276098953437e-01) (1, -2.10098351434193447718e-01) (0, 2.15111589328861185777e+00) (1, -2.38055545143039393174e-02) (0, -4.27090789273759607880e+00) (1, -8.91910568767088629549e-02) (0, 4.81582877521667285237e-01) (1, -9.33209374017651249744e-01) (0, -3.23349769142719889459e+00) (1, -5.92066334573369323913e-01) (0, -1.52329496266544661687e+00) (1, -2.73707364256335350383e-01) (0, -1.49228088084682597447e+00) (1, -2.15985256490317523159e-01) (0, -4.98745648934611818248e-01) (1, -1.41035339769518652808e+00) (0, -4.37009338309917394483e-01) (1, -9.51106741358741958337e-01) (0, -1.54517039027799318873e+00) (1, -1.48842219903588424135e-01) (0, -1.65578768485908889296e+00) (1, -2.75754319555108984297e-01) (0, -1.55119801284969649480e+00) (1, -2.39420565852325462064e-01) (0, 2.16610031958246995742e+00) (1, -1.12480064789824044102e-01) (0, -3.47293923557684935943e+00) (1, -5.67155295425672334453e-01) (0, -8.97564842526922146426e-01) (1, -2.88265393594887397999e-01) (0, -1.75861120675780968625e+00) (1, -2.47681317895484254255e-01) (0, -4.70592250777532683514e+00) (1, 9.03920202240412473671e-02) (0, -1.63551678379183074163e+00) (1, -2.30316815369810468095e-01) (0, -6.28697553495885852470e+00) (1, -6.44779824450186889173e-01) (0, 2.07060139905551920947e+00) (1, -4.63496719936172876797e-02) (0, 2.07400479446987162646e+00) (1, -4.56550894473831195275e-02) (0, -1.68053587903833978601e+00) (1, -1.44310451055482319438e-01) (0, -4.20501320019397661909e-01) (1, -9.40948385312992519047e-01) (0, 2.08738929944359297153e+00) (1, -8.63310650622036296342e-02) (0, -1.53920370312631926701e+00) (1, -2.50494087745530613631e-01) (0, 1.19185626030826927191e-01) (1, 1.43169870911256484625e-02) (0, 1.03638478072085080117e-01) (1, -7.92493300309297432626e-01) (0, -1.54798738558754500616e+00) (1, -1.30529151417480421271e-01) (0, -3.75176214128939022885e+00) (1, -3.02220782108057473003e-01) (0, 1.20973452449703547384e-01) (1, -1.37629587358414129383e-01) (0, -1.65070528423956974784e+00) (1, -1.28929365497532838480e-01) (0, 2.24062341193134839656e+00) (1, -1.14949519255963431008e-01) (0, -4.51007269825144219144e-01) (1, -8.53160012599903483377e-01) (0, -5.07899643525312693981e-01) (1, -1.16221574720181557439e+01) (0, 6.07206364883094915075e-02) (1, -8.86778659489782183911e-01) (0, 3.92167397414964957747e+00) (1, -6.33282544163183835906e+00) (0, -5.18653636470268519787e-01) (1, -1.15644700255431267522e+01) (0, 2.06177135040715331371e+00) (1, 4.60702571974732494331e-03) (0, -1.62861589263132011673e+00) (1, -2.66687047351186756750e-01) (0, -1.67371537875267795137e+00) (1, -1.75842361163296295734e-01) (0, -4.07043037608099289582e-01) (1, -1.15253673073090645573e+01) (0, 2.08635922610246415942e+00) (1, -3.47669764350957630206e-02) (0, -9.13649207327084433850e-01) (1, -2.63516382358501000116e-01) (0, 2.39783726071124014823e+00) (1, -1.74307800052644290556e-01) (0, 8.04896647938727893834e-02) (1, 5.11913111744543639081e-02) (0, 2.38438239110619412675e-02) (1, -8.80542889689243990503e-01) (0, -4.02152428202922129774e-01) (1, -8.51688638547257959033e-01) (0, -1.53494018874321858092e+00) (1, -8.92397222871672141098e-02) (0, -3.63040757968854765902e-01) (1, -1.15790499251522156499e+01) (0, 2.04550566803555211592e+00) (1, -3.02760725358761917381e-02) (0, 1.83094683695481430519e+00) (1, -6.51329987251543851556e+00) (0, 2.18266695913650243810e+00) (1, -1.16970446520538493007e-01) (0, -1.57989168677240582328e-01) (1, -8.03454783542950856656e-01) (0, -1.67411972159657040926e+00) (1, -1.72409554762424011010e+00) (0, 1.98049456883844765542e+00) (1, 9.04148641760035148840e-03) (0, -1.62102510499555951817e+00) (1, -1.17409945001245033525e-01) (0, -1.63178316084890706605e+00) (1, -2.93952355212514893079e-01) (0, -1.23365063531158174470e+01) (1, 2.45336295079171229361e+00) (0, 2.05622198559813851304e+00) (1, -9.35254576467116766070e-02) (0, 2.16648092587213358939e+00) (1, -1.22349011858906717154e-01) (0, 2.30446843799486522641e+00) (1, -1.67442441939791325511e-01) (0, 2.23422809526714694073e+00) (1, -9.96040602937005165041e-02) (0, -5.45864041787788689675e-01) (1, -8.52455739193111794449e-01) (0, -3.65111497834157916476e-01) (1, -1.15819404300488564274e+01) (0, -1.26751467126363088767e+01) (1, 2.56513083817981524248e+00) (0, 1.32869302750492468412e-01) (1, -4.15644437688415541859e-03) (0, -3.40975715806259094265e+00) (1, -5.77849134564632826994e-01) (0, -3.41178321906879578052e+00) (1, -5.91621028255516767658e-01) (0, -4.49532730176878003725e-01) (1, -1.16494866375066372655e+01) (0, 2.06636960798607560719e+00) (1, -1.01688302015729967187e-01) (0, -9.97363978431457631757e-01) (1, -1.91949398642639074142e-01) (0, -1.68098790182071367028e+00) (1, -1.02193802859914209535e-01) (0, 1.25411182166004525618e-01) (1, 4.69901224909446482703e-02) (0, 2.14331734801731821349e+00) (1, -9.64736080414966418184e-02) (0, -1.49776671788416737563e+00) (1, -9.77123761566321552552e-02) (0, -9.95273872547238869224e-01) (1, -2.05319993422878793732e-01) (0, -1.65691213975599205277e+00) (1, -2.41196897320867104098e-01) (0, 3.33383959392358253382e+00) (1, -6.12078645357061024157e+00) (0, 2.24066158604675047528e+00) (1, -1.53650581026142735164e-01) (0, -1.68149626920869743607e+00) (1, -2.26118876094330178983e-01) (0, 1.04564942868151419808e-01) (1, -8.21302415599939217294e-01) (0, 2.10010060784253704824e+00) (1, -8.25814951239403488570e-02) (0, -4.16764415362691043043e+00) (1, -2.45573319959080799135e-02) (0, -1.64542910377433693192e+00) (1, -2.46319030094934138253e-01) (0, 2.15957188850468062569e+00) (1, -1.66319762522759706513e-02) (0, -4.63919775146171720070e-01) (1, -9.74364962515312571512e-01) (0, -1.53475524333572788116e+00) (1, -1.24902575890053088581e-01) (0, 2.04191905014687558051e+00) (1, -8.25568246573054748128e-02) (0, -4.46526867940855110017e-01) (1, -1.15299412336386772893e+01) (0, -4.90561978563499534456e-01) (1, -1.16280802440084549687e+01) (0, 2.19756238628845057548e+00) (1, -1.36327656104197530995e-01) (0, 2.01589740009971940538e+00) (1, -9.38302054622508138748e-03) (0, 2.11782897154434035514e+00) (1, -8.70464238627483705146e-02) (0, -4.50744185002144512331e-02) (1, -2.43423500582375870738e-02) (0, -4.56464906826448579835e-01) (1, -1.15585639950074288151e+01) (0, -8.94542090448533500080e-01) (1, -2.83124311742928291835e-01) (0, -1.61015994640594906073e+00) (1, -1.05467372102857073757e-01) (0, 2.07474858731361777586e+00) (1, -8.15952227150587156013e-02) (0, 2.07304689899540539599e+00) (1, -6.64922298514172638306e+00) (0, -1.33643159205813571999e-01) (1, -9.12737259494061481391e-01) (0, -5.51728134843848416757e-01) (1, -9.36129923242863037913e-01) (0, 2.39661922467857904651e-02) (1, -8.24017234598435122095e-01) (0, 5.16162547270931915122e-01) (1, -9.91367792947704051798e-01) (0, 4.35773671525686162598e-02) (1, -9.37878059197528035629e-02) (0, -5.42639006398395906672e-01) (1, -8.85384814268787678770e-01) (0, 2.34667559667168434956e+00) (1, -1.25142688605806379210e-01) (0, -3.52519360974256457109e-01) (1, -1.15457599487341973088e+01) (0, -8.97064633521234000568e-01) (1, -2.79651631646969600631e-01) (0, -1.54745006533563933537e+00) (1, -2.47782497742574076005e-01) (0, -1.76924653740693860193e+00) (1, -1.82989916694385668094e+00) (0, 2.27843511408672849683e+00) (1, -1.12523544053661231357e-01) (0, -4.32038871243429489777e-01) (1, -1.16302995819784733555e+01) (0, 3.75956343181944951937e+00) (1, -6.36460130740133234184e+00) (0, -4.13577107384634323761e-01) (1, -1.15434217330254647038e+01) (0, -4.57532850697469850587e-01) (1, -1.15075310643948647282e+01) (0, 1.98189588544210731902e-01) (1, -9.90509327094880598352e-01) (0, -4.57634219485447191200e-01) (1, -9.33914996017917831139e-01) (0, -4.93365717723798835603e-01) (1, -1.15504945989884468815e+01) (0, 1.97349659799422672002e+00) (1, -3.02650603821057045950e-02) (0, -3.48783238241631732279e+00) (1, -5.87557114423354343025e-01) (0, -3.38786209604059873612e+00) (1, -6.46035050517018150096e-01) (0, -3.79141512413369130563e-01) (1, -1.00412841401291075272e+00) (0, -4.76005291238260297426e-01) (1, -1.15737892937101456425e+01) (0, -4.66639127475425852243e-01) (1, -9.19635619535881465580e-01) (0, -4.89179508346245073280e-01) (1, -9.15658689369663436608e-01) (0, -4.59701133563947816896e-01) (1, -1.15498001750744911931e+01) (0, 3.61184195536345259425e-02) (1, -9.54209046127190152475e-02) (0, 2.03896755479746882855e+00) (1, -8.87111830376229454354e-02) (0, 2.31991731361775244125e+00) (1, -1.61688601716087898552e-01) (0, -1.69970188731191940157e+00) (1, -2.18916198665607797391e-01) (0, 2.00880049493336354516e+00) (1, -6.04666503995499454716e-02) (0, -1.21942592672270304632e+01) (1, 2.48411478918285810735e+00) (0, -9.83087852985773946735e-01) (1, -2.31479884792290535600e-01) (0, -1.63342451768715268834e+00) (1, -1.13248203590035914634e-01) (0, -1.55598613129724205884e+00) (1, -1.91526988227623262695e-01) (0, -3.75920875185268155150e+00) (1, -3.18598959699611439245e-01) (0, 2.14648770406265221311e+00) (1, -1.82905430901437668356e-02) (0, -7.47113881769203302952e+00) (1, 3.94529175398309450706e-01) (0, -4.97212166128353505457e-01) (1, -9.56069917804439839415e-01) (0, 2.34702501275756469923e+00) (1, -1.53676710479108441509e-01) (0, -1.60991165506441480382e+00) (1, -1.32529903843522367524e-01) (0, -1.71556878795981537777e+00) (1, -2.58672269105743590778e-01) (0, -6.38063424542992113642e-02) (1, -8.92849685254243574661e-01) (0, -5.41059745147659310049e-01) (1, -1.15440060522593590520e+01) (0, 1.99955916732266691938e+00) (1, 9.69815078909087163739e-03) (0, -4.50224769905042676577e-01) (1, -1.16805670511163803837e+01) (0, 2.04276793247444921064e+00) (1, -5.74300312977449843588e-03) (0, -3.30859033805977098552e+00) (1, -6.26763619963227824883e-01) (0, 2.03036594393707803263e+00) (1, -7.72606539391126473371e-02) (0, 7.46525903062000423249e-02) (1, -9.60771778533132447819e-01) (0, 2.03958597037722055845e+00) (1, -6.64437974918480195319e-02) (0, -1.03919859898356636840e+00) (1, -1.65482525932694080062e-01) (0, -1.47113635663017405797e+00) (1, -2.43948459449969262680e-01) (0, -4.44768225822528062707e+00) (1, 6.43936116332103486437e-02) (0, 2.17476667091765563100e+00) (1, -1.07957734025395560296e-01) (0, -4.33362548842859574005e-01) (1, -1.16772973489202591679e+01) (0, -1.40692368078936991260e+00) (1, -1.92164381433114139774e+00) (0, 3.81432160129810871041e+00) (1, -6.34210722856362885125e+00) (0, -4.00683744981566203336e+00) (1, -2.06105835523353632388e-02) (0, -5.37447592023299391961e-01) (1, -9.38855725346400382669e-01) (0, -1.21671743710530719795e+01) (1, 2.42339632462019460846e+00) (0, -3.35256882598174987820e+00) (1, -6.18045033681698385841e-01) (0, 1.01743676216997827599e-01) (1, -8.38367046585199227060e-01) (0, 2.14635168637238260558e+00) (1, -9.84271130211070016669e-02) (0, 1.02611317754650446799e-01) (1, 4.97720947800300364539e-02) (0, -1.83419508610149639694e+00) (1, -1.61333548326729703248e+00) (0, -3.27687962761415141344e+00) (1, -7.10066968050380942223e-01) (0, -3.22558816913318047170e+00) (1, -8.31393350529520014369e-01) (2, 2.12253957155190062234e-02) (3, 1.28393782240275977635e-01) (4, 2.19503697432737177042e-02) (5, -2.58766576245770281162e+01) (6, 1.32509666973547574065e-01) (7, 2.06660828362527415614e-01) (8, -1.46432202197667199473e-01) (9, -8.49318247114930341413e-02) (10, 9.17065559588988027384e-02) (11, 1.37157613830861946358e-01) (12, 2.62202982369147269415e-02) (13, 1.70115696004906578886e-02) (14, 1.28987283532471047609e-01) (15, 1.42050578460924836754e-01) (16, 1.20152700237014208040e-02) (17, 8.27420845669870896888e-02) (18, 1.12094630242043691304e-01) (19, 7.62570000519627533286e-01) (20, -1.50183832959492002956e-01) (21, -1.13207194948138453738e-01) (22, -1.02608454362668674587e-01) (23, 1.27483685703091403907e-01) (24, -1.14409397747854205130e-01) (25, 1.03859459319843125402e-01) (26, 1.42471632628326447256e-02) (27, 1.28967756824788948311e-01) (28, -1.06332981644286603262e-01) (29, -9.78813063179764936139e-02) (30, 6.18535631994029166947e-01) (31, 2.98059529951792551161e-02) (32, -4.40285978775260655738e+00) (33, 1.14837517092772622984e-01) (34, 1.35007287739948911298e-01) (35, -1.28305083827334992508e-01) (36, 1.06881941250094514295e+00) (37, 2.48374812188715474170e-02) (38, 5.56339613853795267318e-01) (39, 1.28677109675702949776e-01) (40, 1.07758891574041740236e-01) (41, 3.14240645953985375805e-02) (42, 2.21372704778690851390e-02) (43, 1.36830613186423866168e-01) (44, 1.08843918088329397187e-01) (45, 1.22571566488872213396e-01) (46, -1.08816236138176578030e-01) (47, 6.11743717957128008145e-01) (48, 1.16303850189117485847e-01) (49, 1.41967295789652031557e-01) (50, 3.45794165909331263631e-01) (51, 1.29244884746299915079e-01) (52, -4.69373231738253338108e+00) (53, -1.49806892466835317457e-01) (54, -1.19692323696902788721e-01) (55, 1.44781766291765812138e-01) (56, 2.42949064646740542361e-02) (57, -1.09872634637093055665e-01) (58, 1.46691877975498152775e-01) (59, 1.11253362752516710144e-01) (60, 2.35609278305711211665e-02) (61, 1.53951541429309474163e-01) (62, 5.10531015992146341986e-01) (63, 1.19054686881620797045e-01) (64, 1.45199012763374046830e-01) (65, -9.14734857364077474928e-02) (66, 2.68393527250212066138e-02) (67, 1.50000000000000000000e+03) (68, 9.86403512643626786960e-03) (69, 2.68275368469207080580e+01) (70, 1.50000000000000000000e+03) (71, -1.41637258956272465982e-01) (72, 1.02843041019734793284e-01) (73, 1.10094095796064758708e-01) (74, 1.50000000000000000000e+03) (75, -1.42047939382870108682e-01) (76, 9.07140883472569159451e-02) (77, -8.85084655998606278926e-02) (78, 1.19339619825430259814e-01) (79, 1.53960346238174311528e-02) (80, 3.48092844196997500128e-02) (81, 1.53749171865930261971e-01) (82, 1.50000000000000000000e+03) (83, -1.29656618428519831987e-01) (84, -2.06665395317556477295e+00) (85, -1.07616442834236866744e-01) (86, 8.14503249304080606530e-03) (87, 5.12932243220805342276e-02) (88, -1.50939056443981423072e-01) (89, 1.22754120199459110241e-01) (90, 1.14934026626929711168e-01) (91, 2.58415763041236312691e-01) (92, -1.12737958730919227146e-01) (93, -9.19265901967530191241e-02) (94, -1.04668867198160667198e-01) (95, -1.31356288914996760520e-01) (96, 2.24233969214402001358e-02) (97, 1.50000000000000000000e+03) (98, 2.79915611142988352000e-01) (99, 1.18396890021879669375e-01) (100, 6.00530270387495956896e-01) (101, 6.18855874425687013662e-01) (102, 1.50000000000000000000e+03) (103, -1.17692493060068084643e-01) (104, 7.31108945628290984864e-02) (105, 1.41797647725750070036e-01) (106, 1.14273977138121762831e-01) (107, -1.18056331710137477065e-01) (108, 1.10248457102557720355e-01) (109, 1.17723439574891425297e-01) (110, 9.80570264628500276594e-02) (111, 3.57956199053135648569e+01) (112, -9.33209764030975968963e-02) (113, 1.32729778485593696846e-01) (114, 1.90900989099683018879e-02) (115, -9.63326989410636241873e-02) (116, 4.63710741792473291056e-01) (117, 1.08582849102315526224e-01) (118, -1.46061468757744866709e-01) (119, 2.87751991811476814931e-02) (120, 1.55655217334133455509e-01) (121, -1.17134983335045059216e-01) (122, 1.50000000000000000000e+03) (123, 1.50000000000000000000e+03) (124, -9.67688938900475442706e-02) (125, -1.22308021378806669466e-01) (126, -1.27751980857171210104e-01) (127, 1.51091857965266890274e-01) (128, 1.50000000000000000000e+03) (129, 1.06102647038346736830e-01) (130, 1.34349310968188861981e-01) (131, -1.27227294373249283366e-01) (132, 2.68721116075215782359e+01) (133, 3.24299204358144549376e-02) (134, 2.43687649734459430007e-02) (135, 1.80960318998853036954e-02) (136, 3.14557075047239842469e-02) (137, 1.58017985736006116859e-01) (138, 2.00069662274799942026e-02) (139, -1.20122904805596994460e-01) (140, 1.50000000000000000000e+03) (141, 1.27736450464574519126e-01) (142, 1.04024027123485393598e-01) (143, 8.23937759032431216166e-02) (144, -9.90697086435694401763e-02) (145, 1.50000000000000000000e+03) (146, -6.25822192017560468003e+01) (147, 1.50000000000000000000e+03) (148, 1.50000000000000000000e+03) (149, 1.71924565908057741526e-02) (150, 2.82050282511730893154e-02) (151, 1.50000000000000000000e+03) (152, -1.12818583516492279561e-01) (153, 6.30926929602137809283e-01) (154, 1.99207124467411927915e-01) (155, 2.91877522460203958632e-02) (156, 1.50000000000000000000e+03) (157, 2.00968731020470109394e-02) (158, 2.80980006608982785243e-02) (159, 1.50000000000000000000e+03) (160, 1.66590682294833813959e-01) (161, -1.30754446090919768109e-01) (162, -9.60186033964868096424e-02) (163, 1.07857058244046649653e-01) (164, -1.25667432550610691511e-01) (165, 3.25025825673009416406e-01) (166, 1.30444874257855197852e-01) (167, 1.49387040107028579161e-01) (168, 1.50301098094217988610e-01) (169, 5.16253044157049645335e-01) (170, -1.25988305853470261564e-01) (171, 4.63979198513212731658e-01) (172, 2.63297941361447032649e-02) (173, -9.84538543045420239119e-02) (174, 1.52542589531676847647e-01) (175, 1.07328190831527683913e-01) (176, 1.18171745936134012234e-02) (177, 1.50000000000000000000e+03) (178, -1.32224188911727547069e-01) (179, 1.50000000000000000000e+03) (180, -1.31363672696429928388e-01) (181, 1.87495423534188271342e-01) (182, -1.04554258038991584878e-01) (183, 2.49961345164663728546e-02) (184, -1.11699950830258756818e-01) (185, 1.15772479986729820434e-01) (186, 1.53211662167166390303e-01) (187, 7.07972414376100367406e-01) (188, -1.14332557371442197769e-01) (189, 1.50000000000000000000e+03) (190, 5.67742529544886451176e-02) (191, 3.40633350971631045923e+01) (192, 4.67529984939606124694e-01) (193, 1.09898915016902638808e-02) (194, 2.20042461512040765648e-01) (195, 1.99035596098378703145e-01) (196, 2.94781230612937775182e-02) (197, -1.05379347638406437038e-01) (198, 1.19180050350744637377e-01) (199, 4.68022939673030588525e-02) (200, 1.49486397501386314435e-01) (201, 1.05516411397570702979e-01) (202, 4.19341883001944984444e-02) 
