FANN_FLO_2.1
num_layers=3
learning_rate=0.700000
connection_rate=1.000000
network_type=0
learning_momentum=0.000000
training_algorithm=2
train_error_function=1
train_stop_function=0
cascade_output_change_fraction=0.010000
quickprop_decay=-0.000100
quickprop_mu=1.750000
rprop_increase_factor=1.200000
rprop_decrease_factor=0.500000
rprop_delta_min=0.000000
rprop_delta_max=50.000000
rprop_delta_zero=0.100000
cascade_output_stagnation_epochs=12
cascade_candidate_change_fraction=0.010000
cascade_candidate_stagnation_epochs=12
cascade_max_out_epochs=150
cascade_min_out_epochs=50
cascade_max_cand_epochs=150
cascade_min_cand_epochs=50
cascade_num_candidate_groups=2
bit_fail_limit=3.49999999999999977796e-01
cascade_candidate_limit=1.00000000000000000000e+03
cascade_weight_multiplier=4.00000000000000022204e-01
cascade_activation_functions_count=10
cascade_activation_functions=3 5 7 8 10 11 14 15 16 17 
cascade_activation_steepnesses_count=4
cascade_activation_steepnesses=2.50000000000000000000e-01 5.00000000000000000000e-01 7.50000000000000000000e-01 1.00000000000000000000e+00 
layer_sizes=2 201 2 
scale_included=0
neurons (num_inputs, activation_function, activation_steepness)=(0, 0, 0.00000000000000000000e+00) (0, 0, 0.00000000000000000000e+00) (2, 4, 5.00000000000000000000e-01) (2, 4, 5.00000000000000000000e-01) (2, 4, 5.00000000000000000000e-01) (2, 4, 5.00000000000000000000e-01) (2, 4, 5.00000000000000000000e-01) (2, 4, 5.00000000000000000000e-01) (2, 4, 5.00000000000000000000e-01) (2, 4, 5.00000000000000000000e-01) (2, 4, 5.00000000000000000000e-01) (2, 4, 5.00000000000000000000e-01) (2, 4, 5.00000000000000000000e-01) (2, 4, 5.00000000000000000000e-01) (2, 4, 5.00000000000000000000e-01) (2, 4, 5.00000000000000000000e-01) (2, 4, 5.00000000000000000000e-01) (2, 4, 5.00000000000000000000e-01) (2, 4, 5.00000000000000000000e-01) (2, 4, 5.00000000000000000000e-01) (2, 4, 5.00000000000000000000e-01) (2, 4, 5.00000000000000000000e-01) (2, 4, 5.00000000000000000000e-01) (2, 4, 5.00000000000000000000e-01) (2, 4, 5.00000000000000000000e-01) (2, 4, 5.00000000000000000000e-01) (2, 4, 5.00000000000000000000e-01) (2, 4, 5.00000000000000000000e-01) (2, 4, 5.00000000000000000000e-01) (2, 4, 5.00000000000000000000e-01) (2, 4, 5.00000000000000000000e-01) (2, 4, 5.00000000000000000000e-01) (2, 4, 5.00000000000000000000e-01) (2, 4, 5.00000000000000000000e-01) (2, 4, 5.00000000000000000000e-01) (2, 4, 5.00000000000000000000e-01) (2, 4, 5.00000000000000000000e-01) (2, 4, 5.00000000000000000000e-01) (2, 4, 5.00000000000000000000e-01) (2, 4, 5.00000000000000000000e-01) (2, 4, 5.00000000000000000000e-01) (2, 4, 5.00000000000000000000e-01) (2, 4, 5.00000000000000000000e-01) (2, 4, 5.00000000000000000000e-01) (2, 4, 5.00000000000000000000e-01) (2, 4, 5.00000000000000000000e-01) (2, 4, 5.00000000000000000000e-01) (2, 4, 5.00000000000000000000e-01) (2, 4, 5.00000000000000000000e-01) (2, 4, 5.00000000000000000000e-01) (2, 4, 5.00000000000000000000e-01) (2, 4, 5.00000000000000000000e-01) (2, 4, 5.00000000000000000000e-01) (2, 4, 5.00000000000000000000e-01) (2, 4, 5.00000000000000000000e-01) (2, 4, 5.00000000000000000000e-01) (2, 4, 5.00000000000000000000e-01) (2, 4, 5.00000000000000000000e-01) (2, 4, 5.00000000000000000000e-01) (2, 4, 5.00000000000000000000e-01) (2, 4, 5.00000000000000000000e-01) (2, 4, 5.00000000000000000000e-01) (2, 4, 5.00000000000000000000e-01) (2, 4, 5.00000000000000000000e-01) (2, 4, 5.00000000000000000000e-01) (2, 4, 5.00000000000000000000e-01) (2, 4, 5.00000000000000000000e-01) (2, 4, 5.00000000000000000000e-01) (2, 4, 5.00000000000000000000e-01) (2, 4, 5.00000000000000000000e-01) (2, 4, 5.00000000000000000000e-01) (2, 4, 5.00000000000000000000e-01) (2, 4, 5.00000000000000000000e-01) (2, 4, 5.00000000000000000000e-01) (2, 4, 5.00000000000000000000e-01) (2, 4, 5.00000000000000000000e-01) (2, 4, 5.00000000000000000000e-01) (2, 4, 5.00000000000000000000e-01) (2, 4, 5.00000000000000000000e-01) (2, 4, 5.00000000000000000000e-01) (2, 4, 5.00000000000000000000e-01) (2, 4, 5.00000000000000000000e-01) (2, 4, 5.00000000000000000000e-01) (2, 4, 5.00000000000000000000e-01) (2, 4, 5.00000000000000000000e-01) (2, 4, 5.00000000000000000000e-01) (2, 4, 5.00000000000000000000e-01) (2, 4, 5.00000000000000000000e-01) (2, 4, 5.00000000000000000000e-01) (2, 4, 5.00000000000000000000e-01) (2, 4, 5.00000000000000000000e-01) (2, 4, 5.00000000000000000000e-01) (2, 4, 5.00000000000000000000e-01) (2, 4, 5.00000000000000000000e-01) (2, 4, 5.00000000000000000000e-01) (2, 4, 5.00000000000000000000e-01) (2, 4, 5.00000000000000000000e-01) (2, 4, 5.00000000000000000000e-01) (2, 4, 5.00000000000000000000e-01) (2, 4, 5.00000000000000000000e-01) (2, 4, 5.00000000000000000000e-01) (2, 4, 5.00000000000000000000e-01) (2, 4, 5.00000000000000000000e-01) (2, 4, 5.00000000000000000000e-01) (2, 4, 5.00000000000000000000e-01) (2, 4, 5.00000000000000000000e-01) (2, 4, 5.00000000000000000000e-01) (2, 4, 5.00000000000000000000e-01) (2, 4, 5.00000000000000000000e-01) (2, 4, 5.00000000000000000000e-01) (2, 4, 5.00000000000000000000e-01) (2, 4, 5.00000000000000000000e-01) (2, 4, 5.00000000000000000000e-01) (2, 4, 5.00000000000000000000e-01) (2, 4, 5.00000000000000000000e-01) (2, 4, 5.00000000000000000000e-01) (2, 4, 5.00000000000000000000e-01) (2, 4, 5.00000000000000000000e-01) (2, 4, 5.00000000000000000000e-01) (2, 4, 5.00000000000000000000e-01) (2, 4, 5.00000000000000000000e-01) (2, 4, 5.00000000000000000000e-01) (2, 4, 5.00000000000000000000e-01) (2, 4, 5.00000000000000000000e-01) (2, 4, 5.00000000000000000000e-01) (2, 4, 5.00000000000000000000e-01) (2, 4, 5.00000000000000000000e-01) (2, 4, 5.00000000000000000000e-01) (2, 4, 5.00000000000000000000e-01) (2, 4, 5.00000000000000000000e-01) (2, 4, 5.00000000000000000000e-01) (2, 4, 5.00000000000000000000e-01) (2, 4, 5.00000000000000000000e-01) (2, 4, 5.00000000000000000000e-01) (2, 4, 5.00000000000000000000e-01) (2, 4, 5.00000000000000000000e-01) (2, 4, 5.00000000000000000000e-01) (2, 4, 5.00000000000000000000e-01) (2, 4, 5.00000000000000000000e-01) (2, 4, 5.00000000000000000000e-01) (2, 4, 5.00000000000000000000e-01) (2, 4, 5.00000000000000000000e-01) (2, 4, 5.00000000000000000000e-01) (2, 4, 5.00000000000000000000e-01) (2, 4, 5.00000000000000000000e-01) (2, 4, 5.00000000000000000000e-01) (2, 4, 5.00000000000000000000e-01) (2, 4, 5.00000000000000000000e-01) (2, 4, 5.00000000000000000000e-01) (2, 4, 5.00000000000000000000e-01) (2, 4, 5.00000000000000000000e-01) (2, 4, 5.00000000000000000000e-01) (2, 4, 5.00000000000000000000e-01) (2, 4, 5.00000000000000000000e-01) (2, 4, 5.00000000000000000000e-01) (2, 4, 5.00000000000000000000e-01) (2, 4, 5.00000000000000000000e-01) (2, 4, 5.00000000000000000000e-01) (2, 4, 5.00000000000000000000e-01) (2, 4, 5.00000000000000000000e-01) (2, 4, 5.00000000000000000000e-01) (2, 4, 5.00000000000000000000e-01) (2, 4, 5.00000000000000000000e-01) (2, 4, 5.00000000000000000000e-01) (2, 4, 5.00000000000000000000e-01) (2, 4, 5.00000000000000000000e-01) (2, 4, 5.00000000000000000000e-01) (2, 4, 5.00000000000000000000e-01) (2, 4, 5.00000000000000000000e-01) (2, 4, 5.00000000000000000000e-01) (2, 4, 5.00000000000000000000e-01) (2, 4, 5.00000000000000000000e-01) (2, 4, 5.00000000000000000000e-01) (2, 4, 5.00000000000000000000e-01) (2, 4, 5.00000000000000000000e-01) (2, 4, 5.00000000000000000000e-01) (2, 4, 5.00000000000000000000e-01) (2, 4, 5.00000000000000000000e-01) (2, 4, 5.00000000000000000000e-01) (2, 4, 5.00000000000000000000e-01) (2, 4, 5.00000000000000000000e-01) (2, 4, 5.00000000000000000000e-01) (2, 4, 5.00000000000000000000e-01) (2, 4, 5.00000000000000000000e-01) (2, 4, 5.00000000000000000000e-01) (2, 4, 5.00000000000000000000e-01) (2, 4, 5.00000000000000000000e-01) (2, 4, 5.00000000000000000000e-01) (2, 4, 5.00000000000000000000e-01) (2, 4, 5.00000000000000000000e-01) (2, 4, 5.00000000000000000000e-01) (2, 4, 5.00000000000000000000e-01) (2, 4, 5.00000000000000000000e-01) (2, 4, 5.00000000000000000000e-01) (2, 4, 5.00000000000000000000e-01) (2, 4, 5.00000000000000000000e-01) (2, 4, 5.00000000000000000000e-01) (2, 4, 5.00000000000000000000e-01) (2, 4, 5.00000000000000000000e-01) (2, 4, 5.00000000000000000000e-01) (2, 4, 5.00000000000000000000e-01) (2, 4, 5.00000000000000000000e-01) (0, 0, 0.00000000000000000000e+00) (201, 4, 5.00000000000000000000e-01) (0, 0, 0.00000000000000000000e+00) 
connections (connected_to_neuron, weight)=(0, -1.00901402357899296902e+01) (1, -6.75921454045242620090e-01) (0, -1.12515380862316849431e+00) (1, -2.84669357336518158430e-01) (0, 5.75535515600700597894e-01) (1, 2.81061435694545835862e-01) (0, -1.00680564168774235867e+01) (1, -7.13273874434894872287e-01) (0, -1.68716621023281696523e+01) (1, 3.07852181685157511026e+00) (0, -1.00472061905943501614e+01) (1, -6.83440728995270085910e-01) (0, -9.99684773124090320096e+00) (1, -7.08716942879623723606e-01) (0, 4.83525913149754904552e-01) (1, 3.01306819667075363733e-02) (0, -1.70062157210572841848e+01) (1, 3.03580538821407053263e+00) (0, -1.68515507650240543569e+01) (1, 3.08963028979488107950e+00) (0, 3.50636813730638041697e-01) (1, 1.63004410838053115373e-01) (0, -1.23312198999485733708e+00) (1, -3.05875736273285736555e-01) (0, -9.96792281902662580251e+00) (1, -7.67770352724260640720e-01) (0, -1.22949757683238747319e+00) (1, -3.90413775093314041609e-01) (0, 9.13528170594229860235e-01) (1, -2.26027343184130070919e-02) (0, -1.20484966668448212346e+00) (1, -3.33001817561146606916e-01) (0, 4.21652663440148844920e-01) (1, 1.26340938185617784884e-01) (0, -1.01311387393557179593e+01) (1, -7.37744606050915074924e-01) (0, 8.64205153274780091266e-01) (1, -3.35450316539058213117e-02) (0, 6.41528452092667067497e-01) (1, 2.24372177029699332307e-01) (0, -1.00443380225383389615e+01) (1, -6.78177758070892644504e-01) (0, -1.01420562241160023831e+01) (1, -6.27992435309356999973e-01) (0, -1.00773925308071721219e+01) (1, -6.25253110143608403781e-01) (0, -1.00372961733423817776e+01) (1, -7.25858970496124578098e-01) (0, 6.07824160063524687736e-01) (1, 3.56310727650970493485e-01) (0, 5.74909115487594823968e-01) (1, 3.53171947057098423173e-01) (0, 2.12779272749652109686e-01) (1, -2.69371578243305098699e-01) (0, -1.00123242858730900906e+01) (1, -6.23344524714416814426e-01) (0, -1.01595975506984341763e+01) (1, -6.44960447165436101535e-01) (0, 6.69261018091698134391e-01) (1, 3.25601311976760898759e-01) (0, -1.00862426955186474942e+01) (1, -7.70023136350578618625e-01) (0, -9.98717473185888593434e+00) (1, -7.34678870949215245822e-01) (0, -1.26089425268730881413e+00) (1, -2.74343552983757843489e-01) (0, -1.00064538542114842556e+01) (1, -7.58789787951177907566e-01) (0, -9.98826305306783979177e+00) (1, -6.26055865499443364719e-01) (0, 3.68255656153600230418e-01) (1, 8.28860079993460757697e-02) (0, -1.18290155264696839055e+00) (1, -2.51009884274956518446e-01) (0, 4.60055705100934519969e-01) (1, 1.66135636543199904924e-01) (0, -1.01015116471730816983e+01) (1, -7.95237361404365850071e-01) (0, 5.65235795730610113274e-01) (1, 3.73696106130928074052e-01) (0, -1.01571168053828824185e+01) (1, -7.51080176743931127170e-01) (0, -1.11767217400631713176e+00) (1, -3.40939606524464478010e-01) (0, -1.00863590959393132351e+01) (1, -7.26336835834450078586e-01) (0, -1.25630845013222458562e+00) (1, -4.00728664345499863142e-01) (0, 5.66814923936386327874e-01) (1, 3.14122664387077366044e-01) (0, -1.11293202522358702922e+00) (1, -2.73105579412934174055e-01) (0, 7.28005947822590315788e-01) (1, 2.51692111248821348557e-01) (0, 3.31617628283790488730e-01) (1, -2.69848055005606213275e-01) (0, -1.18469569715819122990e+00) (1, -4.05171654171702255720e-01) (0, -1.00343687508188832425e+01) (1, -7.24643549832767797092e-01) (0, 6.35383608097095931022e-01) (1, 3.47916486317962680985e-01) (0, -1.00351637277685750149e+01) (1, -6.85650541397995305637e-01) (0, 5.90989375764389257562e-01) (1, 2.14061150903553015779e-01) (0, -1.01418105561219800137e+01) (1, -6.99034816536373448947e-01) (0, -1.00865018416129696988e+01) (1, -7.25422671946949315647e-01) (0, -9.98719732201925580739e+00) (1, -7.14417434248394322971e-01) (0, -1.00221468929134953640e+01) (1, -7.11768067392772985080e-01) (0, 8.17953702219977762944e-01) (1, 5.73832493513448393951e-02) (0, -1.08041055384239936821e+00) (1, -2.84702944553849091047e-01) (0, -1.01169123995982754849e+01) (1, -6.35696007821029973606e-01) (0, 3.46313144952695384227e-01) (1, 9.50922569383833987677e-02) (0, 2.82196496672920127402e-01) (1, -2.90879427254732536579e-01) (0, 5.73758872503299932610e-01) (1, 2.21100712771266944001e-01) (0, -1.00279270682417500637e+01) (1, -6.59134163472122502903e-01) (0, -1.18103422853312256535e+00) (1, -2.66871574319359650129e-01) (0, 7.02971877807636702506e-01) (1, 3.03890901262611423661e-01) (0, -9.97307191527715986012e+00) (1, -7.08638898047870946506e-01) (0, 6.25538105422516310661e-01) (1, 2.74582693929523558030e-01) (0, -1.26099040988049271306e+00) (1, -2.90468457139489044661e-01) (0, -1.00177071515404332303e+01) (1, -6.93249217185444188694e-01) (0, 1.97467297115862527868e-01) (1, -3.53194373694659058405e-01) (0, -1.00319869343124974392e+01) (1, -6.93298547479576421360e-01) (0, 6.50858747118969405143e-01) (1, 2.38661109114736563752e-01) (0, 3.19525529690078635703e-01) (1, -3.01796174407537864948e-01) (0, -1.69012299400433185781e+01) (1, 2.93176352870650980265e+00) (0, -1.11844597640595244670e+00) (1, -3.46245932377335419172e-01) (0, 6.58082144612331831901e-01) (1, 2.42351359332651145051e-01) (0, 6.59635851437111342399e-01) (1, 3.55365800316185032059e-01) (0, -1.00346168700539219998e+01) (1, -6.94598830255932164768e-01) (0, -1.01309586513721097134e+01) (1, -7.11088812860912633518e-01) (0, -1.18295682850441696843e+00) (1, -3.80039046503064026350e-01) (0, 6.97256597036381209342e-01) (1, 2.47367295081466653794e-01) (0, 5.32138105422894969188e-01) (1, 5.50978979219649417365e-02) (0, -1.21772262710294487675e+00) (1, -2.88777234948632111067e-01) (0, 1.05910784870607321828e+00) (1, 6.47041749447209990631e-02) (0, 3.64518072397153392039e-01) (1, 6.52547380079482181037e-02) (0, 7.21096741313000166862e-01) (1, 3.28507992083877597977e-01) (0, 6.94056736582775557487e-01) (1, 2.67188976163715508072e-01) (0, 4.75022640020291708751e-01) (1, 1.15482953761980353113e-01) (0, 4.76276691944043539806e-01) (1, -7.62566419942633383355e-03) (0, 3.89858867914121165477e-01) (1, 1.68091279839441665178e-01) (0, 6.94859238618870223014e-01) (1, 3.54800003225654636552e-01) (0, -1.24880236270985367497e+00) (1, -4.45909473098275055403e-01) (0, -1.21975530567726853093e+00) (1, -2.52051430738922888075e-01) (0, -5.01110781638317526188e+00) (1, -2.52776519875022565031e+00) (0, 6.63224885517616713493e-01) (1, 2.76421273703426451096e-01) (0, -1.16005682828984024724e+00) (1, -2.99857350982186188215e-01) (0, 7.10991936081905806510e-01) (1, 2.97110567445606321701e-01) (0, 5.97587550336380446403e-01) (1, 3.09631320292800937821e-01) (0, -1.00939321864329922818e+01) (1, -8.07267255100673986057e-01) (0, 3.48504345805089488231e-01) (1, 1.22569007252619113779e-01) (0, 6.01862291151543105094e-01) (1, 3.55125101859420810868e-01) (0, -1.18480231496653320988e+00) (1, -3.97119070387837280744e-01) (0, -1.19949100795349838933e+00) (1, -2.69958737290856232161e-01) (0, 6.16958039158840620964e-01) (1, 2.69490333850235130875e-01) (0, -1.24839430931172135075e+00) (1, -3.87754443086144318098e-01) (0, -1.20815134677252533635e+00) (1, -4.24354734815117706770e-01) (0, -1.14924847218355896672e+00) (1, -4.43553219533917297834e-01) (0, 3.84143359900157466136e-01) (1, 1.07480747078821478602e-01) (0, -1.01144256006859887265e+01) (1, -6.40069811555809331516e-01) (0, 3.60019023010026487097e-02) (1, -7.44599337087023971371e-01) (0, 6.35317513996620619743e-01) (1, 2.37038506771177298615e-01) (0, 5.66474283391494970452e-01) (1, 1.88930059428066260407e-01) (0, 3.77461664319674983226e-01) (1, 8.27315953867180202408e-03) (0, 6.31600516194363081901e-01) (1, 3.65576940233558689286e-01) (0, -1.00159600201927769803e+01) (1, -7.28985681149429631809e-01) (0, 6.57177837842960799186e-01) (1, 2.43557913805097586701e-01) (0, 7.96542382429422768375e-01) (1, 3.30873685533851658036e-01) (0, 9.18546796777270690981e-01) (1, -1.14407480257433344373e-01) (0, 6.95012735480328047721e-01) (1, 3.34566968138069187333e-01) (0, -1.68699113201960209096e+01) (1, 2.90393277150579187662e+00) (0, -9.96517686284414594411e+00) (1, -6.16368933531708074192e-01) (0, 6.06757315153141463249e-01) (1, 2.25881187821477896760e-01) (0, -1.18722273293099167546e+00) (1, -2.77110415495392670149e-01) (0, -1.21423233929238083562e+00) (1, -4.27564757860657562727e-01) (0, -9.99526731408468371853e+00) (1, -7.46932237359947515110e-01) (0, -1.20322517934403183659e+00) (1, -4.30222722686287750715e-01) (0, -1.00677040863715756558e+01) (1, -7.91540793094105077365e-01) (0, 6.93476634377499068229e-01) (1, 3.17451896722168003251e-01) (0, -1.00534978184782612942e+01) (1, -6.26799329134888005832e-01) (0, 7.03254865759869063346e-01) (1, 2.60088207776397850601e-01) (0, -9.96507315076223676442e+00) (1, -6.73624335739082646946e-01) (0, 7.15269880646725142448e-01) (1, 1.96606288308948523591e-01) (0, -1.21044655027947190007e+00) (1, -3.99752437121626724714e-01) (0, -1.25845754775366547307e+00) (1, -3.20604580439087738508e-01) (0, -1.22041714447698357304e+00) (1, -3.75516670740601410383e-01) (0, -9.17865494126652414764e+00) (1, -1.86168124735761636446e-01) (0, 6.20264677608271086662e-01) (1, 2.44125212187618262361e-01) (0, 4.42418005258481517039e-01) (1, 1.29494262312815106020e-01) (0, 5.94655441397686446159e-01) (1, 2.29704542661756522248e-01) (0, 4.74225174576680563732e-01) (1, 1.12532881473467169520e-01) (0, -1.10783466580471801066e+00) (1, -4.01826485044714798445e-01) (0, -1.00121346834980595730e+01) (1, -6.36724009129471135715e-01) (0, -4.63353060496318636119e-01) (1, -3.13952301170785652573e+00) (0, 5.66765571290512304437e-01) (1, 2.84715349430889219651e-01) (0, 8.37572665823871131963e-01) (1, 7.86685010491297229129e-03) (0, 6.21625231856365645378e-01) (1, 3.10940119082778965165e-01) (0, -1.00969524729930508755e+01) (1, -7.69312712314791036228e-01) (0, -1.00470873463832486294e+01) (1, -6.86026080462402654270e-01) (0, -1.00487089801513302945e+01) (1, -7.40807621690697026828e-01) (0, 7.50303696998610658575e-01) (1, 6.37809735029561675201e-02) (0, 6.78753176981468642204e-01) (1, 2.60369072313160088150e-01) (0, 6.83300489837189162223e-01) (1, 2.86934177036136717209e-01) (0, -2.39533220605338890152e+01) (1, 3.45152501980897774558e+00) (0, -1.01594651091777432583e+01) (1, -6.19051813098854375461e-01) (0, 7.15739729160328352897e-01) (1, 2.93134252185672850022e-01) (0, -1.26495535555443527898e+00) (1, -3.29207125104424347395e-01) (0, -1.00984482962571728848e+01) (1, -7.09518841418690038303e-01) (0, 4.06043771595399394236e-01) (1, -1.22418129692818487136e-02) (0, -3.16323316197520298942e+00) (1, -8.70341982036105799025e-01) (0, 6.77201876694221938102e-01) (1, 1.87638516182750708650e-01) (0, -1.00269479874455083035e+01) (1, -8.03896955165333104709e-01) (0, -1.01044916409932721280e+01) (1, -6.80024831506676030735e-01) (0, 5.11973466665189280711e-01) (1, 1.48148757790491442110e-01) (0, -1.11200304213127898478e+00) (1, -2.59811955488678802961e-01) (0, 5.23497607499997630320e-01) (1, 3.42554984738085988027e-02) (0, 7.75266981314005287906e-01) (1, 3.55138110573143039872e-01) (0, -1.00614954281531918667e+01) (1, -6.42557888242668462375e-01) (0, 6.49097027534504378288e-01) (1, 2.29399340803474433015e-01) (0, -1.01528324384175885342e+01) (1, -7.43829428169197393039e-01) (0, 3.48016682953279032908e-01) (1, 1.26482067083284716036e-01) (0, -1.26413810881933930119e+00) (1, -3.93796018309351791853e-01) (0, 6.83787519389648879020e-01) (1, 2.72479007596820976822e-01) (0, -1.69823068787022712911e+01) (1, 3.07167051625438425333e+00) (0, -9.99703728891245013699e+00) (1, -6.94813086602157903293e-01) (0, 5.96005963439007246940e-01) (1, 3.27920677716583286454e-01) (0, 6.23109547698755705802e-01) (1, 2.57888148183674004166e-01) (0, -1.01414340559326756619e+01) (1, -7.71186741951174092868e-01) (0, -1.01438846785508740567e+01) (1, -7.58752583476967168430e-01) (0, 5.64948791915436010491e-01) (1, 3.50088717992157016923e-01) (0, -1.23123557004294159611e+00) (1, -4.00906375593897690290e-01) (0, -1.25272024306616547307e+00) (1, -2.93732481993195404524e-01) (0, -1.00761666420780766629e+01) (1, -6.21741219374603582004e-01) (0, 7.14764775985737288444e-01) (1, 3.07079027051776920487e-01) (0, -9.99037949479452436208e+00) (1, -7.97146773848003697971e-01) (0, 4.43473536462228312693e-01) (1, 6.97445994366858584845e-02) (0, -1.01458045292579281949e+01) (1, -6.25782041761345220188e-01) (0, -1.01270999658786404751e+01) (1, -6.58194570753044438938e-01) (0, 6.43417785221596205680e-01) (1, 3.78301742131561313798e-01) (0, 5.77704960757751684319e-01) (1, 3.42940288240760837724e-01) (0, 8.42195335933222932745e-01) (1, -1.13447432568706776945e-01) (0, -1.01269117344104397915e+01) (1, -6.94477147373623204807e-01) (0, 2.95000359019174651642e-01) (1, -1.57442819201721706524e-01) (0, -1.15128188464007141789e+00) (1, -4.19294836915490021223e-01) (0, 7.25183697694797957389e-01) (1, 2.18146714026779181550e-01) (0, -1.18056455883345368107e+00) (1, -3.73165796495434631819e-01) (0, -1.01119654972039807461e+01) (1, -6.93098044905132604221e-01) (0, 6.20758736783524001090e-01) (1, 3.47785594518035923173e-01) (0, 6.92913534397144759147e-01) (1, 2.53266165609211058030e-01) (0, -9.17859737808083231414e+00) (1, -2.18767842114377969454e-01) (2, 1.73712788248334831787e-01) (3, 9.04798666182431432503e-02) (4, -3.65072510419481438548e-02) (5, 1.63034049892698262862e-01) (6, 3.56764889623271352903e-01) (7, 1.47625042224203084640e-01) (8, 1.35556189441953606201e-01) (9, -5.66585950833493195988e-03) (10, 3.56251194442855245725e-01) (11, 3.55940229560481435911e-01) (12, -1.22416972396963176506e-02) (13, 9.26501015368375036019e-02) (14, 5.36515734380552597460e-02) (15, 9.99661246481808873909e-02) (16, -7.21155035316284310186e-04) (17, 1.18362323397723123719e-01) (18, -1.60058572171323798550e-02) (19, 1.30058845603738731933e-01) (20, 5.07512760341825418936e-04) (21, -2.97012276230447860859e-02) (22, 1.51863454008375142745e-01) (23, 1.70425681495939201904e-01) (24, 1.45806690776620839767e-01) (25, 1.74406005168233818603e-01) (26, -5.68971692798726988438e-02) (27, -3.02036836026304406078e-02) (28, 5.48567717703906526650e-03) (29, 1.66107041859899495773e-01) (30, 1.62352038646017049484e-01) (31, -4.79548632381551903636e-02) (32, 1.62989182496343587569e-01) (33, 1.60492805862699483566e-01) (34, 1.02467463368502542664e-01) (35, 1.38997702026639885498e-01) (36, 1.35852543735776848388e-01) (37, -2.46999322651022118480e-02) (38, 1.07045413011637613465e-01) (39, -1.93970597563379310024e-02) (40, 1.33972173655305809570e-01) (41, -2.82129406211965652607e-02) (42, 1.65561018610273336105e-01) (43, 8.38330546561154577034e-02) (44, 1.50604603910718892745e-01) (45, 1.12970495295704090322e-01) (46, -6.44092246173017385358e-02) (47, 1.12945050949183389832e-01) (48, -6.40350639103048208112e-02) (49, 3.19338001030749401091e-03) (50, 1.09941915625658914735e-01) (51, 1.61971284175191854171e-01) (52, -4.71716060517423790843e-02) (53, 1.27281932258878655029e-01) (54, -7.09937050221555593366e-02) (55, 1.49269057536397908859e-01) (56, 1.66308669472013448409e-01) (57, 1.51277912879262899093e-01) (58, 1.29415920102868980957e-01) (59, -5.03025047761136018254e-03) (60, 9.53889200631055089730e-02) (61, 1.70053375983510918212e-01) (62, -1.15687831519239482658e-02) (63, 2.29057019385425124705e-03) (64, -3.39628554163568657787e-02) (65, 1.26661619270120567871e-01) (66, 1.01592049950686380555e-01) (67, -7.40293770311468007916e-02) (68, 1.28721742058072990966e-01) (69, -7.21338748214834096784e-02) (70, 8.47865799609097692269e-02) (71, 1.76349444413457789871e-01) (72, 4.83205264243213167275e-03) (73, 1.80641038441930690261e-01) (74, -6.44753187177770498151e-02) (75, 2.16254686745730867470e-03) (76, 3.56303899849997884886e-01) (77, 9.81885949316891881722e-02) (78, -7.59965165732496145123e-02) (79, -3.29369253693216484935e-02) (80, 1.69522715831075615478e-01) (81, 1.69582916522298760009e-01) (82, 7.99824306908520910042e-02) (83, -6.67611344931714895123e-02) (84, -1.38483180878751811760e-02) (85, 9.01249656620892736214e-02) (86, -1.20553218108349720003e-03) (87, -2.08663589535348914517e-02) (88, -6.03132008789175125263e-02) (89, -4.34608890889280480296e-02) (90, -6.54849253874951325871e-03) (91, -2.00073889670961402310e-02) (92, -2.36750713763826392544e-02) (93, -6.63851781962507131452e-02) (94, 1.04852297973812305654e-01) (95, 9.13753519001874181527e-02) (96, 2.33906146853086784054e-02) (97, -6.68965860484235647077e-02) (98, 1.07875541800585672547e-01) (99, -6.72033637045019033307e-02) (100, -4.63837220547788781078e-02) (101, 1.69232620024953789306e-01) (102, -5.74026100617581330754e-03) (103, -3.60412321267717522533e-02) (104, 9.38201109114560338753e-02) (105, 1.01294682377901956727e-01) (106, -7.18126057861440542096e-02) (107, 8.43724766913327428597e-02) (108, 1.16644987535656177724e-01) (109, 9.10525480452450963753e-02) (110, -1.11953675029867229240e-02) (111, 1.79931340837751307937e-01) (112, 5.70423995884982576454e-03) (113, -6.04213535068624588154e-02) (114, -6.11320122359388443134e-02) (115, -5.22962801438504182316e-03) (116, -5.38450612900846642406e-02) (117, 1.66529087448392842941e-01) (118, -4.41672637341612023265e-02) (119, -7.85887300251119497174e-02) (120, -2.07385349094207894170e-04) (121, -4.49828042863004845531e-02) (122, 3.56408528353320486204e-01) (123, 1.58269001269613240890e-01) (124, -7.12995513556592824811e-02) (125, 1.07254819029894754578e-01) (126, 1.00100839209736072744e-01) (127, 1.35301908576761192871e-01) (128, 1.20604330372989856923e-01) (129, 1.37396654212747520996e-01) (130, -7.29822724340551259870e-02) (131, 1.27402452850614494873e-01) (132, -4.54338549850576561839e-02) (133, 1.33601514721189446044e-01) (134, -5.78056409237974119786e-02) (135, 9.93527630511197301644e-02) (136, 8.86199334803494664925e-02) (137, 1.01978302949992105653e-01) (138, 1.48239148876862708581e-01) (139, -5.89548929808729194058e-02) (140, -1.43221154091947612541e-02) (141, -7.12713807104223134870e-02) (142, -1.75831376789205573452e-02) (143, 1.19033993238535806825e-01) (144, 1.72541705990110344482e-01) (145, 2.00017880050538422732e-02) (146, -4.77801098702543419749e-02) (147, 2.43620646179380458997e-04) (148, -6.48765175817602041120e-02) (149, 1.60858763480459188155e-01) (150, 1.54516918683324788741e-01) (151, 1.67186154151235555343e-01) (152, -9.56749844371613546688e-04) (153, -3.95362287042730492503e-02) (154, -4.48518156288259667308e-02) (155, 3.57906720902072317259e-01) (156, 1.38386493647371239257e-01) (157, -3.67665386973016899974e-02) (158, 1.03623882884112283875e-01) (159, 1.74837200069700160476e-01) (160, -9.55714129191570851973e-03) (161, 2.71495832447236004614e-02) (162, -7.70034625409238698834e-02) (163, 1.43210200691495842529e-01) (164, 1.35364597761903709960e-01) (165, -2.56517476616495293529e-02) (166, 1.09901250356760904481e-01) (167, -2.12808645544641517056e-02) (168, -2.69886723933809372089e-02) (169, 1.41848092997346825195e-01) (170, -5.76427563307874632481e-02) (171, 1.38613721454416222167e-01) (172, -1.76799095450037024868e-02) (173, 9.42762882234460947162e-02) (174, -5.78584133861654234532e-02) (175, 3.55980544652091390745e-01) (176, 1.65146945143018697433e-01) (177, -7.39284812687032583112e-02) (178, -7.53955452917211416120e-02) (179, 1.67534900927816365890e-01) (180, 1.60603238368307088546e-01) (181, -4.00395787535303276927e-02) (182, 9.35707548800381871956e-02) (183, 1.10405431145754739930e-01) (184, 1.52354894304548238448e-01) (185, -6.97783216117017629498e-02) (186, 9.12957585638830421138e-02) (187, -1.23768358705633220451e-02) (188, 1.22923595929418538741e-01) (189, 1.78298024559293666336e-01) (190, -4.35362740634077233226e-02) (191, -7.35672398684614065045e-02) (192, -4.06767271739178620793e-03) (193, 1.74992783093725123855e-01) (194, 3.39236950310794387400e-03) (195, 8.23051640931042882698e-02) (196, -2.85432583866708847187e-02) (197, 1.12285153025713846375e-01) (198, 1.45108206296239827804e-01) (199, -6.48465140936963918561e-02) (200, -3.48201192198389214427e-02) (201, 1.49303725085454169763e-01) (202, 3.17436168137463642358e-02) 
