FANN_FLO_2.1
num_layers=3
learning_rate=0.700000
connection_rate=1.000000
network_type=0
learning_momentum=0.000000
training_algorithm=2
train_error_function=1
train_stop_function=0
cascade_output_change_fraction=0.010000
quickprop_decay=-0.000100
quickprop_mu=1.750000
rprop_increase_factor=1.200000
rprop_decrease_factor=0.500000
rprop_delta_min=0.000000
rprop_delta_max=50.000000
rprop_delta_zero=0.100000
cascade_output_stagnation_epochs=12
cascade_candidate_change_fraction=0.010000
cascade_candidate_stagnation_epochs=12
cascade_max_out_epochs=150
cascade_min_out_epochs=50
cascade_max_cand_epochs=150
cascade_min_cand_epochs=50
cascade_num_candidate_groups=2
bit_fail_limit=3.49999999999999977796e-01
cascade_candidate_limit=1.00000000000000000000e+03
cascade_weight_multiplier=4.00000000000000022204e-01
cascade_activation_functions_count=10
cascade_activation_functions=3 5 7 8 10 11 14 15 16 17 
cascade_activation_steepnesses_count=4
cascade_activation_steepnesses=2.50000000000000000000e-01 5.00000000000000000000e-01 7.50000000000000000000e-01 1.00000000000000000000e+00 
layer_sizes=2 201 2 
scale_included=0
neurons (num_inputs, activation_function, activation_steepness)=(0, 0, 0.00000000000000000000e+00) (0, 0, 0.00000000000000000000e+00) (2, 4, 5.00000000000000000000e-01) (2, 4, 5.00000000000000000000e-01) (2, 4, 5.00000000000000000000e-01) (2, 4, 5.00000000000000000000e-01) (2, 4, 5.00000000000000000000e-01) (2, 4, 5.00000000000000000000e-01) (2, 4, 5.00000000000000000000e-01) (2, 4, 5.00000000000000000000e-01) (2, 4, 5.00000000000000000000e-01) (2, 4, 5.00000000000000000000e-01) (2, 4, 5.00000000000000000000e-01) (2, 4, 5.00000000000000000000e-01) (2, 4, 5.00000000000000000000e-01) (2, 4, 5.00000000000000000000e-01) (2, 4, 5.00000000000000000000e-01) (2, 4, 5.00000000000000000000e-01) (2, 4, 5.00000000000000000000e-01) (2, 4, 5.00000000000000000000e-01) (2, 4, 5.00000000000000000000e-01) (2, 4, 5.00000000000000000000e-01) (2, 4, 5.00000000000000000000e-01) (2, 4, 5.00000000000000000000e-01) (2, 4, 5.00000000000000000000e-01) (2, 4, 5.00000000000000000000e-01) (2, 4, 5.00000000000000000000e-01) (2, 4, 5.00000000000000000000e-01) (2, 4, 5.00000000000000000000e-01) (2, 4, 5.00000000000000000000e-01) (2, 4, 5.00000000000000000000e-01) (2, 4, 5.00000000000000000000e-01) (2, 4, 5.00000000000000000000e-01) (2, 4, 5.00000000000000000000e-01) (2, 4, 5.00000000000000000000e-01) (2, 4, 5.00000000000000000000e-01) (2, 4, 5.00000000000000000000e-01) (2, 4, 5.00000000000000000000e-01) (2, 4, 5.00000000000000000000e-01) (2, 4, 5.00000000000000000000e-01) (2, 4, 5.00000000000000000000e-01) (2, 4, 5.00000000000000000000e-01) (2, 4, 5.00000000000000000000e-01) (2, 4, 5.00000000000000000000e-01) (2, 4, 5.00000000000000000000e-01) (2, 4, 5.00000000000000000000e-01) (2, 4, 5.00000000000000000000e-01) (2, 4, 5.00000000000000000000e-01) (2, 4, 5.00000000000000000000e-01) (2, 4, 5.00000000000000000000e-01) (2, 4, 5.00000000000000000000e-01) (2, 4, 5.00000000000000000000e-01) (2, 4, 5.00000000000000000000e-01) (2, 4, 5.00000000000000000000e-01) (2, 4, 5.00000000000000000000e-01) (2, 4, 5.00000000000000000000e-01) (2, 4, 5.00000000000000000000e-01) (2, 4, 5.00000000000000000000e-01) (2, 4, 5.00000000000000000000e-01) (2, 4, 5.00000000000000000000e-01) (2, 4, 5.00000000000000000000e-01) (2, 4, 5.00000000000000000000e-01) (2, 4, 5.00000000000000000000e-01) (2, 4, 5.00000000000000000000e-01) (2, 4, 5.00000000000000000000e-01) (2, 4, 5.00000000000000000000e-01) (2, 4, 5.00000000000000000000e-01) (2, 4, 5.00000000000000000000e-01) (2, 4, 5.00000000000000000000e-01) (2, 4, 5.00000000000000000000e-01) (2, 4, 5.00000000000000000000e-01) (2, 4, 5.00000000000000000000e-01) (2, 4, 5.00000000000000000000e-01) (2, 4, 5.00000000000000000000e-01) (2, 4, 5.00000000000000000000e-01) (2, 4, 5.00000000000000000000e-01) (2, 4, 5.00000000000000000000e-01) (2, 4, 5.00000000000000000000e-01) (2, 4, 5.00000000000000000000e-01) (2, 4, 5.00000000000000000000e-01) (2, 4, 5.00000000000000000000e-01) (2, 4, 5.00000000000000000000e-01) (2, 4, 5.00000000000000000000e-01) (2, 4, 5.00000000000000000000e-01) (2, 4, 5.00000000000000000000e-01) (2, 4, 5.00000000000000000000e-01) (2, 4, 5.00000000000000000000e-01) (2, 4, 5.00000000000000000000e-01) (2, 4, 5.00000000000000000000e-01) (2, 4, 5.00000000000000000000e-01) (2, 4, 5.00000000000000000000e-01) (2, 4, 5.00000000000000000000e-01) (2, 4, 5.00000000000000000000e-01) (2, 4, 5.00000000000000000000e-01) (2, 4, 5.00000000000000000000e-01) (2, 4, 5.00000000000000000000e-01) (2, 4, 5.00000000000000000000e-01) (2, 4, 5.00000000000000000000e-01) (2, 4, 5.00000000000000000000e-01) (2, 4, 5.00000000000000000000e-01) (2, 4, 5.00000000000000000000e-01) (2, 4, 5.00000000000000000000e-01) (2, 4, 5.00000000000000000000e-01) (2, 4, 5.00000000000000000000e-01) (2, 4, 5.00000000000000000000e-01) (2, 4, 5.00000000000000000000e-01) (2, 4, 5.00000000000000000000e-01) (2, 4, 5.00000000000000000000e-01) (2, 4, 5.00000000000000000000e-01) (2, 4, 5.00000000000000000000e-01) (2, 4, 5.00000000000000000000e-01) (2, 4, 5.00000000000000000000e-01) (2, 4, 5.00000000000000000000e-01) (2, 4, 5.00000000000000000000e-01) (2, 4, 5.00000000000000000000e-01) (2, 4, 5.00000000000000000000e-01) (2, 4, 5.00000000000000000000e-01) (2, 4, 5.00000000000000000000e-01) (2, 4, 5.00000000000000000000e-01) (2, 4, 5.00000000000000000000e-01) (2, 4, 5.00000000000000000000e-01) (2, 4, 5.00000000000000000000e-01) (2, 4, 5.00000000000000000000e-01) (2, 4, 5.00000000000000000000e-01) (2, 4, 5.00000000000000000000e-01) (2, 4, 5.00000000000000000000e-01) (2, 4, 5.00000000000000000000e-01) (2, 4, 5.00000000000000000000e-01) (2, 4, 5.00000000000000000000e-01) (2, 4, 5.00000000000000000000e-01) (2, 4, 5.00000000000000000000e-01) (2, 4, 5.00000000000000000000e-01) (2, 4, 5.00000000000000000000e-01) (2, 4, 5.00000000000000000000e-01) (2, 4, 5.00000000000000000000e-01) (2, 4, 5.00000000000000000000e-01) (2, 4, 5.00000000000000000000e-01) (2, 4, 5.00000000000000000000e-01) (2, 4, 5.00000000000000000000e-01) (2, 4, 5.00000000000000000000e-01) (2, 4, 5.00000000000000000000e-01) (2, 4, 5.00000000000000000000e-01) (2, 4, 5.00000000000000000000e-01) (2, 4, 5.00000000000000000000e-01) (2, 4, 5.00000000000000000000e-01) (2, 4, 5.00000000000000000000e-01) (2, 4, 5.00000000000000000000e-01) (2, 4, 5.00000000000000000000e-01) (2, 4, 5.00000000000000000000e-01) (2, 4, 5.00000000000000000000e-01) (2, 4, 5.00000000000000000000e-01) (2, 4, 5.00000000000000000000e-01) (2, 4, 5.00000000000000000000e-01) (2, 4, 5.00000000000000000000e-01) (2, 4, 5.00000000000000000000e-01) (2, 4, 5.00000000000000000000e-01) (2, 4, 5.00000000000000000000e-01) (2, 4, 5.00000000000000000000e-01) (2, 4, 5.00000000000000000000e-01) (2, 4, 5.00000000000000000000e-01) (2, 4, 5.00000000000000000000e-01) (2, 4, 5.00000000000000000000e-01) (2, 4, 5.00000000000000000000e-01) (2, 4, 5.00000000000000000000e-01) (2, 4, 5.00000000000000000000e-01) (2, 4, 5.00000000000000000000e-01) (2, 4, 5.00000000000000000000e-01) (2, 4, 5.00000000000000000000e-01) (2, 4, 5.00000000000000000000e-01) (2, 4, 5.00000000000000000000e-01) (2, 4, 5.00000000000000000000e-01) (2, 4, 5.00000000000000000000e-01) (2, 4, 5.00000000000000000000e-01) (2, 4, 5.00000000000000000000e-01) (2, 4, 5.00000000000000000000e-01) (2, 4, 5.00000000000000000000e-01) (2, 4, 5.00000000000000000000e-01) (2, 4, 5.00000000000000000000e-01) (2, 4, 5.00000000000000000000e-01) (2, 4, 5.00000000000000000000e-01) (2, 4, 5.00000000000000000000e-01) (2, 4, 5.00000000000000000000e-01) (2, 4, 5.00000000000000000000e-01) (2, 4, 5.00000000000000000000e-01) (2, 4, 5.00000000000000000000e-01) (2, 4, 5.00000000000000000000e-01) (2, 4, 5.00000000000000000000e-01) (2, 4, 5.00000000000000000000e-01) (2, 4, 5.00000000000000000000e-01) (2, 4, 5.00000000000000000000e-01) (2, 4, 5.00000000000000000000e-01) (2, 4, 5.00000000000000000000e-01) (2, 4, 5.00000000000000000000e-01) (2, 4, 5.00000000000000000000e-01) (2, 4, 5.00000000000000000000e-01) (2, 4, 5.00000000000000000000e-01) (2, 4, 5.00000000000000000000e-01) (2, 4, 5.00000000000000000000e-01) (2, 4, 5.00000000000000000000e-01) (2, 4, 5.00000000000000000000e-01) (2, 4, 5.00000000000000000000e-01) (2, 4, 5.00000000000000000000e-01) (0, 0, 0.00000000000000000000e+00) (201, 4, 5.00000000000000000000e-01) (0, 0, 0.00000000000000000000e+00) 
connections (connected_to_neuron, weight)=(0, -5.59125848012734323333e+01) (1, -7.61599424653679424324e+00) (0, 5.34097625999482161774e+00) (1, -2.28396647428216748033e-01) (0, -5.59388470473457246612e+01) (1, -7.60553445094257885017e+00) (0, 6.69758772135982116680e+00) (1, -9.33084583553196567074e-01) (0, -4.49172599294291041705e-01) (1, -4.12655425302721656777e+00) (0, 7.91144470191666560055e-01) (1, -4.17187019037522144327e-01) (0, 5.75012019551312092425e-01) (1, -2.63376473228742191690e-01) (0, -1.07564452508228813876e+00) (1, -2.85273841088044377567e-01) (0, -1.75852837531857408848e+00) (1, -1.82542082255299709104e+00) (0, -6.66663913408192598808e+00) (1, -3.12390308564785057488e-01) (0, -6.28563534916205490788e+00) (1, -4.55573742991074170927e-01) (0, 6.88351674469327612371e+00) (1, -1.03671041953816178705e+00) (0, 1.09003666818556643747e+00) (1, -5.36642328445051178254e-02) (0, 4.05240645509320651652e-01) (1, 3.12439311395733762544e-02) (0, -6.33790690687978486295e+00) (1, -4.35781314117989371226e-01) (0, -6.45254187425565639558e+00) (1, -3.92520060636931011899e-01) (0, -6.57606612390336930929e+00) (1, -3.46053901912521000295e-01) (0, 7.78614048763443644674e-01) (1, -4.14195052134312458048e-01) (0, -3.81836608281736045178e-01) (1, -4.22953644621007018856e+00) (0, -5.59253237294722467254e+01) (1, -7.51906354152590328255e+00) (0, 5.31613659165993723832e+00) (1, -2.16989606771332277368e-01) (0, -2.61571309109671146231e+00) (1, -1.18556619702015897388e+00) (0, 5.83245339876977286764e+00) (1, -4.79036527889236229960e-01) (0, 4.77491893819514512387e+00) (1, 1.15173548388401353337e-01) (0, 2.44297148462219588794e+01) (1, 3.01420797762807213260e+00) (0, -5.59146535443831353973e+01) (1, -7.58544580065638118782e+00) (0, -1.61507272809793867019e+00) (1, -1.91128690311949989145e+00) (0, -6.57792185467568346624e-01) (1, -5.22166854057948895407e-02) (0, -5.60334108519125848602e+01) (1, -7.53933905982405239143e+00) (0, -1.23022186417563544891e-01) (1, -2.86239632522973019846e-01) (0, -7.46611295288662324410e-01) (1, -6.79672687061954716725e-01) (0, 1.15101465903937993929e+00) (1, -1.64717158685768916282e-01) (0, 2.44323221884686354599e+01) (1, 3.01247689496555226540e+00) (0, 6.90398913421479321073e+00) (1, -1.04808871639018663657e+00) (0, -1.91580919230572743750e-01) (1, -2.75382543145396840867e-01) (0, 7.06957837186201931701e+00) (1, -1.14100753390743214766e+00) (0, 6.78264005561645899611e-01) (1, -4.06856384416255767444e-01) (0, 1.85864117395371009067e+00) (1, 2.36999713861987759689e-01) (0, 6.75662160440168690911e-01) (1, -3.97617094160477080322e-01) (0, -6.73936052977975297296e+00) (1, -2.85270347648817201858e-01) (0, 6.69939338286929597643e+00) (1, -9.33785198805377691933e-01) (0, -5.60432708608675866913e+01) (1, -7.45659104161888652840e+00) (0, 5.31475049328928150771e+00) (1, -2.15928473439305351755e-01) (0, -1.72547415925292835226e+00) (1, -1.94735152299762659389e+00) (0, -5.60194429727960496734e+01) (1, -7.58114925571710163155e+00) (0, -3.22465670538073378992e+00) (1, -2.60890132385523054737e+00) (0, 7.92425196750110916177e-01) (1, -9.17398375618026840073e+00) (0, 6.98133505100688278588e+00) (1, -1.09157053183803420815e+00) (0, 5.88577082298130993543e-01) (1, -3.29537791735664109538e-01) (0, -2.15499266419634460945e-01) (1, -2.55247078344584987786e-01) (0, 6.30302463275385305153e-01) (1, -3.70121702554432274734e-01) (0, 4.58749435109004399802e-01) (1, -6.92087819171198770363e-02) (0, -5.59443329768944650482e+01) (1, -7.60762442075640255013e+00) (0, -1.04151234228482216793e+01) (1, 1.07979565009468880810e+00) (0, 6.61610394061309126101e+00) (1, -8.88227378128774169852e-01) (0, -1.62036264841682431381e+00) (1, -1.36856346597220152050e-01) (0, 7.45029017901441603655e-01) (1, -4.16993452908150596947e-01) (0, 5.37160852112103004430e+00) (1, -2.46671892309753393313e-01) (0, 4.63735035818920060535e-01) (1, -7.62708296370770005845e-02) (0, -2.38189885923499822251e-01) (1, -3.78455534644667412891e-01) (0, 1.62205543604948054792e+01) (1, 1.81536180226583732100e+00) (0, -5.58974629538823037933e+01) (1, -7.46320520513683849373e+00) (0, 1.85872586001470829764e+00) (1, -1.16106805504952848018e+00) (0, 6.92170877726487088211e+00) (1, -1.05828519359948525214e+00) (0, 5.05650014594395180723e+00) (1, -6.64745421627739030423e-02) (0, 7.04717734391488281886e+00) (1, -1.12853446843765703456e+00) (0, 4.34283135847380374894e-01) (1, -7.44194708983068105995e-03) (0, -4.40218742989394456799e+02) (1, 1.26313548708694600720e+01) (0, -4.36725872984863983106e+00) (1, -2.41673421016714073950e-01) (0, 6.02635016486855912277e-01) (1, -3.37223895931736072917e-01) (0, -3.08878426430245944800e+00) (1, 4.64185910286052272333e-01) (0, 5.86393375899108981741e+00) (1, -4.96494218555532884629e-01) (0, 5.82688546806575891068e-01) (1, -3.59312522790467658851e-01) (0, 7.03645861476509093535e+00) (1, -1.12258031141766911887e+00) (0, 7.05348136649333579129e+00) (1, -1.13234001846227494426e+00) (0, 7.84627407168708490559e-01) (1, -4.26576638306157385205e-01) (0, 5.40353989088338426683e+00) (1, -2.55687630751167904730e-01) (0, -5.59368022727538019012e+01) (1, -7.63896717303425365486e+00) (0, 6.63011756600200730105e-01) (1, -3.97178471893939843973e-01) (0, 6.71397624950590632409e-01) (1, -3.90598510926902675600e-01) (0, -5.59994303780365854095e+01) (1, -7.62950027906328731575e+00) (0, -5.58890161263514428924e+01) (1, -7.49740612679153972664e+00) (0, 3.43019139713500675892e-01) (1, 1.94643052331070244565e-02) (0, 5.09182070458480318109e+00) (1, -9.79747750165376185549e-02) (0, 6.83003403032792988370e+00) (1, -1.00663603162796144730e+00) (0, 4.56723891383227609264e-01) (1, -5.10954428175830546732e-02) (0, -1.81321206247461841343e+00) (1, 4.89920780994489657445e-01) (0, -1.52434402805742008624e+00) (1, -1.83920024956253480575e-01) (0, 3.49334233990182096985e-01) (1, 9.90177560959963794229e-03) (0, 6.52414430976914871962e-01) (1, -3.79023883755890411695e-01) (0, -6.83609320639231521355e-01) (1, -4.60680014998798803560e+00) (0, 5.98087620513604423245e-01) (1, -3.26999926977649790771e-01) (0, 5.48941407932825531368e-01) (1, -2.69121458870759777682e-01) (0, 6.70613057121193101295e+00) (1, -9.36900289229833593829e-01) (0, 6.73953666863165490319e-01) (1, -3.92540689756981253655e-01) (0, -5.59968692856598764251e+01) (1, -7.58524259724647098579e+00) (0, 3.17058864028409825853e-01) (1, 6.53243647924482973011e-02) (0, -6.38132279391775991684e+00) (1, -4.19258813952326947483e-01) (0, -2.55690668486676153659e-01) (1, -3.52129790112374829736e-01) (0, 2.05796864400923027461e+01) (1, 3.47245484421622707671e+00) (0, 1.75398507316751994800e+00) (1, -1.00890731116013432356e+00) (0, 1.67104701111685605142e+00) (1, -1.08964607521138190371e+00) (0, 6.56614884474035598316e-01) (1, -3.84478252878607262844e-01) (0, -3.23086868737892007886e+00) (1, -2.60471116080937914461e+00) (0, 6.59332186827128796658e-01) (1, -3.78811080474147743313e-01) (0, -1.84538269333842475106e+00) (1, 7.85417755494748348610e-02) (0, -2.37748152771719878373e+00) (1, -1.96779922891893543913e+00) (0, -5.59293739395905404876e+01) (1, -7.59093563803464466133e+00) (0, 6.31283124107122728397e-01) (1, -3.68633028122393013870e-01) (0, 8.20552583916134059550e-01) (1, -9.03707038956449615341e+00) (0, 5.40170362985963681268e+00) (1, -2.55645903420327558209e-01) (0, 6.03074502125553135734e-01) (1, -3.30166564601436895998e-01) (0, -2.35233555265810828638e-01) (1, -3.09701839085537333762e-01) (0, -2.35341429563191262275e-01) (1, -3.30822801564095658744e-01) (0, 6.97366531788047638862e-01) (1, -3.94897500730434947158e-01) (0, 7.03213914586736876799e+00) (1, -1.11970145893078587562e+00) (0, 6.53889452634282219989e-01) (1, -3.74033842701206153958e-01) (0, 6.53280584640118733297e-01) (1, -3.89366076202068200907e-01) (0, 2.21286624451746405384e+01) (1, 3.27527185837003864677e+00) (0, -5.59973057592976957153e+01) (1, -7.52106911861330562630e+00) (0, 4.52813711575278055044e-01) (1, -7.58069025205608121309e-02) (0, 5.36376861002996085936e-01) (1, -2.82933106590590843776e-01) (0, -5.58685010420847802948e+01) (1, -7.50013113194138103523e+00) (0, 3.58839404649664017732e-01) (1, 9.98414444576254944685e-02) (0, 1.62461100968755367546e+00) (1, -1.02289428161586659627e+00) (0, -3.96580147721212472600e-01) (1, -4.20261525474791231005e+00) (0, 6.16781137582480099013e-01) (1, -3.40272387519157670788e-01) (0, -5.59799355762768655609e+01) (1, -7.58044834607273632088e+00) (0, 1.69157192319983118445e+00) (1, -9.43298733915788889526e-01) (0, -1.86741225923936243758e-01) (1, -2.64759361515269908693e-01) (0, -1.10785092755402736486e+00) (1, -1.93987875592332326136e-01) (0, -1.25369163049053011783e+00) (1, -1.99344413423198585367e-01) (0, 4.77043460511384687095e+00) (1, 1.00196741242440573449e-01) (0, 5.58921720949810074686e-01) (1, -2.92093193275294871203e-01) (0, -2.34543385633376094690e-01) (1, -3.10055257376152415549e-01) (0, -1.28498733341934534558e+00) (1, -1.91831689959664930534e-01) (0, -5.27404764112505253237e-01) (1, -4.58233599473738895114e+00) (0, -1.24562322539876757510e+00) (1, -1.96362496708770650766e-01) (0, 5.30582689445847766052e+00) (1, -2.13931402115712848699e-01) (0, 5.29674616264389541698e+00) (1, -2.10803713358725469673e-01) (0, -5.60031376304794221710e+01) (1, -7.53739385479122692146e+00) (0, -6.64766446165607582941e+00) (1, -3.19215290993266898045e-01) (0, -1.47655595084343227441e+00) (1, -2.09047831875450151884e+00) (0, 5.36357036518341967479e+00) (1, -2.42219648997218650610e-01) (0, -5.60107979709971814941e+01) (1, -7.48471820526749187508e+00) (0, 5.11402762512684549989e+00) (1, -1.11906234388777142685e-01) (0, -5.60428865375686555694e+01) (1, -7.59721144088536792793e+00) (0, 6.50838064797875981427e-01) (1, -3.78000340522060274129e-01) (0, 1.61436359123666628435e+00) (1, -1.00312944724873243096e+00) (0, -5.72079151063149993206e-01) (1, -4.54917900736584623900e+00) (0, -1.59309801538800394072e-01) (1, -2.56670997099627429261e-01) (0, -1.87261068956478049508e+00) (1, 1.00425815729079714878e-01) (0, -1.88009182506506250521e-01) (1, -2.80477577983102188686e-01) (0, 7.03893493800068270616e+00) (1, -1.12397199078343557055e+00) (0, 5.12355568017337148490e+00) (1, -1.05343692332470845185e-01) (0, 2.43702048171832323931e+01) (1, 3.04748186085708505644e+00) (0, -1.63610239117003397613e-01) (1, -2.51209140376829676011e-01) (0, 5.26279539058945111663e+00) (1, -1.90439812861359941687e-01) (0, -1.31470638577567244809e+00) (1, -5.13317816222760181510e-01) (0, 9.50473789257950008036e-01) (1, -9.05134145515726196152e+00) (0, 1.62817720778194208187e+00) (1, -8.29929663224765357121e-01) (0, -6.51565892517445099941e+00) (1, -3.68840270813070914002e-01) (0, 1.04575790641033461448e+00) (1, -5.59943484765907349698e-04) (0, 6.56598937160433382410e-01) (1, -3.73256505275148864342e-01) (0, 6.35687551487397084493e-01) (1, -3.66040726562706419944e-01) (0, 1.84130320659905422076e+00) (1, -1.12311583307321072311e+00) (0, -1.44701404196362820587e-01) (1, -3.14494304637866983754e-01) (0, 2.04833288041525314327e+01) (1, 3.59786754918450002450e+00) (0, 7.46514470436870025694e-01) (1, -4.21901059295765823443e-01) (0, 5.38317125945233776463e+00) (1, -2.52353836105538020806e-01) (0, -1.15185406093213815737e+00) (1, -3.00645564076110316520e-01) (0, 1.33105751778508385463e+00) (1, -2.77364377935677974829e-01) (0, 7.85589438064045353372e-01) (1, -9.06256283419893371445e+00) (0, 1.11959044417163910978e+00) (1, -4.07490680942825533872e-02) (0, -6.46810001191938699350e+00) (1, -3.86642556516536450850e-01) (0, 5.15846828512177157933e+00) (1, -1.15998374469540699305e-01) (0, 2.04657296860809019279e+01) (1, 3.60766750673142100325e+00) (0, -6.39923861219402922984e+00) (1, -4.12675795356686303528e-01) (0, 4.89883304156840715393e+00) (1, 2.66760980700091743234e-02) (0, 1.11441582079284629003e+00) (1, -6.44727706305762149341e-02) (0, 5.00163736480498943848e+00) (1, -4.12814265647536357551e-02) (0, 5.27617345645418822642e+00) (1, -1.98683131482586955441e-01) (0, -1.85528043359054038319e+02) (1, 7.72697873165956128361e+00) (0, 5.94182259302782234123e-01) (1, -3.23620577013031041069e-01) (0, -5.59887747066784768890e+01) (1, -7.53965829485088878670e+00) (0, -1.58095407626881812035e+00) (1, -1.78965324291815952584e+00) (0, 2.05719278826868041676e+01) (1, 3.47652027721630263457e+00) (0, -1.85185538765361590308e+00) (1, 9.27591809445722503824e-02) (0, -5.60100910301078229736e+01) (1, -7.60316581451326900520e+00) (0, 5.77823976401088401644e-01) (1, -2.78542534097727778608e-01) (0, 6.68519763032479508169e-01) (1, -4.09749367710102507800e-01) (0, -5.59231336909104257415e+01) (1, -7.51114019923836284676e+00) (0, 4.59862646411445252781e-01) (1, -5.30872472625638081034e-02) (0, -2.07043115274045091967e-01) (1, -3.59670817033455714196e-01) (0, 5.19135036451949627434e+00) (1, -1.59309386835894850609e-01) (0, -1.84614235594804432239e+00) (1, 1.27258831369740144090e-01) (0, -2.26694882720222062877e-01) (1, -3.41451748471139071572e-01) (0, 5.91685566953905284215e-01) (1, -3.32168288005843970190e-01) (0, -5.59823915409613519500e+01) (1, -7.45789690488010936775e+00) (0, 5.48780543423170019679e+00) (1, -2.96128297598521439404e-01) (2, 1.50000000000000000000e+03) (3, -1.35328955799256800407e-01) (4, 1.50000000000000000000e+03) (5, -1.68843352768538290665e-01) (6, -5.26046008190413090233e+01) (7, 2.43555249927544875677e-01) (8, 2.17622615310200301364e-01) (9, 1.28422878787367661380e-01) (10, 3.67666378271270632982e-01) (11, -1.18396034126029370270e+00) (12, -8.72934839115807048593e-01) (13, -1.49368496460505928436e-01) (14, 3.06115079540998813457e-01) (15, 1.56265040317967007777e-01) (16, -8.82630068191642913611e-01) (17, -9.47620775373464452329e-01) (18, -1.26364368710182883859e+00) (19, 2.42220033259416267502e-01) (20, -4.18231737371434917350e+01) (21, 1.50000000000000000000e+03) (22, -1.36677351338266472869e-01) (23, 3.23103245275675021730e-01) (24, -1.50803406805374767830e-01) (25, -9.87154650269286837450e-02) (26, -1.54079689369361616524e-01) (27, 1.50000000000000000000e+03) (28, 4.61161379148648575832e-01) (29, 3.35492573502026505960e-02) (30, 1.50000000000000000000e+03) (31, 8.00626474959915818141e-02) (32, 4.48834291537766605362e-02) (33, 3.04887951556001290943e-01) (34, -1.52592920986812319306e-01) (35, -1.48336088946780353393e-01) (36, 5.41330413830308151968e-02) (37, -1.58259678076895365928e-01) (38, 2.33427704680562453365e-01) (39, -6.46166414658354837375e-02) (40, 1.98418181690134087791e-01) (41, -4.74277673693988965908e+00) (42, -1.62466264475208149731e-01) (43, 1.50000000000000000000e+03) (44, -1.50764043164198086044e-01) (45, 2.29835856025906060118e-01) (46, 1.50000000000000000000e+03) (47, 8.43423694664895862161e+00) (48, 1.50000000000000000000e+03) (49, -1.67953612328002543919e-01) (50, 2.13416870310102008146e-01) (51, 6.61699161002707730850e-02) (52, 1.93253000621603471254e-01) (53, 1.53249719076881008029e-01) (54, 1.50000000000000000000e+03) (55, -6.86382970343599829732e+00) (56, -1.69940794100435388359e-01) (57, 3.87874534919625924001e-01) (58, 2.39303605031699812011e-01) (59, -1.27902314687155710393e-01) (60, 1.48528450065383871292e-01) (61, 7.42071349248980272062e-02) (62, -7.53609754582564572711e-02) (63, 1.50000000000000000000e+03) (64, 1.84759614512483155702e-01) (65, -1.53623102053361687558e-01) (66, -1.17469192800038341185e-01) (67, -1.57125747021566619654e-01) (68, 1.51776533449420630850e-01) (69, 1.50000000000000000000e+03) (70, 8.82154533525831396901e+00) (71, 2.11722284306917335472e-01) (72, 6.77746528094629985262e-01) (73, -1.59135348221898093035e-01) (74, 1.92502797385309454281e-01) (75, -1.41075032493479357587e-01) (76, -1.43905162514929269024e-01) (77, 2.36172000286212324660e-01) (78, -1.52864529765970286190e-01) (79, 1.50000000000000000000e+03) (80, 2.01773616672066141708e-01) (81, 2.29984082502570824635e-01) (82, 1.50000000000000000000e+03) (83, 1.50000000000000000000e+03) (84, 1.47726529613427970400e-01) (85, -1.33904356990146633510e-01) (86, -1.50762332444305924284e-01) (87, 1.58326145455598699119e-01) (88, 6.32973508038179089041e-01) (89, 3.74879245944320260708e-01) (90, 1.45916520646032416009e-01) (91, 1.98537692198956589040e-01) (92, -6.16456529311777430280e+01) (93, 2.14751982036576721802e-01) (94, 1.86044541563137294515e-01) (95, -1.65123054861116697056e-01) (96, 1.95784649488367351600e-01) (97, 1.50000000000000000000e+03) (98, 1.30040574270577108384e-01) (99, -9.15960493955294663415e-01) (100, 8.20712035917107035621e-02) (101, -1.51147953109154103979e-01) (102, 2.47694342627730768047e-01) (103, 2.54743339143763458665e-01) (104, 2.39406755719477920552e-01) (105, 4.16193260039506274239e+00) (106, 2.30231639833655160610e-01) (107, 2.21973142514682253434e-01) (108, -8.62420272036034218921e-01) (109, 1.50000000000000000000e+03) (110, 2.16657610659404697984e-01) (111, 1.50000000000000000000e+03) (112, -1.29149666596356654802e-01) (113, 2.06721280960075970423e-01) (114, 1.09778415075017843350e-01) (115, 7.56267791323462640340e-02) (116, 2.23950077827829246990e-01) (117, -1.74852430188452701021e-01) (118, 2.26483247454849212499e-01) (119, 2.40341625978014616916e-01) (120, -7.33410765815777632159e-02) (121, 1.50000000000000000000e+03) (122, 1.59050999273347676288e-01) (123, 2.01876792016226769277e-01) (124, 1.50000000000000000000e+03) (125, 1.54994075107561385396e-01) (126, 2.45161584594138531878e-01) (127, -2.25865445751021844956e+01) (128, 2.07451231465652113917e-01) (129, 1.50000000000000000000e+03) (130, 2.96614573815343840479e-01) (131, 6.78596303762027258655e-02) (132, 8.08282661368725230400e-02) (133, 1.42000814678742481867e-01) (134, -1.06832667544743756260e-01) (135, 2.14316955062198055693e-01) (136, 1.04957919231130167304e-01) (137, 1.60000610529145603778e-01) (138, 1.07762713195735301497e+02) (139, 1.42071601963107863043e-01) (140, -1.33918712898427050284e-01) (141, -1.67975707363356485669e-01) (142, 1.50000000000000000000e+03) (143, -1.18031119492166847174e+00) (144, 1.75785590822727655347e-01) (145, -1.47273655726393087884e-01) (146, 1.50000000000000000000e+03) (147, -1.24281734765116974595e-01) (148, 1.50000000000000000000e+03) (149, 2.36909922697567970618e-01) (150, 2.37134617236306549648e-01) (151, 1.87094344736008139307e+02) (152, 7.42342257583207959515e-02) (153, 2.04397085912365328308e-01) (154, 4.59168298976494332342e-02) (155, -1.40916216015597728362e-01) (156, -1.49270959814818193756e-01) (157, -8.42839724431337228294e-02) (158, 5.64492875421144235659e-02) (159, -1.49081352525336052750e-01) (160, -2.55143891911097549230e-02) (161, 1.50000000000000000000e+03) (162, 2.39171130919316743402e-01) (163, -1.25442627959848440611e+00) (164, 2.99858989439725942550e-01) (165, 2.23388333800042110378e-01) (166, 1.96796398104013392505e-01) (167, 2.58571627236941992134e-01) (168, 9.97804939665955098471e-02) (169, -1.04072114187004860497e+00) (170, 2.31226381562922161939e-01) (171, -1.63002059595763498789e-01) (172, 2.45107287569160531282e-01) (173, 2.04942781165774329244e-01) (174, 1.50000000000000000000e+03) (175, 3.02078982278345564705e-01) (176, -1.00756255412615747247e+00) (177, -1.28450418123406462367e-01) (178, -1.03965849286805744889e+00) (179, -9.49057951970036284273e-01) (180, -1.16168402459760802814e-01) (181, 3.03111089744265149726e-01) (182, -1.13429737184248438653e-01) (183, -1.39978632798190033570e-01) (184, 1.50000000000000000000e+03) (185, 1.83068412569994370953e-01) (186, 1.50000000000000000000e+03) (187, 2.81337355802469435417e-01) (188, -1.52964813839548408048e-01) (189, 2.03892145888372511298e-01) (190, 1.50000000000000000000e+03) (191, 1.70698054886914418748e-01) (192, 2.13004831865593963203e-01) (193, 1.50000000000000000000e+03) (194, 1.59916849044844627814e-01) (195, 1.01272271177961323274e-01) (196, -1.27884500471447531966e-01) (197, 2.22510903513338548221e-01) (198, 9.81059525539436372288e-02) (199, 1.94969517805371223007e-01) (200, 1.50000000000000000000e+03) (201, -1.48693237372295228305e-01) (202, -1.08662394911033539230e-02) 
