FANN_FLO_2.1
num_layers=3
learning_rate=0.700000
connection_rate=1.000000
network_type=0
learning_momentum=0.000000
training_algorithm=2
train_error_function=1
train_stop_function=0
cascade_output_change_fraction=0.010000
quickprop_decay=-0.000100
quickprop_mu=1.750000
rprop_increase_factor=1.200000
rprop_decrease_factor=0.500000
rprop_delta_min=0.000000
rprop_delta_max=50.000000
rprop_delta_zero=0.100000
cascade_output_stagnation_epochs=12
cascade_candidate_change_fraction=0.010000
cascade_candidate_stagnation_epochs=12
cascade_max_out_epochs=150
cascade_min_out_epochs=50
cascade_max_cand_epochs=150
cascade_min_cand_epochs=50
cascade_num_candidate_groups=2
bit_fail_limit=3.49999999999999977796e-01
cascade_candidate_limit=1.00000000000000000000e+03
cascade_weight_multiplier=4.00000000000000022204e-01
cascade_activation_functions_count=10
cascade_activation_functions=3 5 7 8 10 11 14 15 16 17 
cascade_activation_steepnesses_count=4
cascade_activation_steepnesses=2.50000000000000000000e-01 5.00000000000000000000e-01 7.50000000000000000000e-01 1.00000000000000000000e+00 
layer_sizes=2 201 2 
scale_included=0
neurons (num_inputs, activation_function, activation_steepness)=(0, 0, 0.00000000000000000000e+00) (0, 0, 0.00000000000000000000e+00) (2, 4, 5.00000000000000000000e-01) (2, 4, 5.00000000000000000000e-01) (2, 4, 5.00000000000000000000e-01) (2, 4, 5.00000000000000000000e-01) (2, 4, 5.00000000000000000000e-01) (2, 4, 5.00000000000000000000e-01) (2, 4, 5.00000000000000000000e-01) (2, 4, 5.00000000000000000000e-01) (2, 4, 5.00000000000000000000e-01) (2, 4, 5.00000000000000000000e-01) (2, 4, 5.00000000000000000000e-01) (2, 4, 5.00000000000000000000e-01) (2, 4, 5.00000000000000000000e-01) (2, 4, 5.00000000000000000000e-01) (2, 4, 5.00000000000000000000e-01) (2, 4, 5.00000000000000000000e-01) (2, 4, 5.00000000000000000000e-01) (2, 4, 5.00000000000000000000e-01) (2, 4, 5.00000000000000000000e-01) (2, 4, 5.00000000000000000000e-01) (2, 4, 5.00000000000000000000e-01) (2, 4, 5.00000000000000000000e-01) (2, 4, 5.00000000000000000000e-01) (2, 4, 5.00000000000000000000e-01) (2, 4, 5.00000000000000000000e-01) (2, 4, 5.00000000000000000000e-01) (2, 4, 5.00000000000000000000e-01) (2, 4, 5.00000000000000000000e-01) (2, 4, 5.00000000000000000000e-01) (2, 4, 5.00000000000000000000e-01) (2, 4, 5.00000000000000000000e-01) (2, 4, 5.00000000000000000000e-01) (2, 4, 5.00000000000000000000e-01) (2, 4, 5.00000000000000000000e-01) (2, 4, 5.00000000000000000000e-01) (2, 4, 5.00000000000000000000e-01) (2, 4, 5.00000000000000000000e-01) (2, 4, 5.00000000000000000000e-01) (2, 4, 5.00000000000000000000e-01) (2, 4, 5.00000000000000000000e-01) (2, 4, 5.00000000000000000000e-01) (2, 4, 5.00000000000000000000e-01) (2, 4, 5.00000000000000000000e-01) (2, 4, 5.00000000000000000000e-01) (2, 4, 5.00000000000000000000e-01) (2, 4, 5.00000000000000000000e-01) (2, 4, 5.00000000000000000000e-01) (2, 4, 5.00000000000000000000e-01) (2, 4, 5.00000000000000000000e-01) (2, 4, 5.00000000000000000000e-01) (2, 4, 5.00000000000000000000e-01) (2, 4, 5.00000000000000000000e-01) (2, 4, 5.00000000000000000000e-01) (2, 4, 5.00000000000000000000e-01) (2, 4, 5.00000000000000000000e-01) (2, 4, 5.00000000000000000000e-01) (2, 4, 5.00000000000000000000e-01) (2, 4, 5.00000000000000000000e-01) (2, 4, 5.00000000000000000000e-01) (2, 4, 5.00000000000000000000e-01) (2, 4, 5.00000000000000000000e-01) (2, 4, 5.00000000000000000000e-01) (2, 4, 5.00000000000000000000e-01) (2, 4, 5.00000000000000000000e-01) (2, 4, 5.00000000000000000000e-01) (2, 4, 5.00000000000000000000e-01) (2, 4, 5.00000000000000000000e-01) (2, 4, 5.00000000000000000000e-01) (2, 4, 5.00000000000000000000e-01) (2, 4, 5.00000000000000000000e-01) (2, 4, 5.00000000000000000000e-01) (2, 4, 5.00000000000000000000e-01) (2, 4, 5.00000000000000000000e-01) (2, 4, 5.00000000000000000000e-01) (2, 4, 5.00000000000000000000e-01) (2, 4, 5.00000000000000000000e-01) (2, 4, 5.00000000000000000000e-01) (2, 4, 5.00000000000000000000e-01) (2, 4, 5.00000000000000000000e-01) (2, 4, 5.00000000000000000000e-01) (2, 4, 5.00000000000000000000e-01) (2, 4, 5.00000000000000000000e-01) (2, 4, 5.00000000000000000000e-01) (2, 4, 5.00000000000000000000e-01) (2, 4, 5.00000000000000000000e-01) (2, 4, 5.00000000000000000000e-01) (2, 4, 5.00000000000000000000e-01) (2, 4, 5.00000000000000000000e-01) (2, 4, 5.00000000000000000000e-01) (2, 4, 5.00000000000000000000e-01) (2, 4, 5.00000000000000000000e-01) (2, 4, 5.00000000000000000000e-01) (2, 4, 5.00000000000000000000e-01) (2, 4, 5.00000000000000000000e-01) (2, 4, 5.00000000000000000000e-01) (2, 4, 5.00000000000000000000e-01) (2, 4, 5.00000000000000000000e-01) (2, 4, 5.00000000000000000000e-01) (2, 4, 5.00000000000000000000e-01) (2, 4, 5.00000000000000000000e-01) (2, 4, 5.00000000000000000000e-01) (2, 4, 5.00000000000000000000e-01) (2, 4, 5.00000000000000000000e-01) (2, 4, 5.00000000000000000000e-01) (2, 4, 5.00000000000000000000e-01) (2, 4, 5.00000000000000000000e-01) (2, 4, 5.00000000000000000000e-01) (2, 4, 5.00000000000000000000e-01) (2, 4, 5.00000000000000000000e-01) (2, 4, 5.00000000000000000000e-01) (2, 4, 5.00000000000000000000e-01) (2, 4, 5.00000000000000000000e-01) (2, 4, 5.00000000000000000000e-01) (2, 4, 5.00000000000000000000e-01) (2, 4, 5.00000000000000000000e-01) (2, 4, 5.00000000000000000000e-01) (2, 4, 5.00000000000000000000e-01) (2, 4, 5.00000000000000000000e-01) (2, 4, 5.00000000000000000000e-01) (2, 4, 5.00000000000000000000e-01) (2, 4, 5.00000000000000000000e-01) (2, 4, 5.00000000000000000000e-01) (2, 4, 5.00000000000000000000e-01) (2, 4, 5.00000000000000000000e-01) (2, 4, 5.00000000000000000000e-01) (2, 4, 5.00000000000000000000e-01) (2, 4, 5.00000000000000000000e-01) (2, 4, 5.00000000000000000000e-01) (2, 4, 5.00000000000000000000e-01) (2, 4, 5.00000000000000000000e-01) (2, 4, 5.00000000000000000000e-01) (2, 4, 5.00000000000000000000e-01) (2, 4, 5.00000000000000000000e-01) (2, 4, 5.00000000000000000000e-01) (2, 4, 5.00000000000000000000e-01) (2, 4, 5.00000000000000000000e-01) (2, 4, 5.00000000000000000000e-01) (2, 4, 5.00000000000000000000e-01) (2, 4, 5.00000000000000000000e-01) (2, 4, 5.00000000000000000000e-01) (2, 4, 5.00000000000000000000e-01) (2, 4, 5.00000000000000000000e-01) (2, 4, 5.00000000000000000000e-01) (2, 4, 5.00000000000000000000e-01) (2, 4, 5.00000000000000000000e-01) (2, 4, 5.00000000000000000000e-01) (2, 4, 5.00000000000000000000e-01) (2, 4, 5.00000000000000000000e-01) (2, 4, 5.00000000000000000000e-01) (2, 4, 5.00000000000000000000e-01) (2, 4, 5.00000000000000000000e-01) (2, 4, 5.00000000000000000000e-01) (2, 4, 5.00000000000000000000e-01) (2, 4, 5.00000000000000000000e-01) (2, 4, 5.00000000000000000000e-01) (2, 4, 5.00000000000000000000e-01) (2, 4, 5.00000000000000000000e-01) (2, 4, 5.00000000000000000000e-01) (2, 4, 5.00000000000000000000e-01) (2, 4, 5.00000000000000000000e-01) (2, 4, 5.00000000000000000000e-01) (2, 4, 5.00000000000000000000e-01) (2, 4, 5.00000000000000000000e-01) (2, 4, 5.00000000000000000000e-01) (2, 4, 5.00000000000000000000e-01) (2, 4, 5.00000000000000000000e-01) (2, 4, 5.00000000000000000000e-01) (2, 4, 5.00000000000000000000e-01) (2, 4, 5.00000000000000000000e-01) (2, 4, 5.00000000000000000000e-01) (2, 4, 5.00000000000000000000e-01) (2, 4, 5.00000000000000000000e-01) (2, 4, 5.00000000000000000000e-01) (2, 4, 5.00000000000000000000e-01) (2, 4, 5.00000000000000000000e-01) (2, 4, 5.00000000000000000000e-01) (2, 4, 5.00000000000000000000e-01) (2, 4, 5.00000000000000000000e-01) (2, 4, 5.00000000000000000000e-01) (2, 4, 5.00000000000000000000e-01) (2, 4, 5.00000000000000000000e-01) (2, 4, 5.00000000000000000000e-01) (2, 4, 5.00000000000000000000e-01) (2, 4, 5.00000000000000000000e-01) (2, 4, 5.00000000000000000000e-01) (2, 4, 5.00000000000000000000e-01) (2, 4, 5.00000000000000000000e-01) (2, 4, 5.00000000000000000000e-01) (2, 4, 5.00000000000000000000e-01) (2, 4, 5.00000000000000000000e-01) (2, 4, 5.00000000000000000000e-01) (2, 4, 5.00000000000000000000e-01) (2, 4, 5.00000000000000000000e-01) (2, 4, 5.00000000000000000000e-01) (2, 4, 5.00000000000000000000e-01) (2, 4, 5.00000000000000000000e-01) (2, 4, 5.00000000000000000000e-01) (2, 4, 5.00000000000000000000e-01) (2, 4, 5.00000000000000000000e-01) (2, 4, 5.00000000000000000000e-01) (0, 0, 0.00000000000000000000e+00) (201, 4, 5.00000000000000000000e-01) (0, 0, 0.00000000000000000000e+00) 
connections (connected_to_neuron, weight)=(0, -2.29325942621065514970e+00) (1, -5.23026643345158359644e-01) (0, -2.36162540178206414865e+00) (1, -6.88162005198476867118e-02) (0, -2.25209459825857871706e+00) (1, -5.53843158945419244965e-01) (0, 2.73152613306807223736e+00) (1, 1.16053080523908591637e+00) (0, 1.95469604273996333532e+00) (1, 1.85644186556026095924e-03) (0, -1.49922923841358738173e+03) (1, -5.98317735583720988757e+00) (0, -1.49922923841358738173e+03) (1, -9.32650267828431012163e+00) (0, 2.69085575531802678739e+00) (1, 1.21852404320656493297e+00) (0, -2.31130269999228810107e+00) (1, -5.08569598994616178800e-01) (0, 2.66090710721680734352e+00) (1, 1.23076239007570387152e+00) (0, 2.74140845357613960331e+00) (1, 1.14411390495284859270e+00) (0, -2.03436970956206630845e+00) (1, -7.17967935628800235648e-01) (0, 1.97938206500237079410e+00) (1, 4.01918046373063372889e-02) (0, 1.74116748165065993170e+00) (1, 9.87355161394869340619e-01) (0, 2.69052910649172005719e+00) (1, 1.21705242380727907126e+00) (0, 1.85788162117864708023e+00) (1, 9.31885871335232152113e-01) (0, -2.29687779387120460939e+00) (1, -5.17270406278054761806e-01) (0, 2.71307925041713726699e+00) (1, 1.15451151133090412770e+00) (0, -2.11164331048064379814e+00) (1, -4.96346404761820403362e-01) (0, 2.69938050455869493760e+00) (1, 1.19228836192467735344e+00) (0, -2.15047107789622726770e+00) (1, -6.35174228616427805072e-01) (0, -2.08555915258119384248e+00) (1, -5.09340568256433923189e-01) (0, 2.65494273975341599225e+00) (1, 1.24375712922650571990e+00) (0, 3.00621791083097233965e+00) (1, 9.82745016610057531281e-01) (0, -2.08961925357602984477e+00) (1, -5.06076526768924894739e-01) (0, 1.92428256140736531066e+00) (1, 2.91610076089563567681e-02) (0, -1.49922923841358738173e+03) (1, -5.83142784924445933825e+00) (0, -2.18954278606587005029e+00) (1, -5.99403175407079435999e-01) (0, -2.29802223052341236809e+00) (1, -5.07806123099686756994e-01) (0, 2.73266418798338195373e+00) (1, 1.14367061853915608083e+00) (0, 1.83975648484760156975e+00) (1, 9.23640399059561967299e-01) (0, -2.29775649877810828059e+00) (1, -5.06629051225802817804e-01) (0, 2.67159000248537203959e+00) (1, 1.23700799049323051371e+00) (0, -2.20038893997653817181e+00) (1, -5.91326866841427989385e-01) (0, -4.18492189047230844778e-01) (1, -2.81211536151594471145e-02) (0, -1.84003109042967039066e+00) (1, -4.63408982311693917744e-01) (0, 2.93649183549637271540e+00) (1, 1.00057157248790429271e+00) (0, -2.16510687181344518848e+00) (1, -6.23047433645217862974e-01) (0, 1.83241126652600039293e+00) (1, 9.77225437726371493063e-01) (0, -2.01806991125280577037e+00) (1, -5.27285972361707044875e-01) (0, -2.31715052795416065479e+00) (1, -4.99321685037956819464e-01) (0, 2.68481348366694438923e+00) (1, 1.20875794995031604628e+00) (0, -2.09918199826651230566e+00) (1, -5.04587254234073245840e-01) (0, -2.23869331259013115698e+00) (1, -5.63902578349942396052e-01) (0, -1.49922923841358738173e+03) (1, -9.33244249720301510820e+00) (0, 1.94160914257090277957e+00) (1, 8.29271986405356265060e-01) (0, 2.72661026439809273114e+00) (1, 1.17678627337270214070e+00) (0, -1.50313268651815661769e+02) (1, 5.05586008180421986324e-01) (0, -2.02880546098528746768e+00) (1, -5.20242029659784166462e-01) (0, -1.49922923841358738173e+03) (1, -5.90715852321325129992e+00) (0, 2.67905163006181590291e+00) (1, 1.23200885890836864256e+00) (0, -1.86853931334843270662e+00) (1, 9.78946272328446887023e-01) (0, -2.30501304510808147086e+00) (1, -5.00645638308871543387e-01) (0, 1.93438174387196459847e+00) (1, 6.39985668238785276873e-02) (0, -2.25300961663137533364e+00) (1, -5.51229800745818065977e-01) (0, -2.29362520188205287752e+00) (1, -5.22945394763748683253e-01) (0, -2.31914431853396285632e+00) (1, -4.93164897761676157550e-01) (0, -2.15744691356538131899e+00) (1, -6.30207023136596378166e-01) (0, -2.28832454632814696893e+00) (1, -5.28783789701499085112e-01) (0, 1.92601942139118564867e+00) (1, 6.48562583270483571096e-03) (0, -2.18925773327394335155e+00) (1, -5.99836069040922792439e-01) (0, 2.02124084085143218559e+00) (1, -1.00584313263978031294e+00) (0, -2.22678041994612829768e+00) (1, -5.69060440965999392304e-01) (0, 1.91585135600588185589e+00) (1, 2.14535137458425409496e-02) (0, -2.30803180313609423990e+00) (1, -4.97249365649562902192e-01) (0, -2.30733190669879739687e+00) (1, -4.97497559390408072844e-01) (0, -2.01710930798080356752e+00) (1, -7.28682027098438767077e-01) (0, 2.68630422051661099658e+00) (1, 1.20242966677003337850e+00) (0, 1.97198505428728765310e+00) (1, 4.04144832926843569632e-02) (0, -2.32535482425990736033e+00) (1, -4.68653484242910922664e-01) (0, -2.13147602879310493762e+00) (1, -5.04529202108484398082e-01) (0, 1.98578612214922234358e+00) (1, 3.73044616206162846228e-02) (0, 2.71634306389595803211e+00) (1, 1.17599189874641019138e+00) (0, -1.84003113458992983986e+00) (1, -1.81753378015214080154e-02) (0, -2.31417037732229413649e+00) (1, -4.99282405577049726020e-01) (0, -1.49922923841358738173e+03) (1, -6.59803058571589140513e+00) (0, 2.63717773625358820055e+00) (1, 1.25312650893618537928e+00) (0, -2.23928242792121157123e+00) (1, -5.60264178892482700434e-01) (0, 2.73532203544110252835e+00) (1, 1.16974388773494197835e+00) (0, 1.88948890618263143359e+00) (1, 8.38156995094760270959e-01) (0, 2.75586372496870035675e+00) (1, 1.12497896804729435871e+00) (0, -2.27955671504700818630e+00) (1, -3.56319485541548797158e-01) (0, -1.49922923841358738173e+03) (1, -5.81116481811939067370e+00) (0, 2.74246391114033150060e+00) (1, 1.13554199888626072834e+00) (0, 1.93057581549471990456e+00) (1, 8.33695537479202108955e-01) (0, -2.08384750468753487951e+00) (1, -5.11267109584867651684e-01) (0, -2.07372896525327554684e+00) (1, -5.11807136905255366521e-01) (0, 2.68459364310356063399e+00) (1, 1.21869430981358850552e+00) (0, -2.32195528191187428035e+00) (1, -4.81105537019082429850e-01) (0, 2.75168144036366113525e+00) (1, 1.14772966820616373340e+00) (0, -1.49922923841358738173e+03) (1, -5.87070614786086864001e+00) (0, 1.02140438876527284151e+00) (1, 3.20658672612480263181e-03) (0, -2.32517991870767515294e+00) (1, -4.72909690397335269463e-01) (0, -2.23005570327087587756e+00) (1, -5.67069134708285682578e-01) (0, 2.73574734661760077259e+00) (1, 1.16886819864564373006e+00) (0, -1.49922923841358738173e+03) (1, -9.38681122411217572221e+00) (0, -2.04701398601018569323e+00) (1, -5.16404750022522063269e-01) (0, -2.07526843700049079544e+00) (1, -5.15989593041011218588e-01) (0, -1.49922923841358738173e+03) (1, -9.38434268284764172563e+00) (0, -2.21633424190917205365e+00) (1, -5.77251546269776372178e-01) (0, -2.09131925896149484245e+00) (1, -3.65253050367361054018e-01) (0, -2.19831535082365014944e+00) (1, -5.99193848159724096192e-01) (0, -2.30587179387192264812e+00) (1, -3.52251272958297445559e-01) (0, 1.96575644889202050258e+00) (1, 4.77734318220906714614e-02) (0, -2.26581852178583043056e+00) (1, -5.40625576564478071973e-01) (0, -2.10559269825532124898e+00) (1, -6.34767517274335779653e-01) (0, -2.11556300905257232969e+00) (1, -6.59008836835310640723e-01) (0, -2.30183535792422588884e+00) (1, -5.05271138208527426094e-01) (0, 2.72118253562416922975e+00) (1, 1.19920479562584447741e+00) (0, 2.67366393483573006051e+00) (1, 1.21229569579415752401e+00) (0, -1.49922923841358738173e+03) (1, -9.39969596017327191362e+00) (0, -2.18044553244252581337e+00) (1, -6.08887874020526909113e-01) (0, 2.67531880847059833073e+00) (1, 1.22948807529050108123e+00) (0, 2.75273392221493207188e+00) (1, 1.12769629434257900868e+00) (0, -2.25135718461883671537e+00) (1, -3.31979084473782382059e-01) (0, -2.26024991023882737551e+00) (1, -3.29619640187224449690e-01) (0, 1.96040027217662493619e+00) (1, 2.19961300610537618949e-02) (0, 2.04209531998206905712e+00) (1, -1.17287565172556118576e+00) (0, 1.97558438335729236179e+00) (1, 2.96868733031889521501e-02) (0, -2.21349089018575329035e+00) (1, -5.84081671119311973683e-01) (0, -2.19524856402269508138e+00) (1, -5.97443896227502824203e-01) (0, -2.14411387403514952510e+00) (1, -6.39852294821459999241e-01) (0, -2.27226361848776026164e+00) (1, -5.40254633590531940790e-01) (0, -2.02800638006437594640e+00) (1, -7.04230860967675065254e-01) (0, 1.79887186462152603994e+00) (1, 9.97102004832239652288e-01) (0, 2.67361414676198227980e+00) (1, 1.22849489877585260622e+00) (0, -2.04442102311447770902e+00) (1, -7.12807770191341560917e-01) (0, -2.17265788830899531092e+00) (1, -6.16486748589212374405e-01) (0, -2.28634831462341470143e+00) (1, -5.31511863263554706904e-01) (0, 2.73730995251096942411e+00) (1, 1.12659915620573247708e+00) (0, -2.25256599135208901430e+00) (1, -5.50350197133855578713e-01) (0, 2.88486065580402328834e+00) (1, 1.02884866076987679939e+00) (0, 2.71587564021007432657e+00) (1, 1.19484753993200953914e+00) (0, 2.63289985096222611816e+00) (1, 1.24027714520700560463e+00) (0, -2.19409322252813687726e+00) (1, -5.96063260094095048736e-01) (0, -2.19201642690838749417e+00) (1, -6.01794521421807449002e-01) (0, 3.10326603823249813630e+00) (1, 9.68900357232267528396e-01) (0, 2.68746816661701348750e+00) (1, 1.22118881041228011242e+00) (0, -1.49922923841358738173e+03) (1, -6.41249935693514494517e+00) (0, -1.39966371204056572175e+00) (1, -2.33123260704511420238e-01) (0, -2.24187915691529626727e+00) (1, -5.57898219391689154101e-01) (0, -1.42366775005902801432e+00) (1, -2.07168425587663684873e-01) (0, -1.49922923841358738173e+03) (1, -9.28082275886263730058e+00) (0, -1.49922923841358738173e+03) (1, -6.50332317120802549937e+00) (0, 1.67821980294968242653e+00) (1, 1.69228696138298939644e-01) (0, 1.90785416310238531423e+00) (1, -1.12373534243795730747e-01) (0, -2.04706543797193463163e+00) (1, -7.10678273070096788722e-01) (0, -2.28064131743767717353e+00) (1, -3.24359401849929007700e-01) (0, -2.16738594184717525692e+00) (1, -6.22058689445940116158e-01) (0, -2.12034929939525706999e+00) (1, -4.93622406646686606724e-01) (0, -2.30023167956964735836e+00) (1, -3.54539646015472054152e-01) (0, -2.13017504646668776047e+00) (1, -5.05292240151793858871e-01) (0, -2.32096814089466230158e+00) (1, -4.86111314552406914569e-01) (0, 1.94911675091428260309e+00) (1, 3.71151916298874187672e-02) (0, 1.93880651761322764237e+00) (1, 1.62615679863921600012e-02) (0, 2.92923504708802706631e+00) (1, 1.00324790180330847278e+00) (0, -2.29173482076277457153e+00) (1, -5.16031295857804384042e-01) (0, 2.67026460265698162289e+00) (1, 1.23736703397219627298e+00) (0, 2.75006565271836178610e+00) (1, 1.12589925155550396596e+00) (0, 2.89034774688727891245e+00) (1, 1.02054775865012237190e+00) (0, 1.86883376408314205719e+00) (1, 9.62735781654150857278e-01) (0, -1.49922923841358738173e+03) (1, -9.31143529463734509477e+00) (0, 2.73530050238971433885e+00) (1, 1.14159685373813069020e+00) (0, -1.49922923841358738173e+03) (1, -5.87944578320918864733e+00) (0, -1.49922923841358738173e+03) (1, -5.87011552543578929431e+00) (0, 2.71619050858088151301e+00) (1, 1.14920535017088898400e+00) (0, -2.29065285877258961733e+00) (1, -5.15078505071080439137e-01) (0, -2.23579314644051851957e+00) (1, -5.62410522909513321821e-01) (0, -1.49922923841358738173e+03) (1, -6.46334022648108152964e+00) (0, -1.49922923841358738173e+03) (1, -5.94547453464208430773e+00) (0, -1.49922923841358738173e+03) (1, -5.95419033558307475573e+00) (0, 2.71389120540932626824e+00) (1, 1.18139090833777227196e+00) (0, 2.71362720378425770207e+00) (1, 1.15929412803299536350e+00) (0, 2.68328424167058887662e+00) (1, 1.21960964344224298550e+00) (0, 2.74801869894313410825e+00) (1, 1.13497813007481207492e+00) (0, 1.75180012816369501394e+00) (1, 9.70005214180342245633e-01) (0, -2.29278279191921585678e+00) (1, -5.22144844779768968479e-01) (0, -1.49922923841358738173e+03) (1, -6.43646158642542509654e+00) (0, -2.30589599366302921979e+00) (1, -4.93917167983387861430e-01) (0, -1.49922923841358738173e+03) (1, -9.24628314871516110429e+00) (0, -2.32787523520118622145e+00) (1, 3.75857544833233969683e-01) (0, 2.73362896843774683120e+00) (1, 1.16083161849398264209e+00) (0, 2.04143915104209305866e+00) (1, -1.32541326520018709623e+00) (0, -2.31872930446948855021e+00) (1, -4.81141166346639670426e-01) (0, -1.49922923841358738173e+03) (1, -5.82506576867042369372e+00) (0, 1.81595092286556258898e+00) (1, 9.83942711709850925672e-01) (0, 2.88800563322388326171e+00) (1, 1.02222370878376644932e+00) (0, -2.02902046315128803400e+00) (1, -5.20209920823965665804e-01) (0, -2.12020077745848967155e+00) (1, -6.36992814535327842029e-03) (0, 2.72840643569959873105e+00) (1, 1.18305862976473497028e+00) (0, -1.49922923841358738173e+03) (1, -5.87675066978870219714e+00) (0, -1.49922923841358738173e+03) (1, -6.00797987670837230212e+00) (0, 1.79532113321316177945e+00) (1, 1.00438912955168602181e+00) (0, 2.69753833186525726617e+00) (1, 1.19659503514819576253e+00) (0, 1.92631438760890527639e+00) (1, 1.01875961800837200322e+00) (0, 2.69915054388174935340e+00) (1, 1.19456616754584743489e+00) (0, 2.71892120835838868587e+00) (1, 1.18570382702551135878e+00) (0, 1.85506925946560219387e+00) (1, 9.88126066218823706500e-01) (0, -2.34242918943538613874e+00) (1, -3.41046777438845594155e-01) (0, -2.20895947597221331549e+00) (1, -5.86516426748876940067e-01) (2, -1.31972379263613742717e-01) (3, 5.56741457506166659286e-01) (4, -9.62149405198369639391e-02) (5, -3.50303659131850853026e-01) (6, 7.08069620390800569254e-01) (7, 1.50000000000000000000e+03) (8, 1.50000000000000000000e+03) (9, -3.52177539756620694433e-01) (10, -1.54170093306261413169e-01) (11, -3.39834036221835389391e-01) (12, -3.17134993067133219569e-01) (13, 4.39438132170408904398e-02) (14, 6.56668580492590581166e-01) (15, -2.77340556599029286478e-01) (16, -3.33359109154083232962e-01) (17, -2.95706738717587624965e-01) (18, -1.53458881859463353026e-01) (19, -3.25394445946557808735e-01) (20, 9.14085612424080928839e-01) (21, -3.01319671711082426313e-01) (22, -4.26726600221426395632e-03) (23, 9.25796842362112903935e-01) (24, -3.33061540415622914235e-01) (25, 6.96843506679872937148e-01) (26, 9.23594624527163121641e-01) (27, 7.05410336987117858598e-01) (28, 1.50000000000000000000e+03) (29, -1.79261349402862549263e-02) (30, -1.42006278133783137019e-01) (31, -3.24385376563414151718e-01) (32, -2.74226848967118963518e-01) (33, -1.53887492113213619760e-01) (34, -3.06661805054299740902e-01) (35, -9.30743726205101595816e-02) (36, 7.14302056612877933617e-01) (37, 1.70434912584463610363e-01) (38, 6.70730277845478672916e-01) (39, -8.57382135445743376323e-02) (40, -3.02240808494119606031e-01) (41, 8.34354078165474688511e-01) (42, -1.49456236328449149076e-01) (43, -3.28582549383979294344e-01) (44, 9.31610763796039575979e-01) (45, -7.92847419692309651751e-02) (46, 1.50000000000000000000e+03) (47, -2.79667782824443822420e-01) (48, -3.32475030711033459063e-01) (49, -6.21166457899074320181e+00) (50, 8.31352082856812280021e-01) (51, 1.50000000000000000000e+03) (52, -3.17746022632467262081e-01) (53, 7.18697514424996297677e-01) (54, -1.71920644278625911472e-01) (55, 6.65742046555137023667e-01) (56, -1.16137606377734570184e-01) (57, -1.13414860542989923142e-01) (58, -1.71130749655398095577e-01) (59, -6.47903605655989339729e-02) (60, -1.48849063911647261360e-01) (61, 7.06043170066838032817e-01) (62, -3.38059895001884755383e-02) (63, -3.00566481038472443910e-01) (64, -9.49950856726916315065e-02) (65, 7.04318409697155201066e-01) (66, -1.76183590415840335419e-01) (67, -1.53986348714246490399e-01) (68, 4.59111443041533215381e-02) (69, -3.08942070147148417636e-01) (70, 6.74465715309240154696e-01) (71, -1.67786528458260142393e-01) (72, -9.55525296490930819981e-02) (73, 6.47039889713380667047e-01) (74, -3.04894389500969142937e-01) (75, 7.12818699318278015120e-01) (76, -1.59298466180604725295e-01) (77, 1.50000000000000000000e+03) (78, -3.17264074375974869380e-01) (79, -1.09595256379246358547e-01) (80, -3.13770977696527397782e-01) (81, -2.79619249742435516115e-01) (82, -3.16848391583311517206e-01) (83, 8.37176294690981759317e-01) (84, 1.50000000000000000000e+03) (85, -3.30644795587400397441e-01) (86, -2.76690172554316604625e-01) (87, 9.37012901689240229608e-01) (88, 9.04981332097937296588e-01) (89, -3.02352612754458904831e-01) (90, -1.62121984581358152822e-01) (91, -3.50539157083358310363e-01) (92, 1.50000000000000000000e+03) (93, 7.10652289124636848960e-01) (94, -1.59329621717163555372e-01) (95, -8.05760818787846083699e-02) (96, -3.11770273288836385905e-01) (97, 1.50000000000000000000e+03) (98, 8.41884007445756421539e-01) (99, 9.29133614684768183167e-01) (100, 1.50000000000000000000e+03) (101, -9.80075998715636276248e-02) (102, 8.12713962995761596275e-01) (103, -5.02043718812167708010e-02) (104, 8.37432788378611570046e-01) (105, 6.56687408109759007679e-01) (106, -1.23056043438267800894e-01) (107, 6.81335381489120706089e-02) (108, 6.37750569674253586783e-02) (109, -1.74712922864057401684e-01) (110, -3.20002481387673287649e-01) (111, -3.35867399266100097321e-01) (112, 1.50000000000000000000e+03) (113, -5.84770334105427988525e-02) (114, -3.22545664301261636453e-01) (115, -3.51524339905108229587e-01) (116, 7.91932020684151694034e-01) (117, 7.82529145042590523751e-01) (118, 6.99413943639854873702e-01) (119, -3.53170781229776575838e-01) (120, 6.75363285109140565332e-01) (121, -6.73407257476551085462e-02) (122, -2.46268540231202766322e-02) (123, -2.55148860726770385088e-02) (124, -1.11886022367406481881e-01) (125, 2.60738674551835691862e-01) (126, -3.01847617420740121918e-01) (127, -3.17432681014883200099e-01) (128, 4.04254351624217869721e-02) (129, -3.03099349042412272159e-02) (130, -1.54023807722394767694e-01) (131, -3.47584949722615832446e-01) (132, -1.26254680649301898043e-01) (133, 6.85150360420087256585e-01) (134, -3.42015981720491135665e-01) (135, -3.16726962020742908166e-01) (136, -5.37514346711343432572e-02) (137, -7.11691860074323279228e-02) (138, 6.98414467224697577130e-01) (139, -3.04214222272986001272e-01) (140, 1.50000000000000000000e+03) (141, -1.98767884447607595666e-01) (142, -1.00546917635467067398e-01) (143, -1.84911481446786707394e-01) (144, 1.50000000000000000000e+03) (145, 1.50000000000000000000e+03) (146, 6.45229981943700514613e-01) (147, -2.86436862299484784611e-01) (148, 3.81752651346884547268e-02) (149, 7.81137720358301979040e-01) (150, -4.85470311696235071186e-02) (151, 1.72989484419567240980e-01) (152, 8.35513556145777491757e-01) (153, -9.40009724942468122277e-02) (154, -1.73089744347684176828e-01) (155, 6.91230395450929568923e-01) (156, 7.01995775053123716170e-01) (157, 6.76819732144215313596e-01) (158, -1.24171489064801757185e-01) (159, -3.09145709416023428684e-01) (160, -3.38416734626625359539e-01) (161, 6.92116273478607157976e-01) (162, -2.74189528834195894724e-01) (163, 1.50000000000000000000e+03) (164, -3.32380207171776465014e-01) (165, 1.50000000000000000000e+03) (166, 1.50000000000000000000e+03) (167, -3.11693360945334396739e-01) (168, -1.29133700888979685573e-01) (169, -8.48283459203453132913e-02) (170, 1.50000000000000000000e+03) (171, 1.50000000000000000000e+03) (172, 1.50000000000000000000e+03) (173, -3.13322076490272660720e-01) (174, -3.30658877184728583476e-01) (175, -3.10312116434922791175e-01) (176, -3.42236729255052107845e-01) (177, -3.01822454668312256665e-01) (178, -1.25678268166279444307e-01) (179, 1.50000000000000000000e+03) (180, -1.81130959393787427381e-01) (181, 1.50000000000000000000e+03) (182, -5.75919199933061398688e-01) (183, -3.02596175959462532212e-01) (184, -1.03286443182080045489e+00) (185, -1.66931573150990414378e-01) (186, 1.50000000000000000000e+03) (187, -2.91977507061991770065e-01) (188, 6.84397523954251574274e-01) (189, 8.40833587416329741870e-01) (190, 6.75435941147850660293e-01) (191, -3.07926190933338894684e-01) (192, 1.50000000000000000000e+03) (193, 1.50000000000000000000e+03) (194, -2.74049337300859119360e-01) (195, -3.11783878049006368816e-01) (196, 7.10066378591636904183e-01) (197, -3.22401473214969425118e-01) (198, -3.28064048579078504364e-01) (199, -3.00834505922909223319e-01) (200, 8.38654013044253354714e-01) (201, -1.76279322286192093039e-02) (202, -1.81466967316463445581e-01) 
