FANN_FLO_2.1
num_layers=3
learning_rate=0.700000
connection_rate=1.000000
network_type=0
learning_momentum=0.000000
training_algorithm=2
train_error_function=1
train_stop_function=0
cascade_output_change_fraction=0.010000
quickprop_decay=-0.000100
quickprop_mu=1.750000
rprop_increase_factor=1.200000
rprop_decrease_factor=0.500000
rprop_delta_min=0.000000
rprop_delta_max=50.000000
rprop_delta_zero=0.100000
cascade_output_stagnation_epochs=12
cascade_candidate_change_fraction=0.010000
cascade_candidate_stagnation_epochs=12
cascade_max_out_epochs=150
cascade_min_out_epochs=50
cascade_max_cand_epochs=150
cascade_min_cand_epochs=50
cascade_num_candidate_groups=2
bit_fail_limit=3.49999999999999977796e-01
cascade_candidate_limit=1.00000000000000000000e+03
cascade_weight_multiplier=4.00000000000000022204e-01
cascade_activation_functions_count=10
cascade_activation_functions=3 5 7 8 10 11 14 15 16 17 
cascade_activation_steepnesses_count=4
cascade_activation_steepnesses=2.50000000000000000000e-01 5.00000000000000000000e-01 7.50000000000000000000e-01 1.00000000000000000000e+00 
layer_sizes=2 201 2 
scale_included=0
neurons (num_inputs, activation_function, activation_steepness)=(0, 0, 0.00000000000000000000e+00) (0, 0, 0.00000000000000000000e+00) (2, 4, 5.00000000000000000000e-01) (2, 4, 5.00000000000000000000e-01) (2, 4, 5.00000000000000000000e-01) (2, 4, 5.00000000000000000000e-01) (2, 4, 5.00000000000000000000e-01) (2, 4, 5.00000000000000000000e-01) (2, 4, 5.00000000000000000000e-01) (2, 4, 5.00000000000000000000e-01) (2, 4, 5.00000000000000000000e-01) (2, 4, 5.00000000000000000000e-01) (2, 4, 5.00000000000000000000e-01) (2, 4, 5.00000000000000000000e-01) (2, 4, 5.00000000000000000000e-01) (2, 4, 5.00000000000000000000e-01) (2, 4, 5.00000000000000000000e-01) (2, 4, 5.00000000000000000000e-01) (2, 4, 5.00000000000000000000e-01) (2, 4, 5.00000000000000000000e-01) (2, 4, 5.00000000000000000000e-01) (2, 4, 5.00000000000000000000e-01) (2, 4, 5.00000000000000000000e-01) (2, 4, 5.00000000000000000000e-01) (2, 4, 5.00000000000000000000e-01) (2, 4, 5.00000000000000000000e-01) (2, 4, 5.00000000000000000000e-01) (2, 4, 5.00000000000000000000e-01) (2, 4, 5.00000000000000000000e-01) (2, 4, 5.00000000000000000000e-01) (2, 4, 5.00000000000000000000e-01) (2, 4, 5.00000000000000000000e-01) (2, 4, 5.00000000000000000000e-01) (2, 4, 5.00000000000000000000e-01) (2, 4, 5.00000000000000000000e-01) (2, 4, 5.00000000000000000000e-01) (2, 4, 5.00000000000000000000e-01) (2, 4, 5.00000000000000000000e-01) (2, 4, 5.00000000000000000000e-01) (2, 4, 5.00000000000000000000e-01) (2, 4, 5.00000000000000000000e-01) (2, 4, 5.00000000000000000000e-01) (2, 4, 5.00000000000000000000e-01) (2, 4, 5.00000000000000000000e-01) (2, 4, 5.00000000000000000000e-01) (2, 4, 5.00000000000000000000e-01) (2, 4, 5.00000000000000000000e-01) (2, 4, 5.00000000000000000000e-01) (2, 4, 5.00000000000000000000e-01) (2, 4, 5.00000000000000000000e-01) (2, 4, 5.00000000000000000000e-01) (2, 4, 5.00000000000000000000e-01) (2, 4, 5.00000000000000000000e-01) (2, 4, 5.00000000000000000000e-01) (2, 4, 5.00000000000000000000e-01) (2, 4, 5.00000000000000000000e-01) (2, 4, 5.00000000000000000000e-01) (2, 4, 5.00000000000000000000e-01) (2, 4, 5.00000000000000000000e-01) (2, 4, 5.00000000000000000000e-01) (2, 4, 5.00000000000000000000e-01) (2, 4, 5.00000000000000000000e-01) (2, 4, 5.00000000000000000000e-01) (2, 4, 5.00000000000000000000e-01) (2, 4, 5.00000000000000000000e-01) (2, 4, 5.00000000000000000000e-01) (2, 4, 5.00000000000000000000e-01) (2, 4, 5.00000000000000000000e-01) (2, 4, 5.00000000000000000000e-01) (2, 4, 5.00000000000000000000e-01) (2, 4, 5.00000000000000000000e-01) (2, 4, 5.00000000000000000000e-01) (2, 4, 5.00000000000000000000e-01) (2, 4, 5.00000000000000000000e-01) (2, 4, 5.00000000000000000000e-01) (2, 4, 5.00000000000000000000e-01) (2, 4, 5.00000000000000000000e-01) (2, 4, 5.00000000000000000000e-01) (2, 4, 5.00000000000000000000e-01) (2, 4, 5.00000000000000000000e-01) (2, 4, 5.00000000000000000000e-01) (2, 4, 5.00000000000000000000e-01) (2, 4, 5.00000000000000000000e-01) (2, 4, 5.00000000000000000000e-01) (2, 4, 5.00000000000000000000e-01) (2, 4, 5.00000000000000000000e-01) (2, 4, 5.00000000000000000000e-01) (2, 4, 5.00000000000000000000e-01) (2, 4, 5.00000000000000000000e-01) (2, 4, 5.00000000000000000000e-01) (2, 4, 5.00000000000000000000e-01) (2, 4, 5.00000000000000000000e-01) (2, 4, 5.00000000000000000000e-01) (2, 4, 5.00000000000000000000e-01) (2, 4, 5.00000000000000000000e-01) (2, 4, 5.00000000000000000000e-01) (2, 4, 5.00000000000000000000e-01) (2, 4, 5.00000000000000000000e-01) (2, 4, 5.00000000000000000000e-01) (2, 4, 5.00000000000000000000e-01) (2, 4, 5.00000000000000000000e-01) (2, 4, 5.00000000000000000000e-01) (2, 4, 5.00000000000000000000e-01) (2, 4, 5.00000000000000000000e-01) (2, 4, 5.00000000000000000000e-01) (2, 4, 5.00000000000000000000e-01) (2, 4, 5.00000000000000000000e-01) (2, 4, 5.00000000000000000000e-01) (2, 4, 5.00000000000000000000e-01) (2, 4, 5.00000000000000000000e-01) (2, 4, 5.00000000000000000000e-01) (2, 4, 5.00000000000000000000e-01) (2, 4, 5.00000000000000000000e-01) (2, 4, 5.00000000000000000000e-01) (2, 4, 5.00000000000000000000e-01) (2, 4, 5.00000000000000000000e-01) (2, 4, 5.00000000000000000000e-01) (2, 4, 5.00000000000000000000e-01) (2, 4, 5.00000000000000000000e-01) (2, 4, 5.00000000000000000000e-01) (2, 4, 5.00000000000000000000e-01) (2, 4, 5.00000000000000000000e-01) (2, 4, 5.00000000000000000000e-01) (2, 4, 5.00000000000000000000e-01) (2, 4, 5.00000000000000000000e-01) (2, 4, 5.00000000000000000000e-01) (2, 4, 5.00000000000000000000e-01) (2, 4, 5.00000000000000000000e-01) (2, 4, 5.00000000000000000000e-01) (2, 4, 5.00000000000000000000e-01) (2, 4, 5.00000000000000000000e-01) (2, 4, 5.00000000000000000000e-01) (2, 4, 5.00000000000000000000e-01) (2, 4, 5.00000000000000000000e-01) (2, 4, 5.00000000000000000000e-01) (2, 4, 5.00000000000000000000e-01) (2, 4, 5.00000000000000000000e-01) (2, 4, 5.00000000000000000000e-01) (2, 4, 5.00000000000000000000e-01) (2, 4, 5.00000000000000000000e-01) (2, 4, 5.00000000000000000000e-01) (2, 4, 5.00000000000000000000e-01) (2, 4, 5.00000000000000000000e-01) (2, 4, 5.00000000000000000000e-01) (2, 4, 5.00000000000000000000e-01) (2, 4, 5.00000000000000000000e-01) (2, 4, 5.00000000000000000000e-01) (2, 4, 5.00000000000000000000e-01) (2, 4, 5.00000000000000000000e-01) (2, 4, 5.00000000000000000000e-01) (2, 4, 5.00000000000000000000e-01) (2, 4, 5.00000000000000000000e-01) (2, 4, 5.00000000000000000000e-01) (2, 4, 5.00000000000000000000e-01) (2, 4, 5.00000000000000000000e-01) (2, 4, 5.00000000000000000000e-01) (2, 4, 5.00000000000000000000e-01) (2, 4, 5.00000000000000000000e-01) (2, 4, 5.00000000000000000000e-01) (2, 4, 5.00000000000000000000e-01) (2, 4, 5.00000000000000000000e-01) (2, 4, 5.00000000000000000000e-01) (2, 4, 5.00000000000000000000e-01) (2, 4, 5.00000000000000000000e-01) (2, 4, 5.00000000000000000000e-01) (2, 4, 5.00000000000000000000e-01) (2, 4, 5.00000000000000000000e-01) (2, 4, 5.00000000000000000000e-01) (2, 4, 5.00000000000000000000e-01) (2, 4, 5.00000000000000000000e-01) (2, 4, 5.00000000000000000000e-01) (2, 4, 5.00000000000000000000e-01) (2, 4, 5.00000000000000000000e-01) (2, 4, 5.00000000000000000000e-01) (2, 4, 5.00000000000000000000e-01) (2, 4, 5.00000000000000000000e-01) (2, 4, 5.00000000000000000000e-01) (2, 4, 5.00000000000000000000e-01) (2, 4, 5.00000000000000000000e-01) (2, 4, 5.00000000000000000000e-01) (2, 4, 5.00000000000000000000e-01) (2, 4, 5.00000000000000000000e-01) (2, 4, 5.00000000000000000000e-01) (2, 4, 5.00000000000000000000e-01) (2, 4, 5.00000000000000000000e-01) (2, 4, 5.00000000000000000000e-01) (2, 4, 5.00000000000000000000e-01) (2, 4, 5.00000000000000000000e-01) (2, 4, 5.00000000000000000000e-01) (2, 4, 5.00000000000000000000e-01) (2, 4, 5.00000000000000000000e-01) (2, 4, 5.00000000000000000000e-01) (2, 4, 5.00000000000000000000e-01) (2, 4, 5.00000000000000000000e-01) (2, 4, 5.00000000000000000000e-01) (2, 4, 5.00000000000000000000e-01) (2, 4, 5.00000000000000000000e-01) (2, 4, 5.00000000000000000000e-01) (2, 4, 5.00000000000000000000e-01) (2, 4, 5.00000000000000000000e-01) (2, 4, 5.00000000000000000000e-01) (2, 4, 5.00000000000000000000e-01) (0, 0, 0.00000000000000000000e+00) (201, 4, 5.00000000000000000000e-01) (0, 0, 0.00000000000000000000e+00) 
connections (connected_to_neuron, weight)=(0, -2.35701669488022531596e+01) (1, 5.46863843985636410849e+00) (0, 3.55411187720998089645e+00) (1, -8.91518931864092922801e-01) (0, 2.56592982678766157179e+00) (1, 1.10631376661100233605e+00) (0, -1.09131623489045148645e+00) (1, -5.01138377623281394690e-01) (0, -2.55300711537749656088e+01) (1, -8.52162069813753397796e+00) (0, 1.17379065781530522727e+00) (1, 8.70870432877225875146e-01) (0, 3.57311958486615965924e+00) (1, -9.14404805777857876414e-01) (0, 2.77506599361720551755e+00) (1, 3.89795048320789316865e-01) (0, 1.56934670373829399104e+00) (1, 8.18069600598965496197e-01) (0, 2.85761621088619621744e+00) (1, 3.54155315956284411083e-01) (0, 8.86166942736422380555e-01) (1, 1.84651453247172803174e-01) (0, 3.59303228128231566529e+00) (1, 9.89037175027910775427e-01) (0, 2.30803088198838934897e-01) (1, -9.01201032974045634916e-01) (0, 1.81157916174183508673e+00) (1, 7.75828917435806508784e-01) (0, 1.86162454684694472773e-02) (1, -9.27972543431794916202e-01) (0, 2.69179027730534548013e+00) (1, 1.11927111889133312772e+00) (0, 1.56849684092493490972e+00) (1, 7.95395686286239023133e-01) (0, 2.44733134594768486636e+00) (1, 2.96757552262203017079e-01) (0, 1.31499202726175767886e+00) (1, 9.45985648723718708375e-01) (0, 8.08457929153480137074e-01) (1, 3.18444418358315550766e-01) (0, -1.36754788569315194335e-01) (1, -9.37076936854398523380e-01) (0, -6.81786369877490083802e-01) (1, -5.88777727571399678297e-01) (0, -1.03666277315598565067e+00) (1, -5.52617891815507689124e-01) (0, -2.65346705766847879016e-01) (1, -8.84229200586355013058e-01) (0, 1.55982702901441916410e+00) (1, 8.36536585711149527356e-01) (0, -4.74300458420733650478e-01) (1, -9.57728029234940270165e-01) (0, -1.38124380575709171382e+00) (1, 2.20204610662856986592e-01) (0, 3.61466726817637340474e+00) (1, 1.09507143397068684720e+00) (0, -3.71598247906230055859e-02) (1, -8.48054678429163155684e-01) (0, 3.54935816052897967765e+00) (1, 1.04952457923085673563e+00) (0, 7.15291706470857602262e-01) (1, 2.29123343746889918116e-01) (0, 2.60322184420602287247e+00) (1, 3.29471349318290418484e-01) (0, 2.90156645640542487641e+00) (1, 4.10482495072621633714e-01) (0, -1.01059730776747103143e+00) (1, -5.90075968888674307067e-01) (0, 1.34313315123276422192e+00) (1, 9.36596233340378447885e-01) (0, 2.41621481936327908713e+00) (1, 5.21427836351935014569e-01) (0, -1.15491376541505363917e+00) (1, -4.69901252226561705339e-01) (0, -2.35849837975979248483e+00) (1, 2.67585262371774934564e-01) (0, -2.65217366977515478510e+00) (1, -1.00746928283191916620e+00) (0, 9.79253654489440239495e-01) (1, 2.64993964710443286048e-01) (0, 1.50272237805958464030e+00) (1, 8.56701542943151039822e-01) (0, 1.35824961570324864724e+00) (1, 8.89267918531322920650e-01) (0, -1.11989576395639489625e+00) (1, -4.96052298383434009388e-01) (0, 2.28910155157546313376e+00) (1, 9.69894767527021195441e-01) (0, 9.69832955284965353426e-02) (1, -8.26853041750855832781e-01) (0, -1.19318176503578210479e+00) (1, -4.82577893571574878528e-01) (0, 2.63366911245555535004e+00) (1, 2.13274161651126864525e-01) (0, 2.31745632321316108460e+00) (1, -9.34980470715354061717e-01) (0, 1.39950626117926280045e+00) (1, 8.42957419220821346784e-01) (0, -1.20718749481166121029e+00) (1, -9.92263534452716311485e-01) (0, -9.20237986404169205912e-01) (1, -5.48157564488248039147e-01) (0, 1.15267176020660522262e+00) (1, 8.46479275362649663528e-01) (0, 1.97697865078380741188e+00) (1, -9.10895109204838848704e-01) (0, 9.90494796066723748318e-01) (1, 2.57177736618726893170e-01) (0, 2.82261437964464478867e+00) (1, 3.00274385884920891332e-01) (0, 1.46922167067461195700e+00) (1, 8.75875159082315390968e-01) (0, -6.91950284061643605682e-01) (1, -6.39427167180066313712e-01) (0, -7.28112560585536527924e-03) (1, -9.51755777938896874169e-01) (0, 2.73805561505081707097e+00) (1, 4.13192237353873392802e-01) (0, -2.56984961070189088517e+00) (1, -8.77010585058725533614e-01) (0, -6.74649639074980878028e-01) (1, -9.67803169979387978294e-01) (0, 2.81703228702595698252e+00) (1, 1.05235163039987056344e+00) (0, 3.56463038668592524516e+00) (1, 1.01568719756323821990e+00) (0, -1.12288840108943754892e+00) (1, -5.14764237837540106213e-01) (0, -7.12216403934653463637e-01) (1, -5.67588656333319563352e-01) (0, 2.84174897606400289618e+00) (1, 2.87115131168230619529e-01) (0, 3.13638246911895857139e+00) (1, 9.72588092463888997941e-01) (0, -7.18683670507760719026e-01) (1, -5.42256645050828711696e-01) (0, 1.11506151768617800535e+00) (1, 8.71291591846628188378e-01) (0, 3.58447718534206583030e+00) (1, 1.00930076996428419456e+00) (0, 1.59272153752178424746e+00) (1, 8.01634063488599668545e-01) (0, -1.16311467521940037351e+00) (1, -4.62938982681971866739e-01) (0, 4.76226260565508693889e-02) (1, -8.79380467042005342648e-01) (0, 2.37531071591877962490e+00) (1, 9.50878426807796217624e-01) (0, -1.09018761597289248755e+00) (1, -4.99118863991485361975e-01) (0, 2.22274978806443535007e+00) (1, 9.29091320161254619059e-01) (0, -2.35560744938394819314e+01) (1, 5.46632639294755495740e+00) (0, -6.87809541938516955106e-01) (1, -6.45968009534376053082e-01) (0, -5.71837761003038522745e+01) (1, -6.17190628210034830659e+00) (0, 3.49670632605860287612e+00) (1, 1.04108713180096001949e+00) (0, -1.11209907237486316234e+00) (1, -4.56825036244139004449e-01) (0, -1.14957737490616551668e+00) (1, -4.52508885102020641522e-01) (0, -2.54142165738196261771e+01) (1, -8.55375867323423655364e+00) (0, 1.71863898672999920736e-01) (1, -1.02523027094742769094e+00) (0, 1.19010687946801488324e-01) (1, -9.91082270976106127769e-01) (0, 3.41963294335913436939e+00) (1, 1.05161261015851459355e+00) (0, -2.24822471397812329030e+00) (1, 1.04941954524081837441e+00) (0, -9.15727901212401662612e-01) (1, -5.55286831346362141915e-01) (0, -1.11881332332091787407e+00) (1, -5.02079713778220915188e-01) (0, -2.35652454821593302370e+01) (1, 5.46800005123056731549e+00) (0, -2.51180817189525695809e+00) (1, 2.75701888754099400103e-01) (0, -2.29143248813509003980e+00) (1, 2.43901442109962451887e-01) (0, 1.59003806923711543675e+00) (1, 8.15359234236384011751e-01) (0, -1.19818442222936560881e+00) (1, -4.84979185895641040638e-01) (0, -1.82959315145549172854e+00) (1, -1.00411685459210953120e+00) (0, 1.61585946764784194052e+00) (1, 7.65455625277782769622e-01) (0, -2.02376895566210024402e-01) (1, -8.15284822727384894669e-01) (0, -1.83380607637443293623e-01) (1, -9.00663793405092061306e-01) (0, -1.01274224537668255941e+00) (1, -5.95624799964114437500e-01) (0, 3.59513478349931281386e+00) (1, 1.13408902235574560180e+00) (0, 2.30845304239170889815e+00) (1, -9.17916238336155987376e-01) (0, 2.24176635875262197928e+00) (1, -9.26374312518427944774e-01) (0, 3.58585085047284080062e+00) (1, 1.06459463590104541630e+00) (0, -4.74023449865931656433e+00) (1, 2.65023668166055936801e-01) (0, -4.33891667499599886781e+00) (1, 1.68809001121057034034e+00) (0, -9.88386481886810774888e-01) (1, -6.18736728218523102107e-01) (0, -1.17416310263229228816e+00) (1, -5.91941565341152275970e-01) (0, 1.64691806369126081400e+00) (1, 7.96632820860920576322e-01) (0, -9.52874978562024965711e-01) (1, -5.34157662776281405570e-01) (0, -2.94701836686833118506e+00) (1, -9.88602894134619991640e-01) (0, 2.31176277769695337483e+00) (1, -9.43179222707886344423e-01) (0, 1.31281508587864603754e+00) (1, 9.44974947663423381350e-01) (0, -1.00116645340285681520e+00) (1, -6.05121712324322325038e-01) (0, 6.21630199176767608837e-02) (1, -9.14671079196255565336e-01) (0, 7.94531107801389607781e-02) (1, -9.88058717336455782920e-01) (0, 1.13158382377523270002e+00) (1, 9.25725211266905878560e-01) (0, 1.87554896832342854474e+00) (1, 6.96076219591199918391e-01) (0, -5.72283882695695993448e+01) (1, -6.16860416987863047211e+00) (0, 2.84396622232119122842e+00) (1, 3.28098011898499131167e-01) (0, -8.88877925930602330595e-01) (1, -5.93960303005855672076e-01) (0, -2.58016409868769891478e-01) (1, -5.43423609318667844015e-01) (0, 5.21678635244915955838e+00) (1, 9.91081349668089472971e-01) (0, -1.09338015851045367022e+00) (1, -5.30174522784513713169e-01) (0, 1.76649847347993792235e-02) (1, -8.99395907923257631467e-01) (0, 1.63680144771324176389e+00) (1, 7.46142751795077718846e-01) (0, 3.94566436481435911521e-01) (1, 3.49851820037862581980e-01) (0, 1.37446746203067404757e-01) (1, -1.00497117766358590174e+00) (0, 3.67041337661843602991e-01) (1, -8.20332964164681821551e-01) (0, -8.81040469772513712421e-01) (1, -5.63498086419924715251e-01) (0, 2.73041645233731156139e+00) (1, -8.96825366594117046048e-01) (0, 2.06628712656117130564e+00) (1, -9.22978479443381405467e-01) (0, 2.62259282694452200424e-01) (1, -8.52636040438211617598e-01) (0, 2.54786172582493808392e-01) (1, -8.74520325042527080228e-01) (0, -4.93393322538853096315e-01) (1, 2.57558317257639335374e-01) (0, 2.54021600190746754677e+00) (1, -9.53254909165236918867e-01) (0, -1.09576356779210049019e+00) (1, -5.44309667435476041142e-01) (0, -1.09280797977674426491e+00) (1, -5.07586419037580949265e-01) (0, -3.89115775953752171534e-02) (1, -8.60025259360349458859e-01) (0, -6.67201577236540277482e-02) (1, -8.50774110544717965254e-01) (0, 2.82832814428954959496e+00) (1, 1.04567907810967986038e+00) (0, 3.03577887373668353632e+00) (1, 1.05154754654329929409e+00) (0, -5.07440160825411723522e+01) (1, -4.35967171190948354909e-01) (0, 2.73964319654446342156e+00) (1, 4.17420673731088875957e-01) (0, 5.68373293053292608090e-02) (1, -9.85316841639378826478e-01) (0, 1.24772807087435833040e+00) (1, 8.63210453712624059541e-01) (0, -1.11083909093003452284e+00) (1, -5.06895411448212707128e-01) (0, 3.37211003853228996618e-01) (1, -5.32714122333949435806e-01) (0, 2.84066937190200796692e+00) (1, 1.11156392465444442408e+00) (0, 2.80526248795779942213e+00) (1, 4.11087752723216792727e-01) (0, 1.17837697512759032037e+00) (1, 8.41634282009758871723e-01) (0, -6.32532948869398481406e-01) (1, -6.38828977135185271941e-01) (0, 1.45044230567425724843e+00) (1, 8.01140510838659336557e-01) (0, 1.11476195956666734865e+00) (1, 8.71646116662629921734e-01) (0, 1.60780263391417288510e+00) (1, 7.81123950141217493481e-01) (0, -6.65860037602695298276e-01) (1, -6.32469817188731853186e-01) (0, -6.11987454560796173553e-01) (1, -6.47230093184013699492e-01) (0, 2.18949546256451599291e+00) (1, 9.45665345315370831081e-01) (0, -8.72150893810464955536e-01) (1, -5.74858865824585896220e-01) (0, -2.90857073921043318698e-01) (1, -8.26485600418991883664e-01) (0, 2.35415131885066042372e+00) (1, -9.33539654081005698671e-01) (0, 1.19856185980286888970e+00) (1, 5.43698636332874185584e-01) (0, 1.57956425876770634176e+00) (1, 8.25674322646738012565e-01) (0, -1.08451734639905827962e+00) (1, -5.41120237794700198464e-01) (0, 3.66259244634937175533e+00) (1, 9.92635510978285617867e-01) (0, 1.32204031424710044540e-01) (1, 2.21114225854995793963e-01) (0, -6.45844270076936788350e-02) (1, -9.25173437233484108333e-01) (0, -1.27822237613644755783e+01) (1, 4.45857553443596366094e+00) (0, 3.03521044398108508222e-01) (1, -1.75573313587585477791e+00) (0, -5.97785356337316331476e-01) (1, -6.37942318621160797676e-01) (0, 2.17565235054536820769e+00) (1, 8.18577450625109226401e-01) (0, -1.12239500835808381218e+00) (1, -5.06625819639893171242e-01) (0, -2.32508979612075314947e+01) (1, 5.30868248468019476860e+00) (0, -1.05189813446463142910e+00) (1, -4.86710205129371409338e-01) (0, -2.66618630076717577637e+00) (1, -8.82449113329638157310e-01) (0, -2.16415103645104522911e+00) (1, 2.58992368240660963963e-01) (0, 1.29050696975771117536e+00) (1, 9.66435003968358019577e-01) (0, -1.06191638413958355791e+00) (1, -5.63062138048036731064e-01) (0, -1.00082994705451011619e+00) (1, -5.90068369296464445561e-01) (0, -1.12946168788735909483e-01) (1, -8.37932364333666024336e-01) (0, -1.16544991214197524165e+00) (1, -4.63583621816378577130e-01) (0, 1.59102799337511124911e+00) (1, 8.11137904626010319831e-01) (0, 7.89301651969774642481e+00) (1, -4.13397423605170910577e+00) (0, -2.17401839592988338490e-01) (1, -8.72881816018617806563e-01) (0, 2.83902506924443587266e+00) (1, 1.05392331772904102039e+00) (0, 1.04989247308612018705e-01) (1, -9.85043703354695598939e-01) (0, -1.09469170311623331671e+00) (1, -5.00471133427342063094e-01) (0, -9.85746652043253818176e-02) (1, -8.21282114930100282102e-01) (0, 1.27418369288819266494e+00) (1, 9.02533312205699100872e-01) (0, -3.78444417164858037950e+01) (1, -9.18960853591761828163e-01) (0, 3.48763241603173224092e+00) (1, 1.00607234424740688006e+00) (0, 3.78960827275549849702e+00) (1, 1.00311932724434682562e+00) (0, 7.33948850277928777075e-01) (1, 1.02262151895672870339e+00) (0, 1.40704487053651655648e-01) (1, -8.20676097358174483354e-01) (0, 3.93581878296704346099e+00) (1, 8.18124957134989783114e-01) (0, -1.11916678257143176189e+00) (1, -4.79005787210185718372e-01) (0, -5.72911736605820481882e-02) (1, -8.48461481436765474484e-01) (0, 3.74433427233739379858e+00) (1, 1.00864441323668407868e+00) (0, -1.10840821979559001065e+00) (1, -4.87469348745067310169e-01) (0, -1.09273225463332246399e+00) (1, -5.30279046979708179599e-01) (0, -1.78456761915010830855e+00) (1, -1.00825857850459654763e+00) (2, 3.09785497029440859418e-01) (3, -1.75175893995874243370e-01) (4, 5.86620096734944862504e-01) (5, -1.04181326774903104670e-01) (6, 1.50000000000000000000e+03) (7, -2.54598649952142541686e-01) (8, -1.75985936019532995811e-01) (9, 5.79331942249909248588e-01) (10, -2.57731342528496110145e-01) (11, 5.76675688468590408320e-01) (12, 6.07804563534718123030e-01) (13, -2.87652445427855285587e-01) (14, -1.59299412958394892570e-01) (15, -2.47786477504065155708e-01) (16, -1.86580719944191758541e-01) (17, 5.69898949990215508699e-01) (18, -2.30180578926792611671e-01) (19, 5.64567446161965302842e-01) (20, -2.49085639075744713633e-01) (21, 6.09799758999245766766e-01) (22, -1.49049515422537887099e-01) (23, -9.56918466938317946457e-02) (24, -9.93488868220631787809e-02) (25, -1.41316681370453584021e-01) (26, -2.47712737548735267845e-01) (27, -1.54172013100339538871e-01) (28, -1.61895044133730625635e-01) (29, 5.74586545585289543148e-01) (30, -1.78097976938255020407e-01) (31, -2.96461439415884764337e-01) (32, 5.80616569914749747205e-01) (33, 5.72317739569320971249e-01) (34, 5.69616323743477037667e-01) (35, -1.18525161360103326036e-01) (36, -2.48459833882082120615e-01) (37, -2.29092560049774851549e-01) (38, -1.19680027772960287380e-01) (39, 6.02639275987607692109e-01) (40, -1.67585486448233678125e-01) (41, 5.95423208056107045039e-01) (42, -2.48658432293322129158e-01) (43, -2.57307259815607536346e-01) (44, -9.98001526473347999602e-02) (45, -2.60569582208950989433e-01) (46, -1.74568715099342075536e-01) (47, -1.18310000685271754506e-01) (48, 5.88882534601620988290e-01) (49, -1.59703176412694769493e-01) (50, -2.38294287103095414615e-01) (51, -1.70417759777014815592e-01) (52, -1.07344274463683900245e-01) (53, -2.49591380527706158121e-01) (54, -1.56551938448064503762e-01) (55, 5.99121892331257566156e-01) (56, 6.04502042809670236956e-01) (57, -2.54930628822719274051e-01) (58, -1.01778414244586584703e-01) (59, -1.76596897240830302822e-01) (60, 5.72861256816521002833e-01) (61, -1.49953688745031205043e-01) (62, -1.34197692054686956720e-01) (63, 6.02466035087568019257e-01) (64, -2.91062443789249669646e-01) (65, -1.14871686155625207792e-01) (66, -1.13680871213752421323e-01) (67, 6.06216481009667296220e-01) (68, -2.42610777243937314473e-01) (69, -1.22032733644324931088e-01) (70, -2.40180873128594429833e-01) (71, -2.97137438591720426384e-01) (72, -2.50685708004106111435e-01) (73, -1.19273579519577829777e-01) (74, -1.88392519221020543485e-01) (75, -2.40578753540530237975e-01) (76, -1.20921782657176776765e-01) (77, -2.46188519189371457507e-01) (78, 2.90839739639348449085e-01) (79, -1.01554315681392295923e-01) (80, 1.50000000000000000000e+03) (81, -2.87253147646863438158e-01) (82, -1.12589772728499890042e-01) (83, -1.15755092816658813892e-01) (84, 1.50000000000000000000e+03) (85, -1.97055825865690315002e-01) (86, -2.03676044000694361769e-01) (87, -2.96960345193815589138e-01) (88, 5.96359624912005559239e-01) (89, -1.02731262388259705909e-01) (90, -8.82883595946631072326e-02) (91, 1.90015809302605975795e-01) (92, 6.02279165813868089252e-01) (93, 7.40568600979542801532e-01) (94, -2.50749889797117264667e-01) (95, -1.23533157592830358795e-01) (96, -1.72747069047521462082e-01) (97, -2.30174521604767312599e-01) (98, -1.97182365925318514588e-01) (99, -1.57973010918331963071e-01) (100, -1.08008756254512519601e-01) (101, 5.80168401359215768487e-01) (102, -1.54368381891363370961e-01) (103, -1.58479224834555065815e-01) (104, -2.71281814858404912716e-01) (105, 1.42479681083281572995e+00) (106, -1.47075331854640306561e-01) (107, -1.20267628644305901719e-01) (108, -9.79246649432486820919e-02) (109, -2.45683008970835559115e-01) (110, -8.92088429764020945933e-02) (111, -1.61038468259744521616e-01) (112, -1.83799699551773915163e-01) (113, -2.42806137011755795996e-01) (114, -1.00003494833308906320e-01) (115, -1.52023450143053018291e-01) (116, -1.94831556631634733590e-01) (117, -2.45100285306633414173e-01) (118, -2.51067651033413608008e-01) (119, 1.50000000000000000000e+03) (120, 5.90489042459623192372e-01) (121, -9.95397532072474638953e-02) (122, -2.07528518681239226851e-01) (123, -3.00151846643685937810e-01) (124, -9.12787531090086673435e-02) (125, -1.84255647059632043927e-01) (126, -2.31097862181415952820e-01) (127, 6.17171560444969014014e-01) (128, -1.97020137584631077621e-01) (129, -1.83289887908942933370e-01) (130, -9.77995210972239653602e-02) (131, -1.76585773222219299949e-01) (132, -1.46742444429512092219e-01) (133, -1.98123460261828088225e-01) (134, -1.78384723667152134130e-01) (135, 6.03816627909404601837e-01) (136, -2.01962295482546627667e-01) (137, -9.74251936989134897926e-02) (138, -1.08023218659706876643e-01) (139, -1.82379945382786484709e-01) (140, -1.75466722444064776587e-01) (141, 6.04988160927755203033e-01) (142, 5.77278695453863122111e-01) (143, -1.38839070986662349583e+01) (144, 5.74837318096771743292e-01) (145, -1.86019937330304030443e-01) (146, -2.40208006266089568737e-01) (147, -1.01321531402904271846e-01) (148, -2.11594977936934186546e-01) (149, 6.02841717659132525498e-01) (150, 5.77392514196530037829e-01) (151, -2.55002170971124264565e-01) (152, -9.03738891268624500164e-02) (153, -2.39135395905467285083e-01) (154, -2.42342912408531924173e-01) (155, -2.32609766224613462304e-01) (156, -1.24605931069891651131e-01) (157, -1.16243472102916564626e-01) (158, -2.46515271852030121158e-01) (159, -9.79645514574458281531e-02) (160, -1.43594867185126290332e-01) (161, -1.97152348451386127959e-01) (162, -2.20805379381938948757e-01) (163, -2.41399037859835602360e-01) (164, -1.20520538516075040314e-01) (165, -2.64521572079679134770e-01) (166, 6.00444835317592628954e-01) (167, -1.68619016703320356854e-01) (168, -1.61963257441904096012e-01) (169, -2.11194519015978549037e-01) (170, -1.22898245879350415111e-01) (171, -2.51095114701749611008e-01) (172, -1.11709834249526893113e-01) (173, 5.41451797879653029533e-01) (174, -1.20277490404662609769e-01) (175, -1.48013627633288374907e-01) (176, 6.08643112758343818314e-01) (177, -2.54070503388513779797e-01) (178, -1.01674265093833815499e-01) (179, -8.23221345885591648806e-02) (180, -1.72736197643764161080e-01) (181, -1.18034368052539459515e-01) (182, -2.56326033941899344981e-01) (183, -2.96392408022535525092e+00) (184, -1.51183580605992712309e-01) (185, 6.10954677192584671985e-01) (186, -1.78921128291063158411e-01) (187, -1.09962440876313030658e-01) (188, -1.75520698790080725837e-01) (189, -2.57871988031593502022e-01) (190, 5.45951644412455294741e+00) (191, -3.02160165544746561750e-01) (192, -2.69283510085362720599e-01) (193, 5.66469781738974997864e-01) (194, -1.88610071268088930196e-01) (195, 5.85613496054869342444e-01) (196, -9.80487635062416290621e-02) (197, -1.81981361672592850676e-01) (198, -2.89431370135552812339e-01) (199, -1.03199563769646465716e-01) (200, -1.01011655159026991768e-01) (201, -1.66795248067801576974e-01) (202, -1.98329498569365908489e-01) 
