FANN_FLO_2.1
num_layers=3
learning_rate=0.700000
connection_rate=1.000000
network_type=0
learning_momentum=0.000000
training_algorithm=2
train_error_function=1
train_stop_function=0
cascade_output_change_fraction=0.010000
quickprop_decay=-0.000100
quickprop_mu=1.750000
rprop_increase_factor=1.200000
rprop_decrease_factor=0.500000
rprop_delta_min=0.000000
rprop_delta_max=50.000000
rprop_delta_zero=0.100000
cascade_output_stagnation_epochs=12
cascade_candidate_change_fraction=0.010000
cascade_candidate_stagnation_epochs=12
cascade_max_out_epochs=150
cascade_min_out_epochs=50
cascade_max_cand_epochs=150
cascade_min_cand_epochs=50
cascade_num_candidate_groups=2
bit_fail_limit=3.49999999999999977796e-01
cascade_candidate_limit=1.00000000000000000000e+03
cascade_weight_multiplier=4.00000000000000022204e-01
cascade_activation_functions_count=10
cascade_activation_functions=3 5 7 8 10 11 14 15 16 17 
cascade_activation_steepnesses_count=4
cascade_activation_steepnesses=2.50000000000000000000e-01 5.00000000000000000000e-01 7.50000000000000000000e-01 1.00000000000000000000e+00 
layer_sizes=2 201 2 
scale_included=0
neurons (num_inputs, activation_function, activation_steepness)=(0, 0, 0.00000000000000000000e+00) (0, 0, 0.00000000000000000000e+00) (2, 4, 5.00000000000000000000e-01) (2, 4, 5.00000000000000000000e-01) (2, 4, 5.00000000000000000000e-01) (2, 4, 5.00000000000000000000e-01) (2, 4, 5.00000000000000000000e-01) (2, 4, 5.00000000000000000000e-01) (2, 4, 5.00000000000000000000e-01) (2, 4, 5.00000000000000000000e-01) (2, 4, 5.00000000000000000000e-01) (2, 4, 5.00000000000000000000e-01) (2, 4, 5.00000000000000000000e-01) (2, 4, 5.00000000000000000000e-01) (2, 4, 5.00000000000000000000e-01) (2, 4, 5.00000000000000000000e-01) (2, 4, 5.00000000000000000000e-01) (2, 4, 5.00000000000000000000e-01) (2, 4, 5.00000000000000000000e-01) (2, 4, 5.00000000000000000000e-01) (2, 4, 5.00000000000000000000e-01) (2, 4, 5.00000000000000000000e-01) (2, 4, 5.00000000000000000000e-01) (2, 4, 5.00000000000000000000e-01) (2, 4, 5.00000000000000000000e-01) (2, 4, 5.00000000000000000000e-01) (2, 4, 5.00000000000000000000e-01) (2, 4, 5.00000000000000000000e-01) (2, 4, 5.00000000000000000000e-01) (2, 4, 5.00000000000000000000e-01) (2, 4, 5.00000000000000000000e-01) (2, 4, 5.00000000000000000000e-01) (2, 4, 5.00000000000000000000e-01) (2, 4, 5.00000000000000000000e-01) (2, 4, 5.00000000000000000000e-01) (2, 4, 5.00000000000000000000e-01) (2, 4, 5.00000000000000000000e-01) (2, 4, 5.00000000000000000000e-01) (2, 4, 5.00000000000000000000e-01) (2, 4, 5.00000000000000000000e-01) (2, 4, 5.00000000000000000000e-01) (2, 4, 5.00000000000000000000e-01) (2, 4, 5.00000000000000000000e-01) (2, 4, 5.00000000000000000000e-01) (2, 4, 5.00000000000000000000e-01) (2, 4, 5.00000000000000000000e-01) (2, 4, 5.00000000000000000000e-01) (2, 4, 5.00000000000000000000e-01) (2, 4, 5.00000000000000000000e-01) (2, 4, 5.00000000000000000000e-01) (2, 4, 5.00000000000000000000e-01) (2, 4, 5.00000000000000000000e-01) (2, 4, 5.00000000000000000000e-01) (2, 4, 5.00000000000000000000e-01) (2, 4, 5.00000000000000000000e-01) (2, 4, 5.00000000000000000000e-01) (2, 4, 5.00000000000000000000e-01) (2, 4, 5.00000000000000000000e-01) (2, 4, 5.00000000000000000000e-01) (2, 4, 5.00000000000000000000e-01) (2, 4, 5.00000000000000000000e-01) (2, 4, 5.00000000000000000000e-01) (2, 4, 5.00000000000000000000e-01) (2, 4, 5.00000000000000000000e-01) (2, 4, 5.00000000000000000000e-01) (2, 4, 5.00000000000000000000e-01) (2, 4, 5.00000000000000000000e-01) (2, 4, 5.00000000000000000000e-01) (2, 4, 5.00000000000000000000e-01) (2, 4, 5.00000000000000000000e-01) (2, 4, 5.00000000000000000000e-01) (2, 4, 5.00000000000000000000e-01) (2, 4, 5.00000000000000000000e-01) (2, 4, 5.00000000000000000000e-01) (2, 4, 5.00000000000000000000e-01) (2, 4, 5.00000000000000000000e-01) (2, 4, 5.00000000000000000000e-01) (2, 4, 5.00000000000000000000e-01) (2, 4, 5.00000000000000000000e-01) (2, 4, 5.00000000000000000000e-01) (2, 4, 5.00000000000000000000e-01) (2, 4, 5.00000000000000000000e-01) (2, 4, 5.00000000000000000000e-01) (2, 4, 5.00000000000000000000e-01) (2, 4, 5.00000000000000000000e-01) (2, 4, 5.00000000000000000000e-01) (2, 4, 5.00000000000000000000e-01) (2, 4, 5.00000000000000000000e-01) (2, 4, 5.00000000000000000000e-01) (2, 4, 5.00000000000000000000e-01) (2, 4, 5.00000000000000000000e-01) (2, 4, 5.00000000000000000000e-01) (2, 4, 5.00000000000000000000e-01) (2, 4, 5.00000000000000000000e-01) (2, 4, 5.00000000000000000000e-01) (2, 4, 5.00000000000000000000e-01) (2, 4, 5.00000000000000000000e-01) (2, 4, 5.00000000000000000000e-01) (2, 4, 5.00000000000000000000e-01) (2, 4, 5.00000000000000000000e-01) (2, 4, 5.00000000000000000000e-01) (2, 4, 5.00000000000000000000e-01) (2, 4, 5.00000000000000000000e-01) (2, 4, 5.00000000000000000000e-01) (2, 4, 5.00000000000000000000e-01) (2, 4, 5.00000000000000000000e-01) (2, 4, 5.00000000000000000000e-01) (2, 4, 5.00000000000000000000e-01) (2, 4, 5.00000000000000000000e-01) (2, 4, 5.00000000000000000000e-01) (2, 4, 5.00000000000000000000e-01) (2, 4, 5.00000000000000000000e-01) (2, 4, 5.00000000000000000000e-01) (2, 4, 5.00000000000000000000e-01) (2, 4, 5.00000000000000000000e-01) (2, 4, 5.00000000000000000000e-01) (2, 4, 5.00000000000000000000e-01) (2, 4, 5.00000000000000000000e-01) (2, 4, 5.00000000000000000000e-01) (2, 4, 5.00000000000000000000e-01) (2, 4, 5.00000000000000000000e-01) (2, 4, 5.00000000000000000000e-01) (2, 4, 5.00000000000000000000e-01) (2, 4, 5.00000000000000000000e-01) (2, 4, 5.00000000000000000000e-01) (2, 4, 5.00000000000000000000e-01) (2, 4, 5.00000000000000000000e-01) (2, 4, 5.00000000000000000000e-01) (2, 4, 5.00000000000000000000e-01) (2, 4, 5.00000000000000000000e-01) (2, 4, 5.00000000000000000000e-01) (2, 4, 5.00000000000000000000e-01) (2, 4, 5.00000000000000000000e-01) (2, 4, 5.00000000000000000000e-01) (2, 4, 5.00000000000000000000e-01) (2, 4, 5.00000000000000000000e-01) (2, 4, 5.00000000000000000000e-01) (2, 4, 5.00000000000000000000e-01) (2, 4, 5.00000000000000000000e-01) (2, 4, 5.00000000000000000000e-01) (2, 4, 5.00000000000000000000e-01) (2, 4, 5.00000000000000000000e-01) (2, 4, 5.00000000000000000000e-01) (2, 4, 5.00000000000000000000e-01) (2, 4, 5.00000000000000000000e-01) (2, 4, 5.00000000000000000000e-01) (2, 4, 5.00000000000000000000e-01) (2, 4, 5.00000000000000000000e-01) (2, 4, 5.00000000000000000000e-01) (2, 4, 5.00000000000000000000e-01) (2, 4, 5.00000000000000000000e-01) (2, 4, 5.00000000000000000000e-01) (2, 4, 5.00000000000000000000e-01) (2, 4, 5.00000000000000000000e-01) (2, 4, 5.00000000000000000000e-01) (2, 4, 5.00000000000000000000e-01) (2, 4, 5.00000000000000000000e-01) (2, 4, 5.00000000000000000000e-01) (2, 4, 5.00000000000000000000e-01) (2, 4, 5.00000000000000000000e-01) (2, 4, 5.00000000000000000000e-01) (2, 4, 5.00000000000000000000e-01) (2, 4, 5.00000000000000000000e-01) (2, 4, 5.00000000000000000000e-01) (2, 4, 5.00000000000000000000e-01) (2, 4, 5.00000000000000000000e-01) (2, 4, 5.00000000000000000000e-01) (2, 4, 5.00000000000000000000e-01) (2, 4, 5.00000000000000000000e-01) (2, 4, 5.00000000000000000000e-01) (2, 4, 5.00000000000000000000e-01) (2, 4, 5.00000000000000000000e-01) (2, 4, 5.00000000000000000000e-01) (2, 4, 5.00000000000000000000e-01) (2, 4, 5.00000000000000000000e-01) (2, 4, 5.00000000000000000000e-01) (2, 4, 5.00000000000000000000e-01) (2, 4, 5.00000000000000000000e-01) (2, 4, 5.00000000000000000000e-01) (2, 4, 5.00000000000000000000e-01) (2, 4, 5.00000000000000000000e-01) (2, 4, 5.00000000000000000000e-01) (2, 4, 5.00000000000000000000e-01) (2, 4, 5.00000000000000000000e-01) (2, 4, 5.00000000000000000000e-01) (2, 4, 5.00000000000000000000e-01) (2, 4, 5.00000000000000000000e-01) (2, 4, 5.00000000000000000000e-01) (2, 4, 5.00000000000000000000e-01) (2, 4, 5.00000000000000000000e-01) (2, 4, 5.00000000000000000000e-01) (2, 4, 5.00000000000000000000e-01) (2, 4, 5.00000000000000000000e-01) (2, 4, 5.00000000000000000000e-01) (2, 4, 5.00000000000000000000e-01) (2, 4, 5.00000000000000000000e-01) (2, 4, 5.00000000000000000000e-01) (2, 4, 5.00000000000000000000e-01) (2, 4, 5.00000000000000000000e-01) (2, 4, 5.00000000000000000000e-01) (2, 4, 5.00000000000000000000e-01) (2, 4, 5.00000000000000000000e-01) (0, 0, 0.00000000000000000000e+00) (201, 4, 5.00000000000000000000e-01) (0, 0, 0.00000000000000000000e+00) 
connections (connected_to_neuron, weight)=(0, -3.52168399601267018834e-03) (1, -4.88197786615626794227e-01) (0, -3.86814748730190394177e-01) (1, -8.88234024550657141894e-01) (0, 2.49339805377948575682e+00) (1, -3.08415517289641627485e+00) (0, -1.42395675196908599869e-01) (1, -9.60280997543880125711e-03) (0, -1.49966032558785195761e+03) (1, -8.05893762643070132867e+00) (0, -7.12419203185884364338e-01) (1, -3.68064954972776525732e-01) (0, -3.84649374772342400597e-01) (1, -4.33846592256950491784e-01) (0, -1.49966032558785195761e+03) (1, -8.05461096996987535590e+00) (0, -5.53543044979930898286e-01) (1, 1.09898280002749079709e-01) (0, -7.52734406646484444092e-02) (1, -2.86173798290770831088e-01) (0, -4.05296228126382440671e-01) (1, -4.28337158216359828455e-02) (0, -9.83709675503733338431e-01) (1, -4.48769534689460874999e-02) (0, -5.53349508210587259782e+00) (1, -2.09280144434571185874e-01) (0, 1.75220123268679195405e+00) (1, -3.57783398493916826588e-01) (0, -2.96550421748538350908e-01) (1, 1.28437201668392203535e-01) (0, -5.23873054602796206503e-01) (1, 7.96598593261366588747e-02) (0, -4.51967408722360008966e+00) (1, 2.08165607086260334713e-01) (0, -6.03583042627975796535e-01) (1, -4.37510903721792410170e-01) (0, -1.49966032558785195761e+03) (1, -7.92089155177041703837e+00) (0, -2.51339942817341066572e-01) (1, -4.74407244346535639234e-01) (0, 1.54845256905920636292e+00) (1, 2.85493524856121443090e-02) (0, 1.74166722019736885940e+00) (1, 1.61190865950649520055e-01) (0, -1.52486003992853502709e-01) (1, -2.21115858083626459774e+00) (0, -6.08037072542582518464e-02) (1, -4.09856575406082868085e+00) (0, 1.42967732289469046103e-01) (1, -5.79154569632205573626e-01) (0, -1.29479482251281918792e-01) (1, -2.22225894035391036141e+00) (0, -1.81774683669943364073e-02) (1, -4.58570523943408636658e-01) (0, -6.58411601107484645290e-01) (1, -4.20449379312531568154e-01) (0, -3.13118806081062239777e-01) (1, -1.59721285134375512449e+00) (0, 1.39118746878434351721e+00) (1, -1.71049143846950357783e-01) (0, 2.67267028284324803522e-02) (1, -1.54142189505916227255e+00) (0, 1.93628423892388901173e+00) (1, -5.25092713950662037803e-01) (0, -5.82460661506890797767e-01) (1, 1.08333696483638983188e-01) (0, -5.54880113933727248110e+00) (1, -2.02338844688652680359e-01) (0, -5.94071062603007682412e-01) (1, 1.18456973847963178970e-01) (0, -6.65742749832499813856e-01) (1, -2.64261922232296997404e-01) (0, -1.49966032558785195761e+03) (1, -7.97962381551429444926e+00) (0, 1.01681322299447640667e+00) (1, -1.29184579636158980431e-01) (0, -5.78251792976662959411e-01) (1, 1.32298725828287305761e-01) (0, -5.17935326012126773243e-01) (1, 4.73246647688261856679e-02) (0, 1.51670459990228079228e+00) (1, -9.17359030511222806048e-02) (0, -1.49966032558785195761e+03) (1, -8.03426944325262581970e+00) (0, -4.09254337548038971129e-01) (1, -4.52948643035975609394e-02) (0, -6.66445766125419836179e-01) (1, -3.89628783648511278770e-01) (0, -6.39268998061104598563e-01) (1, 1.02991609354161739454e-01) (0, -1.49966032558785195761e+03) (1, -7.98367746035024339335e+00) (0, 1.46502295240135005372e+00) (1, -1.92179902174615752086e-01) (0, -5.26630513538074329638e-01) (1, 8.07764410821244782657e-02) (0, -3.60120098211249017872e-02) (1, -2.93706625853579872398e-01) (0, -6.03176521615803373777e-01) (1, -3.15044769678983815897e-01) (0, -4.12361775956515075325e-01) (1, -4.59813332300202382008e-01) (0, 1.67076303475275522725e-01) (1, -6.85580108184641434654e-01) (0, -3.87612925552007603347e-01) (1, -6.12326912596900252428e-02) (0, -1.26354800224831897992e+00) (1, -9.15236465436185600564e-03) (0, -2.23767489237925415457e-01) (1, 9.53859177223677356938e-02) (0, -1.50024433839155801884e+00) (1, -4.02532445725325871422e-01) (0, 1.08621045147605754799e+00) (1, -7.71077802611418311463e-02) (0, -5.60954251880879772862e-01) (1, 1.12968641504404540554e-01) (0, -6.06093515760109280421e-01) (1, -4.31111115759355734145e-01) (0, 1.87012390023669894390e+00) (1, -4.75837190038475854603e-01) (0, 1.26488135964655823429e+00) (1, -7.64087029587258992347e-02) (0, 1.44029439354928445738e+00) (1, -2.03643178010302239311e-01) (0, 6.08717930283389288548e-02) (1, -5.11638541282852465919e-01) (0, -6.85245621071445820682e-01) (1, 1.40015399624104197596e-01) (0, -7.40732154269128306723e-01) (1, 4.91416404349802951601e-02) (0, 1.11296975890066707215e+00) (1, -6.65944050317940905437e-02) (0, -3.84075767767523390539e-01) (1, -6.05815610481033398060e-02) (0, -1.49966032558785195761e+03) (1, -8.09474914381885923831e+00) (0, 2.40071274474565088397e+00) (1, -2.99394160953879140408e+00) (0, 1.42147098926627113435e+00) (1, -1.46173810488788913364e-01) (0, -6.27269742150281417459e-01) (1, -3.97944618182193343703e-01) (0, -2.64091425613879215994e-01) (1, -3.19596989627087768593e-01) (0, -4.27033258090055600764e-01) (1, -1.61239657475433749434e-02) (0, -9.44110923689859715680e-01) (1, -9.24184213538089827100e-02) (0, -6.64496268404941692332e-01) (1, -4.16904604625718100408e-01) (0, -5.72600672219502504490e-01) (1, 9.93617898040080604893e-02) (0, -5.10845098237624695159e-01) (1, 4.07333347746311399962e-02) (0, 2.14608956334354372686e+00) (1, -7.21423725079383570957e-01) (0, -1.26274986424224411330e+00) (1, -3.48807498982848032676e-02) (0, -7.36138092785171060939e-01) (1, -7.27447801930133031156e-01) (0, -6.37029715990556799632e-01) (1, -3.51262136350679390895e-02) (0, -8.87906802875739892267e-02) (1, -3.56309567543290850455e-01) (0, 2.67663295780030431603e-02) (1, -4.89107109720574528833e-01) (0, -4.68408897655299916174e-01) (1, -8.06151034855078441055e-01) (0, -9.51880554869546591235e-01) (1, -9.55256119227768929481e-02) (0, -6.43441426165722529795e-01) (1, 1.55932235184315343135e-01) (0, 1.59599244086438485368e+00) (1, 8.54368365893488079799e-02) (0, 1.62049718424865663025e+00) (1, 3.28261009139152251657e-02) (0, -1.49966032558785195761e+03) (1, -7.95261520008012467997e+00) (0, 2.10059810208874297999e+00) (1, -6.77165283023331454615e-01) (0, -1.14990780732121811170e+00) (1, -1.29322168146049087945e+00) (0, 1.64326871136446217569e+00) (1, 4.54423034599010441936e-02) (0, -1.32053761672836311725e+00) (1, 6.50063066639433029259e-02) (0, -1.49966032558785195761e+03) (1, -7.99433807144350350171e+00) (0, -4.57172873890613007397e-01) (1, 1.02572598063090138221e-02) (0, -1.77490352044514937413e-01) (1, -4.17023215846671069240e-01) (0, 1.78805261026034290062e+00) (1, -3.92962866058708115702e-01) (0, -4.52865366148495485099e-01) (1, 4.86929049125752865662e-03) (0, -7.71879783837434896299e+00) (1, -1.99292444399883739159e+00) (0, 1.09840670135132073559e-01) (1, -5.11691504431674437647e-01) (0, -1.07952442142827398364e+00) (1, -1.27074654556952859608e+00) (0, -2.54070267086263956724e-01) (1, -1.87440561112003439836e-01) (0, 1.12889770709581016561e+00) (1, -1.80178341809505114524e-02) (0, -5.60152131914593121031e-01) (1, 1.16046776612259483485e-01) (0, -6.30299584419838132554e-01) (1, -4.51326549203617088946e-01) (0, -3.93046383294724799295e-01) (1, -8.28683031806461856128e-01) (0, -7.11992906479447656976e-02) (1, -1.72295649727192023981e+00) (0, -6.19156134678447989117e-01) (1, -4.68178997994439072272e-01) (0, -6.22197314023611336431e-01) (1, -4.62894246132595055254e-01) (0, -1.49966032558785195761e+03) (1, -7.98813809315129930155e+00) (0, -1.49966032558785195761e+03) (1, -8.05024254927951155025e+00) (0, 1.55928612026828461445e+00) (1, 3.59140903178333274412e-03) (0, 1.85455674078612808842e+00) (1, -4.30408965256683373468e-01) (0, -1.05402699018542533871e+00) (1, -1.29520340948497203470e+00) (0, -4.92762615383171675987e-01) (1, -4.66640676008289900789e-01) (0, 6.01841979183724909430e-02) (1, -5.30968404895252432674e-01) (0, 1.73719962803694594200e+00) (1, 1.10934604835578112803e-01) (0, 2.47850827067069934273e+00) (1, -3.06951600502754784472e+00) (0, 1.43233323916967303369e+00) (1, -2.08170401446321012839e-01) (0, -7.56426961010462761692e+00) (1, 5.01878591046195782210e-02) (0, -1.49966032558785195761e+03) (1, -8.01018573949593637451e+00) (0, 1.52480189939275678768e+00) (1, -8.49382423632961541804e-02) (0, -4.75209852271016530700e-01) (1, 3.34340609507676259082e-02) (0, 8.15592118682374189742e-02) (1, -6.26740801671804126372e-01) (0, -3.59629308322694962730e-01) (1, -1.55262091952614067480e+00) (0, -6.72670158506088244899e-01) (1, -3.83481560491585549144e-01) (0, -7.57567736964663041022e+00) (1, 5.62421233782146867686e-02) (0, 7.46593003505177654766e-03) (1, -5.05517478539280751271e-01) (0, 7.30032551790525674473e-02) (1, -1.79794249663930005845e+00) (0, 1.42458360514690318688e+00) (1, -1.50058301420296497097e-01) (0, -5.69038005311648720230e-01) (1, 9.79080512287573978547e-02) (0, 1.91466914704073221110e+00) (1, -4.92769830645920281498e-01) (0, -5.17502607823458138370e-01) (1, 4.15956273540657381349e-02) (0, 2.22578655380138279440e+00) (1, 3.68827703183501554030e-01) (0, -5.70008499363615306343e-01) (1, 9.51446919608375796251e-02) (0, -1.37115677739153674075e-01) (1, -3.65796065344579923728e-01) (0, 1.88136070692386159209e+00) (1, -4.61538625666822965865e-01) (0, 6.27342380895416051878e-01) (1, -2.82462302099167761327e+00) (0, -2.40750022689220466443e-01) (1, 8.23507189647048193359e-02) (0, -5.89636699443194856052e-01) (1, -4.78409905302507543201e-01) (0, 1.98712148887182959989e+00) (1, -4.83191996347326069294e-01) (0, -4.53265332181048363758e-01) (1, 7.94922253241864794349e-03) (0, -4.29606745176472792913e-01) (1, -4.52133723835414433334e-02) (0, -2.51993281481388553544e-01) (1, 3.59280791870537768995e-02) (0, -6.46396509836351218503e-01) (1, 1.62228335849408406011e-01) (0, -1.49966032558785195761e+03) (1, -8.05223135138473011807e+00) (0, -4.08685194468565549109e-01) (1, -1.33031013457190461224e+00) (0, -4.07673857425710939317e-01) (1, -4.14633682314008711334e-02) (0, 1.16938265482886705193e+00) (1, -3.01658544258823456408e-02) (0, 1.64704279977464884688e+00) (1, 1.42277391727288732293e-01) (0, -2.47142449884048764908e-01) (1, -7.08263248387057231525e-01) (0, 1.13608259204248003560e-02) (1, -5.70109523209743840333e-01) (0, -1.49966032558785195761e+03) (1, -7.98644504556819612162e+00) (0, -1.27580571459786229482e+00) (1, -2.52069665730993763830e+00) (0, -2.43596158365583487226e-01) (1, 1.85394992548305603819e-02) (0, 2.20041702807303973799e+00) (1, -7.67487693595882647379e-01) (0, 1.88838268367056771879e+00) (1, -4.61264384744686173345e-01) (0, -4.50708821373196943938e+00) (1, 1.99211765504717502884e-01) (0, -9.63454290205412955395e-01) (1, -1.30998855473672315419e+00) (0, -8.91662961298097939133e-02) (1, -3.79925795618612527349e+00) (0, -4.06217796628844829421e-01) (1, -5.24041604952893910752e-02) (0, -1.49966032558785195761e+03) (1, -8.04114405671660570363e+00) (0, 1.47190159545810406172e+00) (1, -9.30536330204728874549e-03) (0, -5.24910930668023856249e-01) (1, 1.63111970897797775581e-01) (0, -1.49966032558785195761e+03) (1, -8.08252519975072303282e+00) (0, -4.45010978612630003770e-01) (1, -4.32311360174811365464e-01) (0, -6.39693420689186470485e-02) (1, -3.85237386233951184522e+00) (0, -5.45222318215370038708e-01) (1, 9.94900047627652328597e-02) (0, -5.34191917009822714313e-01) (1, 6.40934260652449017126e-02) (0, -7.59761417022941998312e+00) (1, 6.83941057175273536828e-02) (0, -7.58363284076689136981e+00) (1, 6.12140071811947406033e-02) (0, -9.86466450312208475992e-01) (1, -1.35796930311643060385e+00) (0, 4.23182576584494249405e-02) (1, -2.70287398402493828087e-01) (0, 2.82380439746280249846e-02) (1, -3.93709546380134867150e+00) (0, 1.49446780691336833513e+00) (1, -6.38681118983295548208e-02) (0, -5.38279386170560480984e-01) (1, 9.35157245845223417113e-02) (0, -4.40352851263854649932e-01) (1, -4.30404558233748790741e-01) (0, -1.49966032558785195761e+03) (1, -8.02784531424328307025e+00) (0, -1.00796747120949237164e+00) (1, -4.60036069510952105865e-01) (0, -4.07633724562707355776e-01) (1, -8.13323047099829277151e-01) (0, 2.89220274256382393896e-02) (1, -2.82333485935729378014e-01) (0, -6.51536694478801692298e-01) (1, -3.89375372933307928314e-01) (0, 3.12039423702196181409e+01) (1, -8.98289698292697380566e+00) (0, 3.17802326272336593815e-02) (1, -3.92820084147544967834e+00) (0, -6.85300236898593095880e-01) (1, -3.68352299772772617814e-01) (0, -5.61225754458600678554e-01) (1, 1.16692761566882602375e-01) (0, -4.89233840264066688341e-01) (1, -3.85935973283963951186e-01) (0, 4.40079818820005574942e-02) (1, -4.76541451043383912367e-01) (0, -5.06641486867325574472e-01) (1, -7.66569095512960374528e-01) (0, -6.67577373743705737574e-01) (1, -3.88552375917932402150e-01) (0, -5.77826235119002884488e-01) (1, 6.10219768411080637494e-02) (0, -7.49063918023900154886e-01) (1, -3.07492073218913475330e-01) (0, 1.40134202357831716412e+00) (1, -1.88316655585523018424e-01) (0, -5.70736458768463461588e-01) (1, 1.23695093378184642341e-01) (0, -4.94898309651992218683e-01) (1, 5.29060174009251676930e-02) (0, -4.92609522827570922576e-01) (1, 5.02115540103984514531e-02) (0, -4.38592342625473730067e+00) (1, 1.17428047387835438053e-01) (0, -5.24681117162357546491e-01) (1, -1.83330224752663827059e-02) (0, -1.84936112778661426725e-01) (1, -2.89869673943237982083e-01) (0, 1.60595951041440976326e+00) (1, -2.07455557741621332557e-01) (2, -1.02922653651284553428e-02) (3, -1.00956203773377661825e-01) (4, 8.75844749645293130236e-01) (5, -1.29392759976921893628e-02) (6, 1.50000000000000000000e+03) (7, 4.38657623763385809412e-02) (8, -9.74040316063077005193e-02) (9, 1.50000000000000000000e+03) (10, 4.91257699236429701273e-01) (11, -1.68079894391114439967e-02) (12, 4.70629121909366010534e-01) (13, -3.01368677692643249788e-01) (14, 1.17307457087993921574e-01) (15, -2.53608903323675971553e-01) (16, -1.72496873777270645633e-02) (17, 4.67667388512644499610e-01) (18, -1.06436374043574688564e+00) (19, 3.72818750003774332380e-02) (20, 1.50000000000000000000e+03) (21, 2.13272759422251691197e-02) (22, -7.69994595143659310565e-02) (23, -2.32442684477111582986e-02) (24, -8.32335333048811742973e-02) (25, 9.04468939750919798115e-02) (26, -1.21114337718444368963e-02) (27, -8.65487135560568526804e-02) (28, -1.14217358679818293404e-02) (29, 3.39186610700558943687e-02) (30, 3.94087101767749137249e-02) (31, -6.40048414279693472784e-02) (32, -1.36137238718080106487e-02) (33, -1.94394437748402593158e-01) (34, 4.88208972873443003415e-01) (35, 1.70537101204219720962e-01) (36, 4.70217052965100079653e-01) (37, -5.49303932556669746723e-02) (38, 1.50000000000000000000e+03) (39, -4.43667095162267183239e-02) (40, 4.77251485486257065460e-01) (41, 4.65279311138088791377e-01) (42, -2.15385540367447475552e-01) (43, 1.50000000000000000000e+03) (44, 4.63893027916581712766e-01) (45, 4.54052203245467606019e-02) (46, -9.30909315150707560374e-04) (47, 1.50000000000000000000e+03) (48, -6.34396151499323074363e-02) (49, 4.78459794016714234921e-01) (50, -2.29740204597522167107e-02) (51, 5.03114124711529164813e-01) (52, 1.80056002327860509293e-02) (53, -6.89947498798853132290e-03) (54, 4.54540323267203782986e-01) (55, -3.77070791935462168443e-01) (56, -1.95685903862521676927e-03) (57, 5.64423783325866401661e-02) (58, -6.25665182371086953106e-02) (59, 4.83818071486224243749e-01) (60, 4.42991894344308967391e-02) (61, -2.41367555359615210131e-01) (62, -6.68934923679236903560e-02) (63, -5.13417345581581585634e-02) (64, -1.82810633387610124712e-02) (65, -1.42621702886159000719e-03) (66, 4.25473649143706059844e-03) (67, -6.11963979539472124891e-02) (68, 4.62935805736764516283e-01) (69, 1.50000000000000000000e+03) (70, 1.01454812468639832268e+00) (71, -7.70698186227197212794e-02) (72, 3.95944527424777759084e-02) (73, -1.30001237886849974057e-01) (74, 4.68974714724957886247e-01) (75, -1.53230635241832585658e-01) (76, 5.00935117844582972202e-02) (77, 4.85068443563216156189e-01) (78, -9.96550096850989768071e-03) (79, -2.78233862210412019600e-01) (80, -4.55662810109563998218e-01) (81, -1.12320641929734127938e-03) (82, 5.22336456055183789154e-03) (83, -1.20213274888177026889e-01) (84, -1.80960532173481819518e-02) (85, -9.47960308052333833206e-02) (86, -1.52731162747526127976e-01) (87, -8.45320357634430676053e-03) (88, -4.75716506344481676605e-02) (89, -5.08361589522061466107e-02) (90, 1.50000000000000000000e+03) (91, -2.72276717528754430564e-01) (92, 1.50374159136204749165e-01) (93, -6.79506755342834944944e-02) (94, -8.85865177106920032024e-01) (95, 1.50000000000000000000e+03) (96, 4.79490619753428159999e-01) (97, -1.29007051583145321283e-01) (98, -2.50674418726010983516e-01) (99, 4.68171686551987764613e-01) (100, -6.01721414224014039540e-01) (101, -1.09706398642109327624e-02) (102, 1.51523568383761270129e-01) (103, 4.32033033938961225084e-02) (104, -5.57762766834069001476e-02) (105, 4.65412320599111695163e-01) (106, 5.02198759371736691559e-02) (107, -9.08796121907040621579e-02) (108, 5.58297882898206310198e-02) (109, 1.61118855397175027300e-02) (110, 5.19536625201204305124e-02) (111, 1.50000000000000000000e+03) (112, 1.50000000000000000000e+03) (113, -7.71190274706225337153e-02) (114, -2.63403492155157847865e-01) (115, 1.57106543914870444567e-01) (116, -1.09438785843595717817e-01) (117, -1.71955390491531009967e-02) (118, -3.29833553052215552870e-02) (119, 9.65565816333493587287e-01) (120, -7.81117665504834912671e-02) (121, -4.61484812571838987072e-01) (122, 1.50000000000000000000e+03) (123, -2.37389059867131213544e-01) (124, 4.96740944150008578717e-01) (125, -1.93524868936582258860e-02) (126, 1.46661559264615798392e-01) (127, 5.31470888204878949557e-02) (128, -3.14783879729350335452e+00) (129, -2.49164684619934684306e-02) (130, -3.41252579738072839288e-02) (131, -7.69032459923142119873e-02) (132, 4.91471710946792483821e-01) (133, -2.79838850181693854502e-01) (134, 5.00408769654768659230e-01) (135, -4.23612534655829764407e-02) (136, 5.12126672038711427959e-01) (137, 4.37678919200813643098e-01) (138, -2.46273508744456054442e-01) (139, 7.93004561225905235666e-01) (140, -5.60886335053888390040e-03) (141, 4.98682220656373742518e-02) (142, -2.33170113095869713238e-01) (143, 4.79895830772341713821e-01) (144, 5.02720603376372143778e-01) (145, -1.83250575775108712206e-02) (146, -1.24082278699526524224e-02) (147, 1.50000000000000000000e+03) (148, -9.45849441078720487575e-02) (149, 4.56179053947669888025e-01) (150, -6.59589707215198356449e-02) (151, -2.54754800633689229561e-02) (152, -7.52109337926205184788e-02) (153, -2.12388991322559200770e-02) (154, 1.50000000000000000000e+03) (155, -3.80434244585437120190e-01) (156, -1.31512052980954675940e-02) (157, -2.99739691814312980700e-01) (158, -2.74290470801005770163e-01) (159, -5.55595758069908240984e-01) (160, 1.86912956205256441944e-01) (161, -4.08744227658872985587e-02) (162, 4.70119123974665709120e-01) (163, 1.50000000000000000000e+03) (164, -1.04661854516770957968e-01) (165, -2.65093327528715099611e-03) (166, 1.50000000000000000000e+03) (167, 4.57741826950293917431e-01) (168, -2.72620439338080895741e-02) (169, 4.93599923850765842648e-01) (170, 4.99924168443145078289e-01) (171, -6.32351971305075699625e-01) (172, -1.79234952039503414589e+00) (173, 1.47220413674667233161e-01) (174, -8.62192388632542936963e-04) (175, -3.25902238935205715298e-02) (176, -2.39580478520523248998e-01) (177, 5.03475042774200076678e-01) (178, 2.88763381606995314654e-02) (179, 1.50000000000000000000e+03) (180, -5.14927720980502823256e-04) (181, -8.58263069239407344613e-02) (182, -5.84242868051847771133e-03) (183, 5.55725568789460500074e-02) (184, -2.15362488475445301717e+00) (185, -3.21298450678561484106e-02) (186, 2.43762695141111276897e-02) (187, 4.79301832338844879811e-01) (188, 4.91127451577222540191e-01) (189, -1.04347973074959913392e-02) (190, -8.72636295941456446856e-02) (191, 5.49128168173140251973e-02) (192, -5.94334224945838526799e-03) (193, 7.18513695268936936067e-02) (194, -4.71837932674094781560e-02) (195, 4.58730765666707840378e-01) (196, 4.71139318707499810124e-01) (197, 4.78620953324352726987e-01) (198, -7.13107500788022874438e-01) (199, 7.73020861185407838490e-04) (200, 4.31249412100822460125e-01) (201, -2.30844058016811654044e-01) (202, -1.35452720223182665471e-01) 
